# (3, 3, 1, 16)
1.038853898644447327e-01
3.020183742046356201e-01
-3.615393936634063721e-01
-3.072434067726135254e-01
2.044078409671783447e-01
1.713355630636215210e-01
3.314486443996429443e-01
2.662729620933532715e-01
-6.469318866729736328e-01
2.956117093563079834e-01
-4.457385838031768799e-01
1.360387057065963745e-01
4.511010646820068359e-01
4.001465439796447754e-01
2.667322754859924316e-01
1.891029775142669678e-01
3.076067268848419189e-01
-2.520847506821155548e-02
-6.178200244903564453e-01
9.070829302072525024e-02
3.812350034713745117e-01
2.455967515707015991e-01
-4.305909946560859680e-02
2.761335968971252441e-01
-2.991422414779663086e-01
-3.044635802507400513e-02
-5.585815906524658203e-01
2.112327069044113159e-01
6.653700768947601318e-02
2.637308835983276367e-01
1.565295010805130005e-01
4.589726030826568604e-01
-8.808341622352600098e-02
-3.651079535484313965e-01
-4.135830700397491455e-01
3.096192181110382080e-01
4.186821281909942627e-01
2.613760232925415039e-01
-2.658060491085052490e-01
-2.446201145648956299e-01
1.840872466564178467e-01
2.558738924562931061e-02
-2.476791441440582275e-01
2.174354195594787598e-01
-5.200936794281005859e-01
2.520544826984405518e-01
3.718516826629638672e-01
2.481233179569244385e-01
4.655330479145050049e-01
3.195286393165588379e-01
2.015551775693893433e-01
-5.200655758380889893e-02
4.402349293231964111e-01
1.241081357002258301e-01
1.498760432004928589e-01
3.599082231521606445e-01
-5.604480504989624023e-01
3.943742811679840088e-01
-4.558980837464332581e-02
2.746451497077941895e-01
1.886148005723953247e-01
-5.356674268841743469e-02
1.780250817537307739e-01
-4.133974313735961914e-01
1.348395049571990967e-01
-1.479933112859725952e-01
1.401658505201339722e-01
7.907287776470184326e-02
-8.024261891841888428e-02
1.575593352317810059e-01
1.363485753536224365e-01
8.592689782381057739e-02
1.127808764576911926e-01
-2.431236207485198975e-01
3.080224096775054932e-01
2.332513481378555298e-01
4.101668298244476318e-01
2.014612406492233276e-01
2.391077280044555664e-01
5.687418207526206970e-02
1.649597585201263428e-01
-2.883349955081939697e-01
3.749878332018852234e-02
2.942465841770172119e-01
-1.245037391781806946e-01
3.276125788688659668e-01
8.694721758365631104e-02
-4.800406396389007568e-01
4.191447198390960693e-01
-3.117203712463378906e-01
2.711549997329711914e-01
1.084604486823081970e-01
1.917299330234527588e-01
3.077765107154846191e-01
-6.907279789447784424e-02
4.516295194625854492e-01
1.944881975650787354e-01
4.321155846118927002e-01
2.751422524452209473e-01
2.538118064403533936e-01
-2.602062523365020752e-01
-2.542860805988311768e-02
2.041836678981781006e-01
1.805181801319122314e-01
-1.138474717736244202e-01
2.503133416175842285e-01
4.592982828617095947e-01
1.824300587177276611e-01
-1.571939289569854736e-01
-3.884097635746002197e-01
-4.964876770973205566e-01
-4.392658472061157227e-01
1.309421062469482422e-01
6.711349636316299438e-02
3.277818560600280762e-01
1.924933642148971558e-01
-3.723709881305694580e-01
1.890590637922286987e-01
3.053149282932281494e-01
8.414933830499649048e-02
4.080934524536132812e-01
-4.244538843631744385e-01
2.477716207504272461e-01
2.461527138948440552e-01
2.853773236274719238e-01
-1.790278702974319458e-01
-4.079297780990600586e-01
-4.723922014236450195e-01
-7.618881296366453171e-03
-2.633884251117706299e-01
3.434889912605285645e-01
2.628974020481109619e-01
-2.410233318805694580e-01
1.499093174934387207e-01
3.667540550231933594e-01
-5.706254243850708008e-01
3.230868279933929443e-01
8.692929893732070923e-02
1.302140057086944580e-01
9.216922521591186523e-02
3.030057847499847412e-01
9.160400182008743286e-02
-2.886875867843627930e-01
-1.180785521864891052e-01
