# (3, 3, 16, 32)
-3.275280445814132690e-02
-3.000156879425048828e-01
-1.613344997167587280e-02
1.516158431768417358e-01
-6.934485584497451782e-02
-2.465381175279617310e-01
9.427671879529953003e-02
-6.963089108467102051e-02
-5.745314061641693115e-02
7.543540000915527344e-02
-2.772017419338226318e-01
-4.542177915573120117e-02
3.159133717417716980e-02
-3.953388333320617676e-01
4.739548265933990479e-02
-6.078707054257392883e-02
4.064335674047470093e-02
8.335640281438827515e-02
8.584360033273696899e-02
-1.267905347049236298e-02
-3.349114954471588135e-01
-8.416359126567840576e-02
-1.857842803001403809e-01
-5.177246928215026855e-01
1.194331794977188110e-01
-4.431526642292737961e-03
-2.326333671808242798e-01
-4.240376502275466919e-02
1.706655472517013550e-01
-2.018174231052398682e-01
4.830227419734001160e-02
1.006651148200035095e-01
1.001459211111068726e-01
-1.405777931213378906e-01
8.331820368766784668e-02
5.403051152825355530e-02
-6.752917170524597168e-02
-8.034756779670715332e-01
-2.273899316787719727e-01
-2.029778808355331421e-01
8.857868611812591553e-02
1.677916049957275391e-01
9.239108115434646606e-02
-1.344577074050903320e-01
-9.210270643234252930e-02
-1.968377828598022461e-01
-2.278145849704742432e-01
-9.900863468647003174e-02
2.349620498716831207e-02
1.241699829697608948e-01
-2.794425785541534424e-01
-1.902691423892974854e-01
-4.686701595783233643e-01
-1.542418301105499268e-01
-1.000392511487007141e-01
-5.109536051750183105e-01
3.104856610298156738e-02
2.391658164560794830e-02
-5.329697132110595703e-01
-8.129022899083793163e-04
4.713130593299865723e-01
-1.735132634639739990e-01
-2.378351092338562012e-01
9.804078191518783569e-02
-2.473950982093811035e-01
2.129877507686614990e-01
2.791975811123847961e-02
3.198037147521972656e-01
-2.807422876358032227e-01
-4.612942412495613098e-02
1.248355209827423096e-01
-1.040682345628738403e-01
-1.614400148391723633e-01
-9.636256098747253418e-02
-2.998364269733428955e-01
-1.366607248783111572e-01
3.523521870374679565e-02
-1.102049127221107483e-01
-1.821064949035644531e-01
-2.548193335533142090e-01
-2.513774931430816650e-01
-8.406893908977508545e-02
-5.317338946042582393e-05
-2.805311679840087891e-01
-2.182881385087966919e-01
1.516792085021734238e-02
3.235218301415443420e-02
1.809365302324295044e-01
1.089988425374031067e-01
3.091834485530853271e-01
1.426301449537277222e-01
-1.442098245024681091e-02
-2.512167394161224365e-01
-2.009486705064773560e-01
4.897992312908172607e-02
8.623111993074417114e-02
1.410142984241247177e-02
-4.078043252229690552e-02
3.108647186309099197e-03
-8.025173842906951904e-02
-1.876664231531322002e-03
5.134575814008712769e-02
2.195042669773101807e-01
-1.649930886924266815e-02
1.469019204378128052e-01
1.089214235544204712e-01
-4.847288876771926880e-02
-4.839577153325080872e-02
1.232745647430419922e-01
-2.534247934818267822e-01
1.108293607831001282e-01
-3.466058522462844849e-02
3.609738871455192566e-02
-4.317038506269454956e-02
-1.011670753359794617e-01
9.984486550092697144e-02
5.414865911006927490e-02
8.872628211975097656e-02
9.923222661018371582e-02
-1.626608669757843018e-01
3.217501938343048096e-02
-1.755322329699993134e-02
8.072664588689804077e-02
-3.072817344218492508e-03
-1.557801514863967896e-01
-8.428210020065307617e-02
-4.494053125381469727e-02
7.994272559881210327e-02
5.247410014271736145e-02
-3.051197230815887451e-01
-1.596926897764205933e-01
-9.058607742190361023e-03
2.846712470054626465e-01
-2.589780986309051514e-01
1.181841939687728882e-01
1.178106963634490967e-01
4.251933470368385315e-02
-8.354923874139785767e-02
1.497043762356042862e-02
1.188066080212593079e-01
-1.506849676370620728e-01
-3.560477197170257568e-01
1.782477600499987602e-03
-5.254604294896125793e-02
1.802285313606262207e-01
-3.453392907977104187e-02
4.183814674615859985e-02
-1.047802865505218506e-01
-2.259849756956100464e-01
-9.393297135829925537e-02
6.931602023541927338e-03
-3.986394107341766357e-01
-7.545817643404006958e-02
-7.573261111974716187e-02
-4.748374968767166138e-02
-1.173592135310173035e-01
-5.992703512310981750e-02
6.525935977697372437e-02
1.798416376113891602e-01
1.972633302211761475e-01
-4.866182059049606323e-02
-2.409633249044418335e-01
-1.447767466306686401e-01
-3.489519469439983368e-03
-5.215516313910484314e-02
-8.010461181402206421e-02
-9.200399369001388550e-02
-5.870420858263969421e-02
1.388774514198303223e-01
1.342677623033523560e-01
7.441913336515426636e-02
7.511470466852188110e-02
-1.181437354534864426e-02
-2.687472105026245117e-01
-2.852431498467922211e-02
5.152938514947891235e-02
-1.109135150909423828e-01
1.808418706059455872e-02
1.724255084991455078e-01
7.032837718725204468e-02
4.689845815300941467e-02
-1.345052421092987061e-01
6.333159655332565308e-02
-4.501121640205383301e-01
-1.618976891040802002e-01
-7.313730567693710327e-02
2.719097305089235306e-03
-2.934955619275569916e-02
-6.987015157938003540e-02
-1.199480742216110229e-01
2.317338883876800537e-01
9.088212251663208008e-02
-7.709771394729614258e-02
-1.056807115674018860e-01
3.607235476374626160e-02
-7.522821892052888870e-03
-2.203366607427597046e-01
-5.499827861785888672e-02
7.614853233098983765e-02
1.284754425287246704e-01
-2.764664404094219208e-02
2.405150607228279114e-02
-1.878625452518463135e-01
1.015523448586463928e-01
5.254771560430526733e-03
-2.100345045328140259e-01
1.093415841460227966e-01
-9.494000673294067383e-02
-6.174717098474502563e-02
1.156193017959594727e-01
1.907489597797393799e-01
4.880648478865623474e-02
-5.095081776380538940e-02
6.378082931041717529e-02
-7.813148200511932373e-02
-1.981368213891983032e-01
9.666697680950164795e-02
1.285688281059265137e-01
-2.903423085808753967e-02
-7.775499671697616577e-02
1.891405284404754639e-01
-1.778460890054702759e-01
-2.718326263129711151e-02
1.648529618978500366e-01
4.196747764945030212e-02
-3.255440592765808105e-01
9.785967320203781128e-02
-1.082421392202377319e-01
-1.074264757335186005e-02
-6.883929967880249023e-01
-1.378491371870040894e-01
-3.430458307266235352e-01
-5.845776572823524475e-02
1.457450389862060547e-01
1.049038842320442200e-01
-1.052635163068771362e-01
-2.529005408287048340e-01
-6.404367834329605103e-02
-1.378576457500457764e-01
1.311981528997421265e-01
1.143911778926849365e-01
2.890811488032341003e-02
-2.759936153888702393e-01
8.604963868856430054e-02
-3.252752423286437988e-01
-9.840863943099975586e-02
-9.455408900976181030e-02
-4.610790312290191650e-01
-8.197204023599624634e-02
-1.414411664009094238e-01
-1.713408380746841431e-01
-9.678979218006134033e-02
2.839151620864868164e-01
-2.703721523284912109e-01
-1.003535091876983643e-01
3.080589324235916138e-02
2.127005457878112793e-01
7.624784857034683228e-02
-8.596187084913253784e-02
-2.196286469697952271e-01
-2.003923803567886353e-01
1.633582413196563721e-01
3.269019126892089844e-01
-2.020253837108612061e-01
7.173041254281997681e-02
2.194408178329467773e-01
6.101339310407638550e-02
-3.119645267724990845e-02
8.997903764247894287e-02
4.444851353764533997e-02
3.187021240592002869e-02
1.613182276487350464e-01
-1.195597723126411438e-01
-5.218849051743745804e-03
-1.001626402139663696e-01
-1.981307519599795341e-03
1.450644731521606445e-01
9.119823575019836426e-02
2.423509508371353149e-01
-2.031114250421524048e-01
1.129795312881469727e-01
-1.314322054386138916e-01
2.402303963899612427e-01
-4.285076260566711426e-02
-3.129778504371643066e-01
-2.219774872064590454e-01
-7.902609556913375854e-02
1.160308625549077988e-02
1.767197549343109131e-01
-3.165089190006256104e-01
6.475432217121124268e-02
-3.606084734201431274e-02
8.957292139530181885e-02
-4.196779727935791016e-01
1.894968748092651367e-02
-1.750339865684509277e-01
-4.774708766490221024e-03
4.421190544962882996e-02
7.819408178329467773e-02
4.141652490943670273e-03
1.078235059976577759e-01
-5.929983034729957581e-02
-3.199979960918426514e-01
8.369551599025726318e-02
9.894011169672012329e-02
-6.823284085839986801e-03
2.457411214709281921e-02
1.526052802801132202e-01
-2.068933099508285522e-01
8.538532257080078125e-02
1.803388893604278564e-01
-4.528634846210479736e-01
-4.749735072255134583e-02
-1.784557849168777466e-01
2.711564600467681885e-01
3.543405607342720032e-02
3.725233972072601318e-01
-1.726811230182647705e-01
-6.285629421472549438e-02
3.311121463775634766e-02
-9.229709208011627197e-02
2.679603993892669678e-01
-6.161913275718688965e-02
2.248048484325408936e-01
-2.727459967136383057e-01
-9.711658954620361328e-02
4.953258931636810303e-01
1.706128567457199097e-02
-2.053971141576766968e-01
-1.251139193773269653e-01
-3.694965839385986328e-01
-1.919313371181488037e-01
-2.821396477520465851e-02
-2.119331853464245796e-03
-6.189663335680961609e-02
-3.050068914890289307e-01
-2.123469114303588867e-01
-1.878446191549301147e-01
1.376859843730926514e-01
1.449002232402563095e-02
-1.223628222942352295e-01
-1.158639206551015377e-03
6.128450110554695129e-02
2.637007832527160645e-01
2.565148174762725830e-01
3.527387678623199463e-01
-3.211709856986999512e-02
1.533224582672119141e-01
-3.019316196441650391e-01
-3.003425300121307373e-01
3.611498698592185974e-02
2.043301612138748169e-01
-4.008993133902549744e-02
-3.590506315231323242e-01
-2.151115238666534424e-02
4.565398022532463074e-02
-1.387687772512435913e-01
-2.318750917911529541e-01
1.042313277721405029e-01
-5.958889797329902649e-02
1.116469427943229675e-01
1.209539473056793213e-01
-1.685997396707534790e-01
1.002609729766845703e-01
-1.482254117727279663e-01
-2.688524127006530762e-01
7.808499783277511597e-02
-5.348782986402511597e-02
-2.267315611243247986e-02
-7.128766924142837524e-02
4.390267189592123032e-03
9.972108155488967896e-02
-2.186163561418652534e-03
-1.103387922048568726e-01
-1.504724621772766113e-01
-4.333430528640747070e-01
5.545976385474205017e-02
-1.050421968102455139e-01
-7.551911473274230957e-02
7.202355563640594482e-02
1.738912463188171387e-01
-1.336335837841033936e-01
4.907632619142532349e-02
1.173867136240005493e-01
-3.787743300199508667e-02
-2.692862749099731445e-01
4.621005803346633911e-02
1.044923365116119385e-01
-5.103826150298118591e-02
-6.360813230276107788e-02
-8.897965401411056519e-02
6.977074593305587769e-02
2.407656051218509674e-02
-4.160368815064430237e-02
-1.576065123081207275e-01
1.825460046529769897e-01
8.518510311841964722e-02
-1.122117117047309875e-01
-8.520843833684921265e-02
1.116891726851463318e-01
-4.619396477937698364e-02
8.839410543441772461e-02
2.790086567401885986e-01
-6.815726310014724731e-02
-6.257557123899459839e-02
-9.972582012414932251e-02
-9.338682889938354492e-02
-4.148762822151184082e-01
-6.279701739549636841e-02
8.408031612634658813e-02
-8.851647377014160156e-02
7.212422043085098267e-02
5.997135490179061890e-02
-2.712276577949523926e-02
1.112661734223365784e-01
5.376261472702026367e-02
-7.358847558498382568e-02
-4.156832993030548096e-01
1.736431010067462921e-02
-1.339049935340881348e-01
2.375531941652297974e-01
-2.168014496564865112e-01
-1.356202065944671631e-01
1.597735881805419922e-01
1.560268849134445190e-01
2.634498849511146545e-02
-2.722754143178462982e-02
1.763198673725128174e-01
-1.654371768236160278e-01
-3.380314111709594727e-01
2.142881974577903748e-02
9.356220811605453491e-02
-5.502771213650703430e-02
9.498041123151779175e-02
1.180783063173294067e-01
-2.005219645798206329e-02
-2.176728993654251099e-01
-6.085288524627685547e-02
-8.264165371656417847e-02
-2.408073246479034424e-01
-1.508328318595886230e-01
3.218810260295867920e-02
-2.167960256338119507e-01
2.718988992273807526e-02
-1.298578381538391113e-01
1.462066620588302612e-01
3.166585266590118408e-01
1.413503438234329224e-01
-1.222898066043853760e-01
-2.658169567584991455e-01
-7.697504013776779175e-02
-9.242587536573410034e-02
4.437292516231536865e-01
-4.279782176017761230e-01
2.895991690456867218e-02
6.339956074953079224e-02
-2.527898252010345459e-01
-3.479754328727722168e-01
-1.229992285370826721e-01
-1.725189201533794403e-02
-2.115455567836761475e-01
-4.166963696479797363e-01
-3.993726372718811035e-01
-1.789035499095916748e-01
1.134101822972297668e-01
-1.634391248226165771e-01
3.296873345971107483e-02
-2.584340572357177734e-01
-4.936394691467285156e-01
-2.953059077262878418e-01
-9.310989081859588623e-02
-1.925189644098281860e-01
-3.034868836402893066e-01
-1.059530652128160000e-03
-2.465338855981826782e-01
8.649282902479171753e-02
-1.128277480602264404e-01
1.691201031208038330e-01
3.669177889823913574e-01
2.274154871702194214e-02
-2.634340822696685791e-01
-2.785098552703857422e-01
-1.081392690539360046e-01
2.551681362092494965e-02
4.035882353782653809e-01
-3.268993198871612549e-01
-2.212858796119689941e-01
1.678556799888610840e-01
1.833420991897583008e-01
-2.055291384458541870e-01
2.018312662839889526e-01
3.119658231735229492e-01
-1.389596164226531982e-01
-5.150722265243530273e-01
-3.929969370365142822e-01
2.366894111037254333e-02
1.010638475418090820e-01
5.320983752608299255e-02
2.978749573230743408e-01
-8.015163987874984741e-02
-2.913527488708496094e-01
-2.454513162374496460e-01
-9.671269357204437256e-02
1.106898039579391479e-01
-6.120359301567077637e-01
3.854052424430847168e-01
-5.406263470649719238e-01
2.214609980583190918e-01
-3.827699124813079834e-01
1.494502127170562744e-01
4.850649237632751465e-01
-1.611506938934326172e-01
-2.659836784005165100e-02
-1.325650215148925781e-01
-1.357869058847427368e-01
3.225699067115783691e-02
7.024081051349639893e-02
9.565150737762451172e-02
8.630013465881347656e-02
9.829387813806533813e-02
3.561425581574440002e-02
7.601173711009323597e-04
1.420831084251403809e-01
1.015311479568481445e-01
-9.249220788478851318e-02
-1.470452249050140381e-01
1.750760376453399658e-01
1.881407648324966431e-01
1.372189354151487350e-02
-8.671356737613677979e-02
9.006260894238948822e-03
1.318767219781875610e-01
1.875226348638534546e-01
-1.222037989646196365e-02
4.118658229708671570e-02
-2.031290531158447266e-01
-9.281142055988311768e-02
-1.387987732887268066e-01
-5.571034923195838928e-02
-2.117069996893405914e-02
-1.132764369249343872e-01
2.434862963855266571e-02
1.593610793352127075e-01
6.659129261970520020e-02
-2.380638420581817627e-01
-1.290930807590484619e-01
1.341021209955215454e-01
-6.686089187860488892e-02
-2.498418837785720825e-02
-7.252614945173263550e-02
-9.401789307594299316e-02
-2.264096587896347046e-01
7.815729826688766479e-02
3.206359446048736572e-01
3.118096590042114258e-01
5.704849027097225189e-03
-3.804730474948883057e-01
-3.627862334251403809e-01
4.299590736627578735e-02
2.549462616443634033e-01
-1.498313993215560913e-01
3.050217926502227783e-01
-2.954131662845611572e-01
3.990157321095466614e-02
-8.943897671997547150e-03
-3.034146726131439209e-01
1.648709774017333984e-01
-2.756835818290710449e-01
-6.924711167812347412e-02
1.538914442062377930e-01
-3.353165388107299805e-01
-2.124119549989700317e-02
1.000064313411712646e-01
-3.890258371829986572e-01
4.515664651989936829e-02
-7.011272013187408447e-02
-7.305570691823959351e-02
2.356817424297332764e-01
1.469160169363021851e-01
3.105175197124481201e-01
-2.241373211145401001e-01
-8.277925848960876465e-02
-1.089302748441696167e-01
-8.510256558656692505e-02
-1.480971841374412179e-04
-7.905922085046768188e-02
-4.771676659584045410e-02
-2.340087480843067169e-02
3.065389990806579590e-01
2.965283095836639404e-01
-1.532756239175796509e-01
-1.080120205879211426e-01
-1.795401126146316528e-01
1.274877041578292847e-01
2.165167480707168579e-01
-1.505616158246994019e-01
-3.126297146081924438e-02
2.553118392825126648e-02
-7.881731539964675903e-02
9.023649245500564575e-02
5.176020041108131409e-02
4.080636501312255859e-01
1.146978214383125305e-01
6.529001146554946899e-02
-1.315762568265199661e-02
3.759510116651654243e-03
5.871574953198432922e-02
-5.397070199251174927e-02
-2.752087078988552094e-02
-2.011902630329132080e-01
-1.604760587215423584e-01
-2.807996794581413269e-02
4.037718847393989563e-02
1.815883070230484009e-01
-3.744686767458915710e-02
5.759159475564956665e-02
-6.209975481033325195e-02
-3.824191913008689880e-02
2.109079062938690186e-02
-2.702076174318790436e-02
-5.977101251482963562e-02
1.474910974502563477e-01
4.546902701258659363e-02
8.753587305545806885e-02
-1.457834094762802124e-01
3.595098480582237244e-02
-1.117837354540824890e-01
7.640909403562545776e-02
6.070169433951377869e-02
3.619550168514251709e-02
5.993751436471939087e-02
-1.051447317004203796e-01
-1.242612004280090332e-01
1.702125556766986847e-02
1.254717856645584106e-01
1.098093539476394653e-01
-1.694594621658325195e-01
-5.222653225064277649e-02
1.110000759363174438e-01
1.482423841953277588e-01
4.144567623734474182e-02
-3.375978767871856689e-01
-1.835890114307403564e-02
-9.222976863384246826e-02
3.223995566368103027e-01
8.176328986883163452e-02
3.091026842594146729e-01
-1.441824734210968018e-01
-6.967777758836746216e-02
-6.106293201446533203e-02
-1.073778346180915833e-01
-6.677545607089996338e-02
-8.962368220090866089e-02
-3.802596032619476318e-01
3.469836898148059845e-03
-1.980743855237960815e-01
1.587633639574050903e-01
-1.422243565320968628e-01
8.759611099958419800e-02
-5.235344171524047852e-02
-1.672707051038742065e-01
4.053751379251480103e-02
1.363371759653091431e-01
3.634138777852058411e-02
-2.138244062662124634e-01
-2.954162359237670898e-01
1.335601061582565308e-01
-7.538495212793350220e-02
-1.512146890163421631e-01
1.194727793335914612e-02
1.790914982557296753e-01
1.087880209088325500e-01
-2.081078290939331055e-01
-2.508247196674346924e-01
-9.048958122730255127e-02
-1.167103275656700134e-01
3.253458067774772644e-02
1.746324747800827026e-01
9.921078383922576904e-02
-9.431490302085876465e-02
-5.088324099779129028e-02
8.657828718423843384e-02
4.837093502283096313e-02
4.715030640363693237e-02
3.488499671220779419e-02
3.393892198801040649e-03
1.238582655787467957e-02
1.561351399868726730e-02
-3.877847269177436829e-02
1.578870974481105804e-02
9.963134676218032837e-02
1.341742724180221558e-01
5.287052318453788757e-02
-6.244770437479019165e-02
2.463570982217788696e-02
-2.288435697555541992e-01
-1.005909070372581482e-01
-2.156186103820800781e-01
1.789938658475875854e-02
-6.687183049507439137e-04
-1.476062387228012085e-01
-1.025416254997253418e-01
1.591117680072784424e-01
3.531017154455184937e-02
-6.976126134395599365e-02
-1.763360351324081421e-01
-1.619122177362442017e-01
1.102717220783233643e-01
-2.637054398655891418e-02
1.351244300603866577e-01
-7.774779945611953735e-02
4.806879535317420959e-02
2.199547588825225830e-01
7.762766629457473755e-02
3.705633804202079773e-02
2.495180368423461914e-01
8.966149389743804932e-02
1.011447906494140625e-01
1.664416342973709106e-01
1.807126849889755249e-01
-8.172495663166046143e-02
1.191942691802978516e-01
1.786135137081146240e-01
8.297696709632873535e-02
2.193938940763473511e-02
3.855683282017707825e-02
5.045194923877716064e-02
-1.971554160118103027e-01
9.681771695613861084e-02
1.161248907446861267e-01
3.076275996863842010e-02
6.731463223695755005e-02
-2.404290139675140381e-01
1.149290129542350769e-01
1.195988710969686508e-02
2.553145401179790497e-03
-6.506957858800888062e-02
-1.631589829921722412e-01
-6.848820950835943222e-03
2.357386611402034760e-02
6.918370723724365234e-02
-8.544129133224487305e-02
1.423947811126708984e-01
-4.020270705223083496e-01
3.633740916848182678e-02
2.512958645820617676e-01
1.614123582839965820e-01
-1.023586019873619080e-01
-4.256412386894226074e-01
-1.445524841547012329e-01
6.642394512891769409e-02
2.048609554767608643e-01
2.102625928819179535e-02
1.762834340333938599e-01
-3.766107559204101562e-01
-1.263538841158151627e-02
8.603625744581222534e-02
-3.204104900360107422e-01
1.598211526870727539e-01
-2.441286891698837280e-01
-8.996932208538055420e-02
-7.802294939756393433e-02
1.187538541853427887e-02
-9.778749942779541016e-02
9.953287988901138306e-02
-4.010644257068634033e-01
2.430569231510162354e-01
5.445782095193862915e-02
4.382683709263801575e-02
-7.432942092418670654e-02
-1.233936324715614319e-01
1.130467206239700317e-01
-1.083986759185791016e-01
-2.354123396798968315e-03
-2.933788485825061798e-02
-1.755838543176651001e-01
-2.837515473365783691e-01
-1.646471470594406128e-01
1.111733093857765198e-01
-1.291957795619964600e-01
1.656614542007446289e-01
4.027479887008666992e-02
1.580254733562469482e-02
-8.444984443485736847e-03
-2.373598068952560425e-01
-1.020036870613694191e-04
-3.634658157825469971e-01
-3.700713440775871277e-02
1.837034225463867188e-01
8.584843575954437256e-02
2.601375579833984375e-01
-2.493895590305328369e-01
-1.578223891556262970e-02
-3.708375394344329834e-01
4.559656083583831787e-01
1.764515042304992676e-01
1.288765817880630493e-01
-9.424015879631042480e-03
8.062265068292617798e-02
2.251500338315963745e-01
2.198320180177688599e-01
-2.507752776145935059e-01
1.177318394184112549e-01
1.087055131793022156e-01
6.629270315170288086e-02
-1.251026242971420288e-01
-9.225671528838574886e-04
-2.819257080554962158e-01
-8.168861269950866699e-02
-2.884471602737903595e-02
2.865233123302459717e-01
-5.999084562063217163e-02
-2.460411041975021362e-01
-2.644531130790710449e-01
-4.907061904668807983e-02
2.261477261781692505e-01
1.158220469951629639e-01
2.170119434595108032e-01
-2.470872849225997925e-01
1.582787483930587769e-01
7.099451869726181030e-02
-7.001305371522903442e-02
1.975465416908264160e-01
-2.095083743333816528e-01
-7.970426976680755615e-02
-1.751143932342529297e-01
2.215652614831924438e-01
1.108096092939376831e-01
1.685298979282379150e-01
-2.966835796833038330e-01
2.641036212444305420e-01
6.022716313600540161e-02
3.805413842201232910e-02
6.397745758295059204e-02
1.073981523513793945e-01
3.048056960105895996e-01
-2.852468192577362061e-01
-4.040204733610153198e-02
1.120141074061393738e-01
-8.748960494995117188e-02
-2.549721598625183105e-01
-2.398102283477783203e-01
-3.566898405551910400e-01
-1.056409906595945358e-02
1.984306573867797852e-01
2.837963402271270752e-01
-1.575729250907897949e-01
-1.842399537563323975e-01
-1.432403922080993652e-01
-5.816206708550453186e-02
1.209083274006843567e-01
-8.257644623517990112e-02
-1.471893191337585449e-01
4.025547578930854797e-02
9.886091947555541992e-02
-2.810040488839149475e-02
1.720523536205291748e-01
1.941735744476318359e-01
2.712950706481933594e-01
2.027163952589035034e-01
-1.400104910135269165e-01
-1.520045101642608643e-01
1.192421391606330872e-01
-2.002869732677936554e-02
-7.231865823268890381e-02
-2.701049745082855225e-01
-1.091783493757247925e-01
-9.273507446050643921e-02
-8.624882996082305908e-02
9.393414855003356934e-02
2.892870828509330750e-02
-5.474064499139785767e-02
5.633193999528884888e-02
8.550235070288181305e-03
3.843324631452560425e-02
5.992164835333824158e-02
4.035835713148117065e-02
-7.999719679355621338e-02
1.203101500868797302e-01
2.761812694370746613e-02
-1.610164344310760498e-01
4.647014290094375610e-02
5.168657004833221436e-02
-5.248691886663436890e-02
2.010941952466964722e-01
5.690680816769599915e-02
8.909539878368377686e-02
-3.318594098091125488e-01
-6.058504432439804077e-02
-8.560704439878463745e-02
1.412449181079864502e-01
1.199924871325492859e-01
-3.071548342704772949e-01
7.225935906171798706e-02
1.711514890193939209e-01
2.335066348314285278e-01
-2.311134152114391327e-02
-2.049754709005355835e-01
-1.054068654775619507e-01
9.821020066738128662e-02
5.130216106772422791e-02
-9.574516676366329193e-03
-1.582554727792739868e-01
9.582464396953582764e-02
1.567179411649703979e-01
7.779482007026672363e-02
1.186769306659698486e-01
1.081182509660720825e-01
9.204181283712387085e-02
4.145379352848976851e-04
1.335021108388900757e-01
1.206387728452682495e-01
1.339320689439773560e-01
-3.333665803074836731e-02
1.262827366590499878e-01
6.979406625032424927e-02
8.356394618749618530e-02
-1.091805025935173035e-01
3.418691083788871765e-02
-2.418568432331085205e-01
3.700967645272612572e-03
2.078452520072460175e-02
-1.633736789226531982e-01
8.504100842401385307e-04
-2.060360312461853027e-01
-4.538220539689064026e-02
1.074219122529029846e-01
6.677821278572082520e-02
-9.377837181091308594e-02
-2.772180438041687012e-01
-2.356458455324172974e-01
-2.620389452204108238e-03
2.603140473365783691e-01
-7.169526070356369019e-02
9.910947084426879883e-02
1.201752051711082458e-01
1.641745567321777344e-01
-3.919723629951477051e-02
4.682594537734985352e-02
1.253492664545774460e-02
-1.839193142950534821e-02
-2.845619916915893555e-01
1.319326013326644897e-01
9.918181225657463074e-03
1.531186252832412720e-01
-1.109652519226074219e-01
1.349727362394332886e-01
3.783952072262763977e-02
2.036455646157264709e-02
2.379925176501274109e-02
-1.516839675605297089e-02
1.440448500216007233e-02
-1.996422111988067627e-01
-1.438897699117660522e-01
-4.214324429631233215e-02
-3.456518426537513733e-02
-3.224761188030242920e-01
-9.192299842834472656e-02
2.534382231533527374e-02
1.515101641416549683e-01
1.684668473899364471e-02
-1.616053134202957153e-01
-3.269044682383537292e-03
-1.503592077642679214e-02
3.573748767375946045e-01
-3.220222294330596924e-01
1.420955508947372437e-01
4.689468769356608391e-04
-2.849500775337219238e-01
-2.008213847875595093e-01
-2.197083234786987305e-01
-5.576622113585472107e-02
-2.711126208305358887e-02
-5.728467106819152832e-01
-2.299261391162872314e-01
-2.576211094856262207e-01
9.626578539609909058e-02
-3.436287343502044678e-01
7.075482606887817383e-02
-3.450662791728973389e-01
-5.010305643081665039e-01
-2.337478101253509521e-01
-1.029709056019783020e-01
1.665348410606384277e-01
-2.441708892583847046e-01
-1.249303519725799561e-01
-3.972293436527252197e-02
4.012009501457214355e-02
-4.940556585788726807e-01
1.663116365671157837e-02
3.279445171356201172e-01
6.484469771385192871e-02
-3.709160089492797852e-01
6.091957539319992065e-02
6.161457672715187073e-02
-1.088693737983703613e-01
4.513832330703735352e-01
-3.935027420520782471e-01
-9.168621152639389038e-02
1.892514824867248535e-01
8.640934526920318604e-02
-2.774170637130737305e-01
-5.035445094108581543e-02
2.406523227691650391e-01
-2.016499042510986328e-01
-7.664259076118469238e-01
-2.296032756567001343e-01
-2.185538262128829956e-01
2.192273885011672974e-01
-2.758941650390625000e-01
2.303470224142074585e-01
-1.715438216924667358e-01
-4.298633933067321777e-01
-5.726665258407592773e-01
-1.353573054075241089e-01
5.427059531211853027e-01
-5.096040964126586914e-01
1.733042001724243164e-01
-5.920456051826477051e-01
3.483259305357933044e-02
-3.721468448638916016e-01
-1.519655585289001465e-01
7.720668613910675049e-02
-5.315767973661422729e-02
-1.720028072595596313e-01
-3.428628742694854736e-01
-2.074722945690155029e-01
1.030430495738983154e-01
4.873197525739669800e-02
8.697894215583801270e-02
5.129472911357879639e-02
1.412281990051269531e-01
-9.516465663909912109e-02
-1.878992915153503418e-01
-9.538721293210983276e-03
1.954281926155090332e-01
8.140462636947631836e-02
1.675499975681304932e-02
1.190948858857154846e-01
-5.299865081906318665e-02
-6.051841378211975098e-02
-5.745374597609043121e-03
1.481479406356811523e-01
5.826979130506515503e-02
1.881617456674575806e-01
1.129519864916801453e-01
1.120840385556221008e-01
-1.369933634996414185e-01
-1.783117949962615967e-01
-7.354227453470230103e-02
1.533530950546264648e-01
1.022236198186874390e-01
-2.382119558751583099e-02
1.331537514925003052e-01
-1.585219055414199829e-02
9.579785913228988647e-02
-2.601875364780426025e-01
1.721524447202682495e-01
5.203530564904212952e-02
-3.526342809200286865e-01
1.645163893699645996e-01
4.815867543220520020e-02
-7.759372144937515259e-02
6.768231978639960289e-04
3.279740512371063232e-01
9.414470195770263672e-02
4.561410248279571533e-01
-3.918893635272979736e-02
-4.580884873867034912e-01
-1.480530351400375366e-01
-8.560301363468170166e-02
2.384302914142608643e-01
-6.048112735152244568e-02
2.416461706161499023e-02
-1.505511850118637085e-01
1.624111831188201904e-01
1.201225072145462036e-01
-2.912060618400573730e-01
1.024226248264312744e-01
-1.688855588436126709e-01
-7.373876124620437622e-02
-4.971942678093910217e-02
-4.026453569531440735e-02
-1.437398642301559448e-01
-1.588932424783706665e-01
-5.780668579973280430e-04
-4.947991296648979187e-02
-3.540441393852233887e-02
2.756913900375366211e-01
-1.483176499605178833e-01
-3.036153018474578857e-01
1.434535235166549683e-01
-3.673628270626068115e-01
-2.876370847225189209e-01
-2.811253070831298828e-01
6.253597885370254517e-02
1.570641100406646729e-01
-1.388243436813354492e-01
-1.904883831739425659e-01
1.102709993720054626e-01
4.105116426944732666e-01
1.719507724046707153e-01
-2.729721665382385254e-01
-1.774714142084121704e-01
1.611285060644149780e-01
-1.053929030895233154e-01
2.212769389152526855e-01
-2.071017771959304810e-01
-1.274815648794174194e-01
3.755997866392135620e-02
-2.394840717315673828e-01
-2.442476302385330200e-01
7.628677785396575928e-02
2.068397104740142822e-01
-2.213661670684814453e-01
2.757794857025146484e-01
1.082392781972885132e-01
-1.106464490294456482e-01
-2.504700422286987305e-01
-1.085833013057708740e-01
-9.783995896577835083e-02
-3.488162755966186523e-01
-7.982597500085830688e-02
8.532215654850006104e-02
6.785084027796983719e-03
1.053424328565597534e-01
-7.710864394903182983e-02
7.649898529052734375e-02
-1.198264658451080322e-01
-2.192384898662567139e-01
-2.308969497680664062e-01
2.147542685270309448e-02
1.338915526866912842e-01
1.467271745204925537e-01
1.030587032437324524e-01
-1.308536808937788010e-02
7.532423734664916992e-02
-2.007192224264144897e-01
-5.619031563401222229e-02
-1.038637086749076843e-01
-1.218855679035186768e-01
6.929715722799301147e-02
-1.050706282258033752e-01
-2.984433174133300781e-01
-2.141761779785156250e-01
-1.227658540010452271e-01
1.341016143560409546e-01
2.150375396013259888e-01
1.769217550754547119e-01
1.621900498867034912e-01
-1.528694331645965576e-01
1.278883367776870728e-01
-8.522585779428482056e-02
-1.692407131195068359e-01
1.655150949954986572e-01
1.494823675602674484e-02
1.493464410305023193e-01
1.755534559488296509e-01
1.650644838809967041e-01
-2.254476398229598999e-01
-7.636737078428268433e-02
-2.880607843399047852e-01
-1.043405458331108093e-01
9.431237354874610901e-03
-7.107030600309371948e-02
3.761821612715721130e-02
3.998048231005668640e-02
-7.497246563434600830e-02
-1.663794070482254028e-01
1.056315079331398010e-01
-1.096783876419067383e-01
-3.507711691781878471e-03
-9.468239545822143555e-02
-1.697154343128204346e-02
-2.408190444111824036e-02
1.674922257661819458e-01
-3.557036817073822021e-01
-4.567129015922546387e-01
2.218944281339645386e-01
8.841545134782791138e-02
-4.223112463951110840e-01
-1.680483222007751465e-01
3.441102504730224609e-01
1.656908690929412842e-01
-1.690812855958938599e-01
-3.326677978038787842e-01
-1.749313473701477051e-01
6.381502747535705566e-02
-9.813363850116729736e-02
8.447257429361343384e-02
-1.775524616241455078e-01
1.563170105218887329e-01
-1.589379459619522095e-01
-1.289847344160079956e-01
-1.927609145641326904e-01
-3.955560922622680664e-02
-3.094492293894290924e-02
-3.720224648714065552e-02
8.743462711572647095e-02
-5.649037193506956100e-03
-1.095577776432037354e-01
-1.332096457481384277e-01
1.585776731371879578e-02
3.871862962841987610e-02
-1.562931835651397705e-01
1.273816525936126709e-01
-1.965280622243881226e-01
-1.102915033698081970e-01
-3.433088958263397217e-01
-3.137703835964202881e-01
-1.195311099290847778e-01
7.344623655080795288e-02
1.524104326963424683e-01
2.384241670370101929e-01
-9.313952922821044922e-02
8.486273884773254395e-02
1.148689314723014832e-01
-3.278875350952148438e-01
-2.409072965383529663e-01
1.986163668334484100e-02
-5.402494594454765320e-02
-1.530124805867671967e-02
7.816190272569656372e-02
1.760133057832717896e-01
7.481042295694351196e-02
-1.648101806640625000e-01
-4.440569132566452026e-02
2.231909483671188354e-01
3.091710433363914490e-02
-7.412582635879516602e-02
-9.167153388261795044e-02
-2.006844282150268555e-01
-2.597411908209323883e-02
-2.498451024293899536e-01
1.948661953210830688e-01
-5.386071652173995972e-02
-2.470584772527217865e-02
-4.267787560820579529e-02
-1.901087015867233276e-01
-2.445149570703506470e-01
-1.425753235816955566e-01
-9.317701309919357300e-02
-8.989942818880081177e-02
-7.342147640883922577e-03
1.214112043380737305e-01
8.459649980068206787e-02
-1.347554922103881836e-01
2.396201901137828827e-02
-2.743901908397674561e-01
-2.138278335332870483e-01
-8.867212384939193726e-02
-1.702998578548431396e-01
1.948569267988204956e-01
3.201687932014465332e-01
6.943515688180923462e-02
5.102936923503875732e-02
4.908047243952751160e-02
7.154538482427597046e-02
2.378585785627365112e-01
-2.193686366081237793e-01
-4.461555778980255127e-01
1.232441961765289307e-01
-5.074097588658332825e-02
1.409343928098678589e-01
-1.851276457309722900e-01
3.087689692620187998e-04
-3.758298754692077637e-01
3.456187844276428223e-01
3.587996065616607666e-01
-1.579650938510894775e-01
1.818555742502212524e-01
-1.979931145906448364e-01
-2.230846881866455078e-01
-2.673421502113342285e-01
1.060101166367530823e-01
-8.842728286981582642e-02
-2.756304144859313965e-01
-1.331662535667419434e-01
2.275098413228988647e-01
3.515762388706207275e-01
8.197654783725738525e-02
-2.681234478950500488e-01
-1.037097349762916565e-01
3.511298596858978271e-01
-2.526580989360809326e-01
-7.651175558567047119e-02
-2.496817708015441895e-01
-1.504589468240737915e-01
-4.543234109878540039e-01
-3.050267994403839111e-01
-2.426297366619110107e-01
-1.957857608795166016e-01
1.041236892342567444e-01
2.950289249420166016e-01
-3.788921236991882324e-01
-2.535619139671325684e-01
7.168104499578475952e-02
-7.345762103796005249e-02
-3.876213431358337402e-01
-1.328180581331253052e-01
-1.366457343101501465e-01
-7.558624260127544403e-03
-1.560645103454589844e-01
-2.368974685668945312e-01
-1.177038997411727905e-01
-1.582740247249603271e-01
5.328020453453063965e-02
1.782395541667938232e-01
2.213337719440460205e-01
1.043949425220489502e-01
-3.811180219054222107e-02
1.237954869866371155e-01
-3.413634374737739563e-02
-1.928077340126037598e-01
-5.523729138076305389e-03
-6.211892142891883850e-02
2.018889784812927246e-01
1.978568732738494873e-01
6.726515293121337891e-02
-2.983956038951873779e-01
3.441984951496124268e-01
-1.746866106986999512e-02
4.416895806789398193e-01
-2.058006264269351959e-02
-3.207968175411224365e-01
-1.287009119987487793e-01
-4.812960978597402573e-03
1.406704336404800415e-01
2.056922465562820435e-01
2.320396751165390015e-01
-3.239519596099853516e-01
2.986113429069519043e-01
4.435027018189430237e-02
-9.698622673749923706e-02
1.596897542476654053e-01
-3.576144576072692871e-01
5.270258709788322449e-02
-2.088177204132080078e-01
1.815876066684722900e-01
1.502091288566589355e-01
-2.446818351745605469e-01
-1.164643913507461548e-01
2.667053341865539551e-01
2.269584685564041138e-01
1.008071452379226685e-01
-2.200540751218795776e-01
-1.414443254470825195e-01
4.540397524833679199e-01
-1.565359681844711304e-01
-1.584608107805252075e-01
-2.019416540861129761e-01
8.361496962606906891e-03
1.027350351214408875e-01
-2.943293452262878418e-01
-2.191862016916275024e-01
1.896758079528808594e-01
4.588181972503662109e-01
2.157417535781860352e-01
-1.429258435964584351e-01
-2.081421017646789551e-01
-1.663406752049922943e-02
2.350928634405136108e-02
1.404350250959396362e-01
-1.548923701047897339e-01
-2.562102675437927246e-01
2.634657025337219238e-01
-2.397079318761825562e-01
-4.827086031436920166e-01
1.936991363763809204e-01
3.182940483093261719e-01
1.274121254682540894e-01
3.400378227233886719e-01
1.777747571468353271e-01
3.705388680100440979e-02
-3.284662663936614990e-01
-8.209201693534851074e-02
-1.577924489974975586e-01
-2.837487757205963135e-01
-2.251468449831008911e-01
-2.253603003919124603e-02
-8.801874518394470215e-02
8.420357108116149902e-02
-1.498562842607498169e-01
7.045885175466537476e-02
-1.008021384477615356e-01
-1.021573841571807861e-01
2.913746424019336700e-02
1.936068572103977203e-02
1.318947672843933105e-01
2.476004324853420258e-02
8.124439418315887451e-02
-1.344725340604782104e-01
-1.113341972231864929e-01
-1.894823014736175537e-01
1.417163014411926270e-02
3.628120198845863342e-02
6.163232773542404175e-02
2.509625442326068878e-02
-8.793365210294723511e-02
-1.532765477895736694e-01
-1.759064048528671265e-01
-1.563791334629058838e-01
8.031545579433441162e-02
1.971905380487442017e-01
-3.847917541861534119e-03
3.214320540428161621e-02
9.080146253108978271e-02
1.266773045063018799e-02
4.964605718851089478e-02
-3.840664327144622803e-01
-2.200528830289840698e-01
9.845128655433654785e-02
-9.147063829004764557e-03
5.674634128808975220e-02
-6.208820734173059464e-03
2.226279973983764648e-01
8.615541458129882812e-02
-1.723037809133529663e-01
-9.798064082860946655e-02
2.127429693937301636e-01
1.485660858452320099e-02
-6.920219957828521729e-02
-2.942989813163876534e-03
-2.005535513162612915e-01
4.702961817383766174e-02
-2.943495810031890869e-01
1.441502422094345093e-01
-1.066985800862312317e-01
-1.525237411260604858e-01
1.202993541955947876e-01
2.044074004516005516e-03
-1.375422924757003784e-01
-1.734495013952255249e-01
-2.169161140918731689e-01
-1.310867071151733398e-01
1.810902804136276245e-01
-4.717741534113883972e-02
1.415427327156066895e-01
-8.339418470859527588e-02
-5.543050169944763184e-02
-1.639862805604934692e-01
-2.553159892559051514e-01
-2.675857581198215485e-02
-1.424843966960906982e-01
1.094800755381584167e-01
-5.907027050852775574e-02
-9.949606657028198242e-02
1.224679201841354370e-01
-3.572214394807815552e-02
-1.120241880416870117e-01
-1.496962457895278931e-01
4.042002186179161072e-02
-3.862011060118675232e-02
-7.528371363878250122e-02
1.382016092538833618e-01
-4.247782006859779358e-02
-1.895870417356491089e-01
-1.214371770620346069e-01
1.608517616987228394e-01
-3.681614762172102928e-03
-1.542053185403347015e-02
-9.432413429021835327e-02
-3.998890146613121033e-02
2.769444286823272705e-01
-4.435710310935974121e-01
-4.447383582592010498e-01
-2.668295055627822876e-02
1.052842363715171814e-01
-6.327757984399795532e-02
9.780935943126678467e-02
6.037637218832969666e-02
5.485188215970993042e-03
-2.906231284141540527e-01
-8.007624000310897827e-02
1.939799636602401733e-01
1.156123280525207520e-01
2.529813349246978760e-01
-2.547650597989559174e-02
4.800995066761970520e-02
-3.753359913825988770e-01
-3.015767335891723633e-01
-2.411854863166809082e-01
-1.676925420761108398e-01
1.265209261327981949e-02
-2.066174894571304321e-01
-9.527164511382579803e-03
2.051410824060440063e-02
-1.363100111484527588e-01
-1.580793112516403198e-01
1.057678014039993286e-01
-9.561635553836822510e-02
-1.494554728269577026e-01
-1.572943329811096191e-01
-2.575740814208984375e-01
4.152730572968721390e-03
5.967463254928588867e-01
-6.899633407592773438e-01
-3.582117259502410889e-01
2.545896172523498535e-01
1.208704113960266113e-01
-5.739787220954895020e-01
-3.027119636535644531e-01
2.991351783275604248e-01
8.754665404558181763e-02
-2.292395979166030884e-01
2.468475848436355591e-01
3.081771731376647949e-01
-2.836338877677917480e-01
2.633294165134429932e-01
-3.625498414039611816e-01
3.552134335041046143e-02
8.721598237752914429e-02
-7.850360125303268433e-02
-3.177584409713745117e-01
-7.207512855529785156e-02
3.794273436069488525e-01
-4.307726621627807617e-01
-4.299150407314300537e-01
1.094466894865036011e-01
-1.829268336296081543e-01
-2.176612913608551025e-01
1.379702538251876831e-01
3.992662429809570312e-01
-1.384024918079376221e-01
-5.554149150848388672e-01
-6.322805285453796387e-01
-3.330738842487335205e-01
5.464251041412353516e-01
-5.501419901847839355e-01
-2.766889631748199463e-01
-6.229780614376068115e-02
3.024732507765293121e-02
-6.296654343605041504e-01
-3.294680118560791016e-01
1.005342006683349609e-01
-2.929077669978141785e-02
1.546116620302200317e-01
-1.542371930554509163e-03
1.007267907261848450e-01
-2.143832854926586151e-02
-5.878170207142829895e-02
-4.260636493563652039e-02
1.024352014064788818e-01
-2.209411859512329102e-01
-1.734110116958618164e-01
1.162486374378204346e-01
-3.619014620780944824e-01
-1.318581551313400269e-01
1.462941616773605347e-01
-2.051363140344619751e-01
1.108939051628112793e-01
-9.866271167993545532e-02
-5.522378906607627869e-02
-8.191265165805816650e-02
-1.393288075923919678e-01
-1.491380631923675537e-01
-1.595564633607864380e-01
7.224386092275381088e-03
2.211304195225238800e-02
1.691473424434661865e-01
9.972286969423294067e-02
6.583497673273086548e-02
-8.750061690807342529e-02
-2.704421877861022949e-01
2.041637003421783447e-01
-2.183030545711517334e-01
-2.994219958782196045e-01
6.515438109636306763e-02
-6.128779798746109009e-02
-2.441952563822269440e-02
-7.511197123676538467e-03
-2.960377335548400879e-01
-2.511670067906379700e-02
-1.572962254285812378e-01
-8.455123007297515869e-02
-3.904269635677337646e-01
-4.947714507579803467e-02
7.366451621055603027e-02
3.954436257481575012e-02
-2.384400665760040283e-01
-7.943415641784667969e-02
-3.370361626148223877e-01
5.446239560842514038e-02
-1.021751575171947479e-02
-9.426926076412200928e-02
-7.410641014575958252e-02
-3.417574465274810791e-01
1.368891894817352295e-01
-4.737895429134368896e-01
1.254921853542327881e-01
-6.530543789267539978e-03
-1.225316897034645081e-01
-2.252415008842945099e-02
-2.375459969043731689e-01
-1.727680116891860962e-01
-3.966839313507080078e-01
2.797805666923522949e-01
-5.570615530014038086e-01
-5.525345206260681152e-01
-4.687539860606193542e-02
2.125818729400634766e-01
1.633977442979812622e-01
6.781386584043502808e-02
-2.206076681613922119e-01
8.333896100521087646e-02
5.978194251656532288e-02
-1.461870670318603516e-01
-5.613437667489051819e-02
-4.284574389457702637e-01
-1.640650629997253418e-01
-2.880504727363586426e-01
-3.644055724143981934e-01
2.061094939708709717e-01
5.692526325583457947e-02
-4.895468354225158691e-01
-2.294460237026214600e-01
-9.805863350629806519e-02
-4.139765202999114990e-01
-2.585935294628143311e-01
-3.794576227664947510e-01
-2.656909525394439697e-01
-1.131736710667610168e-01
3.832333907485008240e-02
2.806710600852966309e-01
1.949276179075241089e-01
1.584570556879043579e-01
3.977586701512336731e-02
-2.322665899991989136e-01
-2.861081063747406006e-01
6.828781217336654663e-02
4.650584887713193893e-03
-2.644525654613971710e-02
1.319533884525299072e-01
1.150032877922058105e-01
3.380305692553520203e-02
-2.418824434280395508e-01
-2.033539116382598877e-01
1.541364639997482300e-01
-1.808619648218154907e-01
-1.629613637924194336e-01
2.425093762576580048e-02
1.009568870067596436e-01
-7.418440282344818115e-02
-4.406031966209411621e-02
1.426858305931091309e-01
7.083534449338912964e-02
-3.674238920211791992e-02
1.879924982786178589e-01
6.394331157207489014e-02
7.929374277591705322e-02
1.378454081714153290e-02
-8.537448197603225708e-02
2.052920870482921600e-02
1.242992207407951355e-01
2.318454980850219727e-01
-6.462471559643745422e-03
5.591400340199470520e-02
-7.793979346752166748e-02
1.393696516752243042e-01
-1.181809380650520325e-01
-2.285681664943695068e-01
-1.027884632349014282e-01
-2.277157306671142578e-01
-8.026656508445739746e-02
4.280664026737213135e-02
1.625229567289352417e-01
-3.066957369446754456e-02
1.058562546968460083e-01
-3.014645278453826904e-01
-7.110428810119628906e-02
1.865400224924087524e-01
-4.557091370224952698e-02
-9.650751948356628418e-03
1.556359417736530304e-02
-1.597396731376647949e-01
2.538313623517751694e-03
2.709752321243286133e-01
-2.502612769603729248e-01
-8.298310637474060059e-02
-1.781617254018783569e-01
-2.254467606544494629e-01
-5.122913792729377747e-02
1.325542777776718140e-01
-2.090594498440623283e-03
-4.100456535816192627e-01
5.991759523749351501e-02
6.537513341754674911e-03
-3.458806872367858887e-02
1.533172130584716797e-01
2.595037817955017090e-01
2.712111920118331909e-02
-7.411852944642305374e-03
2.579642534255981445e-01
-2.609754204750061035e-01
-1.086035668849945068e-01
2.512948513031005859e-01
-1.076022163033485413e-01
9.904086589813232422e-02
1.851596683263778687e-01
1.738995499908924103e-02
-2.323076725006103516e-01
1.346047595143318176e-02
1.291352231055498123e-02
-1.158593669533729553e-01
9.446640312671661377e-02
1.592580974102020264e-01
-1.323991864919662476e-01
1.064098477363586426e-01
8.538734912872314453e-02
3.318422287702560425e-02
1.025102585554122925e-01
7.519056648015975952e-02
-4.276549071073532104e-02
2.521834708750247955e-02
1.040704622864723206e-01
3.339242935180664062e-02
-8.218096196651458740e-02
4.406138882040977478e-02
-2.483170852065086365e-02
-1.010035513900220394e-03
1.287064850330352783e-01
4.861591011285781860e-02
9.212898463010787964e-02
-1.804253756999969482e-01
-8.667958527803421021e-02
1.611766219139099121e-02
-4.149236902594566345e-02
2.024553269147872925e-01
1.036237329244613647e-01
1.504635810852050781e-01
1.927921473979949951e-01
-1.115055531263351440e-01
-1.412473171949386597e-01
-1.133716180920600891e-01
6.391917169094085693e-02
-1.101374253630638123e-01
-1.349453628063201904e-01
1.087425947189331055e-01
-2.255571186542510986e-01
-2.037695348262786865e-01
1.238232031464576721e-01
-1.813586205244064331e-01
1.317928284406661987e-01
5.984437838196754456e-02
7.880631089210510254e-02
-1.258258074522018433e-01
-7.855471968650817871e-02
-1.502566039562225342e-01
-6.046201288700103760e-02
1.250588297843933105e-01
-1.181738302111625671e-01
-2.401959896087646484e-02
1.301970630884170532e-01
-5.046293511986732483e-02
7.723950594663619995e-02
-3.637032210826873779e-01
-1.722354628145694733e-02
-8.006862550973892212e-02
-4.277250468730926514e-01
1.307863742113113403e-01
-9.077824652194976807e-02
-4.789880663156509399e-02
-3.147047162055969238e-01
-1.347748935222625732e-01
-1.116706058382987976e-01
-6.576782092452049255e-03
1.008382141590118408e-01
-4.772751331329345703e-01
-2.901350855827331543e-01
1.715433448553085327e-01
-1.289972364902496338e-01
-4.436109066009521484e-01
-1.296070218086242676e-01
-2.585807144641876221e-01
7.643263041973114014e-02
1.079384759068489075e-01
-7.580893114209175110e-03
-1.600008010864257812e-01
-3.250370323657989502e-01
1.696136221289634705e-02
-4.337298572063446045e-01
4.759522154927253723e-03
1.015831381082534790e-01
-1.685947775840759277e-01
-1.460807621479034424e-01
-1.107106730341911316e-01
3.693967312574386597e-02
-2.789129018783569336e-01
4.809820950031280518e-01
-3.968526124954223633e-01
-4.512286186218261719e-01
-3.833230957388877869e-02
1.291868239641189575e-01
2.525567114353179932e-01
-2.210654020309448242e-01
-3.147095739841461182e-01
-3.643471598625183105e-01
2.435975372791290283e-01
-1.410877257585525513e-01
2.900167554616928101e-02
-1.145396456122398376e-01
3.687613606452941895e-01
1.159300804138183594e-01
6.320181488990783691e-02
4.380879923701286316e-02
2.392304539680480957e-01
-2.107706107199192047e-02
1.980758458375930786e-01
5.580162629485130310e-02
1.803273335099220276e-02
-2.074863761663436890e-01
4.940039291977882385e-02
1.280905604362487793e-01
5.011839326471090317e-03
5.789762735366821289e-01
6.194460391998291016e-02
-1.670217961072921753e-01
-2.591585516929626465e-01
1.920589506626129150e-01
-1.430891156196594238e-01
-5.351036041975021362e-02
1.314973682165145874e-01
-6.316318362951278687e-02
-2.288163751363754272e-01
-1.218105033040046692e-01
-3.420035168528556824e-02
-1.710695326328277588e-01
-3.509543836116790771e-01
3.034482710063457489e-02
-3.841907382011413574e-01
1.978290081024169922e-01
-4.211215972900390625e-01
-1.875337213277816772e-02
2.038989067077636719e-01
8.488934487104415894e-03
-2.380917370319366455e-01
4.191771894693374634e-02
6.788132339715957642e-02
-8.851259201765060425e-02
9.018507599830627441e-02
3.053478002548217773e-01
-6.395611912012100220e-02
-5.198970809578895569e-02
2.085887789726257324e-01
-5.187880992889404297e-01
1.537217386066913605e-02
-4.153249412775039673e-02
-5.856014415621757507e-02
-1.640903651714324951e-01
2.144918590784072876e-02
1.882526874542236328e-01
-3.990528881549835205e-01
3.244563341140747070e-01
-2.518834471702575684e-01
-4.409296512603759766e-01
-1.772620901465415955e-02
3.274528980255126953e-01
2.122388929128646851e-01
-1.606695950031280518e-01
-2.873668372631072998e-01
7.036940008401870728e-02
1.337680071592330933e-01
-2.900138199329376221e-01
-3.270760551095008850e-02
-3.619674146175384521e-01
-1.097409576177597046e-01
-3.481083512306213379e-01
-3.018504083156585693e-01
2.208099961280822754e-01
-2.701514586806297302e-02
-4.386127293109893799e-01
-2.778780460357666016e-01
5.351384729146957397e-02
-4.502191543579101562e-01
-1.850987672805786133e-01
-3.859545886516571045e-01
-1.186626851558685303e-01
-4.938653111457824707e-02
4.020442068576812744e-01
2.983596920967102051e-01
-7.045099046081304550e-03
2.652348577976226807e-01
2.068778723478317261e-01
-3.506447672843933105e-01
-4.217883944511413574e-01
-2.782640419900417328e-02
-6.232297793030738831e-02
-3.348117470741271973e-01
-6.035550683736801147e-02
1.589213758707046509e-01
-4.428538307547569275e-02
-8.246973156929016113e-04
-1.181031465530395508e-01
-2.916754223406314850e-02
1.434635743498802185e-02
-5.022403597831726074e-02
-8.290798217058181763e-02
1.382541507482528687e-01
-3.031481504440307617e-01
-4.618897289037704468e-02
7.897571474313735962e-02
-2.263340204954147339e-01
1.678070127964019775e-01
-5.859328061342239380e-02
-1.741268783807754517e-01
-1.716815531253814697e-01
-3.050141781568527222e-02
-6.423831731081008911e-02
-1.206661686301231384e-01
6.964296102523803711e-02
1.058048605918884277e-01
-6.078527867794036865e-02
-2.710855100303888321e-03
1.525371987372636795e-02
-7.847887277603149414e-02
-1.870741993188858032e-01
2.762376703321933746e-02
-6.991877406835556030e-02
-3.247146904468536377e-01
-1.692521385848522186e-03
1.139694154262542725e-01
-1.430529952049255371e-01
3.169649541378021240e-01
1.463815420866012573e-01
-1.524619311094284058e-01
-9.183789044618606567e-02
3.885882720351219177e-02
-2.337013185024261475e-01
-1.497856080532073975e-01
-6.200872734189033508e-02
-3.057118952274322510e-01
3.576815500855445862e-02
1.145433709025382996e-01
-6.869029253721237183e-02
-4.217113927006721497e-02
8.312802761793136597e-02
9.651260823011398315e-02
1.651740372180938721e-01
-6.434375792741775513e-02
-9.627817198634147644e-03
-2.004028260707855225e-01
1.275880783796310425e-01
-8.486472070217132568e-02
8.522377163171768188e-02
1.786317825317382812e-01
1.779628098011016846e-01
-6.171960383653640747e-02
-1.271503120660781860e-01
-9.474696964025497437e-02
-1.786703467369079590e-01
-2.206450849771499634e-01
1.139157637953758240e-01
-1.245118007063865662e-01
-1.061865463852882385e-01
1.651464998722076416e-01
1.472154855728149414e-01
-3.360546827316284180e-01
-1.131740063428878784e-01
1.400290727615356445e-01
-7.542118430137634277e-02
4.788287356495857239e-02
4.474271461367607117e-02
-2.094122618436813354e-01
-4.003018513321876526e-02
1.464339904487133026e-02
-1.126777529716491699e-01
1.458304971456527710e-01
1.503533683717250824e-03
-2.185954302549362183e-01
1.167321056127548218e-01
-6.165768019855022430e-03
5.163554474711418152e-02
-1.342593133449554443e-01
1.640439778566360474e-02
-2.048248238861560822e-02
-9.983879327774047852e-02
2.216867208480834961e-01
1.818731427192687988e-01
-9.368859976530075073e-02
7.457959651947021484e-02
7.759605348110198975e-02
-2.471450120210647583e-01
6.733182072639465332e-02
3.502948880195617676e-01
-6.781131029129028320e-02
2.623572647571563721e-01
1.974290907382965088e-01
1.371199339628219604e-01
-2.694628536701202393e-01
-3.867578804492950439e-01
2.100620716810226440e-01
-1.379221081733703613e-01
-6.870929896831512451e-02
-2.704910933971405029e-01
-3.579092919826507568e-01
-1.296883076429367065e-01
3.618142604827880859e-01
-2.842789888381958008e-01
-2.765881121158599854e-01
-4.044609069824218750e-01
-3.283658325672149658e-01
-2.540395259857177734e-01
-9.292346239089965820e-02
-1.630787253379821777e-01
-4.179842174053192139e-01
-2.206316143274307251e-01
-1.645154505968093872e-01
-2.352949045598506927e-02
2.447514384984970093e-01
3.912560641765594482e-01
-1.244723573327064514e-01
9.977866709232330322e-02
-7.415288686752319336e-02
-4.067251980304718018e-01
1.393100470304489136e-01
2.663443386554718018e-01
-1.008408144116401672e-01
-1.344378590583801270e-01
6.664384603500366211e-01
4.933034777641296387e-01
-1.583229452371597290e-01
-2.925095558166503906e-01
4.182009398937225342e-02
4.632976278662681580e-02
-7.845413638278841972e-04
-1.601697057485580444e-01
1.175167858600616455e-01
1.843312829732894897e-01
1.794771105051040649e-01
-2.317600101232528687e-01
-1.420872658491134644e-01
-1.834945082664489746e-01
-1.763640791177749634e-01
3.834120035171508789e-01
8.674708008766174316e-02
-1.946690678596496582e-02
-6.195656955242156982e-02
-3.399008512496948242e-02
-4.557273387908935547e-01
1.607722602784633636e-02
2.333413511514663696e-01
6.068947315216064453e-01
-3.550626933574676514e-01
5.749484896659851074e-01
-3.999666869640350342e-01
-3.042518794536590576e-01
2.918151915073394775e-01
3.792954385280609131e-01
-6.758703384548425674e-03
1.168266832828521729e-01
8.390486240386962891e-02
9.725014865398406982e-02
-1.300023496150970459e-01
1.139076948165893555e-01
-6.351037323474884033e-02
-6.869141757488250732e-02
1.097453460097312927e-01
5.743874236941337585e-02
-1.961284317076206207e-02
1.126173734664916992e-01
4.572341963648796082e-02
1.331655830144882202e-01
5.384092777967453003e-02
1.390713155269622803e-01
2.596307173371315002e-02
1.289571821689605713e-01
-1.193089485168457031e-01
-1.127317100763320923e-01
1.591152846813201904e-01
8.223314583301544189e-02
2.059861868619918823e-01
5.494687706232070923e-02
1.688052564859390259e-01
1.289905756711959839e-01
1.011755466461181641e-01
-2.007636241614818573e-02
-3.084035515785217285e-01
-1.071476191282272339e-01
-2.460072748363018036e-03
7.576502114534378052e-02
-2.954134643077850342e-01
-1.082725524902343750e-01
2.655036151409149170e-01
6.027015298604965210e-02
-2.684807181358337402e-01
5.988723784685134888e-02
-3.199085891246795654e-01
-5.288742184638977051e-01
-1.943486630916595459e-01
2.607639431953430176e-01
2.604042887687683105e-01
-3.260357975959777832e-01
-3.166441321372985840e-01
1.130631417036056519e-01
-3.184268251061439514e-02
3.108593821525573730e-01
-1.564151048660278320e-01
2.131040096282958984e-01
-5.384194254875183105e-01
-2.285944065079092979e-03
8.936582505702972412e-02
-3.183636963367462158e-01
1.312311589717864990e-01
-4.410400241613388062e-02
-1.485901027917861938e-01
-1.670855432748794556e-01
9.001240879297256470e-02
-2.152952253818511963e-01
-1.749507524073123932e-02
-2.085090726613998413e-01
-2.165673971176147461e-01
-1.244786158204078674e-01
2.853523790836334229e-01
8.582076430320739746e-02
1.685615628957748413e-01
1.970315575599670410e-01
6.354723591357469559e-03
-1.301082819700241089e-01
1.144585683941841125e-01
-2.233706600964069366e-02
-3.274095058441162109e-01
-9.123597294092178345e-02
-1.198934167623519897e-01
-2.528367340564727783e-01
-3.286417946219444275e-02
1.687710434198379517e-01
-5.427293181419372559e-01
-7.645028084516525269e-02
9.520595520734786987e-02
6.131768971681594849e-02
-1.515635401010513306e-01
-3.375368416309356689e-01
-2.134984284639358521e-01
-3.712580725550651550e-02
-2.625112533569335938e-01
9.134852886199951172e-02
1.668658405542373657e-01
2.818539738655090332e-01
-2.378529161214828491e-01
-1.877784430980682373e-01
-9.924836456775665283e-02
-3.121509030461311340e-02
1.998118013143539429e-01
-9.323714673519134521e-02
5.238692089915275574e-02
1.857705265283584595e-01
-6.716278940439224243e-02
5.203258711844682693e-03
3.363113850355148315e-02
1.207643002271652222e-01
7.033802568912506104e-02
6.925702840089797974e-02
4.433200880885124207e-02
-3.709933534264564514e-02
8.535688370466232300e-02
-1.074237897992134094e-01
-3.083654679358005524e-02
3.983706980943679810e-02
-5.670313537120819092e-02
9.906461834907531738e-02
8.073373138904571533e-02
-4.947218671441078186e-02
-4.532505944371223450e-02
2.268729498609900475e-03
-1.115879882127046585e-02
1.604792475700378418e-01
6.988554447889328003e-02
9.462699294090270996e-03
-3.661072626709938049e-02
-1.775881052017211914e-01
-4.189361259341239929e-02
-1.004191115498542786e-01
1.453723460435867310e-01
9.096489846706390381e-02
-2.677226662635803223e-01
-5.915513634681701660e-02
2.180434465408325195e-01
1.553655117750167847e-01
-1.775709539651870728e-01
1.221108064055442810e-01
-2.491424679756164551e-01
5.414124578237533569e-02
1.066460236907005310e-01
1.464274432510137558e-02
7.692490518093109131e-02
-8.985806256532669067e-03
-4.212853685021400452e-02
-1.451141946017742157e-02
2.215085625648498535e-01
1.584690660238265991e-01
-8.969054371118545532e-02
-1.670880019664764404e-01
-1.279893666505813599e-01
-2.613705694675445557e-01
8.451107889413833618e-02
-1.856698989868164062e-01
-1.234749555587768555e-01
1.372605860233306885e-01
3.052165210247039795e-01
-3.940665721893310547e-01
1.331343948841094971e-01
1.218585297465324402e-01
2.900884747505187988e-01
1.424911022186279297e-01
-2.844549417495727539e-01
-2.423005849123001099e-01
1.353304535150527954e-01
8.017488569021224976e-02
1.976906694471836090e-02
5.679779872298240662e-02
-6.257060170173645020e-02
4.019665345549583435e-02
-8.847498148679733276e-02
1.150394007563591003e-01
-1.107635945081710815e-01
9.128125011920928955e-02
1.284956336021423340e-01
-1.734050363302230835e-02
2.317702025175094604e-01
7.707866281270980835e-02
-1.377276238054037094e-02
2.198114097118377686e-01
2.068140171468257904e-02
7.943196594715118408e-02
-7.693108916282653809e-02
8.161530643701553345e-02
1.124121025204658508e-01
5.697203334420919418e-03
1.541503518819808960e-01
1.367472708225250244e-01
-2.439495176076889038e-02
1.499736681580543518e-02
1.366193443536758423e-01
-1.265588030219078064e-02
-9.700659662485122681e-02
5.158874671906232834e-03
-8.388280123472213745e-02
1.062251627445220947e-01
-2.196380198001861572e-01
-1.098902244120836258e-02
1.503348648548126221e-01
7.377643883228302002e-02
2.373427897691726685e-01
1.515056639909744263e-01
-1.110677644610404968e-01
1.654710806906223297e-02
-6.606956571340560913e-02
7.390335947275161743e-02
1.151668950915336609e-01
1.822890490293502808e-01
1.294874772429466248e-02
-7.321161776781082153e-02
-1.791448891162872314e-02
4.728334490209817886e-03
8.200795273296535015e-04
7.076257467269897461e-02
9.559966623783111572e-02
3.075501024723052979e-01
-7.197152078151702881e-02
1.404689699411392212e-01
1.783683896064758301e-01
-7.204128801822662354e-02
-9.113290160894393921e-02
1.741745471954345703e-01
1.027225926518440247e-01
6.750493496656417847e-02
-3.831500560045242310e-02
-1.313535720109939575e-01
1.377705857157707214e-02
-5.880917236208915710e-02
-2.128748595714569092e-01
3.073967248201370239e-02
-2.337571829557418823e-01
-1.498672962188720703e-01
-5.694831907749176025e-02
2.783574722707271576e-02
-3.445466458797454834e-01
1.556512266397476196e-01
-9.455163031816482544e-02
-4.048874974250793457e-01
-3.835910558700561523e-01
2.680805325508117676e-01
2.092200219631195068e-01
-2.637252509593963623e-01
-2.691141963005065918e-01
1.468444466590881348e-01
-6.660617887973785400e-02
2.559691667556762695e-01
-1.433466002345085144e-02
1.072141006588935852e-01
-5.067853927612304688e-01
-4.229753464460372925e-02
1.681784093379974365e-01
-2.579444050788879395e-01
3.191531300544738770e-01
-1.573739945888519287e-01
-2.029159814119338989e-01
-2.187823504209518433e-01
2.918740808963775635e-01
-7.262650132179260254e-02
3.518575802445411682e-02
-1.243232265114784241e-01
-2.751868031919002533e-02
3.850816562771797180e-02
-1.440677139908075333e-02
1.053284332156181335e-01
-3.670503497123718262e-01
1.632931828498840332e-01
-1.243782714009284973e-01
1.213083714246749878e-01
7.372172921895980835e-02
4.200343391858041286e-04
-3.885197043418884277e-01
1.125894486904144287e-01
1.660134792327880859e-01
-4.293996989727020264e-01
-9.588455408811569214e-02
1.833801567554473877e-01
-1.297820955514907837e-01
2.405160069465637207e-01
3.271441161632537842e-01
-8.398988842964172363e-02
-2.254801839590072632e-01
-1.488089654594659805e-02
9.369237720966339111e-02
9.147243946790695190e-02
2.069279998540878296e-01
1.259211823344230652e-02
-1.085519567131996155e-01
-3.745670616626739502e-01
5.896956846117973328e-02
-1.343781650066375732e-01
1.534106433391571045e-01
1.748257875442504883e-01
-6.351465731859207153e-02
4.667172208428382874e-02
-8.562867343425750732e-02
-1.293409168720245361e-01
-3.681913390755653381e-02
-4.014216735959053040e-02
-1.113565787672996521e-01
1.612348556518554688e-01
1.152795031666755676e-01
-7.130593061447143555e-02
-3.778691887855529785e-01
-8.123814128339290619e-03
4.579102694988250732e-01
-1.181232780218124390e-01
1.686991192400455475e-02
2.035489678382873535e-01
-7.258386909961700439e-02
4.309686124324798584e-01
3.276663646101951599e-02
2.056346982717514038e-01
-1.330897510051727295e-01
-6.037745252251625061e-02
2.230715453624725342e-01
-6.264222413301467896e-02
3.041270375251770020e-01
-5.700333416461944580e-02
2.276423759758472443e-02
-4.351548105478286743e-02
4.251523315906524658e-01
-6.474242359399795532e-02
1.226512640714645386e-01
-3.411886096000671387e-02
-7.182389963418245316e-03
7.310228422284126282e-03
3.611793816089630127e-01
1.448394805192947388e-01
4.633658751845359802e-02
2.730702459812164307e-01
5.525064840912818909e-02
-2.661270461976528168e-02
1.715668737888336182e-01
2.857744880020618439e-02
-5.313562750816345215e-01
-1.029221713542938232e-01
-1.624201238155364990e-01
-3.143226504325866699e-01
8.876459300518035889e-02
2.815554141998291016e-01
-4.900495111942291260e-01
-1.916213929653167725e-01
1.782677322626113892e-01
-2.306514829397201538e-01
-1.440210044384002686e-01
-4.031782150268554688e-01
-8.578161150217056274e-02
4.770011641085147858e-03
-2.998755499720573425e-02
5.739617720246315002e-02
1.977091878652572632e-01
1.392962876707315445e-02
2.833417244255542755e-02
-3.729893267154693604e-02
-7.153290510177612305e-02
4.052287712693214417e-02
6.714355200529098511e-02
-1.997705698013305664e-01
-5.605627968907356262e-02
1.041810959577560425e-02
3.465513512492179871e-02
8.812870085239410400e-02
-2.296426594257354736e-01
1.728050410747528076e-01
-1.789926141500473022e-01
-2.988211438059806824e-02
7.915192842483520508e-02
1.257785111665725708e-01
1.791846007108688354e-01
-2.345487475395202637e-02
5.914595723152160645e-02
-3.030950669199228287e-03
1.628532856702804565e-01
7.939713448286056519e-02
1.135283112525939941e-01
-2.713375352323055267e-02
-7.298038899898529053e-02
1.093145459890365601e-01
1.666790097951889038e-01
1.702384501695632935e-01
9.661209583282470703e-02
4.792556539177894592e-02
6.136142089962959290e-02
-1.792792603373527527e-02
7.574049383401870728e-02
-1.483583748340606689e-01
-1.362356841564178467e-01
1.025902554392814636e-01
-2.620422840118408203e-01
8.362230844795703888e-03
1.240080073475837708e-01
5.296675860881805420e-02
2.777107954025268555e-01
9.577967971563339233e-02
-7.607268542051315308e-02
3.046641312539577484e-02
-5.182359367609024048e-02
-4.940500855445861816e-02
1.456481665372848511e-01
4.883809387683868408e-02
1.741666793823242188e-01
-3.193315491080284119e-02
-1.134520992636680603e-01
2.225913666188716888e-02
2.313911169767379761e-02
1.894927471876144409e-01
4.344457387924194336e-02
2.508898079395294189e-01
-4.676118493080139160e-02
5.657558143138885498e-02
1.834810078144073486e-01
-6.596864014863967896e-02
-1.103753745555877686e-01
9.751048684120178223e-02
1.884784400463104248e-01
8.809149265289306641e-02
9.979466907680034637e-03
-1.198807358741760254e-01
-1.474406719207763672e-01
-2.868896583095192909e-03
-2.194073349237442017e-01
1.615023799240589142e-02
3.394550085067749023e-02
1.505835354328155518e-01
8.421643078327178955e-02
1.641734242439270020e-01
-1.385861039161682129e-01
-4.915125295519828796e-02
-1.726603955030441284e-01
-3.906828910112380981e-02
1.682887077331542969e-01
2.901428751647472382e-02
1.634734421968460083e-01
1.012622565031051636e-01
1.840357929468154907e-01
-1.900219172239303589e-02
2.271571196615695953e-02
-4.415883496403694153e-02
-1.986397951841354370e-01
8.371810615062713623e-02
7.155275344848632812e-02
-1.227467972785234451e-02
-6.195534765720367432e-02
-7.465438544750213623e-02
2.181231509894132614e-03
1.081951409578323364e-01
1.701259613037109375e-01
2.940711975097656250e-01
-9.464869648218154907e-02
2.190962582826614380e-01
-2.204038053750991821e-01
-1.521523296833038330e-01
-4.355333372950553894e-02
1.476926952600479126e-01
1.098540574312210083e-01
2.252881228923797607e-01
6.160632148385047913e-02
2.011779546737670898e-01
-1.584549397230148315e-01
-2.108326703310012817e-01
-5.711901560425758362e-02
-3.037324845790863037e-01
-1.664743423461914062e-01
-1.145344376564025879e-01
-2.082825154066085815e-01
-1.272057741880416870e-02
3.206422924995422363e-01
2.024759650230407715e-01
-1.678738743066787720e-01
-2.654121816158294678e-01
-1.134821176528930664e-01
-2.307558804750442505e-01
3.285669162869453430e-02
-3.430328667163848877e-01
-3.960312604904174805e-01
4.260156769305467606e-03
8.267133682966232300e-02
-2.761346697807312012e-01
1.297447383403778076e-01
2.385717630386352539e-01
1.055722683668136597e-01
3.293520212173461914e-01
-5.341612696647644043e-01
-4.343043565750122070e-01
2.486659586429595947e-01
2.702161669731140137e-01
6.670659780502319336e-02
4.337733387947082520e-01
5.502313375473022461e-01
2.064219266176223755e-01
-2.478186041116714478e-02
-3.118129968643188477e-01
5.153638869524002075e-02
-1.965773999691009521e-01
2.528296411037445068e-01
-2.671232521533966064e-01
3.025068640708923340e-01
8.183127641677856445e-02
2.583276629447937012e-01
-1.133798733353614807e-01
-2.996831946074962616e-02
-2.443228214979171753e-01
-2.072406858205795288e-01
2.788331806659698486e-01
-8.031750470399856567e-02
1.687424629926681519e-01
-3.206358551979064941e-01
-4.634776338934898376e-02
-2.845713496208190918e-01
3.042592108249664307e-01
2.451901286840438843e-01
5.252021551132202148e-01
-2.116486430168151855e-01
2.846198379993438721e-01
-2.793606519699096680e-01
-4.732065796852111816e-01
-1.895056515932083130e-01
1.070408746600151062e-01
6.329785287380218506e-02
-4.449570551514625549e-02
-6.520102173089981079e-02
-5.098090320825576782e-02
-1.615343540906906128e-01
7.160754501819610596e-02
-1.234403252601623535e-01
1.620537936687469482e-01
1.607744395732879639e-01
1.544773485511541367e-02
1.185234785079956055e-01
-6.017941236495971680e-02
1.257309224456548691e-03
4.538740962743759155e-02
9.815033525228500366e-02
1.346403658390045166e-01
1.635454148054122925e-01
3.706518933176994324e-02
-1.967572979629039764e-02
-2.736743539571762085e-02
8.056360483169555664e-02
1.570184975862503052e-01
-2.163977026939392090e-01
-2.026114016771316528e-01
3.646980971097946167e-02
6.264633685350418091e-02
2.242603152990341187e-02
-1.996944248676300049e-01
7.556920498609542847e-02
1.103880107402801514e-01
-4.172625243663787842e-01
-1.210214942693710327e-01
-3.238621354103088379e-01
1.914913654327392578e-01
2.494334876537322998e-01
-8.932910114526748657e-02
-2.050865590572357178e-01
2.949115037918090820e-01
-3.566422760486602783e-01
8.528660237789154053e-02
4.356652125716209412e-02
2.589393556118011475e-01
4.221327304840087891e-01
-3.182063698768615723e-01
-3.726435005664825439e-01
2.768854796886444092e-01
6.290797144174575806e-02
3.669415712356567383e-01
-3.491783887147903442e-02
4.201416373252868652e-01
-1.103482618927955627e-01
4.043865203857421875e-01
3.181896805763244629e-01
-1.533056795597076416e-01
9.904266893863677979e-02
2.456836402416229248e-01
-2.189073897898197174e-02
-6.684129685163497925e-02
1.127229779958724976e-01
-2.220414727926254272e-01
8.866401761770248413e-02
1.340361833572387695e-01
-3.618431687355041504e-01
2.187186926603317261e-01
2.683062851428985596e-01
2.684085369110107422e-01
5.599132552742958069e-02
-2.656458616256713867e-01
1.877864077687263489e-02
-3.742047250270843506e-01
1.502555906772613525e-01
-2.683869004249572754e-01
1.310400664806365967e-01
-2.114531397819519043e-01
3.584613651037216187e-02
-3.587366640567779541e-02
-1.928219795227050781e-01
-6.079766154289245605e-02
-3.372572064399719238e-01
-2.512863874435424805e-01
-7.147260010242462158e-02
1.301984488964080811e-01
-1.600799411535263062e-01
-6.007917225360870361e-02
-1.788856536149978638e-01
-2.193409055471420288e-01
-1.791131198406219482e-01
1.044740825891494751e-01
2.782788574695587158e-01
7.539790123701095581e-02
-2.449532002210617065e-01
-1.628866642713546753e-01
1.102162431925535202e-02
-1.090596988797187805e-01
2.139994353055953979e-01
-4.546368718147277832e-01
1.508258134126663208e-01
-5.126516520977020264e-02
-5.831160396337509155e-02
-2.165600424632430077e-03
-1.268522143363952637e-01
-2.474303841590881348e-01
1.621645875275135040e-02
2.005700916051864624e-01
-3.841709718108177185e-02
-3.254992663860321045e-01
-8.159189671277999878e-02
-4.767551645636558533e-02
-1.095284819602966309e-01
-1.220053657889366150e-01
-8.335854858160018921e-02
-6.855558604001998901e-02
4.254084825515747070e-02
-8.688431233167648315e-02
1.102793067693710327e-01
-4.432253912091255188e-02
-1.506092399358749390e-01
7.514003664255142212e-02
-3.552706837654113770e-01
-2.084615528583526611e-01
1.178443133831024170e-01
1.933007873594760895e-02
-1.268396675586700439e-01
-3.764476999640464783e-02
2.421815693378448486e-01
1.599639505147933960e-01
-2.918494679033756256e-02
-2.812775671482086182e-01
1.994073837995529175e-01
-3.212971091270446777e-01
-2.243544012308120728e-01
2.329631000757217407e-01
-2.982667982578277588e-01
5.724454671144485474e-02
-2.183248847723007202e-02
-2.294970899820327759e-01
-8.795160055160522461e-02
-2.828286588191986084e-02
-1.458042114973068237e-01
1.220846399664878845e-01
1.251506805419921875e-01
2.371086329221725464e-01
-2.367476373910903931e-02
-4.920269548892974854e-02
3.324776291847229004e-01
-1.806608736515045166e-01
-5.086108669638633728e-02
-2.030919045209884644e-01
-1.465966254472732544e-01
1.499827355146408081e-01
2.858552336692810059e-02
-4.275557100772857666e-01
-6.801838427782058716e-02
1.041245907545089722e-01
7.465299963951110840e-02
3.242709338665008545e-01
-6.296870857477188110e-02
1.659230887889862061e-01
-1.208371073007583618e-01
1.479944735765457153e-01
-1.706581213511526585e-03
4.907916486263275146e-02
-8.970092982053756714e-02
-1.640480756759643555e-02
-2.269044369459152222e-01
-3.779968619346618652e-02
6.311281025409698486e-02
1.783041059970855713e-01
-1.389861758798360825e-02
-3.248201906681060791e-01
-1.535671353340148926e-01
1.978217512369155884e-01
1.087845340371131897e-01
-4.896114021539688110e-02
-1.487424373626708984e-01
-1.280321180820465088e-01
7.991501688957214355e-02
-2.808485329151153564e-01
1.127026900649070740e-01
3.224257845431566238e-03
-7.732679694890975952e-02
1.026976928114891052e-01
-1.652145236730575562e-01
-3.361692130565643311e-01
4.513542354106903076e-02
3.267902880907058716e-02
-8.943009376525878906e-02
1.005910150706768036e-02
1.276296228170394897e-01
1.432382315397262573e-01
-1.707557141780853271e-01
-2.517649531364440918e-01
1.885578632354736328e-01
1.089193671941757202e-01
-7.165084779262542725e-02
-5.930839478969573975e-02
-9.080771356821060181e-02
-6.511154770851135254e-02
8.967826515436172485e-02
3.190284594893455505e-02
2.311879843473434448e-01
-2.927898988127708435e-02
6.865242123603820801e-02
2.447585612535476685e-01
1.947061717510223389e-02
-1.929239630699157715e-01
-8.512076735496520996e-02
-7.473995536565780640e-02
-6.372721493244171143e-02
1.298696249723434448e-01
1.805942207574844360e-01
4.600035399198532104e-02
7.295410148799419403e-03
-1.014707833528518677e-01
-2.029125243425369263e-01
-1.702727228403091431e-01
1.532658636569976807e-01
2.771420404314994812e-02
1.909259706735610962e-02
-1.175439953804016113e-01
1.307723224163055420e-01
1.014800220727920532e-01
-1.419822312891483307e-02
-2.261307090520858765e-01
-3.393170833587646484e-01
-1.322858184576034546e-01
1.080412566661834717e-01
9.832390397787094116e-02
-1.491419374942779541e-01
2.359109967947006226e-01
-1.640451401472091675e-01
2.571118809282779694e-02
-9.932734817266464233e-02
1.877013742923736572e-01
3.458814322948455811e-01
-5.287799835205078125e-01
-1.397407054901123047e-01
4.018206000328063965e-01
1.027761027216911316e-01
2.330065667629241943e-01
4.461289569735527039e-02
1.709013879299163818e-01
-1.426818966865539551e-01
2.055828273296356201e-01
3.199580609798431396e-01
-1.770720034837722778e-01
9.576030820608139038e-02
-1.402208209037780762e-02
-1.833209842443466187e-01
-1.639008671045303345e-01
1.204102411866188049e-01
-9.115563333034515381e-02
1.407912522554397583e-01
2.259314060211181641e-01
-2.329550832509994507e-01
5.262623429298400879e-01
-3.165898844599723816e-02
-1.471796482801437378e-01
-2.881897985935211182e-01
4.711571708321571350e-02
-1.027091369032859802e-01
-3.011424243450164795e-01
1.643215715885162354e-01
2.781213819980621338e-01
-5.654448866844177246e-01
-1.715281456708908081e-01
-1.916999667882919312e-01
-1.560395509004592896e-01
-2.735103070735931396e-01
1.944503635168075562e-01
-4.634656906127929688e-01
-1.938647478818893433e-01
1.006143391132354736e-01
-3.476421833038330078e-01
-6.750111281871795654e-02
-1.772867888212203979e-01
-2.919438779354095459e-01
-2.297434210777282715e-01
-1.267326325178146362e-01
-2.924811542034149170e-01
5.671666935086250305e-03
-2.843301594257354736e-01
-1.335063576698303223e-01
-2.007745057344436646e-01
2.882331609725952148e-01
2.240052819252014160e-01
-1.415323317050933838e-01
-7.996497303247451782e-02
-1.334973573684692383e-01
-1.062995716929435730e-01
1.536052525043487549e-01
2.062198221683502197e-01
-2.622475624084472656e-01
2.435873895883560181e-01
-2.576425075531005859e-01
-1.071752831339836121e-01
-1.661985740065574646e-02
3.701819106936454773e-02
2.702839374542236328e-01
-3.463994711637496948e-02
3.317874670028686523e-02
2.429692447185516357e-01
2.106766253709793091e-01
3.123035728931427002e-01
2.459125220775604248e-01
3.894234895706176758e-01
-2.076270431280136108e-01
3.845739364624023438e-01
-4.978913348168134689e-03
-1.238712444901466370e-01
2.235600650310516357e-01
-9.138059616088867188e-02
-2.316114604473114014e-01
1.584833860397338867e-02
1.456748247146606445e-01
1.620826721191406250e-01
7.749731838703155518e-02
2.312243431806564331e-01
-1.516241282224655151e-01
2.783336937427520752e-01
2.555218636989593506e-01
3.500011190772056580e-02
3.079253062605857849e-02
1.036939099431037903e-01
6.880764663219451904e-02
-2.319396138191223145e-01
1.528372764587402344e-01
-1.088646575808525085e-01
-6.105840951204299927e-02
-3.363115191459655762e-01
-2.187954336404800415e-01
-2.084211260080337524e-01
-5.025675892829895020e-02
1.301534622907638550e-01
-4.822961390018463135e-01
-1.612464487552642822e-01
1.417855322360992432e-01
1.414888501167297363e-01
-1.244101822376251221e-01
-2.998573482036590576e-01
-1.859833598136901855e-01
-1.193728223443031311e-01
-1.535419821739196777e-01
-1.054431721568107605e-01
2.690427899360656738e-01
5.518690124154090881e-02
-1.959188580513000488e-01
-1.443134695291519165e-01
5.377948656678199768e-02
7.459765672683715820e-02
2.819071412086486816e-01
-4.483702480792999268e-01
6.621198356151580811e-02
6.453204434365034103e-03
-4.531811550259590149e-02
8.055678009986877441e-02
-1.295664459466934204e-01
-6.905566900968551636e-02
-8.712641894817352295e-02
2.013248056173324585e-01
9.288410656154155731e-03
-2.143800258636474609e-01
8.577618747949600220e-02
1.455851346254348755e-01
8.768907934427261353e-02
4.076472832821309566e-04
-6.996447220444679260e-03
-1.504602096974849701e-02
1.166509538888931274e-01
-1.119926646351814270e-01
7.862025499343872070e-02
-3.025932982563972473e-02
-3.472731634974479675e-02
1.072026938199996948e-01
-1.524679809808731079e-01
-2.805115878582000732e-01
1.234967708587646484e-01
-1.519728004932403564e-01
-8.069831132888793945e-02
-1.175041347742080688e-01
2.417538315057754517e-01
1.778721064329147339e-01
-1.964441239833831787e-01
-3.628842905163764954e-02
1.786757409572601318e-01
1.373977363109588623e-01
-9.303575754165649414e-02
-1.050903722643852234e-01
-1.620736718177795410e-01
-6.405662745237350464e-02
1.013739034533500671e-01
1.543394178152084351e-01
3.349473178386688232e-01
-2.028965502977371216e-01
2.885972261428833008e-01
1.919934302568435669e-01
-7.113920152187347412e-02
-1.538669131696224213e-02
1.418248750269412994e-02
-1.007426530122756958e-01
-1.209169998764991760e-01
-6.994626484811306000e-03
6.426092982292175293e-02
6.949871033430099487e-02
1.303973048925399780e-01
9.894083440303802490e-02
-3.221018984913825989e-02
-7.133366167545318604e-02
1.623962819576263428e-01
5.066106095910072327e-02
-6.576898694038391113e-02
8.838986395858228207e-04
1.222585588693618774e-01
-5.452558398246765137e-02
-2.528077661991119385e-01
-2.549931406974792480e-01
-2.039299719035625458e-02
-3.497098013758659363e-02
-1.811617463827133179e-01
1.035969778895378113e-01
-2.743203639984130859e-01
-1.529424190521240234e-01
-1.518507301807403564e-01
1.802982687950134277e-01
8.540755510330200195e-02
-2.588404119014739990e-01
-5.280325189232826233e-02
2.057851403951644897e-01
1.520821452140808105e-01
-1.424731872975826263e-02
-9.221427142620086670e-02
-9.756366163492202759e-02
6.324209272861480713e-02
-1.777508854866027832e-01
1.650013178586959839e-01
3.376646339893341064e-02
-1.290073851123452187e-03
4.320617765188217163e-02
-1.479266881942749023e-01
-3.976727724075317383e-01
1.455277055501937866e-01
9.804547578096389771e-02
-5.923611577600240707e-03
8.159051835536956787e-02
2.616710402071475983e-02
-8.200495690107345581e-02
-2.561567425727844238e-01
-2.026632875204086304e-01
4.437772035598754883e-01
-2.834939062595367432e-01
-2.803801298141479492e-01
3.127335608005523682e-01
-1.493249982595443726e-01
-1.375843584537506104e-01
-1.771056056022644043e-01
-5.866563320159912109e-01
-1.819427311420440674e-01
-3.226619064807891846e-01
-3.340437412261962891e-01
-7.837770134210586548e-02
2.161305695772171021e-01
2.678596973419189453e-01
6.499620527029037476e-02
-3.960039317607879639e-01
2.737670242786407471e-01
-3.949900269508361816e-01
-2.430724501609802246e-01
-4.909166097640991211e-01
-4.004760980606079102e-01
-4.349732771515846252e-02
-2.128820717334747314e-01
-5.134838819503784180e-01
1.433895528316497803e-01
9.935535490512847900e-02
-8.176584541797637939e-02
5.055329799652099609e-01
-2.307419627904891968e-01
-1.368473768234252930e-01
-1.983596384525299072e-01
-5.494673270732164383e-03
1.604529619216918945e-01
1.787059158086776733e-01
-9.293448179960250854e-02
-6.681133061647415161e-02
-3.023630976676940918e-01
-4.057556092739105225e-01
-2.960965335369110107e-01
-9.119347482919692993e-02
3.190536201000213623e-01
-4.582456350326538086e-01
2.842442989349365234e-01
2.341123223304748535e-01
2.058386951684951782e-01
-1.212615147233009338e-01
1.075880154967308044e-01
-6.301706433296203613e-01
-6.669556256383657455e-03
-7.455680170096457005e-04
3.407833725214004517e-02
1.087792068719863892e-01
-5.960966944694519043e-01
-2.004440128803253174e-02
-3.287712335586547852e-01
1.181685552000999451e-01
2.563754916191101074e-01
3.125972151756286621e-01
6.440686434507369995e-02
1.102495491504669189e-01
-3.127428889274597168e-01
-5.046304464340209961e-01
-3.971612751483917236e-01
-2.386926114559173584e-01
1.194084156304597855e-02
-6.003772094845771790e-02
-1.964014023542404175e-01
-1.740083843469619751e-01
1.060814112424850464e-01
6.528746336698532104e-02
-9.928324073553085327e-02
-1.950573772192001343e-01
-1.132448986172676086e-01
1.569857597351074219e-01
-4.054907560348510742e-01
-1.419418901205062866e-01
-2.104463800787925720e-02
-1.719551682472229004e-01
-4.104582592844963074e-02
-1.605169326066970825e-01
-7.242781668901443481e-02
-3.130193650722503662e-01
-8.735136687755584717e-02
-2.249574065208435059e-01
-2.898463904857635498e-01
5.061971023678779602e-02
1.265595555305480957e-01
1.818910539150238037e-01
-1.537116020917892456e-01
-1.574561297893524170e-01
5.337856709957122803e-03
-3.074625730514526367e-01
-2.381476312875747681e-01
-1.174553930759429932e-01
-1.980382800102233887e-01
-2.611320912837982178e-01
-3.155532106757164001e-02
-1.737492531538009644e-01
-4.710119366645812988e-01
-2.244226634502410889e-01
1.730088740587234497e-01
4.202296212315559387e-02
-2.568983733654022217e-01
-5.063667297363281250e-01
-2.887425422668457031e-01
1.642466485500335693e-01
-5.821101740002632141e-02
-1.876454055309295654e-01
-1.492297090590000153e-02
3.631443530321121216e-02
6.576596200466156006e-02
-4.740740358829498291e-02
-5.082184821367263794e-02
-4.540065228939056396e-01
-5.211061835289001465e-01
-9.377386420965194702e-03
-5.285037159919738770e-01
-2.553217709064483643e-01
-3.500931710004806519e-02
3.441779613494873047e-01
-1.826519370079040527e-01
-1.423997431993484497e-01
1.870507895946502686e-01
-2.848684787750244141e-01
2.105233222246170044e-01
-2.908733189105987549e-01
-2.296619117259979248e-01
-1.536380797624588013e-01
-1.294705718755722046e-01
-1.202014237642288208e-01
-3.492695093154907227e-01
1.364208906888961792e-01
1.938646733760833740e-01
-2.327328324317932129e-01
2.113775163888931274e-01
4.426464438438415527e-02
-8.939686417579650879e-02
-9.382907301187515259e-02
-5.137005820870399475e-02
-1.731663495302200317e-01
-2.191877365112304688e-01
1.035576164722442627e-01
-5.806097984313964844e-01
-1.107542738318443298e-01
7.861306518316268921e-02
-2.979979217052459717e-01
-1.274170279502868652e-01
-4.115114212036132812e-01
-1.336855292320251465e-01
-3.827013373374938965e-01
-1.230074092745780945e-01
-5.392813310027122498e-02
-2.694992423057556152e-01
-7.158740423619747162e-03
-3.457627892494201660e-01
3.500249683856964111e-01
-2.350579351186752319e-01
3.066622884944081306e-03
6.474379450082778931e-02
2.689076587557792664e-02
-5.539037659764289856e-02
-1.251748502254486084e-01
-1.549024581909179688e-01
-2.251636981964111328e-01
1.854017525911331177e-01
1.769571304321289062e-01
-6.570015102624893188e-03
-1.091419085860252380e-01
-8.358644694089889526e-02
9.712670743465423584e-02
-1.486765034496784210e-02
-2.148679494857788086e-01
-1.272754967212677002e-01
1.165788173675537109e-01
-7.964600622653961182e-02
1.491503417491912842e-01
1.544927358627319336e-01
-5.066606216132640839e-03
-7.197082787752151489e-02
-1.155008599162101746e-01
9.267532825469970703e-02
-1.285600066184997559e-01
1.565028168261051178e-02
2.376103773713111877e-03
-1.716953366994857788e-01
-2.901484966278076172e-01
-6.606096774339675903e-02
-1.044768467545509338e-01
-2.750501930713653564e-01
1.115464568138122559e-01
-6.201633438467979431e-02
-2.776681184768676758e-01
3.084332048892974854e-01
1.838245540857315063e-01
5.148656666278839111e-02
-1.693569123744964600e-01
8.757890015840530396e-02
-4.244863241910934448e-02
-1.929765343666076660e-01
-1.441122591495513916e-01
-9.705998748540878296e-02
1.144141182303428650e-01
-3.337906599044799805e-01
-6.065738946199417114e-02
1.754297912120819092e-01
-3.233518600463867188e-01
-4.497020319104194641e-02
-2.067587524652481079e-01
2.429121434688568115e-01
-1.504986584186553955e-01
1.558022648096084595e-01
1.577409543097019196e-02
-2.789597213268280029e-01
1.642612516880035400e-01
2.374730110168457031e-01
-8.225642144680023193e-03
5.133498832583427429e-02
-5.743402615189552307e-02
7.898775488138198853e-02
-3.348164856433868408e-01
-2.065133303403854370e-01
-2.560805380344390869e-01
-2.658199071884155273e-01
-1.711566001176834106e-01
1.184854805469512939e-01
1.185453012585639954e-01
3.799712657928466797e-02
-1.336059719324111938e-01
1.301105171442031860e-01
1.189794465899467468e-01
-7.658543065190315247e-03
6.028032675385475159e-02
-1.254279017448425293e-01
1.505687087774276733e-01
-9.756582230329513550e-02
-2.014372348785400391e-01
-1.630584895610809326e-01
-1.927595026791095734e-02
1.510580629110336304e-01
5.547009781002998352e-02
1.145029067993164062e-01
-7.943774014711380005e-02
-6.083544716238975525e-02
-1.895963102579116821e-01
-6.613690406084060669e-02
2.230423875153064728e-02
-1.300369054079055786e-01
5.869617685675621033e-02
-1.344524323940277100e-01
-2.265638262033462524e-01
7.146332412958145142e-02
-3.121843636035919189e-01
-1.881509870290756226e-01
-7.144520431756973267e-02
-1.784974783658981323e-01
-1.872951388359069824e-01
-1.121336743235588074e-01
7.886947691440582275e-02
-7.884461432695388794e-03
-2.104538828134536743e-01
1.498888880014419556e-01
-6.891787797212600708e-02
1.784446537494659424e-01
-1.031930074095726013e-01
-9.264156967401504517e-02
-5.558756366372108459e-02
-2.557155191898345947e-01
-2.590917348861694336e-01
-2.028215527534484863e-01
-6.788345426321029663e-02
1.536334212869405746e-02
-1.073202118277549744e-01
-1.349616497755050659e-01
-2.717173695564270020e-01
-7.449187338352203369e-02
-3.241285681724548340e-01
4.518111050128936768e-02
-1.721182316541671753e-01
-1.528614312410354614e-01
1.213953644037246704e-01
-2.754060328006744385e-01
-1.849438995122909546e-01
-1.324108242988586426e-01
-1.228074505925178528e-01
-1.230753585696220398e-01
9.616530686616897583e-02
-1.041805818676948547e-01
-1.802861839532852173e-01
-1.947619765996932983e-02
-1.256614029407501221e-01
-4.847779572010040283e-01
-4.051232933998107910e-01
-4.037274420261383057e-02
1.419090628623962402e-01
-1.846891790628433228e-01
-5.640646219253540039e-01
-2.587844729423522949e-01
7.769709825515747070e-02
-1.376060694456100464e-01
-9.287547320127487183e-02
7.863226532936096191e-02
-7.756899297237396240e-02
-2.297657728195190430e-02
2.212291210889816284e-01
-5.306915938854217529e-02
-3.907621502876281738e-01
-2.192049175500869751e-01
-1.453764885663986206e-01
-5.464828610420227051e-01
-1.699058413505554199e-01
8.679620921611785889e-02
2.080573886632919312e-01
-8.671215176582336426e-02
-8.138258755207061768e-02
1.748317778110504150e-01
-2.594084739685058594e-01
2.715444862842559814e-01
-2.496252804994583130e-01
-1.207052171230316162e-01
-1.859996616840362549e-01
-3.321672379970550537e-01
-5.183708295226097107e-02
-2.710671722888946533e-01
-2.169127762317657471e-01
6.823179125785827637e-02
3.140545785427093506e-01
6.062985584139823914e-02
-7.091381400823593140e-02
1.213714363984763622e-03
1.840105354785919189e-01
1.204874888062477112e-01
-1.572983264923095703e-01
-3.051188886165618896e-01
2.400242537260055542e-01
-1.399068906903266907e-02
3.894244134426116943e-01
2.297648489475250244e-01
3.560454770922660828e-02
1.678362041711807251e-01
-7.300516963005065918e-02
1.518874019384384155e-01
-2.256882041692733765e-01
1.293278038501739502e-01
1.345856934785842896e-01
-3.488647937774658203e-01
-1.808073967695236206e-01
-8.460546284914016724e-02
1.241926997900009155e-01
-6.871925666928291321e-03
1.340760141611099243e-01
1.572690308094024658e-01
-3.220317959785461426e-01
-1.215462572872638702e-02
-3.330867970362305641e-03
6.172718480229377747e-02
-2.661142945289611816e-01
-4.062049090862274170e-02
1.684982515871524811e-02
-1.383325159549713135e-01
-2.813572883605957031e-01
-1.511172503232955933e-01
1.709501147270202637e-01
1.219751164317131042e-01
-3.079979717731475830e-01
3.906571492552757263e-02
-5.147539451718330383e-02
-1.263129115104675293e-01
5.969307199120521545e-02
2.622046768665313721e-01
5.777448415756225586e-03
4.488217458128929138e-02
1.821312904357910156e-01
-5.043597817420959473e-01
-1.871343106031417847e-01
1.610603034496307373e-01
3.859782218933105469e-01
-3.594458848237991333e-02
-3.210054337978363037e-02
9.962871670722961426e-02
-1.792280524969100952e-01
2.376866489648818970e-01
-2.644090652465820312e-01
-2.471014261245727539e-01
-3.851465880870819092e-01
-9.029965847730636597e-02
3.249621391296386719e-02
-2.983884215354919434e-01
-2.295506000518798828e-02
2.364818900823593140e-01
-9.704073891043663025e-03
2.955349385738372803e-01
2.578057534992694855e-02
-1.903145760297775269e-01
-2.927762828767299652e-02
-2.512206435203552246e-01
-1.391517519950866699e-01
-1.783894747495651245e-01
-7.067158073186874390e-02
-5.379663705825805664e-01
-5.778937041759490967e-02
2.736164331436157227e-01
-2.879542410373687744e-01
-1.470341682434082031e-01
-4.516575038433074951e-01
-2.631028592586517334e-01
-3.452764451503753662e-01
-1.747344806790351868e-02
1.378989778459072113e-02
-3.825881481170654297e-01
-8.423454314470291138e-02
-2.848803699016571045e-01
4.022162258625030518e-01
-4.327920079231262207e-01
4.832995682954788208e-02
1.829967498779296875e-01
-1.654914915561676025e-01
-1.031976714730262756e-01
8.336182683706283569e-02
-1.528116613626480103e-01
-2.580128014087677002e-01
7.162654399871826172e-02
8.369327336549758911e-02
-9.445530921220779419e-02
-1.749785393476486206e-01
-4.914703965187072754e-02
8.139627426862716675e-02
-3.116374015808105469e-01
-2.018969953060150146e-01
-1.857874169945716858e-02
7.815765216946601868e-03
1.143587529659271240e-01
-6.688751280307769775e-02
1.119840424507856369e-02
-1.877414435148239136e-01
-1.227106899023056030e-01
-2.400843650102615356e-01
-8.875723183155059814e-02
-7.911264151334762573e-02
6.693692505359649658e-02
1.909346878528594971e-01
-2.252181805670261383e-02
-1.218116059899330139e-01
1.128432806581258774e-02
-2.850960493087768555e-01
-3.088349699974060059e-01
-9.730535000562667847e-02
-6.079295650124549866e-02
-2.765899896621704102e-01
-9.608613699674606323e-02
-1.333488430827856064e-02
4.446906596422195435e-02
-2.325893491506576538e-01
2.297390699386596680e-01
-1.518775969743728638e-01
8.119164407253265381e-02
-8.228807896375656128e-02
-1.373704820871353149e-01
-3.084740787744522095e-02
-2.252805382013320923e-01
-1.644137054681777954e-01
-1.200158521533012390e-01
-1.710111624561250210e-03
1.276092976331710815e-01
3.550666570663452148e-02
-5.347951874136924744e-02
-1.668206006288528442e-01
-9.140566736459732056e-02
-2.452650368213653564e-01
-1.979457437992095947e-01
-5.279125273227691650e-02
-1.952275186777114868e-01
1.696341633796691895e-01
-8.420958369970321655e-02
-4.545797407627105713e-02
6.444761902093887329e-02
-5.563823878765106201e-02
-2.045197486877441406e-01
1.112736016511917114e-02
-1.232573390007019043e-01
-1.429277062416076660e-01
2.955023050308227539e-01
1.359547525644302368e-01
1.136196851730346680e-01
-1.485216915607452393e-01
-2.499970607459545135e-02
-7.068375498056411743e-02
-3.670507576316595078e-03
-3.732142597436904907e-02
3.631999716162681580e-02
2.453720010817050934e-02
-1.467948704957962036e-01
-3.944366425275802612e-02
2.225739657878875732e-01
-9.105703234672546387e-02
6.027908623218536377e-02
-9.036736190319061279e-02
-4.778242483735084534e-02
-9.230703115463256836e-02
-1.229596361517906189e-01
-1.586977392435073853e-01
5.592979490756988525e-02
1.405889540910720825e-01
-1.086300611495971680e-01
1.938459277153015137e-02
1.660549938678741455e-01
-4.154504835605621338e-02
8.632835000753402710e-02
-3.861536383628845215e-01
-1.016663610935211182e-01
-1.354098767042160034e-01
-4.232650697231292725e-01
-1.644605654291808605e-03
6.234421133995056152e-01
3.823318183422088623e-01
1.136331483721733093e-01
-1.660197228193283081e-01
1.952512413263320923e-01
-2.353334575891494751e-01
-3.034191429615020752e-01
-3.988961279392242432e-01
8.552584797143936157e-02
-5.832890793681144714e-02
-2.538876831531524658e-01
1.395741850137710571e-01
3.400536179542541504e-01
-3.812620639801025391e-01
-5.807841196656227112e-02
-3.264802992343902588e-01
2.817356288433074951e-01
-9.863571077585220337e-02
-9.165803343057632446e-02
-3.418336808681488037e-02
-4.221386611461639404e-01
1.241024360060691833e-01
1.503624171018600464e-01
-1.279299259185791016e-01
1.548806875944137573e-01
3.406614437699317932e-02
1.803354769945144653e-01
-2.263705730438232422e-01
-2.564967572689056396e-01
-4.568696022033691406e-01
-3.753386139869689941e-01
5.037912726402282715e-02
4.585061669349670410e-01
3.200307190418243408e-01
1.893122345209121704e-01
1.989100873470306396e-01
1.615730077028274536e-01
-4.063491821289062500e-01
-6.384369730949401855e-02
-2.281697988510131836e-01
2.286175452172756195e-02
-3.999813199043273926e-01
2.364256605505943298e-02
1.811056435108184814e-01
3.125871419906616211e-01
-2.705357968807220459e-01
9.021466225385665894e-02
-3.808898329734802246e-01
-4.401174932718276978e-02
1.540578007698059082e-01
-1.423894464969635010e-01
2.123269289731979370e-01
-1.013571843504905701e-01
1.466245502233505249e-01
-2.261359691619873047e-01
5.821681395173072815e-02
3.302555978298187256e-01
4.558796435594558716e-02
-4.360274970531463623e-02
-9.211166948080062866e-02
-4.881960451602935791e-01
-3.481703698635101318e-01
-4.320420622825622559e-01
3.080098330974578857e-01
-5.487735383212566376e-03
2.295853942632675171e-02
7.306173443794250488e-02
-2.339434176683425903e-01
2.307987958192825317e-02
5.600870773196220398e-02
7.648269087076187134e-02
3.841893002390861511e-02
-1.710341311991214752e-02
1.049931272864341736e-01
-7.386390864849090576e-02
-1.427601128816604614e-01
-1.587124168872833252e-01
8.170986920595169067e-02
5.652936175465583801e-02
5.663824081420898438e-02
5.685744807124137878e-02
4.656436666846275330e-02
2.736978698521852493e-03
-9.252756088972091675e-02
9.643047302961349487e-02
-7.614824175834655762e-02
-3.225945692975074053e-04
2.192679941654205322e-01
-1.445073187351226807e-01
-2.268656790256500244e-01
7.658152375370264053e-03
-7.367570698261260986e-02
-1.335819512605667114e-01
8.186697959899902344e-03
-6.250911951065063477e-02
-4.522162303328514099e-02
-3.822987973690032959e-01
-2.561139166355133057e-01
-2.123917192220687866e-01
-2.320357710123062134e-01
1.797374710440635681e-02
1.592302173376083374e-01
-3.393072783946990967e-01
-4.340964257717132568e-01
-2.366969287395477295e-01
1.158559992909431458e-01
2.351567447185516357e-01
-1.938786953687667847e-01
-1.394678205251693726e-01
2.760821580886840820e-01
1.347435563802719116e-01
3.083264231681823730e-01
-7.414408028125762939e-02
5.705217272043228149e-02
-7.312777042388916016e-01
3.617616835981607437e-03
1.076627075672149658e-01
-2.954907715320587158e-01
-1.218283548951148987e-01
1.441392749547958374e-01
-3.173596262931823730e-01
-9.518488496541976929e-02
-7.599785178899765015e-02
-8.084364235401153564e-02
1.552873551845550537e-01
1.726891100406646729e-01
-4.003796577453613281e-01
-1.621131598949432373e-01
-2.917616367340087891e-01
-6.919176131486892700e-02
-3.815704584121704102e-02
1.276217848062515259e-01
1.934864073991775513e-01
-4.739504754543304443e-01
1.952518820762634277e-01
1.010789722204208374e-02
-1.464443206787109375e-01
-2.670282423496246338e-01
-1.634696274995803833e-01
-1.672837734222412109e-01
-5.052884295582771301e-02
-1.081333607435226440e-01
-3.571031987667083740e-01
-2.561457455158233643e-01
-2.021320164203643799e-01
-2.035982608795166016e-01
1.852800846099853516e-01
-4.449596405029296875e-01
-2.220783084630966187e-01
-2.797295749187469482e-01
-1.285194009542465210e-01
-5.284161120653152466e-02
-2.213463634252548218e-01
1.272790580987930298e-01
1.396800279617309570e-01
3.042748868465423584e-01
-8.029259741306304932e-02
-1.705544143915176392e-01
1.383646875619888306e-01
-5.026146769523620605e-02
-2.093985527753829956e-01
-7.243334501981735229e-02
-3.022824600338935852e-02
-3.045581281185150146e-01
6.027783453464508057e-02
-2.496781386435031891e-02
1.064782068133354187e-01
7.709623128175735474e-02
-6.206391379237174988e-02
-8.801711350679397583e-02
2.949850261211395264e-02
-1.682890653610229492e-01
-1.051259264349937439e-01
1.213127821683883667e-01
-4.344187304377555847e-02
6.918397545814514160e-02
4.983035475015640259e-02
1.341147273778915405e-01
1.250949501991271973e-01
4.845536127686500549e-02
1.986900120973587036e-01
2.963801100850105286e-02
-1.778528094291687012e-01
1.310962885618209839e-01
-1.180989891290664673e-01
6.247538141906261444e-03
-3.274055430665612221e-03
2.738210000097751617e-02
7.327540218830108643e-02
1.238043978810310364e-01
1.583206504583358765e-01
-2.923180460929870605e-01
3.270383477210998535e-01
1.072362512350082397e-01
-5.180325359106063843e-02
4.349654540419578552e-02
2.658949792385101318e-02
9.833128005266189575e-02
1.010702401399612427e-01
-3.017980158329010010e-01
-8.491829037666320801e-02
1.587697565555572510e-01
-1.532736867666244507e-01
1.858196556568145752e-01
1.209186911582946777e-01
1.248128060251474380e-02
2.329302020370960236e-02
-4.468087479472160339e-02
3.326404094696044922e-01
-5.784043669700622559e-02
-1.554866135120391846e-01
1.409914158284664154e-02
-5.823704600334167480e-02
1.062394934706389904e-03
1.074319556355476379e-01
-8.085344731807708740e-02
6.174138560891151428e-02
5.145800113677978516e-02
-1.327429413795471191e-01
-2.573043853044509888e-02
-1.834014952182769775e-01
4.243392497301101685e-02
-3.010452091693878174e-01
6.126204971224069595e-03
-2.927857637405395508e-02
-2.437097206711769104e-02
2.198278605937957764e-01
-6.521210819482803345e-02
7.988174259662628174e-02
-5.138206854462623596e-02
7.940412312746047974e-02
5.311505123972892761e-02
-3.524797037243843079e-02
-1.600386649370193481e-01
3.116071037948131561e-02
-1.148915886878967285e-01
-2.133915871381759644e-01
1.022798344492912292e-01
7.213102281093597412e-02
5.059056729078292847e-02
-3.771585971117019653e-02
8.378551155328750610e-02
8.719043806195259094e-03
1.743464730679988861e-02
2.490327507257461548e-01
-5.490779876708984375e-02
-1.681027859449386597e-01
3.275408968329429626e-02
3.465335816144943237e-02
-4.185515642166137695e-02
-1.070807427167892456e-01
-1.572906821966171265e-01
4.183111339807510376e-02
7.018546760082244873e-02
-3.014303371310234070e-02
-1.431525051593780518e-01
-6.456147134304046631e-02
3.915784135460853577e-02
1.713337600231170654e-01
-3.965670466423034668e-01
2.501538209617137909e-02
4.495003959164023399e-04
-5.796861276030540466e-02
1.380992531776428223e-01
-5.991206690669059753e-02
-1.830609887838363647e-01
1.060127913951873779e-01
-1.838975697755813599e-01
-1.272232681512832642e-01
-8.354220539331436157e-02
-5.805365741252899170e-02
4.032593220472335815e-02
-4.175340011715888977e-02
1.923532783985137939e-01
1.393264066427946091e-02
-2.349258027970790863e-02
1.446903496980667114e-01
-4.884034395217895508e-02
-1.128267645835876465e-01
2.126673907041549683e-01
-7.228884845972061157e-02
-7.323551177978515625e-02
-3.938573598861694336e-02
4.020498692989349365e-02
-1.509464718401432037e-02
1.492683291435241699e-01
1.633173376321792603e-01
-3.130436241626739502e-01
-2.061715126037597656e-01
-2.368057221174240112e-01
-3.237076699733734131e-01
-1.074450165033340454e-01
-6.707216054201126099e-02
1.665449142456054688e-01
-1.409552991390228271e-01
-4.384948015213012695e-01
-1.455983817577362061e-01
2.250648438930511475e-01
1.341338753700256348e-01
-9.065934270620346069e-02
-2.858119457960128784e-02
2.328893989324569702e-01
1.078270748257637024e-01
1.329087018966674805e-01
8.965895324945449829e-02
-3.188940882682800293e-01
-3.482755422592163086e-01
-3.111635744571685791e-01
1.309530138969421387e-01
-1.894183158874511719e-01
7.122859358787536621e-02
-3.637537732720375061e-02
-3.471326231956481934e-01
-1.895849704742431641e-01
-1.964199393987655640e-01
-3.629278540611267090e-01
1.995995342731475830e-01
6.012261286377906799e-02
-3.154291510581970215e-01
-3.962921723723411560e-02
-2.576414644718170166e-01
-9.174183756113052368e-02
-2.937735915184020996e-01
-4.251799285411834717e-01
-5.249182879924774170e-02
2.041032724082469940e-02
2.254667133092880249e-02
4.975371807813644409e-02
-6.162853911519050598e-02
-1.817811876535415649e-01
8.455409109592437744e-02
-1.618163287639617920e-01
7.918620854616165161e-02
8.914130926132202148e-02
-1.867965012788772583e-01
2.142757475376129150e-01
-7.843241840600967407e-02
-1.551651209592819214e-01
4.339385777711868286e-03
1.260675489902496338e-02
1.215924620628356934e-01
-1.805661171674728394e-01
-6.851076334714889526e-02
5.708632245659828186e-02
-1.526839733123779297e-01
1.350532323122024536e-01
-1.355763375759124756e-01
1.065877676010131836e-01
1.730768680572509766e-01
1.814051270484924316e-01
2.434398829936981201e-01
-3.158790171146392822e-01
-8.702474087476730347e-02
-7.140545547008514404e-02
-1.750903427600860596e-01
-2.006599456071853638e-01
1.329389214515686035e-01
-2.611354738473892212e-02
9.505775570869445801e-02
-4.612089097499847412e-01
-7.143420726060867310e-02
1.018199399113655090e-01
6.583469361066818237e-02
5.265592038631439209e-02
5.223809182643890381e-02
1.121997237205505371e-01
4.998309537768363953e-02
3.415447771549224854e-01
3.992510139942169189e-01
-1.878966540098190308e-01
-1.679950505495071411e-01
-1.527159065008163452e-01
-5.130337178707122803e-02
-1.903721839189529419e-01
-1.332252472639083862e-01
1.969347745180130005e-01
8.166910149157047272e-03
-1.225092858076095581e-01
-3.201423911377787590e-03
-1.113789156079292297e-01
1.498287916183471680e-01
9.427110850811004639e-02
-3.529864549636840820e-01
-1.987663209438323975e-01
-3.195682466030120850e-01
-8.626651018857955933e-03
-8.593198657035827637e-02
-8.369403332471847534e-02
1.187168657779693604e-01
-4.423659145832061768e-01
3.091930150985717773e-01
-2.709469012916088104e-02
