# (32, 10)
7.615914195775985718e-02
-2.438465952873229980e-01
-2.553134262561798096e-01
1.090636774897575378e-01
-3.296245038509368896e-01
5.930591374635696411e-02
7.495758682489395142e-02
-3.049072921276092529e-01
8.087804168462753296e-02
2.437668852508068085e-02
-2.426181286573410034e-01
-1.908485442399978638e-01
1.047616973519325256e-01
8.971812576055526733e-02
-2.755433619022369385e-01
7.856006920337677002e-02
9.253678470849990845e-02
-2.404377311468124390e-01
7.639618217945098877e-02
4.854835569858551025e-02
-1.631574630737304688e-01
-2.858821451663970947e-01
-2.539629936218261719e-01
-2.631638944149017334e-01
8.748883008956909180e-02
1.214389204978942871e-01
1.071586981415748596e-01
-2.064362764358520508e-01
9.084653854370117188e-02
1.030098646879196167e-01
-1.586778610944747925e-01
-2.154209464788436890e-01
1.074404492974281311e-01
5.960191041231155396e-02
-2.204254716634750366e-01
-2.692881226539611816e-01
-2.730563879013061523e-01
1.088772490620613098e-01
1.168790236115455627e-01
1.170934960246086121e-01
-2.126209735870361328e-01
-1.918405443429946899e-01
-1.932559162378311157e-01
1.651649326086044312e-01
1.502733379602432251e-01
1.198992952704429626e-01
1.395261138677597046e-01
-1.864015012979507446e-01
-1.641512066125869751e-01
-2.590972483158111572e-01
1.308846622705459595e-01
-2.599935531616210938e-01
1.271000951528549194e-01
-1.508347541093826294e-01
-2.257777899503707886e-01
-1.987552344799041748e-01
-1.983834803104400635e-01
1.518194973468780518e-01
1.549180448055267334e-01
-9.747954457998275757e-02
9.277825802564620972e-02
-1.470583677291870117e-01
1.243897825479507446e-01
-2.235556393861770630e-01
-1.967696547508239746e-01
1.177701503038406372e-01
8.008597791194915771e-02
-2.323533445596694946e-01
7.378172129392623901e-02
-2.613919973373413086e-01
-9.700389206409454346e-02
1.326624006032943726e-01
-2.160496562719345093e-01
-2.664719521999359131e-01
1.325879544019699097e-01
-1.561655253171920776e-01
1.203878968954086304e-01
-2.477605044841766357e-01
-2.056638896465301514e-01
1.446677297353744507e-01
-2.031825333833694458e-01
9.794382750988006592e-02
1.239721700549125671e-01
-2.285684943199157715e-01
1.108628436923027039e-01
-2.327419221401214600e-01
9.548792243003845215e-02
1.097114905714988708e-01
-2.508177161216735840e-01
-2.840458750724792480e-01
1.210308820009231567e-01
1.104836761951446533e-01
-2.002565264701843262e-01
-2.202564179897308350e-01
1.189982295036315918e-01
-2.388364821672439575e-01
9.422380477190017700e-02
-3.118308186531066895e-01
1.214328035712242126e-01
-1.853278577327728271e-01
-2.088861614465713501e-01
1.425816118717193604e-01
1.225534752011299133e-01
-1.586810648441314697e-01
-1.311977058649063110e-01
-1.370164901018142700e-01
1.467149108648300171e-01
-2.010376900434494019e-01
1.526122540235519409e-01
-2.928822636604309082e-01
1.398704946041107178e-01
-2.191343456506729126e-01
-1.517147123813629150e-01
1.055332869291305542e-01
-1.569991260766983032e-01
1.147589907050132751e-01
-2.102424055337905884e-01
-1.444105952978134155e-01
-2.762942314147949219e-01
1.676844209432601929e-01
-2.228346467018127441e-01
1.755926907062530518e-01
-1.857637017965316772e-01
-2.163833826780319214e-01
-2.112404406070709229e-01
1.856250017881393433e-01
1.469694972038269043e-01
-2.174859493970870972e-01
8.467999286949634552e-03
-2.518000602722167969e-01
-2.686485946178436279e-01
-1.173148825764656067e-01
1.259784102439880371e-01
1.409016698598861694e-01
1.011964827775955200e-01
-1.658394485712051392e-01
1.326359361410140991e-01
8.117856085300445557e-02
-2.400912344455718994e-01
-3.879655301570892334e-01
-1.282071769237518311e-01
1.208086013793945312e-01
1.153156906366348267e-01
-2.201713174581527710e-01
1.102829352021217346e-01
-2.810044288635253906e-01
-2.661132514476776123e-01
-2.114971578121185303e-01
1.093635261058807373e-01
1.291368007659912109e-01
-2.287883311510086060e-01
-1.310831606388092041e-01
1.193502843379974365e-01
1.083275154232978821e-01
1.002695858478546143e-01
-2.695136368274688721e-01
-2.496431022882461548e-01
7.289204746484756470e-02
-2.875695228576660156e-01
8.129954338073730469e-02
5.777446553111076355e-02
9.887503087520599365e-02
8.408368378877639771e-02
6.580305099487304688e-02
-3.130501508712768555e-01
1.098789572715759277e-01
-2.291132807731628418e-01
7.673008739948272705e-02
-3.448080122470855713e-01
-1.644860059022903442e-01
-2.097989171743392944e-01
1.393789201974868774e-01
1.224329397082328796e-01
1.600975394248962402e-01
-1.998869627714157104e-01
-2.462528795003890991e-01
-1.347744911909103394e-01
-1.178697124123573303e-01
1.467005163431167603e-01
-2.734054327011108398e-01
-2.409797307336702943e-04
8.241897739935666323e-05
3.512495313771069050e-04
-1.533234724774956703e-03
-9.783664718270301819e-04
-5.455267382785677910e-04
-3.732751356437802315e-04
-2.570525430201087147e-05
6.339676911011338234e-04
7.874369039200246334e-04
-1.680592745542526245e-01
-1.902679800987243652e-01
-1.575292646884918213e-01
-2.431581616401672363e-01
1.332001388072967529e-01
-1.471831202507019043e-01
-1.957526803016662598e-01
1.583545356988906860e-01
-1.874565184116363525e-01
1.512796580791473389e-01
1.061587780714035034e-01
-9.622997045516967773e-02
8.365046232938766479e-02
7.271423190832138062e-02
1.250968426465988159e-01
7.665358483791351318e-02
-2.360887974500656128e-01
-2.691383361816406250e-01
2.145209349691867828e-02
-1.595233082771301270e-01
1.225315183401107788e-01
1.116507127881050110e-01
7.967127859592437744e-02
1.104201227426528931e-01
-2.996607720851898193e-01
-2.068210840225219727e-01
-2.383906245231628418e-01
8.467198163270950317e-02
-1.404851675033569336e-01
-2.375850528478622437e-01
1.546488851308822632e-01
1.559079289436340332e-01
-2.578892409801483154e-01
-2.116463929414749146e-01
-2.525342106819152832e-01
-1.824506223201751709e-01
1.466257870197296143e-01
1.521243751049041748e-01
-2.521255314350128174e-01
-1.529821157455444336e-01
1.116656884551048279e-01
-2.286799401044845581e-01
-2.645983099937438965e-01
-3.021424412727355957e-01
1.264259964227676392e-01
1.459729373455047607e-01
1.112935170531272888e-01
2.030229195952415466e-02
-2.622027695178985596e-01
-1.373304277658462524e-01
-2.342719882726669312e-01
1.083770096302032471e-01
-2.467854619026184082e-01
1.101699322462081909e-01
6.918609887361526489e-02
-2.070062160491943359e-01
-2.497205734252929688e-01
7.284304499626159668e-02
-2.640612125396728516e-01
1.119730100035667419e-01
-3.018298149108886719e-01
8.728355169296264648e-02
-2.923737168312072754e-01
6.423161178827285767e-02
7.137613371014595032e-03
8.384368568658828735e-02
-2.920613288879394531e-01
8.334445208311080933e-02
7.325571775436401367e-02
2.242084965109825134e-02
1.037635281682014465e-01
-2.524113357067108154e-01
9.526970982551574707e-02
-1.844945996999740601e-01
9.089727699756622314e-02
-2.723542451858520508e-01
6.942693144083023071e-02
-2.435060888528823853e-01
8.695601671934127808e-02
9.432376176118850708e-02
4.308277741074562073e-02
-2.532361149787902832e-01
-2.617771625518798828e-01
1.031223535537719727e-01
-2.372967898845672607e-01
7.805629074573516846e-02
3.740406408905982971e-02
-2.469942867755889893e-01
9.569463878870010376e-02
1.024995520710945129e-01
-2.910206019878387451e-01
9.875073283910751343e-02
-2.153047472238540649e-01
-3.045052886009216309e-01
6.938393414020538330e-02
1.579267978668212891e-01
-2.609071731567382812e-01
1.036331951618194580e-01
2.049330808222293854e-02
6.580586731433868408e-02
1.541468799114227295e-01
-1.949271857738494873e-01
-1.735384762287139893e-01
-1.640708297491073608e-01
1.362179368734359741e-01
-2.051582187414169312e-01
-1.711715608835220337e-01
1.673862487077713013e-01
1.881469786167144775e-01
-1.691766828298568726e-01
-2.725969851016998291e-01
-2.130850106477737427e-01
-2.259647399187088013e-01
1.025373116135597229e-01
-1.592623889446258545e-01
1.179997473955154419e-01
-2.209007591009140015e-01
1.287808865308761597e-01
1.073981449007987976e-01
7.135438174009323120e-02
1.174985691905021667e-01
-2.484818100929260254e-01
1.116107478737831116e-01
-1.962864547967910767e-01
-1.577626317739486694e-01
-2.132260501384735107e-01
9.226452559232711792e-02
1.057853028178215027e-01
-2.648207247257232666e-01
1.461822688579559326e-01
