# (16, 1, 3, 3)
-2.334601163864135742e+00
-1.428795933723449707e+00
1.279771566390991211e+00
1.115963816642761230e+00
-1.590270042419433594e+00
1.850627779960632324e+00
-3.581270277500152588e-01
2.111273765563964844e+00
-1.593478798866271973e+00
9.960840940475463867e-01
8.106524348258972168e-01
1.224255084991455078e+00
1.372927188873291016e+00
-6.008419990539550781e-01
1.096256375312805176e+00
-1.715472102165222168e+00
-1.192777395248413086e+00
-3.914433419704437256e-01
1.794639945030212402e+00
-2.005414515733718872e-01
-6.631184220314025879e-01
1.232258439064025879e+00
-1.256329298019409180e+00
-1.685697436332702637e+00
2.572352290153503418e-01
-2.094362974166870117e+00
2.292421817779541016e+00
-7.270614057779312134e-02
7.991026639938354492e-01
4.158712625503540039e-01
8.863906860351562500e-01
8.942434787750244141e-01
-1.965467929840087891e-01
6.726989150047302246e-01
7.753916382789611816e-01
-1.092530250549316406e+00
-1.768778204917907715e+00
3.235327824950218201e-02
2.116877138614654541e-01
1.032626748085021973e+00
-4.993558526039123535e-01
-1.758505344390869141e+00
-1.531071066856384277e+00
1.701936364173889160e+00
-1.111329674720764160e+00
1.818731904029846191e+00
1.505746960639953613e+00
1.797657370567321777e+00
-1.866501212120056152e+00
1.383290290832519531e-01
-1.111178755760192871e+00
-9.889742732048034668e-01
-7.227941155433654785e-01
-5.896305441856384277e-01
8.495328426361083984e-01
1.485114097595214844e+00
-5.596712231636047363e-01
1.387209177017211914e+00
2.973758280277252197e-01
-8.061466813087463379e-01
-1.100088596343994141e+00
-1.286986470222473145e+00
-1.044003605842590332e+00
8.162558078765869141e-01
1.808248311281204224e-01
-1.062760591506958008e+00
2.232137918472290039e-01
-8.325117230415344238e-01
-1.269395709037780762e+00
1.375690698623657227e+00
-1.155360102653503418e+00
-3.307892978191375732e-01
-4.750575125217437744e-01
-8.774644732475280762e-01
-5.084175467491149902e-01
-6.768624782562255859e-01
5.190214514732360840e-01
-8.624256849288940430e-01
-5.491409301757812500e-01
-7.995204925537109375e-01
4.833334088325500488e-01
-1.147499755024909973e-01
-5.909681916236877441e-01
-7.520028352737426758e-01
-7.661968469619750977e-01
-8.438761830329895020e-01
-6.042772531509399414e-01
9.790196418762207031e-01
-7.644599080085754395e-01
1.394114345312118530e-01
1.776013016700744629e+00
-2.044619083404541016e+00
-4.604853689670562744e-01
8.064759373664855957e-01
-2.139568805694580078e+00
1.509524345397949219e+00
-8.457648754119873047e-01
-1.773303151130676270e+00
2.194362878799438477e+00
2.504030227661132812e+00
-2.159599065780639648e+00
1.791153669357299805e+00
-1.533763855695724487e-01
-1.645516872406005859e+00
4.841773509979248047e-01
4.263550341129302979e-01
-2.525165319442749023e+00
2.551792621612548828e+00
5.330836176872253418e-01
-1.509894967079162598e+00
1.310487031936645508e+00
-1.201079487800598145e+00
1.462248921394348145e+00
2.150647938251495361e-01
1.268958926200866699e+00
5.681467056274414062e-01
6.501888632774353027e-01
2.066750526428222656e+00
5.843447446823120117e-01
1.401684403419494629e+00
-3.107194900512695312e-01
-2.848562002182006836e+00
7.600156664848327637e-01
-1.089126919396221638e-03
-1.109442949295043945e+00
2.199530452489852905e-01
-4.959427714347839355e-01
-5.627678036689758301e-01
-5.164392590522766113e-01
-5.083179567009210587e-03
-5.740674138069152832e-01
-7.223287224769592285e-01
-4.836122691631317139e-02
-3.009957671165466309e-01
-5.459975600242614746e-01
2.074747323989868164e+00
2.658033370971679688e-01
-1.958866477012634277e+00
2.263945817947387695e+00
-1.613802313804626465e+00
5.391625761985778809e-01
-2.154484987258911133e+00
1.226932048797607422e+00
1.313360095024108887e+00
