# (16, 1, 3, 3)
2.550324201583862305e-01
-1.952561885118484497e-01
-3.129008769989013672e+00
-1.120253920555114746e+00
-1.245476961135864258e+00
9.447801113128662109e-01
1.065227270126342773e+00
2.061074018478393555e+00
5.951133966445922852e-01
1.969412803649902344e+00
9.988062828779220581e-02
-1.192717671394348145e+00
-3.205088138580322266e+00
-2.371198892593383789e+00
-1.009427905082702637e+00
1.055460348725318909e-01
1.388165593147277832e+00
2.138914823532104492e+00
-4.612312316894531250e-01
2.150516957044601440e-01
5.107787847518920898e-01
1.320028901100158691e+00
7.209811210632324219e-01
1.833517909049987793e+00
-2.227028131484985352e+00
-1.529500961303710938e+00
1.193762660026550293e+00
-1.676261126995086670e-01
-8.481001853942871094e-02
-1.339661628007888794e-01
-3.762630820274353027e-01
6.712639331817626953e-02
-5.731472373008728027e-01
-5.218765735626220703e-01
-5.031931400299072266e-01
-2.991389930248260498e-01
-3.039597749710083008e+00
1.610458135604858398e+00
2.210397958755493164e+00
2.547879934310913086e+00
9.560846686363220215e-01
-1.620927572250366211e+00
-1.880854815244674683e-01
-2.303689479827880859e+00
-1.229173421859741211e+00
-1.982367873191833496e+00
9.914753437042236328e-01
6.931725740432739258e-01
-1.752899408340454102e+00
1.010076999664306641e+00
7.267704010009765625e-01
2.256368696689605713e-01
1.064517617225646973e+00
2.352435328066349030e-02
2.927099764347076416e-01
-3.635494112968444824e-01
1.706192493438720703e+00
-2.612918376922607422e+00
-2.495515584945678711e+00
-2.829974412918090820e+00
2.650720834732055664e+00
2.057552099227905273e+00
-6.669883131980895996e-01
-1.086293935775756836e+00
-1.714563965797424316e-01
-2.678318917751312256e-01
7.703374028205871582e-01
1.465616345405578613e+00
1.331800460815429688e+00
2.066187143325805664e+00
-1.576267123222351074e+00
-1.190767288208007812e+00
9.262895584106445312e-01
1.343680381774902344e+00
9.382306337356567383e-01
1.078005790710449219e+00
5.007653236389160156e-01
-1.540039539337158203e+00
-6.331444382667541504e-01
-1.289885401725769043e+00
-1.436235547065734863e+00
1.383607029914855957e+00
1.130989074707031250e+00
-3.168179273605346680e+00
1.152274966239929199e+00
2.022435516119003296e-02
-7.974842190742492676e-01
-1.307295709848403931e-01
1.241705536842346191e+00
-9.431649446487426758e-01
5.017309915274381638e-03
7.869800925254821777e-01
2.612657308578491211e+00
-8.732169866561889648e-01
-3.512677192687988281e+00
-1.152448177337646484e+00
1.283716678619384766e+00
1.133026719093322754e+00
-1.930914878845214844e+00
-2.115207761526107788e-01
2.240498065948486328e+00
2.212684154510498047e+00
-1.666169524192810059e+00
-7.686893343925476074e-01
-4.293276667594909668e-01
-9.957255721092224121e-01
-1.412095069885253906e+00
-1.083906292915344238e+00
-4.088919162750244141e-01
1.533813029527664185e-01
5.891525149345397949e-01
1.430222392082214355e+00
-5.855206966400146484e+00
3.719580888748168945e+00
4.097731590270996094e+00
-4.055921077728271484e+00
-3.365686535835266113e-02
7.109324336051940918e-01
5.712234377861022949e-01
-5.093111991882324219e-01
1.495287299156188965e+00
2.319067567586898804e-01
-1.663008451461791992e+00
1.088434815406799316e+00
-1.918551206588745117e+00
-8.886579871177673340e-01
-2.464874833822250366e-01
-1.450898885726928711e+00
-2.727179527282714844e-01
-1.033832669258117676e+00
-8.236106038093566895e-01
1.245154380798339844e+00
-1.837588310241699219e+00
1.597363799810409546e-01
1.978382349014282227e+00
2.004229649901390076e-02
-1.826302170753479004e+00
-2.294038057327270508e+00
1.402565836906433105e+00
7.928885817527770996e-01
6.833178997039794922e-01
2.001886069774627686e-01
1.529605746269226074e+00
2.173904776573181152e-01
