# (16, 1, 3, 3)
-1.480339407920837402e+00
-4.118774533271789551e-01
3.000835478305816650e-01
-1.385397315025329590e-01
3.286654949188232422e-01
1.905160397291183472e-01
7.362746596336364746e-01
2.412465363740921021e-01
1.384104847908020020e+00
8.805233836174011230e-01
1.315937519073486328e+00
-2.167052745819091797e+00
2.712200880050659180e-01
-1.991577386856079102e+00
-3.963862359523773193e-01
-1.693772077560424805e+00
-2.264258861541748047e-01
5.427545309066772461e-01
9.694576263427734375e-01
-5.316142439842224121e-01
5.274117588996887207e-01
1.157412409782409668e+00
1.427713632583618164e+00
1.726906895637512207e+00
4.684504121541976929e-02
-6.140404939651489258e-01
-3.054831743240356445e+00
6.662992835044860840e-01
1.169790506362915039e+00
2.029099941253662109e+00
-1.962090611457824707e+00
4.597410932183265686e-02
-6.473298072814941406e-01
-1.093149542808532715e+00
-1.280223608016967773e+00
-1.201589584350585938e+00
4.170794785022735596e-01
1.408320903778076172e+00
1.413805842399597168e+00
-4.915980994701385498e-01
5.528358817100524902e-01
8.126118779182434082e-01
-1.881675839424133301e+00
-2.325756311416625977e+00
-5.615829825401306152e-01
-1.106452107429504395e+00
-2.832623243331909180e+00
1.738508224487304688e+00
2.131279468536376953e+00
-3.497291803359985352e+00
6.641790866851806641e-01
2.282356023788452148e+00
-1.991654753684997559e+00
-5.078333020210266113e-01
-1.347179412841796875e-01
7.401682138442993164e-01
5.426071882247924805e-01
-6.687074303627014160e-01
-2.902548909187316895e-01
8.579899668693542480e-01
-7.851090431213378906e-01
3.254133164882659912e-01
9.712153077125549316e-01
2.796383500099182129e-01
2.362747043371200562e-01
1.951331943273544312e-01
3.448777794837951660e-01
-1.611093878746032715e-01
4.603815078735351562e-01
4.945854842662811279e-01
3.505949676036834717e-01
6.901775002479553223e-01
-2.435286283493041992e+00
3.127611279487609863e-01
7.960575819015502930e-01
-5.346471667289733887e-01
-2.270702868700027466e-01
1.119123697280883789e+00
-1.735023140907287598e+00
3.397362232208251953e-01
3.015459179878234863e-01
6.162686645984649658e-02
6.657060384750366211e-01
4.062674939632415771e-01
-3.706219792366027832e-01
1.502864837646484375e+00
-4.408806562423706055e-01
-1.851794838905334473e+00
-1.489653825759887695e+00
-1.651257634162902832e+00
-4.199269771575927734e+00
5.630306601524353027e-01
-5.537992119789123535e-01
2.148685216903686523e+00
1.946733832359313965e+00
6.600853800773620605e-01
6.016680002212524414e-01
-6.900010108947753906e-01
-1.566789627075195312e+00
6.314116716384887695e-01
-5.348640680313110352e-01
-1.735394001007080078e+00
6.797453165054321289e-01
1.453566908836364746e+00
-1.427647829055786133e+00
1.189452558755874634e-01
1.047489643096923828e+00
1.006062984466552734e+00
1.141754984855651855e+00
8.816917538642883301e-01
-1.433304667472839355e+00
9.163805246353149414e-01
8.912881463766098022e-02
-1.475591540336608887e+00
-7.072629332542419434e-01
-5.737137794494628906e-01
-1.816241264343261719e+00
8.533388972282409668e-01
1.094285249710083008e+00
-1.977374911308288574e+00
1.061566829681396484e+00
2.806814908981323242e-01
-1.232085466384887695e+00
1.030359864234924316e+00
-7.139128446578979492e-01
-6.440169215202331543e-01
-1.533466130495071411e-01
-2.227763414382934570e+00
-4.411437213420867920e-01
-9.939314126968383789e-01
5.350847840309143066e-01
1.469174504280090332e+00
1.539642214775085449e+00
9.582909941673278809e-01
-5.331715941429138184e-01
-1.816537976264953613e+00
-1.026279106736183167e-01
-1.072692036628723145e+00
-2.895275652408599854e-01
-1.138192892074584961e+00
-1.515992045402526855e+00
2.245687007904052734e+00
1.361964106559753418e+00
3.591686785221099854e-01
