# (16, 1, 3, 3)
1.912140250205993652e-01
8.318837732076644897e-03
-3.165431976318359375e+00
-7.344074249267578125e-01
-1.150322794914245605e+00
8.228808641433715820e-01
1.035795569419860840e+00
2.534025907516479492e+00
3.595845401287078857e-01
2.118572235107421875e+00
1.356824189424514771e-01
-1.207396984100341797e+00
-3.165538549423217773e+00
-2.436160326004028320e+00
-1.025031447410583496e+00
9.454812854528427124e-02
1.508586883544921875e+00
2.114303112030029297e+00
-5.228742957115173340e-01
-2.645296156406402588e-01
1.829121708869934082e-01
1.166750669479370117e+00
7.676030993461608887e-01
2.087850332260131836e+00
-2.317623853683471680e+00
-1.072391867637634277e+00
1.280214071273803711e+00
-3.002450466156005859e-01
-2.560812234878540039e-01
-2.155535668134689331e-01
-2.768296897411346436e-01
7.154764235019683838e-02
-4.862607717514038086e-01
-4.488148391246795654e-01
-3.387941718101501465e-01
-2.641589343547821045e-01
-2.474133729934692383e+00
1.688158035278320312e+00
1.906297802925109863e+00
2.281933069229125977e+00
1.371244549751281738e+00
-1.606147289276123047e+00
-2.908476889133453369e-01
-2.491354465484619141e+00
-1.003277420997619629e+00
-2.393737792968750000e+00
8.618980646133422852e-01
5.622408986091613770e-01
-1.739734649658203125e+00
1.329891562461853027e+00
5.279991626739501953e-01
5.936406254768371582e-01
1.380380749702453613e+00
-3.016298711299896240e-01
-1.763946563005447388e-01
-8.083856701850891113e-01
1.687758088111877441e+00
-1.893135428428649902e+00
-3.076045513153076172e+00
-2.414899826049804688e+00
2.938198089599609375e+00
2.003118753433227539e+00
-5.572992563247680664e-01
-1.145779728889465332e+00
-2.361765801906585693e-01
-9.938250482082366943e-02
1.328497529029846191e+00
1.474436163902282715e+00
1.235335588455200195e+00
1.844788312911987305e+00
-1.717561841011047363e+00
-1.488829731941223145e+00
9.694488644599914551e-01
1.353657245635986328e+00
1.205665469169616699e+00
8.978974223136901855e-01
2.952599823474884033e-01
-1.350189208984375000e+00
-6.715422272682189941e-01
-1.236528635025024414e+00
-1.217812657356262207e+00
1.238078117370605469e+00
1.417249083518981934e+00
-3.536777734756469727e+00
1.211758136749267578e+00
3.025628328323364258e-01
-8.648613691329956055e-01
-4.150658547878265381e-01
1.364414334297180176e+00
-7.875043153762817383e-01
3.260451555252075195e-01
1.050470829010009766e+00
2.500890731811523438e+00
-1.103691935539245605e+00
-3.267338752746582031e+00
-1.059621691703796387e+00
9.422832727432250977e-01
8.473994731903076172e-01
-1.791370987892150879e+00
-1.981586515903472900e-01
2.053063392639160156e+00
2.031627893447875977e+00
-1.610947728157043457e+00
-7.139343619346618652e-01
-2.764524519443511963e-02
-1.126789569854736328e+00
-1.655400991439819336e+00
-7.429580092430114746e-01
-1.735423505306243896e-01
-2.694480717182159424e-01
3.717327117919921875e-01
1.944782853126525879e+00
-5.590312957763671875e+00
3.811721801757812500e+00
4.090296268463134766e+00
-4.217745780944824219e+00
-3.907701745629310608e-02
7.786192297935485840e-01
6.504534482955932617e-01
-4.293620288372039795e-01
1.587183475494384766e+00
2.870132029056549072e-01
-1.622895479202270508e+00
1.342577338218688965e+00
-2.059535741806030273e+00
-7.557899355888366699e-01
-3.036369383335113525e-01
-1.356155991554260254e+00
-3.087010085582733154e-01
-1.185518383979797363e+00
-5.159811377525329590e-01
1.302265167236328125e+00
-1.885280609130859375e+00
1.157636344432830811e-01
2.120761394500732422e+00
-3.121540546417236328e-01
-1.925801157951354980e+00
-2.417766332626342773e+00
1.631716251373291016e+00
1.266709685325622559e+00
7.795420289039611816e-01
2.631955444812774658e-01
1.196162343025207520e+00
3.987542092800140381e-01
