# (16, 1, 3, 3)
-3.861912190914154053e-01
-2.369264326989650726e-02
2.790165245532989502e-01
-1.668989062309265137e-01
-7.469754219055175781e-01
-5.036602020263671875e-01
5.993301272392272949e-01
3.108875155448913574e-01
-8.908828347921371460e-02
-2.059177681803703308e-02
1.179470196366310120e-01
-2.612529397010803223e-01
1.037726998329162598e-01
-4.872212652117013931e-03
2.145857810974121094e-01
-1.955820769071578979e-01
3.438507616519927979e-01
2.722411453723907471e-01
-2.564088702201843262e-01
-3.153824508190155029e-01
-3.277674615383148193e-01
-2.600281834602355957e-01
-2.990726530551910400e-01
-4.326361790299415588e-02
-6.058682873845100403e-02
6.316232681274414062e-02
-5.723551511764526367e-01
9.542590938508510590e-03
3.369917869567871094e-01
3.357290923595428467e-01
-3.869263827800750732e-01
-2.189666926860809326e-01
-3.055802285671234131e-01
-3.186013996601104736e-01
-2.312867045402526855e-01
-3.293664157390594482e-01
7.074683904647827148e-02
1.460452973842620850e-01
-3.888389766216278076e-01
9.439934045076370239e-02
5.433765798807144165e-02
-1.036650501191616058e-02
6.367857754230499268e-02
3.001245260238647461e-01
1.323024630546569824e-01
1.358121186494827271e-01
3.996393382549285889e-01
1.205894276499748230e-01
2.831264436244964600e-01
1.430632621049880981e-01
-3.805659711360931396e-01
7.988393306732177734e-02
-3.041226267814636230e-01
-4.638645946979522705e-01
1.765928566455841064e-01
-1.492187678813934326e-01
-3.516892492771148682e-01
-1.538058221340179443e-01
1.081383228302001953e-02
-2.340300530195236206e-01
-6.491660475730895996e-01
-9.911315888166427612e-02
-9.014581143856048584e-02
6.591192632913589478e-02
2.776905298233032227e-01
-2.243059575557708740e-01
-3.725779056549072266e-01
4.019924998283386230e-01
3.641506433486938477e-01
-5.067510008811950684e-01
2.215442508459091187e-01
2.115090191364288330e-02
-4.886240363121032715e-01
-5.646292567253112793e-01
-2.051596343517303467e-01
1.927832961082458496e-01
1.161170378327369690e-02
-6.110626459121704102e-01
4.829735457897186279e-01
2.027301192283630371e-01
-2.386116236448287964e-01
-1.554179191589355469e-01
-4.939548671245574951e-01
-1.154061928391456604e-01
-4.477647542953491211e-01
1.505824923515319824e-01
2.300863564014434814e-01
1.556200161576271057e-02
4.383927583694458008e-01
2.955788075923919678e-01
-5.185965299606323242e-01
-4.982682764530181885e-01
2.013556957244873047e-01
-4.830286279320716858e-02
3.286143839359283447e-01
4.903597533702850342e-01
4.662884771823883057e-02
1.876232177019119263e-01
-1.068740412592887878e-01
-2.003574818372726440e-01
2.137738615274429321e-01
-6.311475634574890137e-01
-1.420515775680541992e-02
3.301672935485839844e-01
-6.069828197360038757e-02
4.317678511142730713e-01
3.252595663070678711e-01
-2.003344297409057617e-01
2.304408103227615356e-01
-8.987242728471755981e-02
2.104248106479644775e-01
-9.239625185728073120e-02
1.061822921037673950e-01
1.716776937246322632e-01
1.484128385782241821e-01
8.456070721149444580e-02
8.462060242891311646e-03
3.252078890800476074e-01
4.795175492763519287e-01
1.567425429821014404e-01
-2.329572290182113647e-01
6.070164963603019714e-02
1.662372611463069916e-02
-3.423066735267639160e-01
-6.235706806182861328e-01
-2.016211450099945068e-01
-4.646098017692565918e-01
2.086317688226699829e-01
-5.894053727388381958e-02
2.783347070217132568e-01
3.492899537086486816e-01
9.251077473163604736e-02
2.926643490791320801e-01
-7.793029397726058960e-02
-1.532382965087890625e-01
1.081408411264419556e-01
2.133316099643707275e-01
4.431429207324981689e-01
-4.241460859775543213e-01
-1.890334039926528931e-01
3.313448429107666016e-01
-1.805494725704193115e-01
-3.429704904556274414e-01
1.149723678827285767e-01
