# (16, 1, 3, 3)
-2.874915301799774170e-02
3.977066874504089355e-01
1.898935139179229736e-01
-2.868844866752624512e-01
-2.040389478206634521e-01
3.470367193222045898e-01
-2.689229547977447510e-01
-2.103883326053619385e-01
-4.226002991199493408e-01
1.479445248842239380e-01
-3.216141089797019958e-02
-2.025148421525955200e-01
-3.865563869476318359e-01
-2.219403535127639771e-01
-1.547189056873321533e-02
-4.363952577114105225e-01
-1.717265844345092773e-01
-4.460357725620269775e-01
3.205644488334655762e-01
1.837745606899261475e-01
2.343955785036087036e-01
2.463908633217215538e-03
-9.671194106340408325e-02
1.655572056770324707e-01
2.414778321981430054e-01
1.787686645984649658e-01
-1.613483428955078125e-01
1.710939407348632812e-01
-1.190760284662246704e-01
-9.160169214010238647e-02
2.042907327413558960e-01
2.031104266643524170e-01
4.142486155033111572e-01
-2.425581067800521851e-01
2.817017436027526855e-01
2.343430519104003906e-01
3.810520768165588379e-01
-1.770214177668094635e-02
-3.251827955245971680e-01
6.652162224054336548e-02
3.588712811470031738e-01
-6.474093198776245117e-01
1.692725419998168945e-01
4.000204503536224365e-01
-3.336054384708404541e-01
3.316121399402618408e-01
2.481587082147598267e-01
-3.382778465747833252e-01
1.965098679065704346e-01
1.347251385450363159e-01
3.582703694701194763e-02
-2.135742753744125366e-01
8.717764168977737427e-02
4.878934845328330994e-02
2.639742940664291382e-02
3.723814189434051514e-01
1.695853471755981445e-01
1.502307504415512085e-01
3.861527442932128906e-01
3.056663870811462402e-01
-2.065739035606384277e-01
-9.632942825555801392e-02
2.469633221626281738e-01
1.832853704690933228e-01
-7.766590267419815063e-02
-3.101396560668945312e-01
1.258186716586351395e-02
4.802516102790832520e-01
-4.563478752970695496e-02
3.256130516529083252e-01
-3.124992921948432922e-02
-3.088619709014892578e-01
-7.200410962104797363e-01
-4.833918809890747070e-01
2.713145613670349121e-01
-3.912968039512634277e-01
1.077027544379234314e-01
4.265069663524627686e-01
3.743853867053985596e-01
4.505248367786407471e-01
-6.294945254921913147e-03
-6.305299997329711914e-01
1.233710199594497681e-01
3.001625537872314453e-01
-6.423730403184890747e-02
-1.784572750329971313e-01
-2.643415331840515137e-01
4.074052870273590088e-01
2.687762975692749023e-01
-4.937619268894195557e-01
4.720371067523956299e-01
4.883600473403930664e-01
-4.318226501345634460e-02
1.905008964240550995e-02
1.030231267213821411e-01
-5.271434783935546875e-01
-3.291705548763275146e-01
-7.012678980827331543e-01
-2.978459000587463379e-01
9.193287789821624756e-02
1.427315771579742432e-01
2.704089283943176270e-01
2.620231211185455322e-01
-4.810090363025665283e-02
3.055823147296905518e-01
1.775119155645370483e-01
-1.375494599342346191e-01
-5.564089417457580566e-01
2.803222835063934326e-01
3.342081904411315918e-01
2.578803002834320068e-01
-1.154642477631568909e-01
2.037972062826156616e-01
-2.876308858394622803e-01
-5.104572772979736328e-01
-5.528662800788879395e-01
-2.222262173891067505e-01
-1.650405824184417725e-01
1.962794512510299683e-01
-3.120204210281372070e-01
6.950375437736511230e-02
2.991873323917388916e-01
-4.882448911666870117e-02
2.291387766599655151e-01
2.258822321891784668e-01
5.977791920304298401e-02
-1.259265094995498657e-01
-2.259380416944622993e-03
-2.039467543363571167e-01
2.192789502441883087e-02
1.989407241344451904e-01
-4.481057226657867432e-01
5.653799772262573242e-01
3.137258887290954590e-01
-1.092434674501419067e-02
-4.726362526416778564e-01
1.088020950555801392e-01
5.787545815110206604e-02
-1.067659705877304077e-01
2.469148114323616028e-02
4.281317591667175293e-01
2.430889457464218140e-01
3.881250917911529541e-01
-1.504139453172683716e-01
