# (32, 1568)
-1.252075582742691040e-01
-7.456810027360916138e-02
-1.198685243725776672e-01
-1.349415034055709839e-01
-2.201584428548812866e-01
-7.222463190555572510e-02
-1.167543679475784302e-01
1.206954866647720337e-01
1.735652536153793335e-01
2.121875882148742676e-01
9.834261238574981689e-02
2.102079391479492188e-01
1.691133379936218262e-01
-5.878892913460731506e-02
-9.501905180513858795e-03
1.898675858974456787e-01
2.466506212949752808e-01
-1.013805791735649109e-01
1.501630395650863647e-01
1.203816160559654236e-01
1.177790481597185135e-02
-8.309174329042434692e-02
1.726172268390655518e-01
1.385957002639770508e-01
1.315652113407850266e-02
-1.481635775417089462e-02
-5.445563420653343201e-02
1.520571298897266388e-02
-3.804114833474159241e-02
2.051358669996261597e-01
3.730689734220504761e-02
1.368172839283943176e-02
-2.669125236570835114e-02
-2.440318232402205467e-03
-4.739464074373245239e-02
-3.838514164090156555e-02
3.788765892386436462e-02
1.210385744343511760e-04
-5.963192507624626160e-02
-1.000235900282859802e-01
-6.094210222363471985e-02
1.427292078733444214e-01
6.497522443532943726e-02
-7.577735930681228638e-02
-7.288503460586071014e-03
-9.325197897851467133e-03
-5.143763124942779541e-02
-1.263166815042495728e-01
3.578803315758705139e-02
1.473135664127767086e-03
6.839896086603403091e-03
-8.805192261934280396e-02
-2.557839453220367432e-02
1.270023137331008911e-01
1.208769064396619797e-02
4.213057085871696472e-02
1.665069907903671265e-01
-1.668275147676467896e-01
-1.459946036338806152e-01
-1.288097798824310303e-01
-2.030939608812332153e-01
7.959805428981781006e-02
2.228073030710220337e-02
4.616899788379669189e-02
-1.841882020235061646e-01
9.899282827973365784e-03
4.523853212594985962e-02
7.102800160646438599e-02
4.175011813640594482e-02
1.637947112321853638e-01
-3.685285896062850952e-02
1.027073618024587631e-02
-2.269743010401725769e-02
-3.443766757845878601e-02
2.615584805607795715e-02
-1.069247499108314514e-01
2.512318789958953857e-01
3.129735216498374939e-02
-1.053432300686836243e-01
-8.338007330894470215e-02
6.512298434972763062e-02
2.467666007578372955e-02
2.152869850397109985e-02
1.355510503053665161e-01
1.015858650207519531e-01
-8.821233361959457397e-02
1.332118548452854156e-02
9.444464743137359619e-02
4.828200489282608032e-02
-2.565987035632133484e-02
4.619877040386199951e-02
-3.816487640142440796e-02
-8.394531160593032837e-02
-1.758632063865661621e-01
-2.132896706461906433e-02
1.189453378319740295e-01
7.131981849670410156e-02
-5.340327322483062744e-02
1.938554830849170685e-02
-4.794407170265913010e-03
-2.349161505699157715e-01
-2.151086628437042236e-01
-2.143204957246780396e-01
-1.110175624489784241e-01
-7.399622700177133083e-04
4.885516315698623657e-02
5.356789752840995789e-02
1.767154186964035034e-01
6.709026545286178589e-02
9.446130692958831787e-02
-3.657928481698036194e-02
-3.734416142106056213e-02
1.371859610080718994e-01
2.088184058666229248e-01
2.507494390010833740e-01
1.010524854063987732e-01
6.998502463102340698e-02
-2.579451352357864380e-02
-8.899974077939987183e-02
1.175834983587265015e-01
-2.551987171173095703e-01
-3.296726942062377930e-02
-8.870562165975570679e-02
-1.442274600267410278e-01
2.422033995389938354e-02
-1.201653257012367249e-01
1.846210099756717682e-02
-7.248909771442413330e-02
-1.366624981164932251e-01
-1.679013222455978394e-01
-1.644917950034141541e-02
3.794657066464424133e-02
-5.582351982593536377e-02
7.634743303060531616e-02
1.593105792999267578e-01
-1.176726520061492920e-01
-7.802613545209169388e-03
5.945898965001106262e-02
-5.234251543879508972e-02
2.039566263556480408e-02
3.716346994042396545e-02
-1.346191614866256714e-01
-1.709790825843811035e-01
-1.167420148849487305e-01
-8.586113154888153076e-02
-1.856165975332260132e-01
1.129743531346321106e-01
4.798429831862449646e-02
9.035137295722961426e-02
6.245579570531845093e-02
7.625021785497665405e-02
2.007385641336441040e-01
8.094646781682968140e-02
3.874998912215232849e-02
-3.303932258859276772e-03
-1.239255592226982117e-01
-8.785955607891082764e-02
5.466472357511520386e-03
4.928079247474670410e-02
1.282429546117782593e-01
1.284801959991455078e-01
2.169704250991344452e-02
-2.086776942014694214e-01
-1.125400289893150330e-01
-1.626762375235557556e-02
2.211576998233795166e-01
1.179362013936042786e-01
4.820459708571434021e-02
-6.796746701002120972e-02
-6.223088875412940979e-02
-3.568419441580772400e-02
5.422136932611465454e-02
2.050423324108123779e-01
1.014633700251579285e-01
1.035274416208267212e-01
-4.767445474863052368e-02
-1.926757395267486572e-01
-1.216648295521736145e-01
-3.099379688501358032e-02
-8.113703131675720215e-02
1.597402989864349365e-01
2.032490372657775879e-01
7.929192483425140381e-02
1.897316053509712219e-02
-1.726180016994476318e-01
-6.853635609149932861e-02
-1.833813786506652832e-01
6.041755527257919312e-02
-1.255317311733961105e-02
-1.371326483786106110e-02
-5.039443075656890869e-02
2.468676771968603134e-03
-2.055401951074600220e-01
-7.428077608346939087e-02
1.609839126467704773e-02
-4.790493287146091461e-03
-1.081740930676460266e-01
1.026468276977539062e-01
1.858559548854827881e-01
2.504692971706390381e-02
1.317702680826187134e-01
2.717230236157774925e-03
-1.223612055182456970e-01
1.092569828033447266e-01
4.559554159641265869e-03
2.015007287263870239e-02
-7.746599614620208740e-02
-5.028033256530761719e-02
1.051482334733009338e-01
2.834565751254558563e-02
-5.953464284539222717e-02
1.377743575721979141e-02
-1.866431720554828644e-02
-1.005357652902603149e-01
-1.577247530221939087e-01
1.910196244716644287e-02
-1.275288593024015427e-02
-7.163925468921661377e-02
1.915776133537292480e-01
9.702260047197341919e-02
7.338968664407730103e-02
-1.677740216255187988e-01
1.077071130275726318e-01
1.629927307367324829e-01
1.850548535585403442e-01
1.097488403320312500e-01
-1.349318027496337891e-01
-4.077045619487762451e-02
1.016196161508560181e-01
8.143575489521026611e-02
9.051404893398284912e-02
1.129012834280729294e-02
1.478377357125282288e-02
1.701092347502708435e-02
-1.547300256788730621e-03
3.824208676815032959e-02
2.288581244647502899e-02
2.009928971529006958e-01
-1.641625463962554932e-01
-1.070010289549827576e-01
7.229143381118774414e-02
1.251018792390823364e-01
1.215299442410469055e-01
-4.514469206333160400e-02
2.393841557204723358e-02
7.877871394157409668e-02
-9.906898252665996552e-03
1.077726483345031738e-01
-3.731365501880645752e-02
-5.276050418615341187e-02
9.481046348810195923e-02
-3.356697270646691322e-03
2.276445329189300537e-01
4.102943465113639832e-02
-3.812228143215179443e-02
-7.491390407085418701e-02
-6.353064626455307007e-02
1.721384823322296143e-01
5.806530267000198364e-02
-7.232843199744820595e-04
-5.606029182672500610e-02
-5.460939183831214905e-02
-1.695405691862106323e-01
1.214171648025512695e-01
9.490561485290527344e-02
1.985606178641319275e-02
2.974773012101650238e-02
-2.829190529882907867e-02
4.263610392808914185e-02
1.115352585911750793e-01
4.285205155611038208e-03
1.889009028673171997e-01
1.021580398082733154e-01
1.798760592937469482e-01
-2.084751240909099579e-02
-7.543057203292846680e-02
-1.870127394795417786e-02
1.450264006853103638e-01
2.132386267185211182e-01
2.358306199312210083e-01
1.017209067940711975e-01
5.483467131853103638e-03
6.448987126350402832e-02
3.672087192535400391e-02
2.056655138731002808e-01
1.491648703813552856e-01
1.049468919518403709e-04
6.488765776157379150e-02
5.759582296013832092e-02
-1.339756250381469727e-01
-1.260455697774887085e-01
1.079110056161880493e-01
6.733363121747970581e-02
2.012787461280822754e-01
1.201527640223503113e-01
-2.482087723910808563e-02
8.194509893655776978e-03
-2.997717261314392090e-02
-6.167530640959739685e-02
-1.133180409669876099e-01
1.012201793491840363e-02
5.687197670340538025e-02
2.365929447114467621e-02
1.720438897609710693e-02
8.874890394508838654e-03
-5.697226151823997498e-02
-9.293761849403381348e-02
3.445111587643623352e-02
-3.113018721342086792e-02
-1.085047796368598938e-01
5.825425684452056885e-02
-1.184764578938484192e-01
-2.651066519320011139e-02
-1.956837475299835205e-01
-4.542843624949455261e-02
5.744937434792518616e-02
2.461975514888763428e-01
4.626035690307617188e-03
1.916648745536804199e-01
3.914387151598930359e-02
-1.076530665159225464e-02
7.853917777538299561e-02
4.251251220703125000e-01
3.437460362911224365e-01
1.592856645584106445e-01
1.916258335113525391e-01
1.266172435134649277e-02
1.084397174417972565e-02
1.346327960491180420e-01
1.802885681390762329e-01
3.889632644131779671e-03
6.410598289221525192e-03
3.675674274563789368e-02
7.630106806755065918e-02
4.522235691547393799e-02
1.134508550167083740e-01
-1.903646886348724365e-01
-7.321969419717788696e-02
1.117161512374877930e-01
-1.121510192751884460e-01
-1.322398632764816284e-01
-1.004615351557731628e-01
-5.999831110239028931e-02
1.096694469451904297e-01
-1.199602186679840088e-01
1.399061232805252075e-01
9.240449965000152588e-02
4.195399209856987000e-02
7.565131038427352905e-02
-7.112010847777128220e-03
1.247278302907943726e-01
-1.689100172370672226e-03
1.334907263517379761e-01
5.873830243945121765e-02
-5.433185771107673645e-02
-1.411278694868087769e-01
-6.460292637348175049e-02
-1.409307122230529785e-01
-8.934441208839416504e-02
-3.300706446170806885e-01
-1.669604629278182983e-01
1.447056140750646591e-02
-6.630124896764755249e-02
2.636117041110992432e-01
7.551979273557662964e-02
-2.186320424079895020e-01
-1.337222158908843994e-01
1.457581669092178345e-01
1.776259243488311768e-01
6.014702375978231430e-03
1.587887704372406006e-01
3.054442703723907471e-01
-2.309115603566169739e-02
7.090141065418720245e-03
1.604987978935241699e-01
-1.212211791425943375e-02
-4.382720682770013809e-03
7.764783501625061035e-02
1.493363082408905029e-01
-3.349906206130981445e-02
-4.098939895629882812e-02
-4.424325749278068542e-02
1.948469281196594238e-01
1.823027990758419037e-02
-3.530622273683547974e-02
-5.131877958774566650e-02
1.609806120395660400e-01
6.663957983255386353e-02
-2.195383980870246887e-02
-1.199340075254440308e-01
-6.018552184104919434e-02
-2.367768064141273499e-02
1.488847136497497559e-01
-9.859320521354675293e-02
-3.879358991980552673e-02
-1.456483006477355957e-01
-2.490368187427520752e-01
-8.611943572759628296e-02
8.785061538219451904e-02
1.089672818779945374e-01
5.493268743157386780e-02
6.886122375726699829e-02
3.517006337642669678e-01
2.966762483119964600e-01
2.359360307455062866e-01
3.958836197853088379e-02
-3.912173956632614136e-02
-6.333793699741363525e-02
-3.195338696241378784e-02
9.518388658761978149e-02
1.726460605859756470e-01
3.863176703453063965e-02
-6.546904146671295166e-02
-1.912373453378677368e-01
-3.606548160314559937e-02
8.372949808835983276e-02
-2.336224354803562164e-02
-7.050018012523651123e-02
-3.092822246253490448e-02
1.346882134675979614e-01
5.028783902525901794e-02
5.580631550401449203e-03
-4.095426574349403381e-02
-2.330824732780456543e-01
-1.180849373340606689e-01
1.203063800930976868e-01
-5.909391213208436966e-03
9.573498973622918129e-04
-3.287181258201599121e-02
-1.180838122963905334e-01
-2.197765186429023743e-02
5.474657565355300903e-02
-1.030668839812278748e-01
4.718589037656784058e-02
1.149132549762725830e-01
-1.405818909406661987e-01
-5.502976849675178528e-02
9.514947421848773956e-03
-2.275930345058441162e-02
1.080382168292999268e-01
1.053059026598930359e-01
6.690206378698348999e-02
1.794985830783843994e-01
2.672721073031425476e-02
1.852215081453323364e-02
9.023191034793853760e-02
-1.102739050984382629e-01
-9.810179471969604492e-03
1.273113638162612915e-01
5.463846609927713871e-04
-5.210188403725624084e-02
1.607797481119632721e-02
2.183598652482032776e-02
1.031938195228576660e-01
-3.767668036743998528e-03
8.287483453750610352e-02
-1.128836944699287415e-01
-3.964386507868766785e-02
3.297650488093495369e-03
6.458303332328796387e-02
7.947354763746261597e-02
-1.338376700878143311e-01
-7.749594002962112427e-02
-1.177573874592781067e-01
1.701835170388221741e-02
3.382239374332129955e-04
4.212020710110664368e-02
3.302327357232570648e-03
-1.080448478460311890e-01
-5.798152461647987366e-02
-7.487176358699798584e-02
-1.154412403702735901e-01
7.427779585123062134e-02
-2.479186654090881348e-02
1.148674041032791138e-01
1.419712509959936142e-02
2.785422652959823608e-02
-4.900601506233215332e-02
-2.188836038112640381e-01
-3.690927475690841675e-02
-1.465678494423627853e-02
-9.481978416442871094e-02
-1.078154519200325012e-02
6.945334374904632568e-02
-1.452354900538921356e-02
-1.614455506205558777e-02
1.450641662813723087e-03
-2.054197154939174652e-02
-7.068140059709548950e-02
-4.882325418293476105e-03
-1.249771192669868469e-02
9.826528839766979218e-03
-1.284096539020538330e-01
-2.366668544709682465e-02
-1.868510842323303223e-01
6.589667499065399170e-02
2.957207034341990948e-04
1.156339496374130249e-01
1.022506281733512878e-01
1.982965879142284393e-02
1.180942803621292114e-01
1.338966637849807739e-01
2.754875719547271729e-01
8.584366738796234131e-02
-1.667047590017318726e-01
-2.388288825750350952e-02
4.185384884476661682e-02
-6.596998870372772217e-02
1.709592342376708984e-01
-4.751053452491760254e-02
1.636476814746856689e-02
-9.105635434389114380e-02
-8.265494555234909058e-02
1.382852196693420410e-01
-1.635503619909286499e-01
-1.170407831668853760e-01
-3.510554879903793335e-02
7.562739402055740356e-02
8.370241522789001465e-02
-6.846588104963302612e-03
-2.525458931922912598e-01
-4.727146029472351074e-02
1.983538269996643066e-01
3.750027716159820557e-02
-2.707951888442039490e-02
-2.660479862242937088e-03
7.422199100255966187e-02
-2.253385633230209351e-02
8.690880239009857178e-02
6.323152035474777222e-02
2.965183369815349579e-02
2.584015019237995148e-02
-1.516804397106170654e-01
-6.304126232862472534e-02
4.378714412450790405e-02
-7.898136973381042480e-02
-7.820408046245574951e-02
-6.449786573648452759e-02
5.019868537783622742e-02
7.045214623212814331e-02
1.308997254818677902e-02
-1.964718997478485107e-01
-3.916497230529785156e-01
-2.266026735305786133e-01
-1.576123088598251343e-01
-2.793188020586967468e-02
-4.632078856229782104e-02
1.972135454416275024e-01
2.978918701410293579e-02
2.091734409332275391e-01
1.164872869849205017e-01
1.190454065799713135e-01
4.720424115657806396e-02
-1.697623133659362793e-01
-1.701035723090171814e-02
-8.481491357088088989e-02
-7.713803648948669434e-02
7.000110298395156860e-02
-1.319209486246109009e-01
-5.362774804234504700e-02
-5.797123536467552185e-02
-2.539906501770019531e-01
-1.520913559943437576e-02
-1.900887489318847656e-02
-6.001364812254905701e-02
3.709844872355461121e-02
-1.944927424192428589e-01
1.161812767386436462e-01
-1.912793219089508057e-01
-1.120498999953269958e-01
-1.016868725419044495e-01
-1.694621890783309937e-02
5.974643677473068237e-02
7.924086600542068481e-02
5.393605213612318039e-03
5.394653603434562683e-02
-1.558326333761215210e-01
-1.767199039459228516e-01
4.952195659279823303e-02
-6.124511361122131348e-02
7.933147251605987549e-02
7.667019218206405640e-02
1.358212679624557495e-01
1.192185282707214355e-01
-3.600849583745002747e-02
-4.988180845975875854e-02
-1.070092394948005676e-01
-3.982619568705558777e-02
2.864358015358448029e-02
1.434264332056045532e-01
-4.786392301321029663e-02
-6.033441051840782166e-02
-5.963761359453201294e-02
2.879455126821994781e-02
1.221624389290809631e-02
-1.646400690078735352e-01
6.658092886209487915e-02
5.110114067792892456e-02
-1.380476914346218109e-02
2.577812671661376953e-01
1.512827817350625992e-02
3.606781363487243652e-03
-8.069148170761764050e-04
4.100404977798461914e-01
3.958882391452789307e-01
5.367380008101463318e-02
5.934660136699676514e-02
2.073365449905395508e-02
2.608887851238250732e-02
1.672082096338272095e-01
1.079815924167633057e-01
1.944299936294555664e-01
-5.591977387666702271e-02
-4.177569225430488586e-02
-8.601570129394531250e-02
-2.870750054717063904e-02
-2.383922040462493896e-02
1.703572422266006470e-01
1.499030292034149170e-01
-5.004714801907539368e-02
-8.434627205133438110e-02
-1.085124984383583069e-01
-6.494125816971063614e-03
1.497349441051483154e-01
9.017261862754821777e-02
1.805549860000610352e-02
2.476376295089721680e-02
2.519972249865531921e-02
1.657944358885288239e-02
-3.373788669705390930e-02
-7.045367360115051270e-02
-1.310285925865173340e-01
-2.238021232187747955e-02
-1.484148018062114716e-02
-1.531912386417388916e-02
-9.614724665880203247e-02
7.617475837469100952e-02
9.604644961655139923e-03
-1.627169996500015259e-01
-1.588731557130813599e-01
-8.192907087504863739e-03
-1.343787014484405518e-01
2.962363511323928833e-02
2.300150990486145020e-01
1.661936938762664795e-01
6.084511429071426392e-02
-8.144138753414154053e-02
9.603276848793029785e-02
1.239824593067169189e-01
3.573521226644515991e-02
3.501871228218078613e-02
5.766249448060989380e-02
-7.306038588285446167e-02
-2.526445128023624420e-02
-1.246255487203598022e-01
-1.430237144231796265e-01
-7.711326330900192261e-02
1.098083779215812683e-01
-1.379870325326919556e-01
-1.493438333272933960e-01
-1.217471286654472351e-01
-8.044911921024322510e-02
1.134648919105529785e-01
-9.795216470956802368e-02
5.785606056451797485e-02
5.165066197514533997e-02
-3.570391982793807983e-02
-1.170694082975387573e-01
6.908908486366271973e-02
6.502064876258373260e-03
1.243906840682029724e-01
1.059854552149772644e-01
1.243914812803268433e-01
2.103620395064353943e-02
-9.632909297943115234e-02
-3.946811705827713013e-02
7.495190948247909546e-02
8.841621130704879761e-02
1.746485531330108643e-01
6.645420193672180176e-02
-6.362701952457427979e-02
4.191476851701736450e-02
5.681538209319114685e-02
-5.826554819941520691e-02
-1.217161417007446289e-01
-1.425127871334552765e-02
-3.004664927721023560e-02
4.013400897383689880e-02
-2.932519018650054932e-01
-2.178476899862289429e-01
-4.777858033776283264e-02
-2.279641777276992798e-01
-1.180247142910957336e-01
6.505216006189584732e-03
2.692507803440093994e-01
8.556959778070449829e-02
-7.793935481458902359e-03
1.293845474720001221e-01
5.699358135461807251e-02
-6.335954647511243820e-03
2.141063511371612549e-01
1.325107216835021973e-01
5.357275158166885376e-02
6.905010342597961426e-02
-3.712978586554527283e-02
-1.714245975017547607e-02
-3.180679306387901306e-02
2.833947353065013885e-02
-4.602802172303199768e-02
3.830456361174583435e-02
-8.368419110774993896e-02
-2.260985784232616425e-02
-1.212137416005134583e-01
1.713423430919647217e-01
-3.381202742457389832e-02
8.996016532182693481e-02
1.042259931564331055e-01
-4.898869991302490234e-02
-5.285263434052467346e-02
-1.770014129579067230e-02
2.694074213504791260e-01
1.718720644712448120e-01
3.149100393056869507e-02
6.185036152601242065e-02
2.477745153009891510e-02
4.206433519721031189e-02
3.563646227121353149e-02
1.814884245395660400e-01
4.723903536796569824e-02
-6.873733550310134888e-02
-9.826709330081939697e-02
-1.039404571056365967e-01
5.080977454781532288e-02
1.237727552652359009e-01
-1.499314904212951660e-01
4.731952026486396790e-02
4.935893416404724121e-02
-8.872076869010925293e-03
-5.116953328251838684e-02
-1.383342314511537552e-02
-1.249429769814014435e-03
-4.828479606658220291e-03
1.999645233154296875e-01
1.507487148046493530e-01
-1.470455317758023739e-04
-1.465505957603454590e-01
2.795180678367614746e-02
7.621716707944869995e-02
5.252470076084136963e-02
-7.080985605716705322e-02
-5.835316330194473267e-02
-2.410435862839221954e-02
1.219644770026206970e-02
3.157252445816993713e-02
1.022219285368919373e-01
-1.350683718919754028e-01
-4.382929205894470215e-02
-4.669969901442527771e-02
-9.431287646293640137e-02
-2.034521698951721191e-01
-3.929517045617103577e-02
-9.104420244693756104e-02
-3.759839572012424469e-03
-3.057072497904300690e-02
1.889444291591644287e-01
1.416722387075424194e-01
-2.501134946942329407e-02
1.851416565477848053e-02
1.442438364028930664e-01
-1.622244343161582947e-02
2.072000205516815186e-01
8.788605034351348877e-02
1.664468795061111450e-01
-5.072525236755609512e-03
1.006395369768142700e-01
1.267409026622772217e-01
5.127442255616188049e-02
1.692802459001541138e-01
-1.083551533520221710e-02
-5.087458342313766479e-02
-9.898803383111953735e-02
-5.151549354195594788e-02
-1.022881940007209778e-01
-3.430631011724472046e-03
1.054104045033454895e-01
1.351514738053083420e-02
-4.794760048389434814e-02
-3.346097767353057861e-01
-7.825960963964462280e-02
-1.237529218196868896e-01
-1.494496613740921021e-01
8.783824741840362549e-02
8.961953967809677124e-02
4.132138937711715698e-02
7.985781133174896240e-02
3.885916993021965027e-02
1.742854714393615723e-02
-6.551308929920196533e-02
1.344219893217086792e-01
1.808785647153854370e-01
1.139950007200241089e-01
2.474697679281234741e-02
1.349443942308425903e-02
5.455625057220458984e-02
-2.304017357528209686e-02
5.978720262646675110e-02
-1.589648574590682983e-01
-1.991064846515655518e-02
6.305468082427978516e-02
1.241790782660245895e-02
-3.863035514950752258e-02
-7.438937574625015259e-02
-1.170601136982440948e-02
6.804344058036804199e-02
-1.846014410257339478e-01
-4.959885403513908386e-02
2.947673387825489044e-02
2.478350512683391571e-02
1.178846042603254318e-02
8.625514060258865356e-02
2.660991251468658447e-01
-5.105938762426376343e-02
4.164071008563041687e-02
4.593152925372123718e-02
4.962270706892013550e-02
1.088459640741348267e-01
1.210581809282302856e-01
-1.563309431076049805e-01
-9.815777838230133057e-02
-1.290979515761137009e-02
-1.067429780960083008e-01
1.229531913995742798e-01
1.773685216903686523e-01
-5.786040797829627991e-03
-2.165892394259572029e-03
4.042556136846542358e-02
-6.499496288597583771e-03
-1.816882379353046417e-02
-1.647724024951457977e-02
-2.439539879560470581e-02
7.056552916765213013e-02
1.729876920580863953e-02
-5.891053378582000732e-02
-1.905635446310043335e-01
2.696970477700233459e-03
1.093950793147087097e-01
5.158816277980804443e-02
1.464606821537017822e-02
4.182446002960205078e-02
8.174350112676620483e-02
5.157643184065818787e-02
1.768414489924907684e-02
6.923542171716690063e-02
1.340233068913221359e-02
-8.332175016403198242e-02
-3.383810818195343018e-02
-1.800813898444175720e-02
-1.397827416658401489e-01
6.007098406553268433e-02
-1.437319517135620117e-01
-2.730227820575237274e-02
1.248385310173034668e-01
-1.269747008336707950e-04
-1.608183234930038452e-01
7.670436054468154907e-02
1.071105897426605225e-01
2.920857816934585571e-02
2.123645134270191193e-02
8.725015074014663696e-02
3.595644235610961914e-02
-2.450242079794406891e-02
2.445153333246707916e-02
-9.940266609191894531e-03
8.423212170600891113e-02
4.136610031127929688e-02
2.667045779526233673e-02
-1.866149902343750000e-02
-1.588168181478977203e-02
-2.607308328151702881e-01
-1.798570603132247925e-01
-8.051156252622604370e-02
6.313520018011331558e-03
2.858075127005577087e-02
-9.399179369211196899e-02
-1.443024128675460815e-01
-2.373522073030471802e-01
-3.062878847122192383e-01
-1.599558144807815552e-01
-1.287777721881866455e-01
8.469225466251373291e-02
4.662745073437690735e-02
1.461827903985977173e-01
2.217392027378082275e-01
1.312931776046752930e-01
-4.342060536146163940e-03
5.775061994791030884e-02
-1.656544953584671021e-01
-9.474807232618331909e-02
9.079581499099731445e-02
2.704152762889862061e-01
1.436893790960311890e-01
1.787136425264179707e-04
-5.299513414502143860e-02
1.124304085969924927e-01
-1.885690726339817047e-02
-6.978446245193481445e-02
1.734961755573749542e-03
-1.396899074316024780e-01
-8.059441298246383667e-02
-1.568276137113571167e-01
1.383197903633117676e-01
4.777804389595985413e-02
-1.992857158184051514e-01
-1.810137033462524414e-01
-2.572995610535144806e-02
-4.338433500379323959e-03
2.882193587720394135e-02
-4.789025988429784775e-03
6.036809086799621582e-02
-1.482383161783218384e-01
-1.317522525787353516e-01
-7.017402350902557373e-02
-1.845679432153701782e-02
2.906738407909870148e-02
4.608559980988502502e-02
-1.470882445573806763e-01
-2.349086403846740723e-01
-7.641394436359405518e-02
-1.520922183990478516e-01
-5.407235398888587952e-02
-1.025514677166938782e-02
2.399898692965507507e-02
-2.035885490477085114e-02
1.512079983949661255e-01
7.313261926174163818e-02
1.477923393249511719e-01
-8.789503015577793121e-03
4.036544263362884521e-02
7.564212381839752197e-02
-1.396217197179794312e-01
-4.292390868067741394e-02
-1.838847100734710693e-01
-6.634996831417083740e-02
1.755969226360321045e-02
6.775926798582077026e-02
-9.782365709543228149e-02
-1.610842049121856689e-01
-2.121939212083816528e-01
9.833346307277679443e-02
2.460339516401290894e-01
-4.058392718434333801e-02
2.548412047326564789e-02
-3.916596621274948120e-02
-9.629496186971664429e-02
6.285050511360168457e-02
1.041051894426345825e-01
1.218966618180274963e-01
8.736977726221084595e-02
7.753435522317886353e-02
9.049271047115325928e-02
-7.168775051832199097e-02
-1.621482311747968197e-03
7.295401394367218018e-02
2.073093056678771973e-01
-1.111767813563346863e-01
2.020108699798583984e-02
1.614434868097305298e-01
-1.368974000215530396e-01
-6.129601225256919861e-02
-4.284726828336715698e-02
-3.322418779134750366e-02
2.125364914536476135e-02
5.164662376046180725e-02
-5.237294733524322510e-02
3.201979398727416992e-02
-2.381520569324493408e-01
-1.192160248756408691e-01
-1.469171047210693359e-01
9.391660243272781372e-02
2.118227072060108185e-02
8.465729653835296631e-02
-9.624426811933517456e-02
-6.550039350986480713e-02
-2.546073310077190399e-02
-5.803925916552543640e-02
-1.032985821366310120e-01
4.744715616106987000e-02
8.358294516801834106e-02
-1.796911656856536865e-02
-2.988207712769508362e-02
5.539097636938095093e-02
1.247802451252937317e-01
6.314535439014434814e-02
4.507696628570556641e-02
8.516053855419158936e-02
-1.947589069604873657e-01
-8.650283515453338623e-02
-5.486914142966270447e-02
1.624428033828735352e-01
2.988858819007873535e-01
2.361976206302642822e-01
-1.798580139875411987e-01
-1.071091666817665100e-01
-8.460448589175939560e-04
-1.413823384791612625e-02
5.561453104019165039e-02
1.231871098279953003e-01
2.764915823936462402e-01
7.864048331975936890e-02
-7.398378849029541016e-02
-1.190821006894111633e-01
-4.835293814539909363e-02
4.380590841174125671e-02
3.757263347506523132e-02
8.309371769428253174e-02
1.140181571245193481e-01
-3.564972057938575745e-02
-3.176555782556533813e-02
-4.460319131612777710e-02
1.419483125209808350e-02
-3.726285323500633240e-02
1.365374624729156494e-01
6.438264995813369751e-02
1.223889961838722229e-01
-3.490109741687774658e-02
-3.285446390509605408e-02
7.659365236759185791e-02
8.152242004871368408e-02
2.420853078365325928e-01
8.907636255025863647e-02
3.422906249761581421e-02
-1.125763133168220520e-01
-1.521439254283905029e-01
-1.383942961692810059e-01
-1.084275022149085999e-01
5.031574890017509460e-02
1.438946812413632870e-03
1.718317866325378418e-01
9.167395532131195068e-02
2.393145859241485596e-01
2.083249688148498535e-01
1.212821081280708313e-01
-3.340494632720947266e-02
-2.851493842899799347e-02
-1.117681115865707397e-01
-1.007889807224273682e-01
2.389855124056339264e-02
1.682488322257995605e-01
1.548115015029907227e-01
6.911081075668334961e-02
-9.451873600482940674e-02
-2.436961233615875244e-02
2.783692255616188049e-02
-1.555575132369995117e-01
-1.662916876375675201e-02
1.253785192966461182e-01
5.479421839118003845e-02
1.623497158288955688e-01
3.269495442509651184e-02
1.201773062348365784e-03
-2.465721070766448975e-01
-5.746184661984443665e-02
3.632764145731925964e-02
-7.553562521934509277e-02
8.191365003585815430e-02
-5.382476374506950378e-02
1.048324070870876312e-02
-7.242695987224578857e-02
-3.030106239020824432e-02
3.350507095456123352e-02
1.474233530461788177e-02
1.679580211639404297e-01
3.995620086789131165e-02
1.686669327318668365e-02
-6.757716834545135498e-02
2.013432979583740234e-02
9.208511561155319214e-02
1.939940750598907471e-01
3.911330364644527435e-03
-1.145687922835350037e-01
-6.126546859741210938e-02
-8.836965076625347137e-03
4.218844696879386902e-02
2.666440233588218689e-02
3.820206969976425171e-02
3.668268397450447083e-02
1.210549175739288330e-01
1.532607525587081909e-01
3.764884546399116516e-02
6.386655569076538086e-02
-9.277785569429397583e-02
-1.516206562519073486e-02
-9.578050114214420319e-03
-8.527134358882904053e-02
-2.155421525239944458e-01
-2.112660408020019531e-01
-1.066697463393211365e-01
-1.406003832817077637e-01
1.238925382494926453e-01
-4.514230042695999146e-02
-9.935130923986434937e-02
-1.176495924592018127e-01
1.429700106382369995e-01
1.127494424581527710e-01
-2.935609221458435059e-02
1.411643028259277344e-01
2.040749043226242065e-01
8.133001625537872314e-02
1.301205530762672424e-02
1.598842740058898926e-01
2.639638073742389679e-02
9.928729385137557983e-03
8.589430898427963257e-02
2.582809627056121826e-01
-1.546194497495889664e-02
-1.320345886051654816e-02
-7.142514735460281372e-02
-3.810524195432662964e-02
-2.568420208990573883e-02
-5.052402988076210022e-02
-6.918281316757202148e-02
-6.571632809937000275e-03
-7.477489858865737915e-02
-3.726104646921157837e-02
-1.901206821203231812e-01
-1.463245302438735962e-01
-2.347495965659618378e-02
8.656018227338790894e-02
-3.735355660319328308e-02
-1.028156429529190063e-01
-3.492448478937149048e-02
-1.406871378421783447e-01
1.862477138638496399e-02
1.434040628373622894e-02
1.795126646757125854e-01
1.324803475290536880e-02
4.697228595614433289e-02
-8.019162714481353760e-02
1.185592338442802429e-01
1.821563988924026489e-01
9.142436087131500244e-02
-1.698396205902099609e-01
-9.895166754722595215e-02
-3.285819292068481445e-02
-6.159742921590805054e-02
2.698181867599487305e-01
1.822116971015930176e-01
7.057764381170272827e-02
-7.546017318964004517e-02
-4.184431955218315125e-02
1.345351785421371460e-01
4.609968047589063644e-03
-1.045209839940071106e-01
-1.283328793942928314e-02
-1.345752179622650146e-02
3.811822459101676941e-02
-1.365626305341720581e-01
-3.337128460407257080e-02
-7.016941905021667480e-02
1.315713021904230118e-02
-1.362565010786056519e-01
3.024233318865299225e-02
-3.250026702880859375e-02
-1.320524215698242188e-01
5.072444677352905273e-03
5.267978459596633911e-02
1.813924126327037811e-02
1.525718867778778076e-01
1.187486425042152405e-01
-8.064872026443481445e-02
-8.606813102960586548e-02
-1.433942466974258423e-01
-1.462926268577575684e-01
-9.156434983015060425e-02
-3.748859092593193054e-02
1.301194876432418823e-01
3.238384611904621124e-03
-1.188897620886564255e-02
-4.466000199317932129e-02
-3.162879124283790588e-02
-6.421559303998947144e-02
-6.323394179344177246e-02
3.768006339669227600e-02
1.573739647865295410e-01
-3.877162188291549683e-02
4.184401780366897583e-02
-1.129333749413490295e-01
-1.906451210379600525e-02
1.489969789981842041e-01
1.575122326612472534e-01
-1.132053434848785400e-01
8.516897447407245636e-03
2.428196966648101807e-01
1.883539110422134399e-01
-3.096449933946132660e-02
1.324791461229324341e-01
1.140358448028564453e-01
-5.042539536952972412e-02
6.097975000739097595e-02
9.250780940055847168e-02
5.880585312843322754e-02
7.929706573486328125e-02
1.546126306056976318e-01
1.643204987049102783e-01
-1.226374730467796326e-01
1.014824733138084412e-01
1.420266926288604736e-01
8.940899372100830078e-02
1.778178364038467407e-01
5.089581012725830078e-02
1.160111948847770691e-01
4.534883797168731689e-02
1.102843433618545532e-01
-2.312578260898590088e-02
-3.100023232400417328e-02
-2.414972148835659027e-02
-2.670918591320514679e-02
9.451379999518394470e-03
-4.331778362393379211e-02
-2.103411033749580383e-02
-2.892387798056006432e-03
-8.105197548866271973e-02
-7.477974891662597656e-02
4.201406612992286682e-02
-2.103030122816562653e-02
-8.594729751348495483e-02
-1.177989542484283447e-01
-9.275142103433609009e-02
-8.496738970279693604e-02
-1.155559718608856201e-01
-7.157269865274429321e-02
-2.234313488006591797e-01
1.252054125070571899e-01
8.113601803779602051e-02
6.891753524541854858e-02
4.190807417035102844e-02
1.663011685013771057e-02
8.931456506252288818e-02
4.110134392976760864e-02
-4.986235126852989197e-02
3.899104148149490356e-02
-1.383097171783447266e-01
-9.963724017143249512e-02
7.024295628070831299e-02
1.477840244770050049e-01
5.578798800706863403e-02
-1.599936336278915405e-01
3.494533523917198181e-02
-3.647175431251525879e-02
2.193440496921539307e-02
9.728546440601348877e-02
-9.332459419965744019e-03
-5.867722630500793457e-02
1.588346660137176514e-01
8.559473644709214568e-05
-5.978542938828468323e-02
7.786324620246887207e-02
1.507277786731719971e-01
1.021058186888694763e-01
2.198470383882522583e-02
7.282796502113342285e-02
3.678096830844879150e-02
-3.355596587061882019e-02
-1.165135763585567474e-02
-3.891553357243537903e-02
2.477559819817543030e-02
9.777053445577621460e-02
8.023330569267272949e-02
6.033082306385040283e-02
3.078198991715908051e-02
-7.367026060819625854e-03
-1.226207092404365540e-01
-6.407683342695236206e-02
1.017539054155349731e-01
3.905737772583961487e-02
-1.093769967555999756e-01
-2.812435626983642578e-01
-3.294215798377990723e-01
-8.774565905332565308e-02
-1.753674894571304321e-01
-1.245542168617248535e-01
-9.329915046691894531e-02
1.953405290842056274e-01
2.842544317245483398e-01
2.625331580638885498e-01
1.848191469907760620e-01
6.215915083885192871e-02
-1.390424817800521851e-01
1.920408606529235840e-01
5.201723054051399231e-02
2.505991756916046143e-01
-4.031225293874740601e-02
2.947368286550045013e-02
-3.501387685537338257e-02
-1.279513239860534668e-01
4.461740329861640930e-02
-6.524819880723953247e-02
-3.793649747967720032e-02
-1.632879078388214111e-01
2.394436113536357880e-02
-9.717528708279132843e-03
-4.186183959245681763e-02
3.559548854827880859e-01
1.055588200688362122e-01
6.794585380703210831e-03
-3.678833320736885071e-02
-3.262547403573989868e-02
6.343725323677062988e-02
-4.276815801858901978e-02
3.174638152122497559e-01
-3.369821608066558838e-02
-5.374789983034133911e-02
4.592455551028251648e-02
5.866732914000749588e-03
-2.016990259289741516e-02
1.874400768429040909e-03
2.517019510269165039e-01
-1.529038846492767334e-01
-2.008429169654846191e-02
-1.067667752504348755e-01
-1.749479621648788452e-01
-3.121082484722137451e-01
9.470569342374801636e-02
-4.950300976634025574e-02
1.088763326406478882e-01
-3.391007706522941589e-02
-6.255846470594406128e-02
-3.133717225864529610e-03
-8.518382161855697632e-02
-1.123943366110324860e-02
-6.709147710353136063e-04
-1.068315701559185982e-03
-9.107365272939205170e-03
-1.099432781338691711e-01
-1.160876303911209106e-01
2.193533070385456085e-02
1.085793748497962952e-01
2.883328124880790710e-02
4.729277919977903366e-03
8.036967366933822632e-02
1.321316510438919067e-01
-1.002686098217964172e-01
-4.202706739306449890e-02
9.217478334903717041e-02
1.149678006768226624e-01
1.696856766939163208e-01
-2.931630797684192657e-02
8.502965420484542847e-02
-1.435747593641281128e-01
1.681985892355442047e-02
1.840653866529464722e-01
2.661319263279438019e-02
1.458104699850082397e-01
1.405373066663742065e-01
4.096747934818267822e-02
2.694104909896850586e-01
9.908910840749740601e-02
2.834372222423553467e-01
3.751147165894508362e-02
1.587133407592773438e-01
1.304159313440322876e-01
1.936545521020889282e-01
3.255284205079078674e-02
1.356908082962036133e-01
1.116610243916511536e-01
-1.312760561704635620e-01
-1.747319102287292480e-02
-2.252958528697490692e-02
-6.927540153264999390e-02
-6.795527040958404541e-02
8.480361662805080414e-03
-2.882711961865425110e-02
7.259692065417766571e-03
1.097772568464279175e-01
3.013495542109012604e-02
3.536033630371093750e-02
-5.093025043606758118e-02
-1.212088670581579208e-02
-7.006261497735977173e-02
-2.656372450292110443e-02
1.905469149351119995e-01
4.390039443969726562e-01
1.628559827804565430e-01
-7.605349645018577576e-03
-1.294522881507873535e-01
-6.787152588367462158e-02
-8.292765915393829346e-02
-1.409402042627334595e-01
-1.050169467926025391e-01
1.105401441454887390e-01
7.207563519477844238e-02
-3.287204774096608162e-03
-4.954031482338905334e-02
-8.883517235517501831e-02
-1.402516365051269531e-01
-3.446440398693084717e-02
2.879204154014587402e-01
1.309904754161834717e-01
7.896190136671066284e-02
2.552658617496490479e-01
2.739081531763076782e-02
2.393350377678871155e-02
2.106460556387901306e-02
1.822201460599899292e-01
8.234185725450515747e-02
1.082481220364570618e-01
1.056253165006637573e-01
1.249058172106742859e-01
5.620875582098960876e-02
-9.526159614324569702e-02
-1.144087463617324829e-01
3.556270152330398560e-02
-2.975483238697052002e-02
5.107766017317771912e-03
1.378822475671768188e-01
9.924448095262050629e-04
-2.671869471669197083e-02
-5.126841738820075989e-02
-4.480187594890594482e-02
-3.928689286112785339e-03
1.019727904349565506e-02
8.761891722679138184e-02
1.573487184941768646e-02
-7.180829346179962158e-02
-6.530255824327468872e-02
-1.053777784109115601e-01
-2.218879200518131256e-02
1.156910955905914307e-01
-6.972327083349227905e-02
2.832427993416786194e-02
2.101712971925735474e-01
3.481673896312713623e-01
2.727091610431671143e-01
2.333420366048812866e-01
1.583237899467349052e-03
1.164865195751190186e-01
-1.292556226253509521e-01
-9.712908416986465454e-02
-4.387115687131881714e-02
2.689647674560546875e-01
1.666246056556701660e-01
1.277596205472946167e-01
-1.644922047853469849e-02
-4.777633119374513626e-03
-4.755963757634162903e-02
-2.404824644327163696e-01
7.572499103844165802e-03
3.117745928466320038e-02
5.879234056919813156e-03
1.628737002611160278e-01
-5.844862898811697960e-04
-9.912919998168945312e-02
-3.164978921413421631e-01
-1.343861520290374756e-01
1.055483669042587280e-01
-8.999495953321456909e-02
9.917648881673812866e-02
4.653846099972724915e-02
-7.082945853471755981e-02
6.451722979545593262e-02
-1.845673769712448120e-01
1.427739560604095459e-01
1.204202771186828613e-01
-1.945755034685134888e-01
1.105443388223648071e-01
1.018780167214572430e-03
5.654787272214889526e-02
-8.505493402481079102e-02
1.265655551105737686e-02
9.407139569520950317e-02
4.730496928095817566e-02
-7.184588909149169922e-02
-1.098350957036018372e-01
-3.573870658874511719e-02
-1.148971915245056152e-01
-2.485957928001880646e-02
2.122226357460021973e-02
-1.186893228441476822e-02
-2.851063571870326996e-02
-7.807791233062744141e-02
-9.134268015623092651e-02
4.483214765787124634e-02
5.258699879050254822e-02
1.344764512032270432e-02
-1.533527076244354248e-01
-1.968328095972537994e-02
1.666076034307479858e-01
1.404137611389160156e-01
-7.194520533084869385e-02
-4.433290660381317139e-02
6.505157053470611572e-02
4.699649754911661148e-03
-1.009735614061355591e-01
-1.457130908966064453e-01
-1.852161809802055359e-02
9.965705871582031250e-02
-3.308058902621269226e-02
2.141906470060348511e-01
6.158636510372161865e-02
1.781878471374511719e-01
3.520743921399116516e-02
1.097205728292465210e-01
1.027334034442901611e-01
-1.006429120898246765e-01
1.526997536420822144e-01
-3.122934326529502869e-02
-1.129335761070251465e-01
1.667524278163909912e-01
1.752695590257644653e-01
1.065757349133491516e-01
1.332580018788576126e-02
5.042618140578269958e-02
1.539781391620635986e-01
-1.976135931909084320e-02
1.167638227343559265e-02
-4.106152430176734924e-02
-9.455873817205429077e-02
-1.629242748022079468e-01
4.236428812146186829e-02
-4.049893096089363098e-02
-2.613874711096286774e-02
-9.611761569976806641e-02
2.977427653968334198e-02
2.102550491690635681e-02
-8.565936237573623657e-02
-1.782593317329883575e-02
2.084528841078281403e-02
8.182892948389053345e-02
2.297096699476242065e-01
5.691596120595932007e-02
2.682495117187500000e-01
8.832845836877822876e-02
-6.909246742725372314e-02
-8.226936310529708862e-02
1.705509275197982788e-01
1.072926372289657593e-01
2.832887321710586548e-02
2.673138678073883057e-01
2.048864066600799561e-01
5.710764322429895401e-03
-1.322462260723114014e-01
1.431681495159864426e-02
6.602311879396438599e-02
1.143896207213401794e-01
1.241232268512248993e-02
1.247388273477554321e-01
2.091647237539291382e-01
-1.068428084254264832e-01
1.232859715819358826e-01
1.570606231689453125e-02
6.110460683703422546e-02
8.561038412153720856e-03
-1.715695858001708984e-02
5.721697956323623657e-02
9.695934504270553589e-02
5.768228322267532349e-02
1.753885112702846527e-02
-9.777095168828964233e-02
-3.753316029906272888e-02
8.253999054431915283e-02
4.112312942743301392e-02
-2.566021122038364410e-02
8.254819549620151520e-03
-1.070312503725290298e-02
-1.829562336206436157e-02
-3.165597841143608093e-02
-7.631897926330566406e-02
3.718700259923934937e-02
2.600516565144062042e-02
4.643144831061363220e-02
5.360239651054143906e-03
8.847137540578842163e-02
7.005203515291213989e-02
3.436339646577835083e-02
7.896357029676437378e-02
5.600506812334060669e-02
9.252031892538070679e-02
8.290945738554000854e-02
4.711378738284111023e-02
-1.243092641234397888e-01
-4.665382504463195801e-01
-1.390364021062850952e-02
1.499295327812433243e-02
2.097745239734649658e-02
2.843633107841014862e-02
2.290896512567996979e-02
-6.920992583036422729e-02
-3.219469487667083740e-01
-1.628890335559844971e-01
-7.717167586088180542e-02
-1.353097856044769287e-01
8.805385231971740723e-02
1.388815045356750488e-01
-1.855093836784362793e-01
-1.837602406740188599e-01
-1.857668459415435791e-01
-1.043883268721401691e-03
-1.707934439182281494e-01
1.666829735040664673e-01
5.693801119923591614e-02
-2.794148959219455719e-02
-1.996974647045135498e-01
-8.481084555387496948e-02
-3.867064788937568665e-02
1.781303994357585907e-02
3.824337571859359741e-02
7.471464574337005615e-02
-1.079798210412263870e-02
-1.318651586771011353e-01
-6.156107783317565918e-02
-4.539152234792709351e-02
-1.308754319325089455e-03
-3.207514062523841858e-02
-1.698019728064537048e-02
-5.655606091022491455e-02
-1.033148840069770813e-01
3.068523667752742767e-02
2.345872856676578522e-02
4.983851686120033264e-03
9.405779838562011719e-02
-8.397247642278671265e-02
-9.038353711366653442e-02
-8.978528529405593872e-02
-1.184659525752067566e-01
3.670470044016838074e-02
2.396521344780921936e-02
-1.996815390884876251e-02
-2.712126448750495911e-02
-3.165158629417419434e-02
-1.208549514412879944e-01
-1.365611404180526733e-01
9.368160367012023926e-02
-3.277773782610893250e-02
-2.534870803356170654e-02
1.811104863882064819e-01
5.905429273843765259e-02
-7.510599493980407715e-02
-8.707594871520996094e-02
5.330537259578704834e-02
-3.003653883934020996e-02
-2.431570738554000854e-01
-2.833146788179874420e-02
-3.893887996673583984e-02
6.353016942739486694e-02
-1.008316427469253540e-01
2.543393149971961975e-02
-1.421575993299484253e-01
-2.348200231790542603e-01
2.746472693979740143e-02
3.216503933072090149e-02
4.097347706556320190e-02
-1.465320214629173279e-02
1.236432231962680817e-02
4.142957180738449097e-02
9.741710871458053589e-02
1.061016228049993515e-02
1.187840476632118225e-02
1.485895514488220215e-01
2.069242112338542938e-02
6.686367839574813843e-02
1.560171842575073242e-01
3.646694496273994446e-02
7.702399790287017822e-02
8.632874488830566406e-02
4.817281290888786316e-02
-1.223995443433523178e-02
-3.114612028002738953e-02
-4.290404729545116425e-03
-4.613992758095264435e-03
-3.527627512812614441e-02
-1.618031412363052368e-01
-1.049802675843238831e-01
7.121744100004434586e-03
-5.230526998639106750e-02
-8.180295675992965698e-02
-3.722247779369354248e-01
-1.096308380365371704e-01
-9.620483219623565674e-02
-6.692377477884292603e-02
-5.617697164416313171e-02
-4.965846985578536987e-02
5.316058546304702759e-02
1.292455047369003296e-01
2.259428799152374268e-02
-8.987585082650184631e-03
2.875828556716442108e-02
1.027891505509614944e-02
-4.249261692166328430e-02
1.944303512573242188e-01
3.044404387474060059e-01
-1.061282772570848465e-02
-1.307603437453508377e-02
-2.661500498652458191e-02
8.458478748798370361e-02
-1.950999349355697632e-02
-1.387772895395755768e-02
-9.636558592319488525e-03
-7.680173218250274658e-02
5.240670591592788696e-02
2.142086625099182129e-02
3.348221257328987122e-02
-1.593886315822601318e-02
-4.314328357577323914e-02
-5.301746353507041931e-02
1.730803400278091431e-02
-5.252911150455474854e-02
-5.006720125675201416e-02
-5.931141972541809082e-02
8.557413518428802490e-02
2.124839089810848236e-02
1.356898993253707886e-01
1.435425430536270142e-01
2.180800773203372955e-02
1.123733371496200562e-01
-6.612703204154968262e-02
7.569184154272079468e-02
1.220664829015731812e-01
1.181452441960573196e-02
1.096778139472007751e-01
7.433367520570755005e-02
1.875114999711513519e-02
1.265041902661323547e-02
-4.842285066843032837e-02
8.844124386087059975e-04
4.378710314631462097e-02
1.187673881649971008e-01
-1.760737039148807526e-02
-6.099167838692665100e-02
-7.892653346061706543e-02
-7.450389862060546875e-02
-1.393547505140304565e-01
-3.930473327636718750e-02
-8.763182908296585083e-02
-1.504418998956680298e-01
-1.793304383754730225e-01
2.105362340807914734e-02
-1.398956310003995895e-02
1.027400270104408264e-01
9.136225283145904541e-02
-1.772121191024780273e-01
-2.357637584209442139e-01
5.294279381632804871e-02
-1.425668969750404358e-02
-5.970652028918266296e-02
8.892037905752658844e-03
-3.065546602010726929e-02
-1.797074377536773682e-01
1.117364852689206600e-03
6.281522661447525024e-02
3.646548837423324585e-02
2.761913090944290161e-02
3.964883461594581604e-02
-1.527013480663299561e-01
1.086076721549034119e-01
2.949429303407669067e-02
-8.162172511219978333e-03
3.708156570792198181e-02
-3.131729736924171448e-02
8.358156681060791016e-02
1.606820970773696899e-01
4.305155947804450989e-02
5.179896950721740723e-02
1.381942480802536011e-01
-4.695739597082138062e-03
1.857966333627700806e-01
-4.864388704299926758e-02
-3.899490460753440857e-02
1.619927212595939636e-02
1.963628269731998444e-02
3.900464996695518494e-02
4.518607631325721741e-03
5.285977572202682495e-02
1.301636174321174622e-02
9.317808598279953003e-02
2.604484558105468750e-02
-1.288110949099063873e-02
-2.137549966573715210e-01
-4.565500840544700623e-02
1.363328993320465088e-01
1.179112792015075684e-01
7.253210991621017456e-02
3.536350652575492859e-02
-9.816328436136245728e-02
-2.877543866634368896e-01
-3.387451469898223877e-01
-1.898331567645072937e-02
-8.451325446367263794e-02
5.768629908561706543e-02
1.091871969401836395e-02
-8.078852295875549316e-02
-1.819821745157241821e-01
-3.888514935970306396e-01
7.582005858421325684e-02
-1.839427091181278229e-02
2.841006219387054443e-02
-2.976121939718723297e-02
2.004140168428421021e-01
-9.441175311803817749e-02
-3.562835752964019775e-01
-1.167491152882575989e-01
5.223284941166639328e-03
6.320410966873168945e-02
3.649184852838516235e-02
2.582754753530025482e-02
-1.295938044786453247e-01
-1.451212763786315918e-01
3.065493106842041016e-01
3.040401041507720947e-01
1.932684183120727539e-01
1.771520674228668213e-01
7.428763806819915771e-02
1.881906390190124512e-02
1.006036251783370972e-01
2.252464648336172104e-03
-1.412286423146724701e-02
-6.147279217839241028e-02
-3.551172837615013123e-02
-7.689007092267274857e-03
-5.983592942357063293e-02
3.888298990204930305e-03
1.038450524210929871e-01
4.164192825555801392e-03
3.308727592229843140e-02
-2.192560955882072449e-02
-1.081781461834907532e-01
-1.757475435733795166e-01
-7.538909558206796646e-03
1.871004998683929443e-01
3.701815381646156311e-02
6.803423911333084106e-02
-6.372809410095214844e-02
-3.137368559837341309e-01
-1.397812515497207642e-01
-6.109166424721479416e-03
1.278046965599060059e-01
-3.200360760092735291e-02
-7.499026507139205933e-02
-1.143934354186058044e-01
-3.993726521730422974e-02
6.939842551946640015e-02
-9.916041791439056396e-02
3.282974474132061005e-03
-6.434727460145950317e-02
-1.678481549024581909e-01
-1.272796653211116791e-02
9.235577285289764404e-02
5.617472529411315918e-02
-4.166659712791442871e-02
5.034685134887695312e-02
1.722035557031631470e-01
8.303177356719970703e-02
-6.724071502685546875e-02
-2.293498255312442780e-02
-6.869998294860124588e-03
-7.772164046764373779e-02
1.057800650596618652e-01
2.427151799201965332e-01
9.440573863685131073e-03
-9.373636916279792786e-03
1.244334280490875244e-01
7.902561873197555542e-02
1.029303148388862610e-01
2.889201343059539795e-01
8.359745889902114868e-02
-6.735268398188054562e-04
-1.492971088737249374e-02
-3.207663446664810181e-02
5.842570215463638306e-03
3.937672823667526245e-02
1.201136559247970581e-01
1.062130481004714966e-01
4.762725159525871277e-02
1.109503060579299927e-01
2.768448926508426666e-02
7.205878943204879761e-02
-7.082390040159225464e-02
1.828808188438415527e-01
-1.766429841518402100e-02
5.381716880947351456e-03
1.594590693712234497e-01
-2.275889925658702850e-02
-6.841588765382766724e-02
-1.407733857631683350e-01
8.091036975383758545e-02
-1.292666047811508179e-01
3.835381194949150085e-02
-3.728611469268798828e-01
1.774895936250686646e-02
1.047746837139129639e-02
-1.724066734313964844e-01
8.754271082580089569e-03
-3.963768109679222107e-02
1.015268266201019287e-01
9.704108349978923798e-03
-4.584807530045509338e-02
-3.259439021348953247e-02
-2.255358397960662842e-01
1.753709316253662109e-01
2.399624884128570557e-02
7.196715474128723145e-02
1.061540395021438599e-01
-1.098980605602264404e-01
-1.563903242349624634e-01
-2.808388322591781616e-02
3.659056872129440308e-02
1.532208919525146484e-01
1.927910596132278442e-01
-2.803654223680496216e-02
8.372533321380615234e-02
1.081644371151924133e-01
1.468179821968078613e-01
8.691054582595825195e-02
-3.948874655179679394e-04
2.351233176887035370e-02
9.106069058179855347e-02
2.157890424132347107e-02
-6.692089140415191650e-02
4.911738261580467224e-02
-3.128257393836975098e-02
-8.546528220176696777e-02
-6.722182780504226685e-02
-4.017428681254386902e-02
-3.395298961549997330e-03
4.709483683109283447e-02
-1.294358372688293457e-01
8.752078562974929810e-02
-9.804975986480712891e-02
4.027495160698890686e-03
8.362719416618347168e-02
5.367689579725265503e-02
5.856376513838768005e-02
-1.208629459142684937e-01
2.957956120371818542e-02
2.409922517836093903e-02
-3.124643862247467041e-02
8.372500538825988770e-02
5.810554698109626770e-02
-4.204371944069862366e-02
-1.237644851207733154e-01
9.015382081270217896e-02
4.383032023906707764e-02
-2.555953525006771088e-02
8.963169157505035400e-02
-5.008806288242340088e-02
-8.861063420772552490e-02
-1.607143133878707886e-01
1.062943711876869202e-01
-5.722154676914215088e-02
1.294216886162757874e-02
7.209815084934234619e-03
-2.395286560058593750e-01
-2.160850167274475098e-01
-2.416484244167804718e-02
1.990075409412384033e-01
2.662576735019683838e-01
5.404583062045276165e-04
2.428403496742248535e-02
2.018544673919677734e-01
1.541569083929061890e-01
3.175607323646545410e-02
1.895098388195037842e-01
8.261197805404663086e-02
1.785076409578323364e-01
1.524702906608581543e-01
2.107515558600425720e-02
2.082342654466629028e-01
7.915560901165008545e-02
2.975298091769218445e-02
-7.761503010988235474e-02
-8.856967836618423462e-02
-1.723940372467041016e-01
-3.044856786727905273e-01
-4.479021206498146057e-02
-1.615755259990692139e-02
3.793883696198463440e-02
-5.143480747938156128e-02
-7.602344453334808350e-02
-2.055860757827758789e-01
5.655110254883766174e-02
3.529449999332427979e-01
6.631381809711456299e-02
-2.568848989903926849e-02
2.149760955944657326e-03
1.472768187522888184e-01
8.374585956335067749e-02
1.270628124475479126e-01
2.825948297977447510e-01
1.130300108343362808e-02
-6.048658862709999084e-02
-3.982430323958396912e-02
-3.790213726460933685e-03
-4.762237519025802612e-02
8.868472278118133545e-02
1.279864609241485596e-01
-5.568505451083183289e-02
1.544911414384841919e-03
-1.900929259136319160e-03
-7.087539881467819214e-02
-3.470491245388984680e-02
4.538345150649547577e-03
-1.221787109971046448e-01
6.204927922226488590e-04
1.421200931072235107e-01
6.346371769905090332e-02
8.745542913675308228e-02
6.848716735839843750e-02
1.800905019044876099e-01
7.242912054061889648e-02
1.917789317667484283e-02
-2.433773688971996307e-02
1.505644917488098145e-01
1.205677613615989685e-01
1.528766304254531860e-01
-3.786956891417503357e-02
6.343891471624374390e-02
-8.620933629572391510e-03
-6.255758553743362427e-02
-1.209063231945037842e-01
-5.146255344152450562e-02
-5.613333359360694885e-02
1.662148237228393555e-01
9.244320541620254517e-02
1.070790551602840424e-02
8.064471185207366943e-03
-5.597239732742309570e-02
1.124113053083419800e-02
-3.646261617541313171e-02
3.369167819619178772e-02
1.901984512805938721e-01
1.487246602773666382e-01
1.237384006381034851e-01
2.289360016584396362e-02
9.942497313022613525e-02
6.019823253154754639e-02
8.875119686126708984e-02
4.035050794482231140e-02
3.545704111456871033e-02
9.553737193346023560e-02
-3.555439412593841553e-02
-2.313043223693966866e-03
-2.682985961437225342e-01
-5.111556500196456909e-02
1.853069849312305450e-02
5.994848906993865967e-02
1.528007835149765015e-01
8.453535288572311401e-02
-1.011126190423965454e-01
-7.937599904835224152e-03
8.752840757369995117e-02
2.499775291653349996e-05
-4.820311069488525391e-02
1.141569316387176514e-01
1.004304513335227966e-01
6.608337163925170898e-02
6.783704459667205811e-02
1.272020936012268066e-01
1.858161389827728271e-02
-4.142940044403076172e-02
-6.600405275821685791e-02
-1.587882824242115021e-02
3.789731487631797791e-02
-3.270141035318374634e-02
-5.285627394914627075e-02
-4.989897459745407104e-02
1.089208945631980896e-01
-2.420773170888423920e-02
-2.639559097588062286e-02
3.624232718721032143e-03
-6.799631565809249878e-02
-2.717220485210418701e-01
-1.158251762390136719e-01
8.696106821298599243e-02
7.377453148365020752e-02
-4.383359476923942566e-02
3.872489929199218750e-02
-1.090446859598159790e-01
1.502481102943420410e-02
1.390059739351272583e-01
2.908105030655860901e-02
-2.524572424590587616e-02
2.635420486330986023e-02
1.934140175580978394e-01
-8.991606533527374268e-02
2.211291193962097168e-01
1.899415403604507446e-01
-6.487322598695755005e-02
4.289774224162101746e-02
-9.191810339689254761e-02
-1.845386326313018799e-01
-4.808872006833553314e-03
-1.088484749197959900e-02
6.498701870441436768e-02
1.260899193584918976e-02
-8.987672626972198486e-03
3.826647996902465820e-03
-3.171981079503893852e-03
3.570877760648727417e-02
-1.245005801320075989e-02
-1.684108166955411434e-03
5.411743372678756714e-02
1.559206247329711914e-01
1.202194616198539734e-01
1.823946386575698853e-01
5.930544063448905945e-02
2.076681703329086304e-01
5.830853804945945740e-02
8.127121627330780029e-02
2.298575639724731445e-01
5.812228471040725708e-02
1.527542024850845337e-01
-4.876613989472389221e-02
-1.416945010423660278e-01
4.774978756904602051e-02
-3.696460276842117310e-02
-6.511417776346206665e-02
-2.352605015039443970e-01
-1.786205172538757324e-01
-1.246682181954383850e-01
1.104271337389945984e-01
5.149016156792640686e-02
9.202480316162109375e-03
-3.945294395089149475e-02
-2.751888893544673920e-02
1.791909337043762207e-03
-7.174836844205856323e-02
1.188900843262672424e-01
7.571540772914886475e-02
1.714345961809158325e-01
5.712331086397171021e-02
5.807418003678321838e-02
1.953727006912231445e-01
7.175771892070770264e-02
1.563610509037971497e-02
-2.890699729323387146e-02
7.735718786716461182e-02
-1.158928275108337402e-01
-8.528483100235462189e-03
7.710500806570053101e-02
-2.927181078121066093e-03
-6.879957765340805054e-02
-4.302013665437698364e-02
7.218754291534423828e-02
9.475267678499221802e-02
8.511267602443695068e-02
-1.510521471500396729e-01
-1.872761361300945282e-02
-8.531191200017929077e-02
-1.057958230376243591e-01
-4.118202254176139832e-02
1.113193407654762268e-01
1.061541587114334106e-01
1.030013263225555420e-01
1.823048442602157593e-01
5.407473817467689514e-02
7.581159472465515137e-03
1.962305232882499695e-02
2.706846781075000763e-02
6.846691481769084930e-03
-1.765108667314052582e-02
4.386196285486221313e-02
-2.790379524230957031e-02
-2.853524126112461090e-02
1.850298047065734863e-01
-8.390164375305175781e-02
2.266447246074676514e-02
5.713205039501190186e-02
-5.912850052118301392e-02
-3.700532019138336182e-01
-3.008462488651275635e-01
-9.861106425523757935e-02
-7.356448471546173096e-02
9.689607471227645874e-02
7.570832222700119019e-02
-3.052746504545211792e-02
-3.055165708065032959e-02
-1.131092011928558350e-01
-2.911595702171325684e-01
4.019390046596527100e-02
4.112553596496582031e-02
-1.805649995803833008e-01
5.052508413791656494e-02
1.862375065684318542e-02
-3.259631618857383728e-02
5.246140062808990479e-03
-1.436703205108642578e-01
-1.701629348099231720e-02
5.873938277363777161e-02
1.540981829166412354e-01
6.740050017833709717e-02
4.606727510690689087e-02
-2.519811317324638367e-02
-5.260220915079116821e-02
-2.120279669761657715e-01
4.612206481397151947e-03
1.771492883563041687e-02
2.653072588145732880e-02
-7.476897537708282471e-02
7.326507568359375000e-02
-1.176535934209823608e-01
5.351678654551506042e-02
4.720036312937736511e-02
7.161262631416320801e-02
-2.303549833595752716e-02
2.177336998283863068e-02
3.577424958348274231e-02
3.226114436984062195e-02
6.912408024072647095e-02
-4.258725419640541077e-02
-1.431719120591878891e-02
-5.536692589521408081e-02
3.771796450018882751e-02
1.061459407210350037e-01
6.138554774224758148e-03
-1.989165842533111572e-01
-1.296491920948028564e-01
-1.527310460805892944e-01
-1.099167764186859131e-01
-3.606321662664413452e-02
-6.866598967462778091e-03
-5.768839642405509949e-02
-3.046029061079025269e-02
4.789277445524930954e-04
-6.865400075912475586e-02
5.336761823855340481e-04
1.508745551109313965e-01
-1.503031253814697266e-01
-3.965138643980026245e-02
7.833606749773025513e-02
-9.044552221894264221e-03
-7.778349518775939941e-02
3.781273216009140015e-02
4.627527296543121338e-02
-1.257820427417755127e-01
4.548300430178642273e-02
-2.638178505003452301e-02
-1.678970158100128174e-01
4.690038412809371948e-02
-5.361929908394813538e-02
-3.792987018823623657e-02
-8.772372454404830933e-02
1.860820502042770386e-01
-2.793933497741818428e-03
-5.043695867061614990e-02
6.016716361045837402e-02
-7.304347306489944458e-02
-2.196282893419265747e-01
2.642772719264030457e-02
-3.445860056672245264e-04
9.034099429845809937e-02
1.342296749353408813e-01
3.225983306765556335e-02
7.537011057138442993e-02
4.333680123090744019e-02
9.360769391059875488e-02
1.397427469491958618e-01
8.583366125822067261e-02
-1.107171028852462769e-01
4.124859720468521118e-02
-1.433031708002090454e-01
-4.154156893491744995e-02
1.330788433551788330e-01
1.596751958131790161e-01
-1.406280845403671265e-01
-1.740984804928302765e-02
-9.256204217672348022e-02
-3.368835151195526123e-01
-2.374700158834457397e-01
-1.877408325672149658e-01
1.006628870964050293e-01
-3.826425224542617798e-02
7.414919883012771606e-02
9.197510778903961182e-02
2.426275610923767090e-01
-4.582703579217195511e-03
-1.671024858951568604e-01
1.444579213857650757e-01
9.698902070522308350e-02
7.624467462301254272e-02
3.840366611257195473e-03
-7.903655618429183960e-02
-3.597543761134147644e-02
-1.324840337038040161e-01
-1.410396397113800049e-01
-5.918320640921592712e-02
-6.066999956965446472e-02
1.813949048519134521e-01
4.165490344166755676e-02
4.856053367257118225e-02
-3.270518034696578979e-02
-1.071742996573448181e-01
5.797069892287254333e-02
-1.941042393445968628e-02
6.561063975095748901e-02
-8.699700236320495605e-03
3.306768834590911865e-02
8.665059506893157959e-02
9.203450381755828857e-02
6.022585183382034302e-02
1.228311508893966675e-01
9.028668701648712158e-02
5.958772078156471252e-02
2.287510968744754791e-02
9.094391018152236938e-02
7.790665328502655029e-02
-1.145103201270103455e-02
2.680567279458045959e-02
4.068958759307861328e-02
1.020956970751285553e-02
-6.128077208995819092e-02
-3.416861593723297119e-02
2.032818496227264404e-01
6.967224925756454468e-02
4.999634344130754471e-03
1.043856982141733170e-02
-2.441416680812835693e-02
3.015744984149932861e-01
-1.853986829519271851e-02
1.706428639590740204e-02
4.465774074196815491e-02
2.128785476088523865e-02
6.249538809061050415e-02
4.108612984418869019e-02
9.429232776165008545e-02
5.206932127475738525e-02
5.023883283138275146e-02
-1.009172108024358749e-02
-1.844123899936676025e-01
-1.229108944535255432e-01
1.468860507011413574e-01
1.588852107524871826e-01
-1.470176875591278076e-02
7.757616043090820312e-02
-2.301770262420177460e-02
-1.889508962631225586e-01
-2.438143938779830933e-01
9.039650857448577881e-02
6.070906296372413635e-02
6.006687134504318237e-02
-3.308665752410888672e-02
-2.949007041752338409e-02
8.026430755853652954e-02
-8.836966007947921753e-02
-2.724804170429706573e-02
1.415187418460845947e-01
9.705721586942672729e-02
9.484472870826721191e-02
7.606827467679977417e-02
-7.629334926605224609e-02
1.517830387456342578e-04
5.437250807881355286e-02
9.567330777645111084e-02
-1.125154364854097366e-02
1.004074290394783020e-01
-2.002143859863281250e-02
-6.671348959207534790e-02
-1.189019978046417236e-01
-1.126407459378242493e-01
3.471814841032028198e-02
1.697212574072182178e-03
3.250129520893096924e-02
-1.143494397401809692e-01
-2.826073169708251953e-01
-2.098347097635269165e-01
-1.822611987590789795e-01
-2.033175826072692871e-01
-8.062764257192611694e-02
-3.000081889331340790e-02
-9.599241614341735840e-02
7.051882147789001465e-02
7.361418008804321289e-02
1.010521873831748962e-01
1.025389507412910461e-02
-9.776644408702850342e-03
5.117481574416160583e-02
3.857865184545516968e-02
1.458656638860702515e-01
1.258220970630645752e-01
-4.552841931581497192e-02
-6.539240479469299316e-03
2.632252685725688934e-02
4.712751880288124084e-02
2.584353275597095490e-02
-2.770557105541229248e-01
5.233463644981384277e-02
8.753316849470138550e-02
2.499839477241039276e-02
2.426809072494506836e-02
1.148281432688236237e-02
-2.523086965084075928e-01
1.916328258812427521e-02
6.809322535991668701e-02
3.713968768715858459e-02
-9.605847299098968506e-03
1.774178445339202881e-01
-1.228994056582450867e-01
3.189525008201599121e-02
5.227107927203178406e-02
4.445298761129379272e-02
-6.134390085935592651e-02
7.304476946592330933e-02
-7.527379691600799561e-02
2.307081129401922226e-03
-1.123866904526948929e-02
-3.399363160133361816e-02
-2.100205793976783752e-02
-7.262644916772842407e-02
4.280700348317623138e-03
1.735394122079014778e-03
1.240122364833950996e-03
-6.223692744970321655e-02
9.285265952348709106e-02
6.627962738275527954e-02
-7.365975528955459595e-02
-6.994944810867309570e-02
-8.544491231441497803e-02
-1.314242035150527954e-01
-6.448714435100555420e-02
-1.297951675951480865e-02
1.235833391547203064e-01
7.136594504117965698e-02
-9.105049073696136475e-02
2.260147221386432648e-02
-5.086573958396911621e-02
8.655799180269241333e-02
-2.789479307830333710e-02
-6.767715327441692352e-03
9.089898318052291870e-02
9.852498024702072144e-02
6.543732434511184692e-02
2.862272039055824280e-02
6.727546453475952148e-02
-6.259029358625411987e-02
-5.436071380972862244e-02
8.914113044738769531e-02
1.760228425264358521e-01
7.620697468519210815e-02
2.744857221841812134e-02
9.811255335807800293e-02
3.089085407555103302e-02
2.672709710896015167e-02
7.245193421840667725e-02
3.215399384498596191e-02
-3.125023096799850464e-02
2.665697364136576653e-03
1.298987120389938354e-01
9.111189097166061401e-02
1.484127640724182129e-01
1.554520726203918457e-01
1.379188001155853271e-01
-1.847947575151920319e-02
5.951364338397979736e-02
-2.176015265285968781e-02
1.220980510115623474e-01
-8.784103393554687500e-02
-8.082994818687438965e-02
-9.475100785493850708e-02
-8.171508088707923889e-03
6.462596356868743896e-02
-1.973429769277572632e-01
-2.667869925498962402e-01
-3.657147288322448730e-01
-1.024101600050926208e-01
-3.828661516308784485e-03
5.644690245389938354e-02
3.988763317465782166e-02
3.138525784015655518e-02
-9.851820766925811768e-02
-2.161594480276107788e-02
7.196640968322753906e-02
6.430416554212570190e-02
-4.852496087551116943e-02
-1.353301107883453369e-01
6.371229141950607300e-02
2.598601579666137695e-01
2.924281656742095947e-01
3.499507531523704529e-02
1.362359821796417236e-01
-3.040054813027381897e-02
1.554399821907281876e-02
-1.587471961975097656e-01
2.017829120159149170e-01
1.360981464385986328e-01
3.020623326301574707e-02
-3.633779007941484451e-03
-1.025847531855106354e-02
-1.158443093299865723e-01
-4.818879067897796631e-02
-8.550636470317840576e-02
-9.251745417714118958e-03
-3.922437876462936401e-02
-1.236150935292243958e-01
8.233716338872909546e-02
3.280903398990631104e-02
-8.098383434116840363e-03
6.408889591693878174e-02
2.661213092505931854e-02
-5.171371996402740479e-02
9.272357076406478882e-02
4.496044293045997620e-02
1.466996818780899048e-01
1.785486787557601929e-01
-3.976886719465255737e-02
4.733739048242568970e-02
7.877308875322341919e-03
6.380593031644821167e-02
2.238945662975311279e-02
4.789957776665687561e-02
1.159435659646987915e-01
-7.865893840789794922e-02
8.972522616386413574e-02
1.040482297539710999e-01
2.132984995841979980e-02
-2.151766121387481689e-01
1.495479494333267212e-01
1.535705011337995529e-02
-3.669118508696556091e-02
9.984470903873443604e-02
-7.469563931226730347e-02
-1.836293786764144897e-01
-1.761233657598495483e-01
1.176692098379135132e-01
2.320554479956626892e-02
-1.552917212247848511e-01
1.281074583530426025e-01
4.545823484659194946e-02
-4.922812804579734802e-02
-8.584250509738922119e-02
1.068982183933258057e-01
-7.466628402471542358e-02
-1.600576043128967285e-01
-1.808484829962253571e-02
-1.414184868335723877e-01
-1.721089780330657959e-01
-1.330215930938720703e-01
6.506867706775665283e-02
-1.303471922874450684e-01
-1.563637703657150269e-01
-1.342139095067977905e-01
-4.528796765953302383e-03
2.022378891706466675e-02
-6.583108007907867432e-02
-7.881102710962295532e-02
1.761904060840606689e-01
2.151652723550796509e-01
8.073633164167404175e-02
7.595726102590560913e-02
4.256846010684967041e-02
-6.302872300148010254e-02
-3.311328589916229248e-02
-1.405059359967708588e-02
-9.697753936052322388e-02
-1.089230626821517944e-01
-1.018963307142257690e-01
1.583458506502211094e-03
-1.825180277228355408e-02
6.111061945557594299e-02
-4.060451686382293701e-02
-1.700607687234878540e-02
-1.010012477636337280e-01
-3.891274034976959229e-01
-2.558238506317138672e-01
-1.405142433941364288e-02
-1.299728732556104660e-02
3.947268798947334290e-02
7.830715924501419067e-02
-5.648880079388618469e-02
-2.053485065698623657e-01
-1.250627040863037109e-01
5.908399075269699097e-02
-1.553774252533912659e-02
6.627295911312103271e-02
7.380200177431106567e-02
-1.005315557122230530e-01
-1.568905450403690338e-02
1.477418094873428345e-01
-7.651392370462417603e-03
1.316348165273666382e-01
5.613914132118225098e-02
-1.604515612125396729e-01
4.969707876443862915e-02
1.263807266950607300e-01
-4.728685691952705383e-02
1.100820228457450867e-01
-4.445594176650047302e-02
3.117084316909313202e-02
1.663880497217178345e-01
4.774581640958786011e-02
-1.165803670883178711e-01
8.224033564329147339e-02
9.898461401462554932e-02
9.176311641931533813e-02
1.934164613485336304e-01
-3.165662987157702446e-03
4.729072377085685730e-02
6.932547688484191895e-02
5.129936337471008301e-02
1.446404010057449341e-01
8.535438776016235352e-02
4.834023490548133850e-02
1.947229653596878052e-01
1.342801451683044434e-01
3.730108588933944702e-02
5.748257413506507874e-02
-7.760375738143920898e-02
-6.363476812839508057e-02
-5.311973392963409424e-02
-1.253477782011032104e-01
-1.207340434193611145e-01
-2.427223026752471924e-01
-2.106788307428359985e-01
4.648855701088905334e-02
1.862855814397335052e-02
2.856296300888061523e-02
-7.320576906204223633e-02
-1.437207907438278198e-01
-1.440283954143524170e-01
-2.234043367207050323e-02
1.327290534973144531e-01
-7.185338065028190613e-03
1.073904857039451599e-01
9.165592491626739502e-02
-7.304882630705833435e-03
-4.860709235072135925e-02
1.165008693933486938e-01
1.389363855123519897e-01
7.330909371376037598e-02
4.338263347744941711e-02
2.268719021230936050e-03
-6.529738660901784897e-03
1.356354355812072754e-01
7.148994505405426025e-02
6.064533814787864685e-02
7.702582329511642456e-02
-2.825809270143508911e-02
7.464286405593156815e-03
3.916786238551139832e-02
9.684144705533981323e-02
2.858597785234451294e-03
7.373761385679244995e-02
1.832117140293121338e-02
4.693935438990592957e-02
2.937791869044303894e-02
7.798555493354797363e-02
5.403269454836845398e-02
6.346323993057012558e-03
-4.641470313072204590e-02
2.882683649659156799e-03
3.983804211020469666e-02
1.090151350945234299e-02
-1.186776906251907349e-02
3.388672694563865662e-02
-3.960983455181121826e-02
4.330078139901161194e-02
-4.272824898362159729e-02
-1.907584071159362793e-02
-9.806417673826217651e-02
-2.937934547662734985e-02
-1.813167333602905273e-02
1.544757373631000519e-02
-8.470108360052108765e-02
3.746355185285210609e-03
-1.019226610660552979e-01
-1.450033187866210938e-01
-2.868451364338397980e-02
8.354010432958602905e-02
5.397583171725273132e-02
-1.438784152269363403e-01
-3.283292055130004883e-02
-8.155684173107147217e-02
-4.256455227732658386e-02
6.570399552583694458e-02
5.555026233196258545e-02
-2.904348773881793022e-03
6.357905268669128418e-02
1.571018248796463013e-02
-3.299843519926071167e-02
2.816735953092575073e-02
3.432764858007431030e-02
5.146680027246475220e-02
-1.082969605922698975e-01
-1.376969069242477417e-01
2.262446582317352295e-01
-5.127147585153579712e-02
-2.058443427085876465e-02
-3.618172486312687397e-04
-9.927948564291000366e-02
-2.119372338056564331e-01
3.837032616138458252e-02
2.790856063365936279e-01
9.691856056451797485e-02
-8.244016766548156738e-02
-2.351719327270984650e-02
1.636830866336822510e-01
2.393373996019363403e-01
5.135523155331611633e-02
-2.143502235412597656e-02
-4.695405252277851105e-03
-2.427814155817031860e-02
-1.054909974336624146e-01
7.277762144804000854e-02
-5.173726007342338562e-02
-4.185369238257408142e-03
-1.666008867323398590e-02
-7.641173154115676880e-02
-2.931249141693115234e-02
-8.628883957862854004e-02
-1.280676126480102539e-01
-1.609477251768112183e-01
-1.158960815519094467e-02
1.198543701320886612e-03
6.863731145858764648e-02
3.114305995404720306e-02
-1.027712747454643250e-01
-1.534708738327026367e-01
1.232310477644205093e-02
-9.662460535764694214e-02
-6.334760785102844238e-02
-2.522905915975570679e-02
4.475783929228782654e-02
1.935085840523242950e-02
1.320904493331909180e-01
1.915759146213531494e-01
8.833386003971099854e-02
9.170462377369403839e-03
-6.514221429824829102e-02
-1.827708333730697632e-01
3.774722293019294739e-02
3.421980142593383789e-02
8.044230937957763672e-02
8.993277698755264282e-02
-9.169106930494308472e-02
1.668681390583515167e-02
2.289092838764190674e-01
-1.009148806333541870e-01
-9.408245794475078583e-03
-1.292239129543304443e-01
-3.387431055307388306e-02
4.420489445328712463e-02
1.610070765018463135e-01
1.885340549051761627e-02
2.888650894165039062e-01
1.891250163316726685e-02
7.245488464832305908e-02
1.571367830038070679e-01
1.631988584995269775e-01
-9.936014562845230103e-02
2.489268034696578979e-02
5.411054566502571106e-02
1.001862902194261551e-02
1.276898942887783051e-02
8.812341839075088501e-02
5.633662641048431396e-02
8.288769423961639404e-02
1.271565407514572144e-01
1.284874528646469116e-01
-4.722166806459426880e-02
-1.832252144813537598e-01
-4.224183410406112671e-02
1.311071515083312988e-01
9.530828893184661865e-02
2.083379030227661133e-02
-1.065764948725700378e-01
-2.269078493118286133e-01
-2.367881536483764648e-01
-2.432174831628799438e-01
8.744901977479457855e-03
-1.659696251153945923e-01
1.073873490095138550e-01
3.966719284653663635e-02
6.276153726503252983e-04
-7.666414231061935425e-02
-4.346113502979278564e-01
-8.793561160564422607e-02
-1.688470095396041870e-01
1.697164922952651978e-01
1.602494716644287109e-01
7.316191494464874268e-02
-2.153359949588775635e-01
-1.289277523756027222e-01
-5.444280803203582764e-02
2.629366144537925720e-02
7.522371411323547363e-02
2.426394075155258179e-02
-7.672134786844253540e-02
-2.856413722038269043e-01
1.216875668615102768e-02
6.106507033109664917e-03
-3.854582458734512329e-02
-1.081291958689689636e-02
-9.066630899906158447e-02
-1.138063669204711914e-01
-1.394400298595428467e-01
1.611908525228500366e-02
4.331663995981216431e-02
2.947880141437053680e-02
8.828213065862655640e-02
-8.510659635066986084e-02
-4.674824327230453491e-02
-6.499064713716506958e-02
7.021802663803100586e-02
9.989497810602188110e-02
4.435398150235414505e-03
4.572180286049842834e-02
-6.131848786026239395e-03
-1.073023229837417603e-01
-2.314088344573974609e-01
-5.724158138036727905e-02
3.758239373564720154e-02
9.672768414020538330e-02
9.046795964241027832e-02
-1.787336915731430054e-02
-6.039700657129287720e-02
-6.263361871242523193e-02
-1.434664130210876465e-01
8.879922679625451565e-04
-1.058272868394851685e-01
6.377448141574859619e-02
4.165972024202346802e-02
-3.383915871381759644e-02
2.460359781980514526e-02
-8.124127238988876343e-02
1.072960868477821350e-01
-4.809247329831123352e-02
7.398110628128051758e-02
-3.831389918923377991e-02
6.076844036579132080e-02
-2.331660687923431396e-01
-1.667426079511642456e-01
-8.676073700189590454e-02
4.444559291005134583e-02
-7.362344767898321152e-03
4.587564244866371155e-02
-8.229443430900573730e-02
-3.348985910415649414e-01
-1.223998367786407471e-01
1.632119715213775635e-01
2.571697831153869629e-01
4.514141939580440521e-03
-1.125390380620956421e-01
5.502657499164342880e-03
-2.733370848000049591e-02
-2.610941231250762939e-02
5.621272698044776917e-02
-9.764204174280166626e-02
-5.830653011798858643e-02
7.837345451116561890e-02
-8.226741105318069458e-02
-7.722678035497665405e-02
1.010039001703262329e-01
4.644308611750602722e-02
-1.825333982706069946e-01
-2.650616168975830078e-01
-5.802402272820472717e-02
-1.116429343819618225e-01
7.871883921325206757e-03
-6.982555985450744629e-02
5.101049318909645081e-02
-2.181189954280853271e-01
-6.207502633333206177e-02
4.094724357128143311e-02
2.513067051768302917e-02
1.036719530820846558e-01
2.846344709396362305e-01
2.356568127870559692e-01
1.410425901412963867e-01
2.177004665136337280e-01
-1.431390494108200073e-01
-6.117873638868331909e-02
-1.598202437162399292e-02
-6.968296132981777191e-03
3.210592269897460938e-01
7.697585225105285645e-02
2.635939419269561768e-01
-2.515426091849803925e-02
5.150953680276870728e-02
5.737395212054252625e-02
1.001563966274261475e-01
1.627023667097091675e-01
-1.721804775297641754e-02
-3.430484561249613762e-03
-1.174648180603981018e-01
-4.341357946395874023e-02
-1.025205105543136597e-01
6.062346044927835464e-03
2.258147448301315308e-01
2.048153728246688843e-01
1.134309023618698120e-01
7.890801131725311279e-02
1.965094804763793945e-01
2.642433345317840576e-01
5.535352602601051331e-02
2.201317846775054932e-01
3.025535121560096741e-02
-8.242109790444374084e-03
1.114252395927906036e-02
2.532854303717613220e-02
3.038785234093666077e-02
-3.049144707620143890e-02
-6.067153066396713257e-02
2.332726307213306427e-02
1.027978211641311646e-02
4.254526272416114807e-02
2.327238582074642181e-02
-8.345422148704528809e-02
-2.300505340099334717e-01
-1.359424274414777756e-02
-6.422266364097595215e-02
4.305523633956909180e-02
-1.956123560667037964e-01
-1.040587946772575378e-01
-1.606415361166000366e-01
-2.170285135507583618e-01
8.950968086719512939e-02
-8.239775151014328003e-02
7.345696445554494858e-03
-1.670145839452743530e-01
-7.170949876308441162e-02
-1.887387335300445557e-01
-2.579576075077056885e-01
2.943136543035507202e-02
-2.996932715177536011e-02
1.073544621467590332e-01
1.521786302328109741e-01
1.082248687744140625e-01
-2.509272098541259766e-01
-2.243914604187011719e-01
2.844890058040618896e-01
1.635260283946990967e-01
1.132502034306526184e-01
5.103405937552452087e-02
-3.935384750366210938e-02
-1.582237333059310913e-01
3.492031991481781006e-02
9.561032056808471680e-02
-3.317920491099357605e-04
3.371671587228775024e-02
5.862985178828239441e-02
3.234058385714888573e-05
-3.484025970101356506e-02
1.259458512067794800e-01
5.978130176663398743e-02
4.873700439929962158e-02
-1.936027780175209045e-02
-1.667169854044914246e-02
-5.052662268280982971e-02
1.088167726993560791e-02
1.067127510905265808e-01
3.255134522914886475e-01
-5.620867479592561722e-03
-1.778502166271209717e-01
-1.401480985805392265e-04
4.290030151605606079e-02
2.651642076671123505e-02
-9.311763569712638855e-03
2.069219797849655151e-01
9.644407033920288086e-02
-1.141424104571342468e-01
-2.405354529619216919e-01
-1.264738589525222778e-01
-6.874167174100875854e-02
-2.287982553243637085e-01
-2.230877615511417389e-02
-3.984468057751655579e-03
1.233733966946601868e-01
1.694370210170745850e-01
-6.571128498762845993e-03
-9.642793238162994385e-02
-4.109770059585571289e-01
-1.059975326061248779e-01
-1.968494616448879242e-02
2.029707133769989014e-01
2.190133184194564819e-01
4.701564088463783264e-03
-1.429921686649322510e-01
-1.834065616130828857e-01
1.465038359165191650e-01
4.337934777140617371e-02
1.375079527497291565e-02
-1.711900345981121063e-02
-1.370638012886047363e-01
-2.298943400382995605e-01
-1.016686707735061646e-01
-1.053924262523651123e-01
1.062406226992607117e-01
4.574498161673545837e-02
-1.950357295572757721e-02
-8.883027732372283936e-02
-1.162271276116371155e-01
1.993407867848873138e-02
1.573317050933837891e-01
1.077296957373619080e-01
-3.013599663972854614e-02
-5.571286752820014954e-02
-3.529713302850723267e-02
3.856719657778739929e-02
5.186052247881889343e-02
8.044707030057907104e-02
-1.514192484319210052e-02
-1.381645351648330688e-01
-3.026991486549377441e-01
-3.852301537990570068e-01
-2.562734484672546387e-01
-5.047648027539253235e-02
4.720759764313697815e-02
6.351495534181594849e-02
3.884742781519889832e-02
-1.537275463342666626e-01
-7.634835690259933472e-02
-1.417333781719207764e-01
-2.609230205416679382e-02
9.300437569618225098e-02
1.128536388278007507e-01
1.050332188606262207e-01
-1.563251316547393799e-01
-1.047750189900398254e-01
1.127615198493003845e-01
3.932540118694305420e-02
1.487072557210922241e-01
5.977148190140724182e-02
3.577282652258872986e-02
4.350871965289115906e-02
1.006199643015861511e-01
1.917971968650817871e-01
2.225807122886180878e-02
1.570900082588195801e-01
-2.914574556052684784e-02
-1.056607812643051147e-01
1.125975884497165680e-02
7.511864602565765381e-02
1.694504171609878540e-01
3.367811441421508789e-02
2.759585082530975342e-01
2.272893190383911133e-01
-4.266437515616416931e-02
-1.550230849534273148e-02
7.871353626251220703e-02
6.692549586296081543e-02
7.141586393117904663e-02
6.331211328506469727e-02
2.580044604837894440e-02
-5.361879989504814148e-02
-3.555548936128616333e-02
-8.862058818340301514e-02
-1.088738627731800079e-02
1.498659998178482056e-01
-3.823548182845115662e-02
-8.504239469766616821e-02
-2.408596500754356384e-02
-6.853820756077766418e-03
1.541572716087102890e-02
-9.049769490957260132e-02
3.607026860117912292e-02
4.686471447348594666e-02
-1.007963065057992935e-02
1.448400616645812988e-01
2.483068257570266724e-01
-3.173590078949928284e-02
5.385228991508483887e-02
-3.141661733388900757e-02
-7.011060416698455811e-02
-3.717551827430725098e-01
-1.458160579204559326e-01
1.348749697208404541e-01
-9.578169137239456177e-02
8.370227366685867310e-02
-9.865161031484603882e-02
-2.013084888458251953e-01
-3.448775708675384521e-01
-9.600269794464111328e-02
1.192625891417264938e-02
3.985878825187683105e-02
4.858259111642837524e-02
1.010206993669271469e-02
6.379728019237518311e-02
1.326733529567718506e-01
1.586532779037952423e-02
6.531159579753875732e-02
6.517016142606735229e-02
-2.547155916690826416e-01
7.347743958234786987e-02
-8.508255332708358765e-02
-1.859426684677600861e-02
-2.392397262156009674e-03
-6.612382829189300537e-02
-2.308962307870388031e-02
1.963402517139911652e-02
3.017414174973964691e-02
2.859383448958396912e-02
2.841802500188350677e-02
4.401866346597671509e-02
1.635559797286987305e-01
4.267906025052070618e-02
1.087214201688766479e-01
9.011510014533996582e-02
8.278059214353561401e-02
6.427500396966934204e-03
7.362858392298221588e-03
-8.632812649011611938e-02
-3.554750680923461914e-01
-2.593450546264648438e-01
1.442377269268035889e-01
1.778030395507812500e-01
1.212593466043472290e-01
-3.407708182930946350e-02
-1.724971234798431396e-01
-2.704439461231231689e-01
-4.272474050521850586e-01
-1.728063970804214478e-01
7.576243579387664795e-02
-2.993782050907611847e-03
1.423175446689128876e-02
7.172080129384994507e-02
-4.154398664832115173e-02
-2.562686502933502197e-01
-1.294024437665939331e-01
-9.798755496740341187e-02
-1.332831382751464844e-01
1.587223261594772339e-01
7.127707451581954956e-02
-4.532842338085174561e-02
-2.460914850234985352e-01
-1.366220116615295410e-01
-2.069406397640705109e-02
7.065391540527343750e-02
6.499198079109191895e-02
-1.868584752082824707e-02
-5.404449254274368286e-02
-9.118456393480300903e-02
-7.420842349529266357e-02
3.586016967892646790e-02
7.133341580629348755e-02
8.550421893596649170e-02
-2.541912905871868134e-02
-4.969819635152816772e-02
-3.064256906509399414e-02
7.510216534137725830e-02
-7.650351524353027344e-02
-4.488663375377655029e-02
-1.021773144602775574e-01
-1.172775477170944214e-01
-3.215666860342025757e-02
-5.440244823694229126e-02
-7.113040238618850708e-02
-3.375191986560821533e-02
-1.227965056896209717e-01
-3.140600621700286865e-01
8.991388604044914246e-03
5.072914436459541321e-02
1.342310756444931030e-01
9.255519509315490723e-02
-3.539631515741348267e-02
-2.226065546274185181e-01
-3.441035747528076172e-01
-1.501313783228397369e-02
1.245229914784431458e-01
1.854738146066665649e-01
7.853624224662780762e-02
2.793562039732933044e-02
-7.047288119792938232e-02
-1.134337484836578369e-01
-1.821785420179367065e-01
7.638402283191680908e-02
1.594515889883041382e-01
7.458195090293884277e-02
-1.092655435204505920e-01
-2.292043566703796387e-01
-2.825354039669036865e-01
-2.592281699180603027e-01
1.579042375087738037e-01
-1.482266485691070557e-01
-8.576878905296325684e-02
-8.088078349828720093e-02
-2.146222628653049469e-02
1.157926302403211594e-02
1.162303537130355835e-01
2.130229957401752472e-02
2.001686394214630127e-02
-5.987090617418289185e-02
8.546473085880279541e-02
-4.972026217728853226e-03
1.786360703408718109e-02
9.733671694993972778e-02
1.297462880611419678e-01
7.617656886577606201e-02
1.501390486955642700e-01
6.714493967592716217e-03
1.231245473027229309e-01
2.099387720227241516e-02
1.786632686853408813e-01
6.814943999052047729e-02
-7.695860229432582855e-03
1.661905199289321899e-01
-2.878886274993419647e-02
1.078552156686782837e-01
-3.295424161478877068e-03
-9.364751167595386505e-03
9.455695003271102905e-02
-1.459905803203582764e-01
2.236172109842300415e-01
-7.069197297096252441e-02
-2.735535800457000732e-02
2.881542034447193146e-02
-3.666752204298973083e-02
-5.734696518629789352e-03
-1.200988814234733582e-01
-4.410341382026672363e-02
-8.085151761770248413e-02
6.527335941791534424e-02
1.161124780774116516e-01
3.585990145802497864e-02
5.725516751408576965e-02
5.256364867091178894e-02
-1.010579764842987061e-01
-1.303944438695907593e-01
7.387055456638336182e-02
6.771478056907653809e-02
2.308336459100246429e-02
8.347284048795700073e-03
-3.657142072916030884e-02
3.482091799378395081e-02
3.502390906214714050e-02
-1.025273725390434265e-01
-3.000225126743316650e-01
-1.051665097475051880e-01
9.387724101543426514e-02
1.701621860265731812e-01
3.116271458566188812e-02
1.141974609345197678e-02
-1.133859604597091675e-01
-8.133805543184280396e-02
-1.435305774211883545e-01
1.541067808866500854e-01
1.766883283853530884e-01
-5.769508890807628632e-03
1.343421936035156250e-01
-5.906397476792335510e-02
3.201830014586448669e-02
2.064309269189834595e-01
2.333827316761016846e-01
7.497292011976242065e-02
-3.034853376448154449e-03
8.447030931711196899e-02
6.333041936159133911e-02
-2.309231832623481750e-02
-1.475291401147842407e-01
-6.450565904378890991e-02
-4.367993026971817017e-02
-3.201052919030189514e-02
1.517138779163360596e-01
-1.087247114628553391e-02
-1.367438286542892456e-01
-5.904065817594528198e-02
-4.706796631217002869e-02
-8.038440346717834473e-02
5.133774131536483765e-02
1.363958269357681274e-01
-1.462938170880079269e-02
1.717836596071720123e-02
-9.438811242580413818e-02
-9.184511005878448486e-02
3.382644057273864746e-02
9.966883808374404907e-02
1.263412386178970337e-01
-1.804235726594924927e-01
6.283251196146011353e-02
4.220113158226013184e-02
1.149681657552719116e-01
5.448777973651885986e-02
6.729800254106521606e-02
1.057665273547172546e-01
-1.981025934219360352e-01
-2.716897428035736084e-01
-1.315629482269287109e-01
6.251173466444015503e-02
1.012877561151981354e-02
-7.004786282777786255e-02
1.233288124203681946e-01
-2.316439710557460785e-02
-2.921166419982910156e-01
-2.327543646097183228e-01
-2.763281203806400299e-02
-7.987269759178161621e-02
6.343084573745727539e-02
-8.308495581150054932e-02
1.726360432803630829e-02
-3.807978704571723938e-02
-2.403472550213336945e-02
3.373780474066734314e-02
-6.951641291379928589e-02
-5.305798724293708801e-02
-1.088209897279739380e-01
-9.631530195474624634e-02
7.441390305757522583e-02
4.553864896297454834e-02
3.909252956509590149e-02
1.256348490715026855e-01
1.226965785026550293e-01
-4.205400496721267700e-02
6.597586721181869507e-02
8.754811435937881470e-02
7.487342506647109985e-02
-1.234404072165489197e-01
3.307813778519630432e-02
4.077197611331939697e-02
-4.239267110824584961e-02
6.585558503866195679e-02
-7.283101975917816162e-02
2.403254061937332153e-02
-5.929631739854812622e-02
-1.918941140174865723e-01
-1.068833991885185242e-01
-4.006531834602355957e-02
1.476552039384841919e-01
8.210695534944534302e-02
3.154736757278442383e-02
-6.552225351333618164e-02
-1.920227706432342529e-02
-1.528512034565210342e-02
-5.473631992936134338e-02
1.263343393802642822e-01
2.236855477094650269e-01
1.918036490678787231e-02
-2.260742038488388062e-01
-5.541029572486877441e-02
-3.737217932939529419e-02
5.347024649381637573e-02
-1.427322179079055786e-01
-1.569410711526870728e-01
-1.981122642755508423e-01
-1.310056000947952271e-01
-1.047317385673522949e-01
5.950684100389480591e-02
1.655700504779815674e-01
-1.064101457595825195e-01
2.732665091753005981e-02
3.107244893908500671e-02
1.018811911344528198e-01
1.469492260366678238e-02
-1.014878507703542709e-02
-1.258932799100875854e-01
-6.469108164310455322e-02
-6.707451492547988892e-02
1.998986303806304932e-02
8.098333328962326050e-02
1.860638707876205444e-01
1.718805544078350067e-02
-6.701235473155975342e-02
-8.756635338068008423e-02
-5.832567065954208374e-02
-2.282382547855377197e-02
1.628366857767105103e-01
1.062408238649368286e-01
1.915562897920608521e-01
-3.491420298814773560e-02
-1.265251636505126953e-01
-1.027414947748184204e-01
-1.453843563795089722e-01
5.623481795191764832e-02
-7.601889222860336304e-02
-2.387020885944366455e-01
5.465137213468551636e-02
-4.333185032010078430e-02
-1.075633987784385681e-01
-5.072350054979324341e-02
7.371875923126935959e-03
-2.676234543323516846e-01
-2.297105938196182251e-01
5.005837883800268173e-03
-6.640528887510299683e-02
-4.308257624506950378e-02
-1.414489187300205231e-02
-1.150961499661207199e-02
-4.041371494531631470e-02
6.463399622589349747e-03
-1.101998165249824524e-01
-3.255354464054107666e-01
-1.755045205354690552e-01
4.983175173401832581e-02
1.008570566773414612e-01
1.081736534833908081e-01
1.815508753061294556e-01
-3.501757234334945679e-02
4.539854824542999268e-02
7.004836201667785645e-02
2.130313403904438019e-02
1.438098251819610596e-01
8.097991347312927246e-02
9.632261097431182861e-02
-6.702067703008651733e-02
2.317007631063461304e-02
-7.907320559024810791e-02
5.944211035966873169e-02
9.545760229229927063e-03
-3.856912627816200256e-02
1.396024525165557861e-01
-8.027132600545883179e-02
9.186820127069950104e-03
7.497025281190872192e-02
3.330761939287185669e-02
-4.334281012415885925e-02
-5.324363335967063904e-02
4.276453331112861633e-02
-4.657196626067161560e-02
3.129859641194343567e-02
7.764220237731933594e-02
-1.490260958671569824e-01
-3.572709113359451294e-02
-1.398831158876419067e-01
-2.629517950117588043e-02
-1.138285472989082336e-01
1.478833109140396118e-01
9.639165550470352173e-02
8.024810999631881714e-02
-3.792982548475265503e-02
-8.987407386302947998e-02
1.073139719665050507e-02
4.739657510071992874e-03
-6.394524872303009033e-02
-1.754628717899322510e-01
8.125731348991394043e-02
-4.934492707252502441e-02
7.724293321371078491e-02
1.905122306197881699e-03
3.541983664035797119e-02
-1.047100797295570374e-01
-1.579186469316482544e-01
-2.442883253097534180e-01
-1.438022591173648834e-02
-1.832644105888903141e-03
6.160800904035568237e-02
1.152484863996505737e-01
-5.981142446398735046e-02
-5.694664549082517624e-03
-2.271447796374559402e-03
-2.456955052912235260e-02
-8.039736002683639526e-02
-5.130283534526824951e-02
-7.269887626171112061e-02
6.886090151965618134e-03
-6.232251599431037903e-02
-8.875032514333724976e-02
-4.490375891327857971e-02
1.584251597523689270e-02
5.686446651816368103e-02
-6.113275885581970215e-02
-7.441768050193786621e-02
-1.207764144055545330e-03
-1.031688153743743896e-01
-4.596495255827903748e-02
3.486335650086402893e-02
1.335590034723281860e-01
-1.408636868000030518e-01
-3.861317783594131470e-02
2.538983710110187531e-02
-8.489581197500228882e-02
1.423575729131698608e-01
9.255331754684448242e-02
-5.950203910470008850e-02
7.686554640531539917e-02
-8.045506477355957031e-02
-2.915867045521736145e-02
1.151324901729822159e-02
2.383425384759902954e-01
-1.130739673972129822e-01
-1.122072860598564148e-01
9.692421555519104004e-02
-2.131760865449905396e-01
-6.550126522779464722e-02
-1.149110719561576843e-01
-1.660308241844177246e-01
-2.385281473398208618e-01
-1.031712163239717484e-03
1.388814765959978104e-02
4.916447773575782776e-02
-1.426940504461526871e-02
-8.774887770414352417e-02
-4.298264533281326294e-02
-4.857622832059860229e-02
9.167621284723281860e-02
8.012326061725616455e-02
3.376173600554466248e-02
3.004092723131179810e-02
-5.033224076032638550e-02
6.228230893611907959e-02
-1.666703373193740845e-01
1.852616816759109497e-01
-1.790767610073089600e-01
-6.303719431161880493e-02
-1.127666905522346497e-01
-1.934078931808471680e-01
-8.611997961997985840e-02
-1.957043074071407318e-02
-2.123756520450115204e-02
-1.449314504861831665e-01
1.042487770318984985e-01
1.054887473583221436e-01
2.688428759574890137e-02
-5.269713699817657471e-03
-4.121519997715950012e-02
3.634143248200416565e-02
-1.448037326335906982e-01
5.998813360929489136e-02
1.686142235994338989e-01
-1.031558960676193237e-01
5.360435321927070618e-02
2.091078273952007294e-02
-8.351781964302062988e-02
-1.102365702390670776e-01
4.385462030768394470e-02
-8.954170159995555878e-03
4.524378478527069092e-02
1.037629917263984680e-01
-3.757968544960021973e-02
-1.666702628135681152e-01
-5.086886882781982422e-02
-3.288172185420989990e-03
9.000904113054275513e-02
9.377609938383102417e-02
-2.737329900264739990e-01
-8.877503871917724609e-02
-1.198737621307373047e-01
1.693179756402969360e-01
1.850755140185356140e-02
6.340769678354263306e-02
-9.082925319671630859e-02
3.283129632472991943e-02
-8.393634110689163208e-02
5.323474109172821045e-02
-1.646522618830204010e-02
-2.953785099089145660e-02
-7.922752946615219116e-02
5.276909098029136658e-02
9.378710389137268066e-02
-8.384679444134235382e-03
9.158398956060409546e-03
3.005688311532139778e-03
8.260491304099559784e-03
-3.035543486475944519e-04
-1.538124680519104004e-01
-3.170187817886471748e-03
4.056650213897228241e-03
3.231302276253700256e-02
-6.390386074781417847e-02
7.423738390207290649e-02
1.064282953739166260e-01
1.187637969851493835e-01
-3.408697247505187988e-02
-5.174458492547273636e-03
-4.929139465093612671e-02
4.430982843041419983e-02
6.178358942270278931e-02
-2.203038195148110390e-03
4.657200351357460022e-02
1.255726069211959839e-01
4.542176052927970886e-02
3.721148148179054260e-02
-6.516274879686534405e-04
-4.355154559016227722e-02
6.883758306503295898e-02
-1.260908972471952438e-02
-1.476231813430786133e-01
8.224361389875411987e-02
-1.153326854109764099e-01
-1.081271748989820480e-02
-1.491847541183233261e-02
7.161549478769302368e-02
-1.982388049364089966e-01
-3.974509835243225098e-01
-7.706271111965179443e-02
-6.010773126035928726e-03
-6.328271329402923584e-02
-1.888561099767684937e-01
-2.211652994155883789e-01
-1.849298030138015747e-01
-2.446332871913909912e-01
1.121775731444358826e-01
-3.203733358532190323e-03
-5.731750652194023132e-02
-9.472590871155261993e-03
1.172913759946823120e-01
7.486939430236816406e-02
-5.474314093589782715e-02
-5.799501389265060425e-02
-7.329412735998630524e-03
9.539240039885044098e-03
1.320386081933975220e-01
1.577199995517730713e-01
-2.337818033993244171e-02
-1.510823369026184082e-01
1.421479322016239166e-02
4.508314188569784164e-03
-2.006686851382255554e-02
2.291001938283443451e-02
1.400196552276611328e-01
5.842203274369239807e-02
-2.689908146858215332e-01
-1.823262274265289307e-01
7.067922502756118774e-02
-1.015891954302787781e-01
-7.743948698043823242e-02
1.414654683321714401e-02
1.527577340602874756e-01
-4.808161035180091858e-02
-4.811389744281768799e-02
-1.946524903178215027e-02
-1.128358319401741028e-01
1.217405200004577637e-01
7.645447552204132080e-02
2.944799885153770447e-02
-1.798051744699478149e-01
-1.312979906797409058e-01
4.448298364877700806e-03
-4.863866418600082397e-02
1.980088949203491211e-01
6.878269463777542114e-02
-1.268298625946044922e-01
-1.031248867511749268e-01
-3.255689889192581177e-02
-1.683829538524150848e-02
-2.568215504288673401e-02
9.070456773042678833e-02
1.812122613191604614e-01
1.188682764768600464e-01
2.084322646260261536e-02
-5.980889871716499329e-02
1.912355609238147736e-02
5.955089628696441650e-02
8.670682460069656372e-02
1.275926381349563599e-01
7.107757031917572021e-02
1.108813192695379257e-02
-8.389455825090408325e-02
1.573740504682064056e-02
-8.574517443776130676e-03
4.716578125953674316e-02
9.314347989857196808e-04
-7.756044715642929077e-02
-1.058027595281600952e-01
-1.132510527968406677e-01
3.258318826556205750e-02
6.109922006726264954e-02
1.792507171630859375e-01
3.901137039065361023e-02
-1.463541388511657715e-01
-9.062841534614562988e-02
8.705155551433563232e-02
9.480868279933929443e-02
4.545671120285987854e-02
4.629170149564743042e-02
-6.044478714466094971e-02
-1.132872328162193298e-02
8.783341199159622192e-02
-3.532624989748001099e-02
5.011962726712226868e-02
-3.855988848954439163e-03
3.917745128273963928e-02
9.471481293439865112e-02
-1.573918610811233521e-01
-4.867080599069595337e-02
1.021208241581916809e-02
-5.927703157067298889e-02
-4.203991964459419250e-03
-5.416719615459442139e-02
-1.368663609027862549e-01
-3.159364759922027588e-01
8.715131133794784546e-02
-4.075501859188079834e-02
8.853226900100708008e-03
-1.851021200418472290e-01
-2.488751113414764404e-01
-1.528867632150650024e-01
-2.013918459415435791e-01
3.193420544266700745e-02
1.549313068389892578e-01
2.263900451362133026e-02
-1.697447896003723145e-02
-9.772401303052902222e-02
5.007670819759368896e-02
2.581518888473510742e-01
3.222904503345489502e-01
-5.114559899084270000e-04
-4.966450482606887817e-02
1.125288475304841995e-02
8.820805698633193970e-02
-9.370581060647964478e-02
-1.657804399728775024e-01
-9.571751952171325684e-02
-1.088423840701580048e-02
1.210573986172676086e-01
-2.243801765143871307e-02
1.660770028829574585e-01
8.037260919809341431e-02
4.357307404279708862e-02
-2.642820179462432861e-01
-1.042372882366180420e-01
4.538285359740257263e-02
-1.317624151706695557e-01
1.391194909811019897e-01
5.168481171131134033e-02
9.796152263879776001e-02
-3.098571905866265297e-03
-1.290170252323150635e-01
1.102209463715553284e-02
3.924035653471946716e-02
2.349454537034034729e-02
1.796517893671989441e-02
1.624308824539184570e-01
1.976383179426193237e-01
-7.278926670551300049e-02
4.205480217933654785e-02
-2.453935332596302032e-02
8.498211205005645752e-02
-2.769947052001953125e-02
-4.020512476563453674e-02
-6.787353754043579102e-02
-1.016300991177558899e-01
-4.514012485742568970e-03
1.540387049317359924e-02
1.658211499452590942e-01
1.880434341728687286e-02
5.999041721224784851e-02
2.067033015191555023e-02
-7.975064963102340698e-02
3.766989102587103844e-03
1.315311193466186523e-01
8.951430022716522217e-02
6.267590075731277466e-02
9.305071830749511719e-02
1.160902976989746094e-01
2.159690260887145996e-01
2.081929892301559448e-01
2.352703362703323364e-02
-3.395231068134307861e-02
-9.607270359992980957e-02
1.108299568295478821e-02
1.057019680738449097e-01
1.709774285554885864e-01
1.512926537543535233e-02
1.221900880336761475e-01
-4.512306451797485352e-01
-3.735249936580657959e-01
-1.200785487890243530e-01
1.409494318068027496e-02
8.144586533308029175e-02
1.412682235240936279e-01
-3.559558466076850891e-02
-9.283927828073501587e-02
-1.915896683931350708e-02
-2.612927556037902832e-02
-8.429592475295066833e-03
2.664956152439117432e-01
1.342379152774810791e-01
1.237072236835956573e-02
-1.036415845155715942e-01
-1.836827993392944336e-01
-2.001573741436004639e-01
7.547792047262191772e-02
1.435564011335372925e-01
7.954896241426467896e-02
-1.219204515218734741e-01
-1.936419159173965454e-01
-6.743303686380386353e-02
8.936180733144283295e-03
7.353299297392368317e-03
6.450271606445312500e-02
1.505026035010814667e-02
1.531194895505905151e-02
-5.266996100544929504e-02
-4.027060419321060181e-02
4.711958393454551697e-02
6.015257909893989563e-02
8.817273378372192383e-02
5.490504205226898193e-02
4.079947248101234436e-03
5.497648380696773529e-03
3.807940334081649780e-02
1.077506039291620255e-02
-1.157627813518047333e-02
-1.025798358023166656e-02
-6.418442726135253906e-02
7.783827185630798340e-02
1.266559362411499023e-01
-1.475908886641263962e-02
-1.467932611703872681e-01
-9.368001669645309448e-02
2.213530056178569794e-02
2.083318680524826050e-02
-6.157933920621871948e-02
5.562464147806167603e-02
4.285662248730659485e-02
6.961546372622251511e-03
5.819758865982294083e-03
5.256956070661544800e-02
7.695254683494567871e-02
-1.492775510996580124e-03
7.204376161098480225e-02
1.096362993121147156e-01
-1.222133822739124298e-02
2.639876678586006165e-03
4.385118559002876282e-02
2.485470473766326904e-01
-2.534276992082595825e-02
-1.596986129879951477e-02
5.079278722405433655e-02
-7.796976715326309204e-02
-8.026009052991867065e-02
-3.082123771309852600e-02
-3.514358028769493103e-02
-3.244133293628692627e-02
5.456845089793205261e-02
5.792527273297309875e-02
-2.614775598049163818e-01
-3.122637271881103516e-01
-1.967048496007919312e-01
5.238827690482139587e-02
-6.713741272687911987e-02
-8.572323620319366455e-02
-1.043767854571342468e-01
-1.411991892382502556e-03
-2.020062506198883057e-02
-3.023252822458744049e-02
1.315573006868362427e-01
-1.628298759460449219e-01
1.171865984797477722e-01
-6.270151585340499878e-02
2.281671166419982910e-01
8.934032171964645386e-02
9.245286136865615845e-02
-4.474509879946708679e-02
4.036002792418003082e-03
3.570204973220825195e-02
2.474711276590824127e-02
-7.626783102750778198e-02
5.965783819556236267e-02
8.211296051740646362e-02
2.172388602048158646e-03
-7.409581542015075684e-02
-1.543477922677993774e-01
-6.467301398515701294e-02
-8.688738942146301270e-02
5.320979282259941101e-02
-3.993100486695766449e-03
1.991235315799713135e-01
-4.992002248764038086e-02
-2.762733399868011475e-02
1.351469755172729492e-01
-1.081347167491912842e-01
5.089411512017250061e-02
-5.963972210884094238e-02
-2.268965989351272583e-01
-2.786991372704505920e-02
-3.104170225560665131e-02
-2.247780375182628632e-02
-2.111786454916000366e-01
1.198839247226715088e-01
2.590931393206119537e-02
9.326615184545516968e-02
-8.803891390562057495e-02
-1.745427250862121582e-01
-2.728735506534576416e-01
3.925031423568725586e-02
1.030732095241546631e-01
9.118507802486419678e-02
2.552843838930130005e-02
1.959341466426849365e-01
-1.491985470056533813e-01
-2.850681543350219727e-01
-7.563082873821258545e-02
-1.093646585941314697e-01
5.095486342906951904e-02
1.387839317321777344e-01
1.226879954338073730e-01
-3.386718779802322388e-02
-2.099864184856414795e-02
-3.614086657762527466e-02
1.564440666697919369e-03
-8.511178195476531982e-03
-9.478417225182056427e-03
-1.132326647639274597e-01
8.261244744062423706e-03
9.632757306098937988e-02
1.315447986125946045e-01
-2.172147110104560852e-02
-4.656888917088508606e-02
6.547221541404724121e-02
-1.243176218122243881e-02
-1.670037060976028442e-01
2.675184048712253571e-03
8.500945568084716797e-02
-1.090512722730636597e-01
-1.488669076934456825e-03
2.071889489889144897e-01
2.591246552765369415e-02
-6.948219984769821167e-02
1.923873126506805420e-01
1.200382038950920105e-01
-1.930805891752243042e-01
-8.426941931247711182e-02
5.469704046845436096e-04
-3.991289064288139343e-02
2.440731599926948547e-02
7.607514411211013794e-02
1.035554930567741394e-01
-1.084400862455368042e-01
-7.679253071546554565e-02
4.745499044656753540e-02
-5.799142178148031235e-03
-4.105173051357269287e-02
-8.137457072734832764e-02
-1.115501374006271362e-01
4.569933935999870300e-02
-7.789048552513122559e-02
8.282474428415298462e-02
-1.873629726469516754e-02
1.382455602288246155e-02
1.302072256803512573e-01
3.684934973716735840e-01
9.648735076189041138e-02
-2.862435579299926758e-02
3.516565635800361633e-02
-1.229611877351999283e-02
1.853088103234767914e-02
-1.722529381513595581e-01
1.140045523643493652e-01
