# (32, 1568)
-4.117725417017936707e-03
-2.957536838948726654e-02
5.765287205576896667e-02
-1.916813850402832031e-02
-2.229295857250690460e-02
-3.540420439094305038e-03
-1.265944540500640869e-02
-4.004200920462608337e-02
3.441809490323066711e-02
2.899493277072906494e-02
-1.295843571424484253e-01
-1.530271470546722412e-01
-9.153817594051361084e-02
8.974102325737476349e-03
1.369688007980585098e-02
7.738165557384490967e-02
1.914987526834011078e-02
5.729054287075996399e-02
7.396020740270614624e-02
-1.529793255031108856e-02
5.079860985279083252e-02
2.706302516162395477e-02
3.157361596822738647e-02
-3.868186473846435547e-02
6.630877405405044556e-02
8.138333261013031006e-02
8.712412416934967041e-02
1.192831844091415405e-01
-6.261190772056579590e-02
-9.825760498642921448e-03
-1.493972241878509521e-01
-3.625400364398956299e-03
3.808819875121116638e-02
-5.261825025081634521e-02
-4.616030305624008179e-02
-9.656530618667602539e-02
-2.260185964405536652e-02
-4.483525827527046204e-02
-4.551186226308345795e-03
-5.639403685927391052e-02
-8.342819660902023315e-02
-1.940800249576568604e-02
-3.882388770580291748e-02
-1.881534047424793243e-02
5.079217720776796341e-03
1.816336438059806824e-02
-3.880810365080833435e-02
3.239669650793075562e-02
1.242096722126007080e-01
-2.305815927684307098e-02
1.368190534412860870e-02
-7.133644539862871170e-03
-1.193775385618209839e-01
-1.487423181533813477e-01
3.356501460075378418e-02
3.245360031723976135e-02
-3.918652981519699097e-02
-5.220747552812099457e-03
1.266920007765293121e-02
3.559533040970563889e-03
3.772966936230659485e-02
3.150156512856483459e-02
4.031266272068023682e-02
4.632299393415451050e-02
-3.716471791267395020e-02
2.750726230442523956e-02
7.008270174264907837e-02
1.073214188218116760e-01
6.373051553964614868e-02
8.206063508987426758e-02
-6.166523322463035583e-02
-7.822677493095397949e-02
3.147538285702466965e-03
-2.729492262005805969e-02
-7.533438503742218018e-02
-1.169063895940780640e-01
-1.441774517297744751e-01
-1.572361141443252563e-01
-4.078020527958869934e-02
-7.514370139688253403e-03
-3.644772991538047791e-02
-1.724667288362979889e-02
-1.570076197385787964e-01
-1.412148028612136841e-01
-6.863543391227722168e-02
1.122085191309452057e-02
6.551998108625411987e-02
2.064601704478263855e-02
-3.624562919139862061e-02
-1.166177093982696533e-01
-1.704923808574676514e-02
-7.517159730195999146e-02
-1.206005960702896118e-01
-2.122201174497604370e-01
1.557622104883193970e-02
8.890841156244277954e-02
5.419220775365829468e-02
-7.555674016475677490e-02
4.585581645369529724e-02
-5.518498830497264862e-03
-1.452334672212600708e-01
-3.239511325955390930e-02
6.525101512670516968e-02
2.955984510481357574e-02
1.064136177301406860e-01
3.859040886163711548e-02
-7.987251132726669312e-02
-1.798391491174697876e-01
-1.682469397783279419e-01
-1.155204698443412781e-01
8.822489529848098755e-03
4.410960525274276733e-02
-1.797883957624435425e-02
-3.545241430401802063e-02
2.659965492784976959e-02
-2.850160188972949982e-02
-8.134298026561737061e-02
-7.876174151897430420e-02
3.755403682589530945e-02
5.005670711398124695e-03
6.019434705376625061e-02
1.175062134861946106e-01
4.954385012388229370e-02
5.415085237473249435e-03
-4.367217794060707092e-02
-2.369199879467487335e-02
-1.056988630443811417e-02
1.177503839135169983e-01
1.047511175274848938e-01
5.955912917852401733e-02
3.860789909958839417e-02
8.981546759605407715e-02
1.100416257977485657e-01
-8.334563113749027252e-03
2.367598116397857666e-01
9.748214483261108398e-02
4.264956340193748474e-02
-3.723925352096557617e-02
3.575547784566879272e-02
1.453637331724166870e-01
-7.455380167812108994e-03
2.011906653642654419e-01
1.088074669241905212e-01
8.462938480079174042e-03
4.813632741570472717e-02
7.955645024776458740e-02
1.520429104566574097e-01
6.611195951700210571e-02
-3.911422193050384521e-02
-9.955953806638717651e-03
2.671632450073957443e-03
-4.368253424763679504e-02
-1.232022717595100403e-01
6.299261003732681274e-02
5.574310943484306335e-02
1.300120633095502853e-02
2.980041317641735077e-03
-1.059098728001117706e-02
2.177922055125236511e-02
-1.977295055985450745e-02
1.004800107330083847e-02
1.222003325819969177e-01
5.083318054676055908e-02
-5.820748209953308105e-02
2.047260105609893799e-02
3.331037610769271851e-02
-5.137588456273078918e-02
3.451713919639587402e-02
-9.871662408113479614e-02
6.711143255233764648e-02
6.316653639078140259e-02
-2.892688475549221039e-02
3.424723399803042412e-03
-6.330384314060211182e-02
6.144496053457260132e-02
-1.615187972784042358e-01
7.367055863142013550e-02
1.653020232915878296e-01
2.040843851864337921e-02
-3.068623878061771393e-02
-8.418257534503936768e-02
-7.780201733112335205e-02
1.759785972535610199e-02
-4.584538936614990234e-02
1.063880771398544312e-01
6.520411372184753418e-02
-5.321399867534637451e-02
-8.775504678487777710e-02
-5.884108692407608032e-02
-4.447480291128158569e-02
1.228255033493041992e-02
8.444021642208099365e-02
8.562927693128585815e-02
6.522731482982635498e-02
7.563579827547073364e-02
7.098918408155441284e-02
-7.368281483650207520e-02
-8.604141324758529663e-02
-2.354963310062885284e-02
-1.773091219365596771e-02
1.395556516945362091e-02
-3.038601391017436981e-02
-5.677941069006919861e-02
6.688824295997619629e-02
-2.714496105909347534e-02
-1.290073990821838379e-01
-7.336248457431793213e-02
-1.758337579667568207e-02
8.996001631021499634e-02
4.956676438450813293e-02
-2.295005507767200470e-02
-9.012041985988616943e-02
-4.901812598109245300e-02
3.515135124325752258e-02
4.026214778423309326e-02
-2.575686946511268616e-02
2.216713875532150269e-02
-3.162161260843276978e-02
-6.105754524469375610e-02
-7.566307485103607178e-02
6.639894098043441772e-03
-1.688134819269180298e-01
-1.766811162233352661e-01
-1.698032319545745850e-01
-4.566679522395133972e-02
-1.876496896147727966e-02
1.153520867228507996e-02
8.403006196022033691e-02
-3.703988343477249146e-02
-4.286864027380943298e-02
-1.900441050529479980e-01
-4.773519188165664673e-02
1.791095919907093048e-02
4.826212301850318909e-02
6.150741130113601685e-02
1.770684681832790375e-02
-4.285738989710807800e-02
-1.483016647398471832e-02
-1.402146532200276852e-03
1.578505709767341614e-02
3.954753652215003967e-02
-5.706337094306945801e-02
-4.475869238376617432e-03
7.057483494281768799e-02
5.033185333013534546e-02
1.156734302639961243e-01
2.832762897014617920e-02
-4.416401684284210205e-02
4.808332771062850952e-02
2.620263025164604187e-02
8.241380751132965088e-02
9.993311762809753418e-02
-3.164508193731307983e-02
3.177561983466148376e-02
-1.097865626215934753e-01
-4.757812246680259705e-02
-9.431333281099796295e-03
-1.194829195737838745e-01
1.484723985195159912e-01
5.740374326705932617e-02
5.772733129560947418e-03
-4.326808266341686249e-03
1.435201615095138550e-01
3.895094618201255798e-02
-6.277947104535996914e-04
-3.147106245160102844e-02
-1.972306892275810242e-02
-2.396526746451854706e-02
-2.706285007297992706e-02
1.479000039398670197e-02
-3.038797713816165924e-02
-1.836831867694854736e-02
7.993114739656448364e-02
-7.461468875408172607e-02
4.156982898712158203e-02
-7.292273803614079952e-04
-5.735832452774047852e-02
-3.391361609101295471e-02
-4.610214382410049438e-02
-4.313540086150169373e-02
-1.002549901604652405e-01
5.108714848756790161e-02
1.326659228652715683e-02
-4.964125528931617737e-02
-1.354961097240447998e-01
-6.324559450149536133e-02
2.401272207498550415e-02
6.356303393840789795e-02
-8.793566375970840454e-02
-6.640995293855667114e-02
-4.298806935548782349e-02
-1.407792232930660248e-02
-1.412483863532543182e-02
1.186513453722000122e-01
2.314132079482078552e-02
8.837711997330188751e-03
2.990886010229587555e-02
-4.767123609781265259e-04
-2.080475166440010071e-02
7.141771726310253143e-03
-1.231865771114826202e-02
-9.502107277512550354e-03
1.190444920212030411e-02
-4.666829016059637070e-03
1.458797901868820190e-01
7.109457999467849731e-02
2.531079202890396118e-02
-1.237608958035707474e-02
5.112267285585403442e-02
-3.359127044677734375e-02
2.655249089002609253e-03
7.830802351236343384e-02
6.988979876041412354e-02
9.069981426000595093e-02
-3.278379887342453003e-02
-1.094725430011749268e-01
-5.002036318182945251e-02
3.248846903443336487e-02
4.748102277517318726e-02
2.010036557912826538e-01
5.659911036491394043e-02
-1.176165882498025894e-02
2.336490899324417114e-02
-1.480288710445165634e-02
7.235225290060043335e-02
-5.814535170793533325e-02
-1.255745533853769302e-02
-4.263019189238548279e-02
-1.003723815083503723e-01
-7.112390547990798950e-02
5.655472725629806519e-02
7.669172249734401703e-03
-5.072862654924392700e-02
-1.198137775063514709e-01
-9.184630215167999268e-02
-7.058561593294143677e-02
-3.257358074188232422e-02
-7.144874334335327148e-02
-5.032676830887794495e-02
-1.040623616427183151e-02
-8.866338431835174561e-02
-8.992951363325119019e-02
6.910855323076248169e-02
6.451874971389770508e-02
1.223071813583374023e-01
7.108782976865768433e-02
2.304700948297977448e-02
-1.341584511101245880e-02
7.220252417027950287e-03
9.347660839557647705e-02
7.286612689495086670e-02
-1.152477115392684937e-01
-1.058883443474769592e-01
2.754512242972850800e-02
1.633061282336711884e-02
-2.032073587179183960e-02
1.351523995399475098e-01
1.465534605085849762e-02
4.248065815772861242e-04
8.456261456012725830e-02
1.999064814299345016e-03
1.034074276685714722e-01
9.201003611087799072e-02
6.526526808738708496e-02
6.586758792400360107e-02
-6.405869126319885254e-02
5.666279420256614685e-02
-1.156461518257856369e-02
3.064785525202751160e-02
-1.128818374127149582e-02
1.230593323707580566e-01
3.133886307477951050e-02
4.024485871195793152e-02
4.576371982693672180e-02
6.786535959690809250e-03
-4.149846732616424561e-02
-1.527281850576400757e-01
-1.337803155183792114e-01
-1.325594354420900345e-02
5.631966516375541687e-02
3.282394725829362869e-03
-1.236602067947387695e-01
-1.467266976833343506e-01
-2.000543177127838135e-01
9.144581854343414307e-02
-1.102235466241836548e-01
-3.368224948644638062e-02
2.190681360661983490e-02
-8.408160880208015442e-03
-6.196487694978713989e-02
8.201529085636138916e-02
7.709556072950363159e-02
3.937811404466629028e-02
7.973330467939376831e-02
1.746016927063465118e-02
3.874078765511512756e-02
9.118510037660598755e-02
3.707973286509513855e-02
8.677699416875839233e-02
-1.285557076334953308e-02
-9.848863631486892700e-02
-6.089442968368530273e-02
7.218883372843265533e-03
4.687824472784996033e-02
6.727384030818939209e-02
2.852581255137920380e-02
3.242590231820940971e-03
-6.389778107404708862e-02
1.913882605731487274e-02
6.960830092430114746e-02
4.680810496211051941e-02
1.233905926346778870e-01
2.411906421184539795e-02
8.469721674919128418e-02
2.084728144109249115e-02
-3.361051902174949646e-02
-8.267951011657714844e-02
-1.533152759075164795e-01
-1.688725948333740234e-01
-6.456921994686126709e-02
9.300446254201233387e-04
-2.004416659474372864e-02
-9.270958602428436279e-02
-5.311631597578525543e-03
6.596899125725030899e-03
4.245992004871368408e-02
-9.374062716960906982e-02
-4.951644688844680786e-02
-5.650836229324340820e-02
1.217241957783699036e-02
7.670209556818008423e-02
-2.561363764107227325e-02
2.665498992428183556e-03
-9.231378883123397827e-02
8.312057703733444214e-03
4.141326248645782471e-02
-2.796878479421138763e-02
-6.093830242753028870e-02
-3.585534542798995972e-02
3.666683100163936615e-03
5.251651629805564880e-02
-4.621554166078567505e-02
-4.520456492900848389e-02
3.902469528838992119e-03
-8.878615335561335087e-04
-8.341425657272338867e-02
-8.597163856029510498e-02
5.775875598192214966e-02
-1.137751042842864990e-01
3.921196330338716507e-03
4.091199487447738647e-02
-1.699295938014984131e-01
-2.818202972412109375e-01
-1.477176994085311890e-01
5.489742010831832886e-02
7.655014097690582275e-02
4.897474497556686401e-02
7.065495848655700684e-02
4.068950656801462173e-03
-2.683481201529502869e-02
-7.294823229312896729e-02
6.628049886785447598e-04
7.605205755680799484e-03
5.552336946129798889e-02
-1.019184142351150513e-01
1.275057792663574219e-01
1.280024349689483643e-01
8.230865001678466797e-03
1.356407999992370605e-01
6.518826354295015335e-03
-8.434408158063888550e-02
-1.297405362129211426e-01
3.945513814687728882e-02
1.244636997580528259e-02
-1.670956984162330627e-02
2.440951019525527954e-01
2.095554582774639130e-02
-1.245357319712638855e-01
-2.315109223127365112e-02
3.040779940783977509e-02
6.030610529705882072e-04
7.776091992855072021e-02
2.367346733808517456e-01
-2.994295768439769745e-02
5.455459002405405045e-03
2.917830087244510651e-02
7.321000844240188599e-02
5.012281984090805054e-02
-1.716806180775165558e-02
1.329613775014877319e-01
4.710614681243896484e-02
-5.403943359851837158e-02
-1.953884027898311615e-02
2.264182455837726593e-02
-9.465199708938598633e-02
-5.462269112467765808e-02
1.433116793632507324e-01
2.186101302504539490e-02
-6.917931884527206421e-02
-7.756289839744567871e-02
-7.865247130393981934e-02
-1.058030351996421814e-01
-1.935858651995658875e-02
1.432449184358119965e-02
2.477159723639488220e-02
7.938094437122344971e-03
2.562462165951728821e-02
6.723871082067489624e-02
-6.849762052297592163e-02
-1.169994026422500610e-01
-3.520710859447717667e-03
2.552156522870063782e-02
-1.513365074060857296e-03
1.721456646919250488e-02
-2.284550573676824570e-04
-7.445265073329210281e-03
-2.447897940874099731e-02
7.705953717231750488e-02
2.223422052338719368e-03
3.499938175082206726e-02
-5.907447263598442078e-02
5.350133031606674194e-02
1.244082860648632050e-02
4.150068014860153198e-02
1.650898344814777374e-02
2.459251787513494492e-03
2.739732339978218079e-02
6.304861605167388916e-02
6.405049562454223633e-02
4.892860725522041321e-02
6.137571111321449280e-02
3.550203889608383179e-02
1.104039624333381653e-01
1.654343754053115845e-01
1.507748812437057495e-01
1.152888983488082886e-01
1.056927889585494995e-01
7.014337182044982910e-02
5.248529091477394104e-02
2.464440884068608284e-03
-1.795147545635700226e-02
3.966736141592264175e-03
-2.612355910241603851e-02
-2.109982771798968315e-03
1.007609143853187561e-01
4.562100023031234741e-02
-2.458442561328411102e-02
1.537938788533210754e-02
-8.577372133731842041e-02
9.646619111299514771e-02
7.093963027000427246e-02
9.969693608582019806e-03
3.602423006668686867e-03
5.097364075481891632e-03
-7.425355166196823120e-02
2.047719247639179230e-02
4.827189445495605469e-02
1.396571993827819824e-01
6.767991930246353149e-02
-2.801102353259921074e-03
2.296525053679943085e-03
4.042456857860088348e-03
1.371914148330688477e-01
1.748419553041458130e-01
-4.447557963430881500e-03
-1.817830950021743774e-01
-3.245346993207931519e-02
3.442093729972839355e-02
1.552564650774002075e-02
1.140243709087371826e-01
-1.687853597104549408e-02
-3.609477728605270386e-02
-1.046474948525428772e-01
-9.706912934780120850e-02
-4.045902565121650696e-02
7.633398473262786865e-02
6.066707894206047058e-02
8.717297576367855072e-03
-4.480650648474693298e-02
-7.510869204998016357e-02
-6.312370300292968750e-02
-3.314319625496864319e-02
8.253251202404499054e-03
-2.827859669923782349e-02
-1.692286878824234009e-02
-3.497832268476486206e-02
-5.940425023436546326e-02
2.640202082693576813e-02
5.007304251194000244e-02
-6.238691974431276321e-03
-1.046532168984413147e-01
-1.387659758329391479e-01
-6.991627812385559082e-02
-6.702626496553421021e-02
-3.599172830581665039e-02
8.578953891992568970e-02
-3.342473134398460388e-02
-3.585998415946960449e-01
-2.979541718959808350e-01
-1.098338961601257324e-01
-7.114320993423461914e-02
-7.623564451932907104e-02
7.461848109960556030e-02
-4.978350177407264709e-02
-1.448801457881927490e-01
2.616304345428943634e-02
-7.692681998014450073e-02
-6.831276696175336838e-03
9.926935657858848572e-03
2.854752540588378906e-02
-4.171954840421676636e-02
1.340805441141128540e-01
2.548399269580841064e-01
6.141934543848037720e-02
4.781796131283044815e-03
4.820533096790313721e-02
4.902389273047447205e-02
-3.301402181386947632e-02
1.002978459000587463e-01
1.920574530959129333e-02
1.966574229300022125e-02
2.978237718343734741e-02
8.601248264312744141e-03
4.704502969980239868e-02
-1.119612604379653931e-01
5.371658131480216980e-02
5.049637332558631897e-02
1.369904540479183197e-02
-3.437129408121109009e-02
3.466137126088142395e-02
5.823818221688270569e-02
2.984051406383514404e-02
3.757403790950775146e-01
1.366458684206008911e-01
6.160463765263557434e-02
7.420252263545989990e-02
1.093649640679359436e-01
1.575915664434432983e-01
-5.507444962859153748e-02
-2.796410769224166870e-02
-1.362020801752805710e-02
-4.949739575386047363e-02
2.734694629907608032e-02
8.947246521711349487e-02
-5.526333302259445190e-02
-1.300301253795623779e-01
-2.172567136585712433e-02
-2.360995300114154816e-02
8.178304135799407959e-02
5.785175040364265442e-02
2.337255328893661499e-02
4.521010071039199829e-02
7.067163824103772640e-04
-3.333456988912075758e-04
1.107823755592107773e-02
-1.241448000073432922e-01
-8.082510530948638916e-02
1.038450300693511963e-01
8.343047648668289185e-02
-4.649110510945320129e-02
-1.344655603170394897e-01
-4.212830215692520142e-02
-8.546885848045349121e-02
4.244720097631216049e-03
1.251672115176916122e-02
8.315563946962356567e-02
6.689065601676702499e-03
-5.460971966385841370e-02
9.206558018922805786e-02
4.348445683717727661e-02
-5.445877090096473694e-03
-1.174245476722717285e-01
-3.794852271676063538e-02
4.566038027405738831e-02
7.815675437450408936e-02
4.690277576446533203e-02
2.731798589229583740e-02
9.616934508085250854e-02
-4.700710065662860870e-03
3.505351766943931580e-02
6.220255047082901001e-02
-9.508707560598850250e-03
1.593797206878662109e-01
4.593517631292343140e-02
-2.299813367426395416e-02
1.042192708700895309e-02
3.202999755740165710e-02
5.474638193845748901e-03
2.172509022057056427e-02
3.749672323465347290e-02
6.494750082492828369e-02
1.309511996805667877e-02
7.456673681735992432e-02
5.890862271189689636e-02
1.773216016590595245e-02
-1.442132294178009033e-01
7.944109290838241577e-02
1.477526128292083740e-01
7.352209836244583130e-02
5.190567672252655029e-02
4.933734983205795288e-02
-1.546275466680526733e-01
2.718595042824745178e-02
-9.888081252574920654e-02
3.737822920083999634e-02
1.070522237569093704e-02
8.150111138820648193e-02
1.127661988139152527e-01
8.050974458456039429e-03
1.428671628236770630e-01
9.291238337755203247e-02
-6.515479832887649536e-02
-2.229939401149749756e-01
-1.622377783060073853e-01
-3.685009106993675232e-02
3.496984019875526428e-02
-2.721947804093360901e-02
2.753115631639957428e-02
5.548442900180816650e-02
-2.304348163306713104e-02
-2.173628285527229309e-02
5.883781611919403076e-02
1.553507801145315170e-02
3.506377711892127991e-02
7.910449989140033722e-03
-2.772198291495442390e-03
-7.528054714202880859e-02
-2.290697582066059113e-02
-1.668710447847843170e-02
5.116744711995124817e-02
4.922298714518547058e-02
4.624552279710769653e-02
6.759584415704011917e-03
-2.324034087359905243e-02
2.852404676377773285e-02
3.616616362705826759e-03
2.378152217715978622e-03
-1.924343779683113098e-02
-5.575504899024963379e-02
-1.748576387763023376e-02
5.684111267328262329e-02
5.003950744867324829e-02
-5.423093214631080627e-02
1.362504158169031143e-02
-1.692797243595123291e-01
4.636704921722412109e-02
1.310494691133499146e-01
5.256823822855949402e-02
4.483549669384956360e-02
6.356180179864168167e-03
-4.039645567536354065e-02
-8.448144420981407166e-03
8.373413234949111938e-02
1.135810911655426025e-01
1.219367906451225281e-01
3.986882045865058899e-02
-2.856928482651710510e-02
-7.477204501628875732e-02
5.138725414872169495e-02
1.251026894897222519e-02
-3.401586785912513733e-02
-1.136253103613853455e-01
-9.244446642696857452e-03
6.462928839027881622e-03
-2.462236583232879639e-02
1.078721731901168823e-01
-2.376100234687328339e-02
-9.304818511009216309e-02
-7.178836315870285034e-02
-1.013322621583938599e-01
-1.958917267620563507e-02
3.042769432067871094e-02
-2.774209715425968170e-02
-1.006112433969974518e-02
-6.815367937088012695e-02
-1.231368482112884521e-01
-5.445551499724388123e-02
-4.187931772321462631e-03
-1.287112571299076080e-02
-4.164185374975204468e-02
-1.952759362757205963e-02
-5.989827332086861134e-04
-6.102548912167549133e-02
-3.553811833262443542e-02
3.604933619499206543e-02
4.064342379570007324e-02
3.361842036247253418e-02
3.592020273208618164e-02
4.045881330966949463e-02
4.890268668532371521e-02
6.256234645843505859e-02
1.677366532385349274e-02
4.228606820106506348e-02
-1.194278970360755920e-01
-7.646443694829940796e-02
7.128342241048812866e-02
3.642378747463226318e-02
-9.065127931535243988e-03
2.084159106016159058e-02
-7.131237536668777466e-02
-9.994252026081085205e-02
-6.048150360584259033e-03
9.656496345996856689e-02
-2.775813266634941101e-02
-1.943046785891056061e-02
-1.430384349077939987e-02
1.066958624869585037e-02
3.803503140807151794e-02
8.479601144790649414e-02
2.439345419406890869e-01
8.470969274640083313e-03
-4.512779414653778076e-02
2.015797421336174011e-02
3.837621212005615234e-02
1.147648245096206665e-01
3.446177812293171883e-03
8.555130660533905029e-02
4.764102771878242493e-02
-2.871142886579036713e-02
1.169711258262395859e-02
-1.495321653783321381e-02
-8.087404072284698486e-02
-4.998343810439109802e-02
-7.147045806050300598e-03
2.377951890230178833e-02
2.832406386733055115e-02
-4.200725525151938200e-04
-3.730504959821701050e-02
8.941233390942215919e-04
5.419716238975524902e-02
-2.000595070421695709e-02
4.082261770963668823e-02
2.692947909235954285e-02
2.137900562956929207e-03
-2.003535442054271698e-02
1.831310428678989410e-02
-1.638494431972503662e-03
-6.144543178379535675e-03
-5.361078679561614990e-02
2.304660528898239136e-02
-4.241102188825607300e-02
-8.772029541432857513e-03
3.670623153448104858e-02
1.113754659891128540e-01
-9.722618758678436279e-02
-8.144745975732803345e-02
-4.226775839924812317e-03
-3.479176200926303864e-03
8.173842728137969971e-02
9.738791733980178833e-02
1.997531019151210785e-02
-5.408017896115779877e-03
4.945010319352149963e-02
-1.661171205341815948e-02
8.892606012523174286e-03
-3.393696388229727745e-03
-2.022903208853676915e-04
-1.970744051504880190e-04
9.245591610670089722e-02
1.877082139253616333e-01
-3.199975192546844482e-02
-1.321362983435392380e-02
-5.047529935836791992e-02
-2.428911775350570679e-01
-1.087466999888420105e-01
3.571534529328346252e-02
-5.597139522433280945e-02
-1.676658354699611664e-02
-2.410352416336536407e-02
-4.347262531518936157e-02
-8.751180022954940796e-02
-2.472777292132377625e-02
-3.354904009029269218e-03
-4.347742348909378052e-02
-2.757390029728412628e-02
2.854913845658302307e-02
1.036827266216278076e-01
1.059483066201210022e-01
9.588976390659809113e-03
5.132451653480529785e-03
-2.958823181688785553e-02
6.331346812658011913e-04
-5.821889266371726990e-02
-7.782112807035446167e-02
-6.305695325136184692e-02
-3.546851500868797302e-02
-2.045943029224872589e-02
-7.822612673044204712e-02
-3.352683037519454956e-02
-7.280906662344932556e-03
-7.543483749032020569e-03
1.659428887069225311e-02
5.290682986378669739e-02
1.972628757357597351e-02
1.645980216562747955e-02
-7.573759648948907852e-03
-4.164912551641464233e-02
-1.269319653511047363e-01
-1.348181217908859253e-01
-5.006233975291252136e-02
4.766750335693359375e-02
-4.071370139718055725e-02
-2.014370635151863098e-02
-1.445738784968852997e-02
-3.137553855776786804e-02
-6.916876882314682007e-02
2.740070596337318420e-02
1.428181305527687073e-02
7.883076905272901058e-04
-9.318066388368606567e-02
-1.049909368157386780e-01
2.180087380111217499e-02
1.423410475254058838e-01
6.170203536748886108e-02
3.695780411362648010e-02
-4.453631490468978882e-02
-1.423792541027069092e-01
5.697096139192581177e-02
-1.521574449725449085e-05
4.312356188893318176e-02
5.515193939208984375e-02
-1.229890855029225349e-03
-1.458596289157867432e-01
-9.951747953891754150e-02
-7.686088234186172485e-02
-3.815408796072006226e-02
-2.939990162849426270e-02
4.619280621409416199e-02
-1.156139187514781952e-02
-1.733176782727241516e-02
4.819114133715629578e-02
9.772522374987602234e-03
7.398386951535940170e-03
-2.922593615949153900e-02
-1.503827981650829315e-02
-4.378421604633331299e-02
-4.710092395544052124e-02
-2.200479246675968170e-02
1.933809183537960052e-02
-1.931322179734706879e-02
8.998373150825500488e-02
6.112190708518028259e-02
-2.287841215729713440e-02
-1.156306546181440353e-02
6.490886211395263672e-03
2.911085821688175201e-02
-3.693207725882530212e-02
5.365994572639465332e-02
5.851370096206665039e-02
-5.105312541127204895e-02
8.490464091300964355e-02
4.309652745723724365e-02
2.192691899836063385e-02
8.169197477400302887e-03
-3.829535795375704765e-03
-9.649728238582611084e-02
3.959749266505241394e-02
1.050674095749855042e-01
1.059906259179115295e-01
1.151543855667114258e-02
-1.094425469636917114e-02
-1.001505106687545776e-01
-1.547571122646331787e-01
8.447138965129852295e-02
3.933677449822425842e-02
1.096818409860134125e-02
7.356772199273109436e-03
-5.058811232447624207e-02
-8.129209280014038086e-02
-1.964337378740310669e-02
-1.281934883445501328e-02
-3.122081793844699860e-02
-4.266868904232978821e-02
-1.917159557342529297e-02
3.073049522936344147e-02
2.120354585349559784e-02
2.564471960067749023e-02
3.919702023267745972e-02
2.354861050844192505e-02
-1.145529467612504959e-02
-1.740158349275588989e-02
1.276165805757045746e-02
1.022498589009046555e-02
9.636258706450462341e-03
3.986310958862304688e-02
-1.968227885663509369e-02
8.735933341085910797e-03
-6.495714932680130005e-02
-7.965167611837387085e-02
-1.568716764450073242e-01
-2.146833762526512146e-02
3.926691785454750061e-02
1.295433640480041504e-01
1.134457290172576904e-01
5.423435941338539124e-02
-1.012189386528916657e-05
3.260426968336105347e-02
5.492196232080459595e-02
1.722575724124908447e-01
9.268176555633544922e-02
3.582506626844406128e-02
1.497997716069221497e-02
-3.662095218896865845e-02
5.917454883456230164e-02
1.334805488586425781e-01
8.860397338867187500e-02
5.769614130258560181e-02
1.322256773710250854e-01
7.779589388519525528e-03
2.286829240620136261e-02
1.392366886138916016e-01
-1.855562999844551086e-02
-4.333613812923431396e-02
-3.918284177780151367e-02
-6.215711124241352081e-03
-1.431144922971725464e-01
-2.767587825655937195e-02
4.308662842959165573e-03
-4.930950235575437546e-03
-8.104295283555984497e-02
-1.469066590070724487e-01
7.737147808074951172e-02
3.845610842108726501e-02
-4.238285124301910400e-02
-4.477280750870704651e-02
1.978050731122493744e-02
-8.535733446478843689e-03
-2.226156368851661682e-02
6.917690485715866089e-02
1.739331521093845367e-02
-1.314717996865510941e-02
-7.908015698194503784e-02
-9.381855279207229614e-02
-7.775639742612838745e-02
-2.288587205111980438e-02
6.405411660671234131e-02
-1.432567276060581207e-02
6.719469279050827026e-02
-2.867406420409679413e-02
2.045046858256682754e-04
7.578032463788986206e-02
1.049315743148326874e-02
8.417516201734542847e-02
1.038146242499351501e-01
2.324458770453929901e-02
8.046328276395797729e-02
7.481318712234497070e-02
-4.873443767428398132e-02
1.393323093652725220e-01
2.023453637957572937e-02
5.257428810000419617e-02
-4.248933494091033936e-02
-6.539744324982166290e-03
-2.781962975859642029e-02
-8.020513504743576050e-02
-9.832914173603057861e-02
-1.404223311692476273e-02
1.936276443302631378e-02
-1.266520172357559204e-01
-1.227251216769218445e-01
1.445294730365276337e-02
1.439458280801773071e-01
9.336274862289428711e-02
-5.284866318106651306e-03
-3.705354034900665283e-02
-1.130865048617124557e-02
3.292906563729047775e-03
1.873903721570968628e-02
5.795640498399734497e-02
2.680247090756893158e-02
1.030473224818706512e-02
-4.306410904973745346e-03
7.492394000291824341e-02
9.336462616920471191e-02
6.867609173059463501e-02
7.480297982692718506e-02
4.988854750990867615e-02
6.313355267047882080e-02
9.911123663187026978e-03
-5.677258130162954330e-03
-3.916623070836067200e-03
5.060553178191184998e-02
-2.399837784469127655e-02
-1.043886877596378326e-02
1.924647390842437744e-02
4.438524693250656128e-02
-5.461706221103668213e-02
5.737065896391868591e-02
1.056865975260734558e-01
5.733228847384452820e-02
4.982907697558403015e-02
1.802885718643665314e-02
4.890102520585060120e-02
8.449859917163848877e-02
1.057460084557533264e-01
8.569892495870590210e-02
1.923068612813949585e-02
4.785604402422904968e-02
4.758454486727714539e-02
1.453032065182924271e-02
3.507282352074980736e-03
4.144158586859703064e-02
-8.238168805837631226e-02
-4.437622800469398499e-02
7.243000715970993042e-02
-1.762157335178926587e-04
-5.258520320057868958e-02
-2.996473014354705811e-02
3.478456754237413406e-03
-8.355557918548583984e-02
-3.801518352702260017e-03
-1.130977296270430088e-03
1.509515941143035889e-02
-3.159860894083976746e-02
-8.493097499012947083e-03
7.474834565073251724e-03
7.991537451744079590e-03
-1.693694293498992920e-02
-8.552899584174156189e-03
-4.411117359995841980e-02
-3.830252215266227722e-03
-4.554232582449913025e-02
-5.713237822055816650e-02
-2.246736735105514526e-02
8.366422262042760849e-04
-4.067936539649963379e-02
-4.460868984460830688e-02
1.517185755074024200e-02
-1.461041532456874847e-02
-9.546794742345809937e-02
-4.264885559678077698e-02
2.329620718955993652e-02
9.453548118472099304e-03
-9.434617124497890472e-03
1.565507426857948303e-02
5.366691201925277710e-02
-4.071409627795219421e-02
-9.471935918554663658e-04
1.962238177657127380e-02
-3.956505283713340759e-02
8.072242140769958496e-02
4.163485020399093628e-02
6.257709115743637085e-02
4.669188056141138077e-03
3.508060798048973083e-02
5.072898790240287781e-02
6.468790769577026367e-02
7.247269153594970703e-02
2.563870884478092194e-02
8.059056103229522705e-02
9.217065572738647461e-02
4.613081458956003189e-03
-1.246702894568443298e-01
1.382324844598770142e-02
-5.830152705311775208e-02
-1.636293828487396240e-01
1.166920829564332962e-02
-1.700480654835700989e-02
-5.513864383101463318e-02
-3.790431469678878784e-02
-5.598301067948341370e-02
-3.546744585037231445e-02
-9.336004406213760376e-02
-5.632501095533370972e-03
-1.948067545890808105e-02
-2.712649293243885040e-02
-1.211821660399436951e-01
-1.004386227577924728e-02
3.942478448152542114e-02
6.355705857276916504e-02
-8.094526827335357666e-02
2.580946683883666992e-02
7.200957834720611572e-02
3.735926002264022827e-02
6.495786458253860474e-02
5.843782331794500351e-03
1.782155223190784454e-02
-8.063592761754989624e-02
-5.409752205014228821e-02
1.963880844414234161e-02
-1.714747026562690735e-02
-9.024538844823837280e-02
1.738227345049381256e-02
-4.020420461893081665e-02
-1.820842176675796509e-02
-3.151038289070129395e-02
-9.616833925247192383e-02
-3.349357843399047852e-01
-1.785080581903457642e-01
-1.511082518845796585e-02
4.779641702771186829e-02
1.277212146669626236e-02
8.408007025718688965e-02
-1.226156800985336304e-01
-1.941724717617034912e-01
-1.885066926479339600e-02
-8.143416792154312134e-02
-4.499454423785209656e-02
1.164140645414590836e-02
-9.450450539588928223e-03
1.392578184604644775e-01
1.346088945865631104e-01
5.177144333720207214e-02
7.128725945949554443e-02
2.087640389800071716e-02
-4.764414206147193909e-02
-7.081706821918487549e-02
6.522649526596069336e-02
1.889739781618118286e-01
9.603697806596755981e-02
4.798119422048330307e-03
-6.776038557291030884e-03
-2.663836814463138580e-02
-2.747041406109929085e-03
-2.167702093720436096e-02
5.805447697639465332e-02
1.459500491619110107e-01
-3.269904991611838341e-03
8.142620325088500977e-02
4.977048188447952271e-02
6.028752401471138000e-02
1.346136480569839478e-01
9.221460670232772827e-02
7.862506061792373657e-02
4.586734622716903687e-02
1.783734187483787537e-02
1.278585288673639297e-02
2.954698167741298676e-03
1.058328375220298767e-01
4.605687782168388367e-02
3.922128304839134216e-02
4.638599231839179993e-02
7.044414430856704712e-02
-1.872015767730772495e-03
-7.149981707334518433e-02
-1.624030768871307373e-01
-1.542597860097885132e-01
2.654064446687698364e-03
-3.176067722961306572e-03
7.238707691431045532e-02
-4.292093217372894287e-02
1.228011958301067352e-02
-2.050268521998077631e-04
8.923575282096862793e-02
1.378494873642921448e-02
4.939056932926177979e-02
-2.764793857932090759e-02
6.916008889675140381e-02
8.911008946597576141e-03
3.669670969247817993e-02
2.731048315763473511e-02
4.043117538094520569e-02
5.434587225317955017e-02
-1.124520078301429749e-01
-1.478183362632989883e-02
1.137898396700620651e-02
-3.644063603132963181e-03
-3.538143262267112732e-02
3.993774950504302979e-02
7.132150232791900635e-02
-6.170972436666488647e-02
-1.011587455868721008e-01
-5.498604732565581799e-04
-5.711614154279232025e-03
-4.392187297344207764e-02
-4.520691931247711182e-02
3.322640806436538696e-02
9.725173562765121460e-02
2.860315702855587006e-02
1.064854953438043594e-02
6.681577116250991821e-02
-1.646232604980468750e-02
-4.105617851018905640e-02
8.908801525831222534e-02
-5.346956104040145874e-02
8.052278310060501099e-03
2.050478011369705200e-02
-2.804710716009140015e-02
4.269765689969062805e-02
1.312342658638954163e-02
9.630314260721206665e-02
-7.896818965673446655e-02
3.825157508254051208e-02
8.093702490441501141e-04
-1.526057869195938110e-01
-1.272274702787399292e-01
-8.634152263402938843e-02
-1.372047141194343567e-02
1.574748903512954712e-01
4.227749630808830261e-02
2.760656177997589111e-03
-1.429315507411956787e-01
-1.963865458965301514e-01
-1.175937354564666748e-01
-3.835123032331466675e-02
3.699462488293647766e-02
-8.510671555995941162e-02
3.884625062346458435e-02
6.430490314960479736e-02
1.009108591824769974e-02
-4.193743318319320679e-02
-2.350125694647431374e-03
-7.865147292613983154e-02
-4.359004646539688110e-02
1.481098979711532593e-01
2.749002724885940552e-02
1.221819594502449036e-01
-3.566787019371986389e-02
6.382755190134048462e-02
5.042106285691261292e-02
8.928276598453521729e-02
3.613267466425895691e-02
9.604433923959732056e-02
6.984490901231765747e-02
-6.356446538120508194e-03
8.011707663536071777e-02
6.288191676139831543e-02
2.142300456762313843e-01
2.017067223787307739e-01
6.586838979274034500e-03
3.835133509710431099e-03
-2.481066249310970306e-02
9.888181835412979126e-02
-8.290825784206390381e-02
2.537903562188148499e-02
-5.411641299724578857e-02
-7.154085673391819000e-03
2.013152837753295898e-02
-7.929483801126480103e-02
6.122677028179168701e-02
-1.679909788072109222e-02
-3.500392287969589233e-02
-1.173548586666584015e-02
-2.205815911293029785e-02
-1.201137155294418335e-01
-8.791052969172596931e-04
2.009492367506027222e-02
4.432635009288787842e-02
-4.659743607044219971e-02
-4.733234271407127380e-02
1.576060988008975983e-02
-1.492493506520986557e-02
5.726649984717369080e-02
-1.611245423555374146e-02
7.831121236085891724e-02
-8.484024554491043091e-02
2.050612866878509521e-02
1.221449151635169983e-01
3.349893167614936829e-02
-8.910122513771057129e-02
-1.344731915742158890e-02
4.535214602947235107e-02
1.561106927692890167e-02
1.024571135640144348e-01
3.826751559972763062e-02
1.005652993917465210e-01
1.671945862472057343e-02
-7.991556078195571899e-02
-9.826378896832466125e-03
9.478372335433959961e-02
1.319566667079925537e-01
1.166498959064483643e-01
4.206874966621398926e-02
-4.100955277681350708e-02
-3.935397136956453323e-03
-4.920611158013343811e-02
1.889770664274692535e-02
1.369678322225809097e-02
-2.279390580952167511e-03
-2.913404814898967743e-02
-1.560225849971175194e-03
-1.310743577778339386e-02
-3.347207233309745789e-02
1.169453486800193787e-01
1.448623649775981903e-02
-1.031683310866355896e-01
-1.184757202863693237e-01
-1.757343858480453491e-02
6.843537837266921997e-02
-3.949388861656188965e-03
-2.736459113657474518e-02
-1.001664102077484131e-01
-4.057639241218566895e-01
-2.559308707714080811e-01
-9.676298499107360840e-02
-5.211661756038665771e-02
7.889967411756515503e-02
5.025570094585418701e-02
-5.320467799901962280e-02
-1.879310458898544312e-01
-1.111177802085876465e-01
-1.350155845284461975e-02
3.527388349175453186e-02
7.770168036222457886e-02
1.012841165065765381e-01
7.127614319324493408e-02
2.276359796524047852e-01
1.134254708886146545e-01
3.654711320996284485e-02
9.092732518911361694e-02
9.412617236375808716e-02
-4.541751369833946228e-02
8.551986515522003174e-02
1.929698884487152100e-01
-4.975345451384782791e-03
1.826264336705207825e-02
3.545359941199421883e-03
2.252025762572884560e-03
-3.904442489147186279e-02
5.304596573114395142e-02
5.323139578104019165e-02
-3.686080500483512878e-02
-3.062474541366100311e-02
3.196126222610473633e-02
-3.455503284931182861e-02
4.231037572026252747e-02
2.447428554296493530e-01
1.835078746080398560e-01
6.581456214189529419e-02
7.406082004308700562e-02
7.469875738024711609e-03
1.983536593616008759e-02
2.322451770305633545e-02
-3.456497937440872192e-02
5.773764476180076599e-02
4.748584330081939697e-02
-2.704730443656444550e-02
-1.635985635221004486e-02
2.111645229160785675e-02
-4.079052805900573730e-02
-1.349235419183969498e-02
-1.115131676197052002e-01
-2.324827015399932861e-01
-1.037466675043106079e-01
1.636298932135105133e-02
-1.106789894402027130e-02
2.147126756608486176e-02
7.849317044019699097e-02
3.479350823909044266e-03
1.482360251247882843e-02
1.372605096548795700e-02
1.006534993648529053e-01
2.471052296459674835e-02
7.343713939189910889e-02
2.634586393833160400e-02
6.085861474275588989e-02
3.343972191214561462e-02
6.563723832368850708e-02
5.782485753297805786e-02
-1.205148398876190186e-01
-3.889307379722595215e-02
-7.722715288400650024e-02
3.597289323806762695e-02
5.188614875078201294e-02
6.310470402240753174e-02
6.167108565568923950e-02
-7.512791454792022705e-02
-6.788957118988037109e-02
5.580187588930130005e-02
-2.310993708670139313e-02
1.582899317145347595e-02
2.279088646173477173e-02
5.664928257465362549e-02
9.629840403795242310e-02
-1.018676999956369400e-02
3.244064375758171082e-02
5.030317604541778564e-02
4.469398781657218933e-02
3.147487714886665344e-02
4.924007877707481384e-02
3.776505962014198303e-02
3.833926096558570862e-02
-2.781789749860763550e-02
-1.798602170310914516e-04
4.522809386253356934e-02
6.321857869625091553e-02
1.052362844347953796e-02
5.983037501573562622e-02
-6.648071110248565674e-02
-1.167805865406990051e-01
1.061485707759857178e-01
1.474776268005371094e-01
1.119152158498764038e-01
-6.175860762596130371e-02
6.909803301095962524e-02
-9.961393475532531738e-02
3.655484691262245178e-02
6.329411268234252930e-02
1.711160391569137573e-01
6.868029385805130005e-02
-1.925189420580863953e-02
-4.762207344174385071e-02
-4.301109910011291504e-02
2.110883221030235291e-02
9.622299671173095703e-02
-1.135316211730241776e-02
1.668460108339786530e-02
-7.900393009185791016e-02
7.238596212118864059e-03
2.799548953771591187e-02
1.528785079717636108e-01
-4.533778503537178040e-02
8.924530446529388428e-02
4.890678822994232178e-02
-5.844026803970336914e-02
-1.317575573921203613e-01
-1.064557675272226334e-02
-4.327179118990898132e-02
3.293095156550407410e-02
-6.344875693321228027e-02
-1.027621701359748840e-01
-1.047285646200180054e-01
3.494942188262939453e-02
-9.669637307524681091e-03
-2.352062985301017761e-02
-1.946040242910385132e-02
-6.119847297668457031e-02
-8.460551500320434570e-02
-5.909205880016088486e-03
-3.607470169663429260e-02
-9.860705584287643433e-02
-9.089162945747375488e-02
4.738390818238258362e-02
3.243308141827583313e-02
-2.251415513455867767e-02
4.506750777363777161e-02
-8.318375051021575928e-02
-8.465529978275299072e-02
9.732221253216266632e-03
-8.358945697546005249e-02
-2.471958845853805542e-01
-8.534128218889236450e-02
5.534378066658973694e-02
-2.486193738877773285e-02
5.166470538824796677e-03
6.072162091732025146e-02
3.739253059029579163e-02
-1.466006338596343994e-01
-1.005151420831680298e-01
5.419377610087394714e-02
-5.500223021954298019e-03
1.897410117089748383e-02
1.388812670484185219e-04
7.874803990125656128e-02
3.900352632626891136e-03
9.364089369773864746e-02
3.359475731849670410e-02
1.170920394361019135e-02
-5.434198677539825439e-02
-1.352992802858352661e-01
5.742913857102394104e-02
5.410044267773628235e-02
1.020194515585899353e-01
1.006004810333251953e-01
-1.607660017907619476e-02
1.129152718931436539e-02
4.380968958139419556e-02
1.780686341226100922e-02
-6.302026659250259399e-02
7.999728620052337646e-02
1.190737560391426086e-01
-1.332379039376974106e-02
1.123976632952690125e-01
8.763636648654937744e-02
5.666584521532058716e-02
4.596645757555961609e-02
6.909235566854476929e-02
5.745915323495864868e-02
8.666426874697208405e-03
3.555078525096178055e-03
-3.521456383168697357e-03
-9.164275601506233215e-03
2.005384303629398346e-03
-1.898975856602191925e-02
1.296293456107378006e-02
-1.881803572177886963e-02
-1.318769995123147964e-02
-7.497263140976428986e-03
7.309167645871639252e-03
6.514985114336013794e-03
-1.028257701545953751e-02
1.835313625633716583e-02
1.640933752059936523e-02
-3.016414865851402283e-02
-1.002629660069942474e-02
-1.367316488176584244e-02
-1.982473395764827728e-02
-8.472670800983905792e-03
5.827257409691810608e-03
-1.691493764519691467e-02
-2.005221322178840637e-02
-2.265514992177486420e-02
4.835980944335460663e-04
-2.015558630228042603e-02
-1.117687486112117767e-02
-1.162189431488513947e-02
-2.258954383432865143e-02
-1.813007891178131104e-02
-6.993643473833799362e-03
-2.386142499744892120e-02
1.297553163021802902e-02
1.599134318530559540e-02
-2.469079755246639252e-02
-4.018575884401798248e-03
1.970737648662179708e-04
-1.748890615999698639e-02
-1.976002752780914307e-02
-1.440513692796230316e-02
-1.280831266194581985e-02
1.889111939817667007e-03
-9.782950393855571747e-03
-2.089752815663814545e-02
-1.012419350445270538e-02
-1.749009243212640285e-03
1.969974488019943237e-03
-2.133629284799098969e-02
-2.544180676341056824e-02
1.498864777386188507e-02
-5.905652418732643127e-03
-2.437526173889636993e-02
5.659382790327072144e-03
9.349421598017215729e-03
1.333713182248175144e-03
-2.455380558967590332e-02
2.019305899739265442e-02
9.547121822834014893e-03
-1.123759057372808456e-02
-1.761666312813758850e-02
-2.514636702835559845e-02
1.145159360021352768e-02
2.189373597502708435e-02
-1.587844640016555786e-02
1.916113309562206268e-02
1.168476603925228119e-02
-8.747818879783153534e-03
4.673660150729119778e-04
-9.153124876320362091e-03
-2.227971330285072327e-02
2.106405794620513916e-03
1.560928393155336380e-02
-2.599440328776836395e-02
-3.121315874159336090e-02
-2.023145556449890137e-02
-2.746582776308059692e-02
5.248149856925010681e-03
2.340140193700790405e-02
8.601970970630645752e-03
1.199212949723005295e-02
1.358561869710683823e-02
-1.399559713900089264e-02
-1.844906993210315704e-02
-1.270089577883481979e-02
-2.503723651170730591e-02
9.370841085910797119e-03
-1.060963026247918606e-03
-1.977023854851722717e-02
1.390505768358707428e-02
1.048362813889980316e-02
-1.127804815769195557e-02
7.865864783525466919e-03
-2.449596859514713287e-02
1.325468160212039948e-02
9.874783456325531006e-03
-1.846273243427276611e-02
-3.349501639604568481e-05
-1.469094678759574890e-02
-2.276682294905185699e-02
-2.447187434881925583e-03
-9.742149151861667633e-03
-2.355730533599853516e-02
-1.212595868855714798e-02
9.141664952039718628e-03
-2.654422633349895477e-02
-2.630411088466644287e-02
-4.999971482902765274e-03
1.757067977450788021e-03
1.481103710830211639e-02
4.334404598921537399e-03
-5.876166280359029770e-03
-1.403868291527032852e-02
-1.723359891911968589e-04
1.018027216196060181e-02
-2.183065377175807953e-02
5.912343505769968033e-03
-1.555130444467067719e-02
-2.689176052808761597e-02
1.287110615521669388e-02
-6.801105570048093796e-03
-2.820092067122459412e-02
8.986658416688442230e-03
1.635151356458663940e-02
1.458448474295437336e-03
-1.086339354515075684e-02
-1.436075475066900253e-02
1.518034562468528748e-02
7.977157365530729294e-04
-2.928353659808635712e-02
8.646497502923011780e-03
-2.681765519082546234e-02
-1.494603510946035385e-02
6.344818044453859329e-03
-9.023702703416347504e-03
-5.573869930231012404e-05
-2.345340885221958160e-02
6.430966779589653015e-03
-2.093719132244586945e-02
-1.875034533441066742e-02
-1.249101664870977402e-02
8.154418901540338993e-05
-1.989427767693996429e-02
-1.659737527370452881e-02
1.869598752819001675e-03
1.337505131959915161e-02
-3.014841675758361816e-02
-1.360185630619525909e-02
-2.218783646821975708e-02
-2.110595628619194031e-02
-1.774473860859870911e-02
1.344757806509733200e-02
3.298535477370023727e-03
-3.013421222567558289e-02
1.573082245886325836e-02
-2.104616025462746620e-03
4.151245113462209702e-03
1.907964050769805908e-02
-2.838938497006893158e-02
1.721889525651931763e-02
6.678383215330541134e-04
-2.584466524422168732e-02
-1.479232404381036758e-02
-1.452845055609941483e-03
1.653394103050231934e-02
1.025875378400087357e-02
1.729694567620754242e-02
7.082542404532432556e-03
-2.449901215732097626e-02
-3.078896843362599611e-04
8.928268216550350189e-04
-9.313295595347881317e-03
1.774921081960201263e-02
7.486696355044841766e-03
-6.619061809033155441e-03
2.820527879521250725e-03
-5.607692874036729336e-04
-1.246485393494367599e-02
1.794779673218727112e-02
6.524027325212955475e-03
-2.122847735881805420e-02
1.786724105477333069e-02
-2.552331611514091492e-02
-2.879075519740581512e-02
1.882245391607284546e-02
2.576279221102595329e-03
1.313046459108591080e-02
9.636600501835346222e-03
1.064831484109163284e-02
-2.597542665898799896e-02
-2.441789768636226654e-02
9.382793679833412170e-03
8.679419755935668945e-03
1.874225400388240814e-02
-2.699788473546504974e-02
5.019508302211761475e-03
-1.876030862331390381e-02
-3.089858964085578918e-02
-1.622453145682811737e-02
1.272293459624052048e-02
1.178384292870759964e-02
-2.661437354981899261e-02
-3.996501211076974869e-03
-1.920251175761222839e-02
7.388521451503038406e-03
-7.004253100603818893e-03
1.431698352098464966e-02
-2.475431747734546661e-02
-1.638152264058589935e-02
1.788610219955444336e-02
8.813481777906417847e-03
1.222542487084865570e-02
2.260184148326516151e-03
-1.741837523877620697e-02
-6.289272569119930267e-03
-2.741322852671146393e-02
-2.679746411740779877e-02
-1.398572511970996857e-02
-2.848792821168899536e-02
1.200306229293346405e-02
1.849720953032374382e-03
1.743276230990886688e-02
-1.967560313642024994e-02
5.347526166588068008e-03
-2.853289060294628143e-02
-2.701989933848381042e-02
-8.927593939006328583e-03
9.162068367004394531e-03
2.230209065601229668e-03
-3.663800191134214401e-03
-1.457138545811176300e-02
-1.239789649844169617e-02
-2.574389427900314331e-02
1.377000845968723297e-02
-1.226086542010307312e-02
-1.071141753345727921e-02
3.870057407766580582e-03
1.892006373964250088e-03
1.408632379025220871e-02
-5.295570008456707001e-03
-1.773057505488395691e-02
-2.547582425177097321e-02
-1.151455007493495941e-02
3.933392930775880814e-03
-2.465748926624655724e-03
-9.960988536477088928e-04
-3.801125800237059593e-03
1.064628642052412033e-02
-1.245004683732986450e-02
5.920440424233675003e-03
2.922402694821357727e-03
1.616889610886573792e-02
-1.744631119072437286e-02
-8.481754921376705170e-03
5.497880280017852783e-03
-9.123450727201998234e-04
-2.060926891863346100e-02
1.461187656968832016e-02
1.333331223577260971e-03
-1.350005622953176498e-02
1.258036121726036072e-02
-1.753080636262893677e-02
-2.008143253624439240e-02
1.676676794886589050e-02
3.153107361868023872e-03
-2.419697120785713196e-02
-2.159264986403286457e-04
-2.800015173852443695e-02
-3.063168004155158997e-02
1.331595610827207565e-02
-2.446917258203029633e-02
-3.083570115268230438e-02
-1.588857918977737427e-02
-3.500285791233181953e-03
-1.017923280596733093e-02
-2.367801591753959656e-02
1.861990243196487427e-02
-2.737920731306076050e-02
7.284570019692182541e-03
-7.460340857505798340e-03
-2.963640028610825539e-03
1.886937208473682404e-02
-1.935005001723766327e-02
-1.802209205925464630e-02
-1.966528035700321198e-02
1.243908237665891647e-02
1.108604017645120621e-02
2.118738368153572083e-02
-3.836092306300997734e-03
1.052577979862689972e-02
1.060809381306171417e-02
4.677696153521537781e-03
9.244363754987716675e-03
1.710396260023117065e-02
-9.310824796557426453e-03
2.428266685456037521e-03
-2.561218105256557465e-02
-5.562515463680028915e-03
-1.159430295228958130e-02
1.253033895045518875e-02
6.594143342226743698e-03
1.094826031476259232e-02
-2.189771644771099091e-02
1.174443215131759644e-02
-1.607153564691543579e-02
-4.878554027527570724e-03
3.440005821175873280e-05
-1.851032860577106476e-02
-1.046253740787506104e-02
1.276895869523286819e-02
-2.200446650385856628e-02
-1.364420540630817413e-02
9.086793288588523865e-03
-1.338237337768077850e-02
-1.121084112673997879e-02
-2.153051085770130157e-02
6.117905955761671066e-03
-2.278708154335618019e-03
-1.637721247971057892e-02
1.486847177147865295e-02
-2.213650383055210114e-03
1.921994611620903015e-02
1.559538953006267548e-02
-3.051112405955791473e-02
1.173605397343635559e-02
-2.786132507026195526e-02
1.531882025301456451e-02
-2.064945362508296967e-02
-7.812371477484703064e-03
-2.269930019974708557e-02
-1.096925791352987289e-02
-2.454037591814994812e-02
1.693663187325000763e-02
-1.592655479907989502e-02
1.963312039151787758e-03
-2.477909624576568604e-02
-2.233162522315979004e-02
-1.110946293920278549e-02
1.170616690069437027e-02
1.936802582349628210e-04
3.250898560509085655e-03
-2.829299308359622955e-02
-1.513284258544445038e-02
1.152130216360092163e-02
-2.002122625708580017e-02
1.972485333681106567e-02
2.027770504355430603e-02
-2.111642435193061829e-02
-1.182109303772449493e-02
4.083572886884212494e-03
4.927827045321464539e-03
1.907867565751075745e-02
-1.752829551696777344e-02
1.219914853572845459e-02
-2.752966061234474182e-02
7.564186118543148041e-03
-1.555276941508054733e-02
-1.391216274350881577e-02
3.087142482399940491e-03
-1.258521899580955505e-02
-2.944542095065116882e-02
3.578581847250461578e-03
1.456750649958848953e-02
2.123044832842424512e-04
-1.431813370436429977e-02
3.351187100633978844e-03
-2.497431077063083649e-02
-3.101230785250663757e-02
-1.475379394832998514e-04
1.693987101316452026e-02
-9.945859201252460480e-03
-1.275419909507036209e-02
-2.425247430801391602e-02
1.772266067564487457e-02
1.723042689263820648e-02
-2.083262801170349121e-02
5.101598217152059078e-04
-2.375186048448085785e-02
-3.286430612206459045e-03
-1.570258289575576782e-02
8.883059956133365631e-03
-2.602505555842071772e-04
-1.722719147801399231e-02
7.850763387978076935e-03
1.500088348984718323e-02
1.526926085352897644e-02
-2.340283431112766266e-02
-2.583408169448375702e-02
-2.876820228993892670e-02
-1.047319360077381134e-02
1.591395772993564606e-02
-2.690556831657886505e-02
6.023854482918977737e-03
1.316235587000846863e-02
-1.045346353203058243e-02
1.978941634297370911e-02
-2.018822357058525085e-03
-1.806490495800971985e-02
2.507612807676196098e-04
-3.971278667449951172e-03
4.670707508921623230e-03
1.635368913412094116e-02
-1.930840127170085907e-02
1.451477129012346268e-02
1.365937758237123489e-02
-2.846837788820266724e-02
8.096735924482345581e-03
-1.426680758595466614e-02
-6.646117661148309708e-03
-7.559775840491056442e-03
4.887762013822793961e-03
-2.028617449104785919e-02
-1.913143880665302277e-02
1.771366968750953674e-02
1.281748712062835693e-02
3.790173213928937912e-03
-4.027871880680322647e-03
1.483078580349683762e-03
-7.532063755206763744e-04
8.711433969438076019e-03
1.790456101298332214e-02
1.530643180012702942e-02
1.891632191836833954e-02
-1.761813089251518250e-02
4.595237784087657928e-03
-1.890795119106769562e-02
8.354186080396175385e-03
1.532964408397674561e-03
-6.147576030343770981e-03
-2.146827802062034607e-02
1.488433871418237686e-02
4.094514995813369751e-03
-2.348461188375949860e-02
-8.834192529320716858e-03
-7.600408047437667847e-03
2.523883059620857239e-02
-7.820087485015392303e-03
3.106130054220557213e-03
-2.973934821784496307e-02
-2.953440509736537933e-02
6.302481051534414291e-03
-2.227372303605079651e-02
-2.499419730156660080e-03
-1.897655241191387177e-02
-1.606531068682670593e-02
-1.055726408958435059e-02
-2.286450937390327454e-02
-2.013849280774593353e-02
-3.106011450290679932e-02
-2.663999795913696289e-02
2.660247264429926872e-03
-1.851575635373592377e-02
-1.699597388505935669e-02
-2.808261848986148834e-02
-2.033268660306930542e-02
-2.143132872879505157e-02
1.562906987965106964e-02
1.449749059975147247e-02
-2.937536127865314484e-02
-1.191614754498004913e-02
-8.934492245316505432e-03
-7.523146923631429672e-03
3.635617904365062714e-03
5.913061555474996567e-03
-7.898783660493791103e-04
9.115625172853469849e-03
-1.306620147079229355e-02
-3.512678202241659164e-03
1.618982478976249695e-02
-1.329055335372686386e-02
1.128404773771762848e-02
-2.896122820675373077e-02
-2.765602618455886841e-02
1.375414989888668060e-02
-5.950953811407089233e-03
-1.246792078018188477e-02
-2.462706714868545532e-02
-1.589320250786840916e-03
-2.121499041095376015e-03
7.758280262351036072e-03
1.474044378846883774e-02
5.536166951060295105e-03
-2.648329734802246094e-02
-2.092533372342586517e-02
-1.051860116422176361e-02
-7.796383928507566452e-03
-3.039196133613586426e-02
-2.363687567412853241e-02
1.415082905441522598e-02
-2.966101653873920441e-02
-3.529661102220416069e-03
-1.555746141821146011e-02
-1.490561664104461670e-02
-2.646859735250473022e-03
-2.668029256165027618e-02
1.585089834406971931e-03
7.596231997013092041e-03
1.354567799717187881e-02
-9.750044904649257660e-03
1.899966038763523102e-02
-2.261631935834884644e-02
-4.229045007377862930e-03
1.318888086825609207e-02
1.018304843455553055e-02
1.506340503692626953e-02
8.112774230539798737e-03
-2.890849485993385315e-02
-7.349278777837753296e-03
-1.758863404393196106e-02
1.442240085452795029e-02
-2.558619715273380280e-02
-3.039151988923549652e-02
7.887564133852720261e-04
-2.456406503915786743e-02
1.334717683494091034e-02
-6.495163310319185257e-03
1.073674485087394714e-02
-2.919674105942249298e-02
-9.961259551346302032e-03
-2.940115146338939667e-02
-2.216782607138156891e-02
-2.311821840703487396e-02
-6.600574124604463577e-03
4.781627561897039413e-03
-2.592310495674610138e-02
9.153207764029502869e-03
1.077413326129317284e-03
1.850473135709762573e-02
1.322298776358366013e-02
-1.549068000167608261e-02
1.407749205827713013e-02
6.912721320986747742e-03
-2.919773012399673462e-02
-5.745314992964267731e-03
-2.073708362877368927e-02
-6.340402644127607346e-03
2.360939048230648041e-03
-1.232767198234796524e-02
9.299582801759243011e-03
9.832546114921569824e-03
-1.858700439333915710e-02
-5.555605050176382065e-03
-5.956349428743124008e-03
-2.898756600916385651e-02
5.811665207147598267e-03
-1.864379644393920898e-02
-2.925649099051952362e-02
-6.801652722060680389e-03
-1.406651339493691921e-03
-2.462172508239746094e-02
-1.345056202262639999e-02
-1.528185419738292694e-02
9.409191086888313293e-03
-2.154855430126190186e-02
3.589573316276073456e-03
1.342151686549186707e-02
8.426326327025890350e-03
-4.412444308400154114e-03
-7.732105441391468048e-03
-9.295052848756313324e-03
2.131978049874305725e-03
1.398251298815011978e-02
1.175349485129117966e-02
-9.806099347770214081e-03
1.248924341052770615e-02
5.615242291241884232e-03
8.814191445708274841e-03
6.258220411837100983e-03
1.178774144500494003e-02
1.727924495935440063e-02
-4.961147438734769821e-03
1.204915437847375870e-02
-1.862324960529804230e-02
-1.092717517167329788e-02
1.336730085313320160e-02
-2.403810620307922363e-02
1.833294704556465149e-02
-9.887418709695339203e-03
8.226857520639896393e-03
-2.442197910568211228e-05
-8.893785998225212097e-03
1.618788577616214752e-02
7.620232645422220230e-04
-1.133013889193534851e-02
-9.502688422799110413e-03
1.566738449037075043e-02
-2.567472495138645172e-02
-3.036625124514102936e-02
-2.432377263903617859e-02
-1.048659626394510269e-02
5.699544562958180904e-04
1.542738918215036392e-02
-1.766385138034820557e-02
-1.284267194569110870e-02
1.595284417271614075e-02
-1.435111276805400848e-02
-2.857820689678192139e-02
-2.730757743120193481e-02
1.733615063130855560e-02
-1.272079441696405411e-02
-3.476649362710304558e-05
-1.503856666386127472e-02
-2.257255464792251587e-02
-2.308065257966518402e-02
-1.917790621519088745e-02
-9.466013871133327484e-03
-1.858996041119098663e-02
-2.293528057634830475e-02
9.227616712450981140e-03
1.385898608714342117e-02
1.225588191300630569e-02
-2.857435680925846100e-02
1.423440873622894287e-02
3.466514637693762779e-03
-5.779308266937732697e-03
-2.555913757532835007e-03
-2.245156094431877136e-03
-2.004461549222469330e-02
-2.919725514948368073e-02
-2.541490271687507629e-02
-1.552533823996782303e-02
5.916943307965993881e-03
-2.702759392559528351e-02
-8.814983884803950787e-04
-4.185462836176156998e-03
-2.985129132866859436e-03
-2.935753390192985535e-02
1.550013106316328049e-02
8.198435418307781219e-03
-7.715974468737840652e-03
-2.089872583746910095e-02
6.094936281442642212e-03
-2.104454860091209412e-02
-2.591528696939349174e-03
1.320347748696804047e-02
1.585734635591506958e-02
-2.492177300155162811e-03
1.454072631895542145e-02
-2.489478699862957001e-02
1.748556457459926605e-02
-2.120425738394260406e-02
1.141888741403818130e-02
2.491583814844489098e-03
1.129653956741094589e-02
9.240290150046348572e-03
1.446138788014650345e-02
9.043594822287559509e-03
-2.122884802520275116e-02
-1.904101110994815826e-02
-8.427285356447100639e-04
-1.489406824111938477e-02
8.178067393600940704e-03
-1.502553652971982956e-02
-2.528248541057109833e-02
-9.764284826815128326e-03
-3.424054593779146671e-04
1.275314856320619583e-02
-4.922142252326011658e-03
-1.990664377808570862e-02
-1.286941394209861755e-02
-2.597767487168312073e-02
-2.566221915185451508e-02
-3.961290232837200165e-03
2.200553426519036293e-03
-2.977701649069786072e-02
-8.972227573394775391e-03
1.406189519912004471e-02
-1.101468876004219055e-02
7.155551109462976456e-03
-6.182473618537187576e-03
-2.862446010112762451e-03
3.118800697848200798e-03
-2.253541909158229828e-02
-2.675927430391311646e-02
-5.642548785544931889e-04
-1.678932271897792816e-02
-2.548977732658386230e-03
-1.836490072309970856e-02
-2.251405082643032074e-02
-7.647404912859201431e-03
-2.301375754177570343e-02
-2.113976888358592987e-02
1.741487346589565277e-02
-1.703045330941677094e-02
-1.785930991172790527e-02
2.009153598919510841e-03
8.616968058049678802e-03
9.212240576744079590e-03
1.594897918403148651e-02
-2.250675670802593231e-02
-4.016036633402109146e-03
9.552249684929847717e-03
-1.195685472339391708e-03
-2.078974852338433266e-03
-2.727996930480003357e-02
-1.304014772176742554e-02
-1.442935990780824795e-05
1.577719300985336304e-02
-3.042549267411231995e-02
-1.218719687312841415e-02
1.737072691321372986e-02
-1.105477660894393921e-02
1.026192866265773773e-02
-1.999544911086559296e-02
-2.003033086657524109e-02
-2.460138406604528427e-03
-6.299779750406742096e-03
-2.868248522281646729e-02
-2.302052825689315796e-02
-1.666148565709590912e-02
-1.429422199726104736e-02
2.807198558002710342e-03
9.371371939778327942e-03
1.720605418086051941e-02
-3.501685336232185364e-03
1.579275727272033691e-02
-1.291354186832904816e-02
1.526457164436578751e-02
-2.669030055403709412e-02
-7.037362083792686462e-04
-4.811929538846015930e-03
-2.347080968320369720e-02
1.194018963724374771e-02
-5.604227073490619659e-03
1.664385199546813965e-02
-1.822621934115886688e-02
1.013265550136566162e-02
-2.093480713665485382e-02
6.385978311300277710e-03
-8.463998325169086456e-03
-2.975161559879779816e-02
-1.930886413902044296e-03
2.263844246044754982e-03
-1.847079023718833923e-02
1.500438526272773743e-02
-1.894685323350131512e-03
9.008164517581462860e-03
6.739686243236064911e-03
-3.098998405039310455e-02
1.699691079556941986e-02
-2.709651831537485123e-03
-1.792553626000881195e-02
1.853453740477561951e-02
-1.000533625483512878e-02
-2.047715894877910614e-02
5.084237549453973770e-03
8.602112531661987305e-03
-1.339278742671012878e-02
-3.014338575303554535e-02
1.774735189974308014e-02
8.625889196991920471e-03
-1.555973012000322342e-02
-2.487263828516006470e-02
-2.438967302441596985e-02
-2.923764986917376518e-03
8.853540755808353424e-03
-1.856197789311408997e-02
-2.267731912434101105e-02
-2.931591495871543884e-02
-2.589279040694236755e-02
1.561980787664651871e-02
-3.285194907221011817e-05
-7.211905904114246368e-03
-2.285282872617244720e-02
-1.166844740509986877e-02
-1.319014467298984528e-02
-2.679065614938735962e-02
2.640813123434782028e-03
-1.195440813899040222e-02
-2.692398615181446075e-03
1.292711682617664337e-02
-9.462957270443439484e-03
-2.918710000813007355e-02
7.463679648935794830e-03
-2.042623609304428101e-02
-2.710954472422599792e-02
2.362497150897979736e-03
-1.510311616584658623e-03
-1.620978116989135742e-02
-1.167841721326112747e-03
-1.871594786643981934e-02
8.540670387446880341e-03
-1.256954856216907501e-02
-8.346748538315296173e-03
9.556565433740615845e-03
-1.493826508522033691e-02
-1.493672025389969349e-03
-1.619393378496170044e-02
-3.022747486829757690e-02
-3.288570791482925415e-03
-2.920732833445072174e-02
-1.249893009662628174e-02
1.900640502572059631e-02
1.441233232617378235e-02
5.393291357904672623e-04
-1.228362554684281349e-03
1.836396194994449615e-02
-1.100415975088253617e-04
3.152117598801851273e-03
-2.193478122353553772e-02
-2.823282778263092041e-02
9.838760830461978912e-03
-1.160366274416446686e-02
-3.123738430440425873e-02
7.883797399699687958e-03
5.539086414501070976e-04
-4.536307416856288910e-03
-2.286628633737564087e-02
1.097346097230911255e-02
-1.020867750048637390e-02
3.584086894989013672e-03
-1.081194449216127396e-02
-1.634155213832855225e-02
5.144405178725719452e-03
-1.470146141946315765e-02
-2.730433084070682526e-02
-9.153285995125770569e-03
-6.685300730168819427e-03
-2.582132816314697266e-02
4.235779866576194763e-03
-2.247530408203601837e-02
-9.097686968743801117e-03
8.561271242797374725e-03
1.868291525170207024e-03
1.470482349395751953e-02
-4.798624649993143976e-05
1.266648061573505402e-02
-7.821194827556610107e-03
-8.317470550537109375e-03
-2.942124567925930023e-02
-1.100155152380466461e-02
-2.861143276095390320e-02
7.934942841529846191e-03
-3.040485084056854248e-02
1.364276371896266937e-02
1.361273787915706635e-02
9.715713094919919968e-04
-9.756521321833133698e-03
1.382311433553695679e-02
9.139385074377059937e-03
-1.451755873858928680e-02
-2.999305166304111481e-02
7.689736783504486084e-03
3.578735049813985825e-03
-1.123871654272079468e-02
-1.630423776805400848e-02
1.430583558976650238e-02
5.864822771400213242e-03
3.613685956224799156e-03
-6.349431350827217102e-03
1.496754959225654602e-02
1.366888452321290970e-02
-2.926876209676265717e-02
8.539050817489624023e-03
-9.784665890038013458e-03
-1.908544450998306274e-02
9.449208155274391174e-03
-3.083644248545169830e-02
-1.610357128083705902e-02
-8.504250086843967438e-03
-1.955186761915683746e-02
5.300500430166721344e-03
1.132824644446372986e-02
1.352579612284898758e-02
-5.661369301378726959e-03
-1.415640581399202347e-02
-1.787310838699340820e-02
-1.101645082235336304e-02
-3.113649226725101471e-02
-1.791331917047500610e-02
-1.598084531724452972e-02
-4.943368025124073029e-03
-8.922510780394077301e-03
-1.248052809387445450e-03
-2.744551561772823334e-02
-2.524226438254117966e-03
-1.121827866882085800e-02
-5.357889458537101746e-03
-2.328947745263576508e-02
1.229162607342004776e-02
-2.820738404989242554e-02
8.698190562427043915e-03
-2.900113537907600403e-02
-1.331972423940896988e-03
-1.336733531206846237e-02
-1.845533028244972229e-02
-1.559738721698522568e-02
1.098233740776777267e-02
-4.202516749501228333e-03
1.253161486238241196e-02
-4.869276657700538635e-03
-1.141996309161186218e-02
5.760723724961280823e-04
-4.249001853168010712e-03
-1.651198975741863251e-02
-1.265746261924505234e-02
7.022960111498832703e-03
-4.261136986315250397e-03
-2.338325977325439453e-02
-2.362819388508796692e-02
-4.711121320724487305e-03
2.434163913130760193e-02
-1.123993843793869019e-02
-1.937650516629219055e-02
-5.372713319957256317e-03
1.435016375035047531e-02
1.717696897685527802e-02
-3.081701509654521942e-02
-1.408809516578912735e-02
1.496886019594967365e-03
-5.713250022381544113e-03
-2.227419801056385040e-02
-2.973913587629795074e-02
-5.881977267563343048e-03
1.117548439651727676e-02
1.609837450087070465e-02
1.099811401218175888e-02
-1.719104684889316559e-02
5.769057665020227432e-03
-2.795823290944099426e-02
-1.736546680331230164e-02
-9.199582040309906006e-03
1.130908448249101639e-02
1.123052369803190231e-02
4.755591042339801788e-03
-6.956562865525484085e-03
-5.126036703586578369e-03
-2.290153410285711288e-03
-1.218804623931646347e-02
1.365275215357542038e-02
-2.745894156396389008e-02
-1.788913831114768982e-02
-2.848276123404502869e-02
-1.692428370006382465e-03
5.827255081385374069e-03
5.635682493448257446e-03
-2.917117066681385040e-02
8.457181043922901154e-03
8.136184886097908020e-03
1.418795436620712280e-02
1.708004064857959747e-02
1.668368093669414520e-02
1.708149537444114685e-02
-1.541686709970235825e-02
-1.563624478876590729e-02
1.688608713448047638e-02
-2.497424930334091187e-02
-2.770955860614776611e-02
1.172720175236463547e-02
1.637766021303832531e-03
8.524870499968528748e-03
-1.666230522096157074e-02
-5.947522353380918503e-03
4.361608996987342834e-03
-2.696267701685428619e-02
1.289376895874738693e-02
-1.847202703356742859e-02
-1.952093467116355896e-02
1.227092556655406952e-02
6.650002207607030869e-03
4.599497187882661819e-03
-2.389507368206977844e-02
-2.517927438020706177e-02
-2.792150946334004402e-03
-1.254051737487316132e-02
6.486231926828622818e-03
-3.654101397842168808e-03
6.166585255414247513e-03
1.648129709064960480e-02
2.333902521058917046e-03
1.193626970052719116e-02
-2.825920004397630692e-03
-2.073360234498977661e-02
7.890086621046066284e-03
-5.874374881386756897e-03
-5.969512742012739182e-03
-7.449576165527105331e-03
-2.228501625359058380e-02
1.047254819422960281e-02
-2.252156846225261688e-02
1.343627227470278740e-03
7.693014573305845261e-03
3.488505957648158073e-03
-2.078233100473880768e-02
-8.548965677618980408e-03
-1.017640251666307449e-02
-1.924781687557697296e-02
-1.625025644898414612e-03
-1.145925931632518768e-02
-1.830081106163561344e-03
1.620376855134963989e-02
-1.338734012097120285e-02
-2.446756698191165924e-02
1.905830577015876770e-02
-8.035411126911640167e-03
1.005470659583806992e-02
-3.462066175416111946e-03
-1.911946199834346771e-02
2.109474735334515572e-03
-2.395031228661537170e-02
1.295067463070154190e-02
1.253625936806201935e-02
-1.043919194489717484e-02
-2.439421974122524261e-02
4.509575664997100830e-03
-2.739582397043704987e-02
1.345752459019422531e-02
1.547040184959769249e-03
1.839998736977577209e-02
-6.142735946923494339e-03
-1.857936731539666653e-03
-3.094322606921195984e-02
-4.195056390017271042e-04
-1.462031994014978409e-02
2.052612602710723877e-03
-2.015393041074275970e-02
-1.778391562402248383e-02
-9.354522451758384705e-03
-2.387829124927520752e-02
1.261549349874258041e-02
3.189524868503212929e-03
-2.971560508012771606e-02
-1.612640544772148132e-02
1.050067506730556488e-02
-9.697074070572853088e-03
-6.265000440180301666e-03
-1.739844121038913727e-02
-2.204510942101478577e-02
-1.511455792933702469e-02
1.779280230402946472e-02
1.680698245763778687e-02
-2.239850163459777832e-02
-2.861551381647586823e-02
-1.635513850487768650e-03
1.404140796512365341e-02
-4.195071756839752197e-03
1.192933786660432816e-02
-2.556671947240829468e-02
2.146892016753554344e-03
1.234101317822933197e-02
1.248360611498355865e-02
-1.059906370937824249e-02
-6.631322205066680908e-03
-1.033629849553108215e-02
-1.664115674793720245e-02
1.286149956285953522e-02
-4.969581030309200287e-03
-2.901046071201562881e-03
-1.439718902111053467e-02
-6.781362928450107574e-03
-1.233013346791267395e-02
-1.533257681876420975e-02
1.536141429096460342e-02
-1.444062869995832443e-02
-3.821468679234385490e-03
-2.954892814159393311e-02
2.694902941584587097e-03
-6.018320098519325256e-03
1.896914839744567871e-02
2.437191782519221306e-03
1.250390615314245224e-02
3.909181337803602219e-03
1.713185384869575500e-02
6.434465758502483368e-03
1.152840722352266312e-02
-1.473835669457912445e-02
4.172077868133783340e-03
-1.751571334898471832e-02
1.642795279622077942e-02
-6.558059249073266983e-03
9.555554017424583435e-03
2.033089753240346909e-03
-9.105911478400230408e-03
-2.225917577743530273e-02
-3.105145692825317383e-02
-1.422304078005254269e-03
1.170847471803426743e-02
7.061021402478218079e-03
-5.896313115954399109e-03
9.673769585788249969e-03
-1.266076508909463882e-02
-1.592898974195122719e-03
1.197560783475637436e-02
-7.697047200053930283e-03
1.154186017811298370e-02
-2.653149329125881195e-02
-3.110801801085472107e-03
-1.172969676554203033e-02
-4.826334770768880844e-04
8.540886454284191132e-03
-2.302507311105728149e-02
-1.403347589075565338e-02
-1.324614509940147400e-03
2.558059990406036377e-03
1.183401327580213547e-02
2.650620415806770325e-03
8.878246881067752838e-03
-5.535642616450786591e-03
-1.741287112236022949e-02
-2.978214621543884277e-02
1.569675654172897339e-02
-1.869985461235046387e-02
-9.687057696282863617e-03
-2.510754019021987915e-02
-1.804592320695519447e-03
1.702314615249633789e-02
-5.064048804342746735e-03
-2.488121856003999710e-03
1.668456383049488068e-02
-1.165690645575523376e-02
9.175495244562625885e-03
-2.203317172825336456e-02
-2.396995201706886292e-02
-2.691393904387950897e-02
3.052698448300361633e-03
-1.705939136445522308e-02
-2.871254459023475647e-02
-3.003086708486080170e-02
4.909257404506206512e-03
1.519367285072803497e-02
-6.723500788211822510e-03
2.861222252249717712e-03
-1.334376726299524307e-02
4.415655974298715591e-03
-1.598309352993965149e-02
-1.401579473167657852e-02
-1.842797035351395607e-03
-1.490593422204256058e-02
-9.320357814431190491e-03
-2.917111478745937347e-02
-1.223930716514587402e-02
-7.344800396822392941e-04
-1.037512347102165222e-02
-2.456124871969223022e-02
-1.518494449555873871e-02
1.856652274727821350e-02
-1.248464360833168030e-02
-2.361563406884670258e-02
4.162902943789958954e-03
-1.745861023664474487e-02
-2.493101917207241058e-02
-2.681952901184558868e-03
7.832460687495768070e-04
-2.392915450036525726e-02
-2.392458543181419373e-02
1.561696361750364304e-02
-2.051556296646595001e-02
-2.722080331295728683e-03
-3.007447719573974609e-02
-3.042510710656642914e-02
-3.456244478002190590e-03
3.124640323221683502e-03
-2.229642681777477264e-02
-7.603247649967670441e-03
-3.067784011363983154e-02
-3.419490763917565346e-03
1.668784394860267639e-02
-2.392167784273624420e-02
2.395924646407365799e-03
-2.602470666170120239e-02
-2.147542685270309448e-02
-9.407686069607734680e-03
-2.993912249803543091e-02
-3.533514216542243958e-03
-2.879257127642631531e-02
1.252188626676797867e-02
-2.716717682778835297e-02
-1.862336881458759308e-02
1.444011740386486053e-02
9.156411513686180115e-03
-9.269235655665397644e-03
1.777407340705394745e-02
-3.256806638091802597e-03
-2.257115580141544342e-02
2.623466076329350471e-03
-2.233561314642429352e-02
-1.329115778207778931e-02
-1.859225146472454071e-02
-2.382864477112889290e-03
8.467877632938325405e-04
-1.986292190849781036e-02
1.810407824814319611e-02
-2.331141754984855652e-02
-8.137805387377738953e-03
-1.941783726215362549e-02
1.532062306068837643e-03
6.123569793999195099e-03
7.885315426392480731e-05
3.898932598531246185e-03
6.100855302065610886e-03
-2.154362620785832405e-03
-2.416599541902542114e-03
2.035263925790786743e-03
1.028069574385881424e-02
-1.841538958251476288e-02
-8.164609782397747040e-03
-2.625280432403087616e-02
-1.854807953350245953e-03
-2.126011997461318970e-02
-2.571880817413330078e-02
-2.153789810836315155e-02
-2.267434820532798767e-02
-5.314307752996683121e-03
1.227789465337991714e-02
-1.547216251492500305e-02
-1.768166758120059967e-02
-1.633114926517009735e-02
1.096152886748313904e-02
-2.645899914205074310e-02
3.743157722055912018e-03
-3.095616586506366730e-03
-2.358427457511425018e-02
-6.191596388816833496e-03
1.743678748607635498e-02
-8.330950513482093811e-03
8.045911788940429688e-03
-3.077867068350315094e-02
3.103015478700399399e-03
-1.002405304461717606e-02
-3.058165311813354492e-02
1.163522526621818542e-02
1.074786949902772903e-02
-1.217293739318847656e-02
-1.304386276751756668e-02
-1.185646746307611465e-02
-1.537107862532138824e-02
2.854986116290092468e-03
-8.405243977904319763e-03
1.038682460784912109e-02
1.363939046859741211e-02
-8.699417114257812500e-03
5.148658528923988342e-03
1.141856983304023743e-02
-1.373937632888555527e-02
-4.430340602993965149e-03
1.625773310661315918e-02
2.296359464526176453e-02
9.949281811714172363e-04
1.865732669830322266e-02
-2.449455857276916504e-02
1.944243907928466797e-03
1.324389129877090454e-03
7.574599236249923706e-03
-7.940800860524177551e-03
4.112373106181621552e-03
1.871377602219581604e-02
5.915079265832901001e-03
1.000162586569786072e-02
-4.131060093641281128e-03
7.854577153921127319e-03
-1.766447536647319794e-02
7.706386037170886993e-03
-1.205603964626789093e-02
-1.974855922162532806e-02
-1.077627483755350113e-02
-5.707098171114921570e-03
2.182402834296226501e-02
1.021438464522361755e-02
-2.000044658780097961e-02
4.059908911585807800e-03
-1.105160824954509735e-02
2.395632863044738770e-02
1.627190038561820984e-02
-4.293942824006080627e-03
1.586148515343666077e-03
-3.923950716853141785e-03
-1.606902107596397400e-03
-1.154842600226402283e-02
6.678923964500427246e-03
-7.373310625553131104e-03
-1.479495596140623093e-02
-2.496979013085365295e-02
-1.916652172803878784e-02
8.281875401735305786e-03
-1.486087031662464142e-02
-2.721826359629631042e-02
-2.274366468191146851e-02
-1.390415988862514496e-02
-1.118801347911357880e-02
1.569082727655768394e-03
-5.527292614715406671e-06
-2.597648091614246368e-02
3.410373465158045292e-04
-2.019041031599044800e-02
1.405828073620796204e-02
-1.295399200171232224e-02
-2.538036927580833435e-02
-3.835494862869381905e-03
-2.289083972573280334e-02
-1.832159981131553650e-02
5.843911319971084595e-03
1.139164716005325317e-02
-2.302982844412326813e-02
-1.624359167180955410e-03
-2.759177237749099731e-02
-2.771535888314247131e-02
-2.563998848199844360e-02
-3.172132652252912521e-03
4.908458795398473740e-03
-8.563932031393051147e-03
-5.258353892713785172e-03
-2.985178306698799133e-02
1.199894119054079056e-02
-2.073265425860881805e-02
-1.374815963208675385e-02
5.375728476792573929e-03
3.481328894849866629e-04
-6.593788042664527893e-03
1.159868855029344559e-02
1.720921020023524761e-03
-2.733561396598815918e-02
4.025054164230823517e-03
4.380964208394289017e-03
-3.152335761114954948e-03
-9.039564058184623718e-03
-1.627725176513195038e-02
-3.501362400129437447e-03
-2.067584544420242310e-02
1.464389148168265820e-03
-4.005057737231254578e-03
1.329780556261539459e-02
1.679884083569049835e-02
-1.452094968408346176e-02
-2.368148230016231537e-02
-1.471440494060516357e-02
-2.971128560602664948e-03
5.918927025049924850e-03
-1.478778012096881866e-02
3.090033540502190590e-03
-3.863355668727308512e-04
1.374193001538515091e-02
-2.036039158701896667e-02
-3.029580973088741302e-02
-2.583207190036773682e-02
-4.627104382961988449e-03
1.253825891762971878e-02
1.163352001458406448e-02
5.502120475284755230e-04
-1.428044401109218597e-02
5.200805608183145523e-03
-1.406201347708702087e-02
-2.013351954519748688e-02
-1.119869016110897064e-02
1.608258299529552460e-02
1.792959868907928467e-02
-3.101430088281631470e-02
-2.355220913887023926e-02
-2.933787554502487183e-02
2.980179619044065475e-03
-2.556787990033626556e-02
7.053578738123178482e-03
4.041338805109262466e-03
1.407883036881685257e-02
1.515937503427267075e-03
1.021336484700441360e-02
-1.879488490521907806e-02
-2.977805584669113159e-02
-4.277268890291452408e-03
-8.898768573999404907e-03
-2.783267945051193237e-02
1.426420826464891434e-02
1.207317039370536804e-02
-3.111210279166698456e-02
-2.901377389207482338e-03
-2.886153943836688995e-02
-8.117990568280220032e-03
-2.252694964408874512e-02
1.811402291059494019e-02
-5.883757490664720535e-03
-2.520097233355045319e-02
1.790914870798587799e-02
-3.665526397526264191e-03
1.893941313028335571e-02
1.840277016162872314e-02
-3.342235460877418518e-03
7.731482386589050293e-03
-2.839373424649238586e-03
-2.210646495223045349e-02
-1.075636968016624451e-02
-1.513434946537017822e-02
-1.517572533339262009e-02
2.458031103014945984e-02
-2.121880091726779938e-02
2.837684005498886108e-04
2.130243927240371704e-03
-1.220813021063804626e-03
-2.281512506306171417e-02
3.723055124282836914e-05
-1.300660800188779831e-02
1.378508657217025757e-02
1.833385974168777466e-02
2.286298573017120361e-02
-4.105482250452041626e-03
-5.308868363499641418e-03
-1.679910346865653992e-03
-1.677883788943290710e-02
5.139321088790893555e-03
1.883909106254577637e-02
6.359074264764785767e-03
1.453592628240585327e-02
-1.182546652853488922e-02
-3.630589693784713745e-03
2.609789371490478516e-04
-1.292839646339416504e-03
1.779352314770221710e-02
3.589801490306854248e-03
2.374248951673507690e-02
2.421979606151580811e-02
6.740696728229522705e-03
1.641444861888885498e-03
5.191011354327201843e-03
1.179193705320358276e-02
-2.071340382099151611e-02
1.472313702106475830e-02
-2.794895321130752563e-03
1.149007305502891541e-02
1.298861205577850342e-02
2.422068268060684204e-02
2.138592302799224854e-02
-2.268181368708610535e-02
-6.241127848625183105e-04
-2.352723851799964905e-02
6.063417531549930573e-03
8.743409416638314724e-04
5.892246030271053314e-03
5.985421012155711651e-04
1.519388891756534576e-02
-4.205795470625162125e-03
1.048234757035970688e-03
-7.084813434630632401e-03
-2.435220405459403992e-02
-3.109330497682094574e-02
-1.220350805670022964e-02
1.308273151516914368e-02
-2.136101387441158295e-02
1.209738478064537048e-02
-1.002088561654090881e-02
-2.012362889945507050e-02
9.296563453972339630e-03
-1.458535715937614441e-02
-3.101041354238986969e-02
-2.311198413372039795e-02
7.701137568801641464e-03
-1.027506496757268906e-02
-1.078789867460727692e-02
-7.300968281924724579e-03
1.206285785883665085e-03
-1.248213183134794235e-02
6.508814985863864422e-04
-2.844142727553844452e-02
-2.173005416989326477e-02
-1.186072360724210739e-02
-1.842926070094108582e-02
-2.146523445844650269e-02
1.580637693405151367e-02
2.581204054877161980e-03
-1.268841978162527084e-02
-1.606738194823265076e-02
-1.180971693247556686e-02
1.866225153207778931e-02
-7.742641028016805649e-03
-3.102045878767967224e-02
1.568253850564360619e-03
9.761884808540344238e-03
-8.056706748902797699e-03
-3.107202425599098206e-02
-2.195857651531696320e-02
-3.847653977572917938e-03
8.357686921954154968e-03
-9.483752772212028503e-03
8.592475205659866333e-03
-1.675748080015182495e-02
-2.496791817247867584e-02
1.633468642830848694e-02
-2.318048663437366486e-02
-2.105234563350677490e-02
-2.087135054171085358e-02
-1.845245622098445892e-02
-2.327099442481994629e-02
1.547515764832496643e-02
5.751861259341239929e-03
2.081851661205291748e-02
-8.452284149825572968e-03
-2.932645007967948914e-02
5.976362153887748718e-03
-7.972819730639457703e-03
2.212269976735115051e-02
-6.163196638226509094e-03
5.264965817332267761e-03
-1.383347529917955399e-02
-1.729565486311912537e-02
1.452441699802875519e-02
-2.260868065059185028e-02
1.873781159520149231e-02
-7.845352403819561005e-03
1.879365742206573486e-02
-1.978973113000392914e-02
1.190534606575965881e-02
1.747561246156692505e-02
-8.302933536469936371e-03
-2.057170867919921875e-02
-2.466383576393127441e-02
2.488590078428387642e-03
2.111867070198059082e-04
-1.103006396442651749e-02
-1.058324240148067474e-02
-8.466998115181922913e-03
1.382981706410646439e-02
-8.455138653516769409e-03
1.650466118007898331e-03
-1.004879269748926163e-02
8.424917235970497131e-03
-1.836946047842502594e-02
1.128229871392250061e-02
-1.865787990391254425e-02
-1.622679992578923702e-03
-9.541727602481842041e-03
-1.073648314923048019e-02
2.412493107840418816e-03
1.705078035593032837e-02
-3.220845945179462433e-03
1.817797869443893433e-02
-2.422161214053630829e-02
-2.768915146589279175e-03
6.352630909532308578e-03
-1.815854804590344429e-03
-2.444748952984809875e-02
-2.477714605629444122e-02
-1.913656108081340790e-02
-5.868064705282449722e-03
-5.887786392122507095e-03
-1.392538845539093018e-02
-2.555921860039234161e-02
1.807970926165580750e-02
4.665712825953960419e-03
3.985926974564790726e-03
6.320849061012268066e-04
-2.367513021454215050e-03
-1.056142151355743408e-02
7.824841886758804321e-03
-1.107240654528141022e-02
-1.230778545141220093e-02
-2.871860051527619362e-03
1.318749040365219116e-02
-2.231436967849731445e-02
-8.091835305094718933e-03
-2.781272865831851959e-03
-2.657866850495338440e-02
8.947011665441095829e-04
1.347484160214662552e-02
-2.229219302535057068e-02
-2.564422041177749634e-02
-2.774254046380519867e-02
-2.226145565509796143e-02
-2.139919437468051910e-03
8.928633294999599457e-03
-2.135068178176879883e-02
8.887008763849735260e-03
-2.668811567127704620e-02
2.197021618485450745e-02
-1.624988205730915070e-02
6.404420826584100723e-03
4.743629600852727890e-03
-8.328761905431747437e-03
-8.168963715434074402e-03
-2.038518153131008148e-02
-6.932582240551710129e-03
-3.301812568679451942e-03
-1.159028615802526474e-02
5.675675719976425171e-02
-9.699427336454391479e-02
2.203367836773395538e-02
-1.550013422966003418e-01
-7.697360217571258545e-02
3.826688975095748901e-02
-5.258377641439437866e-02
4.423550516366958618e-02
2.086788602173328400e-02
4.490578919649124146e-02
1.187935397028923035e-01
6.010126695036888123e-02
5.441609025001525879e-02
-1.519625354558229446e-02
-4.519355669617652893e-02
-2.188218012452125549e-02
5.901708453893661499e-02
-8.027743548154830933e-02
-6.414069235324859619e-02
-6.417563650757074356e-03
1.973837055265903473e-02
7.020687218755483627e-03
-3.177370503544807434e-02
3.037925064563751221e-02
-3.816987574100494385e-02
1.688096905127167702e-03
-5.846834927797317505e-02
2.826564908027648926e-01
5.712411552667617798e-02
-3.662042692303657532e-02
1.938385423272848129e-03
5.156207457184791565e-02
1.088891923427581787e-01
3.844232112169265747e-02
1.017545536160469055e-01
5.215762555599212646e-02
5.443626549094915390e-03
-5.308441817760467529e-02
-7.209239155054092407e-02
2.649964997544884682e-03
-6.160873547196388245e-02
5.965664610266685486e-02
1.255201101303100586e-01
-3.776619210839271545e-02
2.440592972561717033e-03
9.045331738889217377e-03
-1.745949313044548035e-02
2.301938086748123169e-02
4.033696651458740234e-02
1.255484111607074738e-02
6.300642341375350952e-02
3.714233636856079102e-02
-2.239427994936704636e-04
-3.388279303908348083e-02
-2.856020070612430573e-02
-2.052057534456253052e-02
4.614227265119552612e-02
-8.498429507017135620e-02
-5.870899558067321777e-02
1.090446254238486290e-03
-5.404053721576929092e-03
3.203755244612693787e-02
3.255369141697883606e-02
-9.859522432088851929e-02
-9.997939318418502808e-02
-9.617564082145690918e-02
-4.678754135966300964e-02
-5.917281843721866608e-03
6.661575287580490112e-03
1.942818611860275269e-02
7.494062185287475586e-02
-1.160522699356079102e-01
-7.124765962362289429e-02
6.886208429932594299e-04
-1.038586348295211792e-01
-2.063950896263122559e-02
-2.646074630320072174e-02
2.540864944458007812e-01
8.257042616605758667e-02
6.904880516231060028e-03
-1.545129925943911076e-03
-4.084691032767295837e-02
-1.170485466718673706e-02
5.036205425858497620e-02
-1.450365334749221802e-01
1.431815922260284424e-01
9.733752161264419556e-02
5.623381584882736206e-03
9.549864567816257477e-03
2.562773227691650391e-02
1.002476215362548828e-01
-1.417500339448451996e-02
1.686136052012443542e-02
2.263232767581939697e-01
1.254699528217315674e-01
1.045927777886390686e-01
-9.433127939701080322e-03
7.245668023824691772e-02
-4.167643561959266663e-02
-4.061601590365171432e-03
-1.063173562288284302e-01
-1.371530741453170776e-01
-5.688928440213203430e-02
2.299392037093639374e-02
2.468457259237766266e-02
-1.631409823894500732e-01
2.962089329957962036e-02
-3.534229472279548645e-02
-4.582629725337028503e-02
2.735416591167449951e-02
7.189981173723936081e-03
5.336220934987068176e-02
8.402878046035766602e-02
4.687055945396423340e-03
1.401040982455015182e-02
-7.151415199041366577e-02
1.163981631398200989e-01
-9.042748715728521347e-04
-6.867828965187072754e-02
2.062536589801311493e-02
-2.477756440639495850e-01
-7.115641236305236816e-02
-4.976106062531471252e-02
-5.832694005221128464e-03
-2.827487699687480927e-02
-1.172898113727569580e-01
-1.403737813234329224e-01
-1.621881425380706787e-01
-1.851753890514373779e-01
-7.682055234909057617e-02
-4.743398353457450867e-02
-1.047037262469530106e-02
-4.541041329503059387e-02
-1.187653094530105591e-01
-3.556308522820472717e-02
-5.230635777115821838e-02
6.361377239227294922e-02
7.305955141782760620e-02
1.198915392160415649e-01
-4.710026085376739502e-02
2.170932665467262268e-02
-5.962678790092468262e-02
-5.670418590307235718e-02
-2.341715060174465179e-02
-2.136252261698246002e-02
4.384385421872138977e-02
-3.032275242730975151e-03
-2.801128476858139038e-02
-4.795361310243606567e-02
3.104552626609802246e-02
6.414209492504596710e-03
-6.722439080476760864e-02
6.990709342062473297e-03
-1.020788401365280151e-01
-5.442099645733833313e-02
-1.366833448410034180e-01
-8.600962907075881958e-02
2.031200565397739410e-03
2.932098694145679474e-02
-8.846117183566093445e-03
4.813814163208007812e-02
-6.796438992023468018e-02
-5.519364774227142334e-02
7.022407837212085724e-03
5.696654319763183594e-03
-4.164851270616054535e-03
-6.509228050708770752e-02
-6.826929748058319092e-02
9.768451750278472900e-02
6.820590049028396606e-02
-4.400204867124557495e-02
6.926184892654418945e-02
-6.826012581586837769e-02
-3.469674661755561829e-02
-9.844006039202213287e-03
1.634406894445419312e-01
3.480017185211181641e-01
1.701591461896896362e-01
8.242318779230117798e-02
3.413059934973716736e-02
-1.376528479158878326e-02
-3.507327754050493240e-03
1.108440235257148743e-01
1.947714239358901978e-01
1.521491855382919312e-01
-4.492904245853424072e-02
-1.024209521710872650e-02
2.755662240087985992e-02
1.362826824188232422e-01
-4.678999632596969604e-02
-3.242605179548263550e-02
-5.775943398475646973e-03
-1.981612481176853180e-02
-9.194845706224441528e-02
-4.968390613794326782e-02
-7.538986951112747192e-02
-3.494222462177276611e-02
-1.554130460135638714e-03
-1.550589352846145630e-01
-1.897562146186828613e-01
-1.394707262516021729e-01
-8.432492613792419434e-02
-9.610878676176071167e-02
3.898696228861808777e-02
-4.649180918931961060e-03
1.986675709486007690e-02
-1.948357746005058289e-02
6.705787032842636108e-02
4.055615887045860291e-02
3.635296598076820374e-03
-2.011360228061676025e-02
-3.493224829435348511e-02
3.907891362905502319e-02
3.327544778585433960e-02
-4.068399965763092041e-02
1.557556837797164917e-01
5.222831666469573975e-02
-1.474339812994003296e-01
-4.859846085309982300e-02
-5.592915788292884827e-02
-4.157477989792823792e-02
1.720864884555339813e-02
8.434206247329711914e-03
3.408119454979896545e-02
-7.892579585313796997e-02
-7.706382125616073608e-02
-6.868313997983932495e-02
4.003512859344482422e-02
-6.349992752075195312e-02
-1.622254252433776855e-01
1.806539483368396759e-02
-1.813049055635929108e-02
-1.298861354589462280e-01
-1.319446042180061340e-02
7.680329680442810059e-02
2.289101248607039452e-03
5.329784005880355835e-02
-1.551904715597629547e-02
-2.912312187254428864e-02
-1.088042855262756348e-01
8.639276027679443359e-02
1.255331188440322876e-01
1.320079267024993896e-01
8.776994794607162476e-02
5.680571869015693665e-02
4.864688217639923096e-02
-9.220855683088302612e-02
-6.749385967850685120e-03
-3.663265332579612732e-02
-3.745090914890170097e-03
4.784207046031951904e-02
5.624071881175041199e-02
7.530564814805984497e-02
-7.639148831367492676e-02
-6.147325411438941956e-02
3.143128752708435059e-02
2.993652783334255219e-02
-9.476384520530700684e-02
-2.996978349983692169e-02
-1.319073140621185303e-01
-2.179695293307304382e-02
-4.459443688392639160e-02
-1.323411613702774048e-01
-2.709298208355903625e-02
-7.916426658630371094e-02
8.839197456836700439e-02
1.165403947234153748e-01
2.773021720349788666e-02
1.480204313993453979e-01
4.910294711589813232e-02
9.373925626277923584e-02
4.336803394835442305e-04
8.408617228269577026e-02
1.246858090162277222e-01
2.710716426372528076e-02
1.015503657981753349e-03
7.111994177103042603e-02
1.212033629417419434e-02
4.945885017514228821e-02
2.513649687170982361e-02
1.029317006468772888e-01
4.990839585661888123e-02
3.900613170117139816e-03
-8.628106117248535156e-02
4.146643448621034622e-03
4.678846150636672974e-02
5.192996561527252197e-02
8.885459601879119873e-02
9.985247626900672913e-03
-4.901132546365261078e-03
2.485194709151983261e-03
3.900305554270744324e-02
3.087433986365795135e-02
1.087402924895286560e-01
-1.566150337457656860e-01
-1.273148208856582642e-01
-1.249959096312522888e-01
-4.848049581050872803e-02
-6.147347856312990189e-03
2.717826515436172485e-02
-1.289679706096649170e-01
-2.563812583684921265e-02
-7.759106159210205078e-02
-1.060778945684432983e-01
-4.769001901149749756e-02
-1.870631799101829529e-02
-6.806118786334991455e-02
-1.318027526140213013e-01
1.853161305189132690e-02
-1.162750646471977234e-01
-4.586235061287879944e-02
-7.135698944330215454e-02
-3.604923188686370850e-02
-3.535236418247222900e-02
-5.670989863574504852e-03
-6.019422411918640137e-02
4.237102344632148743e-02
1.438146382570266724e-01
1.273795664310455322e-01
3.240111097693443298e-02
1.289794743061065674e-01
1.769094765186309814e-01
3.023347631096839905e-02
7.269198447465896606e-02
2.029697448015213013e-01
7.823797315359115601e-02
-2.305805496871471405e-02
-5.341707915067672729e-02
8.526021987199783325e-02
-7.651824038475751877e-03
6.423946470022201538e-02
1.782644167542457581e-02
-1.145455241203308105e-01
-4.792632907629013062e-02
-2.788215177133679390e-03
-2.141212858259677887e-02
-3.768678009510040283e-02
-1.302859187126159668e-02
5.438587628304958344e-03
-2.105701714754104614e-02
-2.224414609372615814e-02
1.409198064357042313e-02
1.066510658711194992e-02
1.112265419214963913e-02
-3.182292729616165161e-02
-7.123401761054992676e-02
-1.163715273141860962e-01
-1.444669216871261597e-01
-3.478364087641239166e-03
-1.438263524323701859e-02
1.065894663333892822e-01
1.286735236644744873e-01
8.129703253507614136e-02
-1.126439198851585388e-01
-1.247914582490921021e-01
-5.260762572288513184e-02
-9.194612503051757812e-03
4.485515877604484558e-02
-5.314346775412559509e-02
-1.060452610254287720e-01
-1.147297695279121399e-01
-1.204874739050865173e-01
2.025214396417140961e-02
8.451729267835617065e-02
-4.704434052109718323e-02
4.248824715614318848e-02
8.245255798101425171e-02
6.673389673233032227e-02
2.092045545578002930e-01
1.865276694297790527e-01
1.846516579389572144e-01
1.264107823371887207e-01
1.297876238822937012e-01
9.877547621726989746e-02
1.371882408857345581e-01
5.714816972613334656e-02
3.098606690764427185e-02
1.799028962850570679e-01
2.256571687757968903e-02
-4.419567994773387909e-03
-2.640953660011291504e-02
-1.305518895387649536e-01
-4.505413398146629333e-02
2.191779389977455139e-02
7.142645865678787231e-02
-2.741793543100357056e-02
-4.453977942466735840e-02
2.125046961009502411e-02
6.601013708859682083e-03
1.439002342522144318e-02
1.278648078441619873e-01
1.013711318373680115e-01
2.284547872841358185e-02
-1.534672453999519348e-02
6.871093646623194218e-04
-8.615681529045104980e-02
-1.283758282661437988e-01
-1.067586243152618408e-01
1.620993949472904205e-02
5.499609932303428650e-02
1.066407784819602966e-01
2.386410385370254517e-01
9.861586615443229675e-03
-7.784368097782135010e-02
1.143774297088384628e-02
-3.161888569593429565e-02
2.941069565713405609e-02
3.274135664105415344e-02
-1.995482482016086578e-02
-1.083553805947303772e-01
-6.461285799741744995e-02
5.978585034608840942e-02
5.879060551524162292e-02
-4.829629138112068176e-02
7.675299048423767090e-02
2.734618261456489563e-02
3.074837476015090942e-02
1.376127153635025024e-01
5.815249308943748474e-02
-1.571589149534702301e-02
6.846512854099273682e-02
5.167710408568382263e-02
5.519044771790504456e-02
-1.058854814618825912e-02
-7.753896713256835938e-02
-1.178101599216461182e-01
3.596592321991920471e-02
-2.424569567665457726e-03
-1.178979501128196716e-02
1.667614467442035675e-02
5.067523941397666931e-02
2.394893020391464233e-02
5.067367572337388992e-03
3.699548169970512390e-02
-3.454281017184257507e-02
7.935540750622749329e-03
-1.771305128931999207e-02
5.660026147961616516e-02
8.286008238792419434e-02
1.078253313899040222e-01
-4.899933934211730957e-03
9.641765500418841839e-04
1.003696210682392120e-02
-7.000879198312759399e-02
-7.206258177757263184e-02
-5.455585196614265442e-02
-6.416508555412292480e-02
2.558592520654201508e-02
5.271501839160919189e-02
7.001364976167678833e-02
-1.176235079765319824e-02
3.815926238894462585e-02
1.549539417028427124e-01
6.291393190622329712e-02
-6.980592757463455200e-02
-7.110343128442764282e-02
3.611468896269798279e-02
7.206696271896362305e-02
-2.651072666049003601e-02
9.360310435295104980e-02
1.450612209737300873e-02
2.591375494375824928e-03
-7.395926117897033691e-02
-1.160607486963272095e-02
5.007429420948028564e-02
-1.513962149620056152e-01
-6.140584126114845276e-02
-5.030627921223640442e-02
-2.211145311594009399e-02
1.777939498424530029e-02
-4.680937528610229492e-02
-6.454709917306900024e-02
-2.825511805713176727e-02
1.059653889387845993e-02
-4.883723706007003784e-02
-5.569059774279594421e-02
-3.807110711932182312e-02
-3.602761402726173401e-02
-5.847062915563583374e-02
1.095855794847011566e-02
9.204775840044021606e-02
8.273079246282577515e-02
-8.273266255855560303e-02
-1.281126588582992554e-01
3.346799686551094055e-02
1.031933538615703583e-02
-6.938899308443069458e-02
5.425937101244926453e-02
2.445492893457412720e-02
3.209931775927543640e-02
-1.043625292368233204e-03
-7.231864333152770996e-02
-7.840819656848907471e-02
-1.121821701526641846e-01
2.024897001683712006e-02
-3.940497117582708597e-04
-4.574447497725486755e-02
-4.201282933354377747e-02
2.251158468425273895e-02
3.243774920701980591e-02
-2.782430872321128845e-02
-4.755604267120361328e-02
-5.186872929334640503e-02
5.811684206128120422e-02
-8.287488669157028198e-02
-6.708898395299911499e-02
-8.487656712532043457e-03
-2.802121080458164215e-02
9.134393930435180664e-02
2.372191660106182098e-02
5.105693638324737549e-02
-5.485348403453826904e-02
-1.972040385007858276e-01
-2.592615783214569092e-05
-6.229998916387557983e-02
-9.454299695789813995e-03
-6.244306638836860657e-02
-1.460468280129134655e-03
-1.025183573365211487e-01
-1.293637752532958984e-01
-8.451879024505615234e-02
-2.896841987967491150e-02
-6.733502447605133057e-02
-3.180905058979988098e-02
-3.093299828469753265e-02
-5.134860798716545105e-02
-4.838539287447929382e-02
-1.693064533174037933e-02
7.931212335824966431e-02
-3.024228150025010109e-03
8.552246540784835815e-02
-8.651637472212314606e-03
3.818835318088531494e-02
-3.725917264819145203e-02
-7.939255982637405396e-02
-4.328689537942409515e-04
-5.050121247768402100e-02
2.572913281619548798e-02
-1.503683533519506454e-02
-6.860658526420593262e-02
-3.334867581725120544e-02
-1.271722912788391113e-01
-1.480602771043777466e-01
-5.751232616603374481e-03
-5.907198786735534668e-02
-7.763161510229110718e-02
2.068630885332822800e-03
5.803981050848960876e-02
1.757351458072662354e-01
-2.624762617051601410e-02
-1.285732444375753403e-02
-3.682701662182807922e-02
-5.387799814343452454e-02
1.114619597792625427e-01
-1.019915216602385044e-03
-4.991764947772026062e-02
-2.212003618478775024e-02
8.299378305673599243e-02
1.385948993265628815e-02
5.694831907749176025e-02
-1.103197932243347168e-01
-4.849131405353546143e-02
-4.436533898115158081e-02
3.115949779748916626e-02
1.089731603860855103e-01
1.036519855260848999e-01
1.215572729706764221e-01
-8.388935774564743042e-02
8.323712646961212158e-02
1.177782639861106873e-01
3.108230605721473694e-02
-7.331543415784835815e-02
-6.143618375062942505e-02
-3.123226575553417206e-02
6.337373703718185425e-02
5.506700649857521057e-02
1.185840368270874023e-01
-4.561420995742082596e-03
-6.015174835920333862e-02
-3.957942500710487366e-02
-6.563655100762844086e-03
1.587427593767642975e-02
-5.226751789450645447e-03
3.032612800598144531e-02
2.617220021784305573e-02
1.002110447734594345e-02
5.722666159272193909e-02
6.206034123897552490e-02
1.208234131336212158e-01
1.743364892899990082e-02
-1.417664885520935059e-01
-1.825487315654754639e-01
-8.616461604833602905e-02
-4.029262810945510864e-02
-2.069359272718429565e-02
1.174637824296951294e-01
-2.278180979192256927e-02
5.542789399623870850e-02
-1.481381151825189590e-02
6.620794534683227539e-02
2.290273830294609070e-02
-4.286817833781242371e-02
1.024805605411529541e-01
9.355662763118743896e-02
1.479946523904800415e-01
-1.177663877606391907e-01
1.006925012916326523e-02
-1.345577184110879898e-03
-1.239330694079399109e-02
3.351186215877532959e-02
-6.266069412231445312e-02
-1.788625270128250122e-01
-1.804831624031066895e-01
7.774793775752186775e-04
9.218668565154075623e-03
-5.468703061342239380e-02
2.085706591606140137e-02
-1.340753734111785889e-01
-2.875434160232543945e-01
1.325280591845512390e-02
2.362678386270999908e-02
1.147152949124574661e-02
-7.668786216527223587e-03
6.043680757284164429e-02
8.954698592424392700e-02
-1.736330091953277588e-01
-2.515771053731441498e-02
-1.473940256983041763e-02
1.453092554584145546e-03
6.003210693597793579e-02
1.122105568647384644e-01
1.026158221065998077e-02
-1.019988432526588440e-01
-8.279916644096374512e-02
-7.819762825965881348e-02
-4.895351454615592957e-02
3.978088125586509705e-02
-3.266604244709014893e-02
-1.017939206212759018e-02
-3.402814269065856934e-02
-1.110979020595550537e-01
-2.348921820521354675e-02
1.716308668255805969e-02
9.814757853746414185e-02
1.692190617322921753e-01
1.979382522404193878e-02
-5.708280019462108612e-03
1.744193024933338165e-02
-4.008248075842857361e-02
2.687026746571063995e-02
6.139182671904563904e-02
6.065680831670761108e-02
-5.448689684271812439e-02
4.211797937750816345e-02
9.302848577499389648e-02
1.086112931370735168e-01
7.363586872816085815e-02
2.412257343530654907e-02
-1.247310191392898560e-01
-2.103009633719921112e-02
-5.506723001599311829e-02
4.731089994311332703e-02
-4.968022927641868591e-02
-4.453922435641288757e-02
1.386424005031585693e-01
-3.493549302220344543e-02
4.023798555135726929e-02
-5.397864058613777161e-02
-5.304720252752304077e-02
-7.012792676687240601e-02
-1.354548893868923187e-02
-7.785558234900236130e-03
6.190094351768493652e-02
-4.444984719157218933e-02
3.690253198146820068e-02
4.894922301173210144e-02
5.110208317637443542e-02
3.487357497215270996e-02
-1.648809574544429779e-02
-5.870456993579864502e-02
-4.473014548420906067e-02
-8.672190457582473755e-02
-7.640886306762695312e-02
-5.409211665391921997e-02
3.142986446619033813e-02
1.294871885329484940e-02
-2.824884280562400818e-02
-1.000464148819446564e-02
-1.925228163599967957e-02
-3.511489555239677429e-02
-3.705298155546188354e-02
-2.061923034489154816e-02
-8.980542421340942383e-02
-8.513882756233215332e-02
4.619245603680610657e-02
3.291632980108261108e-02
-6.795389205217361450e-02
-2.739059552550315857e-02
-1.521919388324022293e-02
-4.454388469457626343e-02
7.798007875680923462e-02
1.249071285128593445e-01
-1.395383197814226151e-02
-2.091457694768905640e-02
-3.600619966164231300e-03
1.033388003706932068e-01
1.611062139272689819e-01
-4.097319394350051880e-02
-6.293237954378128052e-02
-1.967576146125793457e-01
1.690770499408245087e-02
1.186262369155883789e-01
3.477850928902626038e-02
8.966297656297683716e-02
4.101648926734924316e-02
9.867765754461288452e-02
7.278992235660552979e-02
-1.799374260008335114e-02
-9.692359715700149536e-02
-9.622818231582641602e-02
3.781365975737571716e-02
6.287574768066406250e-02
1.573291723616421223e-03
1.630640029907226562e-02
6.644749641418457031e-02
4.651755839586257935e-02
2.968974970281124115e-02
7.787988334894180298e-02
6.194815039634704590e-02
-1.535915732383728027e-01
1.607861951924860477e-03
5.748104304075241089e-03
2.625309303402900696e-02
8.107163757085800171e-02
1.020513698458671570e-01
-1.107065901160240173e-01
-1.312771141529083252e-01
-7.615255564451217651e-02
-1.715601384639739990e-01
-2.028548568487167358e-01
-8.666004985570907593e-02
-9.038911759853363037e-02
-1.989785209298133850e-02
-8.243079297244548798e-03
-8.725498802959918976e-03
1.934356987476348877e-02
6.898932158946990967e-03
-4.989601671695709229e-02
-1.008117105811834335e-04
1.625499135116115212e-04
-3.606354445219039917e-02
7.059950847178697586e-03
-1.079908236861228943e-01
9.758894890546798706e-02
1.352960318326950073e-01
1.670559644699096680e-01
-1.095676645636558533e-01
-4.089748114347457886e-02
4.651415720582008362e-02
8.926922082901000977e-02
3.648382425308227539e-02
2.794676832854747772e-02
1.446873396635055542e-01
-1.026912406086921692e-02
2.779896557331085205e-02
8.748102933168411255e-02
7.552117109298706055e-02
-2.846099995076656342e-02
-1.052630990743637085e-01
-2.402806840837001801e-02
-4.296442121267318726e-02
-2.814435027539730072e-02
5.733726918697357178e-02
7.075740396976470947e-02
-1.617356017231941223e-02
-4.960457980632781982e-02
8.388748764991760254e-02
-5.968357622623443604e-02
-2.951475605368614197e-02
1.304672565311193466e-02
