# (10, 32)
-8.210606873035430908e-02
-2.938128113746643066e-01
-5.965907573699951172e-01
-5.780149996280670166e-02
-4.683949947357177734e-01
-6.869884729385375977e-01
-1.450448781251907349e-01
1.998969726264476776e-02
-4.787454307079315186e-01
-2.662296220660209656e-02
1.916218549013137817e-01
2.753633446991443634e-02
9.243982285261154175e-02
1.768544912338256836e-01
-6.110498905181884766e-01
-4.854440689086914062e-01
1.525950282812118530e-01
1.313607990741729736e-01
-7.034431099891662598e-01
-2.353565208613872528e-02
-4.390634000301361084e-01
-6.147211417555809021e-02
7.177587598562240601e-02
-1.350075006484985352e-01
9.751055389642715454e-02
2.225415110588073730e-01
-6.515348553657531738e-01
3.810881078243255615e-02
2.270554453134536743e-01
-1.274161133915185928e-02
1.985034942626953125e-01
-4.509441256523132324e-01
-1.182346716523170471e-01
-4.439860582351684570e-01
2.453507781028747559e-01
7.663811743259429932e-02
-2.109306752681732178e-01
-2.111625820398330688e-01
-8.628469705581665039e-02
-1.458420157432556152e-01
-3.569556474685668945e-01
-3.607553988695144653e-02
-3.453839123249053955e-01
4.040609300136566162e-02
-3.598178178071975708e-02
-4.365812242031097412e-01
2.336330860853195190e-01
-2.572185695171356201e-01
-6.675707548856735229e-02
-6.255566477775573730e-01
2.523426115512847900e-01
-1.060756221413612366e-01
2.098791152238845825e-01
-5.810525640845298767e-02
3.263152763247489929e-02
-1.174668967723846436e-01
1.193169504404067993e-01
2.119633704423904419e-01
-3.185842037200927734e-01
-1.291792001575231552e-02
2.085278779268264771e-01
6.623828411102294922e-02
-6.587083935737609863e-01
1.736818403005599976e-01
-3.789528086781501770e-02
-2.842538058757781982e-01
2.321761846542358398e-01
5.662368237972259521e-02
1.713695228099822998e-01
-3.562066256999969482e-01
2.682739170268177986e-03
5.975300073623657227e-02
-3.598409295082092285e-01
1.154236942529678345e-01
1.667356044054031372e-01
1.529683172702789307e-02
1.058125197887420654e-01
1.657876968383789062e-01
-2.290342748165130615e-01
2.648043036460876465e-01
3.481091931462287903e-02
-3.535553514957427979e-01
-3.576559424400329590e-01
1.500050127506256104e-01
-4.556862711906433105e-01
6.530041247606277466e-02
-1.684803217649459839e-01
4.447934776544570923e-02
1.637788563966751099e-01
-3.478850424289703369e-01
-4.145936667919158936e-01
-1.493093967437744141e-01
-4.102939665317535400e-01
1.112130284309387207e-01
-4.749498963356018066e-01
1.702542752027511597e-01
-4.461340606212615967e-02
-4.607125520706176758e-01
1.931964308023452759e-01
1.293575614690780640e-01
2.010397613048553467e-01
2.184657901525497437e-01
1.574821323156356812e-01
8.488878607749938965e-02
1.127702593803405762e-01
-2.867460437119007111e-02
1.538331210613250732e-01
1.021322831511497498e-01
-2.088101580739021301e-02
1.403268426656723022e-01
-2.892625927925109863e-01
2.256682515144348145e-01
1.103094890713691711e-01
1.154648214578628540e-01
-1.558152586221694946e-01
-1.515742987394332886e-01
1.528888344764709473e-01
1.483279466629028320e-01
-6.072777789086103439e-03
-1.779621988534927368e-01
1.672815233469009399e-01
-4.220750331878662109e-01
2.237810194492340088e-01
-1.257819533348083496e-01
-2.943443357944488525e-01
1.166732013225555420e-01
-3.713454604148864746e-01
-2.629031538963317871e-01
-1.039661839604377747e-01
2.917962670326232910e-01
-3.258968591690063477e-01
3.106246143579483032e-02
-3.822252750396728516e-01
2.384218722581863403e-01
6.046471744775772095e-02
-1.659450680017471313e-02
1.508004069328308105e-01
-7.915382832288742065e-02
-4.004229903221130371e-01
-1.103104352951049805e-01
4.144518077373504639e-02
-5.317017436027526855e-01
2.433489114046096802e-01
-4.934929907321929932e-01
-5.565984640270471573e-03
-4.264731109142303467e-01
-2.379843443632125854e-01
-7.471416145563125610e-02
1.684465706348419189e-01
-1.548358201980590820e-01
-4.678148031234741211e-02
1.481533497571945190e-01
9.580910205841064453e-02
2.328297197818756104e-01
2.409176975488662720e-01
1.057223975658416748e-01
-3.755440413951873779e-01
-6.693483144044876099e-02
5.104892887175083160e-03
-2.160066515207290649e-01
1.190395206212997437e-01
-8.379815518856048584e-02
-3.203944265842437744e-01
8.673040568828582764e-02
2.000331133604049683e-01
1.898582726716995239e-01
-1.436142325401306152e-01
1.064881831407546997e-01
-2.165319919586181641e-01
-1.443936079740524292e-01
-2.121424674987792969e-01
-2.327391132712364197e-02
9.626811742782592773e-02
1.025872752070426941e-01
-4.909549653530120850e-01
2.292580604553222656e-01
-1.182942837476730347e-01
9.280092269182205200e-02
2.115240246057510376e-01
-1.041190996766090393e-01
1.777465492486953735e-01
1.159615721553564072e-02
8.122836798429489136e-02
-1.582954525947570801e-01
-9.977148473262786865e-02
1.999519467353820801e-01
1.980682909488677979e-01
9.189335256814956665e-02
1.800528764724731445e-01
-5.938937887549400330e-02
1.830317825078964233e-01
-1.615958958864212036e-01
-6.901713460683822632e-02
2.708466053009033203e-01
-4.250280559062957764e-01
7.384581118822097778e-02
2.309207171201705933e-01
-3.254721760749816895e-01
-9.781233966350555420e-02
-1.570659428834915161e-01
-7.190334200859069824e-01
9.612161666154861450e-02
1.642446964979171753e-01
-1.478869169950485229e-01
-1.706235110759735107e-01
-2.434785813093185425e-01
-4.892365932464599609e-01
-1.577730774879455566e-01
1.170130912214517593e-03
-2.416350245475769043e-01
-3.619157671928405762e-01
-6.893358379602432251e-02
2.257506996393203735e-01
-1.226291880011558533e-01
1.040779277682304382e-01
-1.522935181856155396e-01
-4.633391648530960083e-02
2.329732477664947510e-01
-3.756381571292877197e-01
-1.958723552525043488e-02
2.264077402651309967e-02
1.434722542762756348e-01
2.130137532949447632e-01
1.765205115079879761e-01
-1.228321110829710960e-03
-5.163147449493408203e-01
-1.815928518772125244e-01
7.411129027605056763e-02
2.381526678800582886e-01
-2.707567811012268066e-01
5.512410774827003479e-02
-8.108431100845336914e-02
1.602106839418411255e-01
-3.722652047872543335e-02
1.886444389820098877e-01
1.693869233131408691e-01
9.938285499811172485e-02
-3.045829534530639648e-01
2.534617483615875244e-01
-2.046578824520111084e-01
8.385641872882843018e-02
-4.225059747695922852e-01
2.389072775840759277e-01
-8.565588295459747314e-02
-4.005698561668395996e-01
-6.412667781114578247e-02
5.948533769696950912e-03
-1.283341199159622192e-01
6.043807044625282288e-02
-3.617378473281860352e-01
-2.576171755790710449e-01
1.679083853960037231e-01
-3.843570947647094727e-01
1.064095795154571533e-01
-3.672568500041961670e-01
-3.678076267242431641e-01
-1.532272398471832275e-01
2.707499265670776367e-01
-2.540895342826843262e-01
1.140301525592803955e-01
-2.016114443540573120e-01
-2.796441018581390381e-01
1.636245101690292358e-01
8.348107337951660156e-02
1.407439410686492920e-01
-5.139043927192687988e-02
-2.507091760635375977e-01
6.390845030546188354e-02
8.183435350656509399e-02
1.556279212236404419e-01
-3.219340443611145020e-01
2.434452027082443237e-01
9.498716145753860474e-02
1.088914945721626282e-01
8.076794445514678955e-02
7.360433787107467651e-02
1.512371599674224854e-01
-7.690088450908660889e-02
-1.706763952970504761e-01
-9.093961119651794434e-02
5.783975124359130859e-02
-1.640931665897369385e-01
-1.787465214729309082e-01
9.797798097133636475e-02
2.020654082298278809e-01
1.269066929817199707e-01
-1.788380742073059082e-01
1.783173680305480957e-01
-1.101150065660476685e-01
2.207053452730178833e-01
-4.358457922935485840e-01
1.422877162694931030e-01
-2.765400409698486328e-01
-1.174232736229896545e-01
6.969523429870605469e-02
1.269707232713699341e-01
1.579499542713165283e-01
-1.060266494750976562e-01
-3.302471935749053955e-01
-4.458316043019294739e-02
1.648548245429992676e-01
-1.109547093510627747e-01
1.334085166454315186e-01
-1.535301953554153442e-01
1.353011280298233032e-01
1.199045479297637939e-01
2.261918783187866211e-01
8.462607860565185547e-02
-2.809648513793945312e-01
-1.922374218702316284e-02
1.729681789875030518e-01
-1.343355178833007812e-01
-3.018336929380893707e-02
-2.605132162570953369e-01
2.217703163623809814e-01
-1.152037978172302246e-01
-2.573685348033905029e-01
-1.445078551769256592e-01
2.293516695499420166e-01
-5.139708518981933594e-01
