# (10, 32)
1.258777827024459839e-01
-3.019125573337078094e-02
-3.242685496807098389e-01
9.935488551855087280e-02
3.907093778252601624e-02
6.643966585397720337e-02
2.050535380840301514e-01
8.088552951812744141e-02
-2.709427773952484131e-01
-4.068182408809661865e-01
-2.463233768939971924e-01
-1.268726438283920288e-01
4.351527616381645203e-02
-2.953454256057739258e-01
-2.438081502914428711e-01
9.893934428691864014e-02
-2.478070557117462158e-01
2.323791086673736572e-01
-8.595138788223266602e-02
-7.734587788581848145e-02
1.732653677463531494e-01
1.538373623043298721e-02
-3.964127898216247559e-01
-2.971922159194946289e-01
1.240070238709449768e-01
-2.331677228212356567e-01
-9.171026200056076050e-02
1.868019253015518188e-01
1.393631100654602051e-01
1.835056953132152557e-02
-2.022203654050827026e-01
-2.187238931655883789e-01
-2.691063880920410156e-01
-7.218515127897262573e-02
-1.057870984077453613e-01
-6.612788885831832886e-02
7.451862841844558716e-02
-1.488347165286540985e-02
1.637083590030670166e-01
-1.943169981241226196e-01
-2.763546407222747803e-01
2.200465090572834015e-02
1.608118414878845215e-01
-2.382289022207260132e-01
7.551301270723342896e-02
9.176443517208099365e-02
-3.283887207508087158e-01
-2.784952819347381592e-01
-1.172223538160324097e-01
-1.597992926836013794e-01
1.254514455795288086e-01
3.804045915603637695e-02
1.542501002550125122e-01
-2.879140675067901611e-01
1.500402987003326416e-01
1.876510977745056152e-01
-2.098894417285919189e-01
9.060141444206237793e-02
1.222055032849311829e-01
1.592218279838562012e-01
-1.769120991230010986e-01
-1.139784678816795349e-01
8.206652849912643433e-02
-9.720687568187713623e-02
-1.308478415012359619e-01
1.634703278541564941e-01
5.143222957849502563e-02
1.207797750830650330e-01
1.164499521255493164e-01
1.074988991022109985e-01
-4.890975356101989746e-02
-2.202140837907791138e-01
-1.855839341878890991e-01
1.144422404468059540e-02
5.135814100503921509e-02
-2.023043334484100342e-01
-3.917443379759788513e-02
-2.412589192390441895e-01
-1.750768870115280151e-01
-3.024972677230834961e-01
7.494694739580154419e-02
2.388318926095962524e-01
5.055312439799308777e-02
-8.325617760419845581e-02
1.491449326276779175e-01
-2.828865051269531250e-01
-8.603817969560623169e-02
-2.024728208780288696e-01
1.340513825416564941e-01
1.085829362273216248e-01
1.419275701045989990e-01
-2.158565223217010498e-01
9.380593150854110718e-02
-1.025654524564743042e-01
1.041968315839767456e-01
1.245471090078353882e-01
3.291809232905507088e-03
-1.769084781408309937e-01
1.509559005498886108e-01
9.790566563606262207e-02
-1.036181077361106873e-01
-7.917349785566329956e-02
1.732785999774932861e-01
-3.500976562500000000e-01
-1.689854115247726440e-01
1.359658781439065933e-02
1.785007119178771973e-01
-1.160246878862380981e-01
-1.214406266808509827e-01
9.727283567190170288e-02
1.903639137744903564e-01
-6.261695176362991333e-02
1.231185495853424072e-01
-4.874667525291442871e-02
-3.695997595787048340e-02
5.198882147669792175e-02
-2.590603530406951904e-01
-7.409002631902694702e-02
-1.894730627536773682e-01
-3.359235823154449463e-02
-3.698842972517013550e-02
-6.819868832826614380e-02
-3.587085902690887451e-01
-3.593539595603942871e-01
-1.867496967315673828e-01
-4.707786254584789276e-03
9.527273476123809814e-02
1.440037488937377930e-01
-1.958990246057510376e-01
9.576460719108581543e-02
1.475859880447387695e-01
-2.900845706462860107e-01
7.515224814414978027e-02
-8.520932495594024658e-02
-3.465563654899597168e-01
1.122880280017852783e-01
9.863498806953430176e-02
5.336568504571914673e-02
-2.277073413133621216e-01
-8.651123940944671631e-02
1.435115188360214233e-01
1.326294541358947754e-01
-4.183302819728851318e-01
-1.632134169340133667e-01
-2.915780246257781982e-01
-9.666912257671356201e-03
1.654221117496490479e-01
8.195431530475616455e-02
-2.341016661375761032e-03
-1.070715710520744324e-01
1.538079679012298584e-01
-1.667322665452957153e-01
-1.160495206713676453e-01
-1.734562218189239502e-01
1.661783158779144287e-01
-1.098568961024284363e-01
1.302032619714736938e-01
4.612460359930992126e-02
-2.467760294675827026e-01
-2.626250386238098145e-01
1.680825203657150269e-01
-1.368640214204788208e-01
1.508378535509109497e-01
-1.057621091604232788e-01
1.883116550743579865e-03
1.213441602885723114e-03
-1.362621504813432693e-02
-1.129231229424476624e-01
2.972739050164818764e-03
-2.825140058994293213e-01
-7.779689878225326538e-02
-1.884420663118362427e-01
2.087072096765041351e-02
-1.234326213598251343e-01
2.068605124950408936e-01
1.205840259790420532e-01
1.193387582898139954e-01
-1.547610610723495483e-01
4.622160643339157104e-02
3.271099552512168884e-02
-1.688389778137207031e-01
1.969600170850753784e-01
-1.660085022449493408e-01
2.136063724756240845e-01
-2.737269997596740723e-01
-2.054217159748077393e-01
-4.888821393251419067e-02
-1.876869797706604004e-02
-2.249457985162734985e-01
9.606026113033294678e-02
-1.156205609440803528e-01
-1.053937375545501709e-01
-1.670420467853546143e-01
-6.960479915142059326e-02
-1.891801804304122925e-01
-3.320426046848297119e-01
1.298046391457319260e-02
-1.213136408478021622e-02
-2.176418304443359375e-01
1.322867572307586670e-01
-3.841591477394104004e-01
-3.603546321392059326e-01
-3.636782765388488770e-01
-5.144498944282531738e-01
-7.525122910737991333e-02
-2.638052701950073242e-01
-3.969542309641838074e-02
1.328106820583343506e-01
1.077215969562530518e-01
-1.203690394759178162e-01
-7.020861655473709106e-02
-6.273175776004791260e-02
1.815456598997116089e-01
1.622179746627807617e-01
-2.048995494842529297e-01
-1.657793112099170685e-02
-2.758499383926391602e-01
-4.322478473186492920e-01
1.904285699129104614e-01
2.148472964763641357e-01
-1.615097820758819580e-01
3.223344311118125916e-02
1.069814488291740417e-01
-5.510673522949218750e-01
1.305909752845764160e-01
7.710576802492141724e-02
-1.337450444698333740e-01
9.643451124429702759e-02
1.061058230698108673e-02
-1.374034136533737183e-01
-2.513179779052734375e-01
4.079183936119079590e-02
6.405404955148696899e-02
5.116758123040199280e-02
1.551649272441864014e-01
4.023280739784240723e-02
-1.486485004425048828e-01
-1.308210343122482300e-01
-1.189359948039054871e-01
-3.121097385883331299e-01
-2.057472765445709229e-01
-9.667757898569107056e-02
-1.030914187431335449e-01
-7.638894021511077881e-02
-2.048673927783966064e-01
-2.508850693702697754e-01
1.337279528379440308e-01
-3.139006718993186951e-02
1.484956592321395874e-01
9.192165732383728027e-02
-1.298494786024093628e-01
-3.594436645507812500e-01
-2.029301673173904419e-01
-2.394236996769905090e-02
-9.821715950965881348e-02
1.332423537969589233e-01
-1.171851158142089844e-01
-1.349052339792251587e-01
1.201948672533035278e-01
9.327688068151473999e-02
1.257791221141815186e-01
-5.391846224665641785e-02
1.592397987842559814e-01
-1.732680946588516235e-01
1.079736277461051941e-01
-2.204629182815551758e-01
1.292635500431060791e-01
9.268233552575111389e-03
1.096207574009895325e-01
-1.455077081918716431e-01
1.193466112017631531e-01
1.035521477460861206e-01
-7.868682593107223511e-02
-2.255682833492755890e-02
9.341632574796676636e-02
-1.067285314202308655e-01
-8.465200662612915039e-02
1.736193746328353882e-01
-1.964234560728073120e-01
-1.191657688468694687e-02
-5.737770721316337585e-02
9.494969993829727173e-02
1.420105397701263428e-01
1.763988286256790161e-01
1.056993901729583740e-01
-1.074555963277816772e-01
7.208011299371719360e-02
-1.199024915695190430e-01
1.468503624200820923e-01
-2.640836127102375031e-02
1.229522749781608582e-01
-1.691033691167831421e-01
1.656654477119445801e-01
7.473375648260116577e-02
1.163785252720117569e-02
-2.290832996368408203e-01
1.338382959365844727e-01
1.227828674018383026e-02
-1.269007325172424316e-01
8.762006461620330811e-02
-8.356446772813796997e-02
1.106226742267608643e-01
2.786880917847156525e-02
-1.392783224582672119e-01
-1.972834318876266479e-01
2.048138063400983810e-03
-1.035279557108879089e-01
6.774907559156417847e-02
-1.230069547891616821e-01
1.733680367469787598e-01
-1.445592790842056274e-01
-1.233957707881927490e-01
1.337024569511413574e-01
-1.423011869192123413e-01
-1.282425224781036377e-01
-1.646201014518737793e-01
-5.289967358112335205e-02
-1.236762665212154388e-02
-2.967006266117095947e-01
-1.332650780677795410e-01
