# (10, 32)
-4.351423978805541992e-01
1.629785150289535522e-01
1.414809525012969971e-01
2.406217157840728760e-01
-1.312903016805648804e-01
-3.490715026855468750e-01
-9.339148551225662231e-02
-1.461132913827896118e-01
-2.998658120632171631e-01
-1.977391690015792847e-01
-2.707732915878295898e-01
1.635670363903045654e-01
2.929286360740661621e-01
8.424737304449081421e-02
-1.831605136394500732e-01
-2.954969108104705811e-01
-2.888898551464080811e-01
-6.586398929357528687e-02
-4.277076125144958496e-01
1.453172117471694946e-01
7.355347275733947754e-02
-1.680408865213394165e-01
-1.383581459522247314e-01
1.907785683870315552e-01
-2.710319459438323975e-01
-2.036721110343933105e-01
-1.433120369911193848e-01
-2.943384051322937012e-01
-1.363883316516876221e-01
-1.943354606628417969e-01
-2.794031798839569092e-01
1.100083664059638977e-01
-8.933190256357192993e-02
-3.665522038936614990e-01
-2.157716304063796997e-01
-3.307045102119445801e-01
-1.566769629716873169e-01
-2.802007794380187988e-01
-3.152417391538619995e-02
-1.352294534444808960e-01
-2.420468479394912720e-01
-2.173645645380020142e-01
1.016047671437263489e-01
-1.692027449607849121e-01
2.390874922275543213e-01
-1.124752536416053772e-01
1.422288119792938232e-01
-1.773007661104202271e-01
1.367067098617553711e-01
-1.174908354878425598e-01
5.103595554828643799e-02
-2.818009555339813232e-01
-5.025663599371910095e-02
-2.629191279411315918e-01
-5.588417872786521912e-02
-2.617611289024353027e-01
2.510963976383209229e-01
1.621205955743789673e-01
7.879959791898727417e-02
1.180350333452224731e-01
-2.484723925590515137e-02
1.978301107883453369e-01
1.577949523925781250e-01
-2.211369574069976807e-02
1.099400296807289124e-01
-1.015565544366836548e-01
-2.742129564285278320e-01
-1.978084444999694824e-01
-4.876108840107917786e-02
-1.889705061912536621e-01
-1.178188696503639221e-01
-3.881951794028282166e-02
-2.025716304779052734e-01
-3.035630881786346436e-01
-2.427750825881958008e-01
1.393191218376159668e-01
-8.075537532567977905e-02
-1.367674618959426880e-01
-1.267221719026565552e-01
-2.152287811040878296e-01
1.311966329813003540e-01
8.715315163135528564e-02
-2.639366090297698975e-01
1.018966659903526306e-01
-1.446353793144226074e-01
-2.385296970605850220e-01
1.830120980739593506e-01
1.356031000614166260e-01
6.853143218904733658e-03
-1.735549718141555786e-01
8.482151478528976440e-02
1.342748403549194336e-01
-1.941364817321300507e-02
-2.387639880180358887e-01
1.666097939014434814e-01
5.848623812198638916e-02
1.575591862201690674e-01
1.715160161256790161e-01
-1.522945761680603027e-01
-2.649396657943725586e-01
-1.221430003643035889e-01
-2.110480070114135742e-01
-1.671200841665267944e-01
1.415950208902359009e-01
1.928795874118804932e-01
-3.494783937931060791e-01
1.524254083633422852e-01
-2.152078747749328613e-01
-2.783617675304412842e-01
-1.223041564226150513e-01
-5.368959307670593262e-01
-1.548429876565933228e-01
-9.809022396802902222e-02
-2.377901598811149597e-02
-1.695658564567565918e-01
-2.704385817050933838e-01
3.155318275094032288e-02
1.495147645473480225e-01
1.957055628299713135e-01
-1.953766345977783203e-01
-1.157520413398742676e-01
-3.581234514713287354e-01
-1.339491307735443115e-01
-2.030635476112365723e-01
1.676649600267410278e-01
-1.442124545574188232e-01
1.869910210371017456e-01
-1.922656893730163574e-01
1.188700050115585327e-01
-1.252322793006896973e-01
-3.104842603206634521e-01
-1.320066303014755249e-01
-3.293817490339279175e-02
9.054796397686004639e-02
8.461093902587890625e-02
-1.217551156878471375e-01
-3.336063325405120850e-01
1.337879151105880737e-01
-3.391407430171966553e-01
1.497038006782531738e-01
-2.109967321157455444e-01
-6.099133566021919250e-02
1.549427509307861328e-01
1.422504484653472900e-01
1.257402151823043823e-01
-6.324292719364166260e-02
6.258716434240341187e-02
-1.037405431270599365e-01
8.327331393957138062e-02
-3.018712699413299561e-01
-1.930955201387405396e-01
-2.167763262987136841e-01
-7.232144474983215332e-02
2.010370045900344849e-01
-1.873767375946044922e-01
-1.623381972312927246e-01
9.976136684417724609e-02
-1.499820947647094727e-01
-2.663813829421997070e-01
-1.770055592060089111e-01
1.235693320631980896e-01
-1.033813208341598511e-01
1.412654370069503784e-01
-4.348833486437797546e-02
-9.845483303070068359e-02
-1.100617125630378723e-01
-1.077169403433799744e-01
-1.388561576604843140e-01
2.024211138486862183e-01
-1.828054338693618774e-01
1.757120639085769653e-01
-3.354603350162506104e-01
-1.350536346435546875e-01
-5.557416379451751709e-02
-5.419327691197395325e-02
1.335821598768234253e-01
-3.475499749183654785e-01
1.172551661729812622e-01
6.832963228225708008e-02
-2.593001723289489746e-01
1.087981313467025757e-01
1.724866926670074463e-01
-1.022150069475173950e-01
1.317184269428253174e-01
-1.579878926277160645e-01
-6.495246291160583496e-02
-3.907107710838317871e-01
-2.186056673526763916e-01
-6.607986986637115479e-02
2.181642353534698486e-01
-1.995299607515335083e-01
1.403941214084625244e-01
-1.928154975175857544e-01
-3.981009125709533691e-01
1.589841097593307495e-01
2.290200740098953247e-01
1.796225756406784058e-01
-2.752047479152679443e-01
-9.668432921171188354e-02
1.549806743860244751e-01
-2.411289215087890625e-01
1.405652910470962524e-01
1.286381036043167114e-01
-1.431798785924911499e-01
-6.976189464330673218e-02
-2.755082910880446434e-03
1.559647619724273682e-01
-2.272046059370040894e-01
-2.922653257846832275e-01
-4.610961303114891052e-02
4.321883246302604675e-02
1.086133196949958801e-01
1.389203816652297974e-01
1.638495773077011108e-01
-3.149817585945129395e-01
1.650113016366958618e-01
-3.742680847644805908e-01
1.804553568363189697e-01
-3.295255601406097412e-01
9.962281584739685059e-02
1.401583701372146606e-01
4.048068448901176453e-02
-3.183459341526031494e-01
-1.749946922063827515e-01
-1.352672465145587921e-03
1.339290291070938110e-01
-1.897097527980804443e-01
-2.951296865940093994e-01
-1.121056601405143738e-01
7.113713026046752930e-02
5.143273621797561646e-02
9.318178892135620117e-02
-1.657264828681945801e-01
1.176753118634223938e-01
-3.576155304908752441e-01
-1.150954961776733398e-01
2.253055125474929810e-01
-5.908560007810592651e-02
-2.851499617099761963e-01
1.445641368627548218e-01
1.342452168464660645e-01
1.330471634864807129e-01
-2.520777583122253418e-01
-2.957849204540252686e-01
-2.343296259641647339e-02
1.298443824052810669e-01
1.889505237340927124e-01
-2.070918679237365723e-01
2.788436710834503174e-01
-2.180356681346893311e-01
8.068043738603591919e-02
-1.467496603727340698e-01
-8.477157354354858398e-02
-1.483767777681350708e-01
1.511893570423126221e-01
-2.003163099288940430e-01
-2.312085181474685669e-01
-1.811735183000564575e-01
1.635157763957977295e-01
-1.149356514215469360e-01
2.009485103189945221e-02
-6.531230360269546509e-02
-7.720877230167388916e-02
1.463822573423385620e-01
-2.316005825996398926e-01
-2.063305228948593140e-01
1.099739745259284973e-01
1.622945368289947510e-01
-1.703912466764450073e-01
-1.020031943917274475e-01
-1.024208068847656250e-01
-1.358132660388946533e-01
-1.920526325702667236e-01
-4.608117416501045227e-02
-2.033042758703231812e-01
-2.015122920274734497e-01
-1.033314391970634460e-01
-2.005764245986938477e-01
2.069739401340484619e-01
8.558715879917144775e-02
-1.585041880607604980e-01
2.023915648460388184e-01
-3.009372949600219727e-01
-2.122203409671783447e-01
1.435882002115249634e-01
2.414347380399703979e-01
-9.619453549385070801e-02
-2.176156342029571533e-01
-2.233858108520507812e-01
1.643680632114410400e-01
-2.258337587118148804e-01
-1.462946832180023193e-01
-8.266764879226684570e-02
1.093960851430892944e-01
-6.457106024026870728e-02
-1.609990447759628296e-01
1.349080651998519897e-01
1.216043382883071899e-01
-1.629751771688461304e-01
-1.469075679779052734e-01
-1.466575860977172852e-01
1.280382871627807617e-01
-5.859346687793731689e-02
1.710789352655410767e-01
-2.169088870286941528e-01
-1.526643931865692139e-01
-1.875277310609817505e-01
-1.341115236282348633e-01
4.569650813937187195e-02
-2.117296457290649414e-01
-2.308866828680038452e-01
-1.874219477176666260e-01
-7.634720206260681152e-02
-8.316934853792190552e-02
-2.136783599853515625e-01
-3.969354629516601562e-01
1.149585917592048645e-01
2.052541226148605347e-01
-3.525938093662261963e-01
3.040886658709496260e-04
