# (32, 16, 3, 3)
-3.927843272686004639e-02
-2.614535950124263763e-02
-1.163050457835197449e-01
-2.386697754263877869e-02
-1.254581660032272339e-02
-3.104584477841854095e-02
-6.519211083650588989e-02
-4.109209030866622925e-02
-3.789217770099639893e-02
-1.857438124716281891e-02
-2.659199759364128113e-02
-7.531292736530303955e-02
2.838993631303310394e-02
-3.934198524802923203e-03
-6.923019886016845703e-02
-1.504287240095436573e-03
2.414469979703426361e-02
-1.935428939759731293e-03
9.670697897672653198e-02
-8.767628110945224762e-03
-6.302642822265625000e-02
3.467458486557006836e-02
4.830623045563697815e-02
-8.824400603771209717e-02
5.240330100059509277e-02
1.864754594862461090e-02
-9.398619830608367920e-02
2.961566112935543060e-02
-6.720771640539169312e-02
6.619323045015335083e-02
6.858127564191818237e-02
-3.761446475982666016e-02
-7.053051143884658813e-03
2.983644977211952209e-02
-4.360272735357284546e-02
6.360486149787902832e-02
-7.479602098464965820e-02
-4.275583103299140930e-02
-1.518818289041519165e-01
-6.450472772121429443e-02
-7.628304511308670044e-02
-5.856887623667716980e-02
-8.514862507581710815e-02
-1.258763819932937622e-01
-1.650766097009181976e-02
1.251001507043838501e-01
-1.936269924044609070e-02
-3.613758087158203125e-02
1.369161009788513184e-01
6.525136530399322510e-03
-3.576539829373359680e-02
5.635421350598335266e-02
1.524086110293865204e-02
-4.018678516149520874e-02
-1.476989388465881348e-01
-3.225881233811378479e-02
1.271363720297813416e-02
-8.965126425027847290e-02
1.878640428185462952e-02
1.515943836420774460e-02
-2.619201503694057465e-02
-3.426662646234035492e-03
-2.566769160330295563e-02
-6.379774212837219238e-02
5.113511346280574799e-03
2.456308528780937195e-02
-8.550417423248291016e-02
3.388845175504684448e-02
-9.288210421800613403e-03
-6.711030751466751099e-02
2.392953075468540192e-02
6.671293824911117554e-02
-9.555269032716751099e-03
6.375047564506530762e-02
5.883664824068546295e-03
-1.068602874875068665e-01
3.674690844491124153e-03
-5.883162841200828552e-03
-1.023322939872741699e-01
4.602272994816303253e-03
1.015302166342735291e-01
1.629626750946044922e-02
-9.181457571685314178e-03
4.999033734202384949e-02
4.396238364279270172e-03
-1.666766125708818436e-03
1.399202346801757812e-01
-2.621621079742908478e-02
3.323010727763175964e-02
1.004472672939300537e-01
-1.364335566759109497e-01
-7.582305464893579483e-03
9.219568222761154175e-02
-1.266945898532867432e-01
-7.891269773244857788e-02
-2.883815206587314606e-02
-7.900456339120864868e-02
1.002186629921197891e-02
-6.885871756821870804e-03
-4.263436421751976013e-02
-2.547331154346466064e-02
-6.793954409658908844e-03
-2.909271232783794403e-02
-2.078473940491676331e-02
-1.098154764622449875e-02
-5.021151527762413025e-02
-3.284562006592750549e-02
-1.940795034170150757e-02
3.561509028077125549e-02
-7.994947023689746857e-03
-1.698499731719493866e-02
-4.718128964304924011e-02
-6.523202359676361084e-02
4.129486531019210815e-02
-4.645357280969619751e-02
-2.292495965957641602e-02
2.712011896073818207e-02
-1.400319486856460571e-02
2.635236829519271851e-02
1.045905426144599915e-02
-2.858848497271537781e-02
-3.059953451156616211e-02
4.136775434017181396e-02
-4.340793192386627197e-02
2.931735478341579437e-02
1.614530533552169800e-01
1.110456585884094238e-01
-5.103417113423347473e-02
-9.956067055463790894e-02
9.954573214054107666e-02
-5.342843011021614075e-02
-8.317885547876358032e-02
6.992319226264953613e-02
1.049598120152950287e-02
-2.821451611816883087e-02
-7.103457301855087280e-02
3.240982815623283386e-02
-3.308054804801940918e-02
-1.821818947792053223e-02
-1.719168736599385738e-03
-3.673169016838073730e-02
9.077229537069797516e-03
-2.076834061881527305e-04
-6.857962580397725105e-04
-3.821168211288750172e-04
-1.003838777542114258e-01
-1.746011525392532349e-01
9.879544377326965332e-02
3.962038084864616394e-02
-4.663019627332687378e-02
2.071171253919601440e-02
7.472751289606094360e-02
-1.479323767125606537e-02
-2.897005528211593628e-02
-5.063680931925773621e-02
6.594751030206680298e-02
8.593033999204635620e-02
1.909264475107192993e-01
1.822586655616760254e-01
1.198789626359939575e-01
1.648846715688705444e-01
1.125461608171463013e-01
3.735494101420044899e-04
6.352182943373918533e-03
3.759433329105377197e-02
6.390379369258880615e-02
9.465641342103481293e-03
-1.545826047658920288e-01
-4.624564573168754578e-02
-1.206376925110816956e-01
-1.287179589271545410e-01
-7.094827294349670410e-02
4.892877116799354553e-02
5.715343728661537170e-02
-5.424060858786106110e-03
1.244305744767189026e-01
1.059794127941131592e-01
1.581629514694213867e-01
2.312707304954528809e-01
1.183500736951828003e-01
-8.678872138261795044e-02
-6.281330436468124390e-02
3.450224176049232483e-02
1.097960025072097778e-01
1.088953167200088501e-01
9.665936231613159180e-02
-7.278200984001159668e-02
2.465073019266128540e-02
-2.430398203432559967e-02
7.925993204116821289e-02
5.083266273140907288e-02
1.225222349166870117e-01
-4.642404988408088684e-02
6.740620732307434082e-02
4.969425126910209656e-02
-1.167464777827262878e-01
-1.446169912815093994e-01
-3.548695892095565796e-02
9.188725799322128296e-02
4.887067154049873352e-02
-2.238580733537673950e-01
1.930099874734878540e-01
-1.869066804647445679e-02
-9.281857311725616455e-02
1.002621725201606750e-01
-2.019273675978183746e-02
3.759153559803962708e-02
-8.436709642410278320e-02
-3.123652748763561249e-02
-9.626484476029872894e-03
3.818677039816975594e-03
5.978915840387344360e-02
-8.015988022089004517e-02
-1.374980062246322632e-01
-6.699904799461364746e-02
-1.409413516521453857e-01
-3.632474318146705627e-02
6.332899630069732666e-02
1.130608767271041870e-01
1.150906980037689209e-01
1.948873847723007202e-01
7.009144127368927002e-02
1.057679504156112671e-01
1.474184244871139526e-01
3.166263177990913391e-02
6.348239257931709290e-04
1.895924210548400879e-01
9.229238331317901611e-02
-2.665429748594760895e-02
1.127881258726119995e-01
2.488387562334537506e-02
-1.450481861829757690e-01
-8.265855163335800171e-02
-4.422459006309509277e-02
-5.713971704244613647e-02
1.532205380499362946e-02
4.142071306705474854e-02
4.233065620064735413e-02
-4.264494031667709351e-02
-1.350440084934234619e-01
6.962422281503677368e-02
-2.723879180848598480e-02
-9.656185656785964966e-02
3.927045688033103943e-02
-3.268202021718025208e-02
-1.305129826068878174e-01
1.866326928138732910e-01
1.174709796905517578e-01
-1.498339921236038208e-01
2.105584889650344849e-01
-9.324537217617034912e-02
-1.254396587610244751e-01
1.757079958915710449e-01
9.254539757966995239e-02
5.696881562471389771e-02
3.233823552727699280e-02
-5.392897874116897583e-02
-1.085883602499961853e-01
-2.290831208229064941e-01
-1.845174580812454224e-01
7.963701151311397552e-03
-1.218215972185134888e-01
9.580898284912109375e-02
1.594074070453643799e-01
-2.661695331335067749e-02
5.596325919032096863e-02
8.275800943374633789e-02
-1.970373541116714478e-01
-1.689724624156951904e-02
5.396400392055511475e-02
-2.007765136659145355e-02
1.172080636024475098e-01
2.188265621662139893e-01
-1.471145153045654297e-01
-5.349317193031311035e-02
3.188972175121307373e-02
-7.620019465684890747e-02
5.523030459880828857e-02
7.576943188905715942e-02
-1.189383491873741150e-01
-1.219724640250205994e-01
-1.990179717540740967e-01
7.415162026882171631e-02
-5.215841229073703289e-04
-1.829969733953475952e-01
1.072271913290023804e-01
-4.095958173274993896e-02
-4.220387339591979980e-02
2.411285042762756348e-02
1.773947477340698242e-02
3.894425928592681885e-02
9.259558469057083130e-02
1.717392802238464355e-01
6.653137505054473877e-02
-6.294924020767211914e-02
1.347298081964254379e-02
3.932995721697807312e-02
9.111668914556503296e-02
1.143440827727317810e-01
3.099920786917209625e-02
-7.636383175849914551e-02
5.518070980906486511e-02
1.522059738636016846e-02
-4.578614234924316406e-02
-2.279920876026153564e-02
1.781822927296161652e-02
-2.806586213409900665e-02
-6.208024546504020691e-02
-1.155856251716613770e-01
1.241110847331583500e-03
9.608643501996994019e-02
8.706782758235931396e-02
3.859234601259231567e-02
6.786280125379562378e-02
6.430879980325698853e-02
-4.173086956143379211e-02
1.786930486559867859e-02
-1.100514270365238190e-02
-5.877208430320024490e-03
-2.110348455607891083e-02
-8.282219618558883667e-02
3.335998160764575005e-03
-7.154838740825653076e-02
-3.210844099521636963e-02
5.194790288805961609e-02
8.005443960428237915e-02
1.560887880623340607e-02
2.389025315642356873e-02
-6.588307674974203110e-03
-7.101554423570632935e-02
1.186059042811393738e-02
-1.227051671594381332e-02
-5.636183544993400574e-02
-2.960252389311790466e-02
1.611573062837123871e-02
-4.256923869252204895e-02
-5.094082280993461609e-02
-3.877320885658264160e-02
5.067222286015748978e-03
-3.331368416547775269e-02
-8.716978877782821655e-02
7.789489347487688065e-03
2.434062212705612183e-02
1.070149764418601990e-01
1.405416578054428101e-01
-3.623588755726814270e-02
1.184584274888038635e-01
8.861936628818511963e-02
-1.599028124473989010e-03
4.144724830985069275e-02
4.884278029203414917e-02
7.533068209886550903e-02
-3.612403199076652527e-02
-4.896150529384613037e-02
1.003666520118713379e-01
6.173282116651535034e-02
1.375099830329418182e-02
4.184586554765701294e-02
3.801088035106658936e-02
-2.732485067099332809e-03
7.037052512168884277e-02
5.283690616488456726e-02
4.119205696042627096e-04
-7.123338431119918823e-02
-6.680924445390701294e-02
-8.584041893482208252e-02
1.305639296770095825e-01
2.793273143470287323e-02
-7.407383620738983154e-02
-1.826818659901618958e-02
1.009049043059349060e-01
4.391491785645484924e-02
-1.380290091037750244e-01
-1.106538921594619751e-01
-7.829670608043670654e-02
-5.373016744852066040e-02
-1.111504733562469482e-01
-5.839874222874641418e-02
-1.250225026160478592e-02
-9.837695397436618805e-03
-7.414494454860687256e-02
-9.047141671180725098e-02
-5.803105235099792480e-02
2.293598093092441559e-02
8.096718043088912964e-02
9.549847990274429321e-02
-2.929447963833808899e-02
-1.826427876949310303e-02
-3.595119342207908630e-02
2.352381125092506409e-02
-9.700101613998413086e-02
-2.093557640910148621e-02
1.237119920551776886e-02
5.573223531246185303e-02
1.202981919050216675e-01
3.714614361524581909e-02
-7.252211868762969971e-02
-1.087390258908271790e-01
8.947905153036117554e-03
-5.882462486624717712e-02
-5.800628289580345154e-02
2.343881502747535706e-02
-8.026704192161560059e-02
2.324814163148403168e-02
1.668115891516208649e-02
6.053461879491806030e-02
4.275446012616157532e-02
-1.914533600211143494e-02
-6.507849693298339844e-02
-1.064338311553001404e-01
-4.021809622645378113e-02
3.213936462998390198e-02
-7.430008798837661743e-02
-1.084384992718696594e-01
3.992291539907455444e-02
1.375243812799453735e-02
-7.516595721244812012e-02
-8.079624176025390625e-02
-2.400866150856018066e-02
-3.869086503982543945e-02
-3.433242067694664001e-02
-4.790744557976722717e-02
-1.204331740736961365e-01
-4.189989715814590454e-02
-4.665658622980117798e-02
-9.347227960824966431e-02
1.117722317576408386e-01
1.433298587799072266e-01
1.371402293443679810e-01
4.384298250079154968e-02
9.493534453213214874e-04
2.584692463278770447e-02
-9.902401827275753021e-03
2.233823062852025032e-03
-5.311206728219985962e-02
-2.683775685727596283e-02
-2.358860708773136139e-02
-1.023047138005495071e-02
6.876039318740367889e-03
2.256284281611442566e-02
-1.221711784601211548e-01
7.347141392529010773e-03
-2.574028447270393372e-03
3.866194561123847961e-02
4.006004706025123596e-02
6.782585754990577698e-03
3.175288671627640724e-03
-1.445781532675027847e-02
-1.933051971718668938e-03
-7.648388296365737915e-02
-5.539648979902267456e-02
-4.367157071828842163e-02
1.076990589499473572e-01
-4.150450229644775391e-02
6.767581403255462646e-02
1.025803759694099426e-01
4.105667769908905029e-02
4.249784350395202637e-02
3.068024851381778717e-02
4.266312718391418457e-02
-1.497529074549674988e-02
-3.199825529009103775e-03
5.235964432358741760e-02
-1.411138661205768585e-02
-2.362362481653690338e-02
4.156444221735000610e-02
5.367355421185493469e-02
-3.519346192479133606e-02
-2.290402166545391083e-02
-5.769528076052665710e-02
2.959553338587284088e-02
-6.282185018062591553e-02
-2.291834354400634766e-02
-6.259418092668056488e-03
-2.181373909115791321e-02
-6.412764638662338257e-02
-4.471785575151443481e-02
-1.138360798358917236e-01
-3.443559631705284119e-02
1.248471885919570923e-01
-6.603008508682250977e-02
3.475662320852279663e-02
1.447380334138870239e-01
1.376735512167215347e-03
8.172363787889480591e-02
1.141921803355216980e-01
5.075446143746376038e-02
-1.988278329372406006e-02
-1.065161824226379395e-01
-1.924302428960800171e-02
-2.777333371341228485e-03
-1.039150506258010864e-01
2.865752391517162323e-02
-4.926904290914535522e-02
-5.976415798068046570e-02
-3.480375930666923523e-02
-6.409794092178344727e-02
4.957053810358047485e-02
-9.427887946367263794e-02
-4.044657200574874878e-02
1.722070202231407166e-02
-7.718776911497116089e-02
2.411473309621214867e-03
-2.643059194087982178e-02
-4.850137513130903244e-03
-3.015758702531456947e-03
1.033753342926502228e-02
1.693770475685596466e-02
-4.720288887619972229e-02
4.915020987391471863e-02
-7.340972125530242920e-02
-3.196037188172340393e-02
-2.019745856523513794e-02
5.212092772126197815e-02
-8.905523270368576050e-02
-2.217766828835010529e-02
5.539614707231521606e-03
1.094152219593524933e-02
4.140478000044822693e-02
2.729986561462283134e-03
7.479993253946304321e-02
4.025316238403320312e-02
1.575354300439357758e-02
-5.793965607881546021e-02
-8.446224033832550049e-03
-1.286050211638212204e-02
-2.384237386286258698e-02
-3.849427402019500732e-02
2.255509793758392334e-02
-2.165468409657478333e-03
1.738091185688972473e-02
-3.881155978888273239e-03
-2.196321636438369751e-02
-1.230186410248279572e-02
-1.488512009382247925e-02
-7.608672231435775757e-02
-2.756593935191631317e-02
-3.866086900234222412e-02
-8.814874291419982910e-02
-7.629180699586868286e-02
9.377545118331909180e-02
-5.955432355403900146e-02
-8.911413699388504028e-02
3.704420104622840881e-02
6.494923960417509079e-03
-4.467542842030525208e-02
1.404079142957925797e-02
-1.624690741300582886e-02
-2.981677651405334473e-02
6.800845265388488770e-02
-5.782027170062065125e-02
-5.331535357981920242e-03
-6.518519949167966843e-03
1.289149280637502670e-03
9.093534946441650391e-02
-2.762717939913272858e-02
-1.810092478990554810e-02
3.657162934541702271e-02
-2.571145631372928619e-02
1.118514239788055420e-01
1.726115494966506958e-01
1.547452062368392944e-02
1.387245804071426392e-01
5.953891575336456299e-02
3.468806669116020203e-02
1.027377620339393616e-01
5.048072710633277893e-02
-1.611360162496566772e-02
-4.339725524187088013e-02
-3.631814569234848022e-02
-4.414770007133483887e-02
3.795889904722571373e-03
-2.719609811902046204e-02
-1.844651810824871063e-02
-1.108600664883852005e-02
1.468808297067880630e-02
-8.188790082931518555e-02
-1.005248650908470154e-01
-2.341117151081562042e-02
-7.096444070339202881e-02
2.532430738210678101e-02
-5.386449396610260010e-02
1.143492162227630615e-01
-5.966535210609436035e-02
4.993237325834343210e-06
8.228694647550582886e-02
-8.819857239723205566e-02
-8.306591212749481201e-02
-8.154747635126113892e-02
8.766218274831771851e-02
-1.279647797346115112e-01
-5.304394755512475967e-03
1.028623878955841064e-01
6.403637677431106567e-02
-5.647794529795646667e-02
-5.454690009355545044e-02
2.765007782727479935e-03
3.734428808093070984e-02
-5.694850534200668335e-02
-1.163189560174942017e-01
3.926808480173349380e-03
7.755783200263977051e-02
-4.462247341871261597e-02
-1.030245888978242874e-02
2.203333005309104919e-02
-2.161189354956150055e-02
-1.169278100132942200e-01
3.463644906878471375e-02
2.634238451719284058e-02
-1.093309670686721802e-01
3.819974884390830994e-02
-4.865332692861557007e-02
1.864377642050385475e-03
-4.767264425754547119e-02
-1.567233586683869362e-03
-6.369072943925857544e-02
4.209862649440765381e-02
-5.182266607880592346e-02
4.057144373655319214e-02
4.815639182925224304e-02
-4.906912520527839661e-02
5.111095681786537170e-02
-7.562918215990066528e-02
-7.616224698722362518e-03
-3.954449295997619629e-02
-1.892699673771858215e-02
-4.446441680192947388e-02
-3.996562585234642029e-02
7.103500515222549438e-02
2.326023951172828674e-02
-2.767123654484748840e-02
1.511929333209991455e-01
1.401867568492889404e-01
-7.909049838781356812e-02
8.289961516857147217e-02
1.213133186101913452e-01
-1.687505468726158142e-02
-1.137897595763206482e-01
2.751547470688819885e-02
-2.972949482500553131e-02
-1.840057410299777985e-02
-1.046741306781768799e-01
3.314921259880065918e-02
9.087014012038707733e-03
-4.172769933938980103e-02
6.133772805333137512e-02
8.060275763273239136e-02
-4.184927791357040405e-02
3.364510461688041687e-02
-3.821904584765434265e-02
-1.123817786574363708e-01
7.414157968014478683e-03
-1.818270236253738403e-02
-8.563116937875747681e-02
3.336394950747489929e-02
8.252789825201034546e-02
-1.237681601196527481e-02
1.401265710592269897e-01
1.981210336089134216e-02
4.189923405647277832e-02
1.604278534650802612e-01
8.262725546956062317e-03
1.118556261062622070e-01
4.942613840103149414e-02
1.884897984564304352e-02
9.875968098640441895e-02
4.089383035898208618e-02
2.840868756175041199e-02
3.733086213469505310e-02
-4.959643632173538208e-02
9.727581590414047241e-02
4.450414795428514481e-03
2.604216709733009338e-02
-3.466627001762390137e-02
-9.651903063058853149e-02
2.205153927206993103e-02
-6.374714896082878113e-03
5.835527554154396057e-02
-4.838158562779426575e-02
-3.955378010869026184e-02
9.764951467514038086e-02
4.177067056298255920e-02
1.167409308254718781e-02
-5.060995370149612427e-02
7.392767351120710373e-03
1.182426735758781433e-01
1.766769140958786011e-01
5.776531621813774109e-02
1.901309564709663391e-02
1.191399693489074707e-01
-1.185092609375715256e-02
9.609028697013854980e-02
1.522627193480730057e-03
3.127293288707733154e-02
-1.440916582942008972e-02
-1.000118926167488098e-01
1.360636651515960693e-01
1.194555591791868210e-02
6.260115653276443481e-02
-4.768332466483116150e-02
1.670878678560256958e-01
1.389124691486358643e-01
5.785372108221054077e-02
1.118389237672090530e-02
7.094492018222808838e-02
7.565437816083431244e-03
8.421292155981063843e-02
-1.067531779408454895e-01
-1.297328807413578033e-02
1.171750500798225403e-01
6.332317739725112915e-02
-1.282560452818870544e-02
-5.511078983545303345e-02
-1.245593279600143433e-02
-8.647954091429710388e-03
3.288620337843894958e-02
2.160614728927612305e-02
5.077662318944931030e-02
-5.651110410690307617e-02
4.499465227127075195e-03
7.242728769779205322e-02
4.751615226268768311e-02
-1.312232855707406998e-02
5.525036901235580444e-02
-6.411786191165447235e-03
-5.731231346726417542e-02
-7.870128750801086426e-02
-6.081183906644582748e-03
-5.134211108088493347e-02
7.592568546533584595e-02
1.600294560194015503e-02
3.331286832690238953e-02
7.132768630981445312e-03
2.704310975968837738e-02
-3.649475425481796265e-02
-3.951789066195487976e-02
3.764514625072479248e-02
1.613588444888591766e-02
7.169578020693734288e-05
2.754880301654338837e-02
4.049582034349441528e-02
1.776527762413024902e-01
8.671388775110244751e-02
5.963755026459693909e-02
2.825630642473697662e-02
4.148250445723533630e-03
-5.800854414701461792e-02
1.916476525366306305e-02
6.160638853907585144e-02
2.056221710518002510e-03
-3.027254715561866760e-02
1.836230605840682983e-02
5.841811001300811768e-02
2.398212067782878876e-02
2.417216077446937561e-02
1.460280641913414001e-02
1.603115163743495941e-02
-6.777744740247726440e-02
-6.980234384536743164e-02
1.754922419786453247e-02
8.240389078855514526e-02
-5.240030214190483093e-02
-5.475071817636489868e-02
6.707798689603805542e-02
6.605613976716995239e-02
-2.857804484665393829e-02
5.439275875687599182e-02
-2.545452117919921875e-02
-6.002204120159149170e-02
2.167092263698577881e-02
2.041465975344181061e-02
-1.464929580688476562e-01
-9.339569509029388428e-02
8.151027373969554901e-03
1.214222088456153870e-01
8.568860590457916260e-02
-3.737108409404754639e-02
4.398471489548683167e-02
2.289639599621295929e-02
-1.183637231588363647e-01
3.779504075646400452e-02
-5.189598351716995239e-02
1.478715240955352783e-02
2.417689003050327301e-02
4.273757338523864746e-03
-2.655967371538281441e-03
-2.076538838446140289e-02
9.774551726877689362e-03
5.027296394109725952e-02
-1.237102299928665161e-01
-5.731968954205513000e-02
-1.421434991061687469e-02
-4.838557913899421692e-02
-1.053348407149314880e-01
-3.972173109650611877e-02
1.053832098841667175e-01
5.531239509582519531e-02
-1.737767271697521210e-02
5.237810686230659485e-02
4.786006361246109009e-02
3.277366980910301208e-02
-3.671273123472929001e-03
-9.709284640848636627e-03
-6.598197668790817261e-02
5.431875120848417282e-03
-3.060803748667240143e-02
-3.717339783906936646e-02
-2.857180312275886536e-02
-1.153045333921909332e-02
-1.699333195574581623e-03
-3.254691883921623230e-02
-8.747622370719909668e-02
-4.867579042911529541e-02
1.152957379817962646e-01
-5.847787484526634216e-02
-4.684715345501899719e-02
1.045336052775382996e-01
6.157143041491508484e-02
6.811717525124549866e-03
-1.189938187599182129e-01
-9.829507768154144287e-02
-1.348048746585845947e-01
1.074070706963539124e-01
7.662868499755859375e-02
2.219147793948650360e-02
2.040490806102752686e-01
5.871068313717842102e-02
4.401225969195365906e-02
-7.913912646472454071e-03
-1.495116483420133591e-02
-3.415184840559959412e-02
5.071821436285972595e-02
4.907092545181512833e-03
-4.764362704008817673e-03
-1.219286117702722549e-02
-7.066335529088973999e-02
-3.288411721587181091e-02
-7.915661670267581940e-03
-4.965383186936378479e-02
-3.827497363090515137e-02
-6.142374128103256226e-03
-1.257073786109685898e-02
1.881762221455574036e-02
-5.218141898512840271e-02
-1.356003712862730026e-02
7.524660229682922363e-02
-5.072062462568283081e-02
2.190203964710235596e-02
-2.218118496239185333e-02
-9.042157977819442749e-02
-7.771739270538091660e-03
-1.108365412801504135e-02
9.403971023857593536e-03
-3.860424971207976341e-03
-4.208952654153108597e-03
6.477595120668411255e-02
8.520998805761337280e-02
2.381181530654430389e-02
1.640282012522220612e-02
2.833869121968746185e-02
-3.310246765613555908e-02
-1.274510771036148071e-01
-9.498668462038040161e-02
-5.075804144144058228e-02
-3.683546558022499084e-03
-3.807464241981506348e-02
-1.185661479830741882e-01
-1.724144816398620605e-02
-5.504204332828521729e-02
-3.566420823335647583e-02
-2.416457235813140869e-02
-2.455500885844230652e-02
-3.982493281364440918e-02
-6.081686541438102722e-02
-4.710644111037254333e-02
-9.033925831317901611e-03
1.235082894563674927e-01
-1.167557667940855026e-02
-2.830884419381618500e-02
6.064676120877265930e-02
-7.667474448680877686e-02
-7.629782706499099731e-02
-1.382626779377460480e-02
-3.404001891613006592e-02
1.328064650297164917e-01
-5.519117042422294617e-02
3.655716776847839355e-03
1.035423502326011658e-01
-9.250277280807495117e-02
7.686087489128112793e-02
1.380755156278610229e-01
-5.109589546918869019e-02
6.875447183847427368e-02
-1.825820282101631165e-02
9.782658889889717102e-03
1.038850992918014526e-01
5.033843964338302612e-02
2.257175557315349579e-02
7.702000439167022705e-02
-8.322651684284210205e-02
-1.974315568804740906e-02
-1.525465305894613266e-02
-5.681078881025314331e-02
7.381844520568847656e-02
-3.640847653150558472e-02
-1.107142120599746704e-01
-1.083131972700357437e-02
-5.718983337283134460e-02
-7.658880949020385742e-02
4.752146080136299133e-02
-1.722746528685092926e-02
1.375888437032699585e-01
3.929274901747703552e-02
-3.481416031718254089e-02
1.707232147455215454e-01
-6.187136843800544739e-02
-6.168057397007942200e-02
7.947361469268798828e-02
1.078936904668807983e-01
-3.976691141724586487e-02
-1.148710697889328003e-01
8.632613718509674072e-02
4.092885553836822510e-02
-2.220263890922069550e-02
-3.585372352972626686e-03
1.945959962904453278e-02
-3.234856203198432922e-02
-5.621519812848418951e-05
-7.289133965969085693e-02
-6.614817678928375244e-02
-1.893433975055813789e-03
-5.453607067465782166e-02
-7.463420182466506958e-02
2.246342366561293602e-03
-7.843928039073944092e-02
-8.221842348575592041e-02
2.529921196401119232e-02
-4.437711089849472046e-02
-5.912242457270622253e-02
7.283954322338104248e-02
-4.374030977487564087e-03
-1.949893869459629059e-02
1.401076018810272217e-01
5.803363397717475891e-02
-6.975223124027252197e-02
9.504757076501846313e-02
5.991113930940628052e-02
-1.458347290754318237e-01
6.751509755849838257e-02
7.935257256031036377e-02
-3.836922720074653625e-02
1.833786256611347198e-02
5.989270284771919250e-02
1.224427670240402222e-02
1.949621364474296570e-02
-8.954490721225738525e-02
-8.519668877124786377e-02
-3.873013425618410110e-03
-6.632041931152343750e-02
-7.881028950214385986e-02
-3.343831747770309448e-02
-9.166645258665084839e-02
-9.340099245309829712e-02
4.727052897214889526e-02
-7.855815440416336060e-02
-1.311844438314437866e-01
-7.374441251158714294e-03
-9.856853634119033813e-02
-6.104107573628425598e-02
-1.075156033039093018e-01
-5.265411362051963806e-02
-5.450055934488773346e-03
1.251309365034103394e-01
1.003411039710044861e-01
6.561771780252456665e-02
2.090558595955371857e-02
1.961322873830795288e-02
2.970337495207786560e-02
-4.129413980990648270e-03
8.345871465280652046e-04
6.733603030443191528e-02
1.090677604079246521e-01
-1.330874767154455185e-02
6.963970605283975601e-03
1.826829761266708374e-01
9.934670291841030121e-03
3.099582158029079437e-02
1.030530314892530441e-02
6.338597834110260010e-02
-9.347983449697494507e-02
-3.520595282316207886e-02
5.540515109896659851e-02
1.056361943483352661e-01
9.778977930545806885e-02
9.640794992446899414e-02
1.021152585744857788e-01
2.934657037258148193e-02
5.449836328625679016e-02
1.500708162784576416e-01
4.048274829983711243e-02
-6.251032650470733643e-02
-7.421328872442245483e-02
-4.982846230268478394e-02
-3.696255758404731750e-02
2.714975737035274506e-03
-9.629251807928085327e-02
-1.282903924584388733e-02
2.817281056195497513e-03
-9.313112497329711914e-02
-7.355805486440658569e-02
-1.748362928628921509e-02
1.068661883473396301e-01
1.459802221506834030e-02
-1.258898712694644928e-02
-4.844500124454498291e-02
-5.442872177809476852e-03
-1.726553961634635925e-02
8.786475285887718201e-03
-1.403477601706981659e-02
6.323555856943130493e-02
1.746338047087192535e-02
1.358065009117126465e-02
4.478151723742485046e-02
-4.090292379260063171e-02
-2.568035619333386421e-03
-3.561835968866944313e-03
7.363896351307630539e-03
5.057064816355705261e-02
1.004185453057289124e-01
-6.837908178567886353e-02
-4.677668586373329163e-02
-7.165133208036422729e-02
7.608971744775772095e-02
8.237566798925399780e-02
-2.744171395897865295e-02
-7.957671768963336945e-03
9.826307743787765503e-02
-3.445293754339218140e-02
3.113226033747196198e-02
8.030541241168975830e-02
9.321059286594390869e-02
4.793377593159675598e-02
6.080836057662963867e-02
-1.079074852168560028e-02
-5.218544602394104004e-02
7.869721390306949615e-03
1.093062236905097961e-01
-1.188583672046661377e-02
-2.518265694379806519e-02
-5.049136932939291000e-03
4.438449628651142120e-03
-8.382537215948104858e-02
-8.267931640148162842e-02
-1.090906709432601929e-01
-8.796912431716918945e-02
-1.838443055748939514e-02
2.532091224566102028e-03
-5.804212018847465515e-02
-9.174562245607376099e-02
-1.869095489382743835e-02
1.107739564031362534e-02
-4.998097941279411316e-02
1.164842620491981506e-01
1.528748720884323120e-01
-3.268043324351310730e-02
1.085629090666770935e-01
1.247744560241699219e-01
1.151224523782730103e-01
-8.595426380634307861e-02
-1.912367530167102814e-02
7.659292221069335938e-02
6.019308231770992279e-03
-1.866651698946952820e-02
3.110152855515480042e-02
5.563836917281150818e-02
-4.124750941991806030e-02
-2.497314848005771637e-02
7.321374118328094482e-02
1.406170614063739777e-02
-5.453577637672424316e-02
-1.468924246728420258e-02
5.444078147411346436e-02
1.358633190393447876e-01
-1.495365053415298462e-01
-5.383522436022758484e-02
2.780870534479618073e-02
6.257703900337219238e-02
-1.181946694850921631e-02
-4.721324145793914795e-02
-9.672984480857849121e-03
1.613686978816986084e-02
-6.666962802410125732e-02
-6.199722364544868469e-02
-1.209423094987869263e-01
-1.085259094834327698e-01
1.605978235602378845e-02
6.855854880996048450e-04
-8.647445356473326683e-04
1.471690833568572998e-01
9.161803126335144043e-02
-7.600902579724788666e-03
4.353886097669601440e-02
1.718967109918594360e-01
6.781753152608871460e-02
3.951204195618629456e-02
5.467491596937179565e-02
3.380951285362243652e-02
1.963061392307281494e-01
1.334728002548217773e-01
1.895997673273086548e-01
3.842165321111679077e-02
1.532146036624908447e-01
7.093082368373870850e-02
-6.259757280349731445e-02
-9.841945022344589233e-02
-1.338125914335250854e-01
-7.482253946363925934e-03
8.561370521783828735e-02
-1.564934477210044861e-02
1.307921204715967178e-02
-5.253810435533523560e-02
-1.128308996558189392e-01
6.696544587612152100e-02
4.647028818726539612e-02
4.847516119480133057e-02
-4.633857309818267822e-02
-4.681373015046119690e-02
1.623172080144286156e-03
-9.303630143404006958e-02
-1.066271364688873291e-01
1.043979777023196220e-03
1.328558027744293213e-01
5.510300863534212112e-03
1.405586767941713333e-02
-8.209495991468429565e-02
-6.474599242210388184e-02
1.066222414374351501e-02
-7.124280184507369995e-02
-7.608580589294433594e-02
-9.249072521924972534e-02
7.952652871608734131e-02
8.626845479011535645e-02
2.568123675882816315e-02
-1.986421085894107819e-02
1.988758705556392670e-02
-9.375425986945629120e-03
4.675379395484924316e-02
3.620069473981857300e-02
-3.107256442308425903e-02
-1.694030500948429108e-02
9.741474688053131104e-02
3.822508454322814941e-02
5.798738566227257252e-04
-8.939266204833984375e-03
2.042629057541489601e-03
4.118443280458450317e-02
-6.496818363666534424e-02
-3.499975660815834999e-03
6.196064129471778870e-02
7.478458434343338013e-02
5.845897248946130276e-04
-8.917496353387832642e-02
4.787948448210954666e-03
6.300599128007888794e-02
-5.778761580586433411e-02
1.525209546089172363e-01
4.420013725757598877e-02
4.833358898758888245e-02
1.045600995421409607e-01
1.434218604117631912e-02
8.464366942644119263e-02
-5.416278727352619171e-03
8.487085253000259399e-02
3.739990293979644775e-02
-2.914455160498619080e-02
-6.730584800243377686e-02
-1.128489896655082703e-02
-3.205240890383720398e-02
-1.848405040800571442e-02
-4.067681729793548584e-02
-2.448802068829536438e-02
-6.776017136871814728e-03
6.340167671442031860e-02
1.133261546492576599e-01
1.437078695744276047e-02
6.198335811495780945e-02
1.528156548738479614e-01
3.687280416488647461e-02
2.596356160938739777e-02
3.839245811104774475e-02
5.297308042645454407e-02
-2.363450266420841217e-02
1.544334143400192261e-01
1.201315075159072876e-01
1.192911155521869659e-02
-2.456705085933208466e-02
-9.214207530021667480e-02
-9.623751044273376465e-02
7.573451846837997437e-02
3.490556031465530396e-02
-4.583568125963211060e-02
-1.635481789708137512e-02
-6.383296102285385132e-02
-1.353093143552541733e-02
-1.134797278791666031e-02
-1.885796152055263519e-02
1.765731126070022583e-01
6.087744235992431641e-02
-9.587970376014709473e-02
2.361561208963394165e-01
9.334226697683334351e-02
-2.286376431584358215e-02
1.635672524571418762e-02
1.108904462307691574e-02
-1.695425435900688171e-02
3.573653846979141235e-02
4.893654584884643555e-02
8.621219545602798462e-02
-8.141651004552841187e-02
4.495664313435554504e-02
2.496580779552459717e-02
-4.556919634342193604e-02
-2.770858816802501678e-02
-6.876237690448760986e-02
5.164705961942672729e-02
1.318956166505813599e-02
1.008362136781215668e-02
-1.773612387478351593e-02
6.208132207393646240e-02
1.327318698167800903e-01
1.964629814028739929e-02
6.336698681116104126e-02
3.401460126042366028e-02
9.438867866992950439e-02
6.622213125228881836e-02
-7.910251617431640625e-02
-1.923910342156887054e-02
-3.591291606426239014e-02
-9.821282327175140381e-02
-1.588667929172515869e-01
-1.340151876211166382e-01
-6.489183753728866577e-02
8.719514124095439911e-03
-9.204905480146408081e-03
3.934003040194511414e-02
1.145620122551918030e-01
4.768601432442665100e-02
-3.996847942471504211e-02
7.497737556695938110e-02
-2.678384818136692047e-02
7.401620037853717804e-03
6.300450116395950317e-02
9.026096761226654053e-02
7.287468761205673218e-02
2.487548142671585083e-01
1.876919865608215332e-01
1.013212054967880249e-01
7.318901270627975464e-02
2.762004965916275978e-03
-7.720264047384262085e-02
4.733187332749366760e-02
5.476112663745880127e-02
-2.046756271738559008e-04
-6.858386099338531494e-02
-6.943162530660629272e-02
-1.182347759604454041e-01
-1.749480888247489929e-02
-7.428457587957382202e-02
-5.965230613946914673e-02
-6.727411597967147827e-02
-7.547234743833541870e-02
-4.687313362956047058e-02
-9.480307251214981079e-02
-3.546508029103279114e-02
-1.765804179012775421e-02
-7.823974639177322388e-02
-4.299058113247156143e-03
-3.149131312966346741e-02
-1.500775516033172607e-01
5.421416461467742920e-02
-1.687999069690704346e-02
-1.310139596462249756e-01
-8.033212274312973022e-02
-6.457550078630447388e-02
5.969838425517082214e-02
1.500369757413864136e-01
1.840528286993503571e-02
8.161826431751251221e-02
5.396787077188491821e-02
-5.370303615927696228e-02
3.569829836487770081e-02
1.944222673773765564e-02
-2.663464844226837158e-02
2.580205444246530533e-03
4.054433852434158325e-02
-5.367128923535346985e-02
-3.711005300283432007e-02
-7.233842462301254272e-02
-6.726504117250442505e-02
-8.739640563726425171e-02
-9.872590750455856323e-02
5.603070557117462158e-02
-1.495268046855926514e-01
-7.833013683557510376e-02
3.560714051127433777e-02
-9.483389556407928467e-02
-7.513789832592010498e-02
7.857710868120193481e-02
1.382895559072494507e-01
-2.231045858934521675e-03
1.400860100984573364e-01
1.109485775232315063e-01
2.165207825601100922e-02
1.262927651405334473e-01
-1.048282161355018616e-02
-1.145788878202438354e-01
-1.759676188230514526e-01
-7.195454835891723633e-02
-4.836720228195190430e-02
6.361278146505355835e-02
-3.094129962846636772e-03
5.308565869927406311e-02
8.665350265800952911e-03
-9.301508963108062744e-02
6.666816771030426025e-02
1.123012900352478027e-01
3.325288742780685425e-02
2.859502099454402924e-02
9.596639871597290039e-02
7.229449599981307983e-02
6.033201236277818680e-03
-4.827417433261871338e-02
-7.427374273538589478e-02
-8.798433840274810791e-02
-9.313514456152915955e-03
4.733277857303619385e-02
-1.388739701360464096e-02
2.474877610802650452e-02
2.331520803272724152e-02
3.905579820275306702e-02
1.301562786102294922e-01
9.862493723630905151e-03
2.132842130959033966e-02
-7.429190725088119507e-02
6.528961658477783203e-02
1.685948343947529793e-03
-3.175964578986167908e-02
-4.954194650053977966e-02
2.864890964701771736e-03
1.313809156417846680e-01
8.259423822164535522e-02
-6.182522326707839966e-02
-6.368155032396316528e-02
-5.975190922617912292e-02
-1.233814209699630737e-01
-1.174017339944839478e-01
-9.043108671903610229e-02
-2.345499992370605469e-01
2.569898031651973724e-02
-3.746540844440460205e-02
-7.716564578004181385e-04
1.087133889086544514e-03
-2.171738306060433388e-03
-4.861730709671974182e-02
6.130820512771606445e-02
-2.170485630631446838e-02
-1.578591614961624146e-01
-1.899860333651304245e-03
-4.644484072923660278e-02
-2.012710832059383392e-02
4.464456439018249512e-02
1.177842319011688232e-01
5.829288810491561890e-02
7.155936956405639648e-02
8.895947784185409546e-02
-5.465923994779586792e-02
6.951890140771865845e-02
1.979699581861495972e-01
8.793977648019790649e-02
-6.777148693799972534e-02
1.309321075677871704e-01
5.425820872187614441e-02
-8.258818089962005615e-02
1.072758212685585022e-01
1.992645207792520523e-03
-3.612358123064041138e-02
5.290127173066139221e-02
-2.556470036506652832e-02
-5.521274358034133911e-02
2.374300919473171234e-02
-7.857350260019302368e-02
5.248725786805152893e-02
-4.020643606781959534e-02
4.173794761300086975e-02
1.887866854667663574e-01
2.916226722300052643e-02
-9.041829407215118408e-02
-6.374302506446838379e-02
-3.029428771696984768e-04
-1.101150810718536377e-01
-6.110731512308120728e-02
-9.296665340662002563e-02
-1.274218708276748657e-01
1.499763457104563713e-03
1.755047738552093506e-01
5.936652794480323792e-02
-1.276526302099227905e-01
8.368484675884246826e-02
-1.012840270996093750e-01
-8.885081857442855835e-02
-1.514987647533416748e-01
-5.274938046932220459e-02
-3.683917457237839699e-03
6.380911171436309814e-02
6.949181854724884033e-02
-1.060925982892513275e-02
2.203095555305480957e-01
3.846318926662206650e-03
2.193768136203289032e-02
6.985497474670410156e-02
2.950981631875038147e-02
4.286797344684600830e-02
-8.278030157089233398e-02
1.095394864678382874e-01
-3.369814157485961914e-02
7.618702203035354614e-02
3.942402452230453491e-02
1.687690317630767822e-01
1.406083703041076660e-01
1.011590659618377686e-01
1.224160790443420410e-01
5.887484177947044373e-02
-5.430200695991516113e-02
-1.002319082617759705e-01
3.498649597167968750e-02
-1.058997437357902527e-01
-2.258577011525630951e-02
-1.631639301776885986e-01
-5.709218606352806091e-02
-2.839068323373794556e-02
1.544016133993864059e-02
1.744759529829025269e-01
1.061997860670089722e-01
-9.144526720046997070e-02
-4.064511507749557495e-02
-8.868741244077682495e-02
-1.576858013868331909e-02
2.632324956357479095e-02
-5.481512844562530518e-02
8.890363574028015137e-02
2.034497857093811035e-01
5.241189524531364441e-02
-7.010854780673980713e-02
7.316548377275466919e-02
2.667975984513759613e-02
-1.428157091140747070e-01
-2.486806176602840424e-02
-2.529596164822578430e-02
-1.166955977678298950e-01
-4.188038408756256104e-02
8.370731025934219360e-02
-3.111654706299304962e-02
-4.553348571062088013e-02
1.305395811796188354e-01
3.835917636752128601e-02
3.787766024470329285e-02
1.613588780164718628e-01
-2.372021041810512543e-02
-4.274064674973487854e-02
-1.245852932333946228e-01
-9.425844997167587280e-03
1.938121020793914795e-02
-7.955957204103469849e-02
4.330864176154136658e-03
-3.972081840038299561e-02
-1.030099615454673767e-01
1.453770399093627930e-01
2.045565247535705566e-01
1.233683153986930847e-01
-2.574269101023674011e-02
1.707828342914581299e-01
-1.442682929337024689e-02
-1.728477478027343750e-01
-1.094159632921218872e-01
-1.051520463079214096e-02
-2.967071719467639923e-03
-2.578848972916603088e-02
2.189214713871479034e-02
-6.130491569638252258e-02
-9.070415049791336060e-02
5.595668032765388489e-02
-4.027276486158370972e-02
-7.840425521135330200e-02
7.169728726148605347e-02
3.491388633847236633e-02
7.036612927913665771e-02
8.635448291897773743e-03
-1.116193383932113647e-01
7.923796027898788452e-02
-1.476123835891485214e-02
4.936968907713890076e-02
3.530447557568550110e-02
3.889632225036621094e-02
3.711986541748046875e-02
2.789092622697353363e-02
6.277519464492797852e-02
-4.292472451925277710e-02
5.636578798294067383e-02
-1.081319153308868408e-02
-6.929708272218704224e-02
-2.464777790009975433e-02
-8.623964153230190277e-03
1.610591635107994080e-02
8.261968195438385010e-02
1.343150250613689423e-02
1.419247826561331749e-03
1.349450349807739258e-01
-1.229863846674561501e-03
-1.420854777097702026e-01
-9.848376363515853882e-02
-1.111705303192138672e-01
4.801852256059646606e-02
-9.001903980970382690e-02
-7.524994015693664551e-02
-6.177238002419471741e-02
-7.054382562637329102e-02
-2.805211767554283142e-02
4.831238090991973877e-02
9.309506975114345551e-03
5.936031416058540344e-02
1.380075365304946899e-01
8.450687676668167114e-02
2.122153900563716888e-02
7.216584635898470879e-04
1.508186310529708862e-01
1.732838712632656097e-02
6.041203811764717102e-02
6.646232306957244873e-02
-1.827847361564636230e-01
3.565462771803140640e-03
7.801789045333862305e-02
-3.348022699356079102e-02
-8.070209063589572906e-03
3.920683264732360840e-02
-7.173426449298858643e-02
3.840070962905883789e-02
3.125981986522674561e-02
-7.977148145437240601e-02
-8.832677453756332397e-02
-7.306428253650665283e-02
4.037831723690032959e-02
2.982889488339424133e-02
8.651363663375377655e-03
1.373828053474426270e-01
2.154196053743362427e-01
1.471206694841384888e-01
1.044374182820320129e-01
3.256582655012607574e-03
1.453861407935619354e-02
-7.831665128469467163e-02
3.021291270852088928e-02
5.250363796949386597e-02
5.090610682964324951e-02
-1.222897414118051529e-02
-2.006800100207328796e-02
8.908688277006149292e-02
6.974662840366363525e-02
-3.508016467094421387e-02
-7.388549298048019409e-02
3.922070190310478210e-02
2.319645695388317108e-02
7.586067914962768555e-02
1.972781866788864136e-02
4.048569872975349426e-02
9.270075708627700806e-02
-2.016100101172924042e-02
2.671506442129611969e-02
1.673072949051856995e-02
4.751280322670936584e-02
1.337686926126480103e-02
-1.252408623695373535e-01
3.450107201933860779e-02
4.488119482994079590e-02
-2.705200202763080597e-02
-1.194951683282852173e-01
-4.588524252176284790e-02
8.055321127176284790e-02
-4.406975209712982178e-02
-1.137366611510515213e-02
5.452977865934371948e-02
-1.329615339636802673e-02
3.587247803807258606e-03
3.389669582247734070e-02
-1.004121974110603333e-01
-1.097828820347785950e-01
-4.372024908661842346e-02
-1.093535348773002625e-01
-1.044149696826934814e-01
-7.789027690887451172e-02
3.760591521859169006e-02
-1.826329529285430908e-02
3.847534954547882080e-02
1.689478009939193726e-02
8.395510166883468628e-02
3.729913756251335144e-02
-4.379757493734359741e-02
7.404848188161849976e-02
1.044561788439750671e-01
-5.158819630742073059e-02
-1.118545699864625931e-02
-6.656317412853240967e-02
2.533575333654880524e-02
-1.803661137819290161e-02
-2.728754095733165741e-02
6.870934367179870605e-02
7.226942479610443115e-02
-6.739213317632675171e-02
1.067170053720474243e-01
8.835683017969131470e-02
4.761083796620368958e-02
5.151944234967231750e-02
-2.804955840110778809e-02
-9.899064153432846069e-02
-5.770945921540260315e-02
1.227987650781869888e-02
-7.724156975746154785e-02
-1.122056692838668823e-01
-6.309300661087036133e-02
-4.002095200121402740e-03
2.584336558356881142e-03
5.846594274044036865e-02
-4.630021378397941589e-02
-1.144142728298902512e-02
4.925598949193954468e-02
-3.686123713850975037e-02
-6.021945178508758545e-02
3.220831230282783508e-02
1.013534842059016228e-03
8.113949000835418701e-02
-2.878232672810554504e-02
9.977674484252929688e-02
6.439375877380371094e-02
4.559163749217987061e-02
1.818674951791763306e-01
1.172080412507057190e-01
6.442963331937789917e-02
4.312591254711151123e-02
-9.519820660352706909e-02
-3.448784723877906799e-02
4.022719711065292358e-02
-1.685843914747238159e-01
-2.334229275584220886e-02
2.944309078156948090e-02
1.077484153211116791e-02
-6.168413534760475159e-02
5.187573283910751343e-02
-2.767130965366959572e-03
-5.242503806948661804e-02
-6.769261509180068970e-02
-1.306460201740264893e-01
-7.145412266254425049e-02
-4.508124291896820068e-02
-6.975809484720230103e-02
-8.676511049270629883e-02
-6.709227804094552994e-03
5.279910936951637268e-02
5.333642661571502686e-02
1.059349179267883301e-01
4.637083038687705994e-02
5.849304422736167908e-02
-3.807843476533889771e-02
-4.470000416040420532e-02
-7.785327732563018799e-02
-1.470928918570280075e-02
8.985003829002380371e-02
9.348343126475811005e-03
-1.159933581948280334e-02
2.720274776220321655e-02
1.013095900416374207e-01
1.471356004476547241e-01
7.464046031236648560e-02
-2.357974648475646973e-02
2.419582009315490723e-02
1.035420969128608704e-01
9.035597741603851318e-02
-5.103955417871475220e-02
9.934200346469879150e-02
1.941648125648498535e-01
1.853624880313873291e-01
3.129398077726364136e-02
1.015245616436004639e-01
1.008698493242263794e-01
4.501879215240478516e-02
9.481976926326751709e-02
3.012353554368019104e-02
6.933734565973281860e-02
1.194050684571266174e-01
1.433917433023452759e-01
1.047970950603485107e-01
4.729195311665534973e-02
1.778286299668252468e-03
4.716767370700836182e-02
3.973648324608802795e-02
-5.448283627629280090e-03
-5.390705540776252747e-02
-1.197506040334701538e-01
-2.718698419630527496e-02
5.609742924571037292e-02
-1.339979120530188084e-03
4.633064568042755127e-02
-1.081786677241325378e-02
1.959446631371974945e-02
-1.358250975608825684e-01
-1.710486598312854767e-02
1.069940067827701569e-02
-1.539462357759475708e-01
-3.210422024130821228e-02
3.194976598024368286e-02
-8.144211955368518829e-03
-1.283366829156875610e-01
1.140367388725280762e-01
3.412666171789169312e-02
-1.170902326703071594e-01
-3.070109710097312927e-02
9.263455867767333984e-02
-1.300280988216400146e-01
-3.332617133855819702e-02
-4.467156156897544861e-02
1.098200492560863495e-02
5.250341817736625671e-02
-1.542359474115073681e-03
4.063931107521057129e-02
8.411301672458648682e-02
3.072212636470794678e-02
-9.430345147848129272e-02
-1.203881204128265381e-02
1.036744266748428345e-01
-5.012039467692375183e-02
1.165994405746459961e-01
-1.249236706644296646e-02
-1.798057854175567627e-01
-1.390394121408462524e-01
-1.952030509710311890e-02
-2.557876408100128174e-01
-2.060031741857528687e-01
8.481669239699840546e-03
-3.484093397855758667e-02
-3.681967034935951233e-02
-3.865650668740272522e-02
1.477530747652053833e-01
8.438980206847190857e-03
-1.123628020286560059e-01
1.338750422000885010e-01
1.088599264621734619e-01
1.114826053380966187e-01
-7.000476866960525513e-02
1.327790692448616028e-02
-5.719688162207603455e-02
-2.561281807720661163e-02
3.376801032572984695e-03
-5.698490515351295471e-02
-9.966803714632987976e-03
-7.839149236679077148e-02
-9.921999275684356689e-02
-3.816508129239082336e-02
6.260611116886138916e-02
6.497468054294586182e-02
-8.562949299812316895e-02
-7.648628950119018555e-02
4.115775972604751587e-02
-6.570575386285781860e-02
-1.039388403296470642e-01
5.691454559564590454e-02
-2.729485742747783661e-02
1.645818352699279785e-02
-1.757990755140781403e-02
-4.718759283423423767e-02
-4.600171744823455811e-02
-5.805787164717912674e-03
-7.138814777135848999e-02
-5.023581162095069885e-02
1.413046382367610931e-02
-5.695656687021255493e-02
1.971341297030448914e-02
-2.496942132711410522e-02
1.083731465041637421e-02
1.257246881723403931e-01
1.098418980836868286e-01
1.198284998536109924e-01
-2.397367730736732483e-02
8.027070760726928711e-02
4.106838256120681763e-02
7.498081773519515991e-02
-4.261748865246772766e-03
-4.174681752920150757e-02
-4.846916347742080688e-02
4.422331973910331726e-02
-1.258429139852523804e-01
-3.615254536271095276e-02
5.055617913603782654e-02
4.062018916010856628e-02
3.962232172489166260e-02
-2.896558307111263275e-02
-2.279786206781864166e-02
-9.603911638259887695e-02
-4.159265384078025818e-02
-1.984131038188934326e-01
-2.372696101665496826e-01
-1.503182500600814819e-01
5.334298685193061829e-02
-7.494712620973587036e-02
-6.148708239197731018e-02
1.179375499486923218e-01
8.116791397333145142e-02
6.918056309223175049e-02
9.802962839603424072e-02
1.530353426933288574e-01
1.258782744407653809e-01
1.315035019069910049e-02
9.258070588111877441e-02
1.392503082752227783e-02
5.222919210791587830e-02
1.129645779728889465e-01
6.631448119878768921e-02
7.022281736135482788e-02
-1.100326981395483017e-02
3.354534506797790527e-02
-1.936907172203063965e-01
-1.561897993087768555e-02
7.838421314954757690e-02
-8.499503880739212036e-02
-1.117696017026901245e-01
-3.314267471432685852e-02
1.644187718629837036e-01
6.029323115944862366e-02
-1.355640776455402374e-02
-5.772969452664256096e-04
-1.161968056112527847e-02
-7.754573598504066467e-03
8.938570320606231689e-02
1.363417655229568481e-01
1.056349053978919983e-01
1.023612320423126221e-01
1.797934174537658691e-01
-3.298660740256309509e-02
7.262040744535624981e-04
7.429735362529754639e-02
5.758961290121078491e-02
-9.253033250570297241e-02
7.570445537567138672e-02
4.115573689341545105e-02
-8.884576708078384399e-02
-1.803752332925796509e-01
-1.116211190819740295e-01
-3.139902651309967041e-02
5.111696571111679077e-02
4.904487170279026031e-03
-5.589604377746582031e-02
-2.854265458881855011e-02
-3.691079840064048767e-02
-1.484567970037460327e-01
-1.386503726243972778e-01
-1.566502302885055542e-01
6.624189764261245728e-02
2.171433903276920319e-02
-3.549154847860336304e-02
1.352778226137161255e-01
1.186385005712509155e-01
5.215306580066680908e-02
-1.136917620897293091e-03
1.114847585558891296e-01
2.117955535650253296e-01
-7.822767645120620728e-02
2.364905551075935364e-02
-8.945789304561913013e-04
-3.784502670168876648e-02
-9.894711896777153015e-03
-1.669592969119548798e-02
8.132680505514144897e-02
1.511853560805320740e-02
-3.024263121187686920e-02
-1.164150834083557129e-01
-5.256184935569763184e-02
1.537701785564422607e-01
-9.822645038366317749e-02
1.784688793122768402e-02
1.285727173089981079e-01
-2.945500612258911133e-02
-2.858273312449455261e-02
8.096416294574737549e-02
5.743184685707092285e-02
5.840872600674629211e-02
7.091881334781646729e-02
-1.097461488097906113e-02
1.272877492010593414e-02
1.662450470030307770e-02
7.951563596725463867e-02
3.873599320650100708e-02
-1.430597156286239624e-01
-2.133938111364841461e-02
4.268023185431957245e-03
-1.514225360006093979e-02
3.002890758216381073e-02
7.945903390645980835e-02
1.728710532188415527e-02
8.658464998006820679e-02
5.664976686239242554e-02
7.820798456668853760e-02
-5.057791993021965027e-02
-5.533999949693679810e-02
2.718700468540191650e-02
-3.085442259907722473e-02
-4.477932304143905640e-02
1.190706938505172729e-01
2.882404951378703117e-03
-7.933429628610610962e-02
2.544227428734302521e-02
-4.597481340169906616e-02
-7.592998445034027100e-04
1.800525374710559845e-02
-8.657277375459671021e-02
-1.138286814093589783e-01
-6.469159573316574097e-02
8.006748743355274200e-03
-8.919715136289596558e-02
-1.148780584335327148e-01
-2.020899578928947449e-02
-3.561717271804809570e-02
-1.121551543474197388e-01
1.339399367570877075e-01
1.681995838880538940e-01
-3.254871070384979248e-02
1.411450207233428955e-01
9.120468050241470337e-02
-1.086247712373733521e-02
1.820388622581958771e-02
5.593545362353324890e-02
5.824333429336547852e-02
-9.074716269969940186e-02
2.906964719295501709e-02
-6.178935058414936066e-03
-3.438933519646525383e-03
-2.480436861515045166e-02
-9.803809970617294312e-02
3.035942651331424713e-02
4.070081934332847595e-02
4.270638525485992432e-02
-2.561952918767929077e-02
9.905507415533065796e-02
1.973337978124618530e-01
9.420260175829753280e-05
-2.338902093470096588e-02
4.933845996856689453e-02
7.204043120145797729e-02
8.635812252759933472e-02
-4.063531011343002319e-02
-1.140511557459831238e-01
-3.714186325669288635e-02
-4.622966796159744263e-02
-4.442688450217247009e-02
-6.795692443847656250e-02
-9.227658808231353760e-02
-7.077691145241260529e-03
-5.102391168475151062e-02
-5.061447992920875549e-02
1.571860909461975098e-01
1.366262286901473999e-01
9.255021810531616211e-02
8.124548941850662231e-02
2.847822010517120361e-02
5.346647650003433228e-02
3.963999822735786438e-02
-4.576274007558822632e-02
-2.794113941490650177e-02
9.705517441034317017e-02
1.686882972717285156e-01
1.537748128175735474e-01
2.815182693302631378e-02
2.047015875577926636e-01
9.171302616596221924e-02
1.240114215761423111e-02
6.365755945444107056e-02
1.382584962993860245e-02
-5.538879893720149994e-03
-1.506793126463890076e-02
-6.050444394350051880e-02
2.228741161525249481e-02
3.697222471237182617e-02
-8.501360565423965454e-02
-4.859041795134544373e-02
6.798923760652542114e-02
1.567518338561058044e-02
-7.395483553409576416e-02
-3.767543286085128784e-02
3.350535035133361816e-02
-8.234529942274093628e-02
1.703078299760818481e-02
-2.105535380542278290e-02
-7.873410731554031372e-02
4.052569624036550522e-03
1.184064522385597229e-01
-8.829411119222640991e-02
-1.134551540017127991e-01
-3.322309814393520355e-03
-7.241498678922653198e-02
-5.085621029138565063e-02
4.246723838150501251e-03
5.544093996286392212e-02
4.728412255644798279e-02
6.156199797987937927e-02
-7.109939306974411011e-02
-5.032380670309066772e-02
3.792107105255126953e-02
5.109005048871040344e-02
1.959990710020065308e-02
-5.049079284071922302e-02
6.969476491212844849e-02
5.431076139211654663e-02
-1.780231855809688568e-02
-3.941136971116065979e-02
3.645388409495353699e-02
-2.604126743972301483e-02
7.065062224864959717e-02
3.714559227228164673e-02
2.934030257165431976e-03
-1.748835854232311249e-02
1.875238679349422455e-02
3.889100998640060425e-02
2.748876251280307770e-02
6.992080062627792358e-02
4.196260124444961548e-02
8.298701047897338867e-02
1.130798831582069397e-01
3.677841275930404663e-02
4.261146113276481628e-02
-7.093520369380712509e-03
2.322991937398910522e-02
1.092807203531265259e-02
4.725285689346492290e-04
-6.540351361036300659e-02
2.012313902378082275e-02
-3.914618119597434998e-02
2.543213404715061188e-02
-2.773783542215824127e-02
-5.754244327545166016e-02
1.132133323699235916e-02
-3.215046226978302002e-02
4.273802787065505981e-02
2.385561913251876831e-02
3.084762394428253174e-02
4.888598993420600891e-02
2.564814873039722443e-02
4.722486063838005066e-02
-2.004316076636314392e-02
6.709021329879760742e-02
1.786885410547256470e-02
1.236120983958244324e-01
9.354586154222488403e-02
-6.430985778570175171e-02
-8.907596766948699951e-02
-7.128445059061050415e-02
1.070144586265087128e-02
7.023464888334274292e-03
1.138431299477815628e-02
-4.121442139148712158e-02
-8.138503134250640869e-02
-2.754168026149272919e-02
-7.621455192565917969e-02
3.148246556520462036e-03
-6.127966940402984619e-02
1.838245056569576263e-02
5.057318136096000671e-02
-2.479261904954910278e-02
1.957768760621547699e-02
1.462592557072639465e-02
6.034421175718307495e-02
9.074538946151733398e-02
1.052604168653488159e-01
6.450182199478149414e-02
6.161167845129966736e-02
6.544704735279083252e-02
-8.537931367754936218e-03
-5.172713845968246460e-02
-1.359773799777030945e-03
-4.465558379888534546e-02
-2.774274908006191254e-02
-2.395125478506088257e-02
-4.074391722679138184e-02
-5.861115176230669022e-03
-5.068313702940940857e-02
5.769476294517517090e-03
9.204632043838500977e-02
1.682770103216171265e-01
1.374912261962890625e-01
-8.119679056107997894e-03
2.331257238984107971e-02
-2.196137234568595886e-02
3.584006056189537048e-02
1.127741299569606781e-02
-2.449860982596874237e-02
-3.402805328369140625e-02
-3.075114917010068893e-03
-2.672556601464748383e-02
-6.713166087865829468e-02
-6.554234027862548828e-02
-8.981202542781829834e-02
-7.862930186092853546e-03
3.481014166027307510e-03
-1.913830265402793884e-02
4.768060892820358276e-02
7.069501280784606934e-02
3.670864552259445190e-02
6.924507021903991699e-02
6.776601821184158325e-02
-1.664877682924270630e-02
6.013993639498949051e-03
-4.402476921677589417e-02
-1.172810513526201248e-02
1.481365710496902466e-01
1.368439793586730957e-01
1.036978885531425476e-01
1.349332332611083984e-01
4.642391949892044067e-02
-5.606933310627937317e-02
1.827836781740188599e-02
-1.854205131530761719e-02
-8.467527106404304504e-03
7.149443496018648148e-03
-9.515166282653808594e-02
-6.371891498565673828e-02
-1.431565731763839722e-02
1.172437425702810287e-02
2.860179729759693146e-02
-7.221765816211700439e-03
7.084620650857686996e-03
-4.153457656502723694e-02
-6.344651430845260620e-02
3.265798836946487427e-02
3.531142324209213257e-02
-1.131268888711929321e-01
-2.425418980419635773e-02
-4.083286225795745850e-02
-8.518557250499725342e-02
2.859269082546234131e-02
5.556810181587934494e-03
-9.808055311441421509e-02
-8.191680908203125000e-02
-5.838826298713684082e-02
6.147736683487892151e-02
9.815376996994018555e-02
3.979246690869331360e-02
7.765060663223266602e-02
2.313405042514204979e-03
3.592316806316375732e-02
1.706381328403949738e-02
-3.836135566234588623e-02
-5.014264956116676331e-02
4.193453583866357803e-03
6.740338634699583054e-03
1.016771793365478516e-02
2.447249740362167358e-02
7.754079252481460571e-02
3.613797947764396667e-02
2.370399236679077148e-02
2.614546567201614380e-02
2.698165923357009888e-02
8.011668920516967773e-03
8.287814259529113770e-02
3.521877899765968323e-02
5.513077974319458008e-02
4.911816492676734924e-02
-5.039430409669876099e-02
-8.329455554485321045e-02
-4.190146923065185547e-02
-1.740953698754310608e-02
-2.137041389942169189e-01
-6.102496013045310974e-02
7.315579801797866821e-02
-7.712128758430480957e-02
-1.632275059819221497e-02
6.239740177989006042e-02
2.855156734585762024e-02
-7.377521693706512451e-02
1.047931462526321411e-01
1.345588862895965576e-01
9.660828858613967896e-02
1.032171305269002914e-02
-6.900682300329208374e-02
1.540709007531404495e-02
-1.472302824258804321e-01
-1.098851412534713745e-01
-9.595088660717010498e-02
-1.166581362485885620e-01
-2.075245603919029236e-02
-7.009524106979370117e-02
-1.108463332056999207e-01
7.071650773286819458e-02
7.369055598974227905e-02
4.612383618950843811e-02
-5.457034334540367126e-02
4.909988120198249817e-02
1.407813746482133865e-02
-9.914966300129890442e-03
-6.702505052089691162e-02
4.090692847967147827e-02
5.038475617766380310e-02
-3.554375842213630676e-03
3.067079372704029083e-02
2.352387458086013794e-02
-3.815504163503646851e-02
3.308848291635513306e-02
-8.474628627300262451e-02
-1.285381522029638290e-02
5.472188815474510193e-02
-7.875689864158630371e-02
-6.139283254742622375e-02
5.543754994869232178e-02
-8.101524412631988525e-02
1.158173978328704834e-01
1.325296889990568161e-02
7.913953065872192383e-02
1.039325669407844543e-01
5.583140626549720764e-02
6.030998378992080688e-02
8.051850646734237671e-02
-1.562069170176982880e-02
-2.525512827560305595e-03
6.600835360586643219e-03
-3.519941121339797974e-02
-1.217691600322723389e-01
-1.718590967357158661e-02
-2.577457390725612640e-02
-4.455415997654199600e-03
8.555577695369720459e-02
9.347971528768539429e-03
-5.145705491304397583e-02
3.918223083019256592e-02
1.702512055635452271e-02
-1.942584812641143799e-01
-1.492705047130584717e-01
2.153130620718002319e-02
5.662325769662857056e-02
-1.032445356249809265e-01
8.042761683464050293e-02
8.825562894344329834e-02
3.799854964017868042e-02
5.603034049272537231e-02
-1.103293336927890778e-02
4.809941351413726807e-02
1.999992132186889648e-02
-8.806324750185012817e-02
7.827712595462799072e-02
4.704606533050537109e-02
-7.016493380069732666e-02
1.140214353799819946e-01
-7.168012112379074097e-02
-6.066365540027618408e-02
-9.318870143033564091e-04
-1.976136118173599243e-02
-1.784998923540115356e-01
-3.207936510443687439e-02
1.309457933530211449e-03
-1.500151455402374268e-01
-5.950683727860450745e-02
6.704539060592651367e-02
6.727746874094009399e-02
-2.033841609954833984e-02
-4.014044825453311205e-04
3.306460008025169373e-02
4.077855497598648071e-02
1.058836132287979126e-01
8.743648231029510498e-02
1.924325823783874512e-01
8.471921086311340332e-02
1.664809733629226685e-01
5.184320732951164246e-02
9.882351756095886230e-02
8.317184448242187500e-02
7.187654823064804077e-02
-2.310665883123874664e-02
3.654541447758674622e-02
1.109459772706031799e-01
-1.951897703111171722e-02
-2.325261533260345459e-01
-1.389383971691131592e-01
5.561594292521476746e-02
-5.161305889487266541e-03
5.751772224903106689e-02
-5.916542932391166687e-02
-4.220880195498466492e-02
-2.712169662117958069e-02
1.460613333620131016e-03
-1.393554061651229858e-01
-1.295184940099716187e-01
-2.164606750011444092e-02
2.087553590536117554e-02
-7.863835990428924561e-02
1.427217852324247360e-02
8.438295125961303711e-02
5.656713992357254028e-02
2.246405184268951416e-02
4.364370368421077728e-03
1.691374033689498901e-01
8.684029802680015564e-03
-5.628725513815879822e-02
1.216938486322760582e-03
3.045289404690265656e-02
-6.970088183879852295e-02
-7.951132953166961670e-02
-6.176912039518356323e-02
-8.293562382459640503e-02
-1.030427962541580200e-01
-9.056797623634338379e-02
-8.475112169981002808e-02
4.089575633406639099e-02
1.055433452129364014e-01
-3.850469738245010376e-02
-1.852403394877910614e-02
7.322253286838531494e-02
-2.933097630739212036e-02
2.289127558469772339e-02
2.774410322308540344e-02
5.336819961667060852e-02
4.314458742737770081e-02
1.416533626616001129e-02
-2.584750764071941376e-02
-9.102738462388515472e-03
-2.441079728305339813e-02
-5.959498509764671326e-02
-5.135773867368698120e-02
-8.322316408157348633e-02
8.180355653166770935e-03
-4.212890937924385071e-02
4.677930846810340881e-02
6.452964618802070618e-03
3.774101287126541138e-02
9.645730257034301758e-02
1.621090918779373169e-01
8.170188963413238525e-02
1.090126410126686096e-01
5.995281785726547241e-02
6.087271869182586670e-02
2.375489287078380585e-02
-3.981014713644981384e-02
-2.079470269381999969e-02
-1.163984276354312897e-02
2.906014677137136459e-03
2.570793963968753815e-02
-4.311912879347801208e-02
4.646924138069152832e-02
-2.477626549080014229e-03
6.888459622859954834e-02
1.619366556406021118e-02
-1.261896919459104538e-02
-5.405719578266143799e-02
-2.773026004433631897e-02
-5.366070196032524109e-02
-4.885778576135635376e-02
-4.363029077649116516e-02
-1.024059858173131943e-02
-3.408800438046455383e-02
3.302077576518058777e-02
-6.119973212480545044e-02
-1.354599297046661377e-01
-2.766168303787708282e-02
-1.242731213569641113e-01
-7.995117455720901489e-02
8.768393658101558685e-03
7.582307606935501099e-02
7.552325725555419922e-02
1.237228512763977051e-03
-4.197930917143821716e-02
-2.375813387334346771e-02
2.260607108473777771e-02
-4.294475947972387075e-04
-5.021006241440773010e-02
3.641553595662117004e-02
1.220172271132469177e-01
9.301498532295227051e-02
-1.549897156655788422e-02
3.974658250808715820e-02
5.897446349263191223e-02
1.311880163848400116e-02
3.091285750269889832e-02
-8.118810132145881653e-03
-7.351846992969512939e-02
5.865037441253662109e-02
2.063510566949844360e-02
-6.814446300268173218e-03
1.158222462981939316e-02
-1.637209020555019379e-02
4.126508254557847977e-03
-2.390636131167411804e-02
-2.270382083952426910e-02
5.694837868213653564e-02
6.630928069353103638e-02
-2.622274681925773621e-02
4.930780827999114990e-02
2.757402323186397552e-02
-4.800498858094215393e-02
-2.188337408006191254e-02
-3.067830950021743774e-02
-5.012807250022888184e-02
-1.058145985007286072e-01
2.823598310351371765e-02
3.836875036358833313e-02
4.274394363164901733e-03
6.869988888502120972e-02
-2.299414249137043953e-03
8.960810303688049316e-02
5.753730889409780502e-03
-7.928957045078277588e-02
-1.573801971971988678e-02
3.389977663755416870e-02
-2.996530197560787201e-02
3.255852684378623962e-02
-2.188461646437644958e-02
-1.043969839811325073e-01
-7.257828023284673691e-03
-5.958623066544532776e-02
-3.944713249802589417e-02
5.609664693474769592e-02
7.200668007135391235e-02
8.614786714315414429e-02
-3.050521574914455414e-02
8.772967755794525146e-02
1.012004092335700989e-01
3.510436043143272400e-02
3.902112320065498352e-02
4.300541430711746216e-02
2.302497439086437225e-02
3.396593034267425537e-02
8.926498144865036011e-02
-7.788959890604019165e-02
-4.432135447859764099e-02
8.532010018825531006e-02
3.763309866189956665e-02
6.158217415213584900e-02
6.100406870245933533e-02
1.000369805842638016e-02
8.843727409839630127e-02
1.537500135600566864e-02
-3.777432814240455627e-02
-5.695218220353126526e-02
-1.104760020971298218e-01
-1.795137114822864532e-02
-5.550324544310569763e-02
-9.166412055492401123e-02
4.287117160856723785e-03
-1.675042510032653809e-02
2.064263261854648590e-02
1.756096072494983673e-02
2.416508086025714874e-02
-4.424282535910606384e-02
-5.868744477629661560e-02
-3.070419467985630035e-02
-8.129199594259262085e-02
-5.100070685148239136e-02
4.391517117619514465e-02
1.283207833766937256e-01
-1.363531220704317093e-03
4.278296977281570435e-02
5.150803551077842712e-02
2.722366899251937866e-02
5.171144753694534302e-02
1.668211445212364197e-02
6.429163273423910141e-03
-9.198676794767379761e-02
1.465088687837123871e-02
-3.578703105449676514e-02
1.806316315196454525e-03
-9.044722653925418854e-03
-3.700358048081398010e-02
5.313206347636878490e-04
-1.095647141337394714e-01
5.081766098737716675e-02
6.758833769708871841e-03
4.379840940237045288e-02
1.540254801511764526e-02
-3.430719301104545593e-02
-3.262878209352493286e-02
4.727969691157341003e-02
-3.473228961229324341e-02
-5.496164783835411072e-02
-1.091880816966295242e-02
4.038418456912040710e-02
2.546751929912716150e-04
-1.142344251275062561e-02
8.271850645542144775e-02
1.358271688222885132e-01
3.086952783633023500e-04
3.109238483011722565e-02
3.971370309591293335e-02
-1.070292741060256958e-01
-1.981141418218612671e-02
-1.240456756204366684e-02
-2.815446443855762482e-02
2.318564616143703461e-02
1.859180331230163574e-01
4.960596933960914612e-02
7.077565789222717285e-02
5.893687903881072998e-02
5.445596948266029358e-02
2.247313782572746277e-02
-4.937363043427467346e-02
3.682443127036094666e-02
-8.152213692665100098e-02
-1.319248229265213013e-01
-6.386266648769378662e-02
-5.868828296661376953e-02
4.349809885025024414e-02
-7.189638912677764893e-02
-3.265615180134773254e-02
1.168731693178415298e-02
-7.809543609619140625e-02
-2.136442344635725021e-03
1.509855389595031738e-01
-6.750029325485229492e-02
-4.710025154054164886e-03
6.476888805627822876e-02
-7.156260311603546143e-02
-4.827768355607986450e-02
-7.898356765508651733e-02
-5.528751015663146973e-02
-1.394411269575357437e-02
1.254468858242034912e-01
-4.464339464902877808e-02
2.086969278752803802e-02
6.722202152013778687e-02
-1.689398474991321564e-02
-7.311700284481048584e-02
-7.353284955024719238e-02
-7.314115017652511597e-02
-1.742265000939369202e-02
1.782455109059810638e-02
2.084082178771495819e-02
6.128780171275138855e-02
4.755077883601188660e-02
1.896373927593231201e-02
6.662953644990921021e-02
-2.289330214262008667e-02
4.556319117546081543e-02
5.650142952799797058e-02
-5.419659987092018127e-02
6.330245733261108398e-02
-4.760771989822387695e-03
4.024612158536911011e-02
8.150631934404373169e-02
1.204862371087074280e-01
1.738516986370086670e-02
-8.114559575915336609e-03
-6.217539310455322266e-02
-8.366462588310241699e-02
-3.434765711426734924e-02
-1.381721645593643188e-01
-1.638512462377548218e-01
-5.416752398014068604e-02
-1.625704914331436157e-01
-5.324845761060714722e-02
-5.880879983305931091e-02
-7.518883794546127319e-02
-5.361842736601829529e-02
-4.093837365508079529e-02
3.201242163777351379e-02
-3.884200751781463623e-02
-3.364095091819763184e-02
-1.016798019409179688e-01
-5.342841148376464844e-02
-8.363116532564163208e-02
8.668289333581924438e-02
7.766301929950714111e-02
-5.034791305661201477e-02
7.950301468372344971e-02
1.068700477480888367e-01
-6.814716011285781860e-02
-6.269402801990509033e-02
4.883200675249099731e-02
3.968550823628902435e-03
1.425401866436004639e-01
1.727103441953659058e-01
1.453674584627151489e-01
1.242811605334281921e-01
2.419788017868995667e-02
-3.974111378192901611e-02
9.707705117762088776e-03
2.280007861554622650e-02
-4.022674635052680969e-02
3.277980536222457886e-02
3.714061528444290161e-02
-2.043756097555160522e-02
4.893130622804164886e-03
-9.240857511758804321e-02
-7.699903100728988647e-02
1.888486929237842560e-02
-3.763467073440551758e-02
1.996489912271499634e-01
9.219992905855178833e-02
4.916308820247650146e-02
9.846168570220470428e-03
-1.449123211205005646e-02
7.055613398551940918e-02
2.801867760717868805e-02
1.107445135712623596e-01
-1.080393940210342407e-01
1.643999516963958740e-01
1.614772677421569824e-01
-1.131375692784786224e-02
1.277515292167663574e-01
-8.326978422701358795e-03
-9.121535345911979675e-03
-6.280623376369476318e-02
1.670274883508682251e-03
-2.555218152701854706e-02
-3.641022369265556335e-02
1.361396163702011108e-02
2.107073552906513214e-02
8.874925225973129272e-02
8.366447687149047852e-02
6.827960163354873657e-02
2.336236834526062012e-02
-2.342467196285724640e-02
6.844185758382081985e-03
2.775602601468563080e-02
6.004193797707557678e-02
-3.195802122354507446e-02
-3.252375125885009766e-02
-4.416286200284957886e-02
4.387913737446069717e-03
4.498260095715522766e-03
1.585135050117969513e-02
5.577877536416053772e-02
7.002715021371841431e-02
-8.249086141586303711e-02
-1.836110055446624756e-01
9.219186007976531982e-02
3.907964751124382019e-02
-1.794505119323730469e-01
3.550580143928527832e-02
-6.636539008468389511e-03
3.183653345331549644e-03
1.438966579735279083e-02
-9.275973425246775150e-04
-2.391281537711620331e-02
-3.917850181460380554e-02
3.206254169344902039e-02
2.975797280669212341e-03
-9.627280384302139282e-02
-9.982737712562084198e-03
1.665448099374771118e-01
6.417857110500335693e-02
1.871071606874465942e-01
7.712054997682571411e-02
-2.460593543946743011e-02
5.563012510538101196e-02
-6.890086922794580460e-03
2.662960067391395569e-02
-7.195321470499038696e-02
-1.003083065152168274e-01
5.142163112759590149e-02
1.391565310768783092e-03
-4.635285213589668274e-02
1.465605646371841431e-01
4.990981146693229675e-02
4.422530159354209900e-02
6.949132680892944336e-02
-6.868834793567657471e-02
-2.301121875643730164e-02
4.995134472846984863e-02
-8.119594305753707886e-02
-1.008528247475624084e-01
1.072903573513031006e-01
2.766559273004531860e-02
-8.546879142522811890e-02
1.539770420640707016e-02
6.881214212626218796e-03
-2.600155957043170929e-02
-5.576086044311523438e-02
-6.096317619085311890e-02
-6.042238697409629822e-02
-7.930314540863037109e-02
-4.110967367887496948e-02
-8.417349308729171753e-02
-8.974099904298782349e-02
-7.726549357175827026e-02
1.055482495576143265e-02
-5.467443540692329407e-02
-4.923959821462631226e-02
8.221990615129470825e-02
-3.026056289672851562e-02
-3.338419646024703979e-02
-3.935597464442253113e-02
-3.476564958691596985e-02
-3.111959435045719147e-02
1.371589601039886475e-01
-1.095335232093930244e-03
4.619119316339492798e-02
9.466677159070968628e-02
-5.518372356891632080e-02
1.347912382334470749e-02
-4.674347117543220520e-02
-4.693656414747238159e-02
-3.795184940099716187e-02
5.042884126305580139e-02
-8.436354249715805054e-02
-4.941051453351974487e-02
-7.905541919171810150e-03
-7.510065287351608276e-02
-6.664010882377624512e-02
-4.033351782709360123e-03
-1.955599989742040634e-03
-8.929400891065597534e-02
-1.067582741379737854e-01
-4.591033607721328735e-02
-9.164205193519592285e-02
-8.004936575889587402e-02
7.910094223916530609e-03
-4.165769740939140320e-02
-8.315126597881317139e-02
7.463078200817108154e-02
-7.793738692998886108e-02
-1.353813856840133667e-01
-1.354047842323780060e-02
6.892801262438297272e-03
-8.089193701744079590e-02
2.373932674527168274e-02
3.431727737188339233e-02
-3.673199191689491272e-02
-1.792590506374835968e-02
1.546326279640197754e-02
-7.696239650249481201e-02
4.285317286849021912e-02
9.954884648323059082e-02
3.551705181598663330e-02
5.615768954157829285e-02
1.573716476559638977e-02
1.040729805827140808e-01
-1.050438825041055679e-02
-1.179062649607658386e-01
7.460739463567733765e-02
-5.639849230647087097e-02
9.545927494764328003e-02
7.847095280885696411e-02
7.708498090505599976e-02
2.106842817738652229e-03
7.600644230842590332e-02
6.311503797769546509e-02
8.387951552867889404e-02
1.539540588855743408e-01
-2.646048180758953094e-02
7.160757482051849365e-02
7.274987548589706421e-02
-5.551441758871078491e-02
-2.209969423711299896e-02
9.412698447704315186e-02
-7.743798941373825073e-02
-1.433002948760986328e-01
-9.751488268375396729e-02
-1.537606678903102875e-02
-1.070366427302360535e-01
-6.474265828728675842e-03
1.022709067910909653e-02
-7.806048542261123657e-02
-3.676524385809898376e-02
-8.342180401086807251e-02
-1.135110575705766678e-02
-7.025558501482009888e-02
-7.518311589956283569e-02
4.918827861547470093e-02
-6.072861701250076294e-02
-2.926973812282085419e-02
2.651780284941196442e-02
-7.957048714160919189e-02
2.805459313094615936e-02
8.075494319200515747e-02
-1.702706143260002136e-02
-1.529265101999044418e-02
3.825124353170394897e-02
2.156475782394409180e-01
-1.030104234814643860e-01
-1.411592122167348862e-03
9.897516667842864990e-02
1.644284129142761230e-01
-7.600434869527816772e-02
-5.912868306040763855e-03
2.551770396530628204e-02
-8.146242052316665649e-02
1.186167970299720764e-01
1.329720765352249146e-02
-6.005702912807464600e-02
1.039282791316509247e-02
-2.453444898128509521e-02
-1.245141997933387756e-01
-1.739369332790374756e-02
-8.672103285789489746e-02
-3.467867523431777954e-02
-1.576562412083148956e-02
1.536210346966981888e-02
-2.259502187371253967e-03
1.122648194432258606e-01
-5.951260775327682495e-02
5.247994884848594666e-02
-3.888047114014625549e-02
-8.873733691871166229e-03
-1.058741435408592224e-01
9.836907684803009033e-02
-6.421317160129547119e-02
-2.307140268385410309e-03
-6.604912341572344303e-04
-3.607828170061111450e-02
1.190077289938926697e-01
1.729571609757840633e-03
8.824948966503143311e-02
-4.893361777067184448e-02
1.244962364435195923e-01
-1.257718205451965332e-01
-9.800159186124801636e-02
1.070094779133796692e-01
1.490803668275475502e-03
1.033814400434494019e-01
-9.864451736211776733e-02
1.856565624475479126e-01
8.748263120651245117e-02
-6.974769756197929382e-03
-2.900528721511363983e-03
-4.733000323176383972e-02
7.567128539085388184e-02
-4.486314579844474792e-02
1.193152647465467453e-02
-3.318681567907333374e-02
-3.060613013803958893e-02
-6.108616292476654053e-02
2.973926812410354614e-02
-7.253370434045791626e-02
-4.642423242330551147e-02
6.066017970442771912e-02
-1.229183599352836609e-01
-9.036907553672790527e-02
-8.402012288570404053e-02
-1.078060865402221680e-01
-1.362389773130416870e-01
5.087285861372947693e-02
-6.646335124969482422e-02
-7.651554048061370850e-02
8.697370439767837524e-02
-3.072783816605806351e-03
-3.221601620316505432e-02
-2.730127610266208649e-02
6.096999347209930420e-02
1.086431294679641724e-01
5.748087540268898010e-02
1.486240606755018234e-02
2.447718195617198944e-02
-4.529604315757751465e-02
4.380124434828758240e-02
1.292575001716613770e-01
7.162967696785926819e-03
1.895169615745544434e-01
4.055242054164409637e-03
8.680934458971023560e-02
-8.367484807968139648e-02
-4.300462454557418823e-02
7.065567374229431152e-02
1.451043337583541870e-01
3.322800993919372559e-02
1.879381090402603149e-01
-1.566192135214805603e-02
1.627706289291381836e-01
1.438035666942596436e-01
-4.489056020975112915e-02
-3.455578163266181946e-02
-4.306224174797534943e-03
-9.076839685440063477e-02
-5.024431273341178894e-02
-4.664247110486030579e-02
-1.315305829048156738e-01
3.182365093380212784e-03
-7.808894384652376175e-03
-2.143451757729053497e-02
5.914968205615878105e-04
-1.070428416132926941e-01
2.187368273735046387e-02
-4.161298274993896484e-02
-4.869893565773963928e-02
-3.893150715157389641e-03
-2.950594993308186531e-03
2.610840648412704468e-02
1.230396181344985962e-01
5.753468722105026245e-02
-6.252409424632787704e-03
-3.786074370145797729e-02
-5.275648459792137146e-02
-6.683285534381866455e-02
1.306857317686080933e-01
1.814155727624893188e-01
1.442347019910812378e-01
1.526283323764801025e-01
7.791865617036819458e-02
2.898943424224853516e-02
6.018668413162231445e-03
-1.577618531882762909e-02
-4.015763476490974426e-02
-6.443998962640762329e-02
-2.418374642729759216e-02
1.928481389768421650e-03
-7.770324498414993286e-02
2.418783865869045258e-02
7.982800155878067017e-02
7.499279920011758804e-03
6.257275491952896118e-02
2.293924614787101746e-02
6.407383829355239868e-02
6.075931712985038757e-02
6.762257218360900879e-02
7.704827003180980682e-03
-1.126891598105430603e-01
-1.012785509228706360e-01
-4.530014470219612122e-03
-3.818336501717567444e-02
-5.122065171599388123e-02
1.189425121992826462e-02
-2.180214039981365204e-03
3.892520209774374962e-03
-6.198046728968620300e-02
6.515746563673019409e-02
7.259221747517585754e-03
-3.164342779200524092e-04
6.552571896463632584e-03
-8.652713894844055176e-02
-3.762165084481239319e-02
5.313336104154586792e-02
-3.231857437640428543e-03
2.140107303857803345e-01
7.355760037899017334e-02
2.117822878062725067e-02
4.750425741076469421e-02
6.485388427972793579e-02
1.051837950944900513e-02
-4.462905973196029663e-02
-6.993210315704345703e-02
3.240744024515151978e-02
-6.591655313968658447e-02
-3.360163792967796326e-02
7.343240082263946533e-02
-9.119217284023761749e-04
2.383628673851490021e-02
-8.841582387685775757e-02
-8.030739426612854004e-02
7.723735272884368896e-02
3.909027948975563049e-02
1.071009114384651184e-01
5.996991321444511414e-02
9.077508002519607544e-03
-2.394331619143486023e-02
-4.747804999351501465e-02
-4.896386340260505676e-02
-1.452335901558399200e-02
2.985879592597484589e-02
-9.638097137212753296e-03
5.303415004163980484e-03
5.245244596153497696e-03
9.550635516643524170e-02
6.561182439327239990e-02
-7.047224044799804688e-02
2.450512535870075226e-02
-4.677115753293037415e-02
-1.066981330513954163e-01
-8.497452735900878906e-02
-9.401477128267288208e-02
-2.384645678102970123e-02
-5.048091337084770203e-02
-3.864801302552223206e-02
-2.561208978295326233e-02
-3.363873064517974854e-02
-6.573051214218139648e-02
-4.324626177549362183e-02
1.087740156799554825e-02
1.225594896823167801e-02
1.162869972176849842e-03
2.961913496255874634e-02
7.793910801410675049e-02
2.294961549341678619e-02
1.001866161823272705e-01
1.583821475505828857e-01
3.294400498270988464e-02
-2.701018936932086945e-02
-1.667193025350570679e-01
-6.093377619981765747e-02
6.592956185340881348e-02
2.119004540145397186e-02
-6.348008662462234497e-02
-5.533642694354057312e-02
-1.088701635599136353e-01
-1.870618909597396851e-01
-7.267884910106658936e-02
-7.580427080392837524e-02
-1.999024488031864166e-02
3.622309863567352295e-02
-5.429594311863183975e-03
-1.348011642694473267e-01
-1.087418347597122192e-01
-1.027354598045349121e-02
-6.236999854445457458e-02
-6.043796613812446594e-02
-2.053145691752433777e-02
5.150799080729484558e-02
-7.365457713603973389e-03
-4.516597837209701538e-02
-1.260750442743301392e-01
-1.554330587387084961e-01
1.100099310278892517e-01
1.590410433709621429e-02
2.207328751683235168e-02
1.280342489480972290e-01
1.587555371224880219e-02
4.876837600022554398e-03
4.347805865108966827e-03
-2.490529417991638184e-02
-2.909900061786174774e-02
2.987940795719623566e-03
-3.262204676866531372e-02
2.765221707522869110e-02
5.829465389251708984e-02
-2.084055729210376740e-02
7.456692308187484741e-02
7.331643253564834595e-02
1.350194811820983887e-01
1.027067899703979492e-01
1.884066127240657806e-02
-3.239131718873977661e-02
-8.988863788545131683e-03
-1.313618272542953491e-01
-1.146245449781417847e-01
-4.933348298072814941e-02
1.575920134782791138e-01
1.130168810486793518e-01
1.039875969290733337e-01
2.355053555220365524e-03
3.010811842978000641e-02
3.277033939957618713e-02
-9.726972877979278564e-02
-7.988726347684860229e-02
-4.271644726395606995e-02
-6.427646428346633911e-02
-4.812301695346832275e-02
-5.486258864402770996e-02
5.136943235993385315e-02
2.304345555603504181e-02
1.387461181730031967e-02
2.456639334559440613e-02
2.669491432607173920e-02
9.877106174826622009e-03
5.151245370507240295e-02
1.006920263171195984e-02
1.131645869463682175e-02
-5.352459102869033813e-02
-2.201603166759014130e-02
3.452369943261146545e-02
3.589756786823272705e-02
-3.318780800327658653e-03
1.872314512729644775e-02
-1.789943501353263855e-02
5.361476540565490723e-02
-4.965732246637344360e-02
2.604087628424167633e-02
-1.349535211920738220e-02
-4.323814064264297485e-02
8.981997962109744549e-04
3.011133894324302673e-02
6.230748444795608521e-02
2.253793738782405853e-02
2.646337635815143585e-02
-5.401016399264335632e-02
1.116745173931121826e-02
1.944044418632984161e-02
2.422736026346683502e-02
-7.681758701801300049e-02
-4.310062900185585022e-02
1.277962699532508850e-02
5.055400356650352478e-02
6.372675299644470215e-02
3.365054726600646973e-02
-5.100990459322929382e-02
3.782734042033553123e-03
2.380643412470817566e-02
1.832035370171070099e-02
-4.520943760871887207e-02
1.463384926319122314e-02
9.626269340515136719e-03
1.249309163540601730e-02
1.297236140817403793e-02
9.545344114303588867e-02
4.342786967754364014e-02
2.852302230894565582e-02
-4.076769948005676270e-02
8.823292329907417297e-03
3.045597299933433533e-02
-6.815186701714992523e-03
-5.287605524063110352e-02
-8.363255858421325684e-02
5.587887763977050781e-02
2.347074635326862335e-02
-2.699061483144760132e-02
8.884851820766925812e-03
3.442804329097270966e-03
1.278335154056549072e-01
-5.113421753048896790e-02
-8.970130980014801025e-02
-3.277333825826644897e-02
-4.067176580429077148e-02
-7.827967405319213867e-02
-7.265925407409667969e-02
2.926214970648288727e-02
-3.399245813488960266e-02
-1.037413105368614197e-01
-9.364414960145950317e-02
-6.674868613481521606e-02
-5.204792693257331848e-02
-2.401439659297466278e-02
-3.424117341637611389e-02
-2.088051475584506989e-02
1.808861829340457916e-02
5.827434360980987549e-02
-2.471038606017827988e-04
-5.763209611177444458e-02
-5.115472897887229919e-02
-4.401809722185134888e-02
-5.903735756874084473e-02
-1.984883658587932587e-02
7.955911755561828613e-02
1.697279512882232666e-02
1.054622307419776917e-01
1.184931769967079163e-01
-5.352909117937088013e-02
-7.372853904962539673e-02
-1.587342284619808197e-02
2.003773674368858337e-02
2.098281867802143097e-02
1.653514429926872253e-02
-4.812461882829666138e-02
5.382121354341506958e-02
-4.888758063316345215e-02
-1.866141799837350845e-03
-6.441840529441833496e-02
-4.962934553623199463e-02
3.346371278166770935e-02
4.413747042417526245e-02
-5.109316855669021606e-02
6.510111968964338303e-03
1.676403358578681946e-02
3.785937279462814331e-02
4.772598668932914734e-02
5.576061084866523743e-02
8.592567406594753265e-03
1.370306871831417084e-02
6.881559640169143677e-02
-1.280234288424253464e-02
-4.232257604598999023e-02
-3.486829623579978943e-02
-2.693776972591876984e-02
-2.328432723879814148e-02
8.490131050348281860e-02
1.637407019734382629e-02
7.234772294759750366e-02
4.757941514253616333e-02
7.096745818853378296e-02
-4.761426150798797607e-02
-3.189174830913543701e-02
-4.647115990519523621e-02
8.344895392656326294e-02
-4.764873906970024109e-02
-3.172998875379562378e-02
1.131388172507286072e-01
4.895289987325668335e-02
-6.215698644518852234e-02
-6.017239764332771301e-02
-2.045595459640026093e-02
2.563049383752513677e-05
6.428371369838714600e-02
-1.776647381484508514e-02
-1.064388081431388855e-01
1.004506126046180725e-01
9.695450775325298309e-03
-7.376695424318313599e-02
-2.740336023271083832e-02
-8.932366222143173218e-02
-4.567525163292884827e-02
1.359283924102783203e-02
5.879435688257217407e-02
-1.206798199564218521e-02
7.230649143457412720e-02
5.036598443984985352e-02
3.756975010037422180e-02
9.490581601858139038e-02
1.061131507158279419e-01
2.332358248531818390e-02
1.595891416072845459e-01
8.354492485523223877e-02
1.259267628192901611e-01
-5.212037637829780579e-02
-1.450843364000320435e-02
3.482540696859359741e-02
-1.221046550199389458e-03
-1.358362287282943726e-01
5.971333011984825134e-03
-1.361635625362396240e-01
-5.310400575399398804e-02
-1.384333055466413498e-02
3.696663305163383484e-02
-9.807714074850082397e-02
-1.432952135801315308e-01
1.380466204136610031e-02
-6.648340076208114624e-02
-8.552692830562591553e-02
-3.387508913874626160e-02
-6.802204996347427368e-02
1.651737093925476074e-02
4.148760437965393066e-02
7.338517159223556519e-02
-3.541195765137672424e-02
-2.106944564729928970e-03
8.356563001871109009e-02
4.327895119786262512e-02
1.852971762418746948e-01
8.879620581865310669e-02
4.389138892292976379e-02
1.562094390392303467e-01
1.144260689616203308e-01
4.935844615101814270e-02
2.921538986265659332e-02
9.945341944694519043e-02
8.562617003917694092e-03
-8.137859404087066650e-02
-9.687367081642150879e-02
-3.552420437335968018e-02
9.127613157033920288e-02
2.577019296586513519e-02
2.085808105766773224e-02
2.346720779314637184e-03
4.065878689289093018e-02
6.485172361135482788e-02
-1.651873886585235596e-01
-1.422320455312728882e-01
-6.195255741477012634e-02
-1.120423804968595505e-02
-6.590018421411514282e-02
-7.431966811418533325e-02
1.104924548417329788e-02
4.170643910765647888e-02
-4.030275344848632812e-02
-1.216352581977844238e-01
-9.868821501731872559e-02
2.584659680724143982e-02
-1.575930975377559662e-02
-2.927318215370178223e-02
-9.911385923624038696e-02
5.821885913610458374e-02
6.712438166141510010e-02
-5.796873942017555237e-02
-8.086384087800979614e-02
-2.483874186873435974e-02
-3.431377187371253967e-02
3.511414676904678345e-02
2.736493758857250214e-02
-4.745931550860404968e-02
1.876004040241241455e-02
3.617969108745455742e-03
-2.948161773383617401e-02
2.767288312315940857e-02
5.937068909406661987e-02
9.275607764720916748e-02
-3.043189179152250290e-03
2.642743475735187531e-02
-7.642660755664110184e-03
7.655491679906845093e-02
-2.881375513970851898e-02
-4.266527667641639709e-02
-3.669603914022445679e-02
-1.486887224018573761e-02
-2.917501144111156464e-02
-3.617994114756584167e-02
1.070547923445701599e-01
2.571538649499416351e-02
3.336502611637115479e-02
7.756433635950088501e-02
-9.110393584705889225e-04
-1.318787783384323120e-01
-9.175635874271392822e-02
-9.438750147819519043e-02
8.176260627806186676e-03
-6.348226219415664673e-02
-1.018408238887786865e-01
-5.445972084999084473e-02
2.058012038469314575e-02
-1.285762642510235310e-03
9.653462911956012249e-04
-4.963104054331779480e-02
-7.034254074096679688e-02
3.364137560129165649e-02
-1.542694400995969772e-03
-1.043720841407775879e-01
-5.081217736005783081e-03
8.975639007985591888e-03
-9.643760323524475098e-02
-1.278412248939275742e-02
-4.209101200103759766e-02
-8.813738822937011719e-02
6.525069475173950195e-02
7.909788936376571655e-02
2.528931759297847748e-02
4.973644856363534927e-03
3.318588435649871826e-02
6.115939468145370483e-02
-6.573319435119628906e-02
2.247683331370353699e-02
-3.715844079852104187e-02
3.267301246523857117e-02
5.168622359633445740e-02
-1.504566799849271774e-02
2.751639112830162048e-02
1.048936322331428528e-01
7.789596170186996460e-02
-5.573567003011703491e-02
1.824542693793773651e-02
4.689878225326538086e-02
1.706118285655975342e-01
4.312828183174133301e-02
5.471133161336183548e-03
4.829432442784309387e-02
2.924044989049434662e-02
1.560570765286684036e-02
1.433430053293704987e-02
-1.556019671261310577e-02
1.761146448552608490e-02
-1.536045875400304794e-02
-5.737897381186485291e-02
-1.004223451018333435e-01
-1.686669886112213135e-02
6.564081460237503052e-02
1.087152212858200073e-02
1.963851042091846466e-02
8.543960005044937134e-02
3.589441534131765366e-03
4.617185518145561218e-02
1.266848668456077576e-02
3.646779060363769531e-02
6.980351358652114868e-02
7.835694588720798492e-03
1.469521317631006241e-02
-4.661537241190671921e-03
2.144431136548519135e-02
1.081983596086502075e-01
3.274920396506786346e-03
1.114553771913051605e-02
-6.014865636825561523e-02
3.241795348003506660e-03
-2.343289367854595184e-02
-8.518626540899276733e-02
-3.264965116977691650e-02
7.182063162326812744e-02
9.856666624546051025e-02
3.720727935433387756e-02
-1.302161160856485367e-02
-8.495174348354339600e-02
5.102239549160003662e-03
2.835491113364696503e-02
2.182313613593578339e-02
1.266155987977981567e-01
1.265798509120941162e-01
1.668135076761245728e-02
2.506617270410060883e-02
3.827412799000740051e-02
1.910683885216712952e-02
-8.653590083122253418e-02
-6.154836714267730713e-02
5.349844228476285934e-03
-3.871727362275123596e-02
-4.210388287901878357e-02
3.073910437524318695e-02
-5.957504361867904663e-02
-4.120576754212379456e-02
-6.993129104375839233e-02
4.532252997159957886e-02
3.532217815518379211e-02
-1.947707310318946838e-02
6.011175457388162613e-03
9.444603323936462402e-02
1.316530108451843262e-01
1.468091551214456558e-02
3.846062719821929932e-02
-3.734026849269866943e-02
1.440811902284622192e-01
1.636490970849990845e-02
-5.015615373849868774e-02
6.780758500099182129e-02
4.822240769863128662e-02
-2.019323874264955521e-03
-2.300067618489265442e-02
-1.009626612067222595e-01
-1.303417980670928955e-01
-1.328005492687225342e-01
-1.155382692813873291e-01
-6.721197813749313354e-02
8.520144969224929810e-02
7.559201121330261230e-02
5.136268585920333862e-02
-5.519188940525054932e-03
-6.691957823932170868e-03
-4.573437198996543884e-02
-2.773086726665496826e-02
-1.519687124527990818e-03
-2.256369590759277344e-02
1.442352384328842163e-01
6.567030400037765503e-02
1.708874255418777466e-01
4.447821900248527527e-02
-9.490817785263061523e-03
5.139455571770668030e-02
-1.030005440115928650e-01
-5.969560239464044571e-03
-1.019394546747207642e-01
4.081963375210762024e-02
4.030105844140052795e-02
1.545391138643026352e-02
-1.175467818975448608e-01
-1.658285856246948242e-01
-1.406286507844924927e-01
-8.151230961084365845e-02
-6.942376494407653809e-03
-4.238167032599449158e-02
2.545324619859457016e-03
3.498265892267227173e-02
6.367976963520050049e-02
-3.861291334033012390e-02
-5.968983471393585205e-02
-8.215752243995666504e-02
6.829138379544019699e-03
-5.563205480575561523e-02
-7.584524154663085938e-02
-1.017216369509696960e-01
-5.925496295094490051e-02
2.441481873393058777e-02
-2.056999690830707550e-02
-9.266995638608932495e-02
-8.375662378966808319e-03
2.443086951971054077e-01
2.019818127155303955e-01
5.029360949993133545e-02
-3.103797091171145439e-03
-1.031150519847869873e-01
-6.077957525849342346e-02
2.800591476261615753e-02
-1.088717207312583923e-02
1.070507988333702087e-02
-4.644455388188362122e-02
3.433394432067871094e-02
7.256370782852172852e-02
-1.075896769762039185e-01
1.259209364652633667e-01
9.010922163724899292e-02
2.094498574733734131e-01
5.453301221132278442e-02
-2.277033403515815735e-02
-6.042984127998352051e-02
-1.155579183250665665e-02
1.153679713606834412e-01
-6.173304468393325806e-02
1.048150286078453064e-01
7.397878170013427734e-02
-5.487437359988689423e-03
7.412403821945190430e-02
3.214087709784507751e-02
-8.422045409679412842e-02
2.074874341487884521e-01
1.070890128612518311e-01
-3.778612241148948669e-02
-6.219285726547241211e-02
-6.540890783071517944e-02
-6.716129183769226074e-02
-5.190651118755340576e-02
-9.840271435678005219e-03
-3.157339757308363914e-03
-2.609352767467498779e-02
-1.939445734024047852e-02
-9.193892031908035278e-02
-7.833277434110641479e-02
-1.365484148263931274e-01
-2.332094497978687286e-02
-7.521416246891021729e-02
-6.361905485391616821e-02
-1.392352953553199768e-02
2.127186208963394165e-02
-1.012132689356803894e-01
1.055655851960182190e-01
3.581099957227706909e-02
-6.861131638288497925e-02
-3.921265900135040283e-02
1.885548681020736694e-01
1.139811649918556213e-01
1.329810917377471924e-01
1.414739042520523071e-01
2.347836270928382874e-02
-2.079937234520912170e-02
-4.405542090535163879e-02
2.656397409737110138e-02
-4.675935488194227219e-03
9.400231391191482544e-02
-2.753532677888870239e-02
2.367319306358695030e-03
-1.044855788350105286e-01
7.525071967393159866e-03
-5.886443331837654114e-02
-6.666393578052520752e-02
-2.361701987683773041e-02
-2.314433269202709198e-02
-5.063386261463165283e-02
-9.659544378519058228e-02
3.413544222712516785e-02
1.078310832381248474e-01
2.118794247508049011e-02
1.164249889552593231e-02
3.701982647180557251e-02
2.365425601601600647e-02
-3.414438292384147644e-02
1.239231973886489868e-01
1.090181022882461548e-01
4.885868728160858154e-02
2.000422962009906769e-02
1.127807516604661942e-02
9.220343083143234253e-02
5.711076664738357067e-04
-7.468426227569580078e-02
-8.325944095849990845e-02
5.518355220556259155e-02
4.009905457496643066e-02
4.504155740141868591e-02
8.997621387243270874e-02
-5.419317632913589478e-02
5.030463216826319695e-04
-9.305132180452346802e-02
-1.062202081084251404e-01
5.287823267281055450e-03
-1.312787830829620361e-01
-8.730821311473846436e-02
-5.225168913602828979e-02
6.085182353854179382e-02
4.643176216632127762e-03
8.165586739778518677e-02
3.071834519505500793e-02
-1.638096123933792114e-01
-1.006598956882953644e-02
-1.304912120103836060e-01
3.049989603459835052e-02
6.088306382298469543e-02
-4.408279433846473694e-03
-2.106656692922115326e-02
4.363323748111724854e-02
8.485801517963409424e-02
-1.437188871204853058e-02
-5.632235482335090637e-02
-2.790282666683197021e-02
3.072222135961055756e-02
5.633253604173660278e-02
6.724383682012557983e-02
-5.488818511366844177e-02
2.034097537398338318e-02
-6.103499978780746460e-02
-4.803334176540374756e-02
3.834325075149536133e-02
-2.388182841241359711e-02
2.858264558017253876e-02
5.554443225264549255e-02
3.565235808491706848e-02
4.820957034826278687e-02
1.142719946801662445e-02
1.079619023948907852e-02
-6.471716612577438354e-02
-5.869638547301292419e-02
-2.226995304226875305e-02
8.822672814130783081e-02
-3.950288519263267517e-02
6.161888130009174347e-03
-6.078735925257205963e-03
-1.211503427475690842e-02
4.371934384107589722e-02
-7.543364074081182480e-03
8.953424170613288879e-03
7.545944303274154663e-02
1.364793535321950912e-02
-9.408661723136901855e-02
-6.031049415469169617e-02
4.845874756574630737e-02
-5.671203881502151489e-02
-2.525783888995647430e-02
4.814165458083152771e-02
2.216811664402484894e-02
1.585919060744345188e-03
-6.563905626535415649e-02
3.781822696328163147e-02
-1.813704147934913635e-02
-1.098919566720724106e-02
-1.176918521523475647e-01
1.362580712884664536e-02
-2.049725037068128586e-03
-6.084505096077919006e-02
7.181296497583389282e-02
6.919276714324951172e-02
1.623092964291572571e-02
-1.192090380936861038e-02
6.177322566509246826e-02
-1.486582309007644653e-01
-1.825694888830184937e-01
-4.056803509593009949e-02
-1.414237171411514282e-01
-2.486756891012191772e-01
-6.902949512004852295e-02
-4.733321443200111389e-02
-8.991656452417373657e-02
-6.359932571649551392e-02
1.188134849071502686e-01
5.335845053195953369e-02
-1.287650316953659058e-01
9.631062299013137817e-02
6.074060127139091492e-02
2.577112056314945221e-02
-5.625842884182929993e-02
2.757260948419570923e-02
-2.106202300637960434e-03
-9.264911711215972900e-02
-5.474657937884330750e-02
9.430422447621822357e-03
6.904920935630798340e-02
-8.660116791725158691e-02
-3.080859780311584473e-02
6.749952584505081177e-02
-2.534426376223564148e-02
-7.030528783798217773e-02
-1.471886225044727325e-02
-7.484534382820129395e-02
-9.713613986968994141e-02
1.472542807459831238e-02
-1.072043851017951965e-01
-3.227521106600761414e-02
3.584334254264831543e-02
5.672806501388549805e-02
1.883345283567905426e-02
7.816662080585956573e-03
1.525125466287136078e-02
-6.740445643663406372e-02
4.211540147662162781e-02
3.464568406343460083e-02
-7.752439379692077637e-02
-5.190461408346891403e-03
1.367641054093837738e-02
-5.801648274064064026e-02
-2.581533417105674744e-02
2.314347773790359497e-02
5.868498119525611401e-04
4.807004332542419434e-02
1.371287181973457336e-02
-1.093772589229047298e-03
1.330879181623458862e-01
-6.887766532599925995e-03
-9.247537702322006226e-02
-6.325390934944152832e-02
-2.179309260100126266e-03
-5.144760385155677795e-02
-1.753985881805419922e-01
-2.818969078361988068e-02
-5.017186328768730164e-02
-8.613593876361846924e-02
-1.589088328182697296e-02
4.669227078557014465e-02
-9.055382758378982544e-02
2.436540788039565086e-03
-4.573676362633705139e-02
-1.755528450012207031e-01
-1.503429263830184937e-01
-1.405817866325378418e-01
-8.945351839065551758e-02
-5.698440968990325928e-02
-7.823373377323150635e-02
8.290234208106994629e-02
1.021507829427719116e-01
9.557574987411499023e-02
7.865770906209945679e-02
1.804333329200744629e-01
6.983955204486846924e-02
4.139794409275054932e-02
2.564621903002262115e-02
2.171451039612293243e-02
2.895485376939177513e-03
8.423678576946258545e-02
7.068675011396408081e-02
1.000342518091201782e-01
4.267253726720809937e-02
1.709108357317745686e-03
2.478736639022827148e-02
-1.891489326953887939e-02
3.709692135453224182e-02
3.706684336066246033e-02
7.909070700407028198e-04
1.404701173305511475e-02
1.695159524679183960e-01
8.543221652507781982e-02
5.766244139522314072e-03
1.060372963547706604e-01
1.219048053026199341e-01
7.396168261766433716e-02
1.380438804626464844e-01
1.569340974092483521e-01
1.348668187856674194e-01
1.480581611394882202e-01
1.227249503135681152e-01
1.483112722635269165e-01
6.753737479448318481e-02
9.042380377650260925e-03
-3.156805410981178284e-03
-3.265803679823875427e-02
3.030340746045112610e-02
4.552946984767913818e-02
-3.223852068185806274e-02
-6.363809108734130859e-02
-4.105004016309976578e-03
-3.784827515482902527e-02
-7.514264434576034546e-02
-3.794403374195098877e-02
9.402653202414512634e-03
3.006806969642639160e-02
-1.217371877282857895e-02
5.110445991158485413e-02
-4.108031094074249268e-02
-1.490600407123565674e-01
4.745438636746257544e-04
-2.564260363578796387e-02
-1.235022246837615967e-01
-9.315801411867141724e-02
-4.381944425404071808e-03
4.823976755142211914e-02
-1.523109525442123413e-01
4.638975486159324646e-02
1.605843007564544678e-01
-7.093710452318191528e-02
-9.478425607085227966e-03
6.071535125374794006e-02
-6.872468441724777222e-02
-6.768787652254104614e-02
-2.471643500030040741e-02
-1.087673231959342957e-01
-3.301712498068809509e-02
-3.029315359890460968e-02
-7.051987946033477783e-02
-3.543914481997489929e-02
-2.101572416722774506e-02
-5.684292688965797424e-02
-1.878875424154102802e-03
-7.094895467162132263e-03
-3.649518266320228577e-02
-9.701179713010787964e-02
-1.298175156116485596e-01
-5.105037987232208252e-02
-1.292326003313064575e-01
-1.418906599283218384e-01
1.312289107590913773e-02
-7.176512852311134338e-03
1.049299463629722595e-01
-3.571094200015068054e-02
1.049018502235412598e-01
8.247125148773193359e-02
4.253391176462173462e-02
1.534173935651779175e-01
3.771483525633811951e-02
-1.136717759072780609e-02
-1.920253597199916840e-02
-3.464451804757118225e-02
8.451716601848602295e-02
-6.342836469411849976e-02
-4.017757624387741089e-02
1.200706735253334045e-01
-8.486679196357727051e-02
-1.129926517605781555e-01
-5.565452575683593750e-02
-9.457590430974960327e-02
-1.912850141525268555e-02
-5.154690518975257874e-02
-6.916570663452148438e-02
-8.119370043277740479e-02
-5.938994139432907104e-02
-7.900666445493698120e-02
-1.173057556152343750e-01
-4.884868115186691284e-02
1.139510422945022583e-01
1.133074313402175903e-01
-2.864567376673221588e-02
1.360038518905639648e-01
1.341286450624465942e-01
-7.014236599206924438e-02
9.203388541936874390e-02
6.575883179903030396e-02
-8.905333280563354492e-02
-1.770939230918884277e-01
3.058270737528800964e-02
1.235839128494262695e-01
-7.107502967119216919e-02
6.771473586559295654e-02
3.671419620513916016e-02
6.404808908700942993e-02
3.286436945199966431e-02
-1.546812951564788818e-01
-1.090385019779205322e-02
4.216343536972999573e-02
-9.919597953557968140e-02
-7.714589685201644897e-02
-1.773799210786819458e-02
-1.168293952941894531e-01
-2.277598530054092407e-02
-2.535801567137241364e-02
-1.135329809039831161e-02
-1.999308541417121887e-02
4.646705090999603271e-02
-1.137189790606498718e-01
-3.405572846531867981e-02
3.910559788346290588e-02
-7.489236444234848022e-02
-2.682950533926486969e-02
-1.264110058546066284e-01
-1.210018177516758442e-03
-7.415793091058731079e-02
-2.400142513215541840e-02
5.287140607833862305e-02
4.108905047178268433e-02
1.250112801790237427e-01
6.893878430128097534e-02
7.268591225147247314e-02
1.221593841910362244e-01
-2.846993738785386086e-03
-6.602719426155090332e-02
9.296788275241851807e-02
-2.559463120996952057e-02
-8.214561641216278076e-02
2.614041604101657867e-02
-2.774931117892265320e-02
-1.596312411129474640e-02
4.751333966851234436e-03
-2.166558615863323212e-02
-9.731838852167129517e-02
-2.693535201251506805e-02
-6.897742860019207001e-03
-9.213446080684661865e-02
-8.421973139047622681e-02
-4.184253048151731491e-03
-4.124369844794273376e-02
-4.087038710713386536e-02
4.655619710683822632e-02
9.847676008939743042e-02
-1.162978727370500565e-02
1.615364998579025269e-01
1.345975100994110107e-01
1.029827520251274109e-01
1.043373197317123413e-01
8.970146626234054565e-02
5.462898686528205872e-02
2.105576545000076294e-02
1.100306287407875061e-01
1.114793047308921814e-01
8.477023988962173462e-02
9.026826918125152588e-02
1.580608822405338287e-02
4.815442115068435669e-02
1.210272684693336487e-02
-3.615769743919372559e-02
8.454190939664840698e-02
1.756571084260940552e-01
-2.296717837452888489e-02
1.919862255454063416e-02
2.071047127246856689e-01
-8.234763517975807190e-03
1.690028235316276550e-02
1.433116793632507324e-01
-2.540722489356994629e-02
-8.275260031223297119e-02
-1.175830885767936707e-01
-6.618404388427734375e-02
-1.665546298027038574e-01
-4.268342256546020508e-02
2.082873135805130005e-02
-1.054945960640907288e-01
1.425657700747251511e-02
-6.157809402793645859e-04
9.233321249485015869e-02
1.023138239979743958e-01
8.266380056738853455e-03
-3.619530051946640015e-02
1.136243715882301331e-01
7.287668436765670776e-02
2.513871490955352783e-01
2.851773984730243683e-02
-4.854176938533782959e-02
9.463182091712951660e-02
-1.889773644506931305e-02
-7.765249907970428467e-02
-2.372869104146957397e-02
2.169838100671768188e-01
1.203814744949340820e-01
9.282825887203216553e-02
5.370545387268066406e-02
1.037833839654922485e-01
-2.378815598785877228e-02
-2.592698298394680023e-02
-2.134152501821517944e-02
-7.317574322223663330e-02
-7.122217118740081787e-02
9.613484144210815430e-03
4.610629985108971596e-04
-1.720163505524396896e-03
-1.984800212085247040e-02
-1.107224300503730774e-01
-4.720582440495491028e-02
-1.170905753970146179e-01
-5.877753719687461853e-02
2.814080566167831421e-03
-1.013476178050041199e-01
