# (32, 16, 3, 3)
-5.575721710920333862e-02
-8.139332383871078491e-02
-9.035053104162216187e-02
-6.994903087615966797e-02
-5.813839659094810486e-02
-3.414871916174888611e-02
-5.945035070180892944e-02
-1.861664466559886932e-02
2.066993899643421173e-02
1.597327925264835358e-02
2.800753153860569000e-02
9.072153829038143158e-03
4.119137674570083618e-02
-2.598744072020053864e-02
-5.699214711785316467e-02
-1.416627131402492523e-02
-4.387379437685012817e-02
-1.950853504240512848e-02
3.450378030538558960e-02
-2.092165406793355942e-03
-1.182559039443731308e-02
4.035974666476249695e-02
4.342920333147048950e-02
-3.333050385117530823e-02
5.900764837861061096e-02
2.221253886818885803e-02
-1.002221405506134033e-01
3.862648829817771912e-02
-5.684219766408205032e-03
4.436608776450157166e-02
7.286541163921356201e-02
-5.863965023308992386e-03
1.185676921159029007e-02
3.687498345971107483e-02
-3.844379633665084839e-02
4.953865706920623779e-02
-1.736839301884174347e-02
4.696334712207317352e-03
6.405281834304332733e-03
-4.500818252563476562e-02
-2.315377444028854370e-02
2.654642052948474884e-02
-6.161558628082275391e-02
-9.158258885145187378e-02
-2.139344811439514160e-02
3.976006433367729187e-02
2.436289936304092407e-02
3.873747587203979492e-02
6.311652809381484985e-02
2.154336310923099518e-02
2.988560125231742859e-03
4.518103972077369690e-02
3.176350519061088562e-02
-3.172434121370315552e-02
-7.968012243509292603e-02
-1.209094375371932983e-01
-7.604254782199859619e-02
-2.915465086698532104e-02
-8.786305040121078491e-02
-1.623102277517318726e-02
-1.369124278426170349e-03
-2.665176242589950562e-02
4.040302708745002747e-02
-4.674116149544715881e-02
-4.535538330674171448e-02
2.864179760217666626e-02
-1.175162941217422485e-01
8.506104350090026855e-03
6.519931834191083908e-03
-1.025745719671249390e-01
-9.750650264322757721e-03
4.230441153049468994e-02
1.135600358247756958e-02
3.587679192423820496e-02
6.637018173933029175e-02
-4.968852549791336060e-02
7.721965201199054718e-03
1.827299594879150391e-02
-7.177092880010604858e-02
-2.291995659470558167e-02
4.179891198873519897e-02
-1.146108470857143402e-02
-4.903711751103401184e-02
2.269420539960265160e-03
2.856404753401875496e-03
-2.334923110902309418e-02
1.175850480794906616e-01
4.996919631958007812e-02
2.601310424506664276e-02
1.177762895822525024e-01
-5.584354698657989502e-02
-4.399565607309341431e-02
4.295598715543746948e-02
-4.341072961688041687e-02
-7.380702346563339233e-02
3.430504724383354187e-02
-3.926347941160202026e-02
1.695496216416358948e-02
4.234893713146448135e-03
-2.274709567427635193e-02
-9.285767376422882080e-02
-4.909522458910942078e-02
-1.381594315171241760e-02
-8.792153745889663696e-02
-6.574904173612594604e-02
-6.212358549237251282e-02
-3.982656449079513550e-02
-5.119361914694309235e-03
-3.488422557711601257e-02
-8.492895960807800293e-02
-6.754338741302490234e-02
-1.938598416745662689e-02
-1.871295459568500519e-02
-4.830859601497650146e-02
-3.623382002115249634e-02
3.899578005075454712e-02
1.541636884212493896e-02
4.228321835398674011e-03
3.450335934758186340e-02
4.147518798708915710e-02
-5.617638118565082550e-03
2.187053114175796509e-02
3.367885202169418335e-02
4.727247357368469238e-02
-8.611376397311687469e-04
7.947821170091629028e-02
7.237602025270462036e-02
8.606774359941482544e-02
3.613642975687980652e-02
1.438850611448287964e-01
4.701532423496246338e-02
-2.277307398617267609e-02
9.703778475522994995e-02
6.383191049098968506e-02
-7.526417821645736694e-02
-7.346772402524948120e-02
-7.648728322237730026e-03
-5.906268581748008728e-02
-5.458941310644149780e-02
-5.905540660023689270e-02
-5.027459934353828430e-02
-3.438780456781387329e-02
-3.896053880453109741e-02
6.221078336238861084e-03
6.338685750961303711e-02
-7.271417975425720215e-02
-1.382167339324951172e-01
3.226288035511970520e-02
3.741555660963058472e-02
-4.363283514976501465e-02
6.486501544713973999e-02
9.053572267293930054e-02
-1.017030607908964157e-02
-5.273016914725303650e-02
-6.399978697299957275e-02
1.381506584584712982e-02
-7.236205041408538818e-02
1.143196672201156616e-01
1.300612688064575195e-01
7.821415364742279053e-02
2.032960802316665649e-01
4.464136809110641479e-02
7.845188491046428680e-03
7.353407796472311020e-03
4.553257673978805542e-02
6.651910394430160522e-02
2.482874877750873566e-02
-1.060086712241172791e-01
-7.036364078521728516e-02
-8.571548014879226685e-02
-1.007439345121383667e-01
-5.148898437619209290e-02
5.515258759260177612e-02
5.171507969498634338e-02
-8.438096940517425537e-02
1.212380602955818176e-01
5.270148813724517822e-02
9.614704549312591553e-02
1.805119365453720093e-01
3.484089300036430359e-02
-1.085167005658149719e-01
-6.049239635467529297e-02
3.107707947492599487e-02
-4.788462817668914795e-02
6.790619343519210815e-02
1.159692704677581787e-01
-3.971700742840766907e-02
1.011423692107200623e-01
1.563466154038906097e-02
6.525795161724090576e-02
5.345344915986061096e-02
1.021541059017181396e-01
-9.578372538089752197e-02
2.687901444733142853e-02
6.512899417430162430e-04
-1.092306673526763916e-01
-1.180851384997367859e-01
-3.032552264630794525e-02
1.006117239594459534e-01
-3.424687311053276062e-02
-1.830417066812515259e-01
1.221780255436897278e-01
5.345370993018150330e-02
-6.091048195958137512e-02
9.087736159563064575e-02
5.416501080617308617e-04
-2.351536788046360016e-02
-8.806266635656356812e-02
-1.861108612501993775e-04
4.790175333619117737e-02
-6.793891638517379761e-02
8.667846769094467163e-02
-5.674764141440391541e-02
-9.632294625043869019e-02
-1.031707376241683960e-01
-5.946157500147819519e-02
-4.116725176572799683e-02
-2.158079668879508972e-02
8.483206480741500854e-02
1.635660417377948761e-02
1.219448670744895935e-01
7.689314335584640503e-02
1.269646175205707550e-02
1.726663112640380859e-01
3.033347427845001221e-03
1.040652468800544739e-01
9.089673310518264771e-02
-1.075525302439928055e-02
-2.530269557610154152e-03
4.177061095833778381e-02
-1.091899257153272629e-02
-1.945778429508209229e-01
-1.665782928466796875e-01
-7.791768014430999756e-02
-9.578972309827804565e-02
8.853602223098278046e-03
4.089653864502906799e-02
-1.677251420915126801e-02
-5.777615681290626526e-02
-3.548154234886169434e-02
1.186866536736488342e-01
5.681914091110229492e-02
-7.727438956499099731e-02
-1.903115212917327881e-02
1.263757888227701187e-02
-1.326748132705688477e-01
2.236250489950180054e-01
1.503922343254089355e-01
-8.778551965951919556e-02
1.526316106319427490e-01
-2.701640687882900238e-02
-1.415833532810211182e-01
1.921863555908203125e-01
1.515657603740692139e-01
7.621380686759948730e-02
4.106317460536956787e-02
2.366789616644382477e-03
-1.080848202109336853e-01
-1.453506052494049072e-01
-1.329248994588851929e-01
-5.982473120093345642e-02
-3.484364971518516541e-02
5.408309772610664368e-02
1.359547525644302368e-01
-6.221927329897880554e-02
-5.642151925712823868e-03
9.664757549762725830e-02
-1.985687017440795898e-01
-1.236238479614257812e-01
6.262198835611343384e-02
-2.800769731402397156e-02
1.552263200283050537e-01
2.161844819784164429e-01
-1.541065126657485962e-01
-9.387939423322677612e-02
3.065103292465209961e-02
-1.525492668151855469e-01
3.667365387082099915e-02
3.165374696254730225e-02
-6.017409265041351318e-02
-9.352000802755355835e-02
-1.119208782911300659e-01
-4.854737315326929092e-03
-5.054580420255661011e-02
-1.960883438587188721e-01
1.133196875452995300e-01
-2.337984624318778515e-04
-4.420599713921546936e-02
-2.653557748999446630e-04
-1.699007488787174225e-02
5.027946084737777710e-03
6.024331226944923401e-02
1.078736484050750732e-01
1.021882370114326477e-01
-6.128512695431709290e-02
-5.548114888370037079e-03
2.557123266160488129e-02
7.207624614238739014e-02
6.517012417316436768e-02
2.567042596638202667e-02
-2.084571681916713715e-02
6.280340254306793213e-02
6.796841323375701904e-02
-6.824940443038940430e-02
-7.248198240995407104e-02
-3.553924337029457092e-02
-4.451706260442733765e-02
-9.365835785865783691e-02
-1.017287597060203552e-01
1.735969819128513336e-02
6.356901675462722778e-02
4.981613904237747192e-02
1.635348983108997345e-02
3.848996013402938843e-03
4.695224016904830933e-02
-1.225883420556783676e-02
-2.141140634194016457e-03
3.708247467875480652e-02
-3.235161304473876953e-02
-2.481689490377902985e-02
-5.268627032637596130e-02
-2.483781427145004272e-03
-2.283037267625331879e-02
-5.059529095888137817e-03
2.020846877712756395e-04
4.809021949768066406e-02
2.745998091995716095e-03
5.964806675910949707e-02
-1.339981984347105026e-02
-2.440988644957542419e-02
-2.784803323447704315e-02
-1.674178801476955414e-02
-2.580467844381928444e-03
-1.190703921020030975e-02
9.078804403543472290e-03
-1.092357188463211060e-02
-4.957577958703041077e-02
-2.407449483871459961e-02
2.040130458772182465e-02
-4.331622645258903503e-02
-3.741772100329399109e-02
1.724207401275634766e-02
-2.642950601875782013e-02
4.291058331727981567e-02
1.011899858713150024e-01
3.578580915927886963e-02
1.229283362627029419e-01
7.476153224706649780e-02
-2.823257632553577423e-02
2.001897804439067841e-02
-1.746645756065845490e-02
1.816604472696781158e-02
-5.582426860928535461e-02
-5.644330382347106934e-02
6.221541762351989746e-02
2.833335846662521362e-02
-1.689012721180915833e-02
-2.368779107928276062e-02
-4.202578682452440262e-03
-2.436449006199836731e-02
-1.228457968682050705e-02
-1.033744961023330688e-02
-1.805975101888179779e-02
-9.431159123778343201e-03
-3.197699785232543945e-02
-8.654413372278213501e-02
8.411399275064468384e-02
6.311170756816864014e-03
-2.711072564125061035e-02
-3.868126124143600464e-02
3.944627940654754639e-02
3.287915885448455811e-02
-2.893369272351264954e-02
-2.509447000920772552e-02
8.296546875499188900e-04
-2.275158651173114777e-02
-5.971946567296981812e-02
-2.897407487034797668e-02
-7.235898822546005249e-02
-2.986590005457401276e-02
-5.763272568583488464e-02
1.745727285742759705e-02
2.552901953458786011e-02
-2.571522258222103119e-02
6.102164089679718018e-02
4.575655236840248108e-02
-3.506746888160705566e-02
-1.374740004539489746e-01
-1.189424619078636169e-01
2.691661007702350616e-02
-1.525943540036678314e-02
-1.948892883956432343e-02
-3.824747726321220398e-02
9.164448082447052002e-02
9.495629370212554932e-02
6.102737784385681152e-02
-3.687737509608268738e-02
-4.719118401408195496e-02
4.551342502236366272e-02
-4.730500280857086182e-02
-1.712556369602680206e-02
-2.241914160549640656e-02
-9.333850443363189697e-02
5.211553070694208145e-03
-4.116586933378130198e-04
4.105905070900917053e-02
1.713856495916843414e-02
-7.569333538413047791e-03
8.677991107106208801e-03
-4.188371449708938599e-02
-1.579995825886726379e-02
-3.022051183506846428e-03
-7.103926688432693481e-02
-5.309362709522247314e-02
6.769238412380218506e-02
2.201448753476142883e-02
-2.311210706830024719e-02
-4.396909102797508240e-02
-2.504776045680046082e-02
-1.667317375540733337e-02
-1.999840140342712402e-02
-8.889246731996536255e-02
-7.036110013723373413e-02
-2.466824278235435486e-02
-3.198147565126419067e-02
-7.989231497049331665e-02
8.264435082674026489e-02
1.236930564045906067e-01
1.463882923126220703e-01
6.614928599447011948e-03
2.059398218989372253e-02
-3.208918124437332153e-02
-4.185116291046142578e-02
1.713752560317516327e-02
5.417203530669212341e-03
3.673161193728446960e-02
4.748636856675148010e-03
-6.772298365831375122e-03
7.028800994157791138e-02
1.980563625693321228e-02
-4.927067831158638000e-02
-2.713547460734844208e-02
2.647849032655358315e-03
5.476683378219604492e-02
2.396883629262447357e-02
3.411163017153739929e-02
6.284632533788681030e-02
-3.264214145019650459e-03
1.918897032737731934e-02
1.104259304702281952e-02
-6.082040071487426758e-02
-5.670068413019180298e-02
2.155708335340023041e-02
-2.379683963954448700e-02
-1.112990733236074448e-02
1.280388515442609787e-02
3.217956051230430603e-02
1.161691267043352127e-02
-4.750758782029151917e-02
3.043797798454761505e-02
1.769658178091049194e-02
-1.311711128801107407e-02
1.406902354210615158e-02
-4.675578698515892029e-02
-3.063342906534671783e-02
6.622595712542533875e-03
1.424180530011653900e-02
2.751462860032916069e-03
-3.038195520639419556e-02
-5.340446159243583679e-02
1.713521778583526611e-02
-6.063457950949668884e-02
8.692994713783264160e-02
8.224686980247497559e-02
4.854779690504074097e-03
2.192049659788608551e-02
-1.771108247339725494e-02
-1.052301973104476929e-01
-6.323090940713882446e-02
2.720738947391510010e-02
-6.480614840984344482e-02
7.061363756656646729e-02
9.664051234722137451e-02
4.320703819394111633e-02
5.143442749977111816e-02
5.860288813710212708e-02
-1.654637604951858521e-02
-2.747466787695884705e-02
-1.248382702469825745e-01
-6.408792920410633087e-03
-5.100537836551666260e-02
-1.460333168506622314e-01
2.755584381520748138e-02
-9.190369397401809692e-02
-5.973875150084495544e-02
4.531737416982650757e-03
-5.495558679103851318e-02
3.144050016999244690e-02
-1.051699146628379822e-01
3.192958980798721313e-02
4.440200701355934143e-02
-4.899893421679735184e-03
6.591731309890747070e-02
1.395388739183545113e-03
4.174800962209701538e-02
2.351401001214981079e-02
-7.507316302508115768e-03
3.523833677172660828e-02
-8.433984592556953430e-03
6.649219244718551636e-02
-5.948610603809356689e-02
2.203904837369918823e-02
1.173222530633211136e-02
3.707291930913925171e-02
-3.591522201895713806e-02
-2.889798767864704132e-02
2.159462310373783112e-02
-3.062942996621131897e-02
-2.003185264766216278e-02
-4.154370352625846863e-02
6.181413307785987854e-02
3.125345706939697266e-02
-3.825382795184850693e-03
-1.915019750595092773e-02
-6.773234903812408447e-02
2.467263257130980492e-03
-1.811133511364459991e-02
-8.512075245380401611e-02
-6.127829197794198990e-03
-1.755869574844837189e-02
1.090032048523426056e-02
-3.185445070266723633e-02
3.932096064090728760e-02
-1.124833337962627411e-02
-2.783674746751785278e-02
-6.384679675102233887e-02
-5.940858647227287292e-02
-5.304902419447898865e-02
-1.012880504131317139e-01
-8.862076699733734131e-02
1.064908574335277081e-03
-6.483391672372817993e-02
-4.921957477927207947e-02
-3.507623821496963501e-02
-5.431477352976799011e-02
-6.566411256790161133e-02
8.785379119217395782e-03
-2.805194817483425140e-02
-5.179597064852714539e-02
8.428123593330383301e-02
-4.805050417780876160e-02
-4.225014708936214447e-03
-2.852751314640045166e-02
1.630697282962501049e-03
1.050189062952995300e-01
-3.011119365692138672e-02
3.719392791390419006e-02
4.263715818524360657e-02
-1.201753597706556320e-02
3.011613339185714722e-02
9.430967271327972412e-02
3.200701996684074402e-02
9.655570983886718750e-02
7.019094377756118774e-02
5.566733330488204956e-02
1.185999140143394470e-01
1.000650785863399506e-02
-3.748775646090507507e-02
1.926253363490104675e-02
-1.309473626315593719e-02
7.526692468672990799e-03
3.580110520124435425e-02
-4.259613901376724243e-02
1.779479905962944031e-02
-3.446197509765625000e-02
-1.704181917011737823e-02
-6.912416219711303711e-02
-1.026250720024108887e-01
-7.873037457466125488e-02
-5.650820210576057434e-02
-8.856636285781860352e-02
-4.982266947627067566e-02
-9.302204474806785583e-03
-1.619386672973632812e-02
-1.479779719375073910e-03
3.846778720617294312e-02
-3.590599074959754944e-02
-5.946783721446990967e-02
5.415914952754974365e-02
3.697697445750236511e-02
3.540143743157386780e-02
2.084651961922645569e-02
1.614472866058349609e-01
3.780150786042213440e-02
-1.634748466312885284e-02
-1.504509360529482365e-03
-1.243769973516464233e-01
2.461285330355167389e-02
-6.808182597160339355e-02
-1.291950196027755737e-01
-6.328344345092773438e-02
5.033254157751798630e-03
-9.874641150236129761e-02
7.081345468759536743e-02
3.251942247152328491e-02
2.135110087692737579e-02
-1.241514808498322964e-03
6.444403529167175293e-02
7.310213148593902588e-02
-3.616078197956085205e-02
4.042775928974151611e-02
4.012591391801834106e-02
-2.212735638022422791e-02
2.080045640468597412e-02
2.069680392742156982e-02
2.288029342889785767e-02
9.140241146087646484e-02
-4.666105285286903381e-02
1.326036900281906128e-01
5.552992597222328186e-02
-3.546189144253730774e-02
5.654821917414665222e-02
7.592570781707763672e-02
1.150242798030376434e-02
5.196565017104148865e-02
2.719942852854728699e-02
2.085230872035026550e-02
-6.026308983564376831e-02
1.639794185757637024e-02
-3.778656944632530212e-02
2.325248531997203827e-02
5.607749521732330322e-02
-5.230243876576423645e-02
1.997952582314610481e-03
-1.277068629860877991e-02
-4.399725422263145447e-02
-7.687519490718841553e-02
-8.690812438726425171e-02
4.024979472160339355e-02
-9.836065024137496948e-02
-5.323245190083980560e-03
-4.647408798336982727e-02
8.155030012130737305e-02
-1.790189556777477264e-02
-6.100502610206604004e-02
7.422688603401184082e-02
5.581058189272880554e-02
-7.242017984390258789e-02
-4.578197747468948364e-02
4.262873437255620956e-03
-1.717125065624713898e-02
-2.834450267255306244e-02
3.973609581589698792e-02
-5.822701379656791687e-02
1.141652166843414307e-01
9.225375205278396606e-02
-3.240716084837913513e-02
3.235002607107162476e-02
1.291208267211914062e-01
1.932407766580581665e-01
6.122080981731414795e-02
8.305929601192474365e-02
8.718901127576828003e-02
-1.810145936906337738e-02
9.462633170187473297e-03
2.924892678856849670e-02
8.574545383453369141e-03
3.112410381436347961e-02
-1.105242501944303513e-02
-2.239701338112354279e-02
1.212015841156244278e-02
-8.730728924274444580e-02
-1.523134298622608185e-02
-5.880282819271087646e-02
-5.157427117228507996e-02
4.057140275835990906e-02
3.111045807600021362e-03
-3.814957290887832642e-02
-3.156518936157226562e-02
-1.172425784170627594e-02
-4.584097862243652344e-02
-4.451556503772735596e-02
-9.717166423797607422e-02
-4.495840519666671753e-02
3.688880708068609238e-03
1.465566754341125488e-01
4.014269262552261353e-02
1.705491170287132263e-02
9.811228141188621521e-03
2.418623119592666626e-02
-1.061736568808555603e-01
-7.715471554547548294e-03
4.004530981183052063e-02
-6.125536933541297913e-02
9.331059455871582031e-02
4.155460745096206665e-02
3.650812804698944092e-02
8.649878203868865967e-02
3.937229886651039124e-02
-2.459129877388477325e-02
7.904826849699020386e-02
1.205561459064483643e-01
7.186958193778991699e-02
5.656060948967933655e-02
1.006520688533782959e-01
4.227321594953536987e-02
7.699983566999435425e-02
-2.945272065699100494e-02
-9.703942388296127319e-02
1.158077493309974670e-01
1.348200067877769470e-02
-8.729830384254455566e-02
-7.419367879629135132e-02
-6.393072754144668579e-02
-7.853694260120391846e-04
-4.462421685457229614e-02
-6.995995342731475830e-02
-1.673954352736473083e-02
-1.087957099080085754e-01
-5.124431848526000977e-02
2.546730637550354004e-02
1.895896904170513153e-02
-4.620857536792755127e-02
1.082775518298149109e-01
5.041440203785896301e-02
-1.516343839466571808e-02
-3.854124248027801514e-02
-1.494676806032657623e-02
2.074366807937622070e-02
5.015494301915168762e-02
4.038508515805006027e-03
-3.180377557873725891e-02
8.293772488832473755e-02
7.009145617485046387e-02
-1.418910175561904907e-01
-9.355515986680984497e-02
-2.244723029434680939e-03
-3.492602333426475525e-02
-5.103387404233217239e-03
2.467344515025615692e-02
-1.110893135773949325e-04
9.873644262552261353e-02
9.910332411527633667e-02
7.184955291450023651e-03
-3.843305259943008423e-02
2.978967130184173584e-02
-8.641444146633148193e-03
7.109698839485645294e-03
2.357622608542442322e-02
6.365664303302764893e-02
-2.423777943477034569e-03
-3.847879916429519653e-02
6.072244048118591309e-02
5.212820321321487427e-02
6.332051008939743042e-02
3.679141029715538025e-02
1.308269985020160675e-02
-6.711265444755554199e-02
-7.320776581764221191e-02
6.656667590141296387e-02
7.770813256502151489e-02
-1.319151818752288818e-01
-5.223494768142700195e-02
2.261988818645477295e-02
-2.209452353417873383e-02
-7.802566885948181152e-02
2.501389756798744202e-02
-5.486102029681205750e-02
-3.515053167939186096e-02
2.331650815904140472e-02
2.186256647109985352e-02
-1.741313338279724121e-01
-5.811965838074684143e-02
2.505761198699474335e-02
1.176534295082092285e-01
4.971459135413169861e-02
2.459666458889842033e-03
1.165189035236835480e-02
8.470346033573150635e-02
-3.567577153444290161e-02
-3.450632467865943909e-02
-2.507324330508708954e-02
-4.309970140457153320e-02
-5.655489396303892136e-03
-2.139499783515930176e-02
-4.437264800071716309e-02
-7.833221927285194397e-03
-2.313983812928199768e-02
5.052861291915178299e-03
-1.157900318503379822e-01
-8.089891821146011353e-02
-3.984346240758895874e-02
-2.993361465632915497e-02
-9.878320991992950439e-02
-3.896652534604072571e-02
8.205083012580871582e-02
2.635036036372184753e-02
-6.767608970403671265e-02
8.377251215279102325e-03
-2.213473059237003326e-02
-9.036992490291595459e-02
-7.404899690300226212e-03
4.311749711632728577e-03
-4.451889917254447937e-02
-2.399563044309616089e-02
2.329997532069683075e-02
8.827633410692214966e-02
-3.927528485655784607e-02
3.123061917722225189e-02
1.253097355365753174e-01
1.842235028743743896e-02
-2.945364639163017273e-02
-2.995476499199867249e-02
1.120240539312362671e-01
-2.307174727320671082e-02
-4.381343722343444824e-02
1.143438965082168579e-01
6.321774423122406006e-02
-1.438347399234771729e-01
4.004452377557754517e-02
-6.162697076797485352e-02
-6.833710521459579468e-02
1.596042215824127197e-01
6.110352650284767151e-02
-3.136014938354492188e-02
1.092121601104736328e-01
8.687219768762588501e-02
-2.292016521096229553e-02
-9.071443229913711548e-03
1.809978298842906952e-02
3.100050054490566254e-02
3.259883821010589600e-02
1.195153594017028809e-01
1.083628907799720764e-01
4.125664755702018738e-02
-1.000751974061131477e-03
1.427039038389921188e-02
-2.081234194338321686e-02
-2.766300551593303680e-02
-2.724425867199897766e-02
-8.478356525301933289e-03
-3.153194114565849304e-02
4.848522320389747620e-02
-6.275834143161773682e-02
-4.612773284316062927e-02
6.068374961614608765e-02
-5.682675540447235107e-02
1.287766732275485992e-02
-8.392198942601680756e-03
-2.904206141829490662e-02
5.109831318259239197e-02
-3.755009034648537636e-03
1.063247211277484894e-02
4.776857048273086548e-02
3.468514606356620789e-02
3.627205267548561096e-02
3.993315994739532471e-02
2.990725450217723846e-02
3.653214871883392334e-02
7.815299183130264282e-02
1.348883658647537231e-02
-1.374073475599288940e-01
-1.005802303552627563e-01
1.442011911422014236e-02
2.289743162691593170e-02
-4.539390280842781067e-02
-9.124579280614852905e-02
2.056463994085788727e-02
-2.806873619556427002e-02
8.465029299259185791e-03
-3.461521118879318237e-02
-1.866494305431842804e-02
-1.459273789077997208e-02
-1.305461861193180084e-02
-1.474259141832590103e-02
2.971340715885162354e-02
7.824823260307312012e-02
9.860756108537316322e-04
-2.174298651516437531e-02
1.948020234704017639e-02
-8.710490167140960693e-02
-5.610663443803787231e-02
-3.265884518623352051e-02
-8.851604536175727844e-03
1.185016632080078125e-01
-5.509147047996520996e-02
4.544513672590255737e-02
9.793897718191146851e-02
-8.749961107969284058e-02
7.499148696660995483e-02
7.116053998470306396e-02
2.271875552833080292e-02
7.651492208242416382e-02
-3.816958516836166382e-02
4.704512655735015869e-02
5.056117102503776550e-02
-7.374341948889195919e-04
7.102780789136886597e-02
3.724640607833862305e-02
-3.439123928546905518e-02
-2.875683270394802094e-02
3.719726204872131348e-02
-1.248710323125123978e-02
7.377889007329940796e-02
-5.958906188607215881e-02
-5.513283237814903259e-02
1.977035775780677795e-02
-6.750845164060592651e-02
-2.527785114943981171e-02
-2.785808220505714417e-02
3.317851200699806213e-02
1.564078629016876221e-01
-1.220718398690223694e-02
-2.719279751181602478e-02
1.360349804162979126e-01
-1.120499297976493835e-01
-3.365747258067131042e-02
4.851411655545234680e-02
1.069089546799659729e-01
-3.603643551468849182e-02
-1.359864920377731323e-01
7.016249001026153564e-02
-5.879471544176340103e-03
-2.191046020016074181e-03
-3.389476612210273743e-02
5.752651020884513855e-03
-2.228660508990287781e-02
-8.455994538962841034e-03
-3.034052997827529907e-02
-3.239155560731887817e-02
-1.492452807724475861e-02
-5.371565744280815125e-02
-1.168949436396360397e-02
9.415214881300926208e-03
-7.510188221931457520e-02
-3.015494905412197113e-02
4.711076326202601194e-04
-4.290328174829483032e-02
1.480146194808185101e-03
8.112963289022445679e-02
-1.524138078093528748e-02
-1.139159034937620163e-02
9.132470190525054932e-02
-9.651241824030876160e-03
-5.238668993115425110e-02
3.625486791133880615e-02
4.571908153593540192e-03
-3.989295288920402527e-02
4.367960989475250244e-02
2.734580077230930328e-02
-4.052785784006118774e-02
6.028695032000541687e-03
8.456744253635406494e-03
4.348745197057723999e-02
9.529243223369121552e-03
-6.848859786987304688e-02
-1.218694522976875305e-01
1.341998949646949768e-02
-6.936737149953842163e-02
-6.003233790397644043e-02
-1.310018356889486313e-02
-5.307648703455924988e-02
-3.742405772209167480e-02
2.327122166752815247e-02
-7.848468422889709473e-02
-9.787364304065704346e-02
-6.697070202790200710e-04
-5.587083473801612854e-02
-3.389493003487586975e-02
-8.007001876831054688e-02
-5.195269361138343811e-02
2.143984427675604820e-03
4.233733937144279480e-02
7.503543049097061157e-02
-8.184847421944141388e-03
-7.781452732160687447e-04
1.747575961053371429e-02
-2.880897931754589081e-02
-1.394469384104013443e-02
4.737248271703720093e-02
3.712242469191551208e-02
4.566758498549461365e-02
2.835256978869438171e-02
-2.944323001429438591e-03
1.024764776229858398e-01
-3.376602753996849060e-02
5.153313279151916504e-02
2.709440886974334717e-02
-6.770742125809192657e-03
-5.644633993506431580e-02
-6.466491520404815674e-02
8.108364790678024292e-02
8.647897839546203613e-02
1.663691364228725433e-02
1.533688008785247803e-01
5.716090649366378784e-02
-1.893281564116477966e-02
1.120021790266036987e-01
5.432971194386482239e-02
4.014727845788002014e-02
-6.617729365825653076e-02
-4.573418945074081421e-02
-3.116411529481410980e-02
-1.312576886266469955e-02
2.795646199956536293e-03
-6.889371573925018311e-02
-2.079957164824008942e-02
2.018873207271099091e-02
-2.566051296889781952e-02
-3.867858648300170898e-02
-3.504097834229469299e-02
5.750733986496925354e-02
4.076928272843360901e-02
-2.003312855958938599e-02
-8.467525988817214966e-02
-4.633514210581779480e-02
-1.200312282890081406e-02
-3.155913669615983963e-03
-5.041418597102165222e-02
-2.866932749748229980e-02
-4.175694659352302551e-02
4.912487231194972992e-03
5.330661684274673462e-02
-4.070468991994857788e-02
9.652766399085521698e-03
-1.270068157464265823e-02
4.239032045006752014e-03
4.650762677192687988e-02
9.208300709724426270e-02
-5.533146113157272339e-02
-7.302847504615783691e-02
-6.272114813327789307e-02
6.163092795759439468e-03
2.796127274632453918e-02
-1.070531457662582397e-02
2.949815243482589722e-02
5.500023066997528076e-02
-5.614003539085388184e-02
4.500871524214744568e-02
9.710381180047988892e-02
4.029984772205352783e-02
6.947469711303710938e-02
1.011933162808418274e-01
1.601962558925151825e-02
-6.129570677876472473e-02
-3.176056593656539917e-02
4.274962097406387329e-02
-1.943027973175048828e-02
3.442650288343429565e-02
4.802427254617214203e-03
-2.277291193604469299e-02
-3.845691308379173279e-02
-3.991903364658355713e-02
-6.977695971727371216e-02
-9.903061389923095703e-02
-4.488836228847503662e-02
-3.400314971804618835e-02
-4.293649643659591675e-02
-8.563213795423507690e-02
1.090482156723737717e-02
2.990828268229961395e-02
-3.285910189151763916e-02
2.116773426532745361e-01
6.844151765108108521e-02
-1.175081450492143631e-02
6.057764589786529541e-02
3.727844730019569397e-02
1.398130059242248535e-01
-4.713023081421852112e-02
-1.653063297271728516e-02
-4.650565388146787882e-04
4.832107806578278542e-04
-1.040206383913755417e-02
3.032672777771949768e-02
3.624150529503822327e-02
-5.186752229928970337e-02
-4.010163992643356323e-02
1.760679297149181366e-02
2.090812660753726959e-02
-4.544764757156372070e-02
-2.873622067272663116e-02
2.358209155499935150e-02
1.001245453953742981e-01
-1.034567430615425110e-01
-4.874232783913612366e-02
1.770149730145931244e-02
-2.649912377819418907e-03
-5.857704952359199524e-02
-1.043895352631807327e-02
-1.520704943686723709e-02
7.118449360132217407e-02
-1.002951636910438538e-01
2.150485292077064514e-02
-9.813424199819564819e-02
-7.965604960918426514e-02
3.136839717626571655e-02
5.124384164810180664e-02
7.422645576298236847e-03
1.160581931471824646e-01
4.149533808231353760e-02
-1.742524281144142151e-02
5.075820162892341614e-02
1.699807643890380859e-01
6.319017708301544189e-02
-5.661675706505775452e-03
-8.195249363780021667e-03
-1.654463075101375580e-02
1.619842797517776489e-01
9.601048380136489868e-02
1.367826908826828003e-01
-1.650490798056125641e-02
1.814449429512023926e-01
1.445151399821043015e-02
-9.049067646265029907e-02
-1.197178810834884644e-01
-1.244492605328559875e-01
8.617936074733734131e-02
9.945725649595260620e-02
3.755890205502510071e-02
2.568810433149337769e-02
5.330790299922227859e-03
-3.967360407114028931e-02
7.421436160802841187e-02
1.301365941762924194e-01
1.177391335368156433e-01
-4.693179950118064880e-02
-5.719121918082237244e-02
-1.667262054979801178e-02
-2.705095894634723663e-02
-7.332967221736907959e-02
-1.383793540298938751e-02
1.706303954124450684e-01
5.165690556168556213e-02
3.742607682943344116e-02
-3.780678287148475647e-02
-7.264503836631774902e-02
-6.642942316830158234e-03
8.090967312455177307e-03
-1.518709305673837662e-02
-9.282559156417846680e-02
1.119078844785690308e-01
1.351210027933120728e-01
5.783712118864059448e-02
-3.191256150603294373e-02
3.354404121637344360e-02
4.104539752006530762e-02
7.773257791996002197e-02
1.099814195185899734e-03
-6.884158402681350708e-02
-8.036530762910842896e-02
3.293071314692497253e-02
-1.308997720479965210e-02
2.211908996105194092e-02
6.277664005756378174e-02
1.220211908221244812e-01
-2.624276326969265938e-03
-3.073033876717090607e-02
-5.683131515979766846e-02
-7.629197835922241211e-02
-8.146489411592483521e-02
-1.017819270491600037e-01
-8.343517780303955078e-02
-2.927528321743011475e-02
5.359149724245071411e-02
-8.986044675111770630e-02
-9.953832253813743591e-03
6.245743483304977417e-02
-9.629399329423904419e-02
-2.989852428436279297e-02
-1.809761486947536469e-02
3.952811285853385925e-02
-5.439516622573137283e-03
8.249449729919433594e-02
5.812053754925727844e-02
-3.204487264156341553e-02
-6.867317948490381241e-03
-1.512560248374938965e-02
-2.153901197016239166e-02
-1.272070966660976410e-02
-5.447603762149810791e-03
-4.279943928122520447e-02
-3.685525385662913322e-03
2.165244147181510925e-02
3.163160011172294617e-02
-2.972110360860824585e-02
5.488454923033714294e-02
8.211388438940048218e-02
-6.470932159572839737e-03
2.496598474681377411e-02
3.510497510433197021e-02
-1.612335327081382275e-03
-7.821268402040004730e-03
7.831993699073791504e-02
3.672206774353981018e-02
-5.064018443226814270e-02
2.756288740783929825e-04
-5.591019056737422943e-03
-1.884660869836807251e-02
-2.145946025848388672e-02
-2.567578665912151337e-02
-6.611575186252593994e-02
-4.010644927620887756e-02
-7.543190568685531616e-02
-6.949630379676818848e-02
-6.767343729734420776e-02
6.117296288721263409e-04
5.402086675167083740e-02
2.229855954647064209e-02
-2.341668866574764252e-02
4.541005939245223999e-02
1.176026184111833572e-02
-4.635142534971237183e-02
-1.346081122756004333e-02
-7.520639151334762573e-02
-1.151965335011482239e-01
5.032929405570030212e-02
3.164099529385566711e-02
5.395829305052757263e-02
-3.584214020520448685e-03
5.392603203654289246e-02
6.029486656188964844e-02
-8.232994377613067627e-02
-4.346158728003501892e-02
-1.909597776830196381e-02
3.907105699181556702e-02
-2.035571495071053505e-03
-3.475794568657875061e-02
1.248127967119216919e-02
6.458185613155364990e-02
1.154840439558029175e-01
8.973964722827076912e-04
4.537132009863853455e-02
6.783955544233322144e-02
8.442135900259017944e-02
6.289955228567123413e-02
-3.261442855000495911e-02
-1.201535202562808990e-02
-5.344818904995918274e-02
-9.821296483278274536e-02
-3.788550198078155518e-02
-5.460392311215400696e-02
-4.629766941070556641e-02
2.164038456976413727e-02
2.096429961966350675e-04
-6.818804889917373657e-02
8.064548671245574951e-02
6.084664911031723022e-02
1.756649091839790344e-02
5.959629639983177185e-02
2.771012485027313232e-02
2.444559521973133087e-02
1.056190952658653259e-02
5.337679386138916016e-02
-7.878524251282215118e-03
8.507167547941207886e-02
1.136379241943359375e-01
3.413558751344680786e-02
5.349063500761985779e-02
7.303921971470117569e-03
-4.498093575239181519e-02
-4.412830341607332230e-03
-2.866091392934322357e-02
-3.316815197467803955e-02
-7.083031535148620605e-02
-7.673913240432739258e-02
-2.135530486702919006e-02
6.372033059597015381e-02
-2.454402670264244080e-02
-1.303726155310869217e-02
-5.344492197036743164e-02
-7.257708162069320679e-02
-8.238022029399871826e-02
-3.217090293765068054e-02
-4.895813390612602234e-02
-2.389218099415302277e-02
-1.397782005369663239e-02
-1.270061545073986053e-02
8.273395895957946777e-02
-1.185660213232040405e-01
-6.138987839221954346e-02
-3.070818074047565460e-02
-5.913225561380386353e-02
-8.817254006862640381e-02
-1.844798028469085693e-02
5.120320711284875870e-03
8.781484514474868774e-02
7.224916666746139526e-02
3.324637934565544128e-02
9.512836486101150513e-02
6.943061202764511108e-02
6.873662024736404419e-02
9.026925265789031982e-02
6.842099595814943314e-03
-7.296821475028991699e-02
-2.811569906771183014e-02
-1.297641843557357788e-01
9.276521392166614532e-03
-9.169317781925201416e-03
-9.524728357791900635e-02
-3.130374103784561157e-02
-8.427366614341735840e-02
-2.533751353621482849e-02
-7.121192663908004761e-02
-7.209209352731704712e-02
2.280629239976406097e-02
-5.259079486131668091e-02
-7.871854305267333984e-02
6.137495860457420349e-03
5.543662235140800476e-02
-4.607732966542243958e-02
2.525577135384082794e-02
2.148022875189781189e-02
3.667137026786804199e-02
4.048800468444824219e-02
5.671128164976835251e-03
-5.592919513583183289e-02
-8.672808855772018433e-02
-3.093949705362319946e-02
-3.702219203114509583e-02
1.119653787463903427e-02
-2.190934494137763977e-02
2.543000318109989166e-02
1.462146732956171036e-02
-6.269438564777374268e-02
6.068832427263259888e-02
7.739842683076858521e-02
2.266544848680496216e-02
8.359646424651145935e-03
9.533626586198806763e-02
9.350590407848358154e-04
6.032127141952514648e-02
-4.974634852260351181e-03
-5.865406990051269531e-02
-9.126304835081100464e-02
1.428782008588314056e-03
4.552385210990905762e-02
-2.403479628264904022e-02
-5.077722296118736267e-02
5.049690976738929749e-02
1.686998084187507629e-02
5.505770072340965271e-02
-1.001942437142133713e-02
-6.144007667899131775e-02
-4.292836040258407593e-02
8.901946246623992920e-02
-6.044259760528802872e-03
-2.652203105390071869e-02
2.276284992694854736e-02
-4.332628846168518066e-02
7.528562843799591064e-02
5.672723427414894104e-02
2.026304416358470917e-02
-7.088371366262435913e-02
1.463699154555797577e-02
-8.752249181270599365e-02
-5.997739732265472412e-02
-8.559519052505493164e-02
-1.345383822917938232e-01
-6.197507306933403015e-02
-5.184318125247955322e-02
7.468894589692354202e-03
9.974412620067596436e-03
4.941349104046821594e-02
-2.224658802151679993e-02
-3.146450221538543701e-02
2.474440820515155792e-02
-9.282125532627105713e-02
-4.314158484339714050e-02
-2.904987335205078125e-02
-3.616191446781158447e-02
1.930256746709346771e-02
2.300715073943138123e-02
5.068526789546012878e-02
2.771453000605106354e-03
9.245737642049789429e-02
2.472246997058391571e-03
4.090547561645507812e-03
9.785208851099014282e-02
1.132484450936317444e-01
-2.774840220808982849e-02
9.255480766296386719e-02
9.195157885551452637e-02
-2.807196974754333496e-02
8.209817856550216675e-02
4.760638251900672913e-02
-1.677528023719787598e-02
1.186852995306253433e-02
-2.182922139763832092e-02
-3.290952369570732117e-02
2.490289974957704544e-03
-5.062762275338172913e-02
-1.962866447865962982e-02
-1.128792390227317810e-02
-1.042804773896932602e-02
-2.162672579288482666e-02
5.293580889701843262e-02
-3.217248618602752686e-02
-6.620060652494430542e-02
-2.168850228190422058e-02
-9.395787864923477173e-02
-1.076945289969444275e-01
-6.474243104457855225e-02
-7.977019250392913818e-02
-5.586028844118118286e-02
9.896439313888549805e-02
1.196873113512992859e-01
1.141253858804702759e-02
-1.543784048408269882e-03
6.197713315486907959e-03
-5.022608116269111633e-02
-1.437242031097412109e-01
-4.893619567155838013e-02
2.284786198288202286e-03
8.531860075891017914e-03
4.839816316962242126e-02
-5.387882702052593231e-03
1.310165226459503174e-01
5.909997969865798950e-02
1.241528429090976715e-02
1.121186614036560059e-01
5.250651389360427856e-02
-4.136590659618377686e-02
-3.183847293257713318e-03
-3.064872696995735168e-03
5.161417275667190552e-02
5.460114404559135437e-02
4.542497172951698303e-02
7.555945217609405518e-02
-1.631007529795169830e-02
5.770401656627655029e-02
8.459034562110900879e-02
9.551565162837505341e-03
3.418814763426780701e-02
-5.831541121006011963e-02
4.083472117781639099e-02
-1.783973537385463715e-02
-3.904718160629272461e-02
-8.362375199794769287e-02
-5.509808659553527832e-02
-2.486998587846755981e-02
-2.642365358769893646e-02
1.187923401594161987e-01
8.970728516578674316e-02
-7.710152119398117065e-02
-6.110545247793197632e-02
-4.615182429552078247e-02
-9.849193692207336426e-02
7.372470945119857788e-02
7.925373315811157227e-02
8.105669915676116943e-02
1.748460829257965088e-01
1.137535795569419861e-01
-3.746250644326210022e-02
6.403056532144546509e-02
2.041250839829444885e-02
-1.835962980985641479e-01
-5.781718343496322632e-02
2.841758728027343750e-02
-8.804776519536972046e-02
-7.098396867513656616e-02
3.448491916060447693e-02
-9.129076264798641205e-03
-3.794178739190101624e-02
7.043044269084930420e-02
7.749021798372268677e-02
1.920348219573497772e-02
1.085338965058326721e-01
-1.967037841677665710e-02
-4.208132252097129822e-02
-1.388740092515945435e-01
-1.293109655380249023e-01
-1.115909218788146973e-01
-1.464142203330993652e-01
-8.936070650815963745e-02
-9.742876887321472168e-02
-1.687911599874496460e-01
1.102638542652130127e-01
1.218222081661224365e-01
1.224160864949226379e-01
7.115979678928852081e-03
1.756576448678970337e-01
4.902992770075798035e-02
-9.543954581022262573e-02
-1.132328063249588013e-01
6.481691449880599976e-02
2.728458680212497711e-02
5.801428109407424927e-02
1.080584675073623657e-01
-1.840988406911492348e-03
-4.957118630409240723e-02
2.321659214794635773e-02
-7.391827553510665894e-02
-1.281312853097915649e-01
-4.124646261334419250e-02
-3.468559682369232178e-02
-1.763947866857051849e-02
9.213044308125972748e-03
-1.143172159790992737e-01
-8.110877871513366699e-02
-4.317196458578109741e-02
1.364817563444375992e-02
7.714462280273437500e-02
-2.613990567624568939e-02
2.240718528628349304e-02
6.567326188087463379e-02
4.169851168990135193e-02
-1.437448617070913315e-02
1.158964186906814575e-01
8.446127176284790039e-02
-3.859717398881912231e-02
-2.796071954071521759e-02
-8.715971373021602631e-03
-1.861183345317840576e-02
5.199757218360900879e-02
3.686850517988204956e-02
-1.443980820477008820e-02
1.359276175498962402e-01
1.490501128137111664e-02
-9.178739041090011597e-02
-8.135950565338134766e-02
-8.448757976293563843e-02
5.231151729822158813e-02
-4.794058576226234436e-02
-9.673740714788436890e-02
-4.805240035057067871e-02
-5.906100943684577942e-02
-3.171079326421022415e-03
3.518956899642944336e-02
-2.934409491717815399e-02
3.452720493078231812e-02
4.611964523792266846e-02
1.096507161855697632e-02
4.623528569936752319e-02
-4.265085980296134949e-02
3.653479740023612976e-02
2.902561239898204803e-02
-6.878775544464588165e-03
1.137180998921394348e-02
-1.112478747963905334e-01
-2.866442129015922546e-02
-3.337553143501281738e-02
-2.604208700358867645e-02
-1.062913388013839722e-01
-9.047704190015792847e-02
-5.299367383122444153e-02
-2.299585845321416855e-03
6.580927968025207520e-02
-8.520150557160377502e-03
9.578902274370193481e-03
-3.197013214230537415e-02
3.155346214771270752e-02
1.639777235686779022e-02
2.813546173274517059e-02
3.884832561016082764e-02
1.762077361345291138e-01
1.553070843219757080e-01
9.382422268390655518e-02
1.801645010709762573e-02
5.418738350272178650e-02
-6.487061083316802979e-02
1.244857348501682281e-02
8.339727669954299927e-02
1.146909128874540329e-02
-1.264087297022342682e-02
-6.891416013240814209e-02
4.752543827635236084e-05
3.120254538953304291e-02
1.329969428479671478e-02
1.386159099638462067e-03
2.817080356180667877e-02
2.992497198283672333e-02
2.076910063624382019e-02
-1.704184897243976593e-02
-1.834567077457904816e-02
4.180793464183807373e-02
-3.167070075869560242e-02
-1.073010358959436417e-02
-4.133860394358634949e-02
4.287737235426902771e-02
-3.969523124396800995e-03
-7.540285587310791016e-02
-1.502134650945663452e-02
4.838071390986442566e-02
2.832602150738239288e-02
-9.428080916404724121e-02
-5.655487999320030212e-02
-7.340694218873977661e-02
-5.962755531072616577e-02
-1.109801232814788818e-02
-4.249253775924444199e-03
-2.745919115841388702e-02
1.853257790207862854e-02
2.800171636044979095e-02
-6.090065836906433105e-02
-1.178886927664279938e-02
-2.469236776232719421e-02
-3.904485702514648438e-02
-3.291508927941322327e-02
-2.772782742977142334e-02
2.017970383167266846e-02
-3.432768583297729492e-02
-4.561899602413177490e-02
-2.280665002763271332e-02
-4.055266253999434412e-05
-6.292612291872501373e-03
2.806845679879188538e-02
3.464608266949653625e-02
3.209888190031051636e-02
6.434945762157440186e-02
7.163492497056722641e-03
-7.216086238622665405e-02
3.897966817021369934e-02
-3.610497713088989258e-02
2.036916278302669525e-02
6.084709614515304565e-02
1.264716405421495438e-02
-1.260151807218790054e-02
-5.865472834557294846e-03
-2.356664277613162994e-03
2.772177010774612427e-02
7.793276570737361908e-03
-1.347407791763544083e-02
-2.205938473343849182e-02
-6.630752235651016235e-02
-5.411478504538536072e-02
-1.130118072032928467e-01
-4.397338628768920898e-02
-7.240757346153259277e-02
-7.330445945262908936e-02
3.320185840129852295e-02
5.423814430832862854e-02
3.619422204792499542e-03
7.558081299066543579e-02
5.953712388873100281e-02
-2.359135821461677551e-02
7.825597189366817474e-03
8.556394279003143311e-02
-1.988497003912925720e-02
-5.496130883693695068e-02
-3.407053649425506592e-02
1.113198846578598022e-01
-9.895438328385353088e-03
1.173959951847791672e-02
9.224284440279006958e-02
1.573273167014122009e-02
3.323603793978691101e-02
-1.879426650702953339e-02
-8.284533768892288208e-02
-2.694285660982131958e-02
1.605516299605369568e-02
-1.375653743743896484e-01
1.875501871109008789e-02
1.369379088282585144e-02
-6.324119865894317627e-02
1.259012985974550247e-02
4.299917817115783691e-02
-2.934881113469600677e-02
7.098661735653877258e-03
1.671516336500644684e-02
-9.448114037513732910e-02
-6.911958009004592896e-02
-7.429994642734527588e-02
-2.822808548808097839e-02
-5.729188770055770874e-02
-8.813964575529098511e-02
1.569739542901515961e-02
4.132582247257232666e-02
1.164716482162475586e-01
3.551452420651912689e-03
6.539801508188247681e-02
2.972960472106933594e-02
-6.591731309890747070e-02
2.267719246447086334e-02
2.444227412343025208e-02
-4.855857416987419128e-02
-6.129951775074005127e-02
9.160436689853668213e-02
-2.929931506514549255e-02
-3.689650446176528931e-02
8.762449957430362701e-03
-3.365299105644226074e-02
-3.939572349190711975e-02
-2.421722188591957092e-02
9.420301765203475952e-03
-3.874771296977996826e-02
-2.943613938987255096e-02
2.203391119837760925e-02
-1.217103190720081329e-02
-7.739417254924774170e-03
1.666183769702911377e-02
7.711214479058980942e-03
-2.181411162018775940e-02
5.925127118825912476e-02
1.051659323275089264e-02
5.754791945219039917e-02
1.378330588340759277e-01
8.010226488113403320e-02
6.935697793960571289e-02
7.002174854278564453e-02
9.629298746585845947e-02
-1.402567047625780106e-02
7.881014794111251831e-02
9.031876176595687866e-02
8.734791725873947144e-02
1.384359411895275116e-02
-7.321498822420835495e-03
-1.132276002317667007e-02
-2.069240808486938477e-02
9.797406382858753204e-03
2.946962229907512665e-02
1.604697853326797485e-01
4.496360942721366882e-02
-2.226617746055126190e-02
1.394720375537872314e-01
4.152141138911247253e-02
-9.022788703441619873e-02
1.266981661319732666e-01
-1.496707089245319366e-02
-5.361552909016609192e-02
-1.352340281009674072e-01
1.666900143027305603e-02
-8.220850676298141479e-02
-1.112545803189277649e-01
-3.493558242917060852e-02
1.079270988702774048e-02
-7.342430949211120605e-02
1.441660802811384201e-02
-1.174680050462484360e-02
1.560363918542861938e-02
4.723046906292438507e-03
-5.363722797483205795e-03
-2.380728349089622498e-02
5.535025149583816528e-02
-2.207210846245288849e-02
-7.828345149755477905e-02
-4.487659782171249390e-02
5.278139561414718628e-02
-7.170518487691879272e-02
2.762749791145324707e-02
-3.099407069385051727e-02
-1.236554309725761414e-01
-1.003605723381042480e-01
-1.606187783181667328e-02
-1.829930394887924194e-01
-1.284645795822143555e-01
-2.817625552415847778e-02
-5.339220538735389709e-02
-4.506307467818260193e-02
-1.991512440145015717e-02
1.288675367832183838e-01
2.135850489139556885e-02
-8.631531149148941040e-02
9.981207549571990967e-02
2.235172502696514130e-02
-2.687685657292604446e-03
-2.490044012665748596e-02
1.228052470833063126e-02
-4.866430908441543579e-02
-3.432860225439071655e-02
-2.284231223165988922e-02
5.521051934920251369e-04
-3.393269330263137817e-02
-1.791009306907653809e-02
-6.692775990813970566e-03
-7.124402560293674469e-03
6.386140733957290649e-02
1.840260438621044159e-02
-1.133696436882019043e-01
-6.029863655567169189e-02
5.386600270867347717e-02
-9.087059646844863892e-02
-1.178310215473175049e-01
-4.688455257564783096e-03
-2.948478981852531433e-02
2.086854167282581329e-02
-2.533179335296154022e-02
-5.402593314647674561e-02
-3.104806132614612579e-02
6.717103999108076096e-03
-3.946208208799362183e-02
-6.485628336668014526e-02
-8.679830469191074371e-03
1.490466529503464699e-03
-2.199052646756172180e-02
-1.538842916488647461e-02
1.045046560466289520e-02
1.285866796970367432e-01
1.064247265458106995e-01
1.300529539585113525e-01
2.512111701071262360e-02
3.551404923200607300e-02
9.534537792205810547e-03
2.766564488410949707e-02
-2.146562188863754272e-02
-4.968894273042678833e-02
-5.587238445878028870e-02
3.683694079518318176e-02
-1.615175902843475342e-01
-5.211346223950386047e-02
1.050264108926057816e-02
3.406231105327606201e-02
6.356572359800338745e-02
2.109308959916234016e-03
-4.951282218098640442e-02
-2.179453894495964050e-02
-4.244118556380271912e-02
-1.511766612529754639e-01
-1.754297763109207153e-01
-9.897758811712265015e-02
8.726130425930023193e-02
-8.207963407039642334e-02
-6.253090500831604004e-02
9.311132878065109253e-02
6.834562122821807861e-02
3.458324447274208069e-02
5.831762030720710754e-02
1.867021024227142334e-01
1.770718991756439209e-01
-8.339315652847290039e-03
6.496678292751312256e-02
-1.301443483680486679e-02
-2.586570568382740021e-03
7.860643416643142700e-02
5.721562355756759644e-02
-3.752419352531433105e-02
-8.054652065038681030e-02
1.094715017825365067e-02
-1.226568073034286499e-01
1.136865466833114624e-02
8.251366019248962402e-02
-3.405482694506645203e-02
-7.947782427072525024e-02
2.033606730401515961e-02
1.613452136516571045e-01
4.292122274637222290e-02
-3.514517471194267273e-02
-1.319583598524332047e-02
-2.933330647647380829e-02
-3.129506483674049377e-02
8.268073946237564087e-02
1.377502083778381348e-01
6.637535989284515381e-02
4.933358728885650635e-02
1.323401480913162231e-01
-8.643225766718387604e-03
-1.282949559390544891e-02
5.020877718925476074e-02
-7.099856156855821609e-04
-8.813424408435821533e-02
9.281743317842483521e-02
3.525619953870773315e-02
-9.175266325473785400e-02
-1.033244654536247253e-01
-2.635487355291843414e-02
-4.061879590153694153e-02
-2.149435749743133783e-04
-2.020877972245216370e-02
1.151983346790075302e-02
-3.459600359201431274e-02
-2.653562463819980621e-02
-1.730382442474365234e-02
-7.024283707141876221e-02
-6.846112757921218872e-02
6.734404247254133224e-03
-6.921842694282531738e-03
-2.166726440191268921e-02
8.182603865861892700e-02
6.784063577651977539e-02
-3.668519854545593262e-02
-9.804998338222503662e-02
2.576041268184781075e-03
1.330490857362747192e-01
-8.021807670593261719e-02
-3.365493193268775940e-02
-2.783935517072677612e-02
7.911037653684616089e-03
-3.022029995918273926e-02
-3.568065539002418518e-02
6.583055108785629272e-02
4.866173118352890015e-02
1.786850579082965851e-02
-1.046813279390335083e-01
-2.813381701707839966e-02
1.042836457490921021e-01
-7.019472774118185043e-03
-1.621053740382194519e-02
3.859084472060203552e-02
6.300027016550302505e-03
-3.030032850801944733e-02
-1.354077365249395370e-02
5.810494069010019302e-03
4.807044938206672668e-02
2.272636257112026215e-02
-6.832854449748992920e-02
-1.109021436423063278e-02
-1.516886334866285324e-02
9.869369864463806152e-02
4.654558748006820679e-02
-8.660371601581573486e-02
2.565905638039112091e-02
2.857548184692859650e-02
-8.880942128598690033e-03
6.654009222984313965e-02
9.866682440042495728e-02
1.848649047315120697e-02
2.111101709306240082e-02
2.252330817282199860e-02
3.846851363778114319e-02
-4.455170407891273499e-02
-2.913120575249195099e-02
3.118263743817806244e-02
-3.476835787296295166e-02
-7.207851111888885498e-02
4.861968010663986206e-02
3.215729072690010071e-02
-4.558585584163665771e-02
-3.964863345026969910e-02
-6.000011414289474487e-02
2.082448825240135193e-02
2.136270143091678619e-02
-5.400095134973526001e-02
-9.402208030223846436e-02
-7.899453490972518921e-02
6.654948741197586060e-02
-4.570091515779495239e-02
-7.782095670700073242e-02
-6.179313641041517258e-03
-5.094328150153160095e-02
-1.304262131452560425e-01
1.354563832283020020e-01
9.585179388523101807e-02
-6.076607387512922287e-03
1.088692918419837952e-01
5.253077670931816101e-02
4.229712113738059998e-02
-6.486738473176956177e-02
1.678146608173847198e-02
4.079189151525497437e-02
-9.611142426729202271e-02
5.717366933822631836e-03
-4.843736067414283752e-02
4.353597760200500488e-02
6.459937896579504013e-03
-7.044535130262374878e-02
2.134444005787372589e-02
3.733257949352264404e-02
7.903456687927246094e-02
-8.775898814201354980e-02
1.087493030354380608e-03
1.008927598595619202e-01
-2.578337490558624268e-02
-4.301434010267257690e-02
-3.653458878397941589e-02
7.120630145072937012e-02
7.364436984062194824e-02
-3.647041693329811096e-02
-1.251827925443649292e-01
-9.090847522020339966e-02
-5.145082995295524597e-02
-1.771267317235469818e-02
-5.146228522062301636e-02
-4.292289540171623230e-02
3.292251005768775940e-02
-5.242681503295898438e-02
-1.733664795756340027e-02
7.885780930519104004e-02
8.666256070137023926e-02
8.306576311588287354e-02
5.476287379860877991e-02
5.863481387495994568e-02
5.010366067290306091e-02
9.564574062824249268e-02
-8.954430813901126385e-04
-2.462662011384963989e-02
6.300503760576248169e-02
1.100728958845138550e-01
1.173275336623191833e-01
-5.911923944950103760e-02
3.993670269846916199e-02
3.976958617568016052e-02
-4.776118788868188858e-03
3.710479359142482281e-04
-2.824947796761989594e-02
-8.470963686704635620e-02
-2.110427990555763245e-02
-4.451427608728408813e-02
3.072394616901874542e-02
4.080132395029067993e-02
2.700548619031906128e-02
-5.125592276453971863e-02
5.564085021615028381e-02
6.556831300258636475e-02
-1.430206447839736938e-01
-8.825933933258056641e-02
-2.793318405747413635e-02
7.140267174690961838e-03
2.100398391485214233e-02
-4.587081819772720337e-02
-2.180296182632446289e-02
-1.209340174682438374e-03
1.284547895193099976e-01
-1.213688477873802185e-01
-8.896849304437637329e-02
-4.388054087758064270e-02
2.833302691578865051e-02
1.877941563725471497e-02
-1.995202898979187012e-02
-6.076862290501594543e-02
-1.315607223659753799e-02
3.685413673520088196e-02
-5.153746157884597778e-02
-5.501405894756317139e-02
-3.308258019387722015e-04
7.790965586900711060e-02
7.872030138969421387e-02
3.812369704246520996e-02
4.532687366008758545e-02
1.965188793838024139e-02
-1.267144177109003067e-02
-3.754516318440437317e-02
1.384767587296664715e-03
-3.794470801949501038e-02
5.179746821522712708e-02
2.484109811484813690e-02
-5.295546259731054306e-03
-2.453539334237575531e-02
6.623336230404675007e-04
6.596580147743225098e-03
2.817925624549388885e-02
1.762242056429386139e-02
-1.437284518033266068e-02
-1.318794023245573044e-02
5.598936229944229126e-02
1.697004586458206177e-02
4.397010058164596558e-02
9.404432028532028198e-03
1.645152084529399872e-02
-2.701600454747676849e-02
-4.666718840599060059e-02
-3.394628688693046570e-02
1.907672174274921417e-02
-1.987226307392120361e-02
1.390405371785163879e-02
1.302759908139705658e-02
-5.278885830193758011e-03
1.057796832174062729e-02
-2.738666720688343048e-02
3.966357931494712830e-02
-1.074969768524169922e-02
-1.722300238907337189e-02
6.878414191305637360e-03
-3.700303286314010620e-02
3.524883184581995010e-03
-6.726105511188507080e-02
1.263559795916080475e-02
3.030842915177345276e-02
8.153455704450607300e-02
1.533048134297132492e-02
-7.391355186700820923e-02
-8.299244940280914307e-02
-9.208407998085021973e-02
2.323011122643947601e-02
1.412069331854581833e-02
2.385206520557403564e-02
-4.083338379859924316e-02
-7.006641477346420288e-02
-2.677989192306995392e-03
-4.855815321207046509e-02
1.677856035530567169e-02
-3.292905539274215698e-02
1.768428273499011993e-02
5.478574894368648529e-03
-4.973087459802627563e-02
3.219896554946899414e-02
6.391259841620922089e-03
6.402761489152908325e-02
1.587337255477905273e-02
5.888029187917709351e-02
3.851343691349029541e-02
1.223072782158851624e-02
2.281501516699790955e-02
-2.488215826451778412e-02
-3.609662503004074097e-02
1.726464484818279743e-03
-3.234840929508209229e-02
-1.483038160949945450e-02
-4.816273972392082214e-02
-3.203467279672622681e-02
-5.099489539861679077e-02
-5.255720019340515137e-02
-4.290900379419326782e-02
8.673859387636184692e-02
1.051903292536735535e-01
1.099530383944511414e-01
-5.093955621123313904e-02
-3.585894033312797546e-02
-5.696905031800270081e-02
2.349511720240116119e-03
3.692828863859176636e-02
-1.178944017738103867e-02
-2.125564403831958771e-02
-2.836040779948234558e-02
-3.855416178703308105e-02
-4.903873428702354431e-02
-3.762582689523696899e-02
-5.602443963289260864e-02
-2.437727525830268860e-02
-3.126894310116767883e-02
-6.917950510978698730e-02
6.610459834337234497e-02
8.160798251628875732e-02
3.783816099166870117e-02
1.948163285851478577e-02
4.297892004251480103e-02
-1.381695084273815155e-02
-3.705310449004173279e-02
-3.998101130127906799e-02
-6.186944991350173950e-02
1.008180454373359680e-01
8.786005526781082153e-02
1.198215857148170471e-01
-8.992120623588562012e-03
6.087398156523704529e-03
-6.924093514680862427e-02
-1.159659679979085922e-02
-5.186378490179777145e-03
-3.998348489403724670e-03
-7.958762347698211670e-03
-3.853115439414978027e-02
-5.131100490689277649e-02
-7.566570769995450974e-03
-1.584233529865741730e-02
7.337510760407894850e-05
-1.473683305084705353e-02
7.147100288420915604e-03
-6.064684689044952393e-02
-2.433244138956069946e-02
1.997521892189979553e-02
1.792084611952304840e-02
-6.932833790779113770e-02
-6.481322646141052246e-02
-5.363290011882781982e-02
-2.838761173188686371e-02
1.931827515363693237e-02
6.388460285961627960e-03
-5.152515321969985962e-02
-2.501741796731948853e-02
-2.791932038962841034e-02
2.390454150736331940e-02
4.486298188567161560e-02
1.728607155382633209e-02
6.067058071494102478e-02
1.161431428045034409e-02
6.183803826570510864e-02
-1.012106426060199738e-02
-5.584938451647758484e-02
-3.557245433330535889e-02
2.852544374763965607e-02
2.491843327879905701e-02
1.721458323299884796e-02
3.790842741727828979e-02
-2.654264215379953384e-03
8.414220064878463745e-03
-2.976681105792522430e-03
5.858523305505514145e-03
-6.437026709318161011e-02
-3.054356388747692108e-02
5.284469202160835266e-02
-1.135814934968948364e-02
9.764638543128967285e-02
-2.097744494676589966e-02
-4.163254052400588989e-02
-2.995664998888969421e-02
1.716915331780910492e-02
-5.140435695648193359e-02
-9.969498962163925171e-02
-1.521683996543288231e-03
4.122396185994148254e-02
-1.242945790290832520e-01
-2.953664958477020264e-02
6.280519813299179077e-02
-6.115522701293230057e-03
-6.371331959962844849e-02
1.269899122416973114e-02
7.624600082635879517e-02
1.279148310422897339e-01
-9.024634957313537598e-02
1.396594289690256119e-02
8.465345203876495361e-02
-5.303100124001502991e-02
-4.403240978717803955e-02
2.973461896181106567e-02
-2.834323793649673462e-02
-9.616123139858245850e-02
-2.308067493140697479e-02
-2.893398515880107880e-02
1.041707843542098999e-01
1.274687051773071289e-01
-2.303330413997173309e-02
1.263173855841159821e-02
3.681863844394683838e-02
3.958891704678535461e-02
3.221451118588447571e-02
-9.932835400104522705e-02
4.096084460616111755e-02
3.271256014704704285e-02
4.049017652869224548e-02
-3.001684695482254028e-02
-1.114343293011188507e-03
-3.159230574965476990e-02
2.369226329028606415e-02
-9.087030589580535889e-02
1.015429757535457611e-02
4.457731265574693680e-03
4.762856662273406982e-02
6.378659047186374664e-03
-6.620507221668958664e-03
8.034688979387283325e-02
2.411777228116989136e-01
6.214091926813125610e-02
8.075953274965286255e-02
1.054581254720687866e-01
3.151237964630126953e-02
7.928112521767616272e-03
1.303071528673171997e-02
-4.636912047863006592e-02
4.203108325600624084e-02
-8.199599385261535645e-02
-1.123676635324954987e-02
-3.932130709290504456e-02
-1.293441280722618103e-02
-2.101309597492218018e-02
-1.134091895073652267e-02
6.675655394792556763e-02
-3.790177404880523682e-02
-4.474066197872161865e-02
3.794230520725250244e-02
1.657399907708168030e-02
-7.335118204355239868e-02
-1.388006508350372314e-01
5.705227702856063843e-02
-9.298674762248992920e-02
-9.418406337499618530e-02
9.204848110675811768e-02
2.435413561761379242e-02
-8.334775455296039581e-03
-2.886695042252540588e-02
-1.481915358453989029e-02
9.686718136072158813e-02
7.132547348737716675e-02
-3.347074612975120544e-02
7.472528517246246338e-02
-2.760417386889457703e-02
1.675792969763278961e-02
8.621780574321746826e-02
-5.315146222710609436e-02
2.547774650156497955e-02
-5.585379153490066528e-02
-4.914488643407821655e-02
-1.227791160345077515e-01
2.287360653281211853e-02
-3.699656203389167786e-02
-1.708070188760757446e-01
-5.369457229971885681e-02
9.303592145442962646e-02
1.034972220659255981e-01
-4.534016549587249756e-02
-8.862343430519104004e-02
1.529260445386171341e-02
-9.899769909679889679e-03
-3.948478400707244873e-02
3.626546263694763184e-02
4.907357692718505859e-02
5.303419753909111023e-02
9.420155733823776245e-02
8.993202447891235352e-02
8.664494752883911133e-02
2.823677100241184235e-02
-1.229918934404850006e-02
-6.231847777962684631e-02
-3.309889510273933411e-02
6.528761982917785645e-02
-8.905132301151752472e-03
-1.389373391866683960e-01
-8.261826634407043457e-02
1.426918357610702515e-01
2.002953365445137024e-02
1.197113189846277237e-02
-3.963779658079147339e-02
-3.787616640329360962e-02
-2.324612252414226532e-02
5.020831897854804993e-02
-8.258788287639617920e-02
-2.863390743732452393e-02
-2.737734466791152954e-02
2.096412889659404755e-02
-1.644536852836608887e-01
1.810045354068279266e-02
1.330561041831970215e-01
5.446831136941909790e-02
-8.277893811464309692e-02
-5.060396715998649597e-02
1.488846391439437866e-01
-2.150637842714786530e-02
2.495769597589969635e-02
3.354616835713386536e-02
-3.129227086901664734e-02
-3.504706919193267822e-02
-1.189133524894714355e-01
-2.554819360375404358e-02
-1.010788306593894958e-01
-9.646736830472946167e-02
-8.380737155675888062e-03
5.338140763342380524e-03
6.398168206214904785e-02
2.952544577419757843e-02
-9.325797669589519501e-03
-5.762194842100143433e-02
5.586239695549011230e-02
-5.836529284715652466e-02
-4.293502308428287506e-03
-3.253777325153350830e-02
4.662517830729484558e-02
-2.292373031377792358e-02
-9.272833913564682007e-02
-5.055625736713409424e-02
-5.952451378107070923e-02
3.639407223090529442e-03
-7.248714566230773926e-02
-3.892795369029045105e-02
-2.498457022011280060e-02
1.256437040865421295e-02
6.120116449892520905e-04
6.911072880029678345e-02
-1.721385866403579712e-02
4.439665004611015320e-02
8.041998744010925293e-02
7.746392488479614258e-02
3.599113598465919495e-02
6.681106984615325928e-02
7.381363213062286377e-02
2.612572908401489258e-02
3.953753970563411713e-03
-2.964555472135543823e-02
-3.379585221409797668e-02
-3.150083124637603760e-02
-3.710983321070671082e-02
4.156111180782318115e-02
4.805065318942070007e-02
6.385368853807449341e-02
-4.932273644953966141e-03
2.363620512187480927e-02
4.124598205089569092e-02
-1.593578606843948364e-02
-4.715469107031822205e-02
-3.571973741054534912e-02
-5.753175914287567139e-02
-1.675207354128360748e-02
5.877983942627906799e-02
2.309962548315525055e-02
-4.816971346735954285e-02
-8.031617850065231323e-03
-1.071438342332839966e-01
-1.253159642219543457e-01
-4.500864073634147644e-02
-1.595405042171478271e-01
5.322282388806343079e-02
1.998768188059329987e-02
-8.411869406700134277e-03
-1.691772975027561188e-02
4.432053305208683014e-03
-5.880346894264221191e-02
2.387017942965030670e-03
1.450526062399148941e-02
2.494325302541255951e-02
-7.079266360960900784e-04
3.696343302726745605e-02
5.361339077353477478e-02
2.588430792093276978e-02
-8.936101570725440979e-03
-2.046920359134674072e-03
-4.146359115839004517e-02
-2.960252575576305389e-03
-2.164279343560338020e-03
-2.429754287004470825e-02
-4.786721616983413696e-02
6.094448640942573547e-02
6.797856092453002930e-02
1.363738789223134518e-03
2.389416284859180450e-02
-1.822037994861602783e-02
-1.525538694113492966e-02
-5.158759653568267822e-03
2.010166272521018982e-02
5.875712633132934570e-02
9.883233904838562012e-02
-1.865069568157196045e-02
1.229402702301740646e-02
-4.696383606642484665e-03
-7.432691007852554321e-02
-1.491765142418444157e-03
-6.507456302642822266e-02
5.204570665955543518e-02
-4.969897121191024780e-02
-1.031855866312980652e-02
-1.553898025304079056e-02
-1.269972976297140121e-02
-2.752727642655372620e-02
-1.138740107417106628e-01
-3.895584493875503540e-02
-7.303889095783233643e-02
3.258213028311729431e-02
6.757338345050811768e-02
6.320624053478240967e-02
-4.315426945686340332e-02
-3.790191188454627991e-02
-8.251360058784484863e-02
3.457575663924217224e-02
-2.756069041788578033e-02
1.225585001520812511e-03
1.766684092581272125e-02
8.270809054374694824e-02
6.816447526216506958e-02
9.102097153663635254e-02
-2.913984656333923340e-02
5.603319406509399414e-02
9.198423475027084351e-02
1.284754462540149689e-02
7.065583765506744385e-02
-1.509913243353366852e-02
6.453301757574081421e-02
4.253772646188735962e-02
-2.412213198840618134e-02
-5.071536079049110413e-02
-6.890305876731872559e-02
1.397496610879898071e-01
-1.629369892179965973e-02
6.085607409477233887e-02
2.366537600755691528e-02
2.494095824658870697e-02
4.998829960823059082e-02
-8.044269680976867676e-02
1.986452192068099976e-02
-8.553940057754516602e-02
-8.481620997190475464e-02
-4.310544952750205994e-02
-1.006762906908988953e-01
-2.761710621416568756e-02
-1.004529651254415512e-02
-1.496301149018108845e-03
-4.313994944095611572e-02
3.413104638457298279e-02
-2.488410286605358124e-02
1.197212468832731247e-02
-7.976999878883361816e-02
-2.651444822549819946e-02
-4.907579347491264343e-02
-1.076224073767662048e-01
7.142443954944610596e-02
7.196256518363952637e-02
1.900098100304603577e-02
7.323538511991500854e-02
8.944855630397796631e-02
9.840968064963817596e-03
4.749895259737968445e-02
-2.813192456960678101e-02
1.669259183108806610e-02
-3.016427904367446899e-02
-3.773735091090202332e-02
-5.190595518797636032e-03
7.566743530333042145e-03
1.081881020218133926e-02
-5.746132135391235352e-02
4.158655926585197449e-02
-5.339005962014198303e-02
1.308864075690507889e-02
-5.371665582060813904e-02
1.546767447143793106e-02
1.924543641507625580e-02
-1.968953385949134827e-02
-2.707112208008766174e-02
9.098406881093978882e-04
4.691272228956222534e-02
-5.228572990745306015e-03
7.943825796246528625e-03
8.142656832933425903e-02
2.700689062476158142e-02
-7.745158392935991287e-03
2.830783138051629066e-03
1.567738503217697144e-02
-3.044208884239196777e-02
-6.356488913297653198e-03
4.011200740933418274e-02
-8.550184220075607300e-02
5.604365095496177673e-02
-4.020800441503524780e-02
-2.978575415909290314e-02
-3.538286313414573669e-02
9.541971236467361450e-02
3.945365548133850098e-02
3.610930871218442917e-03
6.467891484498977661e-02
3.929148241877555847e-02
7.554598152637481689e-03
-1.780452020466327667e-02
5.565227195620536804e-02
-7.947245240211486816e-02
-9.720829874277114868e-02
-4.060361534357070923e-02
1.378023810684680939e-02
2.597563154995441437e-02
-3.692824020981788635e-02
6.289577111601829529e-03
-3.323232382535934448e-02
-6.953505426645278931e-02
5.380813032388687134e-03
6.858375668525695801e-02
-4.938878584653139114e-03
-3.607863187789916992e-02
5.951596051454544067e-02
-1.193784363567829132e-02
4.543246701359748840e-02
-6.272133905440568924e-03
6.093149539083242416e-03
-2.939639799296855927e-02
5.536197125911712646e-02
-7.406378537416458130e-02
-2.283368632197380066e-02
8.403287082910537720e-02
-3.034402802586555481e-02
-3.305663168430328369e-02
1.231364626437425613e-02
-1.062825098633766174e-01
-7.241498678922653198e-02
4.031676054000854492e-02
-4.807554185390472412e-02
4.465223103761672974e-02
3.021703474223613739e-02
5.593740567564964294e-02
6.280457228422164917e-02
9.510617703199386597e-03
1.345268357545137405e-02
-8.498766459524631500e-03
-6.937576830387115479e-02
-2.884262986481189728e-02
9.057037532329559326e-03
5.770389363169670105e-02
1.331980824470520020e-01
1.146358177065849304e-01
4.636600613594055176e-02
6.181538570672273636e-03
-7.228591293096542358e-02
-1.195831522345542908e-01
-6.306237727403640747e-02
-7.599680870771408081e-02
-4.843330383300781250e-02
-2.154811285436153412e-02
-8.770989626646041870e-02
-5.875567346811294556e-02
-3.887812420725822449e-02
-1.045548394322395325e-01
2.682255394756793976e-02
-9.588145650923252106e-03
3.792236372828483582e-02
-8.319319225847721100e-03
-1.432790607213973999e-02
-1.957076229155063629e-02
-5.025810096412897110e-03
-8.846693485975265503e-02
2.704447507858276367e-02
7.548920810222625732e-02
-6.289061158895492554e-03
2.034657448530197144e-02
5.642928183078765869e-02
-7.745718955993652344e-02
-6.229155138134956360e-02
-4.730541631579399109e-02
2.639409620314836502e-03
9.913894534111022949e-02
1.587564498186111450e-01
6.628752499818801880e-02
4.357864335179328918e-02
-1.415266748517751694e-02
-3.386469930410385132e-02
7.720805238932371140e-03
-4.796987399458885193e-02
7.850520312786102295e-03
-2.808111347258090973e-02
5.341911315917968750e-02
-2.834733948111534119e-02
-1.777272485196590424e-02
-4.958691820502281189e-02
-2.221868932247161865e-02
-3.959250822663307190e-02
-7.213184982538223267e-02
1.122943460941314697e-01
2.164850011467933655e-02
1.455356553196907043e-02
-4.834705218672752380e-02
-2.895953319966793060e-02
7.560274004936218262e-02
9.218964725732803345e-02
-3.783129528164863586e-02
-1.791636198759078979e-01
1.631863862276077271e-01
5.407888069748878479e-02
-3.909593448042869568e-02
1.025305464863777161e-01
-2.097667939960956573e-02
-3.688514232635498047e-02
-9.179001301527023315e-02
4.963121842592954636e-03
2.321895444765686989e-04
1.647842116653919220e-02
-4.799165762960910797e-03
-4.069898650050163269e-02
4.536322131752967834e-02
4.267564415931701660e-02
1.619827561080455780e-02
1.020414307713508606e-01
2.721168659627437592e-02
1.749515905976295471e-02
-2.351244445890188217e-03
3.386460244655609131e-02
2.575427107512950897e-02
-4.412236064672470093e-02
-2.330591157078742981e-02
3.059688722714781761e-03
-1.649057725444436073e-03
-3.742127120494842529e-02
3.710206970572471619e-02
1.180875226855278015e-01
-6.737449765205383301e-02
-1.237265691161155701e-01
2.846197970211505890e-02
-1.933965599164366722e-03
-8.360601216554641724e-02
-1.949349977076053619e-02
-1.958386600017547607e-02
-1.715590129606425762e-03
-1.471961475908756256e-02
-2.827968075871467590e-02
-3.327411040663719177e-02
1.855828240513801575e-02
3.398492187261581421e-02
-1.263740006834268570e-02
9.992240369319915771e-02
8.283717185258865356e-02
2.930817939341068268e-02
6.717449426651000977e-02
7.411727309226989746e-02
1.047811284661293030e-01
-7.768781483173370361e-02
5.181419476866722107e-02
5.570278316736221313e-02
-1.527028251439332962e-02
-9.748602658510208130e-02
-7.932329922914505005e-02
5.957150459289550781e-02
-2.094068564474582672e-02
-7.007474452257156372e-02
6.949272751808166504e-02
-1.005132449790835381e-03
2.381217479705810547e-02
3.464286401867866516e-02
-1.022575199604034424e-01
-3.294765576720237732e-02
7.968717068433761597e-02
-2.718711458146572113e-02
-1.016966477036476135e-01
4.682224616408348083e-02
1.091042254120111465e-02
-3.987555578351020813e-02
-5.108461156487464905e-02
-7.797660678625106812e-02
-3.616609424352645874e-02
-5.938562750816345215e-02
-5.025278776884078979e-03
-3.582664579153060913e-02
-2.071703784167766571e-02
1.599766127765178680e-02
-1.362647954374551773e-02
-3.361103683710098267e-02
-3.680348396301269531e-02
-3.296261653304100037e-02
3.627651603892445564e-03
1.196524314582347870e-02
1.034248843789100647e-01
2.495726756751537323e-02
1.947937160730361938e-02
-2.874748781323432922e-02
-3.295602649450302124e-02
5.996671039611101151e-03
1.056094020605087280e-01
-2.436621813103556633e-03
-9.406403638422489166e-03
7.033789902925491333e-02
-5.282799899578094482e-02
2.053525671362876892e-02
3.816946223378181458e-02
-2.525049634277820587e-02
-3.753799013793468475e-03
3.348744660615921021e-02
-1.539027970284223557e-02
1.398002356290817261e-02
7.390755228698253632e-03
1.771222427487373352e-02
-9.036407805979251862e-03
5.852595437318086624e-03
-4.813040420413017273e-02
-1.198815628886222839e-01
-8.925403654575347900e-02
-4.766013007611036301e-03
2.513089682906866074e-03
-6.852643191814422607e-02
2.907896647229790688e-03
1.710929162800312042e-02
-5.342046916484832764e-02
-9.522974491119384766e-03
-1.290165036916732788e-01
-8.861721307039260864e-02
5.419782549142837524e-02
9.489514864981174469e-03
-1.022898629307746887e-01
3.684909548610448837e-03
4.960970953106880188e-03
-5.274412781000137329e-02
-3.351082559674978256e-03
-4.532570019364356995e-02
-8.909653872251510620e-02
5.913587659597396851e-02
7.684615999460220337e-02
1.204140391200780869e-02
1.629940234124660492e-02
7.472630124539136887e-03
7.019022852182388306e-02
3.651990788057446480e-03
-7.814907282590866089e-02
2.153857797384262085e-02
3.785937651991844177e-02
1.467956006526947021e-01
5.267321690917015076e-02
1.606103628873825073e-01
1.396905444562435150e-02
7.889275997877120972e-02
8.461302146315574646e-03
-2.859879843890666962e-02
1.053864322602748871e-02
-3.632248938083648682e-02
4.947130754590034485e-02
7.097055017948150635e-02
-5.950242280960083008e-02
1.002515293657779694e-02
6.940587610006332397e-02
3.615664318203926086e-04
7.892746478319168091e-03
-5.417137965559959412e-02
1.265474781394004822e-02
-9.570375084877014160e-02
-2.622455172240734100e-02
2.167928591370582581e-02
-2.158356644213199615e-02
1.368803437799215317e-02
-1.473555415868759155e-01
-7.078296691179275513e-02
-1.662083715200424194e-01
-9.267880022525787354e-02
-4.000057280063629150e-02
-1.163237318396568298e-01
-1.363761872053146362e-01
-6.930049508810043335e-02
-1.542311310768127441e-01
4.923690110445022583e-02
6.536057591438293457e-02
-1.815170980989933014e-02
-3.755160421133041382e-02
3.437453135848045349e-02
1.308744251728057861e-01
1.735029369592666626e-02
7.115790247917175293e-02
-3.032024204730987549e-02
1.280796080827713013e-01
1.891301758587360382e-02
4.776294156908988953e-02
-5.047081783413887024e-02
-3.061963245272636414e-02
1.025953814387321472e-01
-9.529211558401584625e-03
-3.686371445655822754e-02
-7.040195167064666748e-03
-1.173747703433036804e-01
-8.075474202632904053e-02
-3.770187869668006897e-02
-3.720824047923088074e-02
3.119860589504241943e-02
-5.198599398136138916e-02
2.472515590488910675e-02
1.710239099338650703e-03
5.207411944866180420e-02
5.507112015038728714e-03
7.517480105161666870e-02
-8.248633705079555511e-03
-6.452755071222782135e-03
-1.964271068572998047e-02
1.162239164113998413e-01
1.285710604861378670e-03
3.179586492478847504e-03
-3.458760678768157959e-02
2.313568256795406342e-02
1.095100939273834229e-01
4.301762953400611877e-02
9.604647755622863770e-03
-9.592598676681518555e-02
5.246678739786148071e-02
-8.131156116724014282e-02
1.063447445631027222e-02
5.640080198645591736e-02
1.194883231073617935e-02
2.310505509376525879e-02
6.224911287426948547e-02
1.007119044661521912e-01
5.007995665073394775e-02
-3.509328141808509827e-02
-4.441968351602554321e-02
-1.001885309815406799e-01
3.883701190352439880e-02
-4.480731487274169922e-02
-7.738873828202486038e-03
-2.997387386858463287e-02
-1.769204251468181610e-02
-9.468722343444824219e-02
-7.800468057394027710e-02
2.688313089311122894e-02
1.273197960108518600e-02
2.595964260399341583e-02
-1.594446152448654175e-01
-2.700158581137657166e-02
-8.036617189645767212e-03
-6.607323884963989258e-02
-1.768831396475434303e-03
-1.190709322690963745e-02
4.065637290477752686e-02
-1.282760966569185257e-02
-1.341967936605215073e-02
5.967370048165321350e-02
3.756170719861984253e-02
3.608157485723495483e-02
6.217850744724273682e-02
4.984726756811141968e-02
-1.529078185558319092e-02
2.498142607510089874e-02
9.746469557285308838e-03
3.244522213935852051e-02
9.431624412536621094e-02
7.572443038225173950e-02
5.820764973759651184e-02
8.602838218212127686e-02
-6.683176010847091675e-02
1.439874805510044098e-02
-4.402589052915573120e-02
-2.388067170977592468e-02
2.177117578685283661e-02
9.562310576438903809e-02
-3.951718658208847046e-02
2.050894498825073242e-02
-4.362164065241813660e-02
1.481564715504646301e-02
2.097978070378303528e-02
-7.375770062208175659e-02
-3.836418688297271729e-02
2.031437121331691742e-02
-4.001522809267044067e-02
-4.321118444204330444e-02
-3.447401896119117737e-02
-7.393646985292434692e-02
5.510594695806503296e-02
3.973624669015407562e-03
6.172177195549011230e-02
7.666685152798891068e-03
-4.291195422410964966e-02
-2.201181650161743164e-02
2.469913102686405182e-03
-3.934174403548240662e-02
5.343900993466377258e-02
7.390524446964263916e-02
8.569117635488510132e-02
4.684295877814292908e-02
3.650529310107231140e-02
1.426508929580450058e-02
-5.968161299824714661e-02
-2.872941642999649048e-02
-3.794510290026664734e-02
1.082778424024581909e-01
1.365712583065032959e-01
8.727522939443588257e-02
9.005026519298553467e-02
1.826524548232555389e-02
-5.134948343038558960e-02
-5.691946297883987427e-02
-3.729576990008354187e-02
-3.747163340449333191e-02
-7.800899446010589600e-02
-7.672544103115797043e-03
-2.102540247142314911e-02
-3.971737623214721680e-02
2.688810229301452637e-02
6.663469225168228149e-02
-3.698521060869097710e-03
8.437076956033706665e-02
-6.664922460913658142e-03
6.419114768505096436e-02
8.161980658769607544e-02
3.327630087733268738e-02
2.633142517879605293e-03
-8.203893154859542847e-02
-6.812853366136550903e-02
-3.191113471984863281e-02
1.190673466771841049e-02
4.535262286663055420e-02
-1.623266842216253281e-03
-1.484002266079187393e-02
-1.838825643062591553e-02
4.515292239375412464e-04
-4.272506048437207937e-04
-3.581519424915313721e-02
-1.108117401599884033e-02
-1.470153126865625381e-02
-4.324591532349586487e-02
-2.132024988532066345e-02
1.695903576910495758e-02
-3.834569826722145081e-02
1.266376972198486328e-01
5.479975044727325439e-02
-1.737008988857269287e-02
8.271249011158943176e-03
1.534762978553771973e-01
7.903663069009780884e-02
-4.116751998662948608e-02
1.059960015118122101e-02
7.799252122640609741e-02
-8.423280715942382812e-02
2.336930297315120697e-02
1.074701324105262756e-01
-6.250613182783126831e-02
1.207465399056673050e-02
-6.152176111936569214e-02
-9.207065217196941376e-03
3.590355068445205688e-02
-1.961554773151874542e-02
9.343773126602172852e-02
3.089875681325793266e-03
-8.645676076412200928e-03
-7.793431729078292847e-02
-4.442272242158651352e-03
5.309274792671203613e-02
2.027881331741809845e-03
3.903082013130187988e-02
-5.223320052027702332e-02
9.565284848213195801e-02
-3.840112313628196716e-02
1.954472064971923828e-02
-9.296560660004615784e-03
-2.830007858574390411e-02
-1.025406830012798309e-02
-8.226802945137023926e-02
-8.958711475133895874e-02
-6.574657559394836426e-02
-2.528996020555496216e-02
3.437933046370744705e-03
-2.932816930115222931e-02
-8.972839266061782837e-02
1.273745554499328136e-03
-1.546234916895627975e-02
-3.262031450867652893e-02
7.433189451694488525e-02
4.217923060059547424e-02
1.818695478141307831e-02
5.800373852252960205e-02
2.515505254268646240e-02
2.519269287586212158e-02
6.379511207342147827e-02
1.521638780832290649e-01
5.351963266730308533e-02
3.632136806845664978e-02
2.555773966014385223e-02
-1.313283443450927734e-01
-2.178144454956054688e-02
6.012422218918800354e-02
-5.169026926159858704e-02
-2.015708945691585541e-02
-5.181010439991950989e-02
-7.650096714496612549e-02
-6.225946173071861267e-02
-7.943475246429443359e-02
3.101167082786560059e-02
8.434659242630004883e-02
5.775025486946105957e-02
-4.777357354760169983e-02
-8.201522380113601685e-02
-5.827786773443222046e-02
3.631594823673367500e-03
-4.385888203978538513e-02
-1.037261486053466797e-01
1.258868128061294556e-01
5.866544670425355434e-04
-8.342673629522323608e-02
-2.596737258136272430e-02
-1.077315285801887512e-01
-1.079210937023162842e-01
8.108688890933990479e-02
4.940835759043693542e-03
-2.854810468852519989e-02
1.491314470767974854e-01
5.175300687551498413e-02
-1.470200158655643463e-02
-9.917864203453063965e-02
-6.326133012771606445e-02
-9.748321026563644409e-02
3.850304335355758667e-02
4.040962457656860352e-02
8.838815987110137939e-02
3.237786516547203064e-02
1.984644867479801178e-02
5.950197950005531311e-02
6.440055370330810547e-02
6.214488297700881958e-02
2.925260737538337708e-02
-8.547088131308555603e-03
-6.385503709316253662e-02
-5.896699801087379456e-02
-5.402166023850440979e-02
-1.002417430281639099e-01
-4.081720486283302307e-02
1.203027442097663879e-01
6.509566307067871094e-02
6.374672055244445801e-02
-6.250765919685363770e-02
5.929913371801376343e-03
-1.009212434291839600e-02
-6.965988874435424805e-02
-9.168080240488052368e-02
-7.090610265731811523e-02
-6.162169948220252991e-02
-5.853188782930374146e-02
-2.386156097054481506e-02
2.371077239513397217e-02
2.913624607026576996e-02
7.673731539398431778e-03
6.103560701012611389e-02
4.729107394814491272e-02
-2.215363457798957825e-02
4.448931291699409485e-02
-1.143328752368688583e-02
3.011708380654454231e-03
-3.417962789535522461e-02
7.212422206066548824e-04
-5.113668367266654968e-02
6.973738782107830048e-03
1.308674365282058716e-02
3.184901550412178040e-02
-2.842136472463607788e-02
1.068199984729290009e-03
-4.816845431923866272e-02
7.233217824250459671e-03
-6.389024853706359863e-02
-5.788297206163406372e-02
-1.950333826243877411e-02
-2.166484110057353973e-02
7.224031537771224976e-02
3.145934641361236572e-02
1.434040162712335587e-02
-9.771221317350864410e-03
6.528162211179733276e-02
3.478100150823593140e-02
3.402400761842727661e-02
-3.572955355048179626e-02
5.467365961521863937e-03
-6.625396665185689926e-03
8.244682103395462036e-03
-2.320701722055673599e-03
-4.323274642229080200e-02
-5.681856721639633179e-02
-1.316814497113227844e-02
-2.537295408546924591e-02
-5.715157371014356613e-03
-1.013290733098983765e-01
-1.467333547770977020e-02
-1.136761065572500229e-02
-8.589145727455615997e-03
1.028865296393632889e-02
4.321561753749847412e-02
9.496062994003295898e-03
2.295339852571487427e-02
-5.850084498524665833e-02
2.674567326903343201e-02
4.181366041302680969e-02
-4.291626811027526855e-02
-6.461428105831146240e-02
-5.513240024447441101e-02
1.356225088238716125e-02
2.844105288386344910e-02
1.351293176412582397e-02
-1.662913523614406586e-02
-1.435877010226249695e-02
1.217774376273155212e-01
-6.405856460332870483e-02
-9.602735936641693115e-02
-8.764396607875823975e-02
-1.303601078689098358e-02
-2.358816377818584442e-02
-8.116991072893142700e-02
4.637765511870384216e-02
-2.725564409047365189e-04
-3.904766216874122620e-02
-8.937311172485351562e-02
-5.824050307273864746e-02
-2.687154524028301239e-02
-5.482956394553184509e-02
-4.587830230593681335e-02
2.247143536806106567e-02
-2.396951802074909210e-02
9.755074977874755859e-03
3.073666244745254517e-02
-1.738257892429828644e-02
-1.046415697783231735e-02
-7.491772621870040894e-02
-7.907474040985107422e-02
-4.087788984179496765e-02
8.479421958327293396e-03
-2.736660651862621307e-02
3.398562222719192505e-02
8.593355864286422729e-02
-2.494784444570541382e-02
-4.749976843595504761e-02
-1.974485442042350769e-02
3.824395313858985901e-02
1.518705207854509354e-02
-5.757323931902647018e-03
-1.931379735469818115e-02
1.646728254854679108e-02
-1.932147704064846039e-02
-5.960312113165855408e-02
-9.319034218788146973e-02
-4.414952918887138367e-02
3.616402670741081238e-02
7.125430554151535034e-02
-1.505301333963871002e-02
-1.789555139839649200e-02
1.637373864650726318e-02
6.544577330350875854e-02
6.079827621579170227e-02
8.460744470357894897e-02
1.106402277946472168e-02
5.677448958158493042e-02
6.276819854974746704e-02
4.369118250906467438e-03
-7.485969457775354385e-03
-6.720777135342359543e-03
-2.267490886151790619e-02
-2.835001423954963684e-02
6.478460878133773804e-02
2.805668488144874573e-02
3.622107580304145813e-02
3.726937994360923767e-02
1.233658287674188614e-02
-3.245701268315315247e-02
-1.436606235802173615e-02
-5.667925626039505005e-02
-5.250106565654277802e-03
-4.746205732226371765e-02
-1.264103222638368607e-03
6.955162435770034790e-02
1.510871574282646179e-02
-1.116327047348022461e-01
-9.595932066440582275e-02
-1.034292206168174744e-01
-6.274655461311340332e-02
5.153634399175643921e-02
2.196778915822505951e-02
-1.359687447547912598e-01
1.039748340845108032e-01
8.423621766269207001e-03
-1.426155567169189453e-01
5.678536742925643921e-02
-7.868801057338714600e-02
-6.816376745700836182e-02
2.029672265052795410e-02
7.341980934143066406e-02
3.389767929911613464e-02
7.345373928546905518e-02
7.065911591053009033e-02
8.644501119852066040e-02
4.483915492892265320e-02
9.296862781047821045e-02
1.853410154581069946e-02
1.093307286500930786e-01
-4.244856536388397217e-02
4.957581683993339539e-02
-3.545073792338371277e-02
-4.673737287521362305e-02
-4.018741101026535034e-02
-6.416521966457366943e-03
-7.973265647888183594e-02
3.836598619818687439e-02
-1.341383159160614014e-02
-6.956733763217926025e-02
-1.539856940507888794e-01
1.019870191812515259e-01
-4.377121850848197937e-02
-1.494150757789611816e-01
6.073585525155067444e-02
-8.159245550632476807e-02
-1.008233278989791870e-01
1.424392405897378922e-02
8.561819791793823242e-02
2.906441129744052887e-02
4.030227288603782654e-02
1.213280707597732544e-01
-5.392650607973337173e-03
-3.182353451848030090e-02
7.167084515094757080e-02
5.776713043451309204e-02
7.417340576648712158e-02
-2.714555524289608002e-02
-6.560095399618148804e-02
7.745882123708724976e-02
2.319809794425964355e-02
-3.689697384834289551e-02
1.459060329943895340e-02
-2.460714243352413177e-02
-8.729445189237594604e-02
-7.176060229539871216e-02
-5.421298369765281677e-02
-2.239067293703556061e-02
9.016892313957214355e-02
2.490004524588584900e-02
2.458752505481243134e-02
-4.183044284582138062e-02
-7.487588445656001568e-04
5.381372570991516113e-02
-4.864025115966796875e-02
-1.052745729684829712e-01
-8.443393558263778687e-02
3.928132727742195129e-02
-3.379513323307037354e-02
-7.741051912307739258e-02
6.955289095640182495e-02
3.261767700314521790e-02
-2.308734320104122162e-02
-1.218741945922374725e-02
-5.645278841257095337e-02
1.242627017199993134e-02
6.302220746874809265e-03
-5.022143200039863586e-02
-7.151180505752563477e-02
-1.619406975805759430e-02
-3.300381824374198914e-02
-5.052011460065841675e-02
-9.045580774545669556e-02
-1.023806259036064148e-01
-8.892105519771575928e-02
6.207058206200599670e-02
-4.811373725533485413e-02
-8.722959458827972412e-02
8.490373939275741577e-02
-6.425762921571731567e-02
-9.817317128181457520e-02
4.221058636903762817e-02
4.357147961854934692e-02
2.923063933849334717e-02
6.607417762279510498e-02
4.379257559776306152e-02
-6.886921077966690063e-02
1.584414392709732056e-01
-1.861727610230445862e-02
-9.225412458181381226e-02
4.850596562027931213e-02
-2.625016123056411743e-02
-1.025523990392684937e-01
4.258607327938079834e-02
3.383279219269752502e-02
-1.507525914348661900e-03
-6.146306917071342468e-02
-2.107855491340160370e-02
-2.080211043357849121e-02
-1.133061852306127548e-02
-6.000031903386116028e-02
-1.227211877703666687e-01
2.852115593850612640e-02
-5.519704520702362061e-02
-8.840756118297576904e-02
-3.799739480018615723e-02
-6.242292001843452454e-02
3.154294937849044800e-02
6.162680685520172119e-02
-4.472978413105010986e-03
-6.279099732637405396e-02
-2.021985501050949097e-02
6.267874035984277725e-03
-1.063336208462715149e-01
3.162234276533126831e-02
2.398080937564373016e-02
-1.101771835237741470e-02
-4.288038611412048340e-02
-3.275283426046371460e-02
-1.500257104635238647e-02
6.180582102388143539e-03
2.925656549632549286e-02
7.894475013017654419e-03
9.655484929680824280e-03
-9.817544370889663696e-02
-6.087396293878555298e-02
-1.989041222259402275e-03
-1.452756859362125397e-02
8.538053371012210846e-03
-5.043864995241165161e-02
-1.590740494430065155e-02
-4.813887178897857666e-02
2.570843324065208435e-02
6.810899078845977783e-02
4.292544722557067871e-02
-5.781519040465354919e-02
-9.509556926786899567e-03
2.934530843049287796e-03
5.631617736071348190e-03
-3.070425800979137421e-02
2.419150806963443756e-02
7.276850938796997070e-02
8.059903979301452637e-02
2.437413111329078674e-02
4.807589203119277954e-02
2.746639586985111237e-02
3.447665600106120110e-03
1.361826155334711075e-02
-4.702080413699150085e-02
-1.036978811025619507e-01
-7.138133794069290161e-02
-1.717310748063027859e-03
-1.310669537633657455e-02
-2.162388712167739868e-02
3.738432005047798157e-02
-2.755806967616081238e-02
1.224795915186405182e-02
1.036577858030796051e-02
-1.748740486800670624e-02
1.199738606810569763e-01
7.324237376451492310e-02
3.481814265251159668e-02
1.943024806678295135e-02
1.411295309662818909e-02
1.879055984318256378e-02
-2.214057371020317078e-02
3.160263597965240479e-02
4.929350316524505615e-02
3.012426570057868958e-02
4.540786892175674438e-02
-6.740797311067581177e-02
-2.606691792607307434e-02
7.615795731544494629e-02
7.179965823888778687e-02
-6.706038489937782288e-03
-3.565615508705377579e-03
-5.898729711771011353e-02
-7.597244530916213989e-02
-1.017052400857210159e-02
2.208465524017810822e-02
1.461922843009233475e-02
5.449651926755905151e-02
-5.104296654462814331e-02
-1.927306875586509705e-02
-7.270412147045135498e-02
-8.594293147325515747e-02
-3.910644352436065674e-02
-2.941183187067508698e-02
-3.837067633867263794e-02
-2.642229013144969940e-02
-8.350862190127372742e-03
3.436404094099998474e-02
-8.448778837919235229e-02
-2.011462859809398651e-02
-4.081315919756889343e-02
-5.750092677772045135e-04
-3.423479571938514709e-02
-4.810649435967206955e-03
-1.567121408879756927e-02
5.090594664216041565e-02
4.866744205355644226e-02
1.632329542189836502e-03
4.648314043879508972e-02
5.886254087090492249e-02
5.123820900917053223e-02
7.974411547183990479e-02
4.591803252696990967e-02
5.171272903680801392e-02
5.507280677556991577e-02
-5.046063452027738094e-04
3.224363550543785095e-02
-1.637409813702106476e-02
-6.443684548139572144e-02
-1.386696696281433105e-01
-8.213569223880767822e-02
-8.103182911872863770e-02
5.520474165678024292e-02
8.040779083967208862e-02
3.230239823460578918e-02
2.221727371215820312e-02
7.196593214757740498e-04
-6.380251049995422363e-02
3.830364719033241272e-02
-2.810663077980279922e-03
-5.637463182210922241e-02
2.918760851025581360e-02
2.645812369883060455e-02
9.427214413881301880e-02
8.442400395870208740e-02
-3.107610717415809631e-02
2.532538399100303650e-02
5.310316756367683411e-02
4.842934012413024902e-02
-8.840154856443405151e-02
4.842371121048927307e-02
9.633453190326690674e-02
1.589317806065082550e-02
-2.406755276024341583e-02
-8.647209405899047852e-02
-1.305125951766967773e-01
-9.102682024240493774e-02
-1.004869043827056885e-01
-7.388896774500608444e-03
3.767447918653488159e-02
5.988053977489471436e-02
2.963971346616744995e-02
-3.575403988361358643e-02
1.569923246279358864e-03
1.194391865283250809e-02
-5.582774057984352112e-02
-2.309494093060493469e-02
2.097354643046855927e-02
-3.051544353365898132e-02
2.127609960734844208e-02
3.874169290065765381e-02
-8.796482533216476440e-02
-5.662995576858520508e-02
-8.001578040421009064e-03
7.819786667823791504e-02
1.343399882316589355e-01
7.278378307819366455e-02
7.187772542238235474e-02
-5.900951568037271500e-03
-2.206649631261825562e-02
-6.187449768185615540e-02
-7.800433039665222168e-02
-7.094895094633102417e-02
-5.979365110397338867e-02
-1.410479750484228134e-02
1.348109450191259384e-02
-4.835192859172821045e-02
7.691685855388641357e-02
2.646917849779129028e-02
1.081778034567832947e-01
-1.450467854738235474e-02
-7.699171453714370728e-02
-1.008824072778224945e-02
-5.670620873570442200e-02
6.703753024339675903e-02
-3.540693968534469604e-02
1.096586808562278748e-01
-1.010079961270093918e-02
5.594889447093009949e-02
3.831762447953224182e-02
5.905349552631378174e-02
-1.379272341728210449e-02
1.632798463106155396e-01
6.079675257205963135e-02
-3.611686080694198608e-02
-4.993693158030509949e-02
-6.116786599159240723e-02
-6.702408939599990845e-02
-7.489217072725296021e-02
-7.157560437917709351e-02
-2.973166108131408691e-02
-4.566701874136924744e-02
-6.288847327232360840e-02
-1.300814328715205193e-03
2.409957721829414368e-02
-8.662796020507812500e-02
3.359418362379074097e-02
-5.027168244123458862e-02
-3.465161845088005066e-02
-3.095108643174171448e-02
1.848296378739178181e-03
-8.196241408586502075e-02
9.824409335851669312e-02
5.320777650922536850e-03
-5.748114734888076782e-02
-1.988642849028110504e-02
1.573363989591598511e-01
6.283546239137649536e-02
1.031539589166641235e-01
1.515282392501831055e-01
-3.845058381557464600e-02
-3.588698431849479675e-02
-7.731422036886215210e-02
5.454467236995697021e-02
-4.206944257020950317e-02
1.321065425872802734e-01
-1.659748377278447151e-03
2.641060575842857361e-02
-4.232553765177726746e-02
1.608765497803688049e-02
3.144360845908522606e-03
-4.068376868963241577e-02
-3.654947131872177124e-02
8.615352213382720947e-03
-8.539646863937377930e-02
-7.098536938428878784e-02
7.679215166717767715e-03
2.737169899046421051e-02
2.575924247503280640e-02
4.545959085226058960e-02
3.438752144575119019e-02
2.857206016778945923e-02
-1.690128445625305176e-02
5.459807813167572021e-02
3.086362406611442566e-02
4.641995951533317566e-02
2.484193257987499237e-02
7.967713288962841034e-03
7.692110538482666016e-02
-1.042282022535800934e-02
-5.740784853696823120e-02
-9.545130282640457153e-02
7.956366240978240967e-02
7.755606621503829956e-02
-2.186180464923381805e-02
1.415578871965408325e-01
-1.174141000956296921e-02
-1.990497671067714691e-02
-7.419571280479431152e-02
-1.232335641980171204e-01
2.406495390459895134e-03
-6.938853859901428223e-02
-2.228198572993278503e-02
-2.167391777038574219e-02
4.511280357837677002e-02
2.210076153278350830e-02
6.942772120237350464e-02
4.037624225020408630e-03
-1.351276487112045288e-01
-7.303540129214525223e-03
-9.954398870468139648e-02
5.316471680998802185e-02
4.326780792325735092e-03
-3.218138590455055237e-02
-4.374400898814201355e-02
5.017319321632385254e-02
2.978686615824699402e-02
-3.692662715911865234e-02
-1.857136003673076630e-02
-6.519166380167007446e-02
-4.740492440760135651e-03
6.548342108726501465e-02
9.092792868614196777e-03
-4.033021256327629089e-02
-2.127669751644134521e-02
-3.813625127077102661e-02
-1.097981003113090992e-03
6.805032491683959961e-02
2.768217213451862335e-02
8.439471945166587830e-03
6.083521246910095215e-02
2.388524450361728668e-02
2.897416241466999054e-02
4.796744883060455322e-02
-2.814833447337150574e-02
-2.380172023549675941e-03
1.268997788429260254e-03
1.031381636857986450e-01
1.223127096891403198e-01
5.459387903101742268e-04
4.978985339403152466e-02
-1.751554314978420734e-03
-2.915072813630104065e-02
3.707905858755111694e-02
-1.662816293537616730e-02
5.352148786187171936e-02
9.724910557270050049e-02
1.929046213626861572e-02
3.476985963061451912e-03
-1.063528563827276230e-02
7.306747138500213623e-02
2.310623042285442352e-02
1.199056021869182587e-02
4.751287400722503662e-02
2.664662664756178856e-03
-3.646730631589889526e-02
-8.678355813026428223e-02
1.575404591858386993e-02
-4.378429427742958069e-02
-1.539643201977014542e-02
-1.218613088130950928e-01
7.655402179807424545e-03
2.599110268056392670e-02
-5.668441206216812134e-02
7.637178152799606323e-02
5.555758997797966003e-02
-1.339591573923826218e-02
3.127443138509988785e-03
4.518441110849380493e-02
-1.461053937673568726e-01
-8.030319958925247192e-02
-2.544471621513366699e-02
-1.287415474653244019e-01
-1.709328144788742065e-01
-4.704591259360313416e-02
-6.452267616987228394e-02
-1.589594781398773193e-01
-9.289872646331787109e-02
5.065503343939781189e-02
-4.580346867442131042e-03
-9.232571721076965332e-02
3.901090100407600403e-02
4.390227049589157104e-02
2.929455973207950592e-02
-4.466367140412330627e-02
1.878503896296024323e-02
3.881314024329185486e-02
-2.409855648875236511e-02
-1.880208589136600494e-02
1.261147577315568924e-02
7.804111391305923462e-02
-3.593092039227485657e-02
-4.212962090969085693e-02
4.084660857915878296e-02
-3.026992268860340118e-02
-4.667742177844047546e-02
-1.033232267946004868e-02
-2.575062960386276245e-02
-4.182162880897521973e-02
3.880683705210685730e-02
-1.087960526347160339e-01
-2.350967377424240112e-02
-7.839658297598361969e-03
-2.191174589097499847e-02
-2.835645154118537903e-02
2.978095412254333496e-02
3.505887463688850403e-03
-1.955679431557655334e-02
4.887340590357780457e-03
2.701057121157646179e-02
-2.773738652467727661e-02
-5.309806391596794128e-02
1.970641501247882843e-02
-5.259006842970848083e-02
-2.906278148293495178e-02
-4.933492094278335571e-02
5.478624626994132996e-02
1.296993996948003769e-02
3.945708647370338440e-02
4.109782725572586060e-02
1.019025593996047974e-01
4.274419322609901428e-02
1.813386194407939911e-02
-3.495889529585838318e-02
-9.755576029419898987e-03
-7.075025700032711029e-03
-1.188204661011695862e-01
-3.757576644420623779e-02
-5.840334296226501465e-02
-6.770026683807373047e-02
-3.684769943356513977e-02
4.925627261400222778e-03
-5.833493918180465698e-02
-8.113910444080829620e-03
-4.166691377758979797e-02
-1.372344642877578735e-01
-7.528326660394668579e-02
-6.378294527530670166e-02
-8.973796665668487549e-02
-9.205639362335205078e-02
-1.065723374485969543e-01
2.080618217587471008e-02
8.182458579540252686e-02
5.691642314195632935e-02
3.886073827743530273e-02
1.302877366542816162e-01
5.634516850113868713e-02
5.287996307015419006e-02
3.731678798794746399e-02
4.395746812224388123e-02
-5.413310974836349487e-02
-4.453219845890998840e-02
6.259809434413909912e-02
2.469346858561038971e-02
-7.843171246349811554e-03
-2.657688409090042114e-02
5.887559149414300919e-03
-1.851059682667255402e-02
-2.903246507048606873e-02
4.434692859649658203e-02
6.662443047389388084e-05
-2.461862750351428986e-02
8.758724480867385864e-02
6.727991998195648193e-02
4.619617015123367310e-03
1.537409871816635132e-01
1.558567136526107788e-01
3.708586469292640686e-02
1.221304088830947876e-01
5.942936614155769348e-02
9.597973525524139404e-02
1.261340379714965820e-01
1.375271230936050415e-01
1.135212928056716919e-01
4.310145974159240723e-02
2.131931856274604797e-02
-2.766915783286094666e-02
-1.705891638994216919e-02
3.706358745694160461e-02
1.950442045927047729e-02
-8.144365623593330383e-03
-4.208194091916084290e-02
1.325285248458385468e-02
-3.263069689273834229e-02
-8.906182646751403809e-02
-5.014832317829132080e-02
2.715715020895004272e-02
1.120363827794790268e-02
-3.506300970911979675e-02
1.299208551645278931e-01
4.852319881319999695e-02
-2.156626991927623749e-02
-2.358542941510677338e-02
-8.359483443200588226e-03
-6.011393293738365173e-02
-1.333619058132171631e-01
-4.214119166135787964e-02
3.427243977785110474e-02
-1.284151226282119751e-01
-1.449061185121536255e-02
1.250153183937072754e-01
-5.666332319378852844e-02
3.834275703411549330e-04
7.388112694025039673e-02
-6.592241674661636353e-02
-7.430436462163925171e-02
-2.933502569794654846e-02
-5.871492624282836914e-02
-5.078691989183425903e-02
-1.787774451076984406e-02
-8.412864804267883301e-02
-1.591804623603820801e-02
-3.850069362670183182e-03
-8.167890459299087524e-02
1.541653741151094437e-02
7.886639650678262115e-06
-5.262653902173042297e-02
-3.899248316884040833e-02
-8.514005690813064575e-02
-2.398089505732059479e-02
-6.086861714720726013e-02
-7.266446948051452637e-02
1.996923610568046570e-02
2.680544741451740265e-02
5.296749621629714966e-02
-6.298056989908218384e-02
6.011118739843368530e-02
4.823314957320690155e-03
2.745662815868854523e-02
9.331537038087844849e-02
3.271948918700218201e-02
1.544296275824308395e-03
-4.478350747376680374e-03
-2.459619566798210144e-02
3.410204127430915833e-02
-2.494076266884803772e-02
-1.626091822981834412e-02
8.633407205343246460e-02
-4.532421752810478210e-02
-6.113504618406295776e-02
-7.390376925468444824e-02
-2.586805820465087891e-02
-1.241547521203756332e-02
-6.489505618810653687e-02
-4.795689880847930908e-02
-6.583748757839202881e-02
-3.135759383440017700e-02
-1.158325001597404480e-02
-6.159618496894836426e-02
-9.179104119539260864e-02
8.635850250720977783e-02
4.280189052224159241e-02
-6.937794387340545654e-02
1.036480441689491272e-01
4.921899735927581787e-02
-1.005969345569610596e-01
7.545270025730133057e-02
2.704018913209438324e-02
-3.178391978144645691e-02
-1.868568360805511475e-01
4.212967178318649530e-04
4.543531313538551331e-02
-5.855885520577430725e-02
7.644518464803695679e-02
1.353957783430814743e-02
5.992791056632995605e-02
6.000613421201705933e-02
-5.834672227501869202e-02
-2.694397419691085815e-02
3.523861616849899292e-02
-3.218326717615127563e-02
-6.216437742114067078e-02
-2.344784140586853027e-02
-6.833461672067642212e-02
-8.814610540866851807e-03
-1.676266640424728394e-02
1.271432451903820038e-02
-7.605352438986301422e-03
6.252775341272354126e-02
-4.531721025705337524e-02
-4.989729076623916626e-02
2.808548882603645325e-02
-2.769180014729499817e-02
-3.549301251769065857e-02
-8.929906785488128662e-02
-2.305304072797298431e-02
-8.224059641361236572e-02
-1.373144146054983139e-02
3.854481130838394165e-02
7.145442534238100052e-03
1.285187453031539917e-01
2.760181389749050140e-02
5.525559559464454651e-02
1.401321589946746826e-01
1.181187946349382401e-02
-3.911858424544334412e-02
9.978111088275909424e-02
1.635048189200460911e-03
-3.642721101641654968e-02
6.678682565689086914e-02
-9.196903556585311890e-03
-5.822957959026098251e-03
6.329057738184928894e-03
-4.925146698951721191e-02
-1.332881860435009003e-02
-2.772316150367259979e-02
-2.196725457906723022e-02
-3.563482314348220825e-02
-4.824325814843177795e-02
-1.994059421122074127e-02
-1.443956047296524048e-02
-3.314811969175934792e-03
5.644853040575981140e-02
-1.416091248393058777e-02
2.645954489707946777e-02
8.220055699348449707e-02
1.165598630905151367e-01
6.054256483912467957e-02
4.072653874754905701e-02
3.203151747584342957e-03
3.427734225988388062e-02
6.561256945133209229e-02
8.264777064323425293e-02
6.917196512222290039e-02
1.132743507623672485e-01
6.567273288965225220e-02
3.975481912493705750e-02
3.878235816955566406e-02
-1.596040092408657074e-02
-2.714302577078342438e-02
8.379928022623062134e-02
1.487082242965698242e-01
-1.166287995874881744e-02
-6.990843452513217926e-03
1.628115177154541016e-01
-2.117165178060531616e-02
9.925748221576213837e-03
1.707763224840164185e-01
1.192168891429901123e-02
-9.018593281507492065e-02
-1.218208000063896179e-01
-5.638777837157249451e-02
-8.718506246805191040e-02
-3.808044269680976868e-02
5.317698232829570770e-03
-4.901818931102752686e-02
8.823501877486705780e-03
-1.053972821682691574e-02
2.761620795354247093e-03
7.178153842687606812e-02
-7.554311305284500122e-03
8.483103476464748383e-03
5.799216032028198242e-02
-1.631912402808666229e-02
5.392465740442276001e-02
-3.726939111948013306e-02
1.867387443780899048e-02
3.005608357489109039e-02
1.587835997343063354e-01
1.035235449671745300e-01
7.060134410858154297e-02
1.117783635854721069e-01
4.565962031483650208e-02
7.535274326801300049e-02
-3.020340576767921448e-02
-5.928031727671623230e-02
3.396786749362945557e-02
-3.177506849169731140e-02
-6.733231991529464722e-02
-1.005889996886253357e-01
-8.462818711996078491e-02
-3.545831143856048584e-02
3.154408186674118042e-02
2.554504573345184326e-02
5.284105241298675537e-02
-7.391528040170669556e-02
5.712603405117988586e-02
