# (32, 16, 3, 3)
7.422947138547897339e-02
1.242975704371929169e-02
5.292552337050437927e-02
8.510502055287361145e-03
5.421881563961505890e-03
1.252488791942596436e-02
-1.236496865749359131e-01
-9.568741172552108765e-02
5.693271523341536522e-04
-1.418453827500343323e-02
-1.382535696029663086e-02
4.982427507638931274e-02
2.272452786564826965e-02
1.048517599701881409e-02
3.097835183143615723e-02
-5.534456297755241394e-02
-3.148704394698143005e-02
6.954260915517807007e-02
3.561028838157653809e-02
-3.060550987720489502e-02
-1.538045424968004227e-02
-5.677621811628341675e-04
2.925978740677237511e-03
5.484618619084358215e-02
-1.658570021390914917e-02
6.749679800122976303e-03
1.063625235110521317e-02
-4.373838752508163452e-02
-4.616434127092361450e-02
-6.093518435955047607e-02
-5.308973137289285660e-03
-2.103254571557044983e-02
4.426323994994163513e-02
4.063187912106513977e-02
5.136528238654136658e-02
-1.524950098246335983e-02
-4.729678854346275330e-02
-4.692970588803291321e-02
-1.805464364588260651e-02
1.351415645331144333e-03
-3.250665590167045593e-02
2.954630181193351746e-02
8.613137900829315186e-02
2.684913016855716705e-02
-4.578575491905212402e-03
8.632687851786613464e-03
-4.374880343675613403e-03
-6.861583888530731201e-02
-2.292140386998653412e-02
-4.197859019041061401e-02
-2.828449383378028870e-02
-4.628377035260200500e-03
-7.214509695768356323e-02
-1.519002020359039307e-01
1.564807258546352386e-02
3.261942043900489807e-02
1.675286889076232910e-02
1.070092059671878815e-02
-6.999653298407793045e-03
1.176294125616550446e-02
-4.265643283724784851e-02
-3.851409256458282471e-02
-3.388476371765136719e-02
2.047492563724517822e-02
-4.162206780165433884e-03
5.893888697028160095e-02
-1.246407441794872284e-02
-6.270684767514467239e-03
3.810979425907135010e-02
-5.939251556992530823e-02
-4.066956415772438049e-02
-1.918516121804714203e-02
-3.344855271279811859e-03
2.505692467093467712e-02
-7.918095798231661320e-04
3.617072477936744690e-02
1.985667087137699127e-02
2.268981188535690308e-02
5.980949383229017258e-03
-6.510200351476669312e-02
-5.862996354699134827e-02
-3.379163099452853203e-03
3.519118204712867737e-02
-1.857844740152359009e-02
-2.793494984507560730e-02
1.030992716550827026e-02
1.612953841686248779e-02
8.636153489351272583e-02
1.108950302004814148e-01
8.416935801506042480e-02
7.338897883892059326e-02
3.479899466037750244e-02
1.152716111391782761e-03
-1.328589618206024170e-01
-2.159198001027107239e-02
1.708913967013359070e-02
-1.069551184773445129e-01
-7.229275256395339966e-02
-2.879829332232475281e-02
3.838128596544265747e-02
2.993257902562618256e-02
3.180798888206481934e-02
-9.618057869374752045e-03
-1.739055383950471878e-03
-7.313545048236846924e-02
-6.035887449979782104e-02
-1.107649728655815125e-01
-1.066219732165336609e-01
2.917535416781902313e-02
1.070577371865510941e-02
-6.796979811042547226e-03
-3.775848448276519775e-02
4.743393510580062866e-03
3.415543586015701294e-02
-9.447193890810012817e-02
-1.373449899256229401e-02
2.796970866620540619e-02
5.961197614669799805e-02
6.043238192796707153e-02
3.514399053528904915e-03
-2.042791806161403656e-02
-1.304405834525823593e-02
-7.005166262388229370e-02
-6.517905741930007935e-02
-1.038912013173103333e-01
-4.382216930389404297e-02
4.620049893856048584e-02
-9.287960827350616455e-03
1.658289879560470581e-02
-8.566921949386596680e-02
-9.201697073876857758e-03
2.023026905953884125e-02
-8.699673414230346680e-02
-1.971321739256381989e-02
2.783536911010742188e-02
-1.751415245234966278e-02
-1.338949892669916153e-03
3.983832895755767822e-03
-6.175852194428443909e-02
7.383487187325954437e-03
-5.888346210122108459e-02
4.420002922415733337e-02
7.276977598667144775e-02
-1.042146421968936920e-02
-4.815980326384305954e-03
1.034049876034259796e-02
-1.986384205520153046e-02
3.862565383315086365e-02
8.429834991693496704e-02
-8.304726332426071167e-02
3.344319388270378113e-02
-3.656559810042381287e-02
-4.269632045179605484e-03
8.830210193991661072e-03
-5.550910253077745438e-03
3.763406723737716675e-02
3.504518419504165649e-02
8.307244628667831421e-03
3.166268020868301392e-02
6.391503661870956421e-02
-1.047213282436132431e-02
2.456148155033588409e-03
-3.420232562348246574e-03
1.301064155995845795e-02
2.989330329000949860e-02
-4.374090954661369324e-02
2.267023548483848572e-02
3.374071791768074036e-03
-7.299221586436033249e-03
1.986151561141014099e-03
-3.485925495624542236e-02
-4.836162552237510681e-02
-9.123741090297698975e-02
-4.047161340713500977e-02
-8.196301758289337158e-02
-1.312344521284103394e-01
-9.296506643295288086e-02
-5.941589176654815674e-02
-2.377174794673919678e-02
-3.828873485326766968e-02
1.795648410916328430e-02
-1.442563906311988831e-02
-3.801447153091430664e-02
-2.914392575621604919e-02
-4.742367938160896301e-02
-5.089876428246498108e-02
-2.043936401605606079e-02
-1.252061105333268642e-03
-2.410093881189823151e-02
-5.126206576824188232e-02
5.132049322128295898e-03
-4.183813929557800293e-02
-2.111311629414558411e-02
1.128818187862634659e-02
1.212752331048250198e-02
-4.037888720631599426e-02
-1.904581440612673759e-03
-2.839381061494350433e-02
2.565983310341835022e-02
7.341597229242324829e-02
4.598321858793497086e-03
8.394878357648849487e-02
3.416344523429870605e-02
-6.122323870658874512e-02
-5.587149062193930149e-04
-7.278582546859979630e-03
-4.131609573960304260e-02
-1.040058326907455921e-03
5.319599807262420654e-02
-1.286397874355316162e-02
2.553783357143402100e-02
1.758839935064315796e-02
-4.407491534948348999e-02
-3.420433774590492249e-02
5.232033785432577133e-03
1.481764204800128937e-02
3.219832107424736023e-02
5.780424550175666809e-02
6.094829179346561432e-03
4.111579060554504395e-02
3.048372082412242889e-02
4.383940622210502625e-02
3.438332676887512207e-02
6.255263090133666992e-02
-1.010237913578748703e-02
-3.782716765999794006e-02
-1.606379151344299316e-01
-5.545159429311752319e-02
-2.672026865184307098e-02
-1.009567379951477051e-01
-2.923350967466831207e-02
-1.083115115761756897e-01
-6.937635689973831177e-02
-6.994154304265975952e-02
2.954443544149398804e-02
-3.007480688393115997e-02
2.384130842983722687e-02
6.491073966026306152e-02
3.662514686584472656e-02
4.902910441160202026e-03
1.196068599820137024e-01
9.440493769943714142e-03
9.760227403603494167e-04
-9.454108774662017822e-02
-2.857760712504386902e-02
-1.063112542033195496e-02
-2.336517721414566040e-02
8.158884011209011078e-03
1.810120418667793274e-02
-4.877534881234169006e-02
3.082954697310924530e-02
1.800639182329177856e-02
3.330235928297042847e-02
6.477369368076324463e-02
6.163442879915237427e-02
9.852895140647888184e-02
4.635148495435714722e-02
9.020341187715530396e-02
5.703664571046829224e-02
4.031426832079887390e-02
-4.916268959641456604e-02
-7.666946202516555786e-02
5.599546432495117188e-02
2.848344109952449799e-02
-5.578099284321069717e-03
2.801318839192390442e-02
4.639976471662521362e-02
4.901580885052680969e-02
2.313424088060855865e-02
1.057087909430265427e-02
-3.759891539812088013e-02
-2.349638007581233978e-02
2.340951375663280487e-02
5.517362058162689209e-02
1.754512824118137360e-02
-1.037218645215034485e-01
6.079910323023796082e-03
-6.224381551146507263e-02
-1.143924705684185028e-02
-8.206578344106674194e-02
-5.525634437799453735e-02
-1.416382193565368652e-01
-5.953655764460563660e-02
-7.838105410337448120e-02
-7.922223955392837524e-02
-1.188851669430732727e-01
-4.582861810922622681e-02
-6.651239935308694839e-03
2.196009643375873566e-02
4.890539869666099548e-02
4.345123842358589172e-02
-2.587585709989070892e-02
-2.886470593512058258e-02
-6.889633089303970337e-02
-8.917240053415298462e-02
-4.327750205993652344e-02
3.254861012101173401e-02
-5.559423193335533142e-02
3.082754090428352356e-02
-1.283626165241003036e-02
6.018796470016241074e-03
4.306207597255706787e-02
5.066927522420883179e-02
-8.230638504028320312e-02
9.905090183019638062e-02
1.354099512100219727e-01
2.331018634140491486e-02
-2.661308040842413902e-03
4.074300080537796021e-02
1.236442849040031433e-02
2.468313463032245636e-02
8.361735381186008453e-03
7.678518159082159400e-05
-1.847421191632747650e-02
-1.361052878201007843e-02
-9.454711526632308960e-02
-4.822700843214988708e-02
2.674336917698383331e-02
2.138984575867652893e-02
7.520362734794616699e-03
-2.564173936843872070e-02
1.259406208992004395e-01
4.218816757202148438e-02
-6.904802471399307251e-02
-4.793757572770118713e-02
-4.749751463532447815e-02
-1.866713352501392365e-02
4.164630919694900513e-02
4.573689028620719910e-02
8.187131024897098541e-03
2.124590985476970673e-02
-7.034399081021547318e-03
-6.929498165845870972e-02
-1.666289940476417542e-02
-4.675171524286270142e-02
-4.663526266813278198e-02
1.728942990303039551e-02
5.656149983406066895e-02
-9.116506204009056091e-03
-2.922258339822292328e-02
3.273040347266942263e-04
-8.338554203510284424e-02
3.854217007756233215e-02
4.202695563435554504e-02
2.192797698080539703e-02
-8.500089868903160095e-03
1.803799904882907867e-02
-8.255496621131896973e-03
-3.376075625419616699e-02
-4.902555420994758606e-02
-6.716682109981775284e-03
5.453583598136901855e-02
2.091213874518871307e-02
4.802463203668594360e-02
-3.200216963887214661e-02
-1.786128245294094086e-02
-3.015252016484737396e-02
-6.805861741304397583e-02
-6.485479325056076050e-02
-2.573762834072113037e-02
6.145700812339782715e-03
1.124422531574964523e-02
1.439280901104211807e-02
1.904561650007963181e-03
1.522935088723897934e-02
9.343582205474376678e-03
-1.838197931647300720e-02
5.486508365720510483e-03
-6.266337586566805840e-04
-1.096293237060308456e-02
3.665441647171974182e-02
1.361207105219364166e-03
3.047393634915351868e-02
2.993962913751602173e-02
3.492326661944389343e-02
1.196381226181983948e-01
1.514774858951568604e-01
-1.896681636571884155e-02
-2.773108147084712982e-02
-4.155773203819990158e-03
8.443268947303295135e-03
-8.072089403867721558e-02
-1.388625521212816238e-02
-2.060524746775627136e-02
-7.233435660600662231e-02
-4.234847426414489746e-02
2.609622664749622345e-02
3.449436649680137634e-02
-1.287103164941072464e-02
-4.557224363088607788e-02
2.059290371835231781e-02
-3.624687343835830688e-02
-8.660239726305007935e-02
-2.662333101034164429e-02
-8.944895118474960327e-02
-5.634353309869766235e-02
-8.785273134708404541e-02
1.438555028289556503e-02
2.091518230736255646e-02
1.881240308284759521e-02
5.119952932000160217e-02
6.299959123134613037e-02
-2.336907759308815002e-02
6.477092206478118896e-02
1.012405753135681152e-01
-2.650263160467147827e-02
1.284838374704122543e-02
1.848615473136305809e-03
-4.370199050754308701e-03
2.956040389835834503e-02
2.293290570378303528e-02
-3.084545023739337921e-02
1.232399488799273968e-03
2.536026015877723694e-02
-2.082644216716289520e-02
-1.394733414053916931e-02
2.600691467523574829e-02
-5.792634561657905579e-02
-4.118350893259048462e-02
-9.088635444641113281e-02
-8.594074100255966187e-02
3.991836309432983398e-02
4.008660092949867249e-02
5.109656136482954025e-03
-2.830263786017894745e-02
-6.418879330158233643e-02
2.849503979086875916e-02
-2.870324067771434784e-02
-1.373498588800430298e-01
4.829327389597892761e-02
-9.287542104721069336e-02
-5.284734070301055908e-02
-3.548073768615722656e-02
3.938556183129549026e-03
4.432165995240211487e-03
-3.102333052083849907e-03
-1.536950655281543732e-02
-8.098299801349639893e-02
1.897695660591125488e-02
5.930606741458177567e-03
-1.379882078617811203e-02
6.531936582177877426e-03
6.551436334848403931e-02
9.011049568653106689e-02
-1.541029382497072220e-02
-1.942781917750835419e-02
3.605875372886657715e-02
-1.864681951701641083e-02
-6.036337837576866150e-02
-2.111605182290077209e-02
-1.729300618171691895e-02
1.436145883053541183e-02
1.956652477383613586e-02
-6.654497236013412476e-02
-5.521911382675170898e-02
-6.928912550210952759e-02
1.986238872632384300e-03
-1.850737631320953369e-02
-4.886899515986442566e-02
6.396581232547760010e-02
-1.612167991697788239e-02
-1.129970047622919083e-02
7.676528394222259521e-02
8.928799629211425781e-02
5.157539620995521545e-03
1.806764677166938782e-02
1.870605535805225372e-02
-2.228990755975246429e-02
3.354505449533462524e-02
1.340978313237428665e-02
1.904549077153205872e-02
1.366115920245647430e-02
4.781624302268028259e-02
4.184133373200893402e-03
2.416201680898666382e-02
2.260125800967216492e-02
-1.924561709165573120e-02
-4.083204083144664764e-03
2.471589669585227966e-02
-9.101691097021102905e-02
-2.205454744398593903e-02
-2.138103172183036804e-02
-4.575755074620246887e-02
4.176086280494928360e-03
4.023541882634162903e-02
1.138285268098115921e-03
-3.888620703946799040e-04
-1.936978776939213276e-03
-6.958125624805688858e-03
-5.355748161673545837e-02
-4.828355088829994202e-02
-1.004066765308380127e-01
2.636878006160259247e-02
9.324069134891033173e-03
-2.601056918501853943e-02
-2.769076079130172729e-02
-3.234903514385223389e-02
-1.087733823806047440e-02
-1.709355600178241730e-02
-1.294374652206897736e-02
-4.543033614754676819e-02
1.604388840496540070e-02
2.843595854938030243e-02
1.318390015512704849e-02
1.563688367605209351e-02
2.264012582600116730e-02
2.849122509360313416e-02
-8.251161873340606689e-02
-5.676382780075073242e-02
-1.362236440181732178e-01
-7.683099247515201569e-03
9.912764653563499451e-03
-1.081392541527748108e-01
9.632814675569534302e-02
1.211138558574020863e-03
4.853378981351852417e-02
1.063149720430374146e-01
6.104238703846931458e-02
8.770678192377090454e-02
2.772570215165615082e-02
3.393735503777861595e-03
4.099038615822792053e-02
-7.931494712829589844e-02
-4.945080354809761047e-02
-1.398625504225492477e-02
2.028884738683700562e-02
-1.973594725131988525e-02
-3.449757397174835205e-02
5.032178759574890137e-02
1.129786670207977295e-02
-4.672158975154161453e-03
-1.027025654911994934e-02
-2.007948048412799835e-02
-8.117724210023880005e-02
2.330284938216209412e-02
6.414121482521295547e-03
-2.560437284409999847e-02
9.462308138608932495e-03
4.650660604238510132e-02
8.391504734754562378e-02
-2.906391583383083344e-02
3.815575316548347473e-02
8.492407202720642090e-02
-1.227802038192749023e-01
-8.848976343870162964e-02
-2.436852641403675079e-02
-2.880005910992622375e-02
-1.127147153019905090e-01
-1.330816596746444702e-01
-8.322833478450775146e-02
-1.920249499380588531e-02
-8.193022571504116058e-03
-1.184287667274475098e-01
-1.053245887160301208e-01
-6.935515254735946655e-02
-1.784888468682765961e-02
-2.249130979180335999e-02
-2.788818813860416412e-02
-5.726463347673416138e-02
-3.178914263844490051e-02
-3.795056836679577827e-03
4.374027624726295471e-02
1.726830936968326569e-02
5.507326684892177582e-03
3.419193625450134277e-02
1.044853124767541885e-02
-3.829722525551915169e-03
4.834140092134475708e-02
4.759856313467025757e-02
-6.264299899339675903e-02
7.648628950119018555e-02
5.623970180749893188e-02
4.094526916742324829e-02
7.473688106983900070e-03
6.593060214072465897e-03
6.984810531139373779e-02
-3.740962967276573181e-02
1.721500046551227570e-02
4.772748053073883057e-02
-6.616567075252532959e-02
-2.919689565896987915e-02
-1.688447780907154083e-02
-2.184671722352504730e-02
-1.867110095918178558e-02
-1.103620324283838272e-02
-5.336701869964599609e-03
-1.838844502344727516e-03
-6.549648940563201904e-02
-1.737046288326382637e-03
-9.911501780152320862e-03
-5.858140066266059875e-02
2.255331724882125854e-02
-4.733460489660501480e-03
7.813774049282073975e-02
3.694123355671763420e-03
-6.764045450836420059e-03
2.212052047252655029e-02
-4.817359894514083862e-02
6.384826730936765671e-03
3.126824274659156799e-02
-2.596144564449787140e-02
-4.289029911160469055e-02
-6.682541221380233765e-03
-1.693013473413884640e-03
1.109102554619312286e-02
7.223611325025558472e-02
3.308702958747744560e-03
1.349452603608369827e-02
6.468960642814636230e-02
2.126159518957138062e-02
3.320196177810430527e-03
-1.954804174602031708e-03
1.656198129057884216e-02
2.020711079239845276e-02
5.748757347464561462e-02
8.386107161641120911e-03
3.717247769236564636e-02
5.516824498772621155e-02
-4.778977483510971069e-02
-5.768736451864242554e-02
-4.633305594325065613e-02
4.479346051812171936e-02
1.957384869456291199e-02
3.516374900937080383e-02
3.985695540904998779e-02
1.017186511307954788e-02
-5.068048834800720215e-03
2.292391844093799591e-03
-2.610994502902030945e-02
-4.419419541954994202e-02
4.408908262848854065e-02
5.942606553435325623e-02
5.657768622040748596e-02
-3.360809758305549622e-02
8.473322726786136627e-03
2.467617765069007874e-02
-3.549117222428321838e-02
-1.387989334762096405e-02
-1.170365326106548309e-02
-3.047732263803482056e-02
2.588493376970291138e-02
5.432123690843582153e-02
-4.979918152093887329e-02
-2.842909470200538635e-02
1.754887402057647705e-02
-1.385935395956039429e-02
4.007456824183464050e-03
-1.956599019467830658e-02
1.238114237785339355e-01
4.043892398476600647e-02
-1.257376396097242832e-03
5.052789300680160522e-02
6.753666675649583340e-04
3.928555641323328018e-03
-1.369817554950714111e-02
-1.353350654244422913e-02
-2.409416949376463890e-03
-2.166767790913581848e-02
-1.215785741806030273e-02
-1.550803892314434052e-02
1.507865963503718376e-03
1.908370107412338257e-02
3.779388219118118286e-02
2.190594002604484558e-02
3.128897398710250854e-02
7.073625922203063965e-02
-6.922174990177154541e-02
-2.457162737846374512e-02
-2.934055216610431671e-02
-7.751526311039924622e-03
-4.468855634331703186e-02
-3.817816451191902161e-02
7.912002503871917725e-03
-6.507783662527799606e-03
3.475329605862498283e-03
-4.537138342857360840e-02
1.338118035346269608e-02
1.540304441004991531e-02
-2.106844820082187653e-02
-5.486626923084259033e-02
-9.330237284302711487e-03
-1.502078864723443985e-02
-1.699961908161640167e-02
-4.272682964801788330e-02
-3.242190182209014893e-02
-4.412567615509033203e-02
-7.112350314855575562e-02
-7.244438678026199341e-02
-7.444620132446289062e-02
-2.216218411922454834e-02
-6.312847882509231567e-02
-5.941045284271240234e-02
-1.773440092802047729e-02
3.897075774148106575e-03
8.359926869161427021e-04
-1.977209374308586121e-02
-2.641745470464229584e-02
-7.516565173864364624e-02
-6.133930757641792297e-02
-1.002820394933223724e-02
-6.953137367963790894e-02
-4.186109453439712524e-02
-4.881108179688453674e-02
-4.915367066860198975e-02
-1.500675361603498459e-02
-8.665984496474266052e-03
-4.173134267330169678e-02
-3.584286198019981384e-02
1.744452863931655884e-02
3.473000228404998779e-02
1.291400752961635590e-02
-1.009281352162361145e-01
-2.054813504219055176e-02
1.709861494600772858e-02
5.105970427393913269e-02
9.792806580662727356e-03
1.789977774024009705e-02
9.599569253623485565e-03
1.680751889944076538e-02
7.601984776556491852e-03
2.664358168840408325e-02
-3.024678491055965424e-02
-8.903860300779342651e-02
4.070954024791717529e-02
9.214428253471851349e-03
-5.342496559023857117e-02
6.869079917669296265e-02
1.997377537190914154e-02
-3.110567666590213776e-02
2.763822488486766815e-02
6.911364034749567509e-04
5.085762590169906616e-03
-2.103491127490997314e-02
-3.501775488257408142e-02
6.143723148852586746e-03
6.460639834403991699e-02
3.492196649312973022e-02
2.880910225212574005e-02
8.027288131415843964e-03
2.027843706309795380e-02
-6.047828122973442078e-03
1.765501499176025391e-02
3.240031749010086060e-02
2.397363632917404175e-02
3.554906696081161499e-02
4.000649973750114441e-02
-3.068164922297000885e-03
-4.626973718404769897e-02
-1.819724962115287781e-02
-1.074560731649398804e-01
-6.716278195381164551e-02
-2.710357680916786194e-02
-1.269522607326507568e-01
-3.967147693037986755e-02
-4.367063567042350769e-02
-8.499785512685775757e-02
-3.187504783272743225e-02
-6.363827735185623169e-02
-1.546291559934616089e-01
-6.570497900247573853e-02
-5.510338395833969116e-02
-1.176416724920272827e-01
-6.012371182441711426e-02
-1.013894751667976379e-01
-1.059245318174362183e-01
1.891293213702738285e-03
3.951764106750488281e-02
5.605505034327507019e-02
3.574948757886886597e-02
4.658806324005126953e-02
4.626835510134696960e-02
-1.019906066358089447e-02
-5.669131502509117126e-02
-3.350794687867164612e-02
4.315633699297904968e-02
-2.368289604783058167e-02
-4.329467564821243286e-02
5.221597477793693542e-02
1.816130615770816803e-02
-3.969939798116683960e-02
4.061612859368324280e-02
-3.392990306019783020e-02
-4.253789037466049194e-02
2.044021338224411011e-02
1.232485752552747726e-02
-8.565083146095275879e-02
3.662913292646408081e-02
3.686078637838363647e-02
-5.122273042798042297e-02
4.730771481990814209e-02
-6.124721374362707138e-03
-5.220612883567810059e-02
-1.592129468917846680e-02
2.723228745162487030e-02
4.202577844262123108e-02
4.792810603976249695e-02
7.978649437427520752e-02
1.003976911306381226e-01
3.847919404506683350e-02
4.181621596217155457e-02
4.336517676711082458e-02
-2.852031774818897247e-02
-1.913334429264068604e-02
-3.303618729114532471e-02
-4.295249283313751221e-02
-4.066351056098937988e-02
-7.326708734035491943e-02
-3.879072610288858414e-04
-1.803375594317913055e-02
-4.542515054345130920e-02
2.017153427004814148e-02
-3.900660201907157898e-02
-7.489906251430511475e-02
3.221081197261810303e-02
2.109250426292419434e-02
-2.651762031018733978e-02
2.941691130399703979e-02
2.846334315836429596e-02
-5.591037496924400330e-02
-2.774325013160705566e-02
5.500150844454765320e-02
2.755269594490528107e-02
-3.308285400271415710e-02
4.408205673098564148e-02
-1.174365263432264328e-02
-1.486323657445609570e-03
-2.123741246759891510e-02
-3.486907854676246643e-02
-8.887051604688167572e-03
1.216545328497886658e-02
-9.406146593391895294e-03
6.818311661481857300e-02
2.649190835654735565e-02
2.588176866993308067e-03
9.237817674875259399e-02
8.333242684602737427e-02
5.139390379190444946e-02
5.276756710372865200e-04
3.651117905974388123e-02
2.820474468171596527e-02
2.961084060370922089e-02
1.986113376915454865e-02
4.339418560266494751e-02
3.458639234304428101e-02
1.375043764710426331e-02
-3.059374867007136345e-03
-3.088087588548660278e-02
-3.937490284442901611e-02
-8.983129262924194336e-02
-2.484344877302646637e-02
-2.225351333618164062e-02
-7.351885735988616943e-02
1.299874950200319290e-02
-5.526245012879371643e-02
-1.872738264501094818e-02
-5.425437539815902710e-02
4.604529216885566711e-02
-6.673696450889110565e-03
-4.942471906542778015e-02
1.648455113172531128e-02
-4.708111658692359924e-02
-8.378949761390686035e-02
-6.869976967573165894e-02
-4.944868013262748718e-02
-4.220968112349510193e-02
-2.523651346564292908e-02
-7.393543422222137451e-02
-4.719126597046852112e-02
-4.817999526858329773e-02
-2.500942349433898926e-02
-6.135711073875427246e-02
-1.902820169925689697e-02
4.308665636926889420e-03
-6.969866156578063965e-02
-7.329718768596649170e-02
1.248873677104711533e-02
-3.537791594862937927e-02
-2.189922034740447998e-01
-1.519939303398132324e-01
-3.708639368414878845e-02
-1.588530093431472778e-01
-8.558060973882675171e-02
1.559560187160968781e-02
-1.146331778727471828e-03
1.380145177245140076e-02
-5.490607768297195435e-02
-4.670705646276473999e-02
-2.858708798885345459e-02
-9.644532203674316406e-02
-3.408827632665634155e-02
-2.376656420528888702e-02
-7.223444059491157532e-03
-6.910136342048645020e-02
-1.745529100298881531e-02
-2.118943259119987488e-02
-3.941748663783073425e-02
-3.390834853053092957e-02
-1.529955677688121796e-02
-5.489214882254600525e-02
1.870774663984775543e-03
1.760735549032688141e-02
-2.250973321497440338e-02
3.608580306172370911e-02
7.285192608833312988e-02
3.030839562416076660e-02
-5.390575900673866272e-02
2.212235517799854279e-02
3.914418071508407593e-02
-5.150287225842475891e-02
4.246915504336357117e-02
4.432276636362075806e-02
3.721406310796737671e-02
5.587914958596229553e-02
1.242647767066955566e-01
5.548632517457008362e-02
5.150500312447547913e-02
5.307491123676300049e-02
3.401590138673782349e-02
5.016167461872100830e-02
-3.394774347543716431e-02
-6.013298407196998596e-02
4.988481849431991577e-02
4.601742327213287354e-02
6.837965920567512512e-03
-2.386793494224548340e-02
4.753001779317855835e-02
-1.473889313638210297e-02
2.523442357778549194e-02
-1.702164858579635620e-02
-4.882935062050819397e-02
-4.400539398193359375e-02
2.213066443800926208e-03
-3.152509778738021851e-02
-8.392063528299331665e-02
-5.302952136844396591e-03
-1.548921968787908554e-02
-3.944163769483566284e-02
-8.908392861485481262e-03
-1.800137013196945190e-02
2.880772203207015991e-02
6.811341643333435059e-02
3.449956700205802917e-02
7.000491023063659668e-02
4.192591086030006409e-02
2.125672437250614166e-02
-1.466470956802368164e-01
-1.401213407516479492e-01
-2.462419122457504272e-02
-1.037974953651428223e-01
-2.093541622161865234e-01
-7.508805394172668457e-02
-7.669238001108169556e-02
-1.093974038958549500e-01
-7.454214990139007568e-02
2.301502041518688202e-02
7.107359170913696289e-02
2.342178858816623688e-02
-4.586869105696678162e-02
-2.754176966845989227e-02
6.546384096145629883e-02
6.052853912115097046e-02
2.985716797411441803e-03
-1.605631411075592041e-02
-9.442029520869255066e-03
6.279089301824569702e-02
-4.292013868689537048e-02
-5.226659774780273438e-02
9.172993153333663940e-02
1.002452522516250610e-01
-9.610121697187423706e-02
4.569579660892486572e-02
4.994934424757957458e-02
-2.818417921662330627e-02
-4.102263227105140686e-02
1.553870830684900284e-02
-5.647990107536315918e-02
-6.310533732175827026e-02
-3.104039654135704041e-02
-7.738666236400604248e-02
-5.069660022854804993e-02
-5.720226839184761047e-02
6.691852211952209473e-02
7.928021252155303955e-02
4.219094663858413696e-02
4.173985496163368225e-02
7.361710816621780396e-02
8.867210149765014648e-02
2.191199921071529388e-02
4.498686641454696655e-02
-1.358774676918983459e-02
1.117061264812946320e-02
3.881600126624107361e-02
5.835955590009689331e-02
-8.337847143411636353e-02
-2.096357382833957672e-02
3.605036064982414246e-02
1.488433033227920532e-02
-5.763324350118637085e-02
-4.544985946267843246e-03
1.623043906874954700e-03
3.355143591761589050e-02
5.950971692800521851e-02
-1.311313956975936890e-01
1.035874616354703903e-02
5.751262977719306946e-02
-4.830262064933776855e-02
-2.054975368082523346e-03
1.260224264115095139e-02
-1.269318861886858940e-03
1.456511858850717545e-02
-4.811814054846763611e-02
3.222636179998517036e-03
1.807662472128868103e-02
-5.176384374499320984e-02
-3.993915393948554993e-03
4.495836421847343445e-02
-6.695646792650222778e-02
3.578354045748710632e-02
-5.746643524616956711e-03
-6.698570400476455688e-02
2.986262366175651550e-02
2.339492365717887878e-02
-1.646451838314533234e-02
-4.360028542578220367e-03
9.148323908448219299e-03
-6.727332249283790588e-03
-3.815948590636253357e-02
1.976559497416019440e-02
-3.683416580315679312e-04
-3.424371406435966492e-02
-1.201637461781501770e-02
6.642235908657312393e-03
-7.143760472536087036e-02
-1.038071606308221817e-02
-6.102200597524642944e-03
-1.051524206995964050e-01
-1.145448256283998489e-02
-1.810129918158054352e-02
-6.486182659864425659e-02
3.607349842786788940e-02
-4.352106153964996338e-02
-1.560422405600547791e-02
8.240135503001511097e-05
-1.040312126278877258e-01
-4.780068062245845795e-03
-1.449050568044185638e-02
-1.127698421478271484e-01
2.529910020530223846e-02
1.742472872138023376e-02
-7.911775261163711548e-02
7.507504522800445557e-02
4.069638252258300781e-02
-1.000969782471656799e-01
2.392776682972908020e-02
1.751718670129776001e-02
2.946526929736137390e-02
1.818126812577247620e-02
4.227026831358671188e-03
4.725801292806863785e-03
5.154718086123466492e-02
6.504812091588973999e-02
3.252239152789115906e-02
2.400011755526065826e-02
1.818045228719711304e-02
-5.167697370052337646e-02
4.487124830484390259e-02
1.093934942036867142e-02
-1.567904464900493622e-02
2.780503593385219574e-02
3.696894645690917969e-02
-5.184252746403217316e-03
1.681223511695861816e-02
2.814331091940402985e-02
-3.003648295998573303e-02
-6.148340762592852116e-04
1.280132308602333069e-02
-1.312280632555484772e-02
-4.703334532678127289e-03
1.130516640841960907e-02
-8.169079199433326721e-03
7.629732042551040649e-02
-6.251823622733354568e-03
-6.285739690065383911e-02
4.095780476927757263e-02
-2.518659271299839020e-02
-1.474770996719598770e-02
5.392228066921234131e-02
1.533656567335128784e-02
-3.104693023487925529e-03
-3.718685358762741089e-02
4.528758302330970764e-02
2.646546065807342529e-02
-6.192634254693984985e-02
6.349757313728332520e-02
1.276070252060890198e-02
-2.281975187361240387e-02
-2.815341344103217125e-03
-4.227911680936813354e-02
-9.978231042623519897e-03
-8.049739152193069458e-02
-1.155828759074211121e-01
-4.986201226711273193e-02
-6.729646027088165283e-02
-2.325704321265220642e-02
-6.901922821998596191e-02
-5.353490263223648071e-02
-7.071762531995773315e-02
-8.267271332442760468e-03
2.520013041794300079e-02
4.463658109307289124e-02
-2.324995771050453186e-02
1.541074551641941071e-02
4.513419046998023987e-02
-6.242056842893362045e-03
5.450678509077988565e-05
-9.569212794303894043e-03
1.503508258610963821e-02
2.503183484077453613e-02
2.617609687149524689e-03
3.486225008964538574e-02
4.672545194625854492e-02
2.867149421945214272e-03
-5.788752436637878418e-02
6.140814349055290222e-02
1.287620421499013901e-02
-3.005023114383220673e-02
8.252670988440513611e-03
2.033167285844683647e-03
-1.374127459712326527e-03
-1.081987377256155014e-02
2.360023371875286102e-02
-4.811481013894081116e-02
-3.713896265253424644e-03
5.442639067769050598e-02
-8.556210994720458984e-02
-1.006348952651023865e-01
-9.109859913587570190e-02
-1.020841151475906372e-01
-5.813582986593246460e-02
-8.157402276992797852e-02
-1.220130175352096558e-01
-1.067574694752693176e-01
-1.068449765443801880e-01
-1.052215695381164551e-01
-8.499140851199626923e-03
-3.088890388607978821e-02
-7.398496568202972412e-02
3.583923727273941040e-02
-1.100035384297370911e-02
-2.920254506170749664e-02
-2.540938928723335266e-02
-1.051108017563819885e-01
-1.494691474363207817e-03
1.095829438418149948e-02
2.694508433341979980e-02
2.777607366442680359e-02
2.370272390544414520e-02
1.846786029636859894e-02
1.003796327859163284e-02
2.565001323819160461e-02
-2.197923138737678528e-02
2.316858991980552673e-02
4.099956154823303223e-02
1.675275340676307678e-02
1.197958458214998245e-02
1.505288202315568924e-02
4.119128733873367310e-02
5.012840405106544495e-02
7.440556306391954422e-03
2.616058476269245148e-02
-6.671345978975296021e-02
1.014003762975335121e-03
4.668156802654266357e-02
1.136553846299648285e-02
-6.685591302812099457e-03
3.574838116765022278e-02
-1.025066245347261429e-02
-4.110348876565694809e-03
9.890134446322917938e-03
-1.233898252248764038e-01
-8.053892105817794800e-02
-5.371044948697090149e-02
-1.152000725269317627e-01
-5.267628654837608337e-02
-6.313694268465042114e-02
-1.217868924140930176e-01
-7.554284483194351196e-02
-5.621891468763351440e-02
-1.001015231013298035e-01
-8.613071590662002563e-02
-4.233060404658317566e-02
-5.105606466531753540e-02
-5.407639220356941223e-02
-5.642754584550857544e-02
-7.488763332366943359e-02
-5.078632384538650513e-02
-5.357642844319343567e-02
-2.667238935828208923e-02
-1.069382857531309128e-02
-5.268784612417221069e-02
-3.585209697484970093e-02
-3.011323139071464539e-02
-4.821248352527618408e-02
-3.189095482230186462e-02
-1.625516824424266815e-02
-5.077478289604187012e-02
-1.967806741595268250e-02
-2.782644471153616905e-03
2.442814409732818604e-03
1.848197542130947113e-02
-9.259577840566635132e-03
-2.177598141133785248e-02
1.066993176937103271e-02
-5.512287840247154236e-03
-3.816501051187515259e-02
-2.088463865220546722e-02
-6.461930926889181137e-03
-2.070132270455360413e-02
5.512583535164594650e-03
3.035411052405834198e-02
1.836023107171058655e-02
3.013845533132553101e-02
3.561427816748619080e-02
-1.716213487088680267e-02
6.085094646550714970e-04
3.820662852376699448e-03
3.594032302498817444e-02
7.239571772515773773e-03
2.632946334779262543e-02
7.119282335042953491e-02
1.899020187556743622e-02
3.720256686210632324e-02
3.633254766464233398e-02
2.155465772375464439e-03
-2.837284468114376068e-02
-1.764222420752048492e-02
-3.200665116310119629e-02
-5.752796679735183716e-02
-8.515140041708946228e-03
-3.767849877476692200e-02
-6.668275594711303711e-02
-1.142254658043384552e-02
-1.842103153467178345e-02
1.870095171034336090e-02
8.618113584816455841e-03
2.711923234164714813e-02
2.482685074210166931e-02
3.735026717185974121e-02
2.478365413844585419e-02
6.339940708130598068e-03
2.836049534380435944e-03
-1.117063909769058228e-01
-8.333566039800643921e-02
-6.396763026714324951e-02
-5.521543323993682861e-02
-3.288925811648368835e-02
-1.560084894299507141e-02
-2.403523586690425873e-02
5.045409314334392548e-03
3.184475749731063843e-02
-3.048647753894329071e-02
6.798347830772399902e-02
9.164794534444808960e-02
5.695647373795509338e-02
7.195037603378295898e-02
5.961892008781433105e-02
2.940283156931400299e-02
-1.734811579808592796e-03
1.573468185961246490e-02
-1.034012064337730408e-01
4.252522811293601990e-02
1.378128491342067719e-02
-4.167049378156661987e-02
5.086397379636764526e-02
4.330798238515853882e-02
3.322633355855941772e-02
1.563867554068565369e-02
1.754800789058208466e-02
1.237714430317282677e-03
2.749086357653141022e-02
8.999082259833812714e-03
1.749539189040660858e-02
8.499801158905029297e-03
1.080700755119323730e-02
4.074626602232456207e-03
-8.029785007238388062e-03
-1.137329498305916786e-03
-7.763796299695968628e-02
-4.241865873336791992e-02
-3.706113249063491821e-02
-2.486995048820972443e-02
-3.963644802570343018e-02
-3.405222669243812561e-02
-3.744664043188095093e-02
-2.947277389466762543e-02
-2.486532740294933319e-02
1.393216010183095932e-02
-3.081718925386667252e-03
1.602359674870967865e-02
-3.121605329215526581e-02
-9.479296393692493439e-03
-1.926522143185138702e-02
-6.663917750120162964e-02
-4.792617261409759521e-02
5.041850358247756958e-02
-3.490659967064857483e-02
-3.905500099062919617e-02
-6.559550762176513672e-02
1.897787302732467651e-02
-1.307905744761228561e-02
7.604635786265134811e-03
4.291211254894733429e-03
4.618420079350471497e-02
5.215346813201904297e-02
-1.911052316427230835e-02
5.326580256223678589e-03
8.960073813796043396e-03
4.409465938806533813e-03
2.791976556181907654e-02
5.140532553195953369e-02
-3.331753239035606384e-02
-3.112968429923057556e-02
-4.357115924358367920e-02
1.488153263926506042e-02
2.785497531294822693e-02
5.278564244508743286e-02
4.394172504544258118e-02
7.672118954360485077e-04
7.351661100983619690e-03
1.662437990307807922e-02
5.357854533940553665e-03
-9.059815853834152222e-02
5.904240906238555908e-02
4.709226265549659729e-02
3.196290135383605957e-02
5.683253519237041473e-03
-2.672399580478668213e-02
3.431806806474924088e-03
-2.609309367835521698e-02
-2.863231860101222992e-02
-6.046641990542411804e-02
4.988972470164299011e-02
4.944536834955215454e-02
-1.641992293298244476e-02
6.091202422976493835e-02
1.457349164411425591e-03
-4.476856812834739685e-02
-6.157065555453300476e-02
-6.088526919484138489e-02
-8.245467394590377808e-02
-1.294578984379768372e-02
-5.594063084572553635e-03
9.872416034340858459e-03
-3.563512489199638367e-02
-7.673830725252628326e-03
-1.287177763879299164e-02
-4.851736500859260559e-02
-4.490265157073736191e-03
3.036005189642310143e-03
2.937411144375801086e-02
1.802610978484153748e-02
3.351211920380592346e-02
-3.927636891603469849e-02
-3.518885001540184021e-02
-7.732434198260307312e-03
-9.108557552099227905e-02
-6.703934818506240845e-02
-2.017465233802795410e-02
3.422826901078224182e-02
2.457642229273915291e-03
-2.421199902892112732e-02
1.166246552020311356e-02
-6.591532379388809204e-03
-2.364685386419296265e-02
-2.769919857382774353e-02
-2.340891957283020020e-02
2.530943788588047028e-02
3.435554215684533119e-03
-6.818060297518968582e-03
4.129595309495925903e-02
1.963236741721630096e-02
5.426084250211715698e-02
4.949176311492919922e-02
-2.341207815334200859e-03
4.702426493167877197e-02
2.537592686712741852e-02
5.026303231716156006e-03
-2.133226022124290466e-02
1.835942268371582031e-02
4.234157130122184753e-02
-7.337691728025674820e-03
2.449839375913143158e-02
-5.985582247376441956e-02
-2.295889891684055328e-02
4.404831305146217346e-02
1.928289979696273804e-02
1.083396188914775848e-02
1.659651100635528564e-02
1.320800650864839554e-02
4.572078119963407516e-03
-1.012933477759361267e-01
-8.273091167211532593e-02
-5.657772347331047058e-02
-7.072507590055465698e-02
-5.024538561701774597e-02
-8.181278407573699951e-02
-5.686368420720100403e-02
2.448725327849388123e-02
-4.213743284344673157e-02
-3.247340023517608643e-02
-5.129408463835716248e-02
-1.262523699551820755e-02
3.631043434143066406e-02
3.248553955927491188e-03
-1.756427250802516937e-02
-1.036383956670761108e-01
-8.713863207958638668e-04
-2.448305487632751465e-02
-5.875637009739875793e-02
-4.666393995285034180e-02
-1.775092259049415588e-02
9.830214083194732666e-03
7.636190857738256454e-03
5.568619351834058762e-03
7.305520027875900269e-02
-4.026318341493606567e-02
5.373755702748894691e-04
7.047427352517843246e-03
-6.969710439443588257e-02
9.776297956705093384e-03
2.766611427068710327e-02
8.744700998067855835e-02
4.748325794935226440e-02
5.799298360943794250e-02
4.519170895218849182e-02
7.594868075102567673e-03
5.978696979582309723e-03
-1.422438770532608032e-01
-1.076136082410812378e-01
-6.663829088211059570e-02
-2.723658271133899689e-02
1.341871265321969986e-02
9.194302372634410858e-03
-1.771996915340423584e-02
-7.945202523842453957e-04
9.651317261159420013e-03
-1.294708345085382462e-02
3.025786019861698151e-02
8.827993646264076233e-03
2.994111739099025726e-02
2.492740377783775330e-02
3.285518847405910492e-03
6.775670498609542847e-02
5.304137710481882095e-03
8.197757415473461151e-03
3.067457303404808044e-02
-7.921501994132995605e-03
-5.729395896196365356e-03
-4.703202843666076660e-02
-5.803491175174713135e-02
-4.217633511871099472e-03
-4.970087483525276184e-02
-1.275655161589384079e-02
-4.688643384724855423e-03
-3.704040497541427612e-02
-1.629912480711936951e-02
1.632644794881343842e-02
-1.060521230101585388e-01
-8.221895992755889893e-02
-7.538659870624542236e-02
-9.499806165695190430e-02
-7.889880985021591187e-02
-8.369880169630050659e-02
-8.217647671699523926e-02
-9.667621552944183350e-02
-7.407777011394500732e-02
-5.335440859198570251e-02
-7.157786935567855835e-02
-1.902875676751136780e-02
-5.071711540222167969e-02
-5.815355852246284485e-02
-5.877017602324485779e-02
-3.344114124774932861e-02
-2.598241530358791351e-02
-7.513485103845596313e-02
3.692050278186798096e-02
-3.082461096346378326e-02
4.266708157956600189e-03
3.080338053405284882e-02
3.580704703927040100e-02
2.808056585490703583e-02
5.193510558456182480e-03
6.911242753267288208e-02
6.735778599977493286e-02
-1.346979849040508270e-02
-4.343858454376459122e-03
3.426233679056167603e-02
-1.510003767907619476e-02
-3.924214106518775225e-04
4.914664104580879211e-02
-4.294583573937416077e-03
3.508121147751808167e-02
2.714563161134719849e-02
-6.238554418087005615e-02
-8.341521956026554108e-03
4.058322310447692871e-02
-7.372159510850906372e-02
-1.159374974668025970e-02
3.390557318925857544e-02
-3.713617473840713501e-02
1.279522385448217392e-02
1.746293157339096069e-02
-1.955060102045536041e-02
3.687274456024169922e-02
2.903298288583755493e-02
5.439908802509307861e-02
1.114761736243963242e-02
5.763015896081924438e-02
3.107682615518569946e-02
6.607983261346817017e-02
9.434489905834197998e-02
-3.951086476445198059e-02
-1.618541404604911804e-02
-4.793416708707809448e-02
-1.352750230580568314e-02
-2.709937281906604767e-02
-6.812977790832519531e-02
-8.024119772017002106e-03
-1.058329790830612183e-01
-1.001067459583282471e-01
-2.043928205966949463e-02
-9.797032922506332397e-03
2.588685788214206696e-02
-3.627491742372512817e-02
-1.127031911164522171e-02
2.570138545706868172e-03
-1.963192038238048553e-02
1.479599042795598507e-03
-2.603087807074189186e-03
-5.183289572596549988e-02
-4.805829748511314392e-02
-2.291879616677761078e-02
-8.041759580373764038e-02
-3.867625957354903221e-03
1.049631042405962944e-03
-8.518562465906143188e-02
2.470003254711627960e-02
-7.549368892796337605e-04
8.025808259844779968e-03
5.429937969893217087e-03
3.395258635282516479e-02
1.477315183728933334e-02
2.523773536086082458e-02
4.240291565656661987e-02
1.478497125208377838e-02
3.577522188425064087e-02
2.595475316047668457e-02
-6.866387091577053070e-03
-3.435324132442474365e-02
1.746020652353763580e-02
3.610381390899419785e-03
-4.984169732779264450e-03
2.109792083501815796e-02
1.390261226333677769e-03
3.403535112738609314e-02
4.182597994804382324e-02
-2.466662600636482239e-02
8.136003278195858002e-03
-1.786565221846103668e-02
-4.434215277433395386e-02
-1.711447909474372864e-02
-4.854288883507251740e-03
-3.597163781523704529e-02
-1.000961288809776306e-02
-7.973251864314079285e-03
-7.941940799355506897e-03
-1.908115297555923462e-02
-2.118633687496185303e-02
-2.393342927098274231e-02
1.477161236107349396e-02
-1.446580048650503159e-02
-4.776619374752044678e-02
2.196488669142127037e-03
-1.480792183429002762e-02
-6.433563679456710815e-02
-4.480268061161041260e-02
3.849167376756668091e-02
-2.764778211712837219e-02
8.916429243981838226e-03
5.476246401667594910e-02
-5.753710120916366577e-02
-9.997899644076824188e-03
-2.077107550576329231e-03
-6.920774281024932861e-02
2.060100808739662170e-02
1.497102342545986176e-02
-3.059336170554161072e-02
1.304488349705934525e-02
-2.914538234472274780e-02
5.813989415764808655e-02
-1.774691231548786163e-02
-4.908503219485282898e-02
3.022274747490882874e-02
-4.406775906682014465e-02
-4.549680277705192566e-02
4.537932202219963074e-02
-5.193416401743888855e-02
-1.071722619235515594e-02
3.366896510124206543e-02
-6.595890223979949951e-02
1.297180261462926865e-02
4.169682040810585022e-02
-3.260433301329612732e-02
-2.978954464197158813e-02
-5.333897843956947327e-02
-7.552636414766311646e-02
1.227379497140645981e-02
-5.498439818620681763e-02
-1.044258940964937210e-03
7.681404054164886475e-02
-1.159341447055339813e-02
-7.896479219198226929e-02
-4.681593924760818481e-02
-6.898865103721618652e-02
-3.225932270288467407e-02
5.697389319539070129e-02
-5.944938212633132935e-02
-5.501746665686368942e-03
9.010362625122070312e-02
4.701982066035270691e-02
3.086663223803043365e-02
-5.792684480547904968e-02
3.855306655168533325e-02
2.842846512794494629e-02
6.444480270147323608e-02
4.100247751921415329e-03
4.273165389895439148e-02
1.218822374939918518e-01
-1.332091167569160461e-02
-1.834865286946296692e-02
8.003657683730125427e-03
-3.159339725971221924e-02
-3.981693647801876068e-03
5.064227432012557983e-02
-4.929124191403388977e-02
1.084038428962230682e-02
3.126430884003639221e-02
-4.084859415888786316e-02
-7.436013966798782349e-02
4.549889825284481049e-03
-3.452158719301223755e-02
-2.198278345167636871e-02
5.987881682813167572e-03
-4.663603380322456360e-02
-4.569571092724800110e-02
-9.188680909574031830e-03
-4.275102913379669189e-02
-6.174685433506965637e-02
1.627683266997337341e-02
-3.040630370378494263e-02
3.383028879761695862e-02
5.140908807516098022e-02
2.401233417913317680e-03
4.295490309596061707e-02
6.469509005546569824e-02
2.531373314559459686e-02
-1.296039298176765442e-02
-5.300089251250028610e-04
-2.813532203435897827e-02
-4.791685938835144043e-02
1.301434263586997986e-02
-5.378003045916557312e-02
-4.126798734068870544e-02
-5.038078129291534424e-02
-5.072189867496490479e-02
-6.536310166120529175e-02
2.413709647953510284e-03
1.205710042268037796e-02
-4.559669643640518188e-02
1.579180359840393066e-02
2.687096223235130310e-02
-4.445388540625572205e-02
-3.300072625279426575e-02
4.162564501166343689e-02
-6.390847265720367432e-02
-5.192178487777709961e-02
1.083322148770093918e-02
-3.634479641914367676e-02
2.066408284008502960e-02
-2.123572863638401031e-03
-9.557323530316352844e-03
3.719295188784599304e-02
-8.883789181709289551e-03
-2.957603894174098969e-02
2.277213335037231445e-02
5.571755766868591309e-02
2.585632493719458580e-03
3.696331381797790527e-02
2.365283854305744171e-02
-6.020092964172363281e-02
1.582115516066551208e-02
2.646503411233425140e-02
-2.771880477666854858e-02
-6.598088145256042480e-02
5.484954640269279480e-02
9.285361506044864655e-03
3.792080283164978027e-02
3.802619874477386475e-02
-1.931014657020568848e-02
2.054209820926189423e-02
1.893649809062480927e-02
-2.870398201048374176e-02
4.659147188067436218e-02
-2.120590396225452423e-02
-2.388921566307544708e-02
-1.813718676567077637e-02
-3.074463643133640289e-02
-5.294050648808479309e-02
-5.445927754044532776e-02
1.830641739070415497e-02
-5.532765015959739685e-02
2.771137049421668053e-03
-1.276173442602157593e-02
-1.159523800015449524e-01
4.881560429930686951e-02
-2.053081057965755463e-02
-5.595771223306655884e-02
9.604539722204208374e-03
-2.289959602057933807e-02
3.098371252417564392e-02
-3.650762839242815971e-03
-8.761829137802124023e-02
-3.857804462313652039e-02
-2.113727480173110962e-02
7.642998825758695602e-04
-6.018836796283721924e-02
-7.663734257221221924e-02
-5.476372782140970230e-03
-2.417724207043647766e-02
1.289769914001226425e-02
-2.924884855747222900e-02
-1.405804231762886047e-02
-8.429331332445144653e-02
-5.788871645927429199e-02
-4.881359264254570007e-02
-4.323017969727516174e-02
-1.301590818911790848e-02
-2.635318040847778320e-02
6.145150400698184967e-03
-4.640492796897888184e-02
-1.747489348053932190e-02
-1.495705451816320419e-02
-5.975129082798957825e-02
-2.992690540850162506e-02
-1.215245481580495834e-02
4.283297061920166016e-02
6.693664193153381348e-02
5.044730752706527710e-02
5.132362991571426392e-02
1.591002009809017181e-02
3.521362319588661194e-02
5.196957290172576904e-02
5.443821474909782410e-02
7.946365326642990112e-02
5.215761810541152954e-02
-2.161052078008651733e-03
-6.511580664664506912e-03
2.307747863233089447e-02
3.684321709442883730e-04
3.785199671983718872e-02
-1.974744163453578949e-02
1.690407283604145050e-02
7.639145851135253906e-02
-1.755953021347522736e-02
3.335824981331825256e-02
5.944548174738883972e-03
3.419358655810356140e-02
3.792804433032870293e-03
1.836846582591533661e-02
8.206075429916381836e-02
8.847974240779876709e-02
2.518265880644321442e-02
6.041644886136054993e-02
2.333802171051502228e-02
9.972382336854934692e-03
1.370121724903583527e-02
1.451779808849096298e-02
1.257132459431886673e-02
-5.310477316379547119e-02
-3.259186074137687683e-02
-2.079200744628906250e-02
-1.144092250615358353e-02
2.536625042557716370e-02
-4.001523833721876144e-03
-4.318596050143241882e-02
5.330153740942478180e-03
1.459969859570264816e-02
-3.714646399021148682e-02
-7.333069294691085815e-02
-6.439482420682907104e-02
-2.224938943982124329e-02
4.763021320104598999e-02
-1.651662401854991913e-02
3.613149002194404602e-02
3.824371472001075745e-02
-1.866693049669265747e-02
-4.201299697160720825e-02
2.067987062036991119e-02
1.209931634366512299e-02
4.623143002390861511e-02
-8.143677841871976852e-04
4.425016418099403381e-02
5.139118432998657227e-02
-9.774568490684032440e-03
-2.041220432147383690e-03
-1.565161161124706268e-02
1.542719453573226929e-02
3.704554587602615356e-02
-1.438661571592092514e-02
-2.710090763866901398e-02
-1.598934526555240154e-03
-3.465149179100990295e-02
-8.218666911125183105e-02
-1.964014396071434021e-02
2.974358946084976196e-02
-8.841782808303833008e-02
-1.098904982209205627e-01
-2.301029115915298462e-02
6.817335728555917740e-03
1.624192483723163605e-02
-2.251183986663818359e-02
9.990104474127292633e-03
4.954553395509719849e-02
2.587692439556121826e-02
-2.209079451858997345e-02
-1.989839039742946625e-02
-2.035903371870517731e-02
-1.782013103365898132e-02
5.125656723976135254e-03
-9.369529783725738525e-02
-1.508386246860027313e-02
-6.346852332353591919e-02
-1.191503256559371948e-01
-1.283948868513107300e-01
-1.033712998032569885e-01
-3.492221236228942871e-02
2.743021212518215179e-02
-3.569893306121230125e-03
-5.408800765872001648e-02
-1.944962516427040100e-02
-2.059572190046310425e-02
2.112813293933868408e-02
-3.813899308443069458e-02
-8.066939562559127808e-02
-4.286436736583709717e-02
-1.168641727417707443e-02
4.716885834932327271e-02
-2.544852904975414276e-02
-6.726936995983123779e-02
8.445613086223602295e-03
4.894302040338516235e-02
-5.414867773652076721e-02
-4.914763197302818298e-02
-7.873754948377609253e-02
-1.623212732374668121e-02
2.172779105603694916e-02
3.123643994331359863e-02
-4.762769490480422974e-02
5.240116268396377563e-02
7.605887949466705322e-02
7.491078227758407593e-02
9.725671261548995972e-03
2.085945941507816315e-02
9.365219622850418091e-03
-2.529974468052387238e-02
-5.420592799782752991e-02
2.857470698654651642e-02
-2.426432259380817413e-02
-7.802992314100265503e-02
-1.111556217074394226e-02
4.998811986297369003e-03
-3.888017684221267700e-02
-7.337082177400588989e-02
-1.192855276167392731e-02
2.661558054387569427e-02
-5.567152425646781921e-02
-5.178664997220039368e-02
-2.782822586596012115e-02
-4.534892365336418152e-02
-1.128740385174751282e-01
1.133615151047706604e-02
2.842278964817523956e-02
2.502278797328472137e-02
2.386855706572532654e-02
1.493320520967245102e-02
-1.321462262421846390e-02
-2.470482885837554932e-02
-4.005475714802742004e-02
-2.479560673236846924e-03
2.948702685534954071e-02
-3.593910485506057739e-02
-1.458848454058170319e-02
-3.734575351700186729e-03
-2.203737571835517883e-02
-7.912480272352695465e-03
-2.358616329729557037e-02
-1.486770622432231903e-02
-4.026240669190883636e-03
5.265490338206291199e-02
1.934340596199035645e-02
-4.510729387402534485e-02
1.051191240549087524e-02
1.545328926295042038e-02
-1.664235070347785950e-02
9.633362293243408203e-03
2.302756346762180328e-02
4.216513410210609436e-02
3.018854185938835144e-03
1.247521582990884781e-02
9.846803732216358185e-03
-1.348328869789838791e-02
5.366831552237272263e-03
5.777553468942642212e-02
2.293538674712181091e-02
-1.329506840556859970e-02
2.956060227006673813e-03
2.900601597502827644e-03
-1.394625985994935036e-03
-1.558356545865535736e-02
-3.057962749153375626e-03
2.779270708560943604e-02
-1.343303127214312553e-03
-3.660459071397781372e-02
6.066302955150604248e-02
4.002434387803077698e-02
5.237955600023269653e-02
1.869010925292968750e-02
-1.960438489913940430e-02
-1.032514497637748718e-02
2.304163388907909393e-02
1.813062466681003571e-02
-4.604139551520347595e-02
2.625503763556480408e-02
-6.001134868711233139e-03
1.064603868871927261e-02
-3.935486078262329102e-02
-6.089830398559570312e-02
1.055544055998325348e-02
3.996432200074195862e-02
-2.497055754065513611e-02
1.018215063959360123e-02
5.724924430251121521e-02
-1.702358014881610870e-02
-5.233092233538627625e-03
-6.751339137554168701e-02
-3.388239070773124695e-02
1.115324627608060837e-02
-8.737369626760482788e-02
-6.603727489709854126e-02
-3.643500385805964470e-03
-3.757895529270172119e-02
-4.281824454665184021e-02
-3.114567883312702179e-02
-2.236950024962425232e-02
3.305471315979957581e-02
-7.245370000600814819e-02
-1.799490675330162048e-02
-1.826800219714641571e-02
-7.830782979726791382e-02
-5.494027584791183472e-02
-5.251692607998847961e-02
7.918404415249824524e-03
3.395046293735504150e-02
3.965750709176063538e-02
-2.938107773661613464e-02
2.867430821061134338e-02
7.896532863378524780e-02
-6.259334087371826172e-02
3.754659742116928101e-02
6.122954562306404114e-02
-6.325325369834899902e-02
-5.492594465613365173e-02
2.793495729565620422e-02
1.642323657870292664e-02
-3.126952098682522774e-03
3.605875652283430099e-03
-2.235749922692775726e-02
-3.116628341376781464e-02
-2.602896466851234436e-02
1.321582309901714325e-02
-1.694537326693534851e-02
5.823783949017524719e-02
-1.234744116663932800e-02
-6.276513915508985519e-03
3.407772630453109741e-02
7.855087518692016602e-03
-1.218116935342550278e-02
-6.045124027878046036e-03
-2.615950070321559906e-02
3.090373426675796509e-02
5.510235577821731567e-02
-8.978304266929626465e-02
-4.286729916930198669e-02
6.786157027818262577e-04
-1.177029609680175781e-01
-5.881993845105171204e-02
-1.426185388118028641e-02
-1.424291450530290604e-02
4.316342994570732117e-02
-2.044110372662544250e-02
-6.524833291769027710e-02
-4.848547279834747314e-02
1.999136619269847870e-02
-1.045686453580856323e-01
-8.244344592094421387e-02
-1.619726791977882385e-02
-3.275231644511222839e-02
-6.526438053697347641e-03
-6.340891122817993164e-03
-1.915392233058810234e-03
4.505341406911611557e-03
8.732985705137252808e-03
4.492123145610094070e-03
-1.825718791224062443e-03
-2.044415101408958435e-02
-5.489325895905494690e-02
-7.108205556869506836e-02
-4.105744138360023499e-02
-8.442734181880950928e-02
-1.263622343540191650e-01
-1.211639940738677979e-01
7.373461872339248657e-02
5.157275870442390442e-02
-1.270485389977693558e-02
2.260139770805835724e-02
-3.396339714527130127e-02
-6.470430642366409302e-02
2.827224507927894592e-02
2.776644192636013031e-03
-1.285366993397474289e-02
7.908496074378490448e-03
4.416507109999656677e-02
1.297275535762310028e-02
4.061101377010345459e-02
-4.948642104864120483e-02
-9.851530939340591431e-02
8.752180635929107666e-02
6.760825961828231812e-02
1.875052228569984436e-02
9.394953399896621704e-02
1.090214699506759644e-01
6.781981140375137329e-02
6.537465006113052368e-02
3.298490494489669800e-02
-3.464832901954650879e-02
6.287037581205368042e-02
5.732298642396926880e-02
3.596362844109535217e-02
-2.423541992902755737e-02
2.043473348021507263e-02
9.352829307317733765e-02
3.515168651938438416e-02
5.080603063106536865e-02
7.047488540410995483e-02
2.218369580805301666e-02
2.834012173116207123e-02
3.354532644152641296e-02
-6.353346258401870728e-02
-6.689127534627914429e-02
-1.650902628898620605e-02
9.220654144883155823e-03
3.944396303268149495e-05
-3.842058405280113220e-02
-5.273689050227403641e-03
2.396395429968833923e-02
4.097011685371398926e-02
-3.717103600502014160e-02
-3.352495282888412476e-02
4.482611268758773804e-02
1.762556843459606171e-02
-9.636136703193187714e-03
-2.282630465924739838e-02
-1.271531637758016586e-02
2.309831790626049042e-02
8.217090740799903870e-03
-5.433917790651321411e-02
-3.732873499393463135e-02
-1.265094149857759476e-02
1.714290492236614227e-02
1.587762124836444855e-02
-1.230233814567327499e-02
-3.025448182597756386e-03
-1.768111623823642731e-02
-4.234166815876960754e-02
-7.245636079460382462e-03
-5.049881339073181152e-02
-3.138136817142367363e-03
-5.907339230179786682e-02
-8.536806702613830566e-02
-7.194360345602035522e-02
7.792106270790100098e-02
2.030445635318756104e-02
-2.620389685034751892e-02
8.744124323129653931e-02
9.418306499719619751e-02
-4.238941147923469543e-02
1.470142882317304611e-02
-1.070134248584508896e-02
1.530761830508708954e-02
1.296139135956764221e-02
-7.707362994551658630e-03
2.940124087035655975e-02
4.555251821875572205e-02
7.040935754776000977e-02
4.153621941804885864e-02
2.954802475869655609e-02
1.030282154679298401e-01
6.041001528501510620e-02
1.851867884397506714e-02
6.293389946222305298e-02
1.091822907328605652e-01
-6.931321322917938232e-02
-8.517507463693618774e-02
-3.017881140112876892e-02
-3.941165283322334290e-02
-4.128024727106094360e-02
-3.806207701563835144e-02
-2.430964633822441101e-02
-5.078952386975288391e-02
-6.432943791151046753e-02
3.490459173917770386e-02
2.906959690153598785e-02
-3.379373997449874878e-02
3.712093830108642578e-02
2.693212963640689850e-02
3.440155833959579468e-02
-3.879176452755928040e-02
-3.185996087267994881e-03
-4.630692303180694580e-02
-9.754318161867558956e-04
-3.234140947461128235e-02
-1.870420947670936584e-02
-2.186275459825992584e-02
-1.902571134269237518e-02
6.780796218663454056e-03
1.181472931057214737e-02
3.852166468277573586e-03
4.794073477387428284e-02
8.779898285865783691e-02
7.015505433082580566e-02
-1.958772726356983185e-02
-2.893831394612789154e-02
3.784997388720512390e-02
-1.780588552355766296e-02
-1.716539496555924416e-03
5.650503560900688171e-02
2.153094485402107239e-02
1.846588402986526489e-02
7.280641049146652222e-02
7.122274022549390793e-03
5.012298002839088440e-03
3.310590237379074097e-02
3.354211524128913879e-02
-5.340731889009475708e-02
-2.398902688582893461e-05
1.889507402665913105e-03
-5.371339246630668640e-02
-4.226160421967506409e-02
-6.953080743551254272e-02
2.230204641819000244e-02
1.512411702424287796e-02
-2.668556943535804749e-02
-2.376109175384044647e-02
2.433169633150100708e-03
6.926950812339782715e-02
-7.725022733211517334e-02
1.730751805007457733e-02
3.494292497634887695e-02
4.803645983338356018e-02
2.630537375807762146e-02
6.619907915592193604e-03
-3.134630620479583740e-02
1.032091677188873291e-03
-2.283630892634391785e-03
-6.135941669344902039e-02
-5.621552467346191406e-02
-3.210737556219100952e-02
7.945469021797180176e-02
5.849469825625419617e-02
1.983631774783134460e-02
3.436853364109992981e-02
-1.398858893662691116e-02
-5.892496928572654724e-02
4.306325688958168030e-02
-4.736866801977157593e-02
-4.242032021284103394e-02
5.278383940458297729e-02
6.008319556713104248e-03
5.589504912495613098e-02
-9.126778692007064819e-03
9.339929558336734772e-03
-1.475534774363040924e-02
-6.222716066986322403e-03
3.913121297955513000e-03
-4.812921397387981415e-03
-1.971586793661117554e-02
-2.198779210448265076e-02
-2.263125590980052948e-02
-5.810177884995937347e-03
3.325941786170005798e-02
-4.183745011687278748e-02
6.850861012935638428e-02
4.460132494568824768e-02
3.377254307270050049e-02
-4.991982877254486084e-02
-1.065828464925289154e-02
-2.376135438680648804e-03
1.384661812335252762e-02
-1.238794531673192978e-02
-1.042679045349359512e-02
7.077114190906286240e-03
-5.489631742238998413e-02
-1.783701032400131226e-02
1.647777855396270752e-02
-4.778745118528604507e-03
3.644182905554771423e-02
-1.399951148778200150e-02
-1.219946425408124924e-02
-4.013057053089141846e-02
-4.615905229002237320e-03
-6.648741662502288818e-02
-4.975266009569168091e-02
-2.508013881742954254e-02
1.045620068907737732e-03
-1.551735401153564453e-02
4.137271642684936523e-02
-1.931157661601901054e-03
1.145143248140811920e-02
-2.820833213627338409e-02
3.726647794246673584e-02
2.017984725534915924e-02
5.721937119960784912e-02
3.591052815318107605e-02
3.496052697300910950e-02
3.046943806111812592e-02
1.494662649929523468e-02
-3.430049866437911987e-02
1.797622814774513245e-02
4.002143815159797668e-02
-2.064321003854274750e-02
-3.163389861583709717e-03
7.223358261398971081e-04
3.053241223096847534e-02
-5.413364246487617493e-02
-8.199539734050631523e-04
-6.798654329031705856e-03
-6.623106449842453003e-02
-9.535261243581771851e-02
-3.997329995036125183e-02
2.549123764038085938e-02
2.426242921501398087e-03
-2.292614988982677460e-02
4.528941120952367783e-03
2.235018089413642883e-02
-1.459209062159061432e-02
3.698722645640373230e-02
-6.160217151045799255e-02
-7.572144269943237305e-02
4.648147895932197571e-02
4.354259371757507324e-02
4.918709397315979004e-02
-6.074899807572364807e-02
8.052755147218704224e-03
7.138987630605697632e-02
-9.293404966592788696e-02
-6.135676428675651550e-02
6.246281322091817856e-03
1.114807440899312496e-03
2.048063091933727264e-02
-4.421012476086616516e-03
-6.524683907628059387e-03
-1.134786661714315414e-02
9.360910393297672272e-03
-4.248388111591339111e-02
-3.966066613793373108e-02
-2.625952940434217453e-03
1.594409905374050140e-02
4.299812763929367065e-02
5.755994841456413269e-02
-5.068325251340866089e-02
-4.012595489621162415e-02
-1.714132726192474365e-02
-3.835384966805577278e-03
-2.439521066844463348e-02
-1.101896315813064575e-01
6.373781710863113403e-02
5.554336309432983398e-02
-2.338889241218566895e-02
-2.260084636509418488e-02
-3.254670649766921997e-02
-3.382322564721107483e-02
4.234234988689422607e-02
-3.857665881514549255e-02
-1.884731799364089966e-01
5.125890951603651047e-03
8.136403746902942657e-03
-4.853839427232742310e-02
1.049286127090454102e-02
3.448735550045967102e-02
1.482468191534280777e-02
2.044699527323246002e-02
1.566176861524581909e-02
6.151688471436500549e-02
5.645323544740676880e-02
5.475859344005584717e-02
1.330907642841339111e-01
2.639257349073886871e-02
1.198254339396953583e-02
4.391527548432350159e-02
-5.046966671943664551e-02
-7.741303741931915283e-02
-4.513336345553398132e-02
4.064220190048217773e-02
-6.952070631086826324e-03
-1.418131776154041290e-02
-9.077085414901375771e-04
-4.283103719353675842e-02
-5.295396596193313599e-02
2.021526545286178589e-02
-1.649972237646579742e-02
-3.961640968918800354e-02
-4.224318638443946838e-02
-8.091229200363159180e-02
-1.448144912719726562e-01
-1.362232211977243423e-02
-4.713843017816543579e-02
-6.857805699110031128e-02
-1.495533622801303864e-02
2.306043356657028198e-02
-3.430674970149993896e-02
-8.177524805068969727e-02
-7.792700827121734619e-02
-1.004096567630767822e-01
-5.994683504104614258e-02
-5.909757688641548157e-02
-9.813717007637023926e-02
-3.239430859684944153e-02
4.041129723191261292e-02
2.828564308583736420e-02
5.057425238192081451e-03
1.088977698236703873e-02
1.700138486921787262e-02
-2.698749862611293793e-02
9.797030128538608551e-03
2.663007238879799843e-03
-1.614784076809883118e-02
-7.573472335934638977e-03
-3.366330265998840332e-02
-6.412155926227569580e-02
-5.031856149435043335e-02
-7.869155704975128174e-02
1.647171191871166229e-02
-5.569855216890573502e-03
-5.524705350399017334e-02
-4.939346108585596085e-03
-3.693549428135156631e-03
1.307294238358736038e-02
4.615997895598411560e-03
-2.326156198978424072e-02
-5.566715821623802185e-02
4.316152632236480713e-02
2.057688310742378235e-02
-2.539799548685550690e-02
6.927160918712615967e-02
5.736634135246276855e-02
7.004512101411819458e-02
-7.578304409980773926e-02
1.867705956101417542e-02
1.056421399116516113e-01
3.019763098563998938e-04
-3.685813024640083313e-02
-4.482185095548629761e-02
-2.497149445116519928e-02
-1.756363175809383392e-02
-4.512996599078178406e-02
-3.355046361684799194e-02
-1.341948285698890686e-02
-8.184640854597091675e-02
-3.945505991578102112e-02
-5.730025097727775574e-02
-4.313561320304870605e-02
-7.419520616531372070e-02
-1.009872276335954666e-02
-3.967966139316558838e-02
4.340716078877449036e-02
6.248724460601806641e-02
2.995553426444530487e-02
1.134898792952299118e-02
-9.984476491808891296e-03
-3.351372107863426208e-02
1.132617588154971600e-03
-4.047331586480140686e-02
-4.019217193126678467e-02
2.954428642988204956e-02
2.172986569348722696e-04
-3.613361343741416931e-02
-1.376259606331586838e-02
1.861825771629810333e-02
4.999216273427009583e-02
2.707746811211109161e-02
3.478800132870674133e-02
8.682903647422790527e-02
-4.479935858398675919e-03
4.931209143251180649e-03
5.562248080968856812e-02
-2.135134302079677582e-02
-3.142785653471946716e-02
-2.308538649231195450e-03
-2.708295173943042755e-02
-1.157552897930145264e-01
-4.994498193264007568e-02
1.878325454890727997e-02
2.628484182059764862e-02
4.854822158813476562e-02
-1.487258914858102798e-02
1.352634839713573456e-02
3.436538949608802795e-02
4.502804018557071686e-03
-4.134120792150497437e-02
-4.053037613630294800e-02
8.500228822231292725e-02
4.298043996095657349e-02
-3.869898244738578796e-02
-6.825042422860860825e-03
-5.942035350017249584e-04
-3.460988635197281837e-03
-2.789665758609771729e-02
-4.008875228464603424e-03
5.235638935118913651e-03
1.695939339697360992e-02
6.402134895324707031e-02
-1.941147726029157639e-03
-5.238472018390893936e-03
1.499815378338098526e-02
-2.301218174397945404e-02
-1.336961053311824799e-02
9.335424751043319702e-02
8.529438823461532593e-02
1.583955436944961548e-02
5.623411387205123901e-02
4.065765067934989929e-02
-1.175018679350614548e-02
3.477996587753295898e-02
5.048673972487449646e-02
-1.889072358608245850e-02
-5.797856301069259644e-02
4.551186785101890564e-02
-4.009468480944633484e-02
8.365139365196228027e-02
5.463282763957977295e-02
-8.905909210443496704e-02
1.125259604305028915e-02
1.910572871565818787e-02
-1.821379810571670532e-01
-4.543969035148620605e-02
-9.316805750131607056e-02
3.020927682518959045e-02
-1.371665205806493759e-02
2.045776881277561188e-02
4.140062257647514343e-02
1.064946502447128296e-02
-2.699023112654685974e-03
1.568328961730003357e-02
1.102004200220108032e-02
-2.276969701051712036e-02
-2.497627772390842438e-02
-6.914794445037841797e-02
-2.601307630538940430e-02
1.528046000748872757e-02
-9.459478780627250671e-03
-3.039061557501554489e-03
3.907905146479606628e-02
4.900366067886352539e-02
6.009675934910774231e-02
-3.933848813176155090e-02
3.892811015248298645e-02
8.432985842227935791e-02
3.180387988686561584e-02
5.713542550802230835e-02
4.484917223453521729e-02
6.396640837192535400e-02
1.007628515362739563e-01
8.684092015027999878e-02
-3.166684508323669434e-02
-9.422421455383300781e-02
-6.862671673297882080e-02
8.841281756758689880e-03
-6.276981532573699951e-02
1.286590099334716797e-02
-1.916892454028129578e-02
-1.139763183891773224e-02
4.307367280125617981e-02
-4.780285805463790894e-02
-2.739930152893066406e-02
-1.036943774670362473e-02
-7.431626319885253906e-02
-2.909195609390735626e-02
-5.124917253851890564e-02
-1.229942031204700470e-02
1.462580636143684387e-03
2.886323817074298859e-02
2.455710200592875481e-03
-5.585128441452980042e-03
-2.246437594294548035e-03
-2.377562411129474640e-02
2.690123394131660461e-02
4.468927904963493347e-02
-1.969336590263992548e-04
2.167408727109432220e-02
3.110808879137039185e-02
-3.130915388464927673e-02
-2.694766968488693237e-02
2.643887326121330261e-02
-1.056607067584991455e-01
-9.088224917650222778e-02
-1.197606101632118225e-01
-5.367998033761978149e-02
-1.173032224178314209e-01
-5.256354063749313354e-02
-5.306072905659675598e-02
1.544640772044658661e-02
1.440888736397027969e-02
-5.371483415365219116e-02
2.164465375244617462e-02
1.806175149977207184e-02
-4.502461105585098267e-02
-8.041733875870704651e-03
-7.600691914558410645e-02
5.821488797664642334e-02
7.139547169208526611e-02
5.954349413514137268e-02
6.314400583505630493e-02
1.065886914730072021e-01
1.136577278375625610e-01
1.704059727489948273e-02
3.677947819232940674e-02
2.611293643712997437e-02
1.915468601509928703e-03
-7.347655296325683594e-02
-8.974358439445495605e-02
1.771074160933494568e-02
5.058554559946060181e-02
7.753231562674045563e-03
5.979377776384353638e-02
7.740829139947891235e-03
3.046475909650325775e-02
5.184538662433624268e-02
8.090655505657196045e-02
6.996132433414459229e-02
-4.292894527316093445e-02
-3.372833877801895142e-02
4.407058004289865494e-03
-9.534950554370880127e-02
-5.163731426000595093e-02
-4.517626017332077026e-02
6.546154618263244629e-02
3.611369431018829346e-02
3.318367525935173035e-02
6.212337408214807510e-03
-2.512194402515888214e-02
3.974784165620803833e-03
-5.768523365259170532e-02
-3.790738061070442200e-02
-3.027271106839179993e-02
7.528283447027206421e-02
6.567006558179855347e-02
6.990075856447219849e-02
5.368239432573318481e-02
1.317200660705566406e-01
9.593186527490615845e-02
3.708503767848014832e-02
6.167956814169883728e-02
5.355055630207061768e-02
8.458862081170082092e-03
5.262798164039850235e-03
-1.184211485087871552e-02
6.774010509252548218e-02
3.201737999916076660e-02
4.682129621505737305e-02
5.844317004084587097e-02
6.042450666427612305e-02
6.052745506167411804e-02
-7.027219980955123901e-02
-3.916893899440765381e-02
-2.947595668956637383e-03
-1.919713243842124939e-02
1.152238436043262482e-02
-1.197137404233217239e-03
1.213885936886072159e-02
-2.472228556871414185e-02
-2.613859996199607849e-02
-6.546853575855493546e-03
-1.412881724536418915e-02
7.578885182738304138e-03
3.216317389160394669e-03
5.378352478146553040e-02
2.209420315921306610e-02
5.923887342214584351e-02
6.730698049068450928e-02
4.452766850590705872e-02
3.653993830084800720e-02
-2.954270504415035248e-02
1.059342548251152039e-02
-7.729028165340423584e-02
5.159673467278480530e-02
6.029486283659934998e-02
9.493902325630187988e-03
1.808375306427478790e-02
-8.941297419369220734e-03
1.714752428233623505e-02
1.154282968491315842e-02
-1.604675129055976868e-02
-7.861283421516418457e-02
-2.626922540366649628e-02
-3.280913922935724258e-03
-4.191862884908914566e-03
3.255659341812133789e-02
7.711121439933776855e-02
2.678497135639190674e-02
-2.871923788916319609e-04
-2.455986477434635162e-02
-8.737055212259292603e-02
-4.517221450805664062e-02
-1.076060347259044647e-02
-1.649474911391735077e-02
2.576895058155059814e-02
9.995553642511367798e-03
1.892404817044734955e-02
-4.671223089098930359e-02
-6.571079790592193604e-02
-4.596386861521750689e-04
-3.988056909292936325e-03
-1.013355236500501633e-02
-2.367525547742843628e-02
4.618695005774497986e-03
-1.576382108032703400e-02
-1.059666089713573456e-02
-9.139101952314376831e-03
2.024030312895774841e-03
-2.227467484772205353e-02
7.749115116894245148e-03
-1.089714001864194870e-02
-4.453320428729057312e-02
-3.724443912506103516e-02
-1.445762068033218384e-02
-7.978174090385437012e-02
-4.928195104002952576e-02
-1.231371797621250153e-02
-4.834558069705963135e-02
-3.614088147878646851e-02
-4.170614108443260193e-02
-3.126864135265350342e-02
-7.139853388071060181e-02
-5.393978208303451538e-02
-1.064268406480550766e-02
-1.910593733191490173e-02
2.319360151886940002e-02
9.698549658060073853e-02
3.931793197989463806e-02
3.485427424311637878e-02
6.414298713207244873e-02
6.338386982679367065e-02
1.365470606833696365e-02
3.561561182141304016e-02
-1.862610131502151489e-02
-5.410085618495941162e-02
-8.968942612409591675e-02
-5.420457571744918823e-03
3.626884892582893372e-02
3.329280391335487366e-02
5.552659928798675537e-02
3.320882096886634827e-02
-9.372497349977493286e-02
-2.024482702836394310e-03
3.300188481807708740e-02
-3.740887343883514404e-02
6.945642083883285522e-02
7.387103885412216187e-02
6.759812682867050171e-02
3.055325336754322052e-02
4.205588623881340027e-02
-1.127795055508613586e-01
-6.225412711501121521e-02
-6.998265534639358521e-02
-9.677989780902862549e-02
-6.432156264781951904e-02
-4.098436981439590454e-02
-3.466092795133590698e-02
-4.470320045948028564e-02
-1.521777641028165817e-02
1.700659282505512238e-02
-3.334576636552810669e-02
-2.868499048054218292e-02
-3.116797888651490211e-03
8.407130837440490723e-02
7.192671298980712891e-02
1.266149729490280151e-01
1.105649322271347046e-01
7.923230528831481934e-02
1.410167291760444641e-02
-2.040952630341053009e-02
-9.611431509256362915e-03
-1.194250490516424179e-02
5.133679509162902832e-02
2.476514130830764771e-02
1.444553211331367493e-02
2.599112503230571747e-02
-7.414866704493761063e-04
-1.178668960928916931e-01
1.842912845313549042e-02
2.804779820144176483e-02
6.061235815286636353e-02
7.244084030389785767e-02
1.510851271450519562e-02
3.757686167955398560e-02
-2.941648475825786591e-02
-2.177806757390499115e-02
-1.281492859125137329e-01
-2.351003140211105347e-02
-2.151145227253437042e-02
3.826031088829040527e-02
2.807207591831684113e-02
2.065479941666126251e-02
-3.117227926850318909e-02
-1.479461975395679474e-02
1.393191050738096237e-02
2.531347423791885376e-02
-1.828483864665031433e-02
-9.218686074018478394e-02
-3.577391430735588074e-02
-2.272953279316425323e-02
-6.326533108949661255e-02
-4.228261113166809082e-02
-2.159031340852379799e-03
-4.263728857040405273e-02
-5.153508856892585754e-03
-1.892019994556903839e-02
-3.306036815047264099e-02
-8.533747494220733643e-02
-7.033767551183700562e-02
2.142681553959846497e-02
-4.106004908680915833e-02
-3.997649624943733215e-02
-2.698287367820739746e-02
1.942688832059502602e-03
8.451895788311958313e-03
3.964586649090051651e-03
7.651184219866991043e-03
-4.720542952418327332e-02
-7.336062937974929810e-02
-2.978534065186977386e-02
-2.502433583140373230e-02
7.917682640254497528e-03
-4.324182402342557907e-03
2.935700677335262299e-02
5.398529767990112305e-02
9.178238920867443085e-03
4.676016047596931458e-02
-3.898166865110397339e-02
1.250407099723815918e-01
8.143110573291778564e-02
-9.576682001352310181e-03
3.167324233800172806e-03
7.794346194714307785e-03
2.474667318165302277e-02
5.898094177246093750e-02
3.027435019612312317e-02
-8.584877848625183105e-02
1.347443610429763794e-01
4.581246897578239441e-02
-5.511806160211563110e-02
-6.727509945631027222e-02
-5.588548630475997925e-02
-3.425167873501777649e-02
1.310509592294692993e-01
1.022318899631500244e-01
1.157897263765335083e-01
9.453678131103515625e-02
1.193548962473869324e-01
4.986561089754104614e-02
5.554134259000420570e-04
-1.229432970285415649e-02
-6.308525800704956055e-02
1.811024174094200134e-02
2.766969613730907440e-02
-9.079605340957641602e-02
3.317401558160781860e-02
6.323623657226562500e-02
3.018239885568618774e-02
1.733041182160377502e-02
2.370605990290641785e-02
-7.689248770475387573e-02
3.858980536460876465e-02
-9.150229161605238914e-04
-5.135792121291160583e-02
-5.249934270977973938e-02
-1.922724768519401550e-02
-1.049972139298915863e-02
-4.526252299547195435e-02
-6.266070157289505005e-02
-6.823491305112838745e-02
1.681707054376602173e-02
-5.800783634185791016e-03
-1.119322888553142548e-02
7.586421072483062744e-02
7.894844561815261841e-02
-1.250459998846054077e-02
-5.159235000610351562e-02
2.317696809768676758e-02
1.361436955630779266e-02
-5.433344468474388123e-02
3.514676541090011597e-02
-4.042436927556991577e-02
-1.102439127862453461e-02
-5.845393612980842590e-02
6.853586435317993164e-02
-9.488957002758979797e-04
-4.760903120040893555e-02
-4.145653173327445984e-02
-8.232285082340240479e-02
-4.705647006630897522e-02
-5.101074650883674622e-02
-5.052275210618972778e-02
-2.682028710842132568e-02
-3.506340784952044487e-03
-7.444273214787244797e-03
-4.053078219294548035e-02
-5.397433042526245117e-02
2.245273999869823456e-02
3.908054903149604797e-02
-1.281688641756772995e-02
-1.365189999341964722e-02
5.360814929008483887e-02
2.730425447225570679e-02
-1.448705699294805527e-02
-4.310782998800277710e-03
-1.117396913468837738e-02
-3.435284644365310669e-02
-5.888645723462104797e-02
-6.386047601699829102e-02
-2.943953126668930054e-02
2.822803566232323647e-03
-3.611606732010841370e-02
2.847311785444617271e-03
-2.458859607577323914e-02
-2.245663851499557495e-02
2.590257860720157623e-02
6.112841423600912094e-03
3.944533318281173706e-02
-2.191738225519657135e-02
4.220827668905258179e-02
2.710753120481967926e-02
-5.373400170356035233e-03
-2.007028087973594666e-02
-4.925656691193580627e-02
-4.037696495652198792e-02
-3.542913496494293213e-02
2.487917803227901459e-02
-3.303712978959083557e-02
2.112042624503374100e-03
1.608465914614498615e-03
-7.498151808977127075e-02
-9.056737273931503296e-02
-1.235000416636466980e-02
4.676138237118721008e-02
3.938186541199684143e-02
3.115510381758213043e-02
4.758612811565399170e-02
4.488942772150039673e-02
3.098170273005962372e-02
2.007121406495571136e-02
-2.946604974567890167e-02
-2.327642031013965607e-02
-2.838592231273651123e-02
-9.790215641260147095e-03
-3.180639445781707764e-02
-6.364853121340274811e-03
3.461303561925888062e-02
5.597108975052833557e-02
4.436511546373367310e-03
8.106708526611328125e-03
1.359654124826192856e-02
5.090738832950592041e-02
3.240931034088134766e-02
4.268260300159454346e-02
7.043587416410446167e-02
2.118679508566856384e-02
-4.537932574748992920e-02
5.448082461953163147e-03
1.353323925286531448e-02
1.793085597455501556e-02
9.232361800968647003e-03
1.961939223110675812e-02
-3.960405662655830383e-02
-5.435295403003692627e-02
-2.321753464639186859e-02
4.026833549141883850e-02
-2.069396432489156723e-03
-2.464573271572589874e-02
5.205190740525722504e-03
2.665702253580093384e-02
4.813808947801589966e-03
2.018062584102153778e-02
-4.380811005830764771e-02
-6.625021994113922119e-02
6.295365840196609497e-02
4.612129647284746170e-03
1.412137039005756378e-02
-2.957559889182448387e-03
1.431787200272083282e-02
-3.817350137978792191e-03
-1.377261336892843246e-02
-9.328339993953704834e-02
-7.545518130064010620e-02
2.810053061693906784e-03
5.389973893761634827e-02
9.788394719362258911e-02
2.273058146238327026e-02
-1.297542639076709747e-02
-3.372745588421821594e-02
-7.664810121059417725e-02
-2.732118219137191772e-02
-5.166332051157951355e-02
-5.748516693711280823e-02
1.949524879455566406e-02
-7.970244623720645905e-03
1.998139359056949615e-02
-4.435032233595848083e-02
-4.094997420907020569e-02
-5.919165536761283875e-02
-6.032128259539604187e-02
1.993824169039726257e-02
2.326336316764354706e-02
4.005546215921640396e-04
-2.942669577896595001e-02
1.136098243296146393e-02
-6.745716184377670288e-02
-7.262919098138809204e-02
-1.789931766688823700e-02
-3.395795822143554688e-02
3.457479551434516907e-02
5.649835988879203796e-02
5.380066484212875366e-02
8.205276727676391602e-02
2.546089701354503632e-02
-9.426310658454895020e-03
3.029695712029933929e-02
-5.145354196429252625e-02
1.492995116859674454e-02
8.110377006232738495e-03
-7.868303917348384857e-03
-2.729600481688976288e-02
-3.746413066983222961e-02
3.092609532177448273e-02
2.744412235915660858e-02
1.450954657047986984e-02
6.539610773324966431e-02
-3.697898983955383301e-02
-3.606962040066719055e-02
6.721987854689359665e-03
5.115643143653869629e-02
-3.957253415137529373e-03
4.634715151041746140e-03
7.540056854486465454e-02
-2.928843349218368530e-02
-4.784086719155311584e-02
-7.583289593458175659e-02
3.180573135614395142e-02
1.804618164896965027e-02
-1.722942106425762177e-03
-4.343690350651741028e-03
-6.097289919853210449e-02
-4.383935779333114624e-02
-4.706761240959167480e-02
-2.382249385118484497e-02
-4.078210145235061646e-02
4.110673908144235611e-03
2.101814374327659607e-02
-1.729925163090229034e-02
2.005968242883682251e-02
-1.684292964637279510e-02
3.232360258698463440e-02
9.945047087967395782e-03
-2.848569303750991821e-02
2.658185921609401703e-02
1.260590180754661560e-02
-2.633386291563510895e-02
5.923361517488956451e-03
9.999970905482769012e-03
-3.197749704122543335e-02
9.882923215627670288e-03
-3.526684641838073730e-02
-7.225608080625534058e-02
4.746549297124147415e-03
-1.088966205716133118e-01
-6.817068159580230713e-02
4.314612224698066711e-02
-2.871244028210639954e-02
-5.984835699200630188e-02
-5.827033892273902893e-02
-1.437512785196304321e-02
-1.288465969264507294e-02
-1.190049387514591217e-02
3.697765618562698364e-02
7.392047345638275146e-02
8.203649520874023438e-02
1.308901049196720123e-02
-1.001253426074981689e-01
-2.283600531518459320e-02
-3.181250020861625671e-02
9.567919373512268066e-02
1.186065748333930969e-02
3.163399174809455872e-02
5.393467843532562256e-02
-4.805573448538780212e-02
-4.653226211667060852e-02
2.478501945734024048e-02
-8.311436511576175690e-03
-1.225691288709640503e-02
5.006099864840507507e-02
-2.855318598449230194e-02
2.765897102653980255e-02
3.792862594127655029e-02
-6.887928117066621780e-03
2.062261104583740234e-02
9.721513837575912476e-02
4.056978225708007812e-02
3.877094388008117676e-02
3.461981937289237976e-02
5.176572501659393311e-02
-8.619447238743305206e-03
3.095651790499687195e-02
-3.317126538604497910e-03
-3.215501457452774048e-02
-2.073197439312934875e-02
-1.274454779922962189e-02
-1.534072961658239365e-02
3.672458976507186890e-02
-1.798035018146038055e-02
1.061903499066829681e-02
3.978239744901657104e-02
-6.809905171394348145e-02
-1.404530405998229980e-01
-1.075862571597099304e-01
-5.123388394713401794e-02
-7.108148932456970215e-02
-2.547982335090637207e-02
-5.319689214229583740e-02
-8.408737927675247192e-02
-1.385415438562631607e-02
-3.653892129659652710e-02
-1.082901284098625183e-01
-1.311827600002288818e-01
-5.625293403863906860e-02
-6.925557553768157959e-02
-5.414719879627227783e-02
-8.922064304351806641e-02
-5.957462266087532043e-02
-5.261341482400894165e-02
6.512447725981473923e-04
-4.676074907183647156e-02
-9.732811152935028076e-02
-8.826421573758125305e-03
-1.504632923752069473e-02
-7.543161511421203613e-02
-4.334465414285659790e-02
-5.583848059177398682e-02
-1.684137433767318726e-02
-2.033635973930358887e-02
-4.241349175572395325e-02
-2.415530569851398468e-02
5.317307543009519577e-03
-2.808000892400741577e-02
4.772797971963882446e-02
9.660430252552032471e-03
5.208986625075340271e-02
1.666833460330963135e-02
-1.302176807075738907e-02
-8.239329792559146881e-03
-5.227691959589719772e-03
-4.659055173397064209e-02
4.762036260217428207e-03
2.163297496736049652e-02
-1.796437054872512817e-02
5.218340456485748291e-02
2.946739271283149719e-02
-4.263951629400253296e-02
1.365491375327110291e-02
-5.000718869268894196e-03
-1.799006573855876923e-02
9.629552252590656281e-03
-2.410297282040119171e-03
4.405076429247856140e-02
7.310220599174499512e-02
2.305435389280319214e-02
-2.437928132712841034e-02
-5.909600108861923218e-02
3.481501713395118713e-02
-2.291635796427726746e-02
8.502163924276828766e-03
1.200566906481981277e-02
-2.384801767766475677e-02
-7.551285624504089355e-02
-5.151438713073730469e-02
-1.286569796502590179e-02
-3.990658745169639587e-02
7.871192879974842072e-03
4.833440296351909637e-03
1.214050687849521637e-02
9.535603225231170654e-03
-3.582039847970008850e-02
4.101195558905601501e-02
2.785787917673587799e-02
3.281558398157358170e-03
-4.309359192848205566e-02
-4.188818857073783875e-02
-6.482755392789840698e-02
-1.887947320938110352e-02
-4.843809828162193298e-02
-9.248767793178558350e-02
-3.577965125441551208e-02
-3.793453052639961243e-02
-1.218944881111383438e-02
2.219385467469692230e-03
1.834151148796081543e-02
4.118181392550468445e-02
5.909447371959686279e-02
9.716296568512916565e-03
3.851161152124404907e-02
7.316295057535171509e-02
8.831079117953777313e-03
6.244706921279430389e-03
-8.129850961267948151e-03
-3.566857427358627319e-02
-6.690837908536195755e-03
1.767668989486992359e-03
-2.265630476176738739e-02
-5.565051455050706863e-03
9.011859446763992310e-02
9.201860055327415466e-03
-1.954511553049087524e-02
1.101266127079725266e-02
5.895303562283515930e-02
-1.734626665711402893e-02
3.468375653028488159e-02
5.736416205763816833e-02
-1.837168261408805847e-02
1.744225621223449707e-02
2.819848246872425079e-02
3.966363612562417984e-03
-2.699348330497741699e-02
-6.690043956041336060e-03
-9.571513161063194275e-03
-1.024258974939584732e-02
1.469195820391178131e-02
-8.534806966781616211e-02
-2.809527702629566193e-02
-3.623329848051071167e-02
3.785039857029914856e-02
-2.899854909628629684e-03
-5.416902154684066772e-02
1.802518405020236969e-02
-5.399375408887863159e-02
-6.923590600490570068e-02
2.221120521426200867e-02
-3.903917968273162842e-02
-8.004831522703170776e-02
2.974751591682434082e-02
3.985046222805976868e-02
2.404815889894962311e-02
-6.692838668823242188e-02
-9.499601088464260101e-03
6.412397325038909912e-02
-1.025234237313270569e-01
-5.903536081314086914e-02
1.407812908291816711e-02
1.815367117524147034e-02
5.218216404318809509e-02
2.289073914289474487e-02
1.904813386499881744e-02
2.432932704687118530e-02
-6.485288590192794800e-02
5.832385271787643433e-03
3.736030682921409607e-02
-4.083544481545686722e-03
-1.130373626947402954e-01
-6.821137852966785431e-03
2.591560594737529755e-02
-1.301020234823226929e-01
-5.475916340947151184e-02
1.728958263993263245e-02
-2.274253964424133301e-02
1.515177730470895767e-02
2.856257185339927673e-02
-5.974477529525756836e-02
1.568397274240851402e-03
8.296462893486022949e-02
-3.195856884121894836e-02
-3.171847760677337646e-02
2.137218229472637177e-02
-6.483611650764942169e-03
4.482908174395561218e-03
2.727778628468513489e-02
-1.669411174952983856e-02
-9.073802083730697632e-02
-3.804415836930274963e-02
5.928237363696098328e-02
2.900612540543079376e-02
5.725938454270362854e-02
4.924281314015388489e-02
-6.508621852844953537e-03
-1.566288433969020844e-02
7.233910262584686279e-03
-6.956015527248382568e-02
-4.148123320192098618e-03
6.611246615648269653e-02
-1.645069941878318787e-02
-7.150413095951080322e-02
2.085183002054691315e-02
-2.818074449896812439e-02
-9.531942754983901978e-02
6.655247509479522705e-02
3.973659127950668335e-03
1.852882327511906624e-03
3.541471064090728760e-02
-1.838585827499628067e-03
-5.777240917086601257e-02
3.953375667333602905e-02
9.134235791862010956e-03
-4.793697223067283630e-02
-5.216185469180345535e-03
-8.597820252180099487e-02
-7.211701571941375732e-02
6.559818238019943237e-02
6.011107191443443298e-02
2.461186982691287994e-02
4.688517376780509949e-02
6.835063453763723373e-03
-9.273493289947509766e-02
-1.284977942705154419e-01
-5.504623055458068848e-02
9.071631357073783875e-04
-1.170448288321495056e-01
-6.246650964021682739e-02
-2.022016420960426331e-02
-9.670318663120269775e-02
3.282552585005760193e-02
5.128787830471992493e-02
-1.371357217431068420e-02
4.132982715964317322e-02
1.009387150406837463e-02
-4.923819005489349365e-02
1.089329924434423447e-02
3.334723180159926414e-03
-2.684134989976882935e-02
4.976193304173648357e-04
2.146842144429683685e-02
8.164603263139724731e-03
-8.620525151491165161e-02
-1.225135028362274170e-01
1.507031451910734177e-02
3.999811038374900818e-02
-2.998313121497631073e-02
3.580129519104957581e-02
2.387008257210254669e-02
-3.338012378662824631e-03
4.296876862645149231e-02
2.133029326796531677e-02
-6.683039828203618526e-05
1.415117736905813217e-02
-1.473159436136484146e-02
-2.445611543953418732e-02
-4.053336754441261292e-02
-2.707205712795257568e-02
-2.689673751592636108e-02
2.674545906484127045e-02
-2.780152671039104462e-02
-2.193560823798179626e-02
5.132557824254035950e-02
2.183378674089908600e-02
-3.219090774655342102e-02
2.347926236689090729e-02
-5.200044251978397369e-03
-2.653058990836143494e-02
-2.517882967367768288e-03
6.431800872087478638e-02
-1.616742275655269623e-02
-3.260787948966026306e-02
-2.220067754387855530e-02
8.197474293410778046e-03
-3.674186766147613525e-02
-2.560235746204853058e-02
-1.881765201687812805e-02
-9.124153852462768555e-02
-2.329949289560317993e-02
-6.581143289804458618e-02
-7.179713994264602661e-02
-1.025622617453336716e-02
3.789104521274566650e-02
-3.127265721559524536e-02
-1.392733957618474960e-02
3.154619410634040833e-02
1.282198727130889893e-02
9.860524907708168030e-03
-2.488986030220985413e-02
4.634540993720293045e-03
-1.515412586741149426e-03
-9.701116010546684265e-03
-3.442266606725752354e-04
-4.467426985502243042e-02
-7.274999469518661499e-02
-1.594547778367996216e-01
-1.087179034948348999e-01
1.308356784284114838e-02
-1.296240091323852539e-01
-1.315212398767471313e-01
-2.518755011260509491e-02
5.068103317171335220e-03
-6.534558534622192383e-02
-9.486047178506851196e-02
3.028215095400810242e-02
-1.880059600807726383e-03
-1.603125222027301788e-02
3.420767933130264282e-02
3.567090258002281189e-02
3.257535398006439209e-02
1.239901781082153320e-02
3.249733895063400269e-02
-6.653073709458112717e-03
-3.761038184165954590e-03
-5.066556483507156372e-02
-1.021433919668197632e-01
-1.952236145734786987e-02
4.130134731531143188e-02
1.624722778797149658e-02
-5.964680761098861694e-02
-2.517231367528438568e-02
5.261190980672836304e-02
4.977694153785705566e-02
-4.339929297566413879e-02
-6.331615149974822998e-02
2.048787288367748260e-02
2.188264951109886169e-02
1.719515584409236908e-02
-1.463422924280166626e-02
4.622253403067588806e-02
8.461450785398483276e-02
6.934268027544021606e-02
4.322246834635734558e-02
-2.536841295659542084e-02
3.353947773575782776e-02
3.233156353235244751e-02
6.901669257786124945e-05
-3.365263715386390686e-02
6.344938278198242188e-02
8.366151899099349976e-02
5.573136731982231140e-02
-2.938496414572000504e-03
-6.149700656533241272e-02
1.804696768522262573e-02
3.255238011479377747e-02
-3.727029263973236084e-02
-3.820239566266536713e-03
3.320900350809097290e-02
3.963235020637512207e-02
3.709197416901588440e-02
1.110417116433382034e-02
-3.660964593291282654e-02
7.236554473638534546e-02
3.766943886876106262e-02
-2.072799578309059143e-02
-2.088664844632148743e-02
-1.088617928326129913e-02
-5.419127992354333401e-04
-1.800377108156681061e-02
-7.027654349803924561e-02
-5.796467512845993042e-02
-4.877270758152008057e-02
-4.629632830619812012e-02
-1.119737029075622559e-01
-2.996004931628704071e-02
-3.438943997025489807e-03
-1.815009675920009613e-02
-9.902624785900115967e-02
-4.757630452513694763e-02
-3.090230748057365417e-02
-4.574277251958847046e-02
-8.198111318051815033e-03
-4.338395316153764725e-03
-6.239376217126846313e-02
-4.544875025749206543e-02
-3.529950603842735291e-02
-7.073955237865447998e-02
-6.523340195417404175e-02
5.677952617406845093e-02
-4.444503784179687500e-02
-6.220286712050437927e-02
4.481576755642890930e-02
2.458441443741321564e-02
-3.588348627090454102e-02
-3.253624960780143738e-02
6.162064522504806519e-02
6.006198748946189880e-02
-3.782128542661666870e-02
2.008876763284206390e-02
4.377738758921623230e-02
3.479688614606857300e-02
-2.424184978008270264e-02
2.534179016947746277e-02
2.448333054780960083e-02
-2.990661002695560455e-02
-7.336056232452392578e-02
3.597305156290531158e-03
-3.530974313616752625e-02
-4.773585870862007141e-02
-3.128555789589881897e-02
1.026537641882896423e-02
-1.950672455132007599e-02
-2.861589379608631134e-02
2.783367969095706940e-02
3.100140020251274109e-02
3.013468347489833832e-02
-3.070010989904403687e-02
-5.645729601383209229e-02
9.881974197924137115e-03
1.990019343793392181e-02
-2.393742091953754425e-02
1.915707252919673920e-02
-4.769140854477882385e-02
4.371609538793563843e-03
8.085300028324127197e-02
-1.933759637176990509e-02
-2.010749839246273041e-02
4.157302901148796082e-02
-3.009720332920551300e-02
-7.117637246847152710e-02
-5.333307385444641113e-02
-7.656493782997131348e-02
-3.280904516577720642e-02
4.475260525941848755e-02
5.241618957370519638e-03
2.488091215491294861e-02
-3.595403861254453659e-03
-7.431008666753768921e-02
-2.752277813851833344e-02
2.143911458551883698e-02
-1.014166511595249176e-02
-3.765784902498126030e-03
2.120133489370346069e-02
-2.738093212246894836e-02
1.618785597383975983e-02
-2.722492907196283340e-03
-9.404015541076660156e-02
-6.246734783053398132e-02
4.405593499541282654e-03
-3.172102570533752441e-02
-3.824624791741371155e-02
-1.794976554811000824e-02
2.066502533853054047e-02
2.879116684198379517e-02
2.285082265734672546e-02
-6.202119588851928711e-02
-2.565178461372852325e-02
2.425980754196643829e-02
-2.909611910581588745e-02
-2.333545498549938202e-02
-2.074752468615770340e-03
1.160349138081073761e-02
3.718559443950653076e-02
3.985812515020370483e-02
-5.692855268716812134e-02
-1.851073093712329865e-02
-3.588075563311576843e-02
4.668166488409042358e-02
2.499648928642272949e-02
5.474154651165008545e-02
4.828235134482383728e-02
8.532723295502364635e-04
5.651639774441719055e-02
2.782604843378067017e-02
4.801249504089355469e-02
5.350811779499053955e-02
1.516119297593832016e-02
-3.230467066168785095e-02
-1.524813380092382431e-02
2.964363805949687958e-02
-2.088273875415325165e-02
4.337379336357116699e-02
3.302478417754173279e-02
7.673085667192935944e-03
-2.856784965842962265e-03
6.934992503374814987e-03
2.475458011031150818e-02
-2.022355981171131134e-02
8.351663127541542053e-03
-3.869823878630995750e-03
-3.613888099789619446e-02
5.700284987688064575e-02
-1.871049776673316956e-02
-8.772626519203186035e-02
-4.488773271441459656e-02
-1.049885433167219162e-02
-2.200712263584136963e-02
-2.633217535912990570e-02
-4.324781894683837891e-02
-4.568524018395692110e-04
-2.982278726994991302e-02
-2.821905724704265594e-02
5.336339585483074188e-03
1.039079576730728149e-02
1.923976466059684753e-02
9.250303264707326889e-04
-3.100405260920524597e-02
-2.528578275814652443e-03
5.857713054865598679e-03
-7.708565145730972290e-02
-4.417765513062477112e-02
-1.450310088694095612e-02
-5.416690930724143982e-02
-3.634553030133247375e-02
-5.035200715065002441e-02
-2.220506779849529266e-02
-1.787610538303852081e-02
-1.903771236538887024e-02
-5.073942244052886963e-02
-3.660729527473449707e-02
1.638888567686080933e-02
2.113118022680282593e-02
7.413525879383087158e-02
3.897993639111518860e-02
6.667670607566833496e-02
7.001174986362457275e-02
5.176661908626556396e-02
4.727060720324516296e-02
9.088442474603652954e-02
5.416053161025047302e-02
1.122399512678384781e-02
3.622024133801460266e-02
3.289242088794708252e-02
-1.808092370629310608e-02
4.725632071495056152e-02
8.168251067399978638e-02
-3.992976620793342590e-02
-9.831309318542480469e-02
-2.773248031735420227e-02
4.294972866773605347e-02
2.482054941356182098e-02
4.914076067507266998e-03
1.527893356978893280e-02
-7.588135777041316032e-04
-6.125816330313682556e-02
-2.761021070182323456e-02
-7.885487377643585205e-02
-8.147523552179336548e-02
7.941073738038539886e-03
-2.827812731266021729e-02
-2.725706808269023895e-02
-2.058870159089565277e-02
8.571428246796131134e-03
-2.728757914155721664e-03
-9.189046174287796021e-02
-5.157725140452384949e-02
-1.403272524476051331e-02
1.293999329209327698e-02
-1.046665199100971222e-02
-2.676849998533725739e-02
-3.291427344083786011e-02
-1.157710794359445572e-02
-5.651818215847015381e-02
-6.275938451290130615e-02
-7.275962084531784058e-02
-7.068251818418502808e-02
5.877177044749259949e-02
1.646968349814414978e-02
8.403203636407852173e-02
-4.240624234080314636e-02
1.226627355208620429e-04
8.492861688137054443e-02
-4.142906889319419861e-02
-6.838683038949966431e-02
4.993405193090438843e-03
8.993508666753768921e-02
4.157413169741630554e-02
7.127469778060913086e-02
8.287277817726135254e-02
4.620130732655525208e-02
4.502093791961669922e-02
4.583270102739334106e-02
-2.248738519847393036e-02
-4.678022582083940506e-03
-3.796453028917312622e-02
-4.320885613560676575e-02
1.003169640898704529e-02
-6.249831523746252060e-03
4.464933276176452637e-02
1.933744736015796661e-02
-4.417223110795021057e-02
-3.592741116881370544e-02
-1.098404917865991592e-02
6.152426823973655701e-02
3.300733491778373718e-02
-2.870355499908328056e-03
-3.873137384653091431e-02
-3.199167549610137939e-02
-3.410501033067703247e-02
8.824152499437332153e-02
4.751720651984214783e-02
-4.590800777077674866e-02
-2.638517320156097412e-02
-2.405071817338466644e-02
-6.111444160342216492e-02
4.301823209971189499e-03
4.565920308232307434e-02
2.660296112298965454e-02
-2.323718182742595673e-02
1.346148829907178879e-02
-4.488717764616012573e-02
-7.927304506301879883e-02
-9.459304809570312500e-02
-5.625106766819953918e-02
2.621215069666504860e-03
6.987890228629112244e-03
6.373704969882965088e-02
5.241981893777847290e-02
9.825152903795242310e-02
3.243697807192802429e-02
-6.530937552452087402e-02
-1.423400193452835083e-01
-1.257498562335968018e-01
1.573797129094600677e-02
2.413409762084484100e-02
1.559043303132057190e-02
1.072083506733179092e-02
8.378220722079277039e-03
6.987398117780685425e-02
-1.463449187576770782e-02
-3.120092488825321198e-02
-4.734768718481063843e-02
6.102180480957031250e-02
6.692535430192947388e-02
1.930725760757923126e-02
-9.531258605420589447e-03
7.648393046110868454e-03
3.921179845929145813e-02
-2.861014008522033691e-02
-2.334057167172431946e-02
-2.825771458446979523e-02
-8.989174966700375080e-05
8.205696940422058105e-03
2.121154963970184326e-02
-4.527644068002700806e-02
-3.109176643192768097e-02
-1.970366016030311584e-02
-4.215975478291511536e-02
-2.938742749392986298e-02
-3.093153005465865135e-03
-8.722403086721897125e-03
2.294752001762390137e-02
3.556724265217781067e-02
-4.886129871010780334e-02
-7.928359508514404297e-02
-1.350597199052572250e-02
-3.148829936981201172e-02
-3.327228873968124390e-02
-3.974813967943191528e-03
7.022128440439701080e-03
4.980000108480453491e-02
1.857189275324344635e-02
4.943193867802619934e-02
7.330814749002456665e-02
4.230160638689994812e-02
-1.253122463822364807e-03
4.045962542295455933e-02
3.583983704447746277e-02
4.761221935041248798e-04
4.197198897600173950e-02
-1.035989494994282722e-03
1.892747730016708374e-02
3.857450187206268311e-02
-1.582844415679574013e-03
-4.372737929224967957e-02
-3.386719897389411926e-02
-5.104238633066415787e-03
4.247949272394180298e-02
6.501696258783340454e-02
2.208988927304744720e-02
-3.015650622546672821e-02
-4.763557575643062592e-03
2.273489721119403839e-03
-3.685137256979942322e-02
-2.768530137836933136e-02
-2.418526634573936462e-02
1.262783259153366089e-02
1.955353654921054840e-02
1.782999839633703232e-03
-5.145552009344100952e-02
-3.674740344285964966e-02
3.434699494391679764e-03
3.210342302918434143e-02
2.915098704397678375e-02
-4.018008708953857422e-02
-8.563231676816940308e-03
3.252625092864036560e-02
2.431835979223251343e-02
6.062344461679458618e-02
7.954269647598266602e-02
-2.330168895423412323e-02
4.496466368436813354e-03
-2.351584471762180328e-02
-7.967869937419891357e-02
2.034381404519081116e-02
-1.704713562503457069e-03
9.616092778742313385e-03
2.323720045387744904e-02
1.168714463710784912e-02
5.607776343822479248e-03
-6.708528101444244385e-02
-2.233759500086307526e-02
1.830081641674041748e-02
3.829031810164451599e-02
1.320533547550439835e-02
6.121326703578233719e-03
-5.289984866976737976e-02
-5.442457646131515503e-02
-5.596639961004257202e-02
-8.031763136386871338e-02
-3.651805967092514038e-02
2.183420397341251373e-02
4.506314918398857117e-02
3.269127756357192993e-02
-1.892940606921911240e-03
-1.844545640051364899e-02
4.968778230249881744e-03
1.447701547294855118e-02
-4.921058192849159241e-02
4.152087494730949402e-02
3.178588300943374634e-02
-4.830071702599525452e-03
2.830860577523708344e-02
1.722867414355278015e-02
1.934729516506195068e-02
1.658511906862258911e-02
2.175422757863998413e-02
-1.507615856826305389e-02
-1.156700216233730316e-02
-5.662108771502971649e-03
-1.842195633798837662e-03
-6.863977760076522827e-03
-2.092382637783885002e-03
5.381428450345993042e-02
-1.213554665446281433e-02
-1.476478180848062038e-03
-8.644592761993408203e-02
-3.793372958898544312e-02
-1.232754066586494446e-02
-7.261798530817031860e-02
-3.706023097038269043e-02
-1.415626320522278547e-04
-4.411325603723526001e-02
-1.501326169818639755e-02
1.318362914025783539e-02
-3.797111287713050842e-02
-3.154589608311653137e-02
-4.473365098237991333e-02
-4.866405576467514038e-02
-2.857195027172565460e-02
-8.092124760150909424e-02
-6.944230198860168457e-02
-8.048815280199050903e-02
-4.370222240686416626e-02
-3.658772259950637817e-02
-6.681464146822690964e-03
-2.456532232463359833e-02
-4.140830039978027344e-02
-1.185326650738716125e-02
-6.510616093873977661e-02
-7.982043921947479248e-02
-4.096935689449310303e-02
-3.200588375329971313e-02
8.328613638877868652e-02
4.363960772752761841e-02
3.546088561415672302e-02
1.712090522050857544e-02
-2.196078933775424957e-02
1.417795103043317795e-02
-2.571350522339344025e-02
-2.867795526981353760e-02
2.981417346745729446e-03
-1.493489649146795273e-02
2.127784863114356995e-02
5.162080749869346619e-02
-2.054119855165481567e-02
1.521622110158205032e-02
4.504304379224777222e-02
7.491790689527988434e-03
2.870612964034080505e-02
1.459334138780832291e-02
-4.258715733885765076e-02
1.135269086807966232e-02
4.179757460951805115e-02
-9.197006002068519592e-03
1.947284676134586334e-02
1.767659373581409454e-02
-1.197340898215770721e-02
3.821044042706489563e-02
3.386258333921432495e-02
7.144526392221450806e-02
4.442651569843292236e-02
7.308761030435562134e-02
3.672147914767265320e-02
-3.483979031443595886e-03
4.804032668471336365e-02
1.273516472429037094e-02
1.204424444586038589e-02
3.676618682220578194e-03
-6.618684530258178711e-02
-7.104641199111938477e-02
-6.883131712675094604e-02
-3.720343485474586487e-02
-5.811448767781257629e-02
-5.413962528109550476e-02
-2.757973037660121918e-02
-8.127099275588989258e-02
-6.359856575727462769e-02
-8.915047347545623779e-02
-3.144677355885505676e-02
-5.012968089431524277e-03
-3.453868627548217773e-02
-3.841819986701011658e-02
-1.788126118481159210e-02
3.849891247227787971e-03
-6.330685317516326904e-02
-9.647289291024208069e-03
-2.524899877607822418e-02
1.580047607421875000e-02
2.835492789745330811e-02
-1.173300202935934067e-02
2.380449877819046378e-04
4.377727955579757690e-02
-2.560659311711788177e-02
-7.324963342398405075e-03
2.412827685475349426e-02
-9.724427759647369385e-02
-2.907380647957324982e-02
-2.205811440944671631e-02
-4.948778077960014343e-02
1.627988182008266449e-02
1.391552388668060303e-02
3.358351811766624451e-02
6.902375724166631699e-03
9.304545819759368896e-03
-1.919049955904483795e-02
-1.819584518671035767e-02
4.183559864759445190e-02
-3.568763285875320435e-02
-2.002271451056003571e-02
1.666881580604240298e-04
-5.398316308856010437e-02
-6.992180831730365753e-03
2.170891873538494110e-02
-5.538646876811981201e-02
-1.666958630084991455e-02
-2.035901322960853577e-02
-3.771828114986419678e-02
-2.928150631487369537e-02
-4.092216491699218750e-02
1.018819864839315414e-03
-1.506998110562562943e-02
-6.308765709400177002e-02
4.423340316861867905e-03
-1.626408286392688751e-02
-1.924039982259273529e-02
-1.136671472340822220e-02
-4.781999066472053528e-02
-4.172841086983680725e-02
-7.123570423573255539e-03
-1.668849773705005646e-02
-4.964938387274742126e-02
2.565658884122967720e-03
-4.549229051917791367e-03
-5.478974897414445877e-03
-5.730636045336723328e-02
-4.232282936573028564e-02
-3.486020863056182861e-02
2.476045920047909021e-04
2.457450889050960541e-02
6.314859539270401001e-02
2.127134241163730621e-02
2.631761133670806885e-02
7.137206941843032837e-02
4.596957191824913025e-02
9.218926727771759033e-02
1.330138146877288818e-01
7.167865335941314697e-02
4.601064696907997131e-02
-3.037663735449314117e-02
5.030798260122537613e-03
2.193449810147285461e-02
2.249064110219478607e-02
1.524059753865003586e-02
4.492879088502377272e-04
-1.798924803733825684e-02
-8.608821034431457520e-02
-4.145893733948469162e-03
-1.578476279973983765e-02
