# (32, 16, 3, 3)
1.279733180999755859e-01
9.072856046259403229e-03
-2.801870107650756836e-01
-4.986132308840751648e-02
5.928985401988029480e-02
-2.186124175786972046e-01
2.141285538673400879e-01
8.408643305301666260e-02
1.221149601042270660e-02
7.466779090464115143e-03
-9.462611749768257141e-03
3.860666602849960327e-02
5.639402568340301514e-02
2.614911273121833801e-02
-1.860013604164123535e-01
-4.958190619945526123e-01
-2.481345236301422119e-01
8.888442814350128174e-02
-1.724458336830139160e-01
-4.789746925234794617e-02
-8.509916253387928009e-03
-3.038243390619754791e-02
1.139973290264606476e-02
1.631068997085094452e-02
1.194049119949340820e-01
-1.834924705326557159e-02
4.119196161627769470e-02
-1.379120200872421265e-01
-1.653638631105422974e-01
-5.097335204482078552e-02
5.534092336893081665e-02
-1.181691419333219528e-02
3.180150315165519714e-02
2.259978204965591431e-01
1.327797025442123413e-01
-6.618424504995346069e-02
-1.668415404856204987e-02
1.080504432320594788e-01
5.462843924760818481e-02
5.523808300495147705e-02
1.922721043229103088e-02
-2.023425400257110596e-01
-4.940640926361083984e-01
-3.428391516208648682e-01
-2.220969274640083313e-02
-2.338408865034580231e-02
-3.279180452227592468e-02
-1.173262819647789001e-01
4.344862326979637146e-02
5.719153583049774170e-02
2.309801131486892700e-01
-2.368976771831512451e-01
1.008046641945838928e-01
-1.348531991243362427e-01
-1.748756468296051025e-01
-5.096000060439109802e-02
-2.098673582077026367e-02
-3.313757106661796570e-02
-5.459425039589405060e-03
-3.509202226996421814e-02
6.612163782119750977e-02
3.162721171975135803e-02
6.846076995134353638e-02
6.335743237286806107e-03
6.056388467550277710e-02
1.405994296073913574e-01
-1.070719212293624878e-02
4.417908191680908203e-02
-1.310275197029113770e-01
-9.000106155872344971e-02
-2.393432557582855225e-01
-4.203244298696517944e-02
1.140480339527130127e-01
-4.092665016651153564e-02
-1.875147223472595215e-01
-8.391355723142623901e-02
6.756328977644443512e-03
-1.428921669721603394e-01
1.788598895072937012e-01
-1.112385839223861694e-02
-8.020879328250885010e-02
1.740947179496288300e-02
1.146733462810516357e-01
6.065987050533294678e-02
-2.638414800167083740e-01
2.033695019781589508e-02
-3.383616805076599121e-01
-1.314382106065750122e-01
-6.806436181068420410e-02
2.148788422346115112e-01
5.716182664036750793e-02
-2.328614890575408936e-02
2.988480627536773682e-01
-7.744455337524414062e-02
1.233128681778907776e-01
-1.959152817726135254e-01
-4.347316026687622070e-01
-5.298199057579040527e-01
8.770370483398437500e-02
9.885970503091812134e-02
4.402209073305130005e-02
1.977971196174621582e-02
-1.754146963357925415e-01
3.376566991209983826e-02
-2.577125728130340576e-01
-2.174668610095977783e-01
-3.594377934932708740e-01
-2.181742340326309204e-02
-1.338204927742481232e-02
-5.701842159032821655e-02
7.905000448226928711e-02
-1.777797937393188477e-02
6.810230761766433716e-02
6.234378367662429810e-02
-1.343198120594024658e-01
-1.524345129728317261e-01
-9.046319127082824707e-02
-1.495659202337265015e-01
-1.120669096708297729e-01
-9.248118102550506592e-02
1.335935145616531372e-01
-1.210694666951894760e-02
1.674117892980575562e-01
-4.495751485228538513e-02
4.831744357943534851e-02
-8.045542240142822266e-02
6.332425773143768311e-02
4.828745871782302856e-02
1.953128129243850708e-01
-1.262309104204177856e-01
5.182642489671707153e-02
1.583912074565887451e-01
-2.941695749759674072e-01
-5.669876337051391602e-01
-7.502365112304687500e-02
-1.301328241825103760e-01
1.862406916916370392e-02
-5.108524113893508911e-02
1.341136395931243896e-01
1.029176861047744751e-01
-3.648748621344566345e-02
1.443175822496414185e-01
-1.323281973600387573e-01
-1.215193346142768860e-01
1.536099910736083984e-01
5.088588967919349670e-02
-6.777612864971160889e-02
6.177423894405364990e-02
-2.995003163814544678e-01
-1.833353191614151001e-01
-1.158877909183502197e-01
-4.091167151927947998e-01
3.514428734779357910e-01
2.177079021930694580e-02
3.581760823726654053e-02
1.386818736791610718e-01
1.220644041895866394e-01
9.998533129692077637e-02
-1.113381832838058472e-01
6.881619989871978760e-02
-5.410062521696090698e-02
6.506612151861190796e-02
5.480615049600601196e-02
2.228339016437530518e-02
-1.270553320646286011e-01
-2.434982359409332275e-02
-2.881039083003997803e-01
-4.517618715763092041e-01
-1.843910068273544312e-01
-5.965550541877746582e-01
1.020222157239913940e-01
1.105100512504577637e-01
1.625858843326568604e-01
-2.260740697383880615e-01
1.318069249391555786e-01
-3.068486452102661133e-01
-2.210419327020645142e-01
-3.012138605117797852e-01
-7.812653481960296631e-02
7.166049629449844360e-02
-3.065442107617855072e-02
5.980415642261505127e-02
3.196369484066963196e-02
4.795592278242111206e-03
-4.659920185804367065e-02
-2.640067972242832184e-02
1.341423988342285156e-01
3.859432786703109741e-02
5.171507969498634338e-02
-5.656893923878669739e-02
-6.370243430137634277e-02
-2.931007444858551025e-01
-2.504422366619110107e-01
-1.403319388628005981e-01
1.328718960285186768e-01
-4.244810715317726135e-02
1.172165721654891968e-01
1.369029562920331955e-02
9.984607249498367310e-02
-5.263515934348106384e-02
-2.320196181535720825e-01
-4.754197318106889725e-03
-1.403217166662216187e-01
-1.918203532695770264e-01
-1.900421380996704102e-01
-2.855727374553680420e-01
7.414004206657409668e-02
1.346973478794097900e-01
6.914461404085159302e-02
2.073601484298706055e-01
9.999164380133152008e-03
3.776297345757484436e-02
-1.560209691524505615e-02
-7.916327565908432007e-03
-1.239856407046318054e-01
-1.280138194561004639e-01
6.471803784370422363e-02
1.355807632207870483e-01
1.690177433192729950e-02
1.053650155663490295e-01
-4.840867221355438232e-01
-2.622829079627990723e-01
-2.423906475305557251e-01
-3.892693519592285156e-01
3.806155025959014893e-01
-2.367503494024276733e-01
-1.466760188341140747e-01
3.498707339167594910e-02
7.337233051657676697e-03
1.818301975727081299e-01
-3.004978224635124207e-02
7.949549704790115356e-02
-2.918541803956031799e-02
-1.310024410486221313e-01
-2.626958489418029785e-01
-2.832716107368469238e-01
-3.816331923007965088e-02
5.591042339801788330e-02
1.079036146402359009e-01
3.154595568776130676e-02
-2.022833563387393951e-02
3.189537674188613892e-02
-1.581239700317382812e-01
-1.599789708852767944e-01
-6.323594599962234497e-02
-4.488183185458183289e-02
2.489404566586017609e-02
-2.150251343846321106e-02
9.246920049190521240e-02
7.062086462974548340e-02
2.067112922668457031e-02
1.389632374048233032e-01
-4.493902251124382019e-02
-6.880005449056625366e-02
1.213295161724090576e-01
-1.317259520292282104e-01
1.007684245705604553e-01
-8.107288740575313568e-03
1.662244051694869995e-01
7.885457575321197510e-02
-1.469335854053497314e-01
-1.297299750149250031e-03
2.361791133880615234e-01
-3.011329174041748047e-01
1.237884350121021271e-02
-3.822504580020904541e-01
1.100802887231111526e-02
-3.229963481426239014e-01
9.064826183021068573e-03
1.638108640909194946e-01
-2.796475291252136230e-01
-1.531492620706558228e-01
1.486743707209825516e-02
-1.029579564929008484e-01
6.903690844774246216e-02
9.771616756916046143e-02
1.816722154617309570e-01
2.483470179140567780e-02
-1.478503495454788208e-01
9.440860897302627563e-02
6.604892015457153320e-02
2.039773017168045044e-01
5.590837076306343079e-02
-3.079330548644065857e-03
-1.681473404169082642e-01
-1.418449431657791138e-01
-8.529191464185714722e-02
5.148090794682502747e-02
-1.959537267684936523e-01
1.859566867351531982e-01
8.824154734611511230e-03
-2.161779999732971191e-01
6.133873760700225830e-02
-5.555886402726173401e-02
-1.117594540119171143e-01
-4.099875092506408691e-01
-8.524932712316513062e-02
6.846468895673751831e-02
-3.045705892145633698e-02
-3.479488193988800049e-02
1.130116209387779236e-01
6.043823063373565674e-02
-2.219602763652801514e-01
4.430821537971496582e-02
-1.680150479078292847e-01
-3.724126517772674561e-01
-4.865478724241256714e-02
8.102285116910934448e-02
2.138307690620422363e-02
-2.906189113855361938e-02
-1.470472663640975952e-01
-4.959690943360328674e-02
5.380749702453613281e-02
-5.513739772140979767e-03
2.650828100740909576e-02
-2.058061063289642334e-01
-8.002151548862457275e-02
1.114052757620811462e-01
2.755073644220829010e-02
-4.133988544344902039e-02
-1.238204464316368103e-01
1.837146431207656860e-01
3.173615038394927979e-02
-2.870918484404683113e-03
-9.169322997331619263e-02
4.226943850517272949e-02
1.839962229132652283e-02
-1.633488759398460388e-02
1.471082121133804321e-01
-6.124636903405189514e-02
2.618765644729137421e-02
1.781431958079338074e-02
-1.698276102542877197e-01
-2.098792344331741333e-01
4.481528326869010925e-02
2.182294987142086029e-02
-1.595666706562042236e-01
1.218107249587774277e-02
6.171256303787231445e-03
-1.229276359081268311e-01
-8.914262987673282623e-03
1.011549904942512512e-01
-9.837763011455535889e-02
2.650681324303150177e-02
-3.003739006817340851e-02
1.527725066989660263e-02
-7.873292267322540283e-02
6.298435386270284653e-03
-6.245565600693225861e-03
6.461367756128311157e-02
9.290860593318939209e-02
1.428609639406204224e-01
-3.989512473344802856e-02
-1.378603726625442505e-01
1.514121294021606445e-01
9.970127046108245850e-02
-3.332168459892272949e-01
-1.353058815002441406e-01
-4.410622641444206238e-02
-4.812059104442596436e-01
-1.199804097414016724e-01
2.170339822769165039e-01
1.319280862808227539e-01
-3.255083262920379639e-01
-1.222483534365892410e-02
-1.308993697166442871e-01
-1.144990101456642151e-01
-2.508368492126464844e-01
-1.030409261584281921e-01
1.797656416893005371e-01
-1.030918657779693604e-01
-6.867929697036743164e-01
1.352541893720626831e-01
-9.055823087692260742e-02
-4.277102649211883545e-01
2.676108106970787048e-02
-2.890865802764892578e-01
-4.166529178619384766e-01
1.868422180414199829e-01
-1.530867516994476318e-01
-7.729738950729370117e-01
1.232514008879661560e-01
-1.474958956241607666e-01
-5.218394994735717773e-01
4.366664960980415344e-02
-2.559365630149841309e-01
-5.231798887252807617e-01
-6.137013062834739685e-02
1.757100224494934082e-02
3.789870068430900574e-02
-2.536912262439727783e-02
4.926285892724990845e-02
9.917286783456802368e-02
-2.181535959243774414e-02
1.041185343638062477e-03
5.527231842279434204e-03
-2.890004217624664307e-02
-2.235991507768630981e-02
-1.524792611598968506e-02
-3.531885892152786255e-02
1.448961049318313599e-01
-1.329887062311172485e-01
7.351671159267425537e-02
1.024470031261444092e-01
-1.106766387820243835e-01
-4.484658241271972656e-01
-1.496670842170715332e-01
1.251180320978164673e-01
-1.058029457926750183e-01
4.441194981336593628e-02
-7.568506151437759399e-02
2.679374255239963531e-02
1.231804564595222473e-01
-6.856968998908996582e-02
8.844816684722900391e-02
1.722456142306327820e-02
-1.830577105283737183e-01
1.375791523605585098e-02
2.872771117836236954e-03
-9.131901711225509644e-02
3.623175993561744690e-02
7.519553601741790771e-02
-9.417948871850967407e-02
1.657467037439346313e-01
-1.128102391958236694e-01
-2.142473459243774414e-01
1.438439041376113892e-01
-8.070871233940124512e-02
-4.559880495071411133e-01
4.182850942015647888e-02
-1.943888962268829346e-01
-3.438123166561126709e-01
-2.626076042652130127e-01
-5.421734452247619629e-01
-4.339078068733215332e-01
7.203237712383270264e-02
-1.839942038059234619e-01
5.959866195917129517e-02
1.460161060094833374e-01
-2.387171797454357147e-02
6.767269968986511230e-02
-8.664266020059585571e-02
3.037070110440254211e-02
-2.069018781185150146e-01
-1.141763255000114441e-01
1.011702977120876312e-02
9.625927358865737915e-02
1.104590222239494324e-01
8.804920315742492676e-02
2.009104639291763306e-01
2.645948901772499084e-02
-1.579314023256301880e-01
-1.151590701192617416e-02
1.108273044228553772e-01
-2.491592019796371460e-01
1.674940884113311768e-01
-3.558806329965591431e-02
-5.492388010025024414e-01
-3.266902565956115723e-01
-8.734560757875442505e-02
-4.631889164447784424e-01
-4.482925310730934143e-02
-1.096400469541549683e-01
-3.618754148483276367e-01
-1.214435845613479614e-01
-9.974190592765808105e-02
-1.656294912099838257e-01
-8.440966717898845673e-03
-1.143604516983032227e-01
-1.717767864465713501e-02
-1.823708862066268921e-01
-1.560174077749252319e-01
3.426671400666236877e-02
-9.393627755343914032e-03
1.133893281221389771e-01
2.264640927314758301e-01
1.309479027986526489e-01
1.107824966311454773e-01
-2.718705870211124420e-02
2.964257597923278809e-01
-4.411544501781463623e-01
9.093067795038223267e-02
1.286334395408630371e-01
-5.140550136566162109e-01
-1.675562858581542969e-01
-2.088680267333984375e-01
2.101227790117263794e-01
-7.087380439043045044e-02
1.269419342279434204e-01
7.096989452838897705e-02
-2.580486834049224854e-01
8.199075609445571899e-02
-5.152524448931217194e-03
-5.359024405479431152e-01
-3.353482782840728760e-01
-1.121236849576234818e-02
1.298094987869262695e-01
-1.782145649194717407e-01
-1.007274612784385681e-01
5.651881918311119080e-02
-1.108164042234420776e-01
-5.272970348596572876e-02
6.981602869927883148e-03
2.075721137225627899e-02
1.161992996931076050e-01
-3.703945875167846680e-01
-2.335515320301055908e-01
1.915482580661773682e-01
-1.889872252941131592e-01
6.541611254215240479e-02
3.541356697678565979e-02
-1.616795361042022705e-01
-3.048655577003955841e-02
-2.708323765546083450e-03
1.406247317790985107e-01
-7.366647571325302124e-02
-3.119058720767498016e-02
-1.112306490540504456e-01
-1.107734814286231995e-02
4.347564280033111572e-02
-4.679712653160095215e-02
1.020600870251655579e-01
2.074899524450302124e-02
8.644825220108032227e-02
-8.039146661758422852e-02
5.357758700847625732e-02
-5.873972550034523010e-02
-7.434578239917755127e-02
1.016327664256095886e-01
-5.986958742141723633e-02
1.557004600763320923e-01
-1.969310492277145386e-01
3.387264907360076904e-02
-4.963256884366273880e-03
-1.839257031679153442e-01
6.793586909770965576e-02
-7.860133051872253418e-02
1.167823225259780884e-01
8.343807607889175415e-02
7.247973978519439697e-02
-1.077150702476501465e-01
1.338696181774139404e-01
-5.894230678677558899e-03
4.815898835659027100e-03
-1.680102385580539703e-02
-1.362260729074478149e-01
6.910862773656845093e-02
7.339439541101455688e-02
1.370828151702880859e-01
7.817519828677177429e-03
-3.269231617450714111e-01
1.248336434364318848e-01
-3.242219984531402588e-01
-7.631088793277740479e-02
-2.579726278781890869e-02
-3.412105143070220947e-01
-1.354926824569702148e-02
1.697446703910827637e-01
-2.384833991527557373e-01
2.153988778591156006e-01
-1.566375978291034698e-02
-1.173510774970054626e-01
2.252942509949207306e-02
-2.006039619445800781e-01
-5.972896702587604523e-03
4.381880909204483032e-02
1.209119185805320740e-01
8.755706250667572021e-02
7.556697353720664978e-03
-2.531315386295318604e-01
1.459935009479522705e-01
1.460859552025794983e-02
-1.185750588774681091e-01
-9.414079599082469940e-03
-8.617813885211944580e-02
3.490792587399482727e-02
-1.200020834803581238e-01
-5.696067959070205688e-02
8.283780515193939209e-02
9.852543473243713379e-02
-3.631811216473579407e-02
-9.686135500669479370e-02
-9.588839486241340637e-03
3.851737827062606812e-02
4.772583022713661194e-03
-3.204914927482604980e-01
-7.152296602725982666e-02
8.663769066333770752e-02
2.891775593161582947e-02
8.329132199287414551e-02
3.858596086502075195e-02
-1.209110766649246216e-01
-1.525816172361373901e-01
-3.997422009706497192e-02
2.088618464767932892e-03
7.095195353031158447e-02
9.012619405984878540e-02
-9.336341172456741333e-03
-1.307663172483444214e-01
-1.442696899175643921e-01
-2.725982666015625000e-02
6.233128905296325684e-02
6.984336674213409424e-02
-9.241122752428054810e-02
-1.262658238410949707e-01
1.005721315741539001e-01
-2.785419821739196777e-01
-1.166800037026405334e-01
1.100949719548225403e-01
2.206508442759513855e-02
1.286193132400512695e-01
1.478018164634704590e-01
-1.520490199327468872e-01
-1.129307895898818970e-01
6.910514086484909058e-02
6.155553460121154785e-02
8.488373458385467529e-02
8.255136199295520782e-03
-2.184526808559894562e-02
-1.862172037363052368e-01
-7.628869265317916870e-02
-6.641685962677001953e-02
-3.153505623340606689e-01
-6.680745482444763184e-01
3.018645383417606354e-02
-1.363061275333166122e-02
-3.686009347438812256e-02
1.590410768985748291e-01
2.702866122126579285e-02
7.976310700178146362e-02
1.479745954275131226e-01
9.623420983552932739e-02
2.167026512324810028e-02
-4.989017546176910400e-02
-5.007510632276535034e-02
-2.021495550870895386e-01
8.994977921247482300e-02
7.919383049011230469e-02
4.602470248937606812e-02
-5.151195526123046875e-01
-1.395723819732666016e-01
-7.187731564044952393e-02
-1.397234499454498291e-01
1.908340007066726685e-01
1.138883605599403381e-01
2.523589879274368286e-03
-6.149604916572570801e-02
-8.880677819252014160e-02
-1.127232015132904053e-01
-6.346757709980010986e-02
1.951301544904708862e-01
1.567355841398239136e-01
-2.967502921819686890e-03
-2.354589104652404785e-02
-8.541309833526611328e-02
-1.165004223585128784e-01
-1.720257103443145752e-02
-6.043440103530883789e-02
4.155436903238296509e-02
1.130398288369178772e-01
5.810075253248214722e-02
-2.796293608844280243e-02
-2.858791500329971313e-02
-1.277490556240081787e-01
-2.076715081930160522e-01
-6.589729338884353638e-02
-3.028734326362609863e-01
-2.206584364175796509e-01
-4.537178575992584229e-02
2.157435752451419830e-02
7.930681854486465454e-02
5.354727059602737427e-02
-5.718899145722389221e-02
-7.144284248352050781e-02
-3.100346028804779053e-01
-2.123731374740600586e-01
-8.361207693815231323e-02
2.678742632269859314e-02
1.224875003099441528e-01
1.214474067091941833e-01
6.973339244723320007e-03
-7.482726871967315674e-02
-2.172967046499252319e-01
-2.971410751342773438e-01
-3.471485972404479980e-01
-2.826419174671173096e-01
-1.123003661632537842e-01
5.467396229505538940e-02
9.431906044483184814e-02
1.049277558922767639e-01
2.358108945190906525e-02
-1.514942049980163574e-01
-5.530563741922378540e-02
6.761360913515090942e-02
-2.346022278070449829e-01
-1.130151376128196716e-01
-4.153388738632202148e-01
-7.751788198947906494e-02
9.048003703355789185e-02
3.193328678607940674e-01
-1.607107929885387421e-02
3.371634706854820251e-02
-4.876902103424072266e-01
-3.226640522480010986e-01
-1.202502250671386719e-01
8.040662854909896851e-02
5.426631122827529907e-02
1.926979124546051025e-01
-2.784655429422855377e-02
-1.209412589669227600e-01
-2.480637133121490479e-01
-2.261909693479537964e-01
-2.544000148773193359e-01
-2.884382903575897217e-01
-1.112333834171295166e-01
2.011747062206268311e-01
9.715826809406280518e-02
3.672937676310539246e-02
4.958301037549972534e-02
1.279059704393148422e-02
2.328913509845733643e-01
1.253566592931747437e-01
-1.453025341033935547e-01
-1.101187765598297119e-01
-1.112626399844884872e-02
-2.827602997422218323e-02
1.966771297156810760e-02
-1.450239568948745728e-01
-1.258626431226730347e-01
-3.828485906124114990e-01
-1.203709989786148071e-01
-3.081645257771015167e-02
-2.220737189054489136e-01
1.592288315296173096e-01
1.650046743452548981e-02
1.657304614782333374e-01
9.867486357688903809e-02
-1.180630177259445190e-01
1.854471676051616669e-02
9.311248362064361572e-02
7.496859133243560791e-02
6.561417132616043091e-02
-6.514186412096023560e-02
-3.732756972312927246e-01
-2.257535047829151154e-02
-3.133932352066040039e-01
-2.727490365505218506e-01
-8.452045172452926636e-02
-7.041028887033462524e-02
-8.311516791582107544e-02
1.261574923992156982e-01
6.567580997943878174e-02
-2.102395594120025635e-01
1.495816409587860107e-01
-2.325955778360366821e-01
3.159718215465545654e-02
-3.992437571287155151e-02
-3.079288005828857422e-01
-4.093484207987785339e-02
-3.794487416744232178e-01
2.963029779493808746e-02
1.056562438607215881e-01
8.373972773551940918e-02
1.411248892545700073e-01
-2.054649032652378082e-02
-9.874026291072368622e-03
-4.899548888206481934e-01
-1.125115901231765747e-01
-2.930649369955062866e-02
-3.622257411479949951e-01
8.276240527629852295e-02
-2.122855335474014282e-01
5.974062904715538025e-02
1.347775906324386597e-01
-3.038621135056018829e-02
9.322275221347808838e-02
1.266059726476669312e-01
3.137423470616340637e-02
-5.775809288024902344e-02
-5.176418274641036987e-02
5.215466767549514771e-02
-2.610394358634948730e-01
-1.038068830966949463e-01
-2.424245625734329224e-01
-1.557680778205394745e-02
-4.181920364499092102e-02
-2.322735041379928589e-01
-3.918978944420814514e-02
1.887564174830913544e-02
4.076466336846351624e-02
6.957449764013290405e-02
-2.015959173440933228e-01
1.859471797943115234e-01
1.392588615417480469e-01
1.046355813741683960e-02
-6.089393515139818192e-03
-2.113003097474575043e-02
-2.761768400669097900e-01
-2.714488469064235687e-02
-2.453622221946716309e-01
-1.809239387512207031e-01
-3.627722561359405518e-01
-3.999661281704902649e-02
-4.674762114882469177e-02
-2.144517302513122559e-01
-4.538232460618019104e-02
5.231516808271408081e-02
1.528520733118057251e-01
1.129110530018806458e-01
-1.228769719600677490e-01
-3.874636292457580566e-01
-1.026020571589469910e-01
-4.355628043413162231e-02
-1.573737859725952148e-01
-9.073640406131744385e-02
5.171779170632362366e-02
8.352667838335037231e-02
3.153822571039199829e-02
1.789167150855064392e-02
7.883289456367492676e-02
-5.063742399215698242e-01
-8.723109960556030273e-02
-2.104017883539199829e-01
-2.686966359615325928e-01
9.915140271186828613e-02
-2.553335726261138916e-01
-6.368866562843322754e-02
6.434596329927444458e-02
-2.289340198040008545e-01
-1.583306193351745605e-01
-6.205933541059494019e-02
-3.753870725631713867e-01
-1.172331199049949646e-01
-8.854078128933906555e-03
-8.926345407962799072e-02
1.237444356083869934e-01
1.683891192078590393e-02
-1.561979055404663086e-01
-2.302611470222473145e-01
-3.199326694011688232e-01
2.053317874670028687e-01
-3.109140098094940186e-01
-1.626846939325332642e-01
-8.005618304014205933e-02
-3.606218397617340088e-01
2.999217510223388672e-01
4.832233116030693054e-02
-4.427736103534698486e-01
3.084010817110538483e-02
-3.244185745716094971e-01
-1.358775943517684937e-01
4.528514668345451355e-02
-2.333716005086898804e-01
2.014123201370239258e-01
-1.975297462195158005e-03
-4.660184681415557861e-01
-9.689838439226150513e-02
2.673997730016708374e-02
-1.325254887342453003e-01
5.316343531012535095e-02
-6.283860653638839722e-02
4.026300273835659027e-03
-1.144503206014633179e-01
-2.309179008007049561e-01
8.228135108947753906e-02
1.837094128131866455e-01
4.649079591035842896e-02
3.594982996582984924e-02
4.765860363841056824e-02
-9.754980565048754215e-04
-3.422835767269134521e-01
4.992543160915374756e-02
8.079877495765686035e-02
-1.272933185100555420e-01
-1.746644973754882812e-01
-4.987688660621643066e-01
8.673296868801116943e-02
9.357471764087677002e-02
-1.783985458314418793e-02
-8.705271035432815552e-02
7.454083859920501709e-02
6.146614253520965576e-02
-3.037833841517567635e-03
1.688708215951919556e-01
1.082544848322868347e-01
-2.392168790102005005e-01
-2.014253139495849609e-01
-1.421672385185956955e-02
7.996137440204620361e-02
-8.895181119441986084e-02
-1.514289528131484985e-01
1.052846089005470276e-01
1.076662465929985046e-01
7.891308516263961792e-02
7.170188426971435547e-02
-1.301306039094924927e-01
-3.469036892056465149e-02
2.652145223692059517e-03
2.488159202039241791e-02
-1.146433576941490173e-01
-1.282943692058324814e-02
-1.599076837301254272e-01
-4.317491054534912109e-01
-9.629521518945693970e-03
1.643145084381103516e-01
6.278950721025466919e-02
-9.512776136398315430e-02
5.938050523400306702e-02
1.312754452228546143e-01
-1.380056142807006836e-01
-2.797248065471649170e-01
-1.224966943264007568e-01
1.782385855913162231e-01
-7.177321612834930420e-02
-2.534754276275634766e-01
3.900672122836112976e-02
-3.073273971676826477e-02
-3.946497663855552673e-02
1.565286666154861450e-01
5.247367918491363525e-02
2.514950744807720184e-02
3.793606534600257874e-02
-7.935207337141036987e-02
-4.536957293748855591e-02
7.080152630805969238e-02
-1.374533772468566895e-01
-7.785547524690628052e-02
-4.189458787441253662e-01
-4.589659273624420166e-01
-3.001498579978942871e-01
2.185423672199249268e-02
1.514714062213897705e-01
-2.725087404251098633e-01
3.653370589017868042e-02
2.043894231319427490e-01
1.345876008272171021e-01
-8.199179172515869141e-02
9.226634353399276733e-02
6.386800110340118408e-02
-8.791527897119522095e-02
1.223349943757057190e-02
4.187110438942909241e-02
-1.091129705309867859e-01
3.154607862234115601e-02
-1.277277059853076935e-02
1.164287328720092773e-01
8.009663224220275879e-02
-3.213647007942199707e-01
7.561764679849147797e-03
4.471413418650627136e-02
-1.599869132041931152e-02
8.132203668355941772e-02
-1.379713565111160278e-01
-8.436691761016845703e-02
3.011108562350273132e-02
3.849996626377105713e-02
-1.582010537385940552e-01
2.194930762052536011e-01
4.280833154916763306e-02
-1.156636327505111694e-01
-2.289008162915706635e-02
-9.247197955846786499e-02
-1.339261829853057861e-01
-1.683112606406211853e-02
3.023703396320343018e-02
-2.626224607229232788e-02
-8.073606528341770172e-03
6.297885626554489136e-02
7.940791547298431396e-02
-1.192156597971916199e-01
-6.859042495489120483e-02
3.820710629224777222e-02
-2.073596864938735962e-01
-2.310688048601150513e-01
-2.674326002597808838e-01
1.037386059761047363e-01
1.239692494273185730e-01
-1.463456302881240845e-01
5.047171190381050110e-02
5.242545530200004578e-02
4.207830131053924561e-02
-3.112148046493530273e-01
-1.447101384401321411e-01
-8.431228995323181152e-02
1.539935469627380371e-01
3.432155027985572815e-02
-2.236918061971664429e-01
7.693807035684585571e-02
3.992154728621244431e-03
-1.417912170290946960e-02
-8.658073097467422485e-02
-2.048255801200866699e-01
-3.306384086608886719e-01
1.706973314285278320e-01
7.141270209103822708e-03
-1.032748892903327942e-01
-6.293211132287979126e-02
-3.930278122425079346e-02
3.477817401289939880e-02
-7.222348451614379883e-01
-3.049483001232147217e-01
6.428005546331405640e-02
1.405274611897766590e-03
4.979526251554489136e-02
-5.387353897094726562e-01
1.655533537268638611e-02
1.055165976285934448e-01
6.703080981969833374e-02
-2.256782948970794678e-01
-6.464619189500808716e-03
7.008632272481918335e-02
-3.363787531852722168e-01
-2.127043157815933228e-02
3.191112279891967773e-01
-1.900077909231185913e-01
-5.076485499739646912e-02
-3.365071490406990051e-02
-2.771573513746261597e-02
1.045177355408668518e-01
-2.204253375530242920e-01
-1.115089133381843567e-01
2.187969684600830078e-01
6.775362044572830200e-02
-3.977949917316436768e-01
-2.003526091575622559e-01
5.712688714265823364e-02
-6.314289569854736328e-02
-1.148838698863983154e-01
1.866399347782135010e-01
9.790816158056259155e-02
-1.929605305194854736e-01
-1.479713022708892822e-01
1.747089028358459473e-01
1.363172102719545364e-02
-1.837106049060821533e-01
-1.167045012116432190e-01
-3.236152827739715576e-01
-1.038162335753440857e-01
3.382173180580139160e-02
2.524525672197341919e-02
-3.187872171401977539e-01
3.572143986821174622e-02
2.118221074342727661e-01
1.770767755806446075e-02
5.128988251090049744e-02
4.072495549917221069e-02
-2.111305892467498779e-01
-1.046299114823341370e-01
5.923851206898689270e-02
1.437547653913497925e-01
-4.539133012294769287e-01
-2.051948606967926025e-01
9.917949885129928589e-02
-5.427136644721031189e-02
-9.939827024936676025e-02
2.802979052066802979e-01
7.214955240488052368e-02
-4.432936385273933411e-02
-2.333087474107742310e-01
1.773540303111076355e-02
-2.335192449390888214e-02
-4.176947101950645447e-02
-5.004590749740600586e-02
-1.119751706719398499e-01
-1.559372711926698685e-02
1.229472830891609192e-01
-2.954870462417602539e-01
-4.993141442537307739e-02
1.918068379163742065e-01
8.766524493694305420e-02
-1.410390287637710571e-01
-3.639129549264907837e-02
-1.949243061244487762e-02
-3.937148451805114746e-01
3.142803441733121872e-03
1.454214602708816528e-01
-4.248334094882011414e-02
-1.907226741313934326e-01
-4.600599780678749084e-02
9.451282769441604614e-02
-1.194274351000785828e-01
1.082891151309013367e-01
9.040357172489166260e-02
-2.264528125524520874e-01
-1.834097355604171753e-01
2.692972123622894287e-01
-2.284218817949295044e-01
-5.318899452686309814e-02
-2.145094126462936401e-01
1.979690603911876678e-02
1.343331038951873779e-01
-2.825981974601745605e-01
-1.455617100000381470e-01
-5.611243844032287598e-02
1.401023864746093750e-01
-2.109750956296920776e-01
-2.247169464826583862e-01
-1.551820337772369385e-01
-5.097623541951179504e-02
6.023854017257690430e-02
-7.321352511644363403e-02
-5.448809638619422913e-02
-1.165640540421009064e-02
3.280591219663619995e-03
-5.222189426422119141e-02
1.411464903503656387e-02
-7.220218330621719360e-02
-3.702105581760406494e-02
4.988116398453712463e-02
4.986988008022308350e-02
-2.547727823257446289e-01
2.695747837424278259e-02
1.516366451978683472e-01
-5.836568474769592285e-01
-2.565300166606903076e-01
-1.043342426419258118e-01
7.099954038858413696e-02
8.335760235786437988e-02
-1.679486334323883057e-01
3.717488376423716545e-03
1.533502191305160522e-01
-1.351502090692520142e-01
-1.872155517339706421e-01
9.542168676853179932e-02
1.498762667179107666e-01
8.033528178930282593e-02
-2.647859752178192139e-01
6.405531615018844604e-02
4.388234764337539673e-02
-2.625134028494358063e-02
-2.374156117439270020e-01
-7.002139091491699219e-02
7.975146919488906860e-02
6.864589452743530273e-02
3.017741441726684570e-02
-4.811712354421615601e-02
-1.884507760405540466e-02
-1.062969788908958435e-01
4.223615396767854691e-03
2.352689206600189209e-02
-3.631464838981628418e-01
-1.507137864828109741e-01
-1.274004671722650528e-02
-1.276315301656723022e-01
-5.278159677982330322e-02
-2.880667746067047119e-01
5.905394628643989563e-02
1.489037573337554932e-01
-1.860913336277008057e-01
-1.984420269727706909e-01
1.891312561929225922e-02
6.031940132379531860e-02
5.498607456684112549e-02
-3.648970425128936768e-01
-9.266214072704315186e-02
1.345953941345214844e-01
-4.163542389869689941e-01
1.869058609008789062e-01
5.712482333183288574e-02
2.592698037624359131e-01
8.960206806659698486e-02
-1.287941783666610718e-01
4.515437036752700806e-02
1.287390850484371185e-02
-4.772051572799682617e-01
5.778949707746505737e-02
-4.372576717287302017e-03
-1.172465980052947998e-01
-1.879196166992187500e-01
1.596475988626480103e-01
7.336790114641189575e-02
-3.840165212750434875e-02
-8.564633131027221680e-02
1.039573084563016891e-02
-5.094423890113830566e-02
-3.674229979515075684e-01
1.242600977420806885e-01
1.227774694561958313e-01
-5.052068829536437988e-02
2.797685004770755768e-02
-7.023189216852188110e-02
-2.538808882236480713e-01
-4.339131340384483337e-02
-6.524897366762161255e-02
-7.137239724397659302e-02
-1.549107208847999573e-02
1.127338875085115433e-02
8.280413597822189331e-02
-1.821787506341934204e-01
-9.998715668916702271e-02
-1.129565993323922157e-03
-3.517921566963195801e-01
6.806445866823196411e-02
1.588847190141677856e-01
-1.425768285989761353e-01
-1.631494909524917603e-01
1.113317683339118958e-01
5.548832938075065613e-03
-1.467889249324798584e-01
2.478261590003967285e-01
-8.469678461551666260e-02
-2.903438508510589600e-01
9.887366741895675659e-02
1.280252784490585327e-01
-3.260667622089385986e-01
-7.631482928991317749e-02
-6.666035950183868408e-02
3.871112689375877380e-02
-2.313166111707687378e-02
3.466362878680229187e-02
-4.345837980508804321e-02
-3.727738261222839355e-01
-2.903708373196423054e-04
4.829214140772819519e-02
-8.171609044075012207e-02
-5.000194907188415527e-02
-7.854705303907394409e-02
-1.763231307268142700e-02
-2.320948094129562378e-01
1.413152962923049927e-01
-1.897539757192134857e-02
-2.445199191570281982e-01
-7.782356441020965576e-02
2.025525122880935669e-01
-1.324116811156272888e-02
-2.295469343662261963e-01
-1.301198899745941162e-01
-6.099249795079231262e-02
-1.853684335947036743e-01
3.122948110103607178e-01
1.217847242951393127e-01
1.028740853071212769e-01
1.259636729955673218e-01
-3.449394404888153076e-01
1.039861291646957397e-01
3.488025441765785217e-02
-1.794396340847015381e-01
5.593455210328102112e-02
1.883674971759319305e-02
-6.883692741394042969e-02
-7.150676101446151733e-02
-2.627302194014191628e-03
7.078354712575674057e-03
7.389000058174133301e-02
8.543559163808822632e-02
-4.589489102363586426e-02
1.525143235921859741e-01
-1.224751845002174377e-01
-1.607398837804794312e-01
6.629917025566101074e-02
-6.370858848094940186e-02
-2.124314159154891968e-01
-2.775263786315917969e-01
9.732460230588912964e-02
4.720349609851837158e-02
-1.652145534753799438e-01
1.706597059965133667e-01
5.612755194306373596e-02
-2.038033753633499146e-01
2.175247296690940857e-02
-6.479280441999435425e-02
1.204334199428558350e-01
4.941789805889129639e-02
-2.145516276359558105e-01
1.256066858768463135e-01
-7.216653972864151001e-02
-1.999483257532119751e-01
-7.111468911170959473e-02
6.917510181665420532e-02
2.107611894607543945e-01
-1.095950379967689514e-01
-2.562167048454284668e-01
-5.118690431118011475e-02
-3.372832015156745911e-02
6.636559963226318359e-02
-1.653297692537307739e-01
5.086946114897727966e-02
1.170340627431869507e-01
-2.661474049091339111e-01
1.399629749357700348e-02
1.959801018238067627e-01
-2.252790927886962891e-01
-2.655448205769062042e-02
1.397801786661148071e-01
-2.385115809738636017e-02
-1.823182851076126099e-01
1.840065792202949524e-02
-6.790010631084442139e-02
-6.577523797750473022e-02
-2.468325197696685791e-02
-1.040420681238174438e-01
1.080639511346817017e-01
-1.966129289939999580e-03
-1.383670568466186523e-01
7.771191000938415527e-02
1.349757462739944458e-01
1.745929569005966187e-02
-1.609556525945663452e-01
-1.149951666593551636e-01
-3.269177675247192383e-01
-2.731176614761352539e-01
8.878112584352493286e-02
-5.329857468605041504e-01
-4.087379947304725647e-02
2.722080349922180176e-01
3.628364996984601021e-03
-3.689247369766235352e-02
-9.181430190801620483e-02
3.257450088858604431e-02
-1.702103577554225922e-02
-5.914793536067008972e-02
9.394884109497070312e-02
7.298898696899414062e-02
5.752879381179809570e-02
-2.615393102169036865e-01
-2.957351505756378174e-01
-1.251645684242248535e-01
-1.342638581991195679e-01
-3.208608031272888184e-01
1.260539740324020386e-01
-1.379118859767913818e-01
-5.790272355079650879e-01
-9.452296793460845947e-02
-2.015226930379867554e-01
-4.433248937129974365e-01
3.349130228161811829e-02
-4.215190112590789795e-01
-3.195542693138122559e-01
1.226283907890319824e-01
-6.103561818599700928e-02
-4.472369849681854248e-01
-1.300207972526550293e-01
8.959580957889556885e-02
-2.303573302924633026e-02
-5.398447811603546143e-02
4.702991247177124023e-02
-7.256089150905609131e-02
1.741998270153999329e-02
7.799017243087291718e-03
8.577577769756317139e-02
1.183814108371734619e-01
-2.805252969264984131e-01
5.890316888689994812e-02
2.049456238746643066e-01
-3.516895174980163574e-01
5.784485116600990295e-02
1.504307389259338379e-01
-7.006922364234924316e-02
-8.939319103956222534e-02
-1.660375110805034637e-02
-2.402328550815582275e-01
-1.703061014413833618e-01
1.005528271198272705e-01
-1.649139374494552612e-01
-2.004718929529190063e-01
9.239424020051956177e-03
-1.518299132585525513e-01
-5.496228337287902832e-01
-1.836293041706085205e-01
6.443908810615539551e-02
-5.926800891757011414e-02
-4.580350965261459351e-02
4.941521584987640381e-02
-7.754912972450256348e-02
-2.061813920736312866e-01
1.391717046499252319e-02
7.030239701271057129e-02
9.559617936611175537e-02
5.653313174843788147e-02
-2.037292271852493286e-01
-2.902647554874420166e-01
-3.769102096557617188e-01
-2.929206192493438721e-01
1.538550853729248047e-01
-6.011957526206970215e-01
-3.018619865179061890e-02
1.681039333343505859e-01
-2.297867648303508759e-02
-1.141266990453004837e-02
1.012340635061264038e-01
3.056636638939380646e-02
-2.047599256038665771e-01
-2.352703362703323364e-01
-3.196284174919128418e-02
-1.160399541258811951e-01
6.812784075736999512e-02
2.186080627143383026e-02
7.741308212280273438e-02
2.539128065109252930e-01
2.208072692155838013e-02
-3.068771213293075562e-02
-1.849650889635086060e-01
1.110927537083625793e-01
-2.552547752857208252e-01
5.403963103890419006e-02
-2.385301922913640738e-04
-8.318679407238960266e-03
-1.488227769732475281e-02
3.495001420378684998e-02
-1.331987082958221436e-01
7.556919008493423462e-02
-1.492838375270366669e-02
9.151330590248107910e-02
1.493363976478576660e-01
8.016019314527511597e-02
1.279360055923461914e-01
-1.870617084205150604e-02
1.123422160744667053e-01
-6.191085278987884521e-02
-1.592270582914352417e-01
3.751497715711593628e-02
-9.552547708153724670e-03
3.903559595346450806e-02
6.841132789850234985e-02
-3.652409017086029053e-01
1.401098072528839111e-01
-5.370872467756271362e-02
-2.176699489355087280e-01
1.832503527402877808e-01
6.253375858068466187e-02
-9.278705716133117676e-02
5.725924856960773468e-03
6.745649129152297974e-02
-2.077101916074752808e-02
1.368253082036972046e-01
-4.195351898670196533e-02
7.378154247999191284e-02
-2.167415805160999298e-03
5.240682512521743774e-02
2.404411137104034424e-02
4.575130715966224670e-02
1.447032541036605835e-01
-1.101594977080821991e-02
-3.196766972541809082e-02
5.845637619495391846e-02
-1.858246773481369019e-01
-2.540709674358367920e-01
1.190239284187555313e-02
-2.398348785936832428e-02
-1.224133148789405823e-01
1.090306565165519714e-01
2.548405528068542480e-02
-6.417674571275711060e-02
8.962517976760864258e-02
-2.437863498926162720e-02
-1.888657659292221069e-01
6.811312586069107056e-02
-3.084010817110538483e-02
5.726245045661926270e-02
6.512676924467086792e-02
-2.548431158065795898e-01
7.832576334476470947e-02
-5.342200770974159241e-02
-1.037255898118019104e-01
1.252308487892150879e-01
-2.239889204502105713e-01
6.420087814331054688e-02
1.326115522533655167e-02
-1.113691367208957672e-02
-8.665116131305694580e-02
5.256584659218788147e-02
4.102311097085475922e-03
-3.626532107591629028e-02
-1.848640143871307373e-01
-1.673117093741893768e-02
7.284067571163177490e-02
-8.624532073736190796e-02
8.652664721012115479e-02
-1.248078886419534683e-02
-6.639258563518524170e-02
1.751663349568843842e-02
4.452946409583091736e-02
8.293534629046916962e-03
2.571839839220046997e-02
4.670983925461769104e-02
-2.491167047992348671e-03
-1.468531191349029541e-01
-5.417672172188758850e-02
-3.818078432232141495e-03
-2.352129071950912476e-01
-1.577407270669937134e-01
1.728948652744293213e-01
-2.494072914123535156e-01
-3.704852610826492310e-02
1.100936308503150940e-01
-1.513314992189407349e-01
8.307462185621261597e-02
-1.558597981929779053e-01
-1.674056500196456909e-01
-8.520318567752838135e-02
-3.124150633811950684e-02
-1.780924014747142792e-02
-6.222285702824592590e-02
-3.235383890569210052e-03
-1.331266015768051147e-01
3.073330596089363098e-02
5.381067097187042236e-02
-6.950090080499649048e-02
-1.739911921322345734e-02
-1.508376300334930420e-01
3.709399327635765076e-02
4.461604356765747070e-02
-4.076590016484260559e-02
-3.571592271327972412e-02
-2.710804641246795654e-01
-2.791755646467208862e-02
-6.689982861280441284e-02
-1.187566965818405151e-01
6.627901643514633179e-02
-9.287292510271072388e-02
-1.679018512368202209e-02
-5.402506329119205475e-03
6.581766903400421143e-02
7.531266659498214722e-02
-1.107793971896171570e-01
2.458651177585124969e-02
-5.752481520175933838e-02
-2.052936255931854248e-01
5.892841890454292297e-02
5.561586841940879822e-02
1.387349329888820648e-02
-1.980334967374801636e-01
-8.814175426959991455e-02
1.849633306264877319e-01
-2.425639927387237549e-01
-1.236053183674812317e-01
1.455148905515670776e-01
-1.977583318948745728e-01
1.209232304245233536e-02
-1.768646389245986938e-02
-2.769347131252288818e-01
-7.448238879442214966e-02
6.807854771614074707e-02
-3.700321912765502930e-01
-4.293727874755859375e-02
1.993911564350128174e-01
-9.456051886081695557e-02
-1.405844744294881821e-02
1.561373006552457809e-02
-1.187966987490653992e-01
-2.686549350619316101e-02
-1.460081338882446289e-01
-6.911844760179519653e-02
-2.197075784206390381e-01
5.005685612559318542e-02
-2.685106992721557617e-01
-1.854973137378692627e-01
-3.745725750923156738e-02
-8.858297765254974365e-02
-1.102495864033699036e-01
5.678495019674301147e-02
-2.602056264877319336e-01
-1.327709257602691650e-01
1.353908926248550415e-01
-2.723229527473449707e-01
-9.668205678462982178e-02
1.797842979431152344e-01
8.981260657310485840e-02
6.950143724679946899e-02
-4.635009169578552246e-02
-3.181003406643867493e-02
5.346207879483699799e-03
4.206146299839019775e-02
-1.963135972619056702e-02
-9.702406823635101318e-02
-1.195537224411964417e-01
-2.225534915924072266e-01
-6.084134802222251892e-02
1.891819946467876434e-02
-2.183797210454940796e-01
-1.640810072422027588e-01
1.143785938620567322e-01
-1.775918006896972656e-01
-3.224551975727081299e-01
-1.622184924781322479e-02
6.782063096761703491e-02
-9.801694005727767944e-02
-3.615763410925865173e-02
7.103310525417327881e-02
-1.344426125288009644e-01
1.447701007127761841e-01
-1.098597124218940735e-01
-7.319372147321701050e-02
1.000508069992065430e-01
-1.831360459327697754e-01
1.643806397914886475e-01
1.036538109183311462e-01
-4.679260849952697754e-01
-6.376177072525024414e-02
6.555448472499847412e-02
-4.830866158008575439e-01
-2.692772448062896729e-02
1.388850212097167969e-01
1.265960633754730225e-01
-1.127404421567916870e-01
-1.827681511640548706e-01
8.388213068246841431e-02
3.520237654447555542e-02
-2.034242898225784302e-01
7.924553751945495605e-02
-1.324676163494586945e-02
-7.730323076248168945e-02
-1.316673010587692261e-01
-4.728063195943832397e-02
5.511198937892913818e-02
-3.729141354560852051e-01
-6.239791586995124817e-02
1.200300231575965881e-01
-5.796560049057006836e-01
-1.926558911800384521e-01
-8.935736864805221558e-02
-1.809851229190826416e-01
1.331328996457159519e-03
2.163828462362289429e-01
-5.367370247840881348e-01
-1.985747069120407104e-01
6.577505916357040405e-02
-4.453194737434387207e-01
-2.090525031089782715e-01
-2.746427431702613831e-02
6.298337131738662720e-02
-8.169072121381759644e-02
-1.477542668581008911e-01
1.052489578723907471e-01
3.231228515505790710e-02
-1.562629193067550659e-01
8.424817770719528198e-02
-4.686469957232475281e-02
-3.833051398396492004e-02
1.669174283742904663e-01
1.513544190675020218e-02
-7.847493141889572144e-02
-9.458799660205841064e-02
1.050522103905677795e-01
-1.964318752288818359e-02
-1.070559546351432800e-01
3.882215544581413269e-02
8.836955577135086060e-02
-9.448912739753723145e-02
-2.530812472105026245e-02
3.628025576472282410e-02
-3.798902332782745361e-01
-1.263868212699890137e-01
9.128402918577194214e-02
-4.775383174419403076e-01
-1.341642886400222778e-01
2.241371572017669678e-02
-4.985058680176734924e-02
-1.394628882408142090e-01
-9.043838828802108765e-02
8.539555221796035767e-02
1.257480531930923462e-01
-2.465329766273498535e-01
9.431813657283782959e-02
-1.743445396423339844e-01
-6.218981370329856873e-02
-1.749281436204910278e-01
3.502338752150535583e-02
7.552815973758697510e-02
-2.507464885711669922e-01
1.621335446834564209e-01
3.904328122735023499e-02
-1.544341742992401123e-01
-9.340647608041763306e-02
1.774005405604839325e-02
5.031338706612586975e-02
1.053779050707817078e-01
-3.029556870460510254e-01
-6.247612833976745605e-02
-1.159986034035682678e-01
-1.350685358047485352e-01
-1.227717148140072823e-03
-4.444506764411926270e-02
2.126321792602539062e-01
-2.790170721709728241e-02
9.009305387735366821e-02
-1.748131811618804932e-01
-9.003045409917831421e-02
1.110613197088241577e-01
-1.589624434709548950e-01
3.622344881296157837e-02
-1.400675475597381592e-01
9.665048867464065552e-02
2.915302291512489319e-02
5.303800571709871292e-04
-1.462024450302124023e-01
-3.219397366046905518e-02
6.307474523782730103e-02
-1.775199323892593384e-01
1.017323657870292664e-01
3.020958602428436279e-02
-3.094603493809700012e-02
8.052553981542587280e-02
3.344631195068359375e-02
-9.795685112476348877e-02
1.188944727182388306e-01
3.403907641768455505e-03
-2.733552157878875732e-01
3.021391294896602631e-02
-5.624531302601099014e-03
1.241592969745397568e-02
-3.362945020198822021e-01
2.390920966863632202e-01
2.760519385337829590e-01
-3.484151065349578857e-01
-5.459708347916603088e-02
1.913676969707012177e-02
-2.152588516473770142e-01
-1.972078830003738403e-01
9.585517644882202148e-02
-1.325201988220214844e-02
3.673791885375976562e-02
-8.217982202768325806e-02
-6.507061421871185303e-02
-6.451669614762067795e-04
-6.683233380317687988e-02
5.867382884025573730e-02
-1.368563715368509293e-02
5.856738891452550888e-03
-7.203498482704162598e-02
-1.265072226524353027e-01
-1.017082259058952332e-01
7.773092389106750488e-02
-2.301031798124313354e-01
-8.414646238088607788e-02
-1.062269601970911026e-02
-9.287342429161071777e-02
-1.175978854298591614e-01
1.356528047472238541e-02
-1.480589061975479126e-02
-1.356720179319381714e-01
1.743439026176929474e-02
-3.899804502725601196e-02
-3.607785701751708984e-01
-3.552320599555969238e-02
-7.745970040559768677e-02
-2.138073593378067017e-01
-3.661631047725677490e-02
1.248013079166412354e-01
-2.982677519321441650e-02
8.610717207193374634e-02
1.088288873434066772e-01
-2.876331806182861328e-01
-4.237404167652130127e-01
-3.461605310440063477e-01
8.908657357096672058e-03
-2.274510078132152557e-02
-1.705905497074127197e-01
-1.192968413233757019e-01
1.989059336483478546e-02
-1.485302764922380447e-02
1.135414233431220055e-03
6.914290040731430054e-02
6.208007410168647766e-02
-6.790407001972198486e-02
-8.332948386669158936e-02
-1.470469087362289429e-01
1.146497763693332672e-02
-3.544696420431137085e-02
-1.893346570432186127e-02
-2.163079082965850830e-01
3.321074545383453369e-01
8.926777541637420654e-02
-2.145800739526748657e-01
3.242889419198036194e-02
1.535591930150985718e-01
1.540325302630662918e-02
1.803845539689064026e-02
4.000201076269149780e-02
-2.056155055761337280e-01
-3.758205771446228027e-01
-3.223668336868286133e-01
4.419014602899551392e-02
-1.191416978836059570e-01
-1.486443579196929932e-01
1.751866042613983154e-01
-2.067206650972366333e-01
1.273159235715866089e-01
-1.975311897695064545e-02
-7.409007102251052856e-02
2.101524323225021362e-01
-1.577176302671432495e-01
4.273109883069992065e-02
-1.461250633001327515e-01
-1.061587706208229065e-01
-1.766698807477951050e-02
2.458782983012497425e-04
1.041927114129066467e-01
1.537915021181106567e-01
5.252050980925559998e-02
1.066786646842956543e-01
9.989430010318756104e-02
1.463535279035568237e-01
6.280925869941711426e-02
3.460060060024261475e-02
1.052389219403266907e-01
-2.554715573787689209e-01
2.412983216345310211e-02
-2.089717537164688110e-01
-8.245158940553665161e-03
-1.154514998197555542e-01
1.628877967596054077e-02
-8.466947823762893677e-03
3.111997246742248535e-02
1.468167919665575027e-02
-1.747471392154693604e-01
9.775611106306314468e-04
-1.430745571851730347e-01
-2.768799364566802979e-01
-2.113145543262362480e-03
1.486839056015014648e-01
-1.845869868993759155e-01
2.870879136025905609e-02
-8.830590546131134033e-02
-3.200239837169647217e-01
-5.647526979446411133e-01
-4.553481470793485641e-03
2.014129012823104858e-01
-1.369908219203352928e-03
1.514969766139984131e-01
-1.292890012264251709e-01
3.417434915900230408e-02
1.216721832752227783e-01
-4.933217167854309082e-01
-3.783910274505615234e-01
7.264652103185653687e-02
1.816150993108749390e-01
3.329866006970405579e-02
1.117875576019287109e-01
5.044776573777198792e-02
-6.089650839567184448e-02
1.921454221010208130e-01
-3.029546737670898438e-01
-4.450589716434478760e-01
-5.206981897354125977e-01
-8.190695941448211670e-02
2.342785522341728210e-02
1.144635155797004700e-01
1.076966226100921631e-01
3.336101025342941284e-02
8.068026602268218994e-02
-1.550830304622650146e-01
-1.698912531137466431e-01
-2.080218046903610229e-01
-7.578297704458236694e-02
-5.641584470868110657e-02
-1.491276454180479050e-02
1.030560731887817383e-01
-9.992358833551406860e-02
-1.098937168717384338e-02
1.324650249443948269e-03
1.797686070203781128e-01
1.199260428547859192e-01
-2.177320122718811035e-01
7.334918528795242310e-02
4.084436967968940735e-02
6.818106770515441895e-02
-4.161320999264717102e-02
1.179645806550979614e-01
-4.897868260741233826e-02
-3.670095503330230713e-01
-4.132117629051208496e-01
-2.372484467923641205e-02
1.307971123605966568e-02
1.628634631633758545e-01
-2.960449829697608948e-02
1.065108329057693481e-01
7.554108649492263794e-02
-2.864730954170227051e-01
2.082814425230026245e-01
-1.507247537374496460e-01
-4.270757362246513367e-02
-7.870680838823318481e-02
-2.850358188152313232e-02
1.976061053574085236e-02
3.785524144768714905e-02
-2.721455991268157959e-01
-1.642317175865173340e-01
-1.276359558105468750e-01
-2.132997959852218628e-01
-4.433153569698333740e-01
-4.656815528869628906e-02
-1.929659768939018250e-02
1.405294239521026611e-01
-2.509361803531646729e-01
-4.313994944095611572e-02
1.260617822408676147e-01
-2.290608286857604980e-01
-1.587091237306594849e-01
9.433007985353469849e-02
-2.170396298170089722e-01
-1.139070019125938416e-01
-2.884642481803894043e-01
1.071431040763854980e-01
7.883172482252120972e-02
-3.431211709976196289e-01
1.729262061417102814e-02
1.342168450355529785e-01
-2.719931006431579590e-01
1.066394150257110596e-01
5.752060934901237488e-02
-4.289883077144622803e-01
1.505738310515880585e-02
-3.750575333833694458e-02
-3.884880244731903076e-01
6.065887957811355591e-02
-6.374201923608779907e-02
-2.892328202724456787e-01
1.336492132395505905e-02
6.864517182111740112e-02
8.606489002704620361e-02
-4.407057538628578186e-02
-1.131643354892730713e-02
4.559063538908958435e-02
-3.395865559577941895e-01
-1.152335256338119507e-01
1.313207000494003296e-01
1.291370242834091187e-01
-4.480001702904701233e-02
6.857026368379592896e-02
7.837144285440444946e-02
-3.163962662220001221e-01
1.119750365614891052e-01
-6.652629375457763672e-02
-1.846478283405303955e-01
-1.609967499971389771e-01
-8.099031448364257812e-02
-1.283231228590011597e-01
-2.159748971462249756e-01
3.352038189768791199e-02
4.568129777908325195e-02
-3.142446875572204590e-01
4.710902273654937744e-02
3.608216717839241028e-02
-1.806149631738662720e-01
-6.985701620578765869e-02
3.441412118263542652e-04
7.970220595598220825e-02
-1.245191991329193115e-01
6.369444727897644043e-02
8.508637547492980957e-02
9.305354207754135132e-02
-6.236459314823150635e-02
1.817872934043407440e-02
-1.180107519030570984e-01
-2.442717999219894409e-01
-1.095953583717346191e-01
1.897175051271915436e-02
5.688271299004554749e-02
-1.045454144477844238e-01
-5.610160157084465027e-02
-3.756898269057273865e-02
-2.072151601314544678e-01
-1.526622027158737183e-01
3.802409768104553223e-02
-2.484149672091007233e-02
-7.383161783218383789e-02
1.409903727471828461e-02
-2.628157101571559906e-02
-2.014595717191696167e-01
4.186955839395523071e-02
-6.476935744285583496e-02
-7.776134461164474487e-02
1.071962341666221619e-02
-3.853701427578926086e-02
-1.260347291827201843e-02
2.744553610682487488e-02
-1.147426813840866089e-01
-1.890592102427035570e-04
1.691492833197116852e-02
5.215599387884140015e-02
-4.367336630821228027e-02
-6.137093156576156616e-02
1.626387238502502441e-01
-1.589942574501037598e-01
-1.257299333810806274e-01
1.346061676740646362e-01
-6.168507337570190430e-01
-1.911162734031677246e-01
8.886729925870895386e-02
4.105567559599876404e-02
-1.397569291293621063e-02
5.088329687714576721e-02
-2.613068744540214539e-02
9.968074411153793335e-02
2.810371294617652893e-02
-1.899785101413726807e-01
-6.676806509494781494e-02
-2.044161036610603333e-02
2.044020891189575195e-01
2.276566624641418457e-01
-2.776336073875427246e-01
2.700781822204589844e-02
-6.411797553300857544e-02
-1.638745814561843872e-01
3.966237232089042664e-02
-1.323639154434204102e-01
-1.370592415332794189e-01
6.087140366435050964e-02
7.209624350070953369e-02
1.379158794879913330e-01
-1.476022303104400635e-01
-8.336016535758972168e-02
-1.230378076434135437e-02
-3.912687897682189941e-01
9.046645835041999817e-03
-8.087053894996643066e-02
5.342796817421913147e-02
4.723541066050529480e-02
6.471019983291625977e-02
-6.990935653448104858e-02
-2.924390695989131927e-02
1.299835592508316040e-01
-6.285055074840784073e-03
-1.311220414936542511e-02
3.872323781251907349e-02
-1.428039669990539551e-01
1.916894316673278809e-01
-1.017652824521064758e-01
-2.836474962532520294e-02
2.005556076765060425e-01
-4.801716655492782593e-02
-4.406490921974182129e-02
-1.799964755773544312e-01
-6.642324477434158325e-02
-1.356194764375686646e-01
1.593377813696861267e-02
4.748883191496133804e-03
1.300846040248870850e-01
2.193046733736991882e-02
-3.386393785476684570e-01
-1.252360939979553223e-01
-2.972677052021026611e-01
-4.462427198886871338e-01
7.772180438041687012e-02
-1.093540340662002563e-01
-5.584447830915451050e-02
-8.503193408250808716e-02
-1.765778362751007080e-01
7.575321942567825317e-02
-1.428462415933609009e-01
1.147715300321578979e-01
1.367611289024353027e-01
1.208382993936538696e-01
-5.029547587037086487e-02
-1.077195629477500916e-01
-5.034994706511497498e-02
-1.163266226649284363e-02
-1.984618604183197021e-02
7.127957791090011597e-02
2.065764963626861572e-01
2.136512845754623413e-02
-1.424618214368820190e-01
2.118387073278427124e-02
-3.147841431200504303e-03
3.596371784806251526e-02
1.176875531673431396e-01
1.510527729988098145e-02
1.739475317299365997e-02
-1.809866279363632202e-01
-2.518478631973266602e-01
1.253421753644943237e-01
-1.915722787380218506e-01
1.245054304599761963e-01
-1.031982526183128357e-01
6.738301366567611694e-02
-4.591948539018630981e-02
1.094323396682739258e-01
-4.601847380399703979e-02
-2.712432742118835449e-01
3.852814435958862305e-02
-1.644656956195831299e-01
-4.313271120190620422e-02
-1.086512431502342224e-01
-2.213348001241683960e-01
5.709996446967124939e-02
2.978920377790927887e-02
1.272218376398086548e-01
4.035362973809242249e-02
-7.731857895851135254e-02
1.367193013429641724e-01
8.340241014957427979e-02
2.066145986318588257e-01
1.052245721220970154e-01
-3.348851799964904785e-01
-1.370574533939361572e-01
-2.626668214797973633e-01
-4.117342233657836914e-01
-1.902951598167419434e-01
1.193258613348007202e-01
-1.521801948547363281e-01
-2.159292576834559441e-03
1.530474424362182617e-01
4.645402077585458755e-03
-6.333743780851364136e-02
-3.013828024268150330e-02
3.557473048567771912e-02
-2.112654298543930054e-01
1.385087817907333374e-01
-2.015587091445922852e-01
1.735982596874237061e-01
9.561335667967796326e-03
-3.426083028316497803e-01
2.285208553075790405e-02
-2.967800498008728027e-01
-4.246799945831298828e-01
-2.850427329540252686e-01
6.452059000730514526e-02
-9.947983920574188232e-02
1.219394579529762268e-01
-3.593194484710693359e-02
-2.711854875087738037e-01
1.173969656229019165e-01
-5.673769861459732056e-02
-3.187066912651062012e-01
-3.855579495429992676e-01
1.503831823356449604e-03
3.150152042508125305e-02
2.022583736106753349e-03
1.799515187740325928e-01
-1.293533146381378174e-01
5.650926753878593445e-02
-1.674831360578536987e-01
-3.206815421581268311e-01
-2.849906980991363525e-01
3.608659654855728149e-02
4.023312032222747803e-02
9.659137576818466187e-02
7.224342972040176392e-02
-4.544317349791526794e-02
9.133108705282211304e-02
-7.274365425109863281e-02
-4.544488191604614258e-01
8.677112311124801636e-02
-9.048400074243545532e-02
-9.988796897232532501e-03
-3.602380454540252686e-01
6.420736759901046753e-02
8.905692398548126221e-02
-6.708774715662002563e-03
2.061504423618316650e-01
-6.941927224397659302e-02
-3.186388611793518066e-01
1.217285916209220886e-01
-2.814805833622813225e-03
-4.547360911965370178e-02
7.738260924816131592e-02
-1.171252354979515076e-01
1.983706504106521606e-01
-1.236939206719398499e-01
-3.607572615146636963e-01
-2.530502341687679291e-02
1.297426670789718628e-01
-7.901591807603836060e-02
1.320079118013381958e-01
1.792443692684173584e-01
-2.492996603250503540e-01
-2.238970547914505005e-01
2.896831557154655457e-02
-4.054119586944580078e-01
-3.155833780765533447e-01
-1.715888828039169312e-01
1.145555153489112854e-01
-3.021895289421081543e-01
-3.091595470905303955e-01
-1.651261895895004272e-01
-3.174018561840057373e-01
-1.570850014686584473e-01
-3.424851456657052040e-03
1.928697153925895691e-02
8.181408047676086426e-02
-1.144073996692895889e-02
-6.331083830446004868e-03
-2.714180573821067810e-02
9.443446248769760132e-02
6.988678127527236938e-02
6.828514486551284790e-02
-3.800484538078308105e-01
-3.480012714862823486e-01
-4.594696760177612305e-01
-2.651396393775939941e-01
-2.805456519126892090e-01
-9.587121754884719849e-02
-1.273935586214065552e-01
-1.479956954717636108e-01
-1.399510651826858521e-01
3.120889514684677124e-02
-3.937936425209045410e-01
-3.586139678955078125e-01
-1.639229208230972290e-01
-2.555429935455322266e-01
-1.047954149544239044e-02
7.023351639509201050e-02
-1.852522343397140503e-01
-1.190166249871253967e-01
2.580442428588867188e-01
4.110956192016601562e-02
1.376491189002990723e-01
6.588231027126312256e-02
-6.406766921281814575e-02
-7.568310946226119995e-02
3.629289194941520691e-02
1.822391152381896973e-02
2.885187603533267975e-02
-1.667610704898834229e-01
-4.607008695602416992e-01
-5.531606078147888184e-02
-9.866468608379364014e-02
-1.610111296176910400e-01
5.041296780109405518e-02
9.820127487182617188e-02
-2.653341554105281830e-02
-7.492406759411096573e-03
5.843212455511093140e-02
-3.715307116508483887e-01
-3.491805195808410645e-01
-2.374971956014633179e-01
-2.232103347778320312e-01
-2.166888564825057983e-01
-2.355517446994781494e-01
-2.015606760978698730e-01
-1.987498551607131958e-01
1.213760599493980408e-01
1.493212431669235229e-01
3.963087219744920731e-03
-3.349494561553001404e-02
4.533976316452026367e-02
-6.946922838687896729e-02
1.111226752400398254e-01
4.245370160788297653e-03
3.085282444953918457e-02
-1.215426176786422729e-01
-2.624475359916687012e-01
-1.788093894720077515e-01
8.664475381374359131e-02
-3.445398807525634766e-01
-3.155469596385955811e-01
-1.250015944242477417e-01
-2.181697040796279907e-01
-9.613730013370513916e-02
-2.457663975656032562e-02
3.426555544137954712e-02
-7.556367665529251099e-02
1.274380981922149658e-01
6.349718314595520496e-04
-3.432598412036895752e-01
-2.813204228878021240e-01
-1.654900796711444855e-02
-1.833606213331222534e-01
-1.394422501325607300e-01
1.155041903257369995e-01
-1.216189041733741760e-01
7.398061454296112061e-02
7.508150488138198853e-02
-3.715249300003051758e-01
-1.302139759063720703e-01
-8.025047183036804199e-02
-4.057369828224182129e-01
-1.712843626737594604e-01
-2.157825231552124023e-02
-9.765342622995376587e-02
4.468373209238052368e-02
6.208699941635131836e-02
-1.600638963282108307e-03
1.110637784004211426e-01
-1.478879339993000031e-02
1.553595662117004395e-01
-1.228693202137947083e-01
1.224530115723609924e-01
6.058025360107421875e-02
-6.731262803077697754e-02
-1.413542777299880981e-02
8.271528035402297974e-02
9.788786619901657104e-02
-6.968288868665695190e-02
1.067682169377803802e-02
-7.584434747695922852e-02
-2.615493237972259521e-01
-2.316099405288696289e-01
-2.162574417889118195e-02
-4.408086836338043213e-01
-9.236503392457962036e-02
2.288930714130401611e-01
-4.629303887486457825e-02
-8.230730146169662476e-02
2.483240067958831787e-01
1.905802264809608459e-02
-7.494430243968963623e-02
6.462127715349197388e-02
7.875978946685791016e-02
-2.395380847156047821e-02
-5.481153260916471481e-03
9.282221086323261261e-03
2.463084273040294647e-02
-2.187986969947814941e-01
1.128096356987953186e-01
-8.689267933368682861e-02
-2.466428093612194061e-02
-8.059044927358627319e-02
-1.548002809286117554e-01
2.032054215669631958e-01
1.266519576311111450e-01
2.715328149497509003e-02
5.040429159998893738e-02
7.433111313730478287e-03
8.110069483518600464e-02
-1.556221544742584229e-01
1.789745874702930450e-05
-4.078550264239311218e-02
-1.011526510119438171e-01
-5.883417651057243347e-02
1.720612794160842896e-01
4.380612447857856750e-02
2.296327427029609680e-02
1.236705854535102844e-02
-1.030141934752464294e-01
-4.336810111999511719e-02
1.093948855996131897e-01
-3.114028275012969971e-01
-3.874523565173149109e-02
-2.163864970207214355e-01
-3.295713365077972412e-01
3.131664171814918518e-02
-1.079186499118804932e-01
-9.850641340017318726e-02
-2.257964313030242920e-01
-2.407190650701522827e-01
9.017693996429443359e-02
-2.456015162169933319e-02
9.668146818876266479e-02
5.134494230151176453e-02
2.538375183939933777e-02
-1.407189369201660156e-01
1.018287092447280884e-01
-8.711714297533035278e-02
-7.815150171518325806e-02
-7.364612072706222534e-02
4.741827398538589478e-02
1.257369220256805420e-01
6.392468512058258057e-02
-1.077715083956718445e-01
6.128221005201339722e-02
-1.921553537249565125e-02
-3.860269486904144287e-02
5.389230698347091675e-02
-4.793658480048179626e-02
8.517454564571380615e-02
-1.199822500348091125e-01
-2.872175574302673340e-01
-2.822469472885131836e-01
7.916593924164772034e-03
5.981414020061492920e-02
2.420341409742832184e-02
6.394758075475692749e-02
-1.755929738283157349e-02
4.891830310225486755e-02
-4.870441928505897522e-02
-1.323268115520477295e-01
-1.782853901386260986e-02
-9.113063663244247437e-02
-9.958139806985855103e-02
-2.875651121139526367e-01
-8.355092257261276245e-02
9.788563102483749390e-02
4.778739809989929199e-02
6.321096420288085938e-02
9.634652733802795410e-02
1.210641488432884216e-01
-1.030842959880828857e-02
-8.137030154466629028e-02
9.181526303291320801e-02
5.777525156736373901e-02
-2.138324975967407227e-01
-3.059173822402954102e-01
-3.167979419231414795e-01
-2.982229888439178467e-01
1.070463806390762329e-01
1.089012697339057922e-01
2.058729529380798340e-02
2.588157355785369873e-02
-1.013082638382911682e-01
-9.480644017457962036e-02
-2.360608428716659546e-01
6.969221681356430054e-02
8.777198381721973419e-03
1.359304934740066528e-01
1.564700528979301453e-02
-4.339036643505096436e-01
1.751031279563903809e-01
-1.962264180183410645e-01
-5.694231390953063965e-01
-2.196282297372817993e-01
-2.619637548923492432e-01
-3.166095912456512451e-01
1.292044222354888916e-01
2.878716960549354553e-02
-3.040070831775665283e-01
2.426715493202209473e-01
-1.854962408542633057e-01
-6.717233657836914062e-01
-2.035873085260391235e-01
-4.290430843830108643e-01
-4.603530168533325195e-01
-8.612500876188278198e-02
1.037415936589241028e-01
6.460877507925033569e-02
1.536555886268615723e-01
2.648182772099971771e-02
8.187051862478256226e-02
-7.521586120128631592e-02
-1.957432329654693604e-01
-2.475105524063110352e-01
-8.066538721323013306e-02
1.643308810889720917e-02
-3.839490003883838654e-03
9.756630659103393555e-02
1.333450525999069214e-01
-9.923125803470611572e-02
6.803398486226797104e-03
-1.043356359004974365e-01
-2.971586883068084717e-01
-1.030103415250778198e-01
-1.788267642259597778e-01
1.972994655370712280e-01
-2.778477668762207031e-01
1.672174595296382904e-02
-4.175801575183868408e-02
3.245525062084197998e-02
9.677416831254959106e-02
1.263100206851959229e-01
-5.345043912529945374e-02
6.824503093957901001e-02
7.405026815831661224e-03
1.052740365266799927e-01
-3.033476322889328003e-02
-7.938444614410400391e-02
1.813199222087860107e-01
-1.221080273389816284e-01
-3.445698916912078857e-01
8.040882647037506104e-02
1.312573160976171494e-02
-8.019237965345382690e-02
3.126737475395202637e-02
3.642221167683601379e-02
-2.510619163513183594e-01
-1.737114191055297852e-01
-3.245551511645317078e-02
-2.766661345958709717e-01
-1.399441808462142944e-01
-4.456257820129394531e-01
-2.469704896211624146e-01
9.232553839683532715e-02
-3.590008318424224854e-01
-2.106980420649051666e-02
-2.442206740379333496e-01
-3.516996204853057861e-01
-5.993149802088737488e-02
-1.539367903023958206e-02
-1.426940504461526871e-02
8.498664945363998413e-02
-3.651014715433120728e-02
1.112287640571594238e-01
2.475872449576854706e-02
-3.251048037782311440e-03
1.195348799228668213e-01
-1.129258647561073303e-01
8.453347533941268921e-02
-3.074530661106109619e-01
-9.351462870836257935e-02
6.936609745025634766e-02
-2.176095843315124512e-01
-5.605734512209892273e-02
3.052819147706031799e-02
-3.290306329727172852e-01
-1.127189919352531433e-01
1.225732117891311646e-01
-1.047393828630447388e-01
-5.960879474878311157e-02
-9.766595810651779175e-02
-1.929311156272888184e-01
-1.636450439691543579e-01
8.466514945030212402e-02
2.759211324155330658e-02
2.420098334550857544e-02
-2.761592566967010498e-01
3.043891303241252899e-02
7.747244834899902344e-02
-1.766765415668487549e-01
8.188532292842864990e-02
1.050971355289220810e-02
-1.775347255170345306e-02
1.366346627473831177e-01
2.858873642981052399e-02
-3.571943193674087524e-02
-1.130140125751495361e-01
9.647779166698455811e-02
-6.258248686790466309e-01
-1.682887673377990723e-01
9.967345744371414185e-02
-3.220610916614532471e-01
-7.254549115896224976e-02
1.908564418554306030e-01
9.207920730113983154e-02
-1.572224944829940796e-01
-1.558381021022796631e-01
5.590089783072471619e-02
-1.985381841659545898e-01
6.292778998613357544e-02
-1.314563453197479248e-01
-2.531827390193939209e-01
-5.312640219926834106e-02
7.391677796840667725e-02
8.274719119071960449e-02
-5.323335155844688416e-02
5.508587881922721863e-02
-4.191178828477859497e-02
-7.160729169845581055e-02
1.150653325021266937e-02
3.374242782592773438e-02
-1.433552801609039307e-01
-3.789946436882019043e-03
-5.775072425603866577e-02
-1.645270437002182007e-01
-5.008053965866565704e-03
-3.772816956043243408e-01
-5.922283977270126343e-02
-6.833124160766601562e-02
-1.392194777727127075e-01
1.104468703269958496e-01
6.961725652217864990e-02
3.500781208276748657e-02
-2.153758406639099121e-01
1.317326445132493973e-02
5.866310745477676392e-02
-4.233865737915039062e-01
1.011471543461084366e-02
-1.709305942058563232e-01
-4.908442199230194092e-01
8.923200517892837524e-02
-3.803575411438941956e-02
-1.846559345722198486e-01
2.011187374591827393e-01
4.283976182341575623e-02
-3.965591192245483398e-01
8.682227879762649536e-02
-1.446958780288696289e-01
-4.293857216835021973e-01
-4.229587614536285400e-01
-8.670539408922195435e-02
5.951845273375511169e-02
-1.210899837315082550e-02
-2.574203722178936005e-02
7.329206913709640503e-02
2.812489168718457222e-03
-1.232007145881652832e-01
5.715598538517951965e-02
-1.212296187877655029e-01
1.081475391983985901e-01
3.861642256379127502e-02
-1.149607226252555847e-01
7.344725728034973145e-02
-3.082735463976860046e-02
-4.552991688251495361e-02
-8.449898660182952881e-02
8.868356235325336456e-03
1.409997940063476562e-01
-2.178794294595718384e-01
-9.642737358808517456e-02
-1.453351080417633057e-01
-2.588564455509185791e-01
-1.508617699146270752e-01
7.136394828557968140e-02
-8.923348784446716309e-02
2.125546783208847046e-01
-1.413678675889968872e-01
9.203776717185974121e-02
-4.443013295531272888e-02
-9.062521159648895264e-02
7.148472592234611511e-03
-4.615352954715490341e-03
3.405381739139556885e-02
-1.624083705246448517e-02
5.166196823120117188e-02
1.332313716411590576e-01
8.609620481729507446e-02
-1.311501711606979370e-01
4.283778369426727295e-02
-9.471470862627029419e-02
-3.173013627529144287e-01
1.691095717251300812e-02
-5.785603821277618408e-02
-2.250268012285232544e-01
3.687186539173126221e-02
-6.663044448941946030e-03
-1.713934838771820068e-01
-4.500392451882362366e-02
-1.759418398141860962e-01
7.567879557609558105e-02
-7.987639307975769043e-02
-3.963029012084007263e-02
1.708471029996871948e-02
1.700868159532546997e-01
-7.587194442749023438e-03
-1.452369838953018188e-01
5.925780534744262695e-02
-2.915177047252655029e-01
9.257544577121734619e-02
-9.556709975004196167e-02
-9.438890963792800903e-02
5.479574576020240784e-02
-1.160036846995353699e-01
8.620105683803558350e-03
1.466278284788131714e-01
-1.341764926910400391e-01
-8.234979957342147827e-02
4.548336938023567200e-02
-1.778617054224014282e-01
9.089586138725280762e-02
8.806735277175903320e-03
-5.178526416420936584e-02
-1.955103576183319092e-01
2.300566062331199646e-02
-6.810949742794036865e-02
3.905981406569480896e-02
2.804701402783393860e-02
-2.483946457505226135e-02
-3.950090333819389343e-02
-6.297901272773742676e-02
1.445595175027847290e-01
1.707968115806579590e-01
-1.155637577176094055e-01
8.229637891054153442e-02
-1.181841548532247543e-02
4.186783358454704285e-02
6.008226796984672546e-02
-2.413619160652160645e-01
1.229780390858650208e-01
-6.838441640138626099e-02
-5.553938448429107666e-02
-2.780763506889343262e-01
1.498929113149642944e-01
4.037590324878692627e-02
-5.064575672149658203e-01
1.922421753406524658e-01
-4.418698698282241821e-02
-1.890732347965240479e-01
-1.275835335254669189e-01
-1.476379781961441040e-01
1.128800138831138611e-01
-1.493529975414276123e-01
7.896814495325088501e-02
-1.842285320162773132e-02
3.748715389519929886e-03
1.677125990390777588e-01
-6.700499355792999268e-02
1.566594988107681274e-01
8.484108746051788330e-02
-1.965451240539550781e-01
1.225000023841857910e-01
-6.003706455230712891e-01
1.610902398824691772e-01
-1.244612187147140503e-01
-1.314757764339447021e-01
7.604697346687316895e-02
1.504897028207778931e-01
1.215616017580032349e-01
-7.356986403465270996e-02
-3.289307001978158951e-03
-1.540465801954269409e-01
1.150114182382822037e-02
-1.044160798192024231e-01
-8.072531223297119141e-02
-7.221269607543945312e-02
-3.058411180973052979e-02
-6.080397367477416992e-01
1.246034651994705200e-01
9.779093414545059204e-02
-4.039290249347686768e-01
1.170940622687339783e-01
-9.793973527848720551e-03
-4.470219090580940247e-02
-5.688896402716636658e-02
-1.972128078341484070e-02
-3.748974204063415527e-01
1.001542806625366211e-01
6.306856125593185425e-02
-2.520646452903747559e-01
6.195084005594253540e-02
6.956014782190322876e-02
-2.566953934729099274e-02
2.803063578903675079e-02
9.345278888940811157e-02
1.320095360279083252e-02
-4.480693340301513672e-01
1.259675920009613037e-01
-8.807700127363204956e-02
1.592941582202911377e-02
1.059184372425079346e-01
-3.264552652835845947e-01
4.918745905160903931e-02
1.127255335450172424e-01
-3.627254441380500793e-02
-4.016412794589996338e-01
1.874125748872756958e-01
-1.770988106727600098e-01
-1.893312484025955200e-02
6.925106793642044067e-02
-2.238002121448516846e-01
1.396880596876144409e-01
-2.115542441606521606e-01
-7.586901634931564331e-02
-1.250148657709360123e-02
2.836284041404724121e-02
3.516248613595962524e-02
-1.433140635490417480e-01
1.265889313071966171e-02
2.970111556351184845e-03
-2.388585656881332397e-01
2.668395079672336578e-02
-1.370489001274108887e-01
-2.814147174358367920e-01
1.863209754228591919e-01
-3.504182677716016769e-03
4.495863616466522217e-02
1.463116705417633057e-01
-2.037789523601531982e-01
1.141411960124969482e-01
8.714585751295089722e-02
-5.118458271026611328e-01
-2.197219878435134888e-01
9.179658442735671997e-02
-3.050643205642700195e-01
2.673402987420558929e-02
-2.290561795234680176e-01
3.078783676028251648e-02
1.829872280359268188e-01
-7.729792594909667969e-02
-3.930468261241912842e-01
-4.505184590816497803e-01
-1.333154737949371338e-01
-5.578089132905006409e-02
1.911319792270660400e-01
-1.807481609284877777e-02
8.225170522928237915e-02
2.775866091251373291e-01
-2.569936960935592651e-02
-6.688714772462844849e-02
-2.485773563385009766e-01
-4.673581570386886597e-03
4.103384166955947876e-02
-3.867551451548933983e-03
-1.267961114645004272e-01
1.812876947224140167e-02
1.775798052549362183e-01
-1.772806607186794281e-02
-2.478581368923187256e-01
-2.242602109909057617e-01
-1.521710008382797241e-01
-3.041530847549438477e-01
-1.933873444795608521e-02
1.510161254554986954e-02
-2.819955945014953613e-01
-3.412918448448181152e-01
-3.181811422109603882e-02
-1.881697922945022583e-01
-3.124687075614929199e-02
1.161715313792228699e-01
-2.904276251792907715e-01
-3.407911658287048340e-01
1.247495263814926147e-01
2.277906984090805054e-01
-4.256878048181533813e-02
-1.234387457370758057e-01
-5.432019382715225220e-02
-2.508515715599060059e-01
1.234687715768814087e-01
1.071946322917938232e-01
2.731905691325664520e-02
-1.663435548543930054e-01
-2.718598023056983948e-02
1.014446988701820374e-01
1.298025250434875488e-01
1.028691977262496948e-01
3.246322572231292725e-01
-2.148526310920715332e-01
-1.838565766811370850e-01
2.196356281638145447e-02
1.144765764474868774e-01
-9.601325541734695435e-02
-2.372807264328002930e-01
-3.009571507573127747e-02
-2.567365467548370361e-01
9.720050543546676636e-02
-1.796185374259948730e-01
-5.098547935485839844e-01
7.152896374464035034e-03
4.483312740921974182e-02
-2.487239986658096313e-01
-3.510300219058990479e-01
-5.857798457145690918e-02
-1.145857386291027069e-02
-1.040067002177238464e-01
2.114281989634037018e-03
1.126459054648876190e-02
-1.221384629607200623e-01
-1.058890670537948608e-01
5.620379373431205750e-02
2.620518207550048828e-01
-2.917349934577941895e-01
-4.448077976703643799e-01
-6.271322965621948242e-01
-1.664068102836608887e-01
-3.036074526607990265e-02
2.032591551542282104e-01
-9.720479696989059448e-02
1.169089004397392273e-01
2.601342201232910156e-01
9.374755620956420898e-02
7.281773537397384644e-02
-2.836578059941530228e-04
-1.144545245915651321e-02
7.266055326908826828e-03
-8.708430081605911255e-02
-9.551873803138732910e-02
-1.342030912637710571e-01
-3.807704895734786987e-02
4.125822708010673523e-02
8.382628858089447021e-02
1.279044449329376221e-01
1.348654031753540039e-01
-2.205927111208438873e-02
-1.505068391561508179e-01
-1.253869533538818359e-01
-1.545157879590988159e-01
-2.357357144355773926e-01
-6.274990737438201904e-02
-6.942383944988250732e-02
-1.641010195016860962e-01
-8.284402079880237579e-03
7.173188775777816772e-02
1.001473143696784973e-01
-1.651151180267333984e-01
-5.137028172612190247e-02
4.755266383290290833e-02
-5.613081902265548706e-02
3.401209786534309387e-02
-1.651858165860176086e-02
4.523747041821479797e-02
8.321468532085418701e-02
-2.022724747657775879e-01
-1.110583767294883728e-01
3.309169039130210876e-02
-2.297470346093177795e-02
-3.276646509766578674e-02
-1.771791279315948486e-01
2.053310722112655640e-01
-3.431658819317817688e-02
-1.478769779205322266e-01
-2.684631645679473877e-01
1.172658242285251617e-02
2.339626699686050415e-01
-8.364548906683921814e-03
-8.239468187093734741e-02
8.721566200256347656e-02
8.770728111267089844e-02
9.902415424585342407e-02
-3.861873596906661987e-02
-7.356461882591247559e-02
-6.407155841588973999e-02
-4.250966757535934448e-02
1.109154545702040195e-03
-2.693950198590755463e-02
-1.090902164578437805e-01
-1.069464683532714844e-01
-9.237145632505416870e-02
2.084571309387683868e-02
-5.708625912666320801e-01
-4.318937659263610840e-02
2.113696634769439697e-01
1.988866329193115234e-01
-5.743651092052459717e-02
8.380657061934471130e-03
-2.522637248039245605e-01
-1.493906676769256592e-01
-2.026041969656944275e-03
-6.718838959932327271e-02
-2.016111910343170166e-01
-2.409792132675647736e-02
-1.333878841251134872e-02
-4.180105030536651611e-01
-2.103651687502861023e-02
8.677943795919418335e-02
-4.499087482690811157e-02
1.994048655033111572e-01
-9.800610691308975220e-02
8.014722913503646851e-02
7.927994430065155029e-02
-1.339800059795379639e-01
9.962012618780136108e-02
1.631710827350616455e-01
-4.148821160197257996e-02
6.832997500896453857e-02
-3.701297193765640259e-02
-1.624176055192947388e-01
2.499479055404663086e-02
-2.308564633131027222e-01
4.520392790436744690e-02
1.179044321179389954e-01
1.518201548606157303e-02
-1.248958334326744080e-01
6.187742948532104492e-02
-4.276328906416893005e-02
-1.828748732805252075e-01
-3.216335922479629517e-02
-3.090475797653198242e-01
-3.943573310971260071e-02
-1.423774361610412598e-01
-8.313715457916259766e-02
4.895627498626708984e-03
-1.007735878229141235e-01
5.147749185562133789e-02
-2.336913347244262695e-02
-2.934600412845611572e-02
6.661840528249740601e-02
-3.209201619029045105e-02
8.960853517055511475e-02
-4.814580380916595459e-01
-7.291155308485031128e-02
1.010116264224052429e-01
6.294305622577667236e-02
1.174000203609466553e-01
-4.453327953815460205e-01
1.758035086095333099e-02
2.209280617535114288e-02
1.218435913324356079e-01
8.120537549257278442e-02
-8.737335354089736938e-02
9.257880598306655884e-02
-5.634950846433639526e-02
-8.223602920770645142e-02
1.691866293549537659e-02
-1.973204612731933594e-01
3.007191047072410583e-02
-4.685937762260437012e-01
-5.352053791284561157e-02
3.350042924284934998e-02
2.790260501205921173e-02
6.400888320058584213e-03
-8.258019387722015381e-02
1.712097823619842529e-01
5.370450019836425781e-02
-2.871263325214385986e-01
6.306201964616775513e-02
1.920804083347320557e-01
-2.354568839073181152e-01
-3.792272508144378662e-02
2.364564314484596252e-02
-1.279206126928329468e-01
-9.949559718370437622e-02
3.905963525176048279e-02
-6.268922239542007446e-02
-3.348960578441619873e-01
6.124457810074090958e-03
3.057976812124252319e-02
-2.760072797536849976e-02
6.062209978699684143e-02
-1.619789153337478638e-01
7.076855003833770752e-02
6.412122398614883423e-02
-4.500655531883239746e-01
-4.726069569587707520e-01
-3.829824924468994141e-02
1.144301667809486389e-01
-4.043309763073921204e-02
-3.263225033879280090e-02
-9.154959768056869507e-02
4.721165448427200317e-02
5.533240735530853271e-02
-3.116758763790130615e-01
6.007423251867294312e-02
-3.953408002853393555e-01
-5.603673681616783142e-02
-3.756826519966125488e-01
1.247506141662597656e-01
3.384066000580787659e-02
-1.536916047334671021e-01
2.090115547180175781e-01
-3.848719596862792969e-02
-2.610308229923248291e-01
-1.612394750118255615e-01
1.406295299530029297e-01
-2.695419192314147949e-01
6.584330461919307709e-03
-6.257140636444091797e-02
6.506343372166156769e-03
1.068524494767189026e-01
-1.538742184638977051e-01
9.233326651155948639e-03
-1.258510053157806396e-01
-9.753059595823287964e-02
-2.601894177496433258e-02
-3.486714363098144531e-01
6.548611074686050415e-02
-6.037740111351013184e-01
-3.361128568649291992e-01
2.151543051004409790e-01
-1.202048733830451965e-01
-1.912599056959152222e-01
1.086685135960578918e-01
-3.469034433364868164e-01
1.244203448295593262e-01
-3.909993171691894531e-02
-1.603503376245498657e-01
1.511632800102233887e-01
-4.757437855005264282e-02
-2.161802202463150024e-01
-7.520887255668640137e-02
2.903329674154520035e-03
1.490823328495025635e-01
6.866263598203659058e-02
-2.554093599319458008e-01
1.564576923847198486e-01
-5.210401117801666260e-02
-4.229587018489837646e-01
-5.244015157222747803e-02
-2.134433090686798096e-01
1.038150638341903687e-01
-7.903743535280227661e-02
-1.082615405321121216e-01
4.224769398570060730e-02
2.350479215383529663e-01
-4.382488429546356201e-01
3.328022360801696777e-02
-7.980486750602722168e-02
1.112412065267562866e-01
2.657370083034038544e-02
-3.969261795282363892e-02
5.391913652420043945e-02
-1.592911928892135620e-01
-8.463072031736373901e-02
1.690037846565246582e-01
9.906557202339172363e-02
7.167692482471466064e-02
1.812634803354740143e-02
1.900006271898746490e-02
9.753549844026565552e-02
-1.484270989894866943e-01
-1.100330725312232971e-01
5.263565108180046082e-02
-1.798336654901504517e-01
-7.161086052656173706e-02
-9.135855734348297119e-02
-2.891195416450500488e-01
-9.219341725111007690e-02
-7.023530779406428337e-04
-3.473235666751861572e-01
-1.124437898397445679e-01
4.010792449116706848e-02
-2.613692879676818848e-01
-1.011175364255905151e-01
-2.636007368564605713e-01
-4.388786107301712036e-02
-2.689316123723983765e-02
-2.920858263969421387e-01
2.551166340708732605e-02
-5.378223955631256104e-02
-9.767188131809234619e-02
1.763920187950134277e-01
5.093957111239433289e-02
-3.366980552673339844e-01
-6.879197806119918823e-02
-4.582362249493598938e-02
-2.720029652118682861e-01
4.107768461108207703e-02
1.140922084450721741e-01
-5.517708659172058105e-01
-2.563180327415466309e-01
1.988860405981540680e-02
1.304696965962648392e-02
4.083703458309173584e-02
1.049981787800788879e-01
1.007591485977172852e-01
-1.946179866790771484e-01
-6.868804991245269775e-02
5.765732005238533020e-02
-3.418260812759399414e-01
-1.492738127708435059e-01
-1.899398118257522583e-02
-9.521789848804473877e-03
-1.055113002657890320e-01
-4.599482193589210510e-02
1.271434687077999115e-02
-4.558162763714790344e-02
1.680056937038898468e-02
6.887835264205932617e-02
5.185552313923835754e-02
1.210165619850158691e-01
-2.276174426078796387e-01
4.260265082120895386e-02
1.951659023761749268e-01
-2.762219011783599854e-01
1.407959163188934326e-01
1.599335819482803345e-01
-3.001867234706878662e-01
-6.600153446197509766e-02
-4.522291943430900574e-02
-4.575056955218315125e-03
5.719804763793945312e-02
-4.991084709763526917e-02
4.455908015370368958e-02
-4.756147041916847229e-02
-5.457832664251327515e-02
5.061299353837966919e-02
-6.387553364038467407e-02
1.593665033578872681e-01
-1.792329363524913788e-02
-1.893753185868263245e-03
3.781769052147865295e-02
5.017586052417755127e-02
-1.653108932077884674e-02
8.388140797615051270e-02
3.449042886495590210e-02
-1.089459732174873352e-01
-3.477485775947570801e-01
-9.778559207916259766e-02
5.980765447020530701e-02
-3.266019225120544434e-01
5.859974399209022522e-02
6.533483415842056274e-02
-2.402529418468475342e-01
-4.589813761413097382e-03
1.276591718196868896e-01
-9.736783802509307861e-02
-4.624787718057632446e-02
3.276263549923896790e-02
-1.627959012985229492e-01
1.319029927253723145e-01
-7.154951244592666626e-02
-5.984997376799583435e-02
1.306361258029937744e-01
-4.682451114058494568e-02
1.405147183686494827e-02
-4.052243530750274658e-01
-1.895943731069564819e-01
-6.764684338122606277e-03
-3.432542383670806885e-01
1.076890900731086731e-02
-9.639823436737060547e-02
-1.705612242221832275e-02
-3.128658533096313477e-01
-1.476697325706481934e-01
1.283297389745712280e-01
1.067206710577011108e-01
-1.813556551933288574e-01
5.056512728333473206e-02
5.546274781227111816e-02
-2.353789061307907104e-01
-5.273723229765892029e-02
4.408734675962477922e-04
1.132102590054273605e-02
-1.053791940212249756e-01
-2.341725677251815796e-01
7.738196849822998047e-02
-3.066861629486083984e-02
-1.788379438221454620e-02
1.689654439687728882e-01
-4.340529069304466248e-02
-4.585279524326324463e-01
-3.181146085262298584e-01
-3.933182731270790100e-02
2.251548469066619873e-01
-3.130543231964111328e-01
2.108944766223430634e-02
1.912847906351089478e-02
-2.786296308040618896e-01
-1.309297680854797363e-01
-1.511402428150177002e-01
8.478514105081558228e-02
-1.419349759817123413e-02
-1.743918955326080322e-01
5.678419955074787140e-03
1.724264323711395264e-01
1.177302077412605286e-01
-2.147768586874008179e-01
3.086002543568611145e-03
5.488706380128860474e-02
-1.598546355962753296e-01
-3.620475232601165771e-01
-6.081607937812805176e-02
2.751226164400577545e-02
-3.256249725818634033e-01
2.176078967750072479e-03
2.435710281133651733e-02
-1.857366412878036499e-01
-1.551102548837661743e-01
-1.267625093460083008e-01
-4.755224585533142090e-01
-2.103287540376186371e-02
3.536424785852432251e-02
-6.097741052508354187e-02
-1.873256266117095947e-01
1.720721572637557983e-01
1.779228635132312775e-02
-1.188073605298995972e-01
6.411264091730117798e-02
2.136751264333724976e-02
-2.016267180442810059e-01
-8.605655282735824585e-03
1.467605084180831909e-01
1.434412747621536255e-01
-3.002424836158752441e-01
-6.067531183362007141e-02
1.371717453002929688e-01
-8.547200262546539307e-02
9.562505036592483521e-02
2.783302068710327148e-01
-1.363668497651815414e-02
-2.601732313632965088e-01
-3.255112469196319580e-02
1.125764846801757812e-01
-7.238396257162094116e-02
9.759878739714622498e-03
-2.069947272539138794e-01
-4.504018127918243408e-01
-4.221107810735702515e-02
6.002975627779960632e-02
-6.272901296615600586e-01
-1.898036152124404907e-01
1.770245283842086792e-01
9.814805351197719574e-03
-2.266081422567367554e-01
9.280183166265487671e-02
-4.766764119267463684e-02
-3.677670955657958984e-01
3.235917165875434875e-02
2.060091346502304077e-01
-2.124491147696971893e-02
7.065528631210327148e-02
4.046834632754325867e-02
1.031342744827270508e-01
-3.619854450225830078e-01
-6.860257126390933990e-03
1.136813759803771973e-01
-2.486003786325454712e-01
6.701691448688507080e-02
7.279116660356521606e-03
-2.151658684015274048e-01
-8.678151667118072510e-02
-1.098254472017288208e-01
-5.173442885279655457e-02
8.700128644704818726e-03
1.435868591070175171e-01
-1.120352596044540405e-01
-2.155998647212982178e-01
7.831855863332748413e-02
5.917996168136596680e-02
-3.278855979442596436e-02
-1.170134693384170532e-01
2.366863563656806946e-02
6.997997313737869263e-02
9.688957035541534424e-02
-4.120701178908348083e-02
-2.525343000888824463e-01
1.458845138549804688e-01
8.444220572710037231e-02
-1.763342879712581635e-02
-1.015920192003250122e-01
-6.113908067345619202e-02
-2.480126172304153442e-02
4.042431712150573730e-03
-3.099890947341918945e-01
8.564240485429763794e-02
1.113269850611686707e-01
-3.441515862941741943e-01
-1.355998814105987549e-01
2.188251167535781860e-02
1.559065133333206177e-01
3.210770338773727417e-02
-1.957679241895675659e-01
4.830487817525863647e-02
8.128154277801513672e-02
4.381196573376655579e-03
-1.386922597885131836e-01
9.420246630907058716e-02
2.005796134471893311e-01
8.438275009393692017e-02
-2.921839058399200439e-01
1.605453342199325562e-01
-1.822840049862861633e-02
1.715037412941455841e-02
-4.945588856935501099e-02
5.557533726096153259e-02
7.371369749307632446e-03
-3.625418245792388916e-02
1.762479357421398163e-02
1.504964381456375122e-01
-8.505856967531144619e-04
-1.893426775932312012e-01
-3.984881564974784851e-02
1.251188218593597412e-01
-2.418164610862731934e-01
-4.316596314311027527e-02
7.812359184026718140e-02
3.050235100090503693e-02
-1.123691871762275696e-01
-1.939155310392379761e-01
3.214117139577865601e-02
9.610156714916229248e-02
-3.928292170166969299e-02
9.041925892233848572e-03
9.368875622749328613e-02
5.101118236780166626e-02
-6.696450989693403244e-03
5.760043486952781677e-02
-1.737807393074035645e-01
1.046650558710098267e-01
-1.261657625436782837e-01
-6.125489622354507446e-02
-1.731616109609603882e-01
-2.683854699134826660e-01
-1.066875755786895752e-01
-3.797858580946922302e-02
-9.830584377050399780e-02
7.055737823247909546e-02
-4.366030395030975342e-01
2.174601405858993530e-01
5.949693545699119568e-02
-1.320910919457674026e-02
8.462327718734741211e-02
-2.433714084327220917e-02
-1.207324024289846420e-02
6.801541149616241455e-02
-6.904612760990858078e-03
7.123675942420959473e-02
3.392558172345161438e-02
-2.478396147489547729e-01
-4.350114613771438599e-02
-1.637528985738754272e-01
-4.446795880794525146e-01
-7.305686175823211670e-02
-5.620614811778068542e-02
-6.133304536342620850e-02
1.257708519697189331e-01
-3.244109451770782471e-03
-1.308934092521667480e-01
3.866946697235107422e-02
-2.063205391168594360e-01
-3.698744475841522217e-01
1.190718933939933777e-01
-3.067514896392822266e-01
8.524388819932937622e-02
-1.902405768632888794e-01
7.524881046265363693e-03
1.064079627394676208e-01
-2.097552269697189331e-01
1.199655118398368359e-03
3.582853823900222778e-02
1.121915951371192932e-01
-2.501890957355499268e-01
-2.633908987045288086e-01
1.974982768297195435e-01
-3.423018455505371094e-01
-3.416828811168670654e-02
-5.867597460746765137e-02
-3.635961115360260010e-01
8.601029962301254272e-02
2.052960731089115143e-02
1.466799080371856689e-01
1.860117614269256592e-01
6.864206492900848389e-02
2.762269228696823120e-02
-1.795720756053924561e-01
-2.164722606539726257e-02
-1.377404034137725830e-01
-1.983839124441146851e-01
-3.044162318110466003e-02
-2.603849768638610840e-01
-1.322435289621353149e-01
-3.764812648296356201e-01
1.411857008934020996e-01
1.928416453301906586e-02
3.931792080402374268e-02
8.138278871774673462e-02
-3.765924274921417236e-02
9.537208080291748047e-02
8.644507825374603271e-02
-1.014029458165168762e-01
1.262299567461013794e-01
-2.065465785562992096e-02
-2.464288026094436646e-01
-4.411890357732772827e-02
-3.807660937309265137e-01
-3.947227597236633301e-01
-3.022226989269256592e-01
-7.756318897008895874e-02
1.473127305507659912e-01
-3.342779278755187988e-01
-2.510943450033664703e-02
1.255116164684295654e-01
-1.482943538576364517e-02
8.670633286237716675e-02
-6.768625229597091675e-02
-2.366165518760681152e-01
-1.752770990133285522e-01
1.017422452569007874e-01
-1.941619664430618286e-01
5.274626612663269043e-02
9.734377264976501465e-02
1.535698957741260529e-02
5.236244201660156250e-02
-8.723108470439910889e-02
1.096430569887161255e-01
-2.885364294052124023e-01
-2.590565085411071777e-01
2.317647635936737061e-02
-3.188623189926147461e-01
5.507078487426042557e-03
-5.745480060577392578e-01
1.162733882665634155e-01
1.410887092351913452e-01
5.026930943131446838e-03
-2.826886773109436035e-01
-5.024357233196496964e-05
5.507529526948928833e-02
-3.795729484409093857e-03
1.913249045610427856e-01
-2.797754406929016113e-01
6.384384632110595703e-02
-4.172942414879798889e-02
1.297964481636881828e-03
-1.767516583204269409e-01
-2.715699076652526855e-01
1.796888560056686401e-01
-9.729135781526565552e-02
-1.588015258312225342e-01
6.841180473566055298e-02
-4.233503043651580811e-01
-2.534948661923408508e-02
8.923676609992980957e-02
-2.496583163738250732e-01
3.127880766987800598e-02
-2.952360920608043671e-02
-2.590947151184082031e-01
6.605505943298339844e-02
-4.014573693275451660e-01
1.177644804120063782e-01
5.907632783055305481e-02
-2.038773149251937866e-01
-1.112843975424766541e-01
-6.406577676534652710e-02
-2.300948351621627808e-01
3.062379732728004456e-02
-1.457077823579311371e-02
1.778408735990524292e-01
1.185810789465904236e-01
-1.195549070835113525e-01
-2.075559496879577637e-01
-6.748305261135101318e-02
-2.540744096040725708e-02
2.255055010318756104e-01
2.304827123880386353e-01
7.344610244035720825e-02
-1.803937256336212158e-01
-2.189407311379909515e-02
6.289479136466979980e-02
-1.085013821721076965e-01
6.958586722612380981e-02
1.459295004606246948e-01
-3.210459053516387939e-01
-2.566407620906829834e-01
-1.945970803499221802e-01
-5.348604917526245117e-02
1.627526581287384033e-01
4.099860414862632751e-02
7.235606666654348373e-03
-5.475227162241935730e-02
-5.458059534430503845e-02
4.609057679772377014e-02
-1.413889508694410324e-02
4.609635099768638611e-02
8.000948280096054077e-02
-1.259621512144804001e-02
2.367113530635833740e-02
1.063641905784606934e-02
-7.520169019699096680e-02
8.907601982355117798e-02
5.245116725564002991e-02
1.299692094326019287e-01
1.069747060537338257e-01
1.234813407063484192e-02
-5.003777146339416504e-02
-2.029556781053543091e-01
-3.228979185223579407e-02
4.272127896547317505e-02
6.956012547016143799e-02
-3.389302194118499756e-01
-1.447259485721588135e-01
-2.487877607345581055e-01
-3.917338326573371887e-02
1.179855540394783020e-01
1.524154394865036011e-01
1.531111076474189758e-02
-1.102039963006973267e-02
1.201766207814216614e-01
-2.287615090608596802e-01
-4.163355752825737000e-02
2.333976775407791138e-01
-1.928362250328063965e-01
-2.581743896007537842e-01
-3.118760585784912109e-01
1.032085120677947998e-01
-1.238985918462276459e-02
-2.247503586113452911e-02
-6.080397590994834900e-02
-7.253839820623397827e-02
-5.242045968770980835e-02
2.651900611817836761e-02
8.004993945360183716e-02
9.503302723169326782e-02
1.472706645727157593e-01
1.387091726064682007e-01
3.795954957604408264e-02
-1.775439828634262085e-01
9.506773203611373901e-03
-1.289918124675750732e-01
-4.754030331969261169e-02
-3.793336078524589539e-02
9.198279678821563721e-02
7.522776722908020020e-03
-1.449408531188964844e-01
-2.171450853347778320e-01
8.523707278072834015e-03
-5.610200110822916031e-03
3.990035131573677063e-02
-5.846371501684188843e-02
1.813642121851444244e-02
6.049217656254768372e-02
-1.711743474006652832e-01
-3.221489861607551575e-02
4.562156647443771362e-02
-6.779752671718597412e-02
-3.854190707206726074e-01
-2.285201549530029297e-01
7.511956244707107544e-02
1.525079160928726196e-01
8.201783150434494019e-02
-1.088254526257514954e-01
-1.076489221304655075e-03
2.225377410650253296e-01
-1.042042598128318787e-01
-3.100971877574920654e-01
-3.189106881618499756e-01
9.080951660871505737e-02
-1.239956915378570557e-02
6.691861152648925781e-02
-2.027036845684051514e-01
1.243896968662738800e-02
1.308426074683666229e-02
-1.414877921342849731e-01
-2.359953820705413818e-01
-2.319665104150772095e-01
5.908572301268577576e-02
3.891833499073982239e-02
8.326568454504013062e-02
6.934005767107009888e-02
1.126376017928123474e-01
1.725137829780578613e-01
-1.755741536617279053e-01
-4.008490964770317078e-02
-1.489182561635971069e-01
1.383521407842636108e-02
3.211294114589691162e-02
-5.150720849633216858e-02
1.486748158931732178e-01
-1.226011961698532104e-01
-1.550521422177553177e-02
-3.112938068807125092e-02
6.770438700914382935e-02
7.363750785589218140e-02
-1.733535975217819214e-01
-1.328648328781127930e-01
-3.487581014633178711e-01
-1.944098472595214844e-01
1.230746135115623474e-02
1.908581554889678955e-01
-2.300049960613250732e-01
-2.223465740680694580e-01
-2.432102262973785400e-01
1.396156400442123413e-01
-3.078893944621086121e-02
8.084391057491302490e-02
2.437513470649719238e-01
-3.108582831919193268e-02
1.337047368288040161e-01
-1.028458923101425171e-01
5.400567874312400818e-02
-1.042343452572822571e-01
-8.933890610933303833e-02
-1.040704995393753052e-01
-5.795824527740478516e-02
1.071981042623519897e-01
1.543915420770645142e-01
1.035215705633163452e-02
-4.686012119054794312e-02
1.799837648868560791e-01
-2.734637856483459473e-01
2.003718018531799316e-01
-5.851625651121139526e-02
-4.074296951293945312e-01
3.304287418723106384e-02
-5.540167912840843201e-02
2.815144136548042297e-02
9.513356536626815796e-02
6.932625174522399902e-02
-5.026948824524879456e-02
-2.271855324506759644e-01
-1.593455374240875244e-01
4.895674437284469604e-02
-1.138772740960121155e-01
2.677317522466182709e-02
6.027299910783767700e-02
-6.529287248849868774e-02
-3.092618584632873535e-01
-6.490021198987960815e-02
1.025032177567481995e-01
1.479012668132781982e-01
1.923738745972514153e-04
-2.045350223779678345e-01
-2.771674692630767822e-01
-2.696772813796997070e-01
1.047637313604354858e-01
4.241744056344032288e-02
2.293212525546550751e-02
8.869414776563644409e-02
9.339251369237899780e-02
-6.660152692347764969e-03
1.093612387776374817e-01
7.556873559951782227e-02
-4.078387469053268433e-02
6.773985922336578369e-02
3.100269101560115814e-02
3.812437504529953003e-02
-2.456339150667190552e-01
-1.891452521085739136e-01
-1.656793206930160522e-01
-1.406046445481479168e-03
-1.648088395595550537e-01
-4.101518094539642334e-01
3.697835281491279602e-02
-1.953003183007240295e-02
1.706644706428050995e-02
-2.436475642025470734e-02
6.782846152782440186e-02
8.176324516534805298e-02
-3.791381046175956726e-02
1.160905957221984863e-01
7.961434125900268555e-02
1.951977610588073730e-02
-1.582000851631164551e-01
-6.961413472890853882e-02
7.488578557968139648e-02
-4.462829977273941040e-02
2.661559358239173889e-02
-9.120079874992370605e-02
-5.073709413409233093e-02
-1.501181870698928833e-01
9.311946481466293335e-02
2.206806838512420654e-02
1.926346868276596069e-02
-1.199807506054639816e-02
-1.417212281376123428e-02
-8.582409471273422241e-02
1.203489005565643311e-01
7.067517936229705811e-02
-3.491125255823135376e-02
1.848578639328479767e-02
9.934107959270477295e-02
-2.765929102897644043e-01
6.590612977743148804e-02
3.789026988670229912e-03
-1.783939898014068604e-01
9.030264802277088165e-03
3.090249747037887573e-02
1.504201740026473999e-01
-1.120837330818176270e-01
-1.978975534439086914e-02
-1.034779474139213562e-01
-3.982813358306884766e-01
-3.780673146247863770e-01
1.287059187889099121e-01
-4.682573024183511734e-03
-7.832895219326019287e-02
2.012803256511688232e-01
1.681469293544068933e-04
7.646568864583969116e-02
5.525433272123336792e-02
-4.399383068084716797e-01
-3.349790871143341064e-01
1.450811047106981277e-02
1.174119338393211365e-01
1.174956932663917542e-01
8.853301405906677246e-02
-4.594350978732109070e-02
2.762610651552677155e-02
-1.521846372634172440e-02
-2.447295784950256348e-01
-4.586375355720520020e-01
-3.151611685752868652e-01
-3.021179698407649994e-02
-1.515917629003524780e-01
-1.180720478296279907e-01
6.520898640155792236e-02
-8.064031600952148438e-03
1.445637792348861694e-01
1.606152579188346863e-02
-2.178592979907989502e-02
-5.709395557641983032e-02
-5.919354408979415894e-02
-6.591679900884628296e-02
-3.495885729789733887e-01
1.655971556901931763e-01
4.694062098860740662e-02
-1.122533343732357025e-02
-1.076130568981170654e-01
7.500590384006500244e-02
-5.448810011148452759e-02
-1.108965091407299042e-02
-7.225581258535385132e-02
-1.071636527776718140e-01
-2.489380724728107452e-02
1.293313205242156982e-01
1.877277642488479614e-01
-1.543025374412536621e-01
-1.774114072322845459e-01
-1.131749153137207031e-01
-5.532965064048767090e-03
-2.842979431152343750e-01
-2.673783898353576660e-01
6.115657091140747070e-02
1.199215371161699295e-02
-1.335841044783592224e-02
1.172396093606948853e-01
2.743705548346042633e-02
5.715762823820114136e-02
-3.450533151626586914e-01
4.922661185264587402e-02
1.880519092082977295e-01
-3.193795680999755859e-01
1.951222307980060577e-02
2.276735939085483551e-02
2.151208668947219849e-01
-4.685694724321365356e-02
-1.284916549921035767e-01
3.221109136939048767e-02
1.223251819610595703e-01
-2.720218896865844727e-01
-5.086770281195640564e-02
1.124594137072563171e-01
-3.236261904239654541e-01
-1.044475212693214417e-01
4.844992607831954956e-02
-1.870301067829132080e-01
-8.808519691228866577e-02
-1.351452469825744629e-01
2.034113556146621704e-01
1.036667823791503906e-01
-4.828519225120544434e-01
1.121042743325233459e-01
2.728818170726299286e-02
-1.121480986475944519e-01
7.378578931093215942e-02
-1.271081417798995972e-01
-1.055132225155830383e-01
2.629623003304004669e-02
6.896594166755676270e-02
-1.993136405944824219e-01
-4.182152450084686279e-02
2.663902044296264648e-01
2.879690937697887421e-02
-1.343470960855484009e-01
-2.561623603105545044e-02
9.096428006887435913e-02
-8.533940464258193970e-02
-9.474985301494598389e-02
1.317613422870635986e-01
-3.207848593592643738e-02
-9.622288495302200317e-02
4.332204163074493408e-02
-1.151165738701820374e-01
6.502881646156311035e-02
-1.105672866106033325e-02
-4.470761865377426147e-02
-2.080410718917846680e-01
7.976541668176651001e-02
8.133244514465332031e-02
-1.296728998422622681e-01
1.296544075012207031e-01
8.843702822923660278e-02
-8.683364838361740112e-02
-1.132909208536148071e-01
1.172791793942451477e-01
1.692684888839721680e-01
-2.941782772541046143e-01
1.100365668535232544e-01
-8.991868235170841217e-03
-1.337080076336860657e-02
1.509924679994583130e-01
-9.822239167988300323e-03
2.632967755198478699e-02
-4.423213601112365723e-01
1.052441522479057312e-01
1.465822756290435791e-01
-5.676864385604858398e-01
-2.985496819019317627e-02
-6.042965222150087357e-03
-4.707075655460357666e-01
-2.280666232109069824e-01
-2.914200350642204285e-02
1.261148899793624878e-01
-2.490930110216140747e-01
-2.778767794370651245e-02
1.395314633846282959e-01
1.247926875948905945e-01
-1.423137485980987549e-01
2.852653851732611656e-03
-2.483063004910945892e-02
-1.177767515182495117e-01
-2.753647863864898682e-01
6.132128834724426270e-02
2.874599955976009369e-02
-3.890887498855590820e-01
1.012861952185630798e-01
8.878806233406066895e-02
-3.574395775794982910e-01
-2.067825384438037872e-02
-2.358627766370773315e-01
-3.682923913002014160e-01
4.629297554492950439e-02
2.675091149285435677e-03
-3.235814273357391357e-01
2.899221181869506836e-01
-3.155203908681869507e-02
-4.407360255718231201e-01
-1.591508090496063232e-01
4.688333719968795776e-02
-5.327370762825012207e-02
-3.359415233135223389e-01
1.963550150394439697e-01
2.988916821777820587e-02
-1.333896815776824951e-01
1.441978570073843002e-02
-3.647853061556816101e-02
7.545776665210723877e-02
3.452304750680923462e-03
-2.390065342187881470e-01
-9.928554296493530273e-02
2.059055119752883911e-01
-2.533713877201080322e-01
-1.633588671684265137e-01
1.276928335428237915e-01
-7.483434677124023438e-02
9.638647735118865967e-02
-3.974190950393676758e-01
-2.249435782432556152e-01
1.739928871393203735e-01
-7.294377684593200684e-02
-2.524262070655822754e-01
4.937253519892692566e-02
2.102171927690505981e-01
-2.480156272649765015e-01
2.227181382477283478e-02
-5.138816311955451965e-02
-1.606389284133911133e-01
-3.098105490207672119e-01
1.780800372362136841e-01
-3.794582188129425049e-02
-8.700324594974517822e-02
1.189756244421005249e-01
-1.663352176547050476e-02
2.575238794088363647e-02
1.242967508733272552e-02
-5.387340188026428223e-01
1.834667772054672241e-01
-7.590231299400329590e-02
-7.233471274375915527e-01
-5.092931166291236877e-02
-9.551215171813964844e-02
-4.290308654308319092e-01
-1.449760198593139648e-01
2.429714500904083252e-01
9.649376571178436279e-02
-1.908356100320816040e-01
-2.184257470071315765e-02
2.647846341133117676e-01
-1.740320324897766113e-01
-3.422180935740470886e-02
7.196825742721557617e-02
-4.490303099155426025e-01
-2.874803841114044189e-01
-2.363850027322769165e-01
-7.019241154193878174e-02
9.386460483074188232e-02
-1.168497577309608459e-01
-2.304052375257015228e-02
6.986071914434432983e-02
2.364977747201919556e-01
5.681434273719787598e-02
3.704556077718734741e-02
-8.256207406520843506e-02
4.970817640423774719e-02
