# (32, 1568)
-5.153558775782585144e-02
-5.291305109858512878e-02
2.568713016808032990e-02
-2.451965026557445526e-02
-1.493846718221902847e-02
-1.120639666914939880e-01
-7.834015786647796631e-02
-9.552074968814849854e-02
-8.391713351011276245e-02
-1.165021583437919617e-01
-1.260092705488204956e-01
-1.254882514476776123e-01
-7.664976269006729126e-02
-3.128315880894660950e-02
-6.478381901979446411e-02
-4.656364768743515015e-02
-1.458147168159484863e-01
-1.261868476867675781e-01
-4.214920476078987122e-02
-6.706090271472930908e-02
1.232928875833749771e-02
-5.651284381747245789e-02
-1.125278547406196594e-01
-9.750704467296600342e-02
9.099680464714765549e-04
-1.028990671038627625e-01
-1.681571304798126221e-01
-6.553973257541656494e-02
-5.638692900538444519e-02
-1.577763110399246216e-01
-1.300127655267715454e-01
-4.327215999364852905e-02
-5.366273690015077591e-04
-1.267201453447341919e-01
-8.768553286790847778e-02
-5.678644776344299316e-02
-8.282196521759033203e-02
-1.561817973852157593e-01
-7.669729739427566528e-02
4.298054799437522888e-02
1.017058268189430237e-01
-7.860735803842544556e-02
-7.047648727893829346e-02
-6.442830711603164673e-02
-6.807061284780502319e-02
-6.734581291675567627e-02
-4.704847186803817749e-02
-6.104566901922225952e-02
-7.344939559698104858e-02
1.270720618776977062e-03
-5.349224060773849487e-02
-4.630576819181442261e-02
6.264431029558181763e-02
5.828083679080009460e-02
-2.573375590145587921e-03
4.610044136643409729e-02
-5.522103980183601379e-02
2.366252476349473000e-03
8.036214858293533325e-02
4.081159830093383789e-02
1.110190302133560181e-01
1.856197267770767212e-01
8.370002359151840210e-02
1.729804463684558868e-02
-5.094696581363677979e-02
-1.233480498194694519e-01
-2.839534776285290718e-03
1.563351154327392578e-01
1.396678239107131958e-01
7.609137892723083496e-02
9.771585464477539062e-02
1.041618175804615021e-02
-1.103853508830070496e-01
1.037490069866180420e-01
2.184876240789890289e-02
-1.353176385164260864e-01
-1.993137039244174957e-02
-3.614335879683494568e-02
-1.361197084188461304e-01
-1.106174942106008530e-02
4.962847009301185608e-02
-3.471401333808898926e-02
-1.676132082939147949e-01
-1.080774366855621338e-01
-5.476930364966392517e-02
-8.792512118816375732e-02
-1.024899724870920181e-02
5.694210156798362732e-02
2.596602961421012878e-02
3.893548389896750450e-03
-5.198366194963455200e-02
-7.947639375925064087e-02
-9.019939601421356201e-02
1.096381712704896927e-02
1.847070455551147461e-02
2.086631581187248230e-02
1.362768411636352539e-01
4.367467388510704041e-02
1.126791536808013916e-01
1.268867105245590210e-01
6.118768081068992615e-02
6.427542865276336670e-02
1.309160739183425903e-01
1.125304102897644043e-01
8.025593310594558716e-02
-1.650021411478519440e-02
-2.969250455498695374e-02
4.797423258423805237e-02
1.181792989373207092e-01
9.211270511150360107e-02
2.340844273567199707e-02
7.521227933466434479e-03
-7.911346852779388428e-02
-1.615764200687408447e-01
2.639777772128582001e-02
1.014278084039688110e-01
3.349919244647026062e-02
3.280742466449737549e-02
-9.107303805649280548e-03
3.007878921926021576e-02
-6.730580329895019531e-02
-9.161330759525299072e-02
6.385652720928192139e-02
1.555551439523696899e-01
5.861952155828475952e-02
-3.745125234127044678e-02
1.895559430122375488e-01
5.717802420258522034e-02
2.437871135771274567e-02
9.511645883321762085e-02
-1.504227891564369202e-02
-2.151610106229782104e-01
-3.830600902438163757e-02
1.593146100640296936e-02
1.468637287616729736e-01
9.583434462547302246e-02
8.312309160828590393e-03
-9.249311685562133789e-02
-1.064836680889129639e-01
-1.090660039335489273e-02
5.205836147069931030e-02
4.879945516586303711e-02
1.204945519566535950e-01
1.070944368839263916e-01
3.686780110001564026e-02
-2.926281467080116272e-02
9.272634983062744141e-02
-1.108258664608001709e-01
1.197979226708412170e-01
8.235492557287216187e-02
6.328241527080535889e-02
6.797260791063308716e-02
4.001891706138849258e-03
-4.975889250636100769e-02
-1.740041933953762054e-02
-4.245442524552345276e-02
-1.226306334137916565e-02
-8.932640403509140015e-02
-1.238121837377548218e-01
-1.579613983631134033e-01
-4.268841817975044250e-02
-1.329570170491933823e-02
-8.228939957916736603e-03
6.822589039802551270e-02
-2.270042710006237030e-02
-1.510572433471679688e-01
-1.167765632271766663e-01
-5.498413369059562683e-02
-1.428343802690505981e-01
-4.860377684235572815e-02
3.272378444671630859e-02
-6.525972485542297363e-02
-1.774365305900573730e-01
-1.198807135224342346e-01
3.120098728686571121e-03
-1.305617541074752808e-01
-7.081873714923858643e-02
-2.768356166779994965e-02
-1.019199788570404053e-01
-1.144098863005638123e-01
-8.813185244798660278e-02
-1.450247764587402344e-01
-8.170061558485031128e-02
-4.507131129503250122e-02
-1.310730632394552231e-02
-5.021865665912628174e-02
5.082846060395240784e-02
-6.915447115898132324e-02
-9.126913547515869141e-02
-1.148147284984588623e-01
-6.474336981773376465e-02
-3.377132862806320190e-02
1.523383054882287979e-02
-5.281763896346092224e-02
-1.101784482598304749e-01
-6.340438127517700195e-02
5.166189745068550110e-02
3.954863175749778748e-02
6.128633394837379456e-02
1.571732759475708008e-02
9.235993027687072754e-02
4.477398097515106201e-02
-1.700413413345813751e-03
-1.067719981074333191e-01
-6.124172732234001160e-02
-1.018417701125144958e-01
-2.269276976585388184e-02
-3.027021326124668121e-02
7.251284550875425339e-03
-3.186919540166854858e-02
1.751193962991237640e-02
-1.738640815019607544e-01
-1.027092337608337402e-01
1.554838940501213074e-02
4.211217164993286133e-02
-7.413882017135620117e-02
-1.328565478324890137e-01
9.264501184225082397e-02
1.085439249873161316e-01
-9.192453324794769287e-02
-8.704363368451595306e-03
1.432793959975242615e-02
7.100773975253105164e-03
-9.064590185880661011e-02
1.184716597199440002e-01
5.231757834553718567e-02
-6.262335926294326782e-02
-4.145427420735359192e-02
9.054452180862426758e-02
4.658868908882141113e-02
-2.858808077871799469e-02
-8.158966153860092163e-02
3.782904893159866333e-02
1.048040017485618591e-02
-6.402602046728134155e-02
7.798578124493360519e-03
3.292544558644294739e-02
7.995271682739257812e-02
-2.102224715054035187e-02
-5.921382457017898560e-02
-1.612424105405807495e-01
-2.159598655998706818e-02
1.034539639949798584e-01
1.865030229091644287e-01
8.401010930538177490e-02
-8.237653225660324097e-02
-7.963337935507297516e-03
-2.052844874560832977e-02
5.460496619343757629e-02
1.434296518564224243e-01
1.743696033954620361e-01
7.334074378013610840e-02
7.571851368993520737e-03
2.264699153602123260e-02
1.490123290568590164e-02
2.476787939667701721e-02
9.725050628185272217e-02
6.188553571701049805e-02
5.814988911151885986e-02
-7.321332115679979324e-03
4.931468144059181213e-02
5.617521237581968307e-03
-2.550430409610271454e-02
1.598352938890457153e-02
1.328116804361343384e-01
3.621679916977882385e-02
-5.742216948419809341e-03
1.302539370954036713e-02
-1.413944922387599945e-02
3.724411129951477051e-02
7.308216392993927002e-02
-1.488507390022277832e-01
-1.764126718044281006e-01
-5.254391580820083618e-02
-3.791868686676025391e-02
7.645687460899353027e-02
-7.475768215954303741e-03
-3.146198391914367676e-02
-3.382645249366760254e-01
-1.088023185729980469e-01
1.988095231354236603e-02
1.236462779343128204e-02
5.885425582528114319e-02
-3.626966616138815880e-03
-6.583207845687866211e-02
-2.078657150268554688e-01
-6.751295179128646851e-02
-6.575664132833480835e-02
2.600012719631195068e-02
1.590660214424133301e-01
1.210658326745033264e-01
1.226804479956626892e-01
4.043034091591835022e-02
5.857393145561218262e-02
-1.020060405135154724e-01
5.993198230862617493e-02
-6.081593781709671021e-02
6.960333883762359619e-02
7.940331846475601196e-02
1.081050336360931396e-01
-1.216906532645225525e-01
-7.073649019002914429e-02
-1.754070632159709930e-02
-4.547182098031044006e-02
-1.955247670412063599e-01
-1.109046712517738342e-01
4.379539191722869873e-02
-1.221672594547271729e-01
-1.772336661815643311e-02
-6.964827887713909149e-03
-3.861277597025036812e-03
-1.758981198072433472e-01
-1.490701436996459961e-01
5.841920524835586548e-02
-6.514599174261093140e-02
-1.201275140047073364e-01
-6.020760536193847656e-02
2.647140994668006897e-03
-1.764123141765594482e-01
-1.672045886516571045e-01
-7.231898605823516846e-02
-1.378501057624816895e-01
-1.048442795872688293e-01
-5.422636121511459351e-02
-7.792990654706954956e-02
-1.024861335754394531e-01
-3.101398795843124390e-02
1.467550732195377350e-02
-7.968914508819580078e-02
-5.723576620221138000e-02
-3.496892005205154419e-02
-1.147202849388122559e-01
-1.531525701284408569e-01
8.417169004678726196e-02
5.065424367785453796e-02
1.412483397871255875e-02
-1.282067596912384033e-01
-1.574917137622833252e-01
-1.425386220216751099e-01
-3.572233021259307861e-02
3.718971461057662964e-02
2.487424388527870178e-02
2.616151981055736542e-02
1.489015221595764160e-01
6.290277093648910522e-02
-5.636789649724960327e-02
1.068456936627626419e-02
9.610730223357677460e-03
5.825480818748474121e-02
5.400813743472099304e-02
1.510714064352214336e-03
-7.558966428041458130e-02
-2.917034924030303955e-02
9.451274573802947998e-02
5.153785273432731628e-02
5.747249349951744080e-03
-6.588163971900939941e-02
4.734560474753379822e-02
-3.850167244672775269e-02
-4.493378475308418274e-02
8.410427719354629517e-02
6.752114742994308472e-02
2.495158836245536804e-02
6.789741106331348419e-03
4.957870393991470337e-02
7.181402295827865601e-03
5.461244843900203705e-03
1.135457772761583328e-02
8.844482898712158203e-02
1.147413849830627441e-01
-9.457278065383434296e-03
1.023166179656982422e-01
1.153610348701477051e-01
1.009797528386116028e-01
2.846721187233924866e-02
-4.762697219848632812e-02
-1.654318571090698242e-01
5.144458636641502380e-02
-3.121746145188808441e-02
4.211057443171739578e-03
1.368357092142105103e-01
1.236319690942764282e-01
-8.258703351020812988e-02
-2.228531092405319214e-01
-4.239666089415550232e-02
3.383720293641090393e-02
4.018591344356536865e-02
6.716679781675338745e-02
8.227505721151828766e-03
-4.197946563363075256e-02
-5.444581061601638794e-02
7.758814096450805664e-02
1.849448382854461670e-01
3.100049681961536407e-02
-7.019197102636098862e-03
-2.505680080503225327e-03
9.992136061191558838e-02
7.313294708728790283e-02
1.336787790060043335e-01
5.726750567555427551e-02
3.499419614672660828e-02
8.060953766107559204e-02
1.420782357454299927e-01
8.732352405786514282e-02
1.173937246203422546e-01
2.031756341457366943e-01
6.814223527908325195e-02
-8.151528984308242798e-02
-1.595101319253444672e-02
5.907077714800834656e-02
1.324338912963867188e-01
2.617261409759521484e-01
1.518332660198211670e-01
1.063075885176658630e-01
2.148922719061374664e-02
-8.886076509952545166e-03
5.481149628758430481e-02
1.744466274976730347e-02
-3.742560744285583496e-02
2.725296095013618469e-02
2.448823302984237671e-02
7.469276338815689087e-02
6.314165890216827393e-02
4.894459992647171021e-02
-8.426944166421890259e-02
-2.639587819576263428e-01
-1.444471627473831177e-01
-5.026401206851005554e-02
-5.363081395626068115e-02
1.197004541754722595e-01
9.828506410121917725e-02
3.567304834723472595e-02
-1.284719854593276978e-01
-5.166950076818466187e-02
9.842082858085632324e-02
4.882863163948059082e-02
3.690252080559730530e-02
3.395916428416967392e-03
1.327673066407442093e-02
2.324855141341686249e-02
1.070038974285125732e-01
-4.947188496589660645e-02
-1.993414759635925293e-02
2.732853777706623077e-02
6.049253046512603760e-02
5.253442563116550446e-03
3.588888049125671387e-02
-5.637980625033378601e-02
-4.831023514270782471e-02
-3.093433799222111702e-03
2.206605486571788788e-02
-7.353015989065170288e-02
-1.447293311357498169e-01
7.283124607056379318e-03
-4.169623553752899170e-02
-4.652636125683784485e-02
-4.960035532712936401e-02
1.054972708225250244e-01
-8.789023756980895996e-02
-5.861448124051094055e-02
4.794728755950927734e-02
-8.433888852596282959e-02
-1.087246537208557129e-01
-1.300350725650787354e-01
-7.081167399883270264e-02
-4.696147516369819641e-02
-6.599481403827667236e-02
-4.861045256257057190e-02
-1.267144829034805298e-01
2.052103169262409210e-02
-3.397079557180404663e-02
-1.216575801372528076e-01
-1.282024681568145752e-01
2.186472527682781219e-02
6.843142211437225342e-02
-4.038449004292488098e-02
-7.529506832361221313e-02
-4.747827351093292236e-02
-1.086177863180637360e-02
-2.626211196184158325e-02
1.025253161787986755e-01
6.305032968521118164e-02
5.001018196344375610e-02
-1.365797966718673706e-01
-8.214961737394332886e-02
-1.759811490774154663e-01
-1.132673211395740509e-02
2.022284455597400665e-02
5.648245289921760559e-02
-1.311511639505624771e-02
4.801539331674575806e-02
5.084744468331336975e-02
6.614986062049865723e-02
3.183101862668991089e-02
1.006634235382080078e-01
5.991794168949127197e-02
6.768584996461868286e-02
3.550327196717262268e-02
-5.651542544364929199e-02
3.494374686852097511e-03
1.457193400710821152e-02
8.072124794125556946e-03
5.690397322177886963e-02
1.442428082227706909e-01
1.849023438990116119e-02
5.506919696927070618e-02
1.165557354688644409e-01
7.644744962453842163e-02
-2.191041782498359680e-02
-1.484069321304559708e-02
-3.754945844411849976e-02
-1.333530545234680176e-01
-3.550428897142410278e-02
4.090523347258567810e-02
5.044235289096832275e-02
3.356947004795074463e-02
-1.458602119237184525e-02
2.748321369290351868e-02
-1.159763778559863567e-03
5.023147910833358765e-02
-4.916096478700637817e-02
1.227074712514877319e-01
5.232088640332221985e-02
-1.020049825310707092e-01
2.758156135678291321e-02
-1.973966322839260101e-02
-8.814330399036407471e-02
3.258369117975234985e-02
5.165486782789230347e-02
-1.131102256476879120e-02
-5.010582134127616882e-02
-2.884973213076591492e-02
3.796421736478805542e-02
4.551870224531739950e-04
1.190275326371192932e-01
8.595874905586242676e-02
4.848692938685417175e-02
6.086885929107666016e-02
2.177496254444122314e-02
-3.845302015542984009e-02
-3.664223244413733482e-03
6.080318614840507507e-02
-8.175022900104522705e-02
-1.707101240754127502e-02
-6.305607408285140991e-02
-3.553805872797966003e-02
-3.630744293332099915e-02
-6.167090497910976410e-03
-9.963779151439666748e-02
-8.249820768833160400e-02
-8.645481616258621216e-02
7.310768961906433105e-02
-5.204537138342857361e-02
-2.869153581559658051e-02
-8.339353650808334351e-02
-4.681270942091941833e-02
-4.037369042634963989e-02
-1.061494722962379456e-01
-7.608334720134735107e-02
9.105848520994186401e-02
1.770143769681453705e-02
1.447333395481109619e-02
1.434254199266433716e-01
-4.393433034420013428e-02
-1.653943210840225220e-01
-9.836499392986297607e-02
6.775359809398651123e-02
-1.142291724681854248e-01
-1.078180316835641861e-02
8.030079305171966553e-02
5.366707220673561096e-02
1.007252931594848633e-01
-5.025250092148780823e-02
-1.510874480009078979e-01
-3.888016566634178162e-02
-1.578657701611518860e-02
5.356575548648834229e-02
7.917203009128570557e-03
-1.193510666489601135e-01
-1.410067230463027954e-01
-2.950141578912734985e-02
-5.467410013079643250e-02
5.238123610615730286e-02
-1.057337503880262375e-02
1.442992221564054489e-02
-1.265160180628299713e-02
-3.330997750163078308e-02
2.714920789003372192e-03
-1.049679443240165710e-01
1.030681133270263672e-01
-1.296328753232955933e-02
6.534722167998552322e-03
1.336076529696583748e-04
7.696737349033355713e-02
7.931813597679138184e-02
-1.111961528658866882e-01
-1.048410460352897644e-01
-1.022684723138809204e-01
-1.742896623909473419e-02
3.566306456923484802e-02
-2.740466780960559845e-02
-3.026320040225982666e-02
-2.780674025416374207e-02
-1.264027599245309830e-02
1.663914322853088379e-02
1.168452724814414978e-01
-9.680993109941482544e-02
-8.352106809616088867e-02
-4.764415696263313293e-02
1.018320173025131226e-01
8.658192306756973267e-02
6.488875299692153931e-02
1.355057060718536377e-01
1.460632234811782837e-01
6.111726909875869751e-02
-6.328871101140975952e-02
1.294170855544507504e-03
3.978062048554420471e-02
-7.245738990604877472e-03
8.023348450660705566e-02
9.522020816802978516e-02
6.826083362102508545e-02
7.732822746038436890e-02
6.098154932260513306e-02
4.117857292294502258e-02
3.453073278069496155e-02
-4.338234663009643555e-02
-1.345265656709671021e-01
-8.606010675430297852e-02
5.829861387610435486e-02
1.400300674140453339e-02
1.430377364158630371e-02
-8.365734480321407318e-03
-1.060593128204345703e-01
1.327993571758270264e-01
2.712742611765861511e-02
1.145339459180831909e-01
2.618329599499702454e-02
2.178489975631237030e-02
-8.084487169981002808e-02
-6.879104673862457275e-02
3.271364420652389526e-02
3.129540476948022842e-03
1.709480211138725281e-02
1.019143834710121155e-01
1.895426656119525433e-03
-2.615165710449218750e-02
2.542480081319808960e-02
6.969947367906570435e-02
-2.133851870894432068e-02
-2.342053502798080444e-02
-1.016523037105798721e-02
-1.148382127285003662e-01
-7.538564503192901611e-02
-3.560846298933029175e-02
1.048568040132522583e-01
2.126177847385406494e-01
8.807229995727539062e-02
9.403941780328750610e-02
-1.468564476817846298e-02
6.994870305061340332e-02
1.122308000922203064e-01
4.961883649230003357e-02
6.160039454698562622e-02
9.581007063388824463e-02
-8.095013350248336792e-02
3.187984228134155273e-02
6.863749027252197266e-02
2.936364151537418365e-02
-2.032491415739059448e-01
-3.027907311916351318e-01
-1.342397034168243408e-01
-8.995851874351501465e-02
1.242023194208741188e-03
1.026054248213768005e-01
3.229934722185134888e-02
-8.456464856863021851e-02
-1.575855612754821777e-01
4.177302867174148560e-02
-2.819607593119144440e-02
6.174286082386970520e-02
5.456196144223213196e-02
-1.903654821217060089e-02
-1.655953563749790192e-02
-4.461257532238960266e-02
5.598775669932365417e-02
2.051912844181060791e-01
8.407918363809585571e-02
8.852008730173110962e-03
4.358337819576263428e-02
1.001147553324699402e-01
1.000159382820129395e-01
8.812671154737472534e-02
-3.650108352303504944e-02
-3.044772334396839142e-02
6.974898278713226318e-02
1.172823458909988403e-01
5.007104203104972839e-02
7.321175932884216309e-02
1.506745666265487671e-01
-2.838996611535549164e-02
7.936404086649417877e-03
6.210465356707572937e-02
4.101669043302536011e-02
1.566057503223419189e-01
1.435705870389938354e-01
2.609355561435222626e-02
1.300108581781387329e-01
7.511272560805082321e-04
-3.795282915234565735e-02
8.543797582387924194e-02
1.649786084890365601e-01
-6.363002955913543701e-02
-9.136048704385757446e-02
4.540259763598442078e-02
-1.714962348341941833e-02
1.166961342096328735e-02
6.797048263251781464e-03
-9.613335132598876953e-02
-2.214412391185760498e-01
-1.298554539680480957e-01
-4.489481076598167419e-02
-8.221293985843658447e-02
9.444361925125122070e-02
4.856279864907264709e-02
3.267106413841247559e-02
-3.989920392632484436e-02
-4.382251761853694916e-03
1.481139101088047028e-02
9.756856411695480347e-02
5.001154914498329163e-02
5.353491753339767456e-02
5.695302411913871765e-02
7.742348313331604004e-02
1.187639608979225159e-01
1.603801734745502472e-02
1.215443313121795654e-01
7.099959999322891235e-02
5.495551601052284241e-02
8.201518654823303223e-02
5.549864470958709717e-02
4.271521419286727905e-02
4.378437250852584839e-02
-8.869737386703491211e-03
-7.687135785818099976e-02
-3.096707537770271301e-02
-1.869758963584899902e-02
-2.596935816109180450e-02
7.148610800504684448e-02
-3.551996499300003052e-02
-3.357848525047302246e-02
4.565890505909919739e-02
8.274132758378982544e-02
-2.598100528120994568e-02
-1.015355139970779419e-01
-2.896663174033164978e-02
-9.522880427539348602e-03
-2.077124640345573425e-02
5.491599068045616150e-02
6.586845964193344116e-02
7.191205024719238281e-02
-3.400045633316040039e-02
-6.128185242414474487e-02
-1.457713097333908081e-01
2.576240338385105133e-02
-4.194624349474906921e-02
4.646493121981620789e-02
4.223877191543579102e-02
5.075442045927047729e-02
2.139633335173130035e-02
-8.360451087355613708e-03
-8.063287287950515747e-02
9.440870583057403564e-02
-1.456678006798028946e-02
-7.546653598546981812e-02
1.201539579778909683e-02
9.320711344480514526e-02
8.639165759086608887e-02
-1.779347658157348633e-03
-9.555502329021692276e-04
1.314914077520370483e-01
1.105447951704263687e-02
8.895237743854522705e-02
7.561051100492477417e-02
-3.929922357201576233e-02
-6.638268381357192993e-02
-9.636944532394409180e-02
-9.499731659889221191e-02
-1.659848690032958984e-01
-1.034103780984878540e-01
-5.547812208533287048e-02
-1.050699725747108459e-01
-1.015181243419647217e-01
-1.288982033729553223e-01
8.644102141261100769e-03
2.351068705320358276e-02
3.566737100481987000e-02
-6.252807378768920898e-02
-7.035624980926513672e-02
-6.853794306516647339e-02
-2.249627560377120972e-01
-1.573283821344375610e-01
8.328083157539367676e-02
-1.479255594313144684e-02
-2.970871143043041229e-02
-5.984181910753250122e-02
-6.250471621751785278e-02
-1.702294945716857910e-01
-8.848625421524047852e-02
-7.008466869592666626e-02
-4.200889170169830322e-02
-5.395095422863960266e-02
-3.182851895689964294e-02
-9.638955444097518921e-02
-9.126976877450942993e-02
-1.078976541757583618e-01
-1.982844769954681396e-01
-1.932606846094131470e-01
-1.112493798136711121e-01
-1.135565787553787231e-01
-1.126617044210433960e-01
-2.677969820797443390e-02
3.784124553203582764e-02
2.738297684118151665e-03
-4.307633265852928162e-02
-5.310759693384170532e-02
-1.031010895967483521e-01
-3.190265968441963196e-02
-1.072790008038282394e-03
2.966205216944217682e-02
-4.628831893205642700e-02
2.095723152160644531e-02
-5.234112218022346497e-02
4.819236323237419128e-02
1.566697806119918823e-01
1.021598130464553833e-01
5.597875639796257019e-02
7.112459838390350342e-02
-1.707133091986179352e-02
-6.261449307203292847e-02
-1.868923380970954895e-02
-2.602567709982395172e-02
-1.021526404656469822e-04
-4.213173408061265945e-03
-1.779311746358871460e-01
-1.720181405544281006e-01
-3.478102013468742371e-02
3.380088508129119873e-02
-3.312279656529426575e-02
7.095706462860107422e-02
7.570569962263107300e-02
-1.037718579173088074e-01
-1.770288050174713135e-01
1.214098185300827026e-02
-1.501316875219345093e-01
-1.372502446174621582e-01
-2.470291778445243835e-02
4.121705144643783569e-02
-1.276401579380035400e-01
-7.855670899152755737e-02
2.568359114229679108e-02
-5.009904876351356506e-02
-4.025124758481979370e-02
-8.020391315221786499e-02
-5.895557999610900879e-02
-8.019570261240005493e-02
-3.016755916178226471e-02
-7.315611839294433594e-02
-9.356697648763656616e-02
-1.161751672625541687e-01
-5.098177865147590637e-02
9.903272241353988647e-02
2.792851999402046204e-02
1.050560325384140015e-01
-7.283390313386917114e-02
-8.652745932340621948e-02
-7.087036222219467163e-02
7.260493189096450806e-02
3.644260391592979431e-02
-5.658319965004920959e-02
-7.596789300441741943e-02
-2.749219909310340881e-02
9.324083477258682251e-02
-4.638216458261013031e-03
1.187719963490962982e-02
2.838373370468616486e-02
7.661695778369903564e-02
3.471095114946365356e-02
1.358199417591094971e-01
8.228439837694168091e-04
-9.985524229705333710e-03
2.949382178485393524e-02
5.727186426520347595e-02
3.692621365189552307e-02
-3.050800412893295288e-02
1.861635223031044006e-02
-4.685694351792335510e-02
-2.608584985136985779e-02
2.363204024732112885e-03
5.544428154826164246e-02
8.430114388465881348e-02
4.308078438043594360e-02
7.326118648052215576e-02
5.756549909710884094e-02
-5.182014405727386475e-02
-1.246770620346069336e-01
-9.282634407281875610e-02
1.109710782766342163e-01
-1.719772219657897949e-01
-8.455421030521392822e-02
1.572895497083663940e-01
1.457113176584243774e-01
3.456543385982513428e-02
7.664334494620561600e-03
-1.262809634208679199e-01
-2.419449537992477417e-01
-1.084679886698722839e-01
-4.013264551758766174e-02
1.152003556489944458e-01
1.954301595687866211e-01
4.534792155027389526e-03
-1.219258606433868408e-01
-1.149059161543846130e-01
-2.295058593153953552e-02
6.139069050550460815e-02
2.473768219351768494e-02
-7.593753933906555176e-02
-2.559509575366973877e-01
1.388279255479574203e-02
2.942072227597236633e-02
8.748895674943923950e-02
-4.629169031977653503e-02
5.636139959096908569e-02
1.366415768861770630e-01
8.403354883193969727e-02
1.085623204708099365e-01
1.002136468887329102e-01
1.977833509445190430e-01
4.459016025066375732e-02
-4.378649964928627014e-02
2.548108994960784912e-02
1.852857321500778198e-02
-2.377958269789814949e-03
-3.151835128664970398e-02
1.032203063368797302e-01
5.452239885926246643e-02
6.121548637747764587e-02
8.949633687734603882e-02
1.205328013747930527e-02
-1.855066046118736267e-02
-1.032528206706047058e-01
-3.760896995663642883e-02
2.686530118808150291e-03
-1.309821456670761108e-01
5.003411322832107544e-02
5.567125231027603149e-02
-9.178299456834793091e-02
-4.438987001776695251e-02
-4.836922883987426758e-02
-7.501133531332015991e-02
-6.215979158878326416e-02
-1.236661747097969055e-01
-3.222228214144706726e-02
-9.388674795627593994e-02
-1.906308229081332684e-03
9.144188836216926575e-03
-4.096803069114685059e-02
-7.117482274770736694e-02
-7.555904798209667206e-03
-2.490629814565181732e-02
1.474836915731430054e-01
5.103314667940139771e-02
7.446077466011047363e-02
-6.190875172615051270e-02
-3.199373558163642883e-02
-3.997354954481124878e-02
1.601983159780502319e-01
6.854815781116485596e-02
1.735452413558959961e-01
8.468331396579742432e-02
6.240348890423774719e-02
-2.429952099919319153e-02
2.328613772988319397e-02
8.907630108296871185e-03
3.101282194256782532e-02
4.338797926902770996e-02
7.552552223205566406e-02
4.149726405739784241e-02
3.818967193365097046e-02
6.281097978353500366e-02
1.177231967449188232e-01
-2.582136914134025574e-02
-1.201727911829948425e-01
-2.841782942414283752e-02
1.894780248403549194e-02
-1.847073063254356384e-02
-3.192129358649253845e-02
-3.394730761647224426e-02
1.488465964794158936e-01
9.633934497833251953e-02
5.127541720867156982e-02
-5.731440708041191101e-02
-1.480391919612884521e-01
-1.642300039529800415e-01
3.358866274356842041e-02
7.228674739599227905e-02
-6.840126216411590576e-02
3.413926810026168823e-02
6.224555522203445435e-02
1.211165543645620346e-02
-4.980989173054695129e-02
-4.948957357555627823e-03
-1.247883662581443787e-01
-7.868640124797821045e-02
-1.942048221826553345e-02
-3.399739041924476624e-02
1.105437334626913071e-02
1.515398770570755005e-01
1.302815526723861694e-01
2.887153066694736481e-02
-1.618605293333530426e-02
5.439645424485206604e-02
-6.407314445823431015e-03
1.211230736225843430e-02
-1.528826076537370682e-02
7.852797955274581909e-02
3.916707355529069901e-03
-4.944845288991928101e-02
4.634111828636378050e-04
2.551070041954517365e-02
1.812158711254596710e-02
1.711670160293579102e-01
1.252147108316421509e-01
1.774804890155792236e-01
1.086233556270599365e-01
5.739644542336463928e-02
3.183583915233612061e-02
1.143208798021078110e-02
4.793303459882736206e-02
1.237367987632751465e-01
8.503008633852005005e-02
4.402139224112033844e-03
5.840495694428682327e-03
-3.723292052745819092e-02
-2.888540737330913544e-02
-4.490274935960769653e-02
8.438400924205780029e-02
5.623566731810569763e-02
1.693426631391048431e-02
2.726377733051776886e-02
-5.204274132847785950e-02
-1.992221027612686157e-01
-4.692048206925392151e-02
1.105131208896636963e-01
4.124259576201438904e-02
7.588619366288185120e-03
-1.361600160598754883e-01
-2.965207025408744812e-02
5.927499383687973022e-03
1.537802256643772125e-02
3.420335054397583008e-02
-5.757122114300727844e-02
-2.498167157173156738e-01
-2.938733994960784912e-02
-1.280975993722677231e-02
6.098612025380134583e-02
5.133609101176261902e-02
-2.970358170568943024e-02
-1.368267238140106201e-01
-1.825754642486572266e-01
-7.435680180788040161e-02
-9.672983735799789429e-02
1.844931021332740784e-02
2.173721343278884888e-01
2.390508055686950684e-01
1.458475887775421143e-01
-1.244028750807046890e-02
2.451944909989833832e-02
-1.116049066185951233e-01
7.247920613735914230e-03
-4.234163835644721985e-02
-4.468379542231559753e-02
-6.744921673089265823e-03
-2.673923969268798828e-02
-2.293185889720916748e-02
-8.718254417181015015e-02
-6.304476410150527954e-02
-1.020926535129547119e-01
-1.177220325917005539e-02
4.419073462486267090e-02
-5.880541354417800903e-02
-6.879009306430816650e-02
-7.402142137289047241e-02
-1.095097213983535767e-01
-2.172789126634597778e-01
-1.373025029897689819e-01
-1.227979455143213272e-02
4.995333962142467499e-03
-5.879689753055572510e-02
-6.327877193689346313e-02
-1.504266113042831421e-01
-1.162284314632415771e-01
-1.870214343070983887e-01
9.938221424818038940e-02
9.952438995242118835e-03
-7.841482758522033691e-02
-3.737126290798187256e-02
4.526199400424957275e-02
1.162905013188719749e-03
-9.994997084140777588e-02
-1.222707182168960571e-01
-9.755043685436248779e-02
-4.848930239677429199e-02
-8.981439471244812012e-02
7.167668640613555908e-02
1.043565757572650909e-02
-9.396483004093170166e-02
-1.594594269990921021e-01
-1.709149777889251709e-01
-8.630239218473434448e-02
-4.022781923413276672e-02
-5.520319566130638123e-02
-8.195205032825469971e-02
-1.629095971584320068e-01
-1.331412494182586670e-01
-6.630279123783111572e-02
-4.242079332470893860e-02
3.656049072742462158e-02
-1.761638745665550232e-02
-2.591993100941181183e-02
8.863696828484535217e-03
-1.650131121277809143e-02
-1.945688389241695404e-02
-1.775354892015457153e-02
-1.060536969453096390e-02
2.374240895733237267e-03
4.564420133829116821e-02
9.674111008644104004e-02
2.179270982742309570e-02
1.319935917854309082e-02
3.623487055301666260e-02
-1.373992487788200378e-02
-4.148610308766365051e-02
-1.263045072555541992e-01
7.487567514181137085e-02
1.381379514932632446e-01
1.824368834495544434e-01
-1.612798124551773071e-02
1.351709384471178055e-02
-6.395580619573593140e-02
-5.544479563832283020e-02
-3.980697691440582275e-02
4.566328227519989014e-02
3.460564836859703064e-02
-1.668721996247768402e-02
5.809557437896728516e-02
5.263445153832435608e-02
2.274709008634090424e-02
6.608460843563079834e-02
-1.685105860233306885e-01
-2.814934551715850830e-01
-9.000878781080245972e-02
-1.014510765671730042e-01
-3.430545562878251076e-03
1.318888366222381592e-01
6.036751344799995422e-02
2.887396700680255890e-02
-9.710254520177841187e-02
-6.272525992244482040e-03
-1.909912750124931335e-02
3.823445364832878113e-02
1.754332706332206726e-02
-1.215824857354164124e-03
-6.575509160757064819e-02
-4.590765759348869324e-02
-1.402758527547121048e-02
3.261474147439002991e-02
1.118628606200218201e-01
5.910725519061088562e-02
1.282260715961456299e-01
1.741763353347778320e-01
1.446105539798736572e-01
9.110812842845916748e-02
5.099000781774520874e-02
3.487823903560638428e-02
4.696922376751899719e-02
5.096293985843658447e-02
7.880610972642898560e-02
3.758086636662483215e-02
1.855441555380821228e-02
-7.545960601419210434e-03
4.297089204192161560e-02
4.816894233226776123e-02
9.859456866979598999e-02
1.331792324781417847e-01
-2.954844094347208738e-04
2.217169106006622314e-02
-2.880523726344108582e-02
-1.319235563278198242e-01
-2.327622286975383759e-02
2.259486019611358643e-01
8.768609166145324707e-02
-1.729172766208648682e-01
-1.797961257398128510e-02
-2.673886530101299286e-02
-7.194958627223968506e-02
3.236462548375129700e-02
5.035850778222084045e-02
2.955564297735691071e-03
-1.566446758806705475e-02
-3.890395862981677055e-03
-3.652430325746536255e-02
-1.221161708235740662e-01
3.462563455104827881e-02
5.588770285248756409e-02
-1.270958036184310913e-02
-2.710594050586223602e-02
-3.700582683086395264e-02
-3.279002755880355835e-02
3.718634322285652161e-02
1.214885115623474121e-01
1.649215519428253174e-01
1.411004513502120972e-01
1.029203981161117554e-01
2.747449837625026703e-02
-8.382863365113735199e-03
1.495742201805114746e-01
1.508995890617370605e-01
6.799530237913131714e-02
2.086911201477050781e-01
7.677917182445526123e-02
-9.232252836227416992e-02
-1.744349300861358643e-02
1.679216325283050537e-02
-8.072222769260406494e-02
-7.794229686260223389e-02
2.131083235144615173e-02
-1.232542376965284348e-02
-2.219663560390472412e-02
-9.525622427463531494e-02
-1.776834949851036072e-02
-5.531801655888557434e-02
4.894908517599105835e-03
-1.095357164740562439e-01
-1.595032811164855957e-01
1.180194411426782608e-02
-3.359914571046829224e-02
1.129480674862861633e-01
1.227523759007453918e-01
3.765174001455307007e-02
-5.091066658496856689e-02
-6.079769134521484375e-02
-6.487692892551422119e-02
7.164787966758012772e-04
-2.040717750787734985e-02
2.870396524667739868e-02
6.866173353046178818e-03
2.046788632869720459e-01
2.053901925683021545e-02
-4.014933109283447266e-02
5.844089761376380920e-02
1.113229524344205856e-02
1.957769691944122314e-02
-9.680797159671783447e-02
-3.931634128093719482e-02
-2.619361877441406250e-02
4.914877936244010925e-04
-7.316759228706359863e-02
-5.227589979767799377e-03
-3.628036752343177795e-02
-6.258481740951538086e-02
-4.794651269912719727e-02
6.587136536836624146e-02
-1.439280156046152115e-02
-9.875475615262985229e-02
1.242785155773162842e-01
1.384375095367431641e-01
9.407446533441543579e-02
9.541161358356475830e-02
3.773815184831619263e-02
-1.081300154328346252e-01
-2.542524598538875580e-02
-3.745802119374275208e-02
-9.605690091848373413e-02
-8.705233782529830933e-02
-1.859505027532577515e-01
-1.932072453200817108e-02
-1.346619278192520142e-01
-2.356633916497230530e-02
2.733340486884117126e-02
2.953944914042949677e-02
-5.390430334955453873e-03
-2.547900974750518799e-01
-2.222140878438949585e-01
-1.142711639404296875e-01
-1.028564199805259705e-01
-2.601468004286289215e-03
5.759074166417121887e-02
-2.499364875257015228e-02
-2.237043678760528564e-01
-2.405378073453903198e-01
-1.930559873580932617e-01
-1.389119476079940796e-01
-6.259773671627044678e-02
-3.823605924844741821e-02
-2.578249946236610413e-02
-7.071139663457870483e-02
-9.895072132349014282e-02
-9.392558038234710693e-02
-3.057014197111129761e-02
5.107040517032146454e-03
1.279898546636104584e-02
3.463151631876826286e-03
1.117495354264974594e-03
-5.594727769494056702e-02
-8.028271794319152832e-02
-1.498385965824127197e-01
-6.169663369655609131e-02
-4.419785737991333008e-02
-1.298444345593452454e-02
-1.608351804316043854e-02
-1.047317869961261749e-02
-1.359526067972183228e-01
2.043912559747695923e-02
4.483365640044212341e-02
7.162970304489135742e-02
1.707708090543746948e-02
4.686380550265312195e-02
8.957564085721969604e-02
1.396913528442382812e-01
3.643706068396568298e-02
9.887973777949810028e-03
7.902999222278594971e-02
5.349152907729148865e-02
3.802220895886421204e-02
-4.994834959506988525e-02
7.923814654350280762e-02
-2.986601367592811584e-02
-2.620818093419075012e-02
6.620447337627410889e-02
1.419205516576766968e-01
1.622520536184310913e-01
1.419454663991928101e-01
2.870706096291542053e-02
-1.109735742211341858e-01
-1.179873347282409668e-01
-1.943631470203399658e-02
1.245554313063621521e-01
1.116887107491493225e-01
-8.186723291873931885e-02
-4.462391138076782227e-02
9.027662873268127441e-02
-8.221675455570220947e-02
-1.940156333148479462e-02
1.091503128409385681e-01
4.960374161601066589e-02
2.731381729245185852e-02
-3.283044323325157166e-02
6.020768359303474426e-02
-3.887215629220008850e-02
1.277362704277038574e-01
1.392491012811660767e-01
1.302559077739715576e-01
1.635459065437316895e-02
3.671008627861738205e-03
-4.185104742646217346e-03
-3.667019680142402649e-02
4.971048980951309204e-02
7.652579993009567261e-02
-3.477411717176437378e-02
1.264944225549697876e-01
1.007414683699607849e-01
-1.080437824130058289e-01
6.332270801067352295e-03
4.820037260651588440e-02
-1.016740966588258743e-02
2.010164782404899597e-02
-2.242513699457049370e-03
-1.146603748202323914e-01
-8.542031049728393555e-02
-7.054497301578521729e-02
-4.475769028067588806e-02
-9.968277066946029663e-02
-1.196086779236793518e-01
-1.753021180629730225e-01
-9.992300719022750854e-02
-4.906420037150382996e-02
3.059713402763009071e-03
-1.058914326131343842e-02
-4.342364892363548279e-02
-1.507775634527206421e-01
-2.708293199539184570e-01
-4.170705378055572510e-02
-9.090910851955413818e-02
-6.265075504779815674e-02
-3.656065091490745544e-03
-1.735697500407695770e-02
-9.465962648391723633e-02
-1.560790091753005981e-01
-7.067990303039550781e-02
-4.869411513209342957e-02
-1.312412023544311523e-01
-1.065496504306793213e-01
-9.279113262891769409e-02
-2.227565273642539978e-02
-5.243599414825439453e-02
-7.062861323356628418e-02
-1.050312742590904236e-01
-2.590645104646682739e-02
-1.121298372745513916e-01
-3.167326003313064575e-02
-8.448117226362228394e-02
7.883425056934356689e-02
-7.297639548778533936e-02
-1.039318963885307312e-01
-2.102719992399215698e-01
-1.403328031301498413e-01
-8.855088800191879272e-02
-2.757501602172851562e-02
-3.965917229652404785e-02
-9.952748566865921021e-02
1.231780275702476501e-02
6.772292312234640121e-03
-4.506833478808403015e-02
-3.366721048951148987e-02
-4.464904963970184326e-02
-4.183648899197578430e-02
-2.942927554249763489e-02
5.290567642077803612e-04
-6.944384425878524780e-02
-6.911419332027435303e-02
5.754243209958076477e-02
-6.750215310603380203e-03
-5.905544385313987732e-02
-6.762625277042388916e-02
-4.341088607907295227e-02
-1.162477955222129822e-01
-1.329007446765899658e-01
-3.232181072235107422e-02
-5.870816111564636230e-02
3.097048588097095490e-02
-8.696960657835006714e-02
-3.541338443756103516e-02
-1.963998004794120789e-02
-1.076901257038116455e-01
-1.010152846574783325e-01
2.500269711017608643e-01
6.187590956687927246e-02
-3.395626321434974670e-02
1.543886363506317139e-01
1.657266467809677124e-01
1.025511324405670166e-01
-1.273071765899658203e-02
-5.521797388792037964e-02
-6.347569823265075684e-02
3.918094187974929810e-02
-8.393771946430206299e-02
4.660207033157348633e-02
1.896828413009643555e-01
6.670821458101272583e-02
-1.404013484716415405e-01
-2.239925116300582886e-01
-9.486234933137893677e-02
3.971017524600028992e-02
2.041853265836834908e-03
-8.620536886155605316e-03
-9.042751044034957886e-02
-1.201002374291419983e-01
-5.486512929201126099e-02
1.395157352089881897e-02
6.522388756275177002e-02
9.456638991832733154e-02
1.278311908245086670e-01
3.247272223234176636e-02
6.389880925416946411e-02
8.607102185487747192e-02
9.841934591531753540e-02
8.951476961374282837e-02
4.344240948557853699e-02
6.563419848680496216e-02
4.024897515773773193e-02
5.992696620523929596e-03
-6.811774522066116333e-02
2.442358992993831635e-03
7.164039462804794312e-02
9.246468544006347656e-02
-1.437019091099500656e-02
9.992000460624694824e-02
9.131810814142227173e-02
-1.121986955404281616e-01
2.817026712000370026e-02
-6.743487901985645294e-03
-1.051441207528114319e-01
4.177184309810400009e-03
1.402088403701782227e-01
-2.659803815186023712e-02
-1.265106797218322754e-01
-3.134633973240852356e-02
-9.599662572145462036e-02
-9.863982349634170532e-02
-2.756620012223720551e-02
-1.939474046230316162e-02
8.582965470850467682e-03
-2.415023930370807648e-02
-4.742645472288131714e-02
-9.035399556159973145e-02
-7.535415142774581909e-02
5.838435143232345581e-03
1.058924049139022827e-01
3.314562514424324036e-02
8.558088541030883789e-02
3.951675072312355042e-02
-6.445056945085525513e-02
-9.649018198251724243e-02
-5.944000557065010071e-03
1.068689152598381042e-01
1.669149994850158691e-01
7.063189893960952759e-02
6.951928138732910156e-02
8.378103375434875488e-02
8.679978549480438232e-02
1.846688613295555115e-02
1.931910775601863861e-02
5.097869783639907837e-02
1.651907265186309814e-01
1.415401697158813477e-01
5.565181374549865723e-02
-8.091282844543457031e-02
-1.019708719104528427e-02
-9.941415861248970032e-03
5.847366526722908020e-02
-4.842989519238471985e-02
9.823254495859146118e-02
1.489176787436008453e-02
-1.239837557077407837e-01
-7.282289210706949234e-03
1.534880101680755615e-01
4.747547954320907593e-02
-2.105283550918102264e-02
2.108114957809448242e-02
6.063412129878997803e-02
7.278979569673538208e-02
8.696709573268890381e-02
-5.402461811900138855e-02
1.266245990991592407e-01
1.859733089804649353e-02
-8.863872289657592773e-02
-4.021665453910827637e-02
1.439384669065475464e-01
3.496667370200157166e-02
1.907458156347274780e-02
1.583362221717834473e-01
9.676883369684219360e-02
2.793157100677490234e-02
-5.310203507542610168e-02
8.398928493261337280e-02
5.201163142919540405e-02
-6.810065358877182007e-02
-2.133692204952239990e-01
-1.698471307754516602e-01
6.720268726348876953e-02
4.017423838376998901e-02
8.229752629995346069e-02
8.182871155440807343e-03
-2.816825807094573975e-01
-3.226721659302711487e-02
9.060643613338470459e-03
8.316109329462051392e-02
1.469688210636377335e-02
2.288670092821121216e-02
1.195574477314949036e-01
1.324802935123443604e-01
8.385799080133438110e-02
1.186600141227245331e-02
4.634331911802291870e-02
4.374364390969276428e-02
3.645998192951083183e-03
1.522256433963775635e-01
7.437027990818023682e-02
-5.827294662594795227e-02
-4.735448211431503296e-02
-3.439569147303700447e-03
3.652619570493698120e-02
1.610483787953853607e-02
7.038348913192749023e-02
7.462611794471740723e-02
-6.117410585284233093e-02
-4.063548892736434937e-02
1.610237360000610352e-02
4.879746958613395691e-02
-7.442110776901245117e-02
-1.558974664658308029e-02
2.396255135536193848e-01
-1.117591634392738342e-01
-7.236352562904357910e-02
-5.864626914262771606e-02
3.668501228094100952e-02
-9.573148190975189209e-02
1.288519352674484253e-01
1.785528510808944702e-01
-5.907191336154937744e-02
-1.108888015151023865e-01
-1.521389186382293701e-02
6.117704324424266815e-04
-6.695102155208587646e-02
9.844022989273071289e-02
1.468416210263967514e-02
1.757701486349105835e-02
5.406447872519493103e-02
4.322766512632369995e-02
5.661518312990665436e-03
-3.915546461939811707e-03
-3.350312355905771255e-03
-4.649212211370468140e-02
-5.545112490653991699e-02
-4.309910815209150314e-03
2.417663857340812683e-02
4.518626723438501358e-03
-5.780950188636779785e-03
-4.493007063865661621e-02
-4.103277623653411865e-02
2.333751693367958069e-02
3.513539209961891174e-02
8.671751618385314941e-02
3.527223318815231323e-02
-1.069134920835494995e-01
-8.689644932746887207e-02
1.529913842678070068e-01
3.686219453811645508e-01
2.616516649723052979e-01
1.486773490905761719e-01
-2.877259068191051483e-02
-2.494363635778427124e-01
-6.428933143615722656e-02
2.012101188302040100e-02
7.623042166233062744e-02
2.929045585915446281e-04
6.607834249734878540e-02
-4.142182320356369019e-02
-7.738620042800903320e-03
-8.518383838236331940e-03
9.116582572460174561e-03
-1.485755592584609985e-01
-1.686095148324966431e-01
-4.145348072052001953e-02
2.811147272586822510e-02
-1.218771282583475113e-02
-3.611516952514648438e-02
1.542426086962223053e-02
-4.369883239269256592e-02
-1.367749646306037903e-02
-3.884237632155418396e-02
-2.415731735527515411e-02
6.016858667135238647e-02
4.159132391214370728e-02
-4.768613725900650024e-03
6.193949282169342041e-02
4.591993242502212524e-02
6.348904222249984741e-02
6.683124601840972900e-02
7.132784277200698853e-02
4.713817313313484192e-02
6.285684555768966675e-02
3.183054551482200623e-02
5.105805024504661560e-02
-7.916938513517379761e-03
-4.658306762576103210e-02
-1.323754191398620605e-01
-1.311551779508590698e-01
-5.472325161099433899e-02
-3.479027003049850464e-02
1.389373652637004852e-02
-7.068643718957901001e-02
-1.090154349803924561e-01
-7.171861082315444946e-02
-9.115628898143768311e-02
-3.060643188655376434e-02
1.416030060499906540e-02
7.008305191993713379e-02
5.631592124700546265e-03
-6.854881346225738525e-02
-5.457925051450729370e-02
-1.026227399706840515e-01
-3.908667713403701782e-02
7.807802408933639526e-02
1.239141598343849182e-01
6.147366762161254883e-02
-1.195392385125160217e-01
8.670547045767307281e-03
-5.896634235978126526e-02
5.173803307116031647e-03
1.196367852389812469e-02
-1.485826075077056885e-01
2.274662954732775688e-03
1.299895811825990677e-02
-4.693923518061637878e-02
-1.582039296627044678e-01
-2.449905872344970703e-02
5.317071080207824707e-02
1.145153306424617767e-02
1.070628985762596130e-01
2.330234460532665253e-02
-9.188013151288032532e-03
-4.772228747606277466e-02
3.246660530567169189e-02
1.335262060165405273e-01
1.037462055683135986e-01
9.299141354858875275e-03
-6.123584695160388947e-03
7.291300594806671143e-02
1.133424267172813416e-01
1.270425319671630859e-01
9.437227249145507812e-02
6.405834108591079712e-02
-1.045571863651275635e-01
4.785291478037834167e-02
3.401266783475875854e-02
1.193716675043106079e-01
5.459854379296302795e-02
8.441927284002304077e-02
-3.978955745697021484e-02
3.119801729917526245e-02
-1.638591289520263672e-02
4.074778780341148376e-02
1.004586666822433472e-01
1.239312738180160522e-01
9.093457460403442383e-02
1.223852764815092087e-02
2.907227352261543274e-02
-3.969095647335052490e-02
6.500566005706787109e-02
-3.368600830435752869e-02
2.828021906316280365e-02
-7.103072106838226318e-02
-7.920847833156585693e-02
4.835698381066322327e-02
-7.047439366579055786e-02
-5.053195171058177948e-03
5.477397143840789795e-02
9.238871186971664429e-02
-7.089034467935562134e-02
-9.921137988567352295e-02
5.088632926344871521e-02
-4.675071313977241516e-02
3.683397173881530762e-02
1.610286533832550049e-01
7.041581720113754272e-02
-3.021983057260513306e-02
-9.480428695678710938e-02
6.616479903459548950e-02
3.285428881645202637e-02
7.992397248744964600e-02
-5.636659637093544006e-02
-1.689762622117996216e-02
-2.772241085767745972e-02
-8.968228101730346680e-02
2.511160634458065033e-02
3.549191867932677269e-03
-2.162932232022285461e-02
-1.243826374411582947e-01
-4.971263185143470764e-02
4.374717921018600464e-02
-1.106917392462491989e-02
-3.376161679625511169e-02
4.107949137687683105e-02
-7.877102494239807129e-02
-3.764653950929641724e-02
1.150031294673681259e-02
5.093814432621002197e-02
7.586363703012466431e-02
4.424396902322769165e-02
-3.868341445922851562e-02
-2.673797495663166046e-02
-1.365326642990112305e-01
-1.260894089937210083e-01
-7.790035754442214966e-02
-3.806280344724655151e-02
-6.533378362655639648e-02
-4.220559820532798767e-02
3.205835446715354919e-02
-1.174641102552413940e-01
5.004257336258888245e-02
-7.656312733888626099e-02
-1.570198684930801392e-01
-2.942345291376113892e-02
-7.247543334960937500e-02
5.785795673727989197e-02
-9.305662661790847778e-02
5.837863311171531677e-03
4.173523187637329102e-02
-6.471573561429977417e-02
-5.650081112980842590e-02
2.115172147750854492e-02
-1.441335864365100861e-02
-6.678451597690582275e-02
6.218418106436729431e-02
1.216236352920532227e-01
-5.668227002024650574e-02
-1.545107923448085785e-02
-7.156209647655487061e-02
-5.810350552201271057e-02
3.775011375546455383e-02
-1.896473579108715057e-02
-1.236487459391355515e-02
2.914312109351158142e-02
-5.679263919591903687e-02
5.060477554798126221e-02
-8.322860300540924072e-02
-3.771329671144485474e-02
-1.229740232229232788e-01
-2.496198378503322601e-02
1.041055023670196533e-01
-2.850299514830112457e-02
-6.157590076327323914e-02
-1.800786703824996948e-02
-2.102750912308692932e-02
-7.250529248267412186e-03
1.786494702100753784e-01
1.373929828405380249e-01
4.584926739335060120e-02
-7.001318782567977905e-02
-8.752536773681640625e-02
-1.426553279161453247e-01
-2.459488436579704285e-02
1.277705132961273193e-01
1.345504522323608398e-01
1.421902030706405640e-01
-1.173123046755790710e-01
2.233268879354000092e-02
-1.289877109229564667e-02
-3.045994788408279419e-02
9.598770737648010254e-02
1.458349674940109253e-01
1.236952543258666992e-01
-8.662393689155578613e-02
7.621929049491882324e-02
-1.731314137578010559e-02
-1.206313353031873703e-02
6.184775754809379578e-02
-1.122067049145698547e-01
-4.680241271853446960e-02
-4.981234669685363770e-02
-1.846066676080226898e-02
-1.866437494754791260e-02
-6.860858201980590820e-02
-6.119735166430473328e-02
-6.135613843798637390e-02
4.964277520775794983e-02
-1.970389485359191895e-02
1.887772604823112488e-02
8.950554579496383667e-02
9.184922277927398682e-02
8.469387143850326538e-02
2.207345068454742432e-01
-2.867570705711841583e-02
-1.213953197002410889e-01
-1.141475439071655273e-01
1.293966639786958694e-02
1.283841282129287720e-01
2.912046946585178375e-02
2.527932822704315186e-02
-6.207868456840515137e-02
2.051953040063381195e-02
1.000157594680786133e-01
6.389000918716192245e-03
9.293557703495025635e-02
2.210223823785781860e-01
7.741007953882217407e-02
-1.984766311943531036e-02
4.133976623415946960e-02
1.186815500259399414e-01
1.012024283409118652e-01
6.616456806659698486e-02
9.585140272974967957e-03
3.307775035500526428e-02
-3.888344764709472656e-02
2.918549068272113800e-02
1.539642214775085449e-01
1.559860631823539734e-02
-1.796706346794962883e-03
-1.581668853759765625e-01
-2.235123366117477417e-01
-5.506533756852149963e-02
-3.926904872059822083e-02
4.057512804865837097e-02
1.567851752042770386e-01
-1.455936674028635025e-02
1.071679294109344482e-01
-1.260400712490081787e-01
-6.222490593791007996e-02
-5.775656551122665405e-02
7.750771939754486084e-02
2.063541859388351440e-01
6.170835718512535095e-02
3.251045942306518555e-02
-5.720961093902587891e-02
2.770121768116950989e-02
5.601592734456062317e-02
5.547172203660011292e-02
2.268907241523265839e-02
-1.391455084085464478e-01
-7.544048875570297241e-02
5.107576400041580200e-02
-1.141737913712859154e-03
1.548169087618589401e-02
-6.581627577543258667e-02
-6.596874445676803589e-02
-9.737201035022735596e-02
1.031938754022121429e-02
7.164110988378524780e-02
-2.614351548254489899e-02
1.013023257255554199e-01
-8.897244185209274292e-02
-3.395841643214225769e-02
1.981082186102867126e-02
-2.173636108636856079e-02
4.016665369272232056e-02
-4.341470077633857727e-02
-3.241053223609924316e-02
-3.673852235078811646e-02
-2.357210814952850342e-01
-9.524506330490112305e-02
-5.805916711688041687e-02
-7.143735885620117188e-02
3.328173980116844177e-02
-1.125643998384475708e-01
-9.861057251691818237e-02
-1.279889494180679321e-01
1.172888204455375671e-01
2.216104716062545776e-01
7.792193442583084106e-02
6.439723819494247437e-02
-3.400906547904014587e-02
-5.431880243122577667e-03
-8.830685913562774658e-02
1.117498334497213364e-02
1.444243192672729492e-01
1.965803094208240509e-02
-5.474334210157394409e-02
3.497890010476112366e-02
-3.024033457040786743e-02
-1.523744761943817139e-01
-1.923309415578842163e-01
-3.856585547327995300e-02
-1.989477314054965973e-02
4.301661252975463867e-02
-6.529019773006439209e-02
-1.006608158349990845e-01
-3.660379734355956316e-04
9.272824972867965698e-02
4.968390986323356628e-02
9.144999831914901733e-02
6.936712563037872314e-02
1.159187499433755875e-02
1.159559655934572220e-02
5.391493439674377441e-02
1.670846529304981232e-02
-1.053141662850975990e-03
5.645068828016519547e-03
-1.888309605419635773e-02
-2.467053569853305817e-02
-3.736974671483039856e-03
-4.757920652627944946e-02
-1.512517407536506653e-02
-6.266722921282052994e-03
4.624425619840621948e-02
8.119776099920272827e-02
-8.258628845214843750e-02
-1.657020300626754761e-01
-2.589993476867675781e-01
-1.453878879547119141e-01
1.668573617935180664e-01
1.764370650053024292e-01
1.208384707570075989e-01
-1.261829435825347900e-01
-1.282966434955596924e-01
-1.336222290992736816e-01
-1.481705461628735065e-03
1.603059619665145874e-01
2.298246175050735474e-01
1.189112663269042969e-01
-9.983185678720474243e-02
9.312916547060012817e-03
-7.272213697433471680e-02
-8.278913050889968872e-02
-4.347865656018257141e-02
-9.105866402387619019e-02
-6.056166067719459534e-02
-6.911576725542545319e-03
1.016244292259216309e-02
-2.196261584758758545e-01
-1.184655427932739258e-01
-3.658474981784820557e-02
-7.855784893035888672e-02
3.518906608223915100e-02
-6.437856703996658325e-02
-1.047098450362682343e-02
1.395213603973388672e-02
1.339635550975799561e-01
6.190194562077522278e-02
1.264671087265014648e-01
7.617299258708953857e-02
-3.539305925369262695e-02
2.684909850358963013e-02
1.841533929109573364e-02
2.171142026782035828e-02
-1.955970749258995056e-02
-8.614966645836830139e-03
-7.578250020742416382e-02
-5.753432959318161011e-02
6.933865696191787720e-02
3.214003890752792358e-02
6.226906925439834595e-02
1.983431726694107056e-01
1.228007823228836060e-01
7.211609184741973877e-02
-1.624110154807567596e-02
3.250855207443237305e-02
1.863180845975875854e-02
6.819377839565277100e-02
6.364494329318404198e-04
6.236836314201354980e-02
3.513509407639503479e-02
-6.801121681928634644e-02
-3.344653872773051262e-03
-4.250521957874298096e-02
3.893354162573814392e-02
-1.012688800692558289e-01
-1.622172147035598755e-01
-6.653656810522079468e-02
-5.157343298196792603e-02
-5.498559027910232544e-02
6.352427601814270020e-02
3.544927760958671570e-02
1.486825644969940186e-01
-9.661273658275604248e-02
-5.392835289239883423e-02
4.947025701403617859e-02
7.431266456842422485e-02
-7.140561006963253021e-03
1.447545737028121948e-01
6.423602998256683350e-02
-1.028151065111160278e-01
-1.978033222258090973e-02
4.820147901773452759e-02
-6.258034706115722656e-02
-5.125162377953529358e-02
-1.271337922662496567e-02
-6.343587487936019897e-02
3.552972525358200073e-02
-1.061653066426515579e-02
-5.676628276705741882e-02
-1.134543418884277344e-01
4.877258557826280594e-03
-8.335030078887939453e-02
-3.477323427796363831e-02
2.577979490160942078e-02
-2.590682916343212128e-02
-2.059054328128695488e-03
5.760426446795463562e-02
3.810494393110275269e-02
6.935658305883407593e-02
6.533180177211761475e-02
4.681402072310447693e-02
-5.241997912526130676e-02
-4.541742801666259766e-02
3.146049380302429199e-02
-1.442146394401788712e-02
-3.785848245024681091e-02
-7.192901521921157837e-02
-5.513067543506622314e-02
-2.950631640851497650e-02
3.655283153057098389e-02
6.885128468275070190e-02
-1.224380265921354294e-02
-1.159316599369049072e-01
4.995906352996826172e-02
7.510450482368469238e-02
-4.048011824488639832e-02
-1.235273480415344238e-01
3.116443194448947906e-02
-2.224976383149623871e-02
-8.651193976402282715e-02
-5.315607041120529175e-02
-6.371176242828369141e-02
-6.038952618837356567e-02
-8.129388839006423950e-02
7.351168990135192871e-02
4.252589493989944458e-02
-9.333009272813796997e-02
-9.166198223829269409e-02
-1.236134171485900879e-01
4.583147354423999786e-03
-5.328472703695297241e-02
6.976969540119171143e-02
2.083298377692699432e-02
-2.271786332130432129e-03
5.261536315083503723e-02
9.170991927385330200e-02
-3.653732687234878540e-02
-7.757926732301712036e-02
-1.192509010434150696e-02
2.927444502711296082e-02
7.405351847410202026e-02
4.464652761816978455e-02
-5.258864164352416992e-02
-2.011148817837238312e-02
8.104816079139709473e-03
2.619080618023872375e-02
-4.536078125238418579e-02
-1.694835722446441650e-01
-1.087786033749580383e-01
1.056231837719678879e-02
-3.503764420747756958e-02
8.927682414650917053e-03
-4.481832031160593033e-03
-9.984613955020904541e-02
-2.221297025680541992e-01
-1.524253040552139282e-01
-1.826148629188537598e-01
8.731293678283691406e-02
-1.875720545649528503e-02
4.507291689515113831e-02
-1.501171756535768509e-02
-2.228202857077121735e-02
-1.037847716361284256e-02
7.430190593004226685e-02
3.788303211331367493e-02
3.537139296531677246e-02
7.007551193237304688e-02
-1.577417403459548950e-01
-9.497107565402984619e-02
-4.186568036675453186e-02
-1.041479483246803284e-01
3.024096228182315826e-02
-8.569792658090591431e-02
-6.048919633030891418e-02
-6.089951843023300171e-02
-1.344169378280639648e-01
-7.595141977071762085e-02
-9.804020076990127563e-02
-4.258355125784873962e-02
-4.020568355917930603e-02
1.609897986054420471e-02
8.276667445898056030e-02
5.264977365732192993e-02
-2.186072058975696564e-02
-3.175878524780273438e-02
7.196943461894989014e-02
3.398481756448745728e-02
2.933499775826931000e-02
3.789038956165313721e-02
-6.709023145958781242e-04
9.913284331560134888e-03
-4.145763069391250610e-02
-1.320001631975173950e-01
-9.618964046239852905e-03
-6.320741027593612671e-02
-5.823610350489616394e-02
-7.183533906936645508e-02
-1.429757848381996155e-02
-1.770344749093055725e-02
-4.747215285897254944e-02
1.090415567159652710e-02
5.509755015373229980e-02
1.838700473308563232e-02
-9.331794083118438721e-02
-4.220914095640182495e-02
-7.125153392553329468e-02
-1.704398542642593384e-02
1.006218269467353821e-01
6.473170220851898193e-02
1.357868313789367676e-01
7.656135410070419312e-02
-3.146120905876159668e-02
-3.534304350614547729e-02
2.591042220592498779e-02
-1.294576823711395264e-01
9.941468946635723114e-03
-8.713647723197937012e-02
1.173229608684778214e-02
-2.819297648966312408e-02
-6.207328289747238159e-03
7.585228886455297470e-03
3.388060629367828369e-02
7.615895941853523254e-03
-3.700048103928565979e-02
1.388599276542663574e-01
1.352414041757583618e-01
5.354606732726097107e-02
1.179409846663475037e-01
-5.144969746470451355e-02
-1.806602440774440765e-02
-6.239255890250205994e-03
5.303535610437393188e-02
4.057656228542327881e-02
-3.961195424199104309e-02
1.632544025778770447e-02
1.127036213874816895e-01
8.477447181940078735e-02
2.610177360475063324e-02
3.276213631033897400e-02
-9.888338297605514526e-02
-7.458563195541501045e-04
3.584788367152214050e-02
5.912648886442184448e-02
5.955100990831851959e-03
-5.309585481882095337e-02
-7.211906462907791138e-02
1.242992375046014786e-02
2.176683582365512848e-02
6.663334369659423828e-02
-5.597371235489845276e-02
-1.557325869798660278e-01
-1.919676065444946289e-01
-4.678025096654891968e-02
7.055366784334182739e-02
-3.857185691595077515e-02
7.278390228748321533e-02
-7.804949581623077393e-02
-4.747884720563888550e-02
-2.932822145521640778e-02
1.250129789113998413e-01
2.165084481239318848e-01
1.804695427417755127e-01
1.259830743074417114e-01
-5.477926228195428848e-03
3.980823606252670288e-02
-1.382793039083480835e-01
-8.535527437925338745e-02
-2.749227546155452728e-02
-7.898294925689697266e-02
5.920507758855819702e-02
-8.406795561313629150e-03
-7.045781612396240234e-02
-1.981627196073532104e-01
-5.469264835119247437e-02
-8.597297966480255127e-02
7.462974637746810913e-02
1.509709190577268600e-02
5.376596376299858093e-02
6.594907492399215698e-02
8.884672075510025024e-02
1.116397157311439514e-01
1.612924486398696899e-01
5.987183749675750732e-02
9.620527178049087524e-02
8.248030394315719604e-02
5.691534280776977539e-02
-7.524850778281688690e-03
-1.452209893614053726e-02
-1.544959377497434616e-02
1.825666986405849457e-02
-1.311002951115369797e-02
4.419078305363655090e-02
-4.790169000625610352e-02
-6.709700077772140503e-02
3.521744161844253540e-02
4.020507633686065674e-02
4.128904268145561218e-02
-5.185020342469215393e-02
-1.372448801994323730e-01
-1.542785167694091797e-01
-2.164608240127563477e-01
-4.647605866193771362e-02
9.167154878377914429e-02
1.262025982141494751e-01
1.376535445451736450e-01
-1.516827642917633057e-01
-7.022544741630554199e-02
-6.963384151458740234e-02
2.456808276474475861e-02
7.818878442049026489e-02
1.750178337097167969e-01
5.146183073520660400e-02
-7.561390846967697144e-02
3.447731584310531616e-02
-9.130492806434631348e-02
-6.942050904035568237e-02
-8.845082670450210571e-02
-9.861012548208236694e-02
-4.855860397219657898e-02
4.103086423128843307e-03
-3.687917441129684448e-02
-1.366361081600189209e-01
-1.007659062743186951e-01
-4.502695426344871521e-02
-1.552312169224023819e-02
-2.228595130145549774e-02
-1.754712499678134918e-02
3.305300697684288025e-02
8.102701604366302490e-02
8.866495639085769653e-02
1.185705661773681641e-01
7.053607702255249023e-02
2.437024004757404327e-02
6.102013215422630310e-02
2.669101953506469727e-02
-1.070668455213308334e-02
3.875507041811943054e-02
6.183555349707603455e-02
4.649988561868667603e-02
-9.776203334331512451e-02
7.815364748239517212e-02
-4.078125208616256714e-02
-2.069138735532760620e-02
6.708588451147079468e-03
3.690655156970024109e-02
-2.264675311744213104e-02
1.358915958553552628e-02
1.505599021911621094e-01
-1.884228736162185669e-02
2.257157675921916962e-02
-5.611415952444076538e-02
-1.326024830341339111e-01
-3.443878889083862305e-02
9.965351223945617676e-02
-3.272652998566627502e-02
6.379680335521697998e-02
9.282617270946502686e-02
1.078031733632087708e-01
-1.117479428648948669e-01
-1.174934059381484985e-01
-2.432473003864288330e-02
2.518953196704387665e-02
-1.483977306634187698e-02
-8.574943989515304565e-02
4.023834690451622009e-02
-9.837960451841354370e-02
-5.372170731425285339e-02
3.736017271876335144e-02
4.228872805833816528e-02
-8.473104797303676605e-03
5.318531300872564316e-03
9.961816668510437012e-02
1.246635392308235168e-01
2.091860771179199219e-02
1.256412714719772339e-01
-5.481207370758056641e-02
7.892208546400070190e-02
3.067126683890819550e-02
6.305080652236938477e-02
-1.888194866478443146e-02
1.301295217126607895e-02
1.400165027007460594e-03
4.348960239440202713e-03
-3.444887325167655945e-02
7.992029935121536255e-02
3.383642761036753654e-03
-3.151897713541984558e-02
1.060866937041282654e-02
-5.496054422110319138e-03
1.118592079728841782e-02
4.134331271052360535e-02
2.359344623982906342e-02
1.418920755386352539e-01
1.023673489689826965e-01
2.242957241833209991e-02
3.479472547769546509e-02
5.015930533409118652e-02
-2.696931478567421436e-04
1.971284113824367523e-02
1.060461029410362244e-01
2.450983971357345581e-01
5.391464754939079285e-02
-4.224237799644470215e-02
4.778017848730087280e-02
-6.115908920764923096e-02
-8.468481153249740601e-02
2.287735790014266968e-01
2.513020634651184082e-01
1.058156937360763550e-01
4.604631662368774414e-02
-3.897167043760418892e-03
-7.379514165222644806e-03
-5.622237920761108398e-03
5.122243613004684448e-02
1.958983018994331360e-02
-1.115693226456642151e-01
4.727846011519432068e-02
1.602453365921974182e-02
3.143740817904472351e-02
-1.147957593202590942e-01
3.310934826731681824e-02
-1.850726306438446045e-01
-9.094779938459396362e-02
6.530988216400146484e-02
1.187523361295461655e-02
-2.434947900474071503e-02
2.089432626962661743e-02
5.566846206784248352e-02
3.282764554023742676e-02
7.612469792366027832e-02
8.661256730556488037e-02
5.566101148724555969e-02
5.217704176902770996e-02
2.994543127715587616e-02
9.960983879864215851e-03
3.150931373238563538e-02
-1.282854657620191574e-02
1.002734806388616562e-02
2.563542127609252930e-02
6.279623508453369141e-02
1.188452318310737610e-01
3.841468319296836853e-02
1.258402317762374878e-01
7.152768969535827637e-02
1.636589318513870239e-02
-6.415417790412902832e-02
1.241503376513719559e-02
4.229117557406425476e-02
5.841977894306182861e-02
-2.087151631712913513e-02
-2.678287401795387268e-02
-5.027605965733528137e-02
-3.523427993059158325e-02
-5.341300368309020996e-02
-8.917457610368728638e-02
-1.757479086518287659e-02
-8.144056051969528198e-02
-9.390965104103088379e-02
6.729172542691230774e-03
-1.367145478725433350e-01
-1.010887473821640015e-01
5.767666921019554138e-02
9.119405597448348999e-02
5.128419143147766590e-04
-4.893193021416664124e-03
6.693133711814880371e-02
-1.569713093340396881e-02
9.361641854047775269e-02
9.735291451215744019e-02
-2.352306991815567017e-02
-1.462492276914417744e-03
-9.155610948801040649e-02
-8.751118928194046021e-02
6.003762409090995789e-02
3.381282463669776917e-02
-5.934204161167144775e-02
4.497551545500755310e-02
3.591479361057281494e-02
8.603627234697341919e-02
2.935717627406120300e-02
-4.689950495958328247e-02
-7.320263981819152832e-02
3.304734826087951660e-02
1.082689315080642700e-01
2.327682450413703918e-03
4.559224471449851990e-02
-8.855497464537620544e-03
2.642010524868965149e-02
-5.746083706617355347e-02
-2.741983719170093536e-02
-2.136962488293647766e-02
-1.980488002300262451e-02
5.667207762598991394e-03
2.440214715898036957e-02
-2.009066753089427948e-02
7.170422002673149109e-03
-5.784958973526954651e-02
2.223351271823048592e-03
2.779629081487655640e-02
5.974020063877105713e-02
2.574603445827960968e-02
-8.378490805625915527e-02
-1.228871792554855347e-01
-8.318710327148437500e-02
4.845467954874038696e-02
1.173207983374595642e-01
1.023272797465324402e-01
8.026337623596191406e-02
-1.228284761309623718e-01
-2.284794114530086517e-02
-2.372607775032520294e-02
1.085553988814353943e-01
1.009440496563911438e-01
-1.278273314237594604e-01
-8.843823522329330444e-02
6.276903301477432251e-02
5.723890848457813263e-03
-7.979297637939453125e-02
-2.446288242936134338e-02
1.182119920849800110e-01
1.015038192272186279e-01
1.009516566991806030e-01
-2.245379798114299774e-02
-7.777511328458786011e-02
-1.094599254429340363e-02
-8.054735139012336731e-03
1.241328418254852295e-01
6.076505035161972046e-02
-6.003079563379287720e-02
4.154127091169357300e-02
4.060626402497291565e-02
4.397282749414443970e-02
-6.926544010639190674e-02
-6.900078058242797852e-02
-2.534321323037147522e-02
5.245646089315414429e-02
-2.670038118958473206e-02
4.510993137955665588e-02
7.708943914622068405e-03
3.787098452448844910e-02
1.112793460488319397e-01
4.295730963349342346e-02
-1.952493749558925629e-02
-3.791262954473495483e-02
-2.309495955705642700e-02
-7.344843447208404541e-02
-3.143465518951416016e-02
4.332809150218963623e-02
-2.141257002949714661e-02
-5.560678988695144653e-02
-2.609340474009513855e-02
-7.688206434249877930e-02
-1.787470877170562744e-01
-5.323791503906250000e-02
-1.928164809942245483e-01
-1.150044426321983337e-01
-1.038215681910514832e-01
-7.996813952922821045e-02
-1.038969159126281738e-01
-1.025445684790611267e-01
9.321653284132480621e-03
-6.072932109236717224e-02
-1.396714895963668823e-01
-2.089697122573852539e-02
-4.581042006611824036e-02
8.805133402347564697e-04
-9.951273910701274872e-03
6.205549091100692749e-02
4.903213679790496826e-02
-1.585290394723415375e-02
2.391295129200443625e-04
5.355564877390861511e-02
4.807748273015022278e-02
-5.339490249752998352e-03
-3.010713309049606323e-02
-4.591653496026992798e-02
2.984284656122326851e-03
4.517465829849243164e-02
-1.075121462345123291e-01
-7.719893008470535278e-02
-1.772639341652393341e-03
6.933911703526973724e-03
5.479882284998893738e-02
1.696201413869857788e-02
-3.365422785282135010e-02
6.309776101261377335e-03
-4.846423864364624023e-02
-1.936182007193565369e-02
5.429810844361782074e-03
4.576927796006202698e-02
9.657514840364456177e-02
-1.146887615323066711e-02
-1.200686693191528320e-01
-3.137409687042236328e-02
-7.460852619260549545e-03
6.465032696723937988e-02
1.763631403446197510e-02
6.441199686378240585e-03
-1.795371808111667633e-02
-1.642119511961936951e-02
-8.213012665510177612e-02
-1.210166811943054199e-01
-4.421103745698928833e-02
6.967851519584655762e-02
5.854594334959983826e-02
3.579901531338691711e-02
-1.360010355710983276e-01
-1.292810868471860886e-02
8.315411955118179321e-02
1.125780045986175537e-01
1.028326153755187988e-01
-3.370720148086547852e-02
-1.010884251445531845e-02
1.615993678569793701e-02
1.458962447941303253e-02
6.619080156087875366e-02
-7.500964403152465820e-02
3.625912964344024658e-02
4.337884858250617981e-02
7.057288289070129395e-02
5.588683858513832092e-02
-3.959761187434196472e-02
-2.419441752135753632e-02
6.950478255748748779e-02
3.244497627019882202e-02
7.887936383485794067e-02
-1.062722783535718918e-02
2.305208332836627960e-02
3.740119934082031250e-02
-3.261044621467590332e-02
-1.995549537241458893e-02
3.130308166146278381e-02
-3.850682824850082397e-02
2.153225243091583252e-02
-1.733067631721496582e-02
-1.580197550356388092e-02
-8.873064815998077393e-02
1.529069803655147552e-02
3.804171085357666016e-02
1.397601515054702759e-01
5.324244499206542969e-02
-2.542394213378429413e-02
4.072862211614847183e-04
-5.891909450292587280e-02
2.042389847338199615e-02
4.004113376140594482e-02
5.644561350345611572e-02
3.971720859408378601e-02
-1.172311529517173767e-01
-6.305038928985595703e-02
-1.138613224029541016e-01
6.069459021091461182e-03
1.888114260509610176e-03
3.585373610258102417e-02
5.077080801129341125e-02
-7.547880709171295166e-02
-1.359175797551870346e-02
-1.372224688529968262e-01
8.624051511287689209e-02
5.974586308002471924e-02
1.621812395751476288e-02
-6.756031513214111328e-02
-9.038021788001060486e-03
-2.426020801067352295e-02
-3.849117457866668701e-02
-2.940829098224639893e-02
3.740843757987022400e-02
-3.439256176352500916e-02
5.731340497732162476e-02
7.939908653497695923e-03
2.118833921849727631e-02
3.739730641245841980e-02
4.124109074473381042e-02
4.272586107254028320e-02
2.131637632846832275e-01
8.118052035570144653e-02
-1.135897487401962280e-01
-1.784130483865737915e-01
4.275373741984367371e-02
9.494601935148239136e-02
2.139454893767833710e-02
-1.657072640955448151e-02
-6.374896317720413208e-02
4.866898804903030396e-02
2.530388161540031433e-02
1.974479295313358307e-02
-9.166955947875976562e-02
-2.493281662464141846e-02
4.019197542220354080e-03
1.529227197170257568e-02
6.513475440442562103e-03
1.582354307174682617e-02
-2.678964100778102875e-02
-8.067966997623443604e-02
-3.602708876132965088e-02
4.335053637623786926e-02
8.802645653486251831e-02
2.722946554422378540e-02
9.559518657624721527e-04
3.487623482942581177e-02
-3.544176742434501648e-02
1.789205223321914673e-01
1.470790952444076538e-01
1.055871173739433289e-01
3.587084636092185974e-02
-1.442944194423034787e-04
1.936301290988922119e-01
1.901523619890213013e-01
2.072389423847198486e-01
-6.753546651452779770e-03
1.989115774631500244e-02
4.756172001361846924e-02
-3.844411298632621765e-02
5.644825100898742676e-02
-9.362853318452835083e-02
1.231270730495452881e-01
1.114008352160453796e-01
7.817295938730239868e-02
3.440742194652557373e-02
5.344627425074577332e-02
3.571902215480804443e-02
-3.765314817428588867e-02
4.321212880313396454e-03
1.412948817014694214e-01
-1.711473427712917328e-02
6.412239372730255127e-02
8.843794465065002441e-02
7.018227130174636841e-02
3.146848082542419434e-02
6.108722463250160217e-02
5.448223277926445007e-02
4.766577854752540588e-02
7.103499770164489746e-02
-8.764440426602959633e-04
1.937763951718807220e-02
-8.162816986441612244e-03
4.665027931332588196e-02
6.962261348962783813e-02
1.137291640043258667e-02
-1.683514937758445740e-02
-1.184790488332509995e-02
-8.364430814981460571e-02
-8.249864913523197174e-03
1.386582404375076294e-01
1.804974377155303955e-01
-9.417797438800334930e-03
-3.074351511895656586e-02
-9.245082736015319824e-02
-1.542692333459854126e-01
1.190123707056045532e-01
2.152564227581024170e-01
1.921587139368057251e-01
7.090149912983179092e-03
-1.451801974326372147e-02
1.280149910598993301e-02
-3.367844969034194946e-02
8.821853250265121460e-02
1.673626452684402466e-01
1.581243611872196198e-02
2.295637875795364380e-02
3.175230696797370911e-02
6.940699368715286255e-02
-1.177395060658454895e-01
-3.677707165479660034e-02
-5.082454159855842590e-02
-1.179039180278778076e-01
-1.970989070832729340e-02
-3.890769556164741516e-02
-9.000765532255172729e-02
3.244252875447273254e-02
3.167784772813320160e-03
5.507497861981391907e-02
6.698551028966903687e-02
7.062367349863052368e-02
2.987251803278923035e-02
2.420450188219547272e-02
1.218793168663978577e-01
6.761401891708374023e-02
3.222010284662246704e-02
2.649959735572338104e-02
-2.960388176143169403e-02
-9.076860733330249786e-03
7.465922832489013672e-02
4.394972324371337891e-02
-2.739502303302288055e-02
4.207079857587814331e-02
1.448516268283128738e-02
-9.167961031198501587e-02
-5.940677970647811890e-02
-2.705259807407855988e-02
-8.643697202205657959e-02
2.123162522912025452e-02
4.150621220469474792e-02
8.180038630962371826e-02
-5.267895758152008057e-03
-4.710349068045616150e-02
9.466157294809818268e-03
-1.198398172855377197e-01
-1.374112963676452637e-01
-8.805432915687561035e-02
-8.102985471487045288e-02
6.125208735466003418e-02
-1.467185616493225098e-01
5.529871955513954163e-02
-8.028598502278327942e-03
1.803762651979923248e-02
-1.211421564221382141e-01
-7.290585339069366455e-02
-3.607363998889923096e-02
6.108840927481651306e-03
9.341909736394882202e-02
-1.278762053698301315e-02
-1.082747951149940491e-01
4.863081872463226318e-02
3.145105019211769104e-02
4.383541643619537354e-02
5.294874310493469238e-02
9.116944670677185059e-02
-2.013027667999267578e-02
7.114270329475402832e-02
7.963049411773681641e-02
1.160461306571960449e-01
-8.407041430473327637e-03
-7.523293793201446533e-02
-9.690380096435546875e-02
-8.455611765384674072e-03
7.654298841953277588e-02
1.065948829054832458e-01
4.631660878658294678e-02
-5.457090958952903748e-02
-7.023078948259353638e-02
-1.050923578441143036e-02
-3.327184915542602539e-02
-1.030211821198463440e-01
-5.936795100569725037e-02
-2.562652900815010071e-02
5.039598047733306885e-02
6.304711848497390747e-02
-4.646289348602294922e-02
-4.821104556322097778e-02
-1.161687523126602173e-01
-6.543589290231466293e-03
-8.529316633939743042e-02
-6.266881711781024933e-03
-6.874634325504302979e-02
1.207680255174636841e-01
7.923837751150131226e-02
-2.613899484276771545e-02
-9.837651997804641724e-02
-1.537754088640213013e-01
4.068586230278015137e-02
-1.304032746702432632e-03
7.774832099676132202e-02
-4.946041479706764221e-02
-2.243486605584621429e-02
-6.791812926530838013e-02
-6.146479770541191101e-02
-4.183725919574499130e-03
-5.301971733570098877e-02
-6.415612250566482544e-02
1.590221002697944641e-02
1.600454151630401611e-01
-1.527510862797498703e-02
-1.111204968765377998e-03
1.162161380052566528e-01
-3.018699120730161667e-03
-2.082678675651550293e-02
3.729743137955665588e-02
8.116377145051956177e-02
-5.348119512200355530e-02
-1.372624305076897144e-03
4.412684962153434753e-02
-5.545986816287040710e-02
-2.412969805300235748e-02
-3.334086854010820389e-03
-1.114909499883651733e-01
-1.145310103893280029e-01
-7.053024321794509888e-02
-5.159142427146434784e-03
4.654304683208465576e-02
9.143538773059844971e-02
1.316702514886856079e-01
3.424241766333580017e-02
9.159486740827560425e-02
8.641964942216873169e-02
-4.671387374401092529e-03
-1.132080610841512680e-02
5.913506075739860535e-02
1.121745556592941284e-01
2.507764101028442383e-02
-1.025000214576721191e-01
-5.131728574633598328e-02
9.644049219787120819e-03
-2.564574033021926880e-02
7.082686573266983032e-02
2.913752384483814240e-02
-3.134516254067420959e-02
-1.231928840279579163e-01
-1.703566163778305054e-01
8.095535449683666229e-03
-7.834175974130630493e-02
-3.866493003442883492e-03
1.750736497342586517e-02
6.833796948194503784e-02
-8.129017055034637451e-02
-2.142693549394607544e-01
-4.767052829265594482e-02
-8.678872883319854736e-02
7.525812834501266479e-03
1.486814171075820923e-01
1.545444577932357788e-01
-2.382059395313262939e-02
-1.040243431925773621e-01
-5.627996474504470825e-02
2.870077267289161682e-03
8.468712866306304932e-02
4.276575520634651184e-02
-4.603805392980575562e-02
-1.417524665594100952e-01
-7.185351103544235229e-02
-3.266868367791175842e-02
1.255056820809841156e-03
-6.203845515847206116e-02
-7.126566022634506226e-02
-4.258022457361221313e-02
-2.911738865077495575e-02
-8.673619478940963745e-02
1.161306258291006088e-02
-6.928739696741104126e-02
-5.884229764342308044e-02
-2.014118246734142303e-02
-1.741368696093559265e-02
5.467448756098747253e-02
8.210045099258422852e-02
1.226426064968109131e-01
-5.123269930481910706e-02
-6.812343001365661621e-02
-4.241210408508777618e-04
-4.713371396064758301e-03
-4.261265322566032410e-02
8.874575607478618622e-03
3.083136864006519318e-02
-7.759195752441883087e-03
-8.397567272186279297e-02
-1.191850602626800537e-01
-1.126008257269859314e-01
-4.486678168177604675e-02
4.263078793883323669e-02
2.411324903368949890e-02
-1.122946739196777344e-01
2.459097094833850861e-02
1.702287048101425171e-02
-1.456737704575061798e-02
-1.000033095479011536e-01
-5.049482733011245728e-02
2.250633016228675842e-02
1.785572618246078491e-02
7.084348052740097046e-02
-3.342587500810623169e-03
-4.560551792383193970e-02
3.998919576406478882e-02
7.005631178617477417e-02
5.077814310789108276e-02
6.433120369911193848e-02
-6.788460072129964828e-03
-6.169983372092247009e-02
5.460097268223762512e-02
7.041490077972412109e-02
2.243528515100479126e-02
7.626867853105068207e-03
-3.118002600967884064e-02
-6.256209313869476318e-02
7.820899598300457001e-03
1.732564903795719147e-02
3.851651400327682495e-02
2.250979840755462646e-02
-5.987399071455001831e-02
2.533627115190029144e-02
5.863026529550552368e-02
1.547934412956237793e-01
1.469222158193588257e-01
1.435115039348602295e-01
9.139487892389297485e-02
-1.450320892035961151e-02
1.681756787002086639e-02
2.975578233599662781e-02
6.491985172033309937e-02
7.698755711317062378e-03
-1.027376502752304077e-01
-1.309087276458740234e-01
-2.130586840212345123e-02
8.005858957767486572e-02
5.061446130275726318e-02
5.421661213040351868e-02
4.122089222073554993e-02
-8.986623585224151611e-02
-1.086384132504463196e-01
-5.060055851936340332e-02
7.211294490844011307e-03
-7.948698103427886963e-02
3.611978143453598022e-02
1.664715111255645752e-01
-4.143536835908889771e-02
-6.971501559019088745e-02
-3.520691022276878357e-02
-2.275168523192405701e-02
-1.820254884660243988e-02
1.394591629505157471e-01
4.410161450505256653e-02
-3.988504409790039062e-02
-1.044294759631156921e-01
-3.279907628893852234e-02
1.916724070906639099e-02
-1.225073914974927902e-02
-5.679745227098464966e-02
-6.441258639097213745e-02
1.421949081122875214e-02
-6.577274948358535767e-02
-6.511172279715538025e-03
2.364930696785449982e-03
-8.799818158149719238e-02
-2.475839704275131226e-01
-5.886448081582784653e-03
2.334319241344928741e-02
-5.288444459438323975e-02
2.146894298493862152e-02
1.199223101139068604e-01
-7.029940374195575714e-03
-3.916767984628677368e-02
-2.177221141755580902e-02
1.137166749686002731e-02
5.569591373205184937e-02
3.341421857476234436e-02
4.437053576111793518e-02
1.448737457394599915e-02
-5.577832832932472229e-02
-4.335667192935943604e-02
-6.246430566534399986e-04
-6.794612109661102295e-02
-1.765120588243007660e-02
-1.775448443368077278e-03
-1.087798178195953369e-01
-2.196914404630661011e-01
1.187673583626747131e-01
2.480442225933074951e-01
1.165875196456909180e-01
9.666121751070022583e-02
-1.899655163288116455e-02
-4.668563976883888245e-02
-3.098004683852195740e-02
2.283380627632141113e-01
3.012438416481018066e-01
1.373639423400163651e-02
3.855277597904205322e-02
6.080117821693420410e-02
1.893855864182114601e-03
-1.326189041137695312e-01
-1.104065030813217163e-01
1.322835981845855713e-01
1.057757064700126648e-01
1.096900627017021179e-01
1.159104239195585251e-02
-6.035394594073295593e-02
-1.528447587043046951e-02
4.839533567428588867e-02
4.827526584267616272e-02
6.315979361534118652e-02
5.523691885173320770e-03
7.265769690275192261e-02
5.104973539710044861e-02
1.124200299382209778e-01
7.636777311563491821e-02
4.650235921144485474e-02
3.940590098500251770e-02
3.669907152652740479e-02
4.707635380327701569e-03
1.091963127255439758e-01
1.189377531409263611e-01
9.475315362215042114e-02
3.837729990482330322e-02
7.462745904922485352e-02
-1.442880276590585709e-02
-5.963133648037910461e-02
-4.335735365748405457e-02
1.380063965916633606e-02
4.901674762368202209e-02
7.146494835615158081e-02
1.477520167827606201e-02
3.968569799326360226e-04
-1.160081773996353149e-01
-4.471454769372940063e-02
-7.606330513954162598e-02
-8.954499661922454834e-02
-1.943833082914352417e-01
-1.367200464010238647e-01
-1.481230929493904114e-02
2.347483299672603607e-03
-6.092223152518272400e-02
2.156656794250011444e-02
9.794977493584156036e-03
-1.601027548313140869e-01
-1.108935028314590454e-01
-6.917051970958709717e-02
-5.444687232375144958e-02
6.357414275407791138e-02
1.458610147237777710e-01
-8.606200665235519409e-02
5.316299200057983398e-02
5.242356657981872559e-02
6.280801445245742798e-02
7.607178390026092529e-02
4.518941417336463928e-02
-2.749586291611194611e-02
1.186564285308122635e-02
5.196190625429153442e-02
8.295457065105438232e-02
-7.248134911060333252e-02
-1.420420110225677490e-01
-1.382345557212829590e-01
-1.100303679704666138e-01
7.091271132230758667e-02
1.282988637685775757e-01
3.151848167181015015e-02
-6.243844702839851379e-02
-3.072706749662756920e-03
-4.684497788548469543e-02
-5.036148801445960999e-02
-8.852710016071796417e-03
1.520964666269719601e-03
-5.900043062865734100e-03
4.701833426952362061e-02
8.908439427614212036e-03
-5.339421704411506653e-02
-1.057283431291580200e-01
-1.490562260150909424e-01
4.589031916111707687e-03
-3.887832537293434143e-02
3.289971128106117249e-02
-1.000680923461914062e-01
-7.944802939891815186e-02
-7.173568755388259888e-02
8.473587222397327423e-03
-2.205792441964149475e-02
-8.253420144319534302e-02
3.854097053408622742e-02
-4.935615137219429016e-02
-1.074257865548133850e-02
3.190900012850761414e-02
1.659507863223552704e-02
8.311048150062561035e-02
-1.179714780300855637e-02
-4.972155205905437469e-03
-1.253535225987434387e-02
2.604324184358119965e-02
-4.780990630388259888e-02
-1.166458353400230408e-01
1.037225052714347839e-01
3.003145568072795868e-02
5.440994352102279663e-02
-9.713988751173019409e-02
-7.014708220958709717e-02
4.686567187309265137e-02
6.236167624592781067e-02
1.145507320761680603e-01
1.218558773398399353e-01
-8.730058372020721436e-02
9.410134702920913696e-02
-3.262020880356431007e-03
1.157938838005065918e-01
-8.127041906118392944e-02
-1.785921156406402588e-01
1.545149181038141251e-02
-7.449360936880111694e-02
-2.057659439742565155e-02
7.942269556224346161e-03
-2.824942208826541901e-02
1.231128256767988205e-02
-4.862713813781738281e-02
4.113008081912994385e-02
-4.046037327498197556e-03
-3.565232083201408386e-02
-3.943589329719543457e-02
-2.225112356245517731e-02
8.659368753433227539e-02
5.401168600656092167e-04
-5.479267984628677368e-02
-3.538499400019645691e-02
-3.321775794029235840e-02
-1.736681349575519562e-02
-2.902796268463134766e-01
3.977569937705993652e-02
3.140010312199592590e-02
1.887945272028446198e-02
-5.093120783567428589e-02
-3.242505341768264771e-02
-6.834462285041809082e-02
-2.253408282995223999e-01
1.323937089182436466e-03
-3.863447904586791992e-02
-6.256669014692306519e-02
-7.396813482046127319e-03
-3.662865841761231422e-03
-7.459592074155807495e-02
-5.656478926539421082e-02
4.442838579416275024e-02
4.501342773437500000e-02
1.107694301754236221e-02
1.655023079365491867e-04
-7.017591968178749084e-03
-6.762833893299102783e-02
-1.374178472906351089e-02
-5.977944284677505493e-02
-1.775143109261989594e-02
-3.145335987210273743e-02
-4.073697328567504883e-02
2.266178652644157410e-02
2.445670589804649353e-02
-1.859695883467793465e-03
-2.148386649787425995e-02
5.113831907510757446e-02
4.505024850368499756e-02
-4.472982883453369141e-02
-2.119532786309719086e-03
-1.404175814241170883e-02
-3.603298589587211609e-02
3.959396854043006897e-02
2.259181998670101166e-02
-6.357555091381072998e-02
-1.506429258733987808e-02
1.580137573182582855e-02
-8.215774595737457275e-02
-5.167768523097038269e-02
-1.601469218730926514e-01
-2.904904782772064209e-01
-2.479724436998367310e-01
-1.803537830710411072e-02
5.894527956843376160e-02
-3.800121694803237915e-02
-1.267485618591308594e-01
-1.802109926939010620e-01
-7.009008526802062988e-02
1.383351511321961880e-03
-1.789483125321567059e-03
-7.290105521678924561e-02
-1.096415370702743530e-01
-2.699349522590637207e-01
-6.483702361583709717e-02
1.298732310533523560e-01
9.356598556041717529e-02
-1.717798262834548950e-01
-8.106274157762527466e-02
-6.216474249958992004e-02
-7.861506938934326172e-02
5.182223767042160034e-02
-2.517816610634326935e-02
-1.170681864023208618e-01
1.969545520842075348e-02
-8.837933838367462158e-02
-1.444725245237350464e-01
-8.151680231094360352e-02
-4.776254063472151756e-04
3.618874028325080872e-02
-1.838002912700176239e-02
-9.112329035997390747e-02
-4.801164939999580383e-02
1.445716246962547302e-02
4.836594685912132263e-02
5.470393598079681396e-02
2.388514345511794090e-03
2.388824941590428352e-03
-2.405472286045551300e-02
8.131298422813415527e-02
-6.243338808417320251e-02
-9.402856975793838501e-02
-5.980821698904037476e-02
8.676872588694095612e-03
-6.206153333187103271e-02
-5.660378560423851013e-02
1.217242777347564697e-01
3.520160168409347534e-02
3.918976336717605591e-02
2.615441102534532547e-03
-9.895334951579570770e-03
-6.249041855335235596e-02
5.056264623999595642e-02
-1.334519535303115845e-01
-1.465992331504821777e-01
6.057420745491981506e-02
1.727655529975891113e-02
-1.120836436748504639e-01
-1.186898499727249146e-01
-2.551860362291336060e-02
5.646317079663276672e-02
-6.329859793186187744e-02
6.140874233096837997e-03
1.072961185127496719e-02
4.283404722809791565e-02
3.593174368143081665e-02
-5.919059738516807556e-02
3.905924782156944275e-02
2.758801542222499847e-02
4.436264932155609131e-02
3.027581796050071716e-02
-8.742805570363998413e-02
-1.218216866254806519e-01
-1.233115866780281067e-01
1.236062869429588318e-01
1.399909704923629761e-01
8.094567805528640747e-02
1.607717014849185944e-02
5.753854056820273399e-04
-1.570605188608169556e-01
1.801881566643714905e-02
2.923347055912017822e-02
1.297957152128219604e-01
7.670731097459793091e-02
5.263512954115867615e-02
-1.058598794043064117e-02
-1.055358350276947021e-01
-7.867421954870223999e-03
-9.504861198365688324e-03
-8.466694504022598267e-02
1.357245724648237228e-02
-8.919145166873931885e-02
-3.856110200285911560e-02
2.120318450033664703e-02
-2.265425026416778564e-02
1.056175678968429565e-01
-2.339981123805046082e-02
-3.132892027497291565e-02
-4.138745367527008057e-02
3.109506331384181976e-02
1.821106113493442535e-02
-1.146446242928504944e-01
2.659736759960651398e-02
2.969380840659141541e-02
5.031036213040351868e-02
6.795594841241836548e-02
1.115114539861679077e-01
-2.095134928822517395e-02
-4.580066725611686707e-02
-2.683335170149803162e-02
-5.134091898798942566e-02
5.953976511955261230e-02
-1.557773351669311523e-02
-6.361080706119537354e-02
-1.708633154630661011e-01
7.816351950168609619e-02
-3.825896233320236206e-02
-5.865135416388511658e-02
-3.173641487956047058e-02
-9.247052669525146484e-02
-7.235233485698699951e-02
-1.018917113542556763e-01
-5.157824233174324036e-02
-2.950604259967803955e-02
-1.954733207821846008e-02
-1.401901990175247192e-02
-2.556949155405163765e-03
6.194848939776420593e-02
-5.450427904725074768e-02
2.274086326360702515e-02
-4.659726843237876892e-02
-3.911655023694038391e-02
-6.783650070428848267e-02
5.607248749583959579e-04
5.094287171959877014e-02
-5.761796142905950546e-03
-1.550704892724752426e-02
1.071057096123695374e-01
5.162980780005455017e-02
4.594616219401359558e-02
5.005652084946632385e-02
-5.873616319149732590e-03
6.067966576665639877e-03
-3.336534276604652405e-02
1.159248966723680496e-02
-7.372598350048065186e-02
3.666815534234046936e-02
8.702052384614944458e-02
1.075860187411308289e-01
1.450226549059152603e-02
7.879485189914703369e-02
-1.689919084310531616e-02
-5.806043744087219238e-02
6.224448978900909424e-02
3.577614948153495789e-02
1.160042211413383484e-01
8.133373409509658813e-02
6.024459749460220337e-02
8.711211383342742920e-02
-1.031395886093378067e-02
5.319701135158538818e-02
-1.668486744165420532e-01
6.750737130641937256e-02
1.759090274572372437e-02
4.785190522670745850e-02
3.175687417387962341e-02
5.670171231031417847e-02
2.814462175592780113e-03
3.416791441850364208e-04
2.783763594925403595e-02
2.940349653363227844e-02
7.670067995786666870e-02
-8.143302798271179199e-02
1.102178022265434265e-01
4.290755838155746460e-02
3.717243671417236328e-02
2.695812843739986420e-02
1.147809531539678574e-02
3.314681351184844971e-02
1.416856236755847931e-02
4.661805462092161179e-03
8.710698783397674561e-02
2.238660864531993866e-02
-2.572523988783359528e-02
5.210617929697036743e-02
4.549486190080642700e-02
-6.634680926799774170e-02
-9.770057164132595062e-03
-1.734500750899314880e-02
-5.147556588053703308e-02
1.111048832535743713e-02
-1.035924535244703293e-02
-5.758458003401756287e-02
6.949771940708160400e-02
3.846496716141700745e-02
5.671142786741256714e-02
-5.117643252015113831e-02
-1.477462351322174072e-01
-1.101715341210365295e-01
-7.871680706739425659e-02
-3.663788735866546631e-02
-4.921848699450492859e-02
-1.216804012656211853e-01
-1.305025219917297363e-01
-2.565820813179016113e-01
-1.106519103050231934e-01
-4.998144134879112244e-02
-6.469736993312835693e-02
-6.493385881185531616e-02
1.597154885530471802e-02
1.895806640386581421e-01
-2.641787566244602203e-02
-6.778655946254730225e-02
-9.933597594499588013e-02
-8.387887477874755859e-02
-2.953275851905345917e-02
8.985929191112518311e-02
1.032326072454452515e-01
2.571460045874118805e-02
-1.581986695528030396e-01
-7.650238275527954102e-02
5.574651062488555908e-02
7.181303948163986206e-02
8.175908587872982025e-03
-2.958780853077769279e-03
-3.243472799658775330e-02
-1.744574606418609619e-01
-1.003337129950523376e-01
-4.760624468326568604e-02
-6.712780147790908813e-02
-2.154068090021610260e-02
-8.235394954681396484e-02
4.292075522243976593e-03
8.532017469406127930e-02
-1.413108222186565399e-02
5.981812719255685806e-03
-3.004346787929534912e-02
3.508929628878831863e-03
-3.897930309176445007e-02
-5.131733044981956482e-02
-9.395998716354370117e-02
-1.023895889520645142e-01
1.038820482790470123e-02
-5.022288858890533447e-02
-5.661818012595176697e-02
1.104517728090286255e-01
1.335734575986862183e-01
-8.714044839143753052e-02
-2.021897671511396766e-04
4.073295742273330688e-03
-1.234943717718124390e-01
3.915728628635406494e-02
-1.548290625214576721e-02
9.340120106935501099e-02
6.848600506782531738e-02
5.897488817572593689e-02
-1.880181394517421722e-02
-1.427570730447769165e-01
1.953683979809284210e-02
-2.368617653846740723e-01
-3.936856240034103394e-02
-1.787624880671501160e-02
5.331610888242721558e-02
-9.568101167678833008e-02
-3.015368990600109100e-02
-7.865595072507858276e-02
-5.896369367837905884e-02
2.081565931439399719e-02
1.391025260090827942e-02
-3.939699009060859680e-02
-1.944333873689174652e-02
-4.159176349639892578e-02
-1.277711428701877594e-02
6.997730582952499390e-02
4.524178430438041687e-02
2.634793892502784729e-02
-2.179186604917049408e-02
-9.534134715795516968e-02
2.446357533335685730e-02
-5.144715681672096252e-02
2.005980350077152252e-02
-2.852234244346618652e-02
2.462521754205226898e-02
3.219668567180633545e-02
-4.050014540553092957e-02
1.009688433259725571e-02
1.233126968145370483e-02
6.023729592561721802e-02
7.853970676660537720e-02
-1.384827680885791779e-02
-6.212735548615455627e-02
-7.766409963369369507e-02
-5.709485709667205811e-02
-1.306312531232833862e-01
5.768127739429473877e-02
1.380605250597000122e-01
4.712926596403121948e-02
2.722282707691192627e-02
1.315950155258178711e-01
7.898568361997604370e-02
-1.850959844887256622e-02
-1.182691529393196106e-01
-9.385270625352859497e-02
-1.634476631879806519e-01
-5.975335463881492615e-02
9.536477178335189819e-02
-3.488687425851821899e-02
-2.110934816300868988e-03
-9.179066866636276245e-02
-2.102015912532806396e-01
-8.004429191350936890e-02
4.265489988029003143e-03
2.206617407500743866e-02
4.754613339900970459e-02
1.197192743420600891e-01
2.233053743839263916e-01
5.602215602993965149e-02
-4.059056192636489868e-02
-1.201869826763868332e-02
-5.682258307933807373e-02
5.858141556382179260e-02
6.222552619874477386e-04
-6.569656729698181152e-02
-1.489001661539077759e-01
-1.045850142836570740e-01
-1.429555471986532211e-02
-1.746418327093124390e-02
8.373253792524337769e-02
9.104515425860881805e-03
-4.094302654266357422e-02
1.101127639412879944e-02
-9.639034979045391083e-03
-3.049829974770545959e-02
8.589007705450057983e-02
-1.648882776498794556e-02
5.772736296057701111e-02
2.534948475658893585e-02
1.930769905447959900e-02
-5.851267278194427490e-02
-1.930568926036357880e-02
-1.122090071439743042e-01
-4.614136181771755219e-03
5.549316853284835815e-02
2.062176726758480072e-02
-1.398786008358001709e-01
-1.177278608083724976e-01
-4.300545156002044678e-02
1.282747685909271240e-01
-3.892986103892326355e-02
-3.722833842039108276e-02
-8.329238742589950562e-02
-1.289007216691970825e-01
-1.491536200046539307e-01
-8.467192947864532471e-02
-1.929096132516860962e-02
-8.559931069612503052e-02
-3.513573482632637024e-02
4.025633633136749268e-02
2.342102676630020142e-02
9.236682206392288208e-03
-9.704568982124328613e-02
1.115137431770563126e-02
1.939787343144416809e-02
1.218843609094619751e-01
1.843344420194625854e-01
6.641427427530288696e-02
-2.035768330097198486e-01
-1.179773956537246704e-01
1.294638961553573608e-02
-1.067907270044088364e-02
5.325987003743648529e-03
-7.356427609920501709e-02
-2.842450700700283051e-02
-7.364168018102645874e-02
-4.323816299438476562e-02
1.001660898327827454e-02
6.525867432355880737e-02
3.198282420635223389e-02
4.723315313458442688e-02
5.484623834490776062e-02
1.650717668235301971e-02
-5.940538644790649414e-02
2.488422207534313202e-02
-6.663503497838973999e-02
5.482218787074089050e-02
-3.637089952826499939e-02
-1.355580240488052368e-02
-5.462642386555671692e-02
-1.439061760902404785e-01
4.097317531704902649e-02
3.626539558172225952e-02
3.744375705718994141e-02
1.422417014837265015e-01
6.207723543047904968e-02
-1.758272387087345123e-02
-4.514061287045478821e-02
9.181030839681625366e-02
-5.185522511601448059e-02
1.160217747092247009e-01
1.583512686192989349e-02
1.364894509315490723e-01
1.027179732918739319e-01
6.475019454956054688e-02
-2.070605941116809845e-02
-1.469372957944869995e-01
-1.722235381603240967e-01
-3.049443662166595459e-01
7.970700971782207489e-03
-7.817408069968223572e-03
-1.882892474532127380e-02
-3.689213469624519348e-02
-1.716225035488605499e-02
-1.267527639865875244e-01
-1.622394323348999023e-01
1.834883936680853367e-03
-3.412675112485885620e-02
3.116934932768344879e-02
-2.693282067775726318e-02
-5.637183412909507751e-02
-2.595159225165843964e-02
3.671598061919212341e-02
8.488636463880538940e-02
1.302342209964990616e-02
-4.023981839418411255e-02
-4.296550527215003967e-02
-1.001353412866592407e-01
-5.195910856127738953e-02
1.853008754551410675e-02
-2.521665021777153015e-02
1.906364969909191132e-02
-1.108621433377265930e-02
-6.670835614204406738e-02
-7.394617050886154175e-02
-2.042518928647041321e-02
-3.666224703192710876e-02
-2.492596954107284546e-02
2.720061130821704865e-02
3.161057084798812866e-02
8.154375478625297546e-03
-5.787560343742370605e-02
1.462927460670471191e-02
9.640496969223022461e-02
8.667275309562683105e-02
8.231200277805328369e-02
3.470550850033760071e-02
3.960726037621498108e-02
-1.317164581269025803e-02
1.751959621906280518e-01
3.246153891086578369e-02
-3.029325604438781738e-02
-5.671912804245948792e-02
-3.230079635977745056e-02
-1.245477795600891113e-01
-4.009902477264404297e-02
1.821068227291107178e-01
-1.311217993497848511e-02
2.627174183726310730e-02
1.713487803936004639e-01
-1.273761410266160965e-02
-3.457548096776008606e-02
-3.111546300351619720e-02
-1.973151974380016327e-02
1.274138540029525757e-01
4.236420616507530212e-02
-3.110731020569801331e-02
9.872595779597759247e-03
-3.036928595975041389e-03
5.399065837264060974e-02
1.381946355104446411e-02
-1.763120293617248535e-02
-4.525823518633842468e-02
2.659659599885344505e-03
-7.479722052812576294e-02
6.698809564113616943e-02
1.101289018988609314e-01
3.914979845285415649e-02
4.403054341673851013e-02
4.203764721751213074e-02
-7.312342524528503418e-02
9.497877955436706543e-02
5.081342160701751709e-02
-6.657076627016067505e-02
-3.206440806388854980e-02
1.885833777487277985e-02
8.219458907842636108e-02
-5.573646351695060730e-02
-4.880008846521377563e-02
1.117441058158874512e-01
-1.681704074144363403e-02
9.294606000185012817e-02
-8.911665529012680054e-03
1.205977797508239746e-01
4.696505516767501831e-02
-6.405061483383178711e-02
5.183400213718414307e-02
-8.010303974151611328e-02
3.166735917329788208e-02
-5.662763863801956177e-02
-1.613366454839706421e-01
-1.242069005966186523e-01
-1.473085880279541016e-01
-2.221721597015857697e-02
4.643358662724494934e-02
1.997460275888442993e-01
1.699882447719573975e-01
-1.330282241106033325e-01
-1.835080534219741821e-01
-3.371062874794006348e-02
-2.534828707575798035e-02
1.883425004780292511e-02
5.673545598983764648e-02
1.896337270736694336e-01
1.265127211809158325e-01
5.049844831228256226e-02
-3.202189877629280090e-02
1.593051850795745850e-02
-7.011424750089645386e-03
-2.196837216615676880e-02
-2.467294968664646149e-02
-1.180135644972324371e-02
-1.373560726642608643e-01
1.599268289282917976e-03
5.146742332726716995e-04
1.070464700460433960e-01
2.720646187663078308e-02
2.342353202402591705e-02
6.972888112068176270e-02
-2.316591329872608185e-02
-1.772465743124485016e-02
5.234943330287933350e-02
4.546611011028289795e-02
9.852639399468898773e-03
-2.577430382370948792e-02
1.074413303285837173e-02
-3.666714206337928772e-02
5.248381942510604858e-02
1.397419162094593048e-02
-8.587027341127395630e-02
-9.408123046159744263e-02
4.893612116575241089e-02
5.697811767458915710e-02
5.340423807501792908e-02
4.088713228702545166e-02
-6.978120654821395874e-02
3.406347241252660751e-03
1.205482408404350281e-01
1.359308809041976929e-01
5.414445325732231140e-02
-3.020688891410827637e-02
1.604592078365385532e-03
1.100663691759109497e-01
1.821910589933395386e-01
2.255907207727432251e-01
-1.236063428223133087e-03
6.765397638082504272e-02
1.114188283681869507e-01
3.080520220100879669e-02
6.881855428218841553e-02
5.140456557273864746e-02
-3.216192498803138733e-02
-1.636549271643161774e-02
1.154640340246260166e-03
1.847521960735321045e-02
3.128194063901901245e-02
1.065435931086540222e-01
7.301311194896697998e-02
3.289561253041028976e-03
-5.136218667030334473e-02
-6.358110904693603516e-02
-5.833550821989774704e-03
-6.661003082990646362e-02
5.605500191450119019e-03
2.740133367478847504e-02
-3.661089763045310974e-02
-5.014538392424583435e-02
-4.923281818628311157e-02
5.338899046182632446e-02
2.959630638360977173e-02
-1.688911393284797668e-02
1.101609319448471069e-02
2.124087326228618622e-02
7.722555845975875854e-02
9.388178586959838867e-02
-2.485094591975212097e-02
-6.999504566192626953e-02
7.926517724990844727e-02
4.132433328777551651e-03
4.915999993681907654e-02
-4.912742599844932556e-02
-1.537631149403750896e-03
-6.136058270931243896e-02
-9.268190711736679077e-03
1.667274981737136841e-01
-7.116290181875228882e-02
-7.126290351152420044e-02
-1.887441426515579224e-01
-2.061233818531036377e-01
-1.784196943044662476e-01
-1.711474955081939697e-01
1.052381657063961029e-02
-4.985047504305839539e-02
5.210784822702407837e-02
4.130988940596580505e-02
2.499242126941680908e-02
-1.258334815502166748e-01
3.609676379710435867e-03
2.471828646957874298e-02
1.267033535987138748e-02
1.354302167892456055e-01
1.365319490432739258e-01
-6.919855624437332153e-02
-2.263649702072143555e-01
-1.745847016572952271e-01
1.621534302830696106e-02
-2.398745529353618622e-02
-3.149904310703277588e-02
-3.517479076981544495e-02
-1.012997999787330627e-01
-2.265312075614929199e-01
1.657375949434936047e-03
-1.307902671396732330e-02
3.760595619678497314e-02
8.864045888185501099e-02
6.681424379348754883e-02
5.034548044204711914e-02
1.208738191053271294e-03
-2.354330010712146759e-02
1.145722046494483948e-01
-4.798789508640766144e-03
4.528960585594177246e-02
2.668981999158859253e-02
4.934168979525566101e-02
6.728156586177647114e-04
-3.693412989377975464e-02
8.033880963921546936e-03
1.299324259161949158e-02
4.540558904409408569e-02
3.676168993115425110e-02
-1.155723109841346741e-01
-1.234994009137153625e-01
-3.347851336002349854e-02
1.415613740682601929e-01
1.572450250387191772e-02
-1.966783963143825531e-02
-1.099363043904304504e-01
-7.866103202104568481e-02
-9.279736131429672241e-02
-6.062090769410133362e-02
3.618371114134788513e-02
-1.066948175430297852e-01
-8.129717409610748291e-02
2.151149511337280273e-02
1.249705404043197632e-01
5.789209157228469849e-02
-7.643760740756988525e-02
3.624840080738067627e-02
1.200362760573625565e-02
9.994161128997802734e-02
1.508539766073226929e-01
-4.322556033730506897e-02
-1.301190257072448730e-01
1.076158694922924042e-02
-8.919758722186088562e-03
1.157229766249656677e-03
-2.919634059071540833e-02
-4.310790821909904480e-02
-2.711498178541660309e-03
-3.400436416268348694e-02
-2.262548357248306274e-02
-2.685103565454483032e-02
6.790255755186080933e-02
5.351250991225242615e-02
7.824682444334030151e-02
7.349430024623870850e-02
1.327259559184312820e-02
-1.539631374180316925e-02
-5.200701579451560974e-02
1.345149893313646317e-02
6.511390209197998047e-02
-9.859066456556320190e-03
2.307667862623929977e-03
3.809254616498947144e-02
-6.685156375169754028e-03
4.081073403358459473e-02
-1.944829709827899933e-02
-1.199447885155677795e-01
5.898540467023849487e-02
1.908991299569606781e-02
3.854855149984359741e-02
-6.869303435087203979e-02
-9.993751533329486847e-03
5.821027792990207672e-03
1.143336668610572815e-01
1.344469636678695679e-01
1.602518707513809204e-01
2.444873005151748657e-02
-8.194214105606079102e-02
3.518701344728469849e-02
2.872752770781517029e-02
1.730954051017761230e-01
2.896130457520484924e-02
1.220886930823326111e-01
6.119604036211967468e-02
2.292162179946899414e-02
4.098587483167648315e-02
2.675373852252960205e-02
-3.884802758693695068e-02
-3.463682078290730715e-04
-2.952646091580390930e-02
-6.846394855529069901e-03
-1.230323836207389832e-01
9.246806800365447998e-02
4.224835708737373352e-02
5.911587923765182495e-02
-7.020583003759384155e-02
-4.839430749416351318e-02
-2.104250015690922737e-03
1.247764751315116882e-02
1.209397241473197937e-01
5.035001784563064575e-02
-1.140213683247566223e-01
-4.616232216358184814e-02
-7.071104645729064941e-02
5.317220930010080338e-03
