# (32, 1568)
9.808970615267753601e-03
7.522657513618469238e-03
-2.381788380444049835e-02
-2.882616408169269562e-02
-9.197762235999107361e-03
4.968005232512950897e-04
-2.468978986144065857e-02
-2.807199023663997650e-02
1.839320734143257141e-02
-4.833023063838481903e-03
-1.689332188107073307e-03
-8.695746655575931072e-04
-1.741755008697509766e-02
9.689002297818660736e-03
-3.083212301135063171e-02
-2.968788333237171173e-02
-1.189060229808092117e-02
-1.973615586757659912e-02
-9.291759692132472992e-03
-5.639543291181325912e-03
-1.336230337619781494e-02
1.525518856942653656e-02
-6.071657873690128326e-03
-1.003061234951019287e-02
1.548819988965988159e-02
1.146551780402660370e-02
1.919070445001125336e-02
-1.050603669136762619e-02
-1.853935420513153076e-02
5.187865812331438065e-03
-1.220000442117452621e-02
-2.801199629902839661e-02
1.903474517166614532e-02
-2.147340215742588043e-02
-1.326901093125343323e-02
1.367668155580759048e-02
7.143545895814895630e-03
-1.001198589801788330e-02
3.905524965375661850e-03
1.417807303369045258e-03
-2.085218392312526703e-02
7.016962859779596329e-03
1.132212951779365540e-02
-8.747860789299011230e-03
-6.720897275954484940e-03
-1.341806445270776749e-02
-1.950554177165031433e-02
6.626910064369440079e-03
-2.968870662152767181e-02
-8.856846950948238373e-03
1.716678217053413391e-02
-2.982555516064167023e-02
1.043431740254163742e-02
-5.787183064967393875e-03
-2.886949665844440460e-02
1.874526590108871460e-02
-2.138593792915344238e-02
-4.387048073112964630e-03
1.280205603688955307e-02
6.223986856639385223e-03
1.082508545368909836e-02
-3.013204969465732574e-02
-1.302546728402376175e-02
-1.266495231539011002e-02
1.159162167459726334e-02
-1.096889469772577286e-02
-1.288070250302553177e-02
3.311118634883314371e-04
-9.571420960128307343e-03
-6.052090786397457123e-03
-3.121743537485599518e-02
-1.106698717921972275e-02
-2.122662961483001709e-02
-2.790879830718040466e-02
1.155145000666379929e-02
-3.514217678457498550e-03
1.502653397619724274e-02
-1.991758821532130241e-03
-1.868406194262206554e-03
5.376543849706649780e-03
-2.399408072233200073e-02
-1.038453076034784317e-02
-5.194878671318292618e-03
-2.050339430570602417e-02
-9.268471971154212952e-03
-1.919989287853240967e-02
-3.015099093317985535e-02
7.260804995894432068e-03
-4.978155484423041344e-04
7.979132235050201416e-03
-2.457645907998085022e-02
1.642609573900699615e-02
-4.209074191749095917e-03
2.627762733027338982e-03
-1.334123965352773666e-02
-2.945357188582420349e-02
-2.593296952545642853e-02
-2.625089511275291443e-02
5.074441898614168167e-03
-1.548484433442354202e-02
-2.771372441202402115e-03
-1.476999092847108841e-02
-2.966540120542049408e-02
-1.454393099993467331e-02
-4.444176331162452698e-03
1.686758175492286682e-02
-1.298535335808992386e-02
-2.846467681229114532e-02
-1.183567848056554794e-02
-3.059607744216918945e-02
-5.124590359628200531e-03
-1.596515299752354622e-03
6.620923522859811783e-03
-2.543659508228302002e-02
-1.083800662308931351e-02
2.832661569118499756e-02
1.733971014618873596e-02
-2.725391276180744171e-02
-2.694785408675670624e-02
-2.204994438216090202e-03
-3.019504621624946594e-02
-2.747236564755439758e-02
-2.476736716926097870e-02
-2.810483425855636597e-02
1.874033734202384949e-02
-2.116570062935352325e-02
8.065580390393733978e-03
-7.624464575201272964e-03
-8.208900690078735352e-03
-3.829046385362744331e-03
-4.993007518351078033e-03
1.800499111413955688e-02
3.312021435704082251e-04
-1.482734736055135727e-02
1.755304820835590363e-02
-1.126689370721578598e-02
-2.493573538959026337e-02
3.139232750982046127e-03
-7.731163874268531799e-03
-1.631146483123302460e-02
-2.540021203458309174e-03
1.613562693819403648e-03
-3.352559171617031097e-03
-2.600239776074886322e-02
-1.243255939334630966e-02
-2.947816066443920135e-02
-1.044254656881093979e-02
-7.210951298475265503e-03
-2.779260836541652679e-02
1.579929329454898834e-02
-1.312406081706285477e-02
-1.778907887637615204e-02
-7.271971087902784348e-03
1.210232544690370560e-02
-1.284443866461515427e-02
1.152072940021753311e-02
-2.791525982320308685e-02
3.619999333750456572e-04
-1.291865017265081406e-02
1.010744273662567139e-02
7.686493336223065853e-04
-1.192306261509656906e-02
-1.286447886377573013e-02
9.382694959640502930e-03
-2.269830740988254547e-02
9.229798801243305206e-03
1.099867629818618298e-03
5.209986193221993744e-05
1.613059081137180328e-02
-9.749215096235275269e-03
-1.847641356289386749e-02
1.035559456795454025e-02
-2.209161408245563507e-02
1.536878570914268494e-02
-1.801428385078907013e-02
-8.718793280422687531e-03
1.026855688542127609e-02
1.741185598075389862e-02
-1.070895697921514511e-02
-1.593565940856933594e-02
-6.729092448949813843e-03
2.541996538639068604e-03
-2.017133682966232300e-02
-1.527737732976675034e-02
-1.422005589120090008e-03
1.476650033146142960e-02
-2.741268277168273926e-02
1.307435892522335052e-02
-2.994549833238124847e-02
1.067943032830953598e-02
8.566467091441154480e-03
2.631506510078907013e-02
-2.104215137660503387e-02
-9.477868676185607910e-03
3.780086291953921318e-03
7.809484843164682388e-03
-2.175948955118656158e-02
-8.031923207454383373e-04
-1.260165590792894363e-02
4.973823204636573792e-03
8.457916788756847382e-03
-1.409991737455129623e-02
-8.485374040901660919e-03
1.491265837103128433e-03
-2.517873607575893402e-02
-1.690075546503067017e-02
-1.476103812456130981e-02
-1.029572822153568268e-02
-1.589660719037055969e-02
1.357995346188545227e-02
-4.521981347352266312e-03
3.012856701388955116e-03
1.532947551459074020e-02
-7.099092472344636917e-03
-3.933910280466079712e-03
-4.848670214414596558e-03
-7.961236871778964996e-03
1.660328917205333710e-02
8.663583546876907349e-03
-3.109256178140640259e-02
-2.101914212107658386e-02
-2.355886623263359070e-02
-1.863038050942122936e-03
-2.340949699282646179e-02
8.556522428989410400e-03
1.300589088350534439e-02
-2.350402995944023132e-02
1.914301700890064240e-02
1.113430131226778030e-03
-3.153835423290729523e-03
-1.549928542226552963e-02
-1.804395020008087158e-02
3.230964764952659607e-03
-2.436353638768196106e-02
-2.800368331372737885e-02
1.768716983497142792e-02
1.909369602799415588e-02
-2.463451027870178223e-02
1.157545298337936401e-02
-9.149516001343727112e-03
-2.177421748638153076e-02
1.494235917925834656e-02
1.659302599728107452e-02
1.616274565458297729e-02
1.572158001363277435e-02
-1.575327105820178986e-02
1.873339340090751648e-02
1.190483290702104568e-02
-2.033905498683452606e-02
-8.361483924090862274e-03
-2.244071476161479950e-02
-9.247200563549995422e-03
-7.824046537280082703e-03
1.403850410133600235e-02
1.387424301356077194e-02
1.404410228133201599e-02
1.324634533375501633e-02
-2.177387103438377380e-02
-2.600883319973945618e-02
-7.764591719023883343e-04
7.311807479709386826e-03
1.544053014367818832e-02
-2.970443665981292725e-02
1.888564974069595337e-02
-2.246838249266147614e-02
2.778478374239057302e-04
7.746974937617778778e-03
-2.330376394093036652e-02
-2.641520695760846138e-03
5.655171349644660950e-03
1.118349097669124603e-02
-2.967182360589504242e-02
-1.956109330058097839e-02
6.045223679393529892e-03
-1.017281319946050644e-02
2.277482673525810242e-02
-5.915347486734390259e-03
1.610333472490310669e-02
1.146577205508947372e-02
1.238747593015432358e-02
1.015635859221220016e-02
-8.881574030965566635e-04
-1.375804748386144638e-02
-1.045484934002161026e-02
-1.839474402368068695e-02
1.813802123069763184e-02
6.846704520285129547e-03
-2.392334491014480591e-02
5.614797584712505341e-03
-1.070640608668327332e-02
1.157143898308277130e-02
-2.489685080945491791e-03
-6.337860831990838051e-04
-2.431277418509125710e-03
-2.533743716776371002e-02
-2.278306335210800171e-02
-1.716155745089054108e-02
1.824426464736461639e-02
8.097740821540355682e-03
-2.666674554347991943e-02
-8.267308585345745087e-03
1.206693332642316818e-02
-1.443113293498754501e-02
-6.636361591517925262e-03
4.029944539070129395e-03
-2.421351149678230286e-03
1.099191885441541672e-02
1.660246960818767548e-02
-5.320494063198566437e-03
1.138135604560375214e-02
-2.337554283440113068e-02
4.356043413281440735e-03
-2.922918088734149933e-02
4.334575962275266647e-03
-1.197929814225062728e-04
-2.440892159938812256e-02
-2.832471160218119621e-03
-2.598802559077739716e-02
1.453998964279890060e-02
-2.837193943560123444e-02
-1.603678613901138306e-02
1.914733462035655975e-02
-2.924317307770252228e-02
1.276245247572660446e-02
-3.074052184820175171e-02
-8.453186601400375366e-03
1.970114419236779213e-03
-2.482675947248935699e-02
-2.623471431434154510e-02
-1.677362620830535889e-02
-2.755471039563417435e-03
-2.670866809785366058e-02
-2.619400806725025177e-02
-2.187896519899368286e-02
-1.157215144485235214e-02
-3.111659176647663116e-02
5.010500550270080566e-03
1.666467636823654175e-02
-1.948865875601768494e-02
1.744912751019001007e-02
1.175020355731248856e-02
7.539112120866775513e-03
-2.905572950839996338e-02
2.024196833372116089e-02
-1.346971094608306885e-02
-6.122234277427196503e-03
2.979227341711521149e-02
2.538925781846046448e-02
1.280878111720085144e-02
2.067282795906066895e-02
2.386593987466767430e-04
1.499107107520103455e-02
6.078339181840419769e-03
-1.956648752093315125e-02
-1.882739923894405365e-02
-2.397372853010892868e-03
1.201218366622924805e-02
1.505976915359497070e-02
3.859421703964471817e-03
4.232510458678007126e-03
-7.622919976711273193e-03
9.950249455869197845e-03
-5.253944080322980881e-03
1.465941313654184341e-02
7.805938832461833954e-03
-8.652729913592338562e-03
-2.019552746787667274e-03
-1.225325930863618851e-02
1.208471320569515228e-02
8.963473141193389893e-03
-2.203658409416675568e-02
2.645920589566230774e-02
5.255373660475015640e-03
-1.973929628729820251e-02
7.174304686486721039e-03
1.785442419350147247e-02
9.066797792911529541e-03
-1.206312794238328934e-02
2.132540009915828705e-02
3.919686656445264816e-03
1.387478131800889969e-02
1.401151809841394424e-02
-2.588332071900367737e-02
1.054156199097633362e-02
-9.986700024455785751e-04
1.666462235152721405e-02
1.420448161661624908e-02
-7.540735881775617599e-03
-1.682654768228530884e-02
-1.683384180068969727e-02
-2.932392247021198273e-02
2.228854037821292877e-02
-2.130038774339482188e-04
-7.578691001981496811e-04
-1.007435610517859459e-03
-4.120600875467061996e-03
1.544220186769962311e-02
-2.158287912607192993e-02
-2.060083486139774323e-02
1.313799247145652771e-02
-1.119400840252637863e-02
-7.800358813256025314e-03
-1.318962685763835907e-02
-2.165982127189636230e-02
-9.813128039240837097e-03
1.262814644724130630e-02
-1.680457033216953278e-02
-2.574400976300239563e-02
1.291431393474340439e-02
1.777496561408042908e-02
2.191475825384259224e-03
-2.089273929595947266e-02
-2.633320167660713196e-02
-2.100730314850807190e-02
-2.000871486961841583e-02
1.859864778816699982e-02
1.689697732217609882e-03
9.920220822095870972e-03
-5.515972618013620377e-03
9.518583305180072784e-03
8.342240937054157257e-03
-1.340996194630861282e-02
-2.752416580915451050e-02
-1.818503253161907196e-02
-2.579236403107643127e-02
8.624996058642864227e-03
-1.037904899567365646e-02
-3.218251978978514671e-03
-3.566420637071132660e-03
-1.802043244242668152e-02
-9.906068444252014160e-03
-1.819411292672157288e-02
-1.989104039967060089e-02
-3.121860325336456299e-02
1.823175512254238129e-02
-1.372972875833511353e-02
2.850100398063659668e-02
-4.232805222272872925e-03
8.146281354129314423e-03
-5.404932424426078796e-03
-1.032056193798780441e-02
-1.736820861697196960e-02
-3.076804615557193756e-02
1.965428469702601433e-03
1.202476490288972855e-02
-1.072894199751317501e-03
-1.369856670498847961e-02
-3.561978228390216827e-04
-1.509297080338001251e-02
-9.302515536546707153e-03
-2.861073240637779236e-02
-1.041260920464992523e-02
-1.776700466871261597e-02
1.372708473354578018e-02
-1.176257804036140442e-02
1.211777329444885254e-02
-2.559339441359043121e-02
-1.608443260192871094e-02
1.296818163245916367e-02
-1.307984255254268646e-02
-9.346205042675137520e-04
-2.403698675334453583e-02
-3.049413487315177917e-02
4.657636862248182297e-03
8.917003870010375977e-03
-5.754014942795038223e-03
1.068771630525588989e-02
-3.080478310585021973e-02
7.289423956535756588e-04
-2.763513475656509399e-02
-4.147257655858993530e-03
5.899877287447452545e-03
8.202042663469910622e-04
-3.097979538142681122e-02
7.399485912173986435e-03
-2.365187928080558777e-02
1.371515262871980667e-02
-7.460364140570163727e-03
-3.455343190580606461e-03
4.174476023763418198e-03
-3.072527423501014709e-02
-6.648453883826732635e-03
-2.702251821756362915e-02
6.440070923417806625e-03
-1.691535115242004395e-02
-9.078889153897762299e-03
-2.907682023942470551e-02
-2.236996777355670929e-02
-1.267859246581792831e-02
-2.287943661212921143e-02
-1.088896673172712326e-02
-2.164365537464618683e-02
6.402854342013597488e-03
1.022331416606903076e-02
1.856926269829273224e-02
-8.922689594328403473e-03
-1.457711122930049896e-02
-2.539069764316082001e-02
7.317556068301200867e-03
1.617691852152347565e-02
-1.119556929916143417e-02
-1.593922637403011322e-02
4.752505570650100708e-03
-1.782463304698467255e-02
-1.015435252338647842e-02
1.300438889302313328e-03
1.255660597234964371e-02
-1.326285302639007568e-02
6.181517615914344788e-03
-2.751664444804191589e-02
3.087994176894426346e-03
4.108726046979427338e-03
-2.793394029140472412e-02
1.073299720883369446e-02
-2.620827872306108475e-03
-2.150867693126201630e-02
-1.656109094619750977e-02
-1.850192993879318237e-02
2.406195271760225296e-03
-9.187149815261363983e-03
-1.399073842912912369e-02
1.872468367218971252e-02
-1.515554450452327728e-02
-2.369628474116325378e-02
-1.677394472062587738e-02
1.058302726596593857e-02
-1.545745413750410080e-02
1.393810939043760300e-02
1.369932666420936584e-02
-1.326338853687047958e-02
-2.666754834353923798e-02
-2.932162210345268250e-02
8.634381927549839020e-03
-3.081206232309341431e-03
-2.010701596736907959e-02
-1.433196756988763809e-02
-1.480518933385610580e-02
-1.175384502857923508e-02
-1.106280460953712463e-02
-8.424638770520687103e-03
-2.222008258104324341e-02
-3.338237525895237923e-03
-1.919373637065291405e-03
1.211643870919942856e-02
1.803005300462245941e-02
-5.294665694236755371e-03
-3.141958964988589287e-03
1.627942919731140137e-02
-1.841932721436023712e-02
-4.398777615278959274e-03
-1.073581445962190628e-02
8.620458655059337616e-03
1.632792316377162933e-02
9.420719929039478302e-03
-1.071693096309900284e-02
1.028721313923597336e-02
-6.551883649080991745e-03
1.614799909293651581e-02
-9.193299338221549988e-03
7.303178776055574417e-03
1.497412752360105515e-02
-7.872979156672954559e-03
-1.209013629704713821e-02
-1.214799191802740097e-02
1.569236256182193756e-02
1.151828654110431671e-02
2.044241316616535187e-02
1.585743390023708344e-02
-4.259879700839519501e-03
-2.133277244865894318e-02
1.739514060318470001e-02
1.259942539036273956e-02
-2.994796447455883026e-02
1.218035351485013962e-02
1.632323302328586578e-02
-2.800868824124336243e-02
-3.401073161512613297e-03
1.856197603046894073e-02
7.092085666954517365e-03
-4.302580491639673710e-04
-1.116336882114410400e-02
1.701354607939720154e-02
-1.377553772181272507e-02
-1.022198330610990524e-02
1.220755837857723236e-02
-2.252769470214843750e-02
1.495074201375246048e-02
2.765136398375034332e-02
-1.832341402769088745e-02
3.154983744025230408e-03
1.407272182404994965e-02
-1.133753918111324310e-02
-1.082172733731567860e-03
1.890402287244796753e-02
1.739597506821155548e-02
-2.817566320300102234e-02
-2.153106220066547394e-02
-2.296954020857810974e-02
-6.259979214519262314e-03
-1.933168806135654449e-02
-3.025911562144756317e-02
-1.378909498453140259e-02
-1.306391879916191101e-02
-1.622069813311100006e-02
-2.190413512289524078e-02
-6.752275396138429642e-03
-9.403198957443237305e-03
-3.023603744804859161e-02
-6.236960645765066147e-03
-7.943651871755719185e-04
1.529826596379280090e-02
-1.530605647712945938e-02
4.663906991481781006e-03
-1.899661682546138763e-02
8.259573020040988922e-03
-1.038270443677902222e-02
-2.630302496254444122e-02
-3.020035661756992340e-02
1.479588099755346775e-03
-2.552889101207256317e-02
-9.479889646172523499e-03
-9.748460724949836731e-03
-3.017883934080600739e-02
-1.938099507242441177e-03
1.068951468914747238e-02
-1.950657577253878117e-03
-1.566402427852153778e-02
-1.010868884623050690e-02
-1.842306368052959442e-02
1.833506673574447632e-02
-1.317239087074995041e-02
1.230629906058311462e-02
4.190890584141016006e-03
1.815268024802207947e-02
8.787099272012710571e-03
1.059593353420495987e-02
2.052782103419303894e-03
2.634049206972122192e-02
5.442437250167131424e-03
1.158194500021636486e-03
-1.851860061287879944e-02
3.851964836940169334e-03
-1.884277164936065674e-02
2.125556953251361847e-02
1.924421265721321106e-02
-5.818957928568124771e-03
5.346873775124549866e-03
-1.562139368616044521e-03
-2.696069329977035522e-02
-1.584717445075511932e-02
1.183416042476892471e-02
2.135842293500900269e-02
1.809679344296455383e-02
-1.691524870693683624e-02
-1.627623848617076874e-02
6.402419414371252060e-03
3.371991682797670364e-03
-3.508800175040960312e-03
-1.158017478883266449e-02
1.148602645844221115e-02
4.446553066372871399e-03
-2.846566727384924889e-03
-5.930812098085880280e-03
3.010547487065196037e-03
-6.709324195981025696e-03
-1.300698425620794296e-02
8.042707340791821480e-04
-2.876320853829383850e-02
1.527848932892084122e-02
-2.282103337347507477e-02
1.729267649352550507e-02
3.541345009580254555e-03
-1.397185493260622025e-02
-1.869435049593448639e-02
2.363058738410472870e-03
-5.890232510864734650e-03
1.977297943085432053e-03
-8.229610510170459747e-03
-2.047989144921302795e-02
2.060007071122527122e-03
9.102339972741901875e-04
-1.741365529596805573e-02
1.247067190706729889e-02
-2.621044404804706573e-02
-1.521605905145406723e-02
-5.984056740999221802e-03
2.839687047526240349e-03
-1.005801931023597717e-02
1.872844435274600983e-02
-4.243439994752407074e-03
1.761986501514911652e-02
-6.228212732821702957e-03
-2.486412972211837769e-02
3.172374563291668892e-03
-1.530664414167404175e-02
-6.130397785454988480e-03
-2.452808991074562073e-02
-1.228214707225561142e-02
5.637289024889469147e-03
1.801368780434131622e-02
-2.577883377671241760e-02
-2.158786542713642120e-02
-1.878010854125022888e-02
-4.909630864858627319e-03
4.442412406206130981e-03
1.823856495320796967e-02
6.962974555790424347e-03
3.333986504003405571e-03
-1.448289211839437485e-02
-2.134516462683677673e-02
-2.725951932370662689e-02
1.749999634921550751e-02
1.420478429645299911e-02
-1.416595932096242905e-02
3.198616439476609230e-03
-3.194261109456419945e-03
-3.915591165423393250e-03
6.410343339666724205e-04
1.334364619106054306e-02
-2.831912972033023834e-02
1.851852983236312866e-02
-1.405582204461097717e-02
1.561169326305389404e-02
7.766542956233024597e-03
-2.314455434679985046e-02
-1.098574977368116379e-02
-1.824302412569522858e-02
-7.661936338990926743e-03
6.856692023575305939e-03
1.031975541263818741e-02
-9.102980606257915497e-03
-6.947915069758892059e-03
9.080559015274047852e-03
-4.926269873976707458e-03
-8.902089670300483704e-03
4.618709906935691833e-03
-2.893618866801261902e-02
-1.450384315103292465e-02
-4.312231671065092087e-03
8.207296952605247498e-03
-7.485469337552785873e-03
1.375572104007005692e-02
-7.436576765030622482e-03
-9.674775646999478340e-04
7.058858405798673630e-03
-2.713214792311191559e-02
-5.039753858000040054e-03
-2.082365006208419800e-02
1.764129661023616791e-02
-2.159303240478038788e-02
1.769134029746055603e-02
-1.561822183430194855e-02
1.726886071264743805e-02
1.200618967413902283e-02
-7.421898189932107925e-03
-2.243039384484291077e-02
-6.925156340003013611e-03
-1.836077123880386353e-02
1.439225859940052032e-02
1.301350537687540054e-02
-1.373424846678972244e-02
-2.170470356941223145e-02
6.054295226931571960e-03
-1.542406622320413589e-03
7.029570173472166061e-03
-2.838154882192611694e-02
-1.681806333363056183e-02
1.102124061435461044e-02
-5.055862013250589371e-03
1.536342501640319824e-02
-1.237928867340087891e-02
-2.675260975956916809e-02
-2.355976961553096771e-02
-9.799367748200893402e-03
-6.079701051930896938e-05
1.220887992531061172e-02
1.679380238056182861e-02
-2.593988738954067230e-02
1.562109962105751038e-02
-1.062813401222229004e-02
5.120947025716304779e-03
-5.766105372458696365e-03
1.744133071042597294e-03
-1.134867593646049500e-02
-2.546140551567077637e-02
1.414358802139759064e-02
1.680483855307102203e-02
1.840298995375633240e-02
1.683427020907402039e-02
-1.152815762907266617e-02
-5.450716242194175720e-03
-1.172409765422344208e-02
-6.793553009629249573e-03
-1.832667924463748932e-02
-1.255044527351856232e-02
-2.884084917604923248e-02
1.795057393610477448e-02
-3.047133097425103188e-03
-1.554532255977392197e-02
-9.048686362802982330e-03
-2.165459655225276947e-02
-5.280233453959226608e-03
-2.269241772592067719e-02
1.586436480283737183e-02
-2.900653705000877380e-02
-2.456197328865528107e-02
1.675856299698352814e-02
-3.975406289100646973e-03
9.072764776647090912e-03
-2.949708141386508942e-02
-1.748514920473098755e-02
-1.283365953713655472e-02
-1.205427455715835094e-03
-8.368155919015407562e-03
-4.565515089780092239e-03
-4.160169512033462524e-03
-2.070279605686664581e-02
1.527075562626123428e-02
-4.806100390851497650e-03
1.584133692085742950e-02
-1.221550721675157547e-02
8.834681473672389984e-03
1.776518113911151886e-02
-6.775736110284924507e-04
-2.461938187479972839e-02
-2.455682551953941584e-04
1.138537190854549408e-02
3.472416661679744720e-03
-2.163821272552013397e-02
-8.480456657707691193e-03
-7.368698716163635254e-03
-2.321599982678890228e-03
-2.812462113797664642e-02
-5.046371370553970337e-03
1.205568760633468628e-02
5.300885997712612152e-03
1.313886698335409164e-02
-2.268723025918006897e-02
1.349300425499677658e-02
1.388222724199295044e-02
-1.794240809977054596e-02
-1.963071711361408234e-02
-2.472062781453132629e-02
-1.778965815901756287e-02
1.617759652435779572e-02
9.638465940952301025e-03
-1.540450938045978546e-02
-1.719592884182929993e-02
-1.860898919403553009e-02
-5.543201696127653122e-03
1.754602976143360138e-02
1.120522525161504745e-02
-1.366294734179973602e-02
2.768452651798725128e-02
-3.020630963146686554e-02
1.026091631501913071e-03
3.299563541077077389e-04
8.701766841113567352e-03
1.142111048102378845e-02
-9.871913120150566101e-03
1.059683412313461304e-02
3.140476765111088753e-03
1.050389464944601059e-02
-1.307343412190675735e-02
-1.610060222446918488e-02
-1.081732939928770065e-02
1.208159793168306351e-02
1.091883605113252997e-04
8.052456192672252655e-03
-1.280987821519374847e-02
-2.715943753719329834e-02
-1.292560715228319168e-02
2.650411915965378284e-04
-1.676823198795318604e-02
-1.091434340924024582e-02
-6.994009017944335938e-03
1.909217424690723419e-02
1.420540455728769302e-02
-1.501099392771720886e-02
6.748400162905454636e-03
-3.017754480242729187e-02
-2.216162346303462982e-02
-1.839107088744640350e-02
9.999319911003112793e-03
-1.265473384410142899e-02
1.703982561593875289e-04
-1.495175180025398731e-03
-1.228892430663108826e-02
-7.000058889389038086e-03
-2.833219943568110466e-03
1.701162010431289673e-02
1.079122442752122879e-02
-2.205238118767738342e-02
-1.199005171656608582e-02
-1.391218416392803192e-02
2.702415175735950470e-02
-2.393963746726512909e-02
-2.972016856074333191e-02
1.940327463671565056e-03
-2.314608171582221985e-02
-2.351965382695198059e-02
-2.928114496171474457e-02
1.807450130581855774e-02
5.390117876231670380e-03
-1.603029295802116394e-02
8.879151195287704468e-03
2.668397035449743271e-03
-2.059305645525455475e-02
-7.299303077161312103e-03
-5.473501980304718018e-03
1.810588501393795013e-02
1.645767316222190857e-02
-2.764501981437206268e-02
1.032863929867744446e-02
1.386015792377293110e-03
1.834920793771743774e-02
1.793344505131244659e-02
1.531318854540586472e-02
-5.015280097723007202e-03
1.135572604835033417e-02
2.243816154077649117e-03
-2.678610570728778839e-02
1.120832096785306931e-02
5.865646991878747940e-03
-2.660572901368141174e-02
-1.396447699517011642e-02
9.416561573743820190e-03
-1.125710085034370422e-02
-1.168560993392020464e-04
-2.359808981418609619e-02
8.481089957058429718e-03
6.977370358072221279e-04
-3.499881364405155182e-03
-3.956235479563474655e-03
-2.638448774814605713e-02
1.634165458381175995e-02
1.812126487493515015e-02
1.977251656353473663e-02
2.378178201615810394e-02
-1.042346283793449402e-02
5.474921781569719315e-03
1.790357939898967743e-02
-1.313605159521102905e-02
-1.217092666774988174e-02
-1.178661175072193146e-02
6.130522117018699646e-03
6.753281340934336185e-04
-3.095981664955615997e-02
-1.298060547560453415e-02
1.489975675940513611e-02
-4.545160103589296341e-03
-3.803763538599014282e-03
1.685303077101707458e-02
9.986231103539466858e-03
-2.758111990988254547e-02
-5.773168057203292847e-03
-1.796292141079902649e-02
1.810691133141517639e-02
-2.188041806221008301e-02
-1.979680033400654793e-03
4.618320148438215256e-03
1.540327258408069611e-02
-8.577384985983371735e-03
-1.469686627388000488e-02
1.636893302202224731e-02
-2.589610219001770020e-02
-2.807984314858913422e-02
-1.801733486354351044e-02
-1.064781099557876587e-03
-2.030232688412070274e-03
1.452862937003374100e-02
-2.956878021359443665e-02
1.295275799930095673e-02
2.442853897809982300e-02
-2.032223716378211975e-02
-1.269390806555747986e-02
4.920396022498607635e-03
-2.060801908373832703e-02
-1.941214315593242645e-02
6.304393056780099869e-03
-3.872072789818048477e-03
-2.640382759273052216e-02
3.180931671522557735e-04
-2.131348475813865662e-02
1.526892557740211487e-02
-5.873126909136772156e-03
6.267640739679336548e-03
-1.615007035434246063e-02
-5.673404666595160961e-04
9.975202381610870361e-03
1.072988566011190414e-02
-5.176080856472253799e-03
7.845561951398849487e-03
-2.625240385532379150e-02
1.419244986027479172e-02
-2.219406142830848694e-02
-2.999601420015096664e-03
-1.037093065679073334e-02
-4.204789001960307360e-04
-2.048344351351261139e-02
-1.908458769321441650e-02
-1.174518652260303497e-02
-1.525187678635120392e-02
-1.056086923927068710e-02
-1.923785731196403503e-02
1.802864833734929562e-03
1.306903641670942307e-02
-9.319600649178028107e-03
-2.407551929354667664e-02
1.048551406711339951e-02
-2.039068192243576050e-02
3.512794384732842445e-03
1.268453430384397507e-02
-2.900134213268756866e-02
4.917375743389129639e-03
-2.430542744696140289e-02
5.429681623354554176e-04
-2.274786122143268585e-02
-2.278108149766921997e-02
4.875344224274158478e-03
1.200395054183900356e-04
-8.342858403921127319e-03
-1.656143553555011749e-02
-3.622038755565881729e-03
-2.941054059192538261e-03
-1.638126373291015625e-02
1.579619757831096649e-02
4.553441889584064484e-03
-1.912011764943599701e-02
1.050021965056657791e-02
-6.233024410903453827e-03
5.387903656810522079e-03
1.941651222296059132e-03
-4.207677673548460007e-03
-2.343655563890933990e-03
-1.585461944341659546e-02
-2.955152839422225952e-02
-3.079251013696193695e-02
-2.758659422397613525e-02
-2.161677740514278412e-02
1.023764070123434067e-02
-1.006812043488025665e-02
4.378522280603647232e-03
-1.196149550378322601e-02
1.158013753592967987e-02
1.051724329590797424e-02
-2.621340937912464142e-02
1.415677368640899658e-02
-1.652930048294365406e-03
-1.778813078999519348e-02
-9.905907325446605682e-03
-7.828680798411369324e-03
6.026094779372215271e-04
-8.146534673869609833e-03
8.633389137685298920e-03
-6.622559740208089352e-04
-1.513657812029123306e-02
-2.761734835803508759e-02
6.971482653170824051e-03
1.042377110570669174e-02
-2.815373241901397705e-02
-2.167403511703014374e-02
-2.992358990013599396e-02
1.141826715320348740e-02
-1.089665945619344711e-02
-2.850187197327613831e-02
8.775635622441768646e-03
3.347985679283738136e-03
-2.941456623375415802e-02
1.089214719831943512e-02
-1.452178787440061569e-02
7.131807971745729446e-03
-1.660537719726562500e-02
-9.886501356959342957e-04
-1.745541952550411224e-02
8.661019615828990936e-03
-7.711433339864015579e-03
2.638625213876366615e-03
2.936233300715684891e-03
1.801507314667105675e-03
1.439711358398199081e-02
-2.835255302488803864e-02
6.540989037603139877e-03
-2.595718204975128174e-02
1.015618350356817245e-02
1.918433234095573425e-02
-2.553898282349109650e-02
-1.010862831026315689e-02
2.235567197203636169e-02
-4.029576084576547146e-04
-2.087885700166225433e-02
-2.634832449257373810e-02
7.841377519071102142e-03
-1.915447972714900970e-02
2.379510784521698952e-03
-2.424435876309871674e-02
-1.066755969077348709e-02
1.114996336400508881e-02
8.327895193360745907e-04
-2.711439132690429688e-02
-2.096277661621570587e-02
1.628013123990967870e-04
-3.009996144101023674e-03
1.396712195128202438e-02
7.167244795709848404e-03
-2.381799928843975067e-02
1.582129485905170441e-02
-9.843153879046440125e-03
-1.635617762804031372e-02
-2.148274891078472137e-02
2.834210172295570374e-02
2.797621674835681915e-02
2.702676691114902496e-03
-2.357665263116359711e-02
1.541679073125123978e-02
1.382357999682426453e-02
-1.864595524966716766e-02
3.058378817513585091e-03
-2.025729045271873474e-03
-1.148943975567817688e-02
-1.870030537247657776e-02
1.511562708765268326e-02
-3.120594285428524017e-02
-1.997498236596584320e-02
-8.004242554306983948e-04
-1.334160845726728439e-02
-1.643194444477558136e-02
1.730728149414062500e-02
6.060538813471794128e-03
1.060023438185453415e-02
-2.311657182872295380e-02
8.522010408341884613e-03
-1.621624641120433807e-02
-2.232627384364604950e-02
-1.061354763805866241e-02
-9.106843732297420502e-03
1.736517879180610180e-03
-1.077770069241523743e-02
-1.069057267159223557e-02
-2.661430276930332184e-02
-2.944794856011867523e-02
1.997146988287568092e-03
-1.317051518708467484e-02
3.153279656544327736e-03
8.059814572334289551e-03
-3.644452197477221489e-03
-8.250946179032325745e-03
4.333245567977428436e-03
-3.184865694493055344e-03
1.816085539758205414e-02
1.899713091552257538e-02
1.774723455309867859e-02
5.182224791496992111e-03
1.545367203652858734e-02
1.830191724002361298e-02
-1.406588964164257050e-02
2.880891785025596619e-03
-9.280021302402019501e-03
9.829645045101642609e-03
1.623062230646610260e-02
-2.623348124325275421e-02
2.279194304719567299e-03
1.952309743501245975e-03
-5.555999930948019028e-03
1.189006399363279343e-02
1.065003778785467148e-02
-5.787892732769250870e-04
1.563651137985289097e-03
1.577166654169559479e-02
-2.871182747185230255e-02
-2.182250283658504486e-02
-2.271160483360290527e-02
1.170145533978939056e-02
2.515640342608094215e-03
-4.694435745477676392e-03
-8.337604813277721405e-03
-1.416516955941915512e-02
1.285016629844903946e-02
3.412547812331467867e-04
-1.151098124682903290e-02
4.480266943573951721e-03
4.430791363120079041e-03
1.329257502220571041e-03
1.106268912553787231e-02
-2.550093084573745728e-02
2.945231273770332336e-03
-7.293720263987779617e-03
-3.435737220570445061e-03
-2.372760698199272156e-02
-1.503605954349040985e-02
9.322117548435926437e-04
6.639966275542974472e-03
3.233497031033039093e-03
3.272973466664552689e-03
-6.381820887327194214e-03
-1.687599462457001209e-03
6.174979265779256821e-03
-1.302027888596057892e-02
1.148970890790224075e-02
-2.817515283823013306e-02
-6.451511755585670471e-03
-2.373160421848297119e-02
-3.062243945896625519e-02
-1.984448917210102081e-02
-2.337558940052986145e-02
-8.601868525147438049e-03
-2.956413477659225464e-02
-2.135177329182624817e-02
1.294448412954807281e-02
-2.169674448668956757e-02
2.415594412013888359e-03
1.737664453685283661e-02
-6.104612722992897034e-03
-7.712737657129764557e-03
-1.211342494934797287e-02
2.453471242915838957e-04
-3.187680616974830627e-03
-3.310060594230890274e-03
-1.431693905033171177e-03
-1.214287895709276199e-02
1.012809947133064270e-02
1.726575312204658985e-03
-1.636614673770964146e-03
-2.072142995893955231e-02
8.661276660859584808e-03
-2.212316170334815979e-02
6.882865913212299347e-03
-1.719938218593597412e-02
1.744720153510570526e-02
-1.562146842479705811e-02
8.506058715283870697e-03
8.064672350883483887e-03
-1.073309779167175293e-02
1.406000275164842606e-02
5.601186305284500122e-03
5.222720094025135040e-03
-1.772369816899299622e-02
-1.710154488682746887e-02
1.473727356642484665e-02
8.543247357010841370e-03
9.138100780546665192e-03
-1.935796812176704407e-02
1.136879436671733856e-02
-9.827027097344398499e-03
3.839168231934309006e-03
3.741984255611896515e-03
-9.730888530611991882e-03
5.786620313301682472e-04
-1.685000397264957428e-02
-1.550508663058280945e-02
1.613842137157917023e-02
1.468475628644227982e-02
-1.058418070897459984e-03
-2.322983182966709137e-02
-3.060861490666866302e-02
-3.063295595347881317e-02
7.775465957820415497e-03
-8.878275752067565918e-03
-9.570403955876827240e-03
8.409639820456504822e-03
3.872798755764961243e-03
-1.334683597087860107e-02
-2.041573822498321533e-02
-1.482805702835321426e-02
1.704501546919345856e-02
1.655206456780433655e-02
3.600599942728877068e-03
-6.969111971557140350e-03
2.231308259069919586e-02
-5.739419430028647184e-05
-3.370296442881226540e-03
4.660900740418583155e-04
1.951212435960769653e-02
1.010074187070131302e-02
-2.318660169839859009e-02
1.171732135117053986e-02
7.245753891766071320e-03
-1.203127671033143997e-02
-1.959820091724395752e-02
-2.324946783483028412e-02
7.675496395677328110e-03
-4.920521285384893417e-03
-1.391949318349361420e-02
-1.024371944367885590e-02
-1.166604366153478622e-02
9.333353489637374878e-03
-1.706636510789394379e-02
-1.743187010288238525e-02
-4.446136299520730972e-03
-2.358180657029151917e-02
-8.276457898318767548e-03
6.005520117469131947e-04
1.383787253871560097e-03
-1.051073893904685974e-02
-1.583693665452301502e-03
-3.072574734687805176e-03
1.879480108618736267e-02
-1.461938582360744476e-02
-2.530299499630928040e-02
1.901124417781829834e-02
-2.666768617928028107e-02
8.829582482576370239e-03
1.554444245994091034e-02
1.738165970891714096e-03
-2.208704827353358269e-03
-1.831111498177051544e-02
5.341844633221626282e-03
-2.206473797559738159e-02
7.752518169581890106e-03
-1.431048475205898285e-02
-1.560944691300392151e-02
-5.142770707607269287e-03
1.590029336512088776e-02
-2.357284352183341980e-02
1.470935717225074768e-02
-2.480415813624858856e-02
9.056020528078079224e-03
1.071670651435852051e-02
-3.589591477066278458e-03
4.809511359781026840e-03
-1.893161050975322723e-02
-1.256249379366636276e-02
-1.618019654415547848e-03
1.548990700393915176e-02
-2.199395745992660522e-02
-1.074730046093463898e-02
1.211218349635601044e-02
-8.329276461154222488e-04
-3.338438225910067558e-03
-1.443145563825964928e-03
-1.354894787073135376e-02
1.308007352054119110e-02
-1.646663434803485870e-02
-9.408655576407909393e-03
4.452409688383340836e-03
2.183312084525823593e-03
2.151143178343772888e-02
-1.667915657162666321e-02
-2.216578461229801178e-02
-7.530122529715299606e-03
1.059238146990537643e-02
-2.484307065606117249e-02
-2.545401267707347870e-02
1.574802584946155548e-02
-1.721121557056903839e-02
4.759177099913358688e-03
-8.300383575260639191e-03
-1.998462527990341187e-02
2.256098436191678047e-03
5.595264025032520294e-03
-3.152979072183370590e-03
1.351179927587509155e-02
1.188444253057241440e-02
-1.857831701636314392e-02
-1.609460450708866119e-02
1.769350282847881317e-02
9.549277834594249725e-03
-1.457756198942661285e-02
2.941324375569820404e-02
1.087268814444541931e-02
-2.262920513749122620e-02
-2.982402406632900238e-02
6.096099037677049637e-03
-1.975441910326480865e-02
-7.749631535261869431e-03
5.034929141402244568e-03
1.401055697351694107e-02
9.569071233272552490e-03
6.587742827832698822e-03
1.750086620450019836e-02
-1.739647984504699707e-02
2.429658360779285431e-02
-7.982944953255355358e-04
6.060522980988025665e-03
1.052775420248508453e-03
7.508668117225170135e-03
1.648290455341339111e-02
-1.307148952037096024e-02
-2.378271892666816711e-02
-6.041467189788818359e-03
-1.611208543181419373e-02
-2.767833182588219643e-03
-1.996917277574539185e-02
-1.390127558261156082e-02
-5.431873723864555359e-03
-1.337022799998521805e-02
-1.867908239364624023e-02
-1.289641484618186951e-02
1.858717203140258789e-02
5.111240781843662262e-03
-1.485394500195980072e-02
-1.750274561345577240e-02
-6.397552788257598877e-03
-2.662277780473232269e-02
-2.532708458602428436e-02
-3.044509142637252808e-02
-7.391219027340412140e-03
2.231967635452747345e-02
1.592301297932863235e-03
1.835589855909347534e-02
-2.721814624965190887e-02
-1.613782718777656555e-02
-1.425947807729244232e-02
2.334489300847053528e-02
2.078446932137012482e-02
1.887894608080387115e-02
-9.026635438203811646e-03
-2.504979632794857025e-02
-2.948005683720111847e-02
1.848525367677211761e-02
2.418330870568752289e-03
1.033863890916109085e-02
2.267026714980602264e-02
3.313795896247029305e-03
-2.788640558719635010e-02
-2.221416123211383820e-02
-2.876298129558563232e-02
-1.350659225136041641e-02
-1.891927234828472137e-02
-1.992638781666755676e-02
6.478652823716402054e-03
8.961958810687065125e-03
-7.271404378116130829e-03
-1.904944330453872681e-02
-1.180716510862112045e-02
-2.902222424745559692e-02
3.024824708700180054e-02
1.080226385965943336e-03
2.541722496971487999e-04
6.423526443541049957e-03
1.890332810580730438e-02
1.200551353394985199e-02
-1.184500847011804581e-02
-2.189739979803562164e-02
-1.720502600073814392e-02
-9.277774021029472351e-03
-1.915826275944709778e-02
9.515643119812011719e-03
7.639259565621614456e-03
-2.342506125569343567e-02
1.522430963814258575e-02
1.645070314407348633e-02
2.048340626060962677e-02
1.073789224028587341e-02
-8.193767629563808441e-03
-6.042381864972412586e-04
-9.149851277470588684e-03
-2.191153913736343384e-02
1.869596354663372040e-02
-2.613589353859424591e-02
-9.576394222676753998e-03
5.545138381421566010e-03
1.010471116751432419e-02
-3.077459335327148438e-02
-9.205992333590984344e-03
-8.862026967108249664e-03
-1.583075616508722305e-03
-1.650781370699405670e-02
-1.810074783861637115e-02
-2.910635061562061310e-02
2.153391018509864807e-03
7.843396626412868500e-03
-1.882325112819671631e-02
1.765092834830284119e-02
-1.609255373477935791e-02
3.004490397870540619e-02
-2.050534263253211975e-02
2.888816595077514648e-02
-1.091562490910291672e-02
9.935023263096809387e-03
-3.960900940001010895e-03
9.080752730369567871e-03
-2.450341545045375824e-02
2.332258038222789764e-02
8.654351346194744110e-03
-2.819208614528179169e-02
-7.823004387319087982e-03
-1.652413234114646912e-02
-2.835327200591564178e-02
-1.251058187335729599e-02
-8.711304515600204468e-03
-1.678803749382495880e-02
9.955908171832561493e-03
1.176575850695371628e-02
9.637515060603618622e-03
-1.072757225483655930e-02
-5.219673737883567810e-03
-4.363889340311288834e-03
6.253270432353019714e-03
1.105402316898107529e-02
1.660650037229061127e-02
3.778873709961771965e-03
1.660084538161754608e-02
-1.120374444872140884e-02
-3.119673347100615501e-03
1.609507482498884201e-03
-1.577207469381392002e-03
-1.650847308337688446e-02
8.589624427258968353e-03
-2.293727546930313110e-02
-2.434069104492664337e-02
-6.120554171502590179e-03
7.460277527570724487e-03
-2.516741491854190826e-02
-4.459713120013475418e-03
7.941753603518009186e-03
-2.226912602782249451e-02
6.000367458909749985e-03
-1.625574007630348206e-02
-4.428547341376543045e-03
-2.738898806273937225e-02
1.885090209543704987e-02
-2.081123553216457367e-02
-1.650655991397798061e-03
-2.198645845055580139e-02
-9.066673927009105682e-03
1.377886254340410233e-02
-6.856123916804790497e-03
-3.669537138193845749e-03
2.527879085391759872e-03
7.595923729240894318e-03
-6.258200388401746750e-03
4.667951725423336029e-03
1.098469644784927368e-02
-4.896490136161446571e-04
1.257738284766674042e-02
-2.752052433788776398e-02
1.221156865358352661e-02
1.512542460113763809e-02
-1.766867935657501221e-02
6.594977341592311859e-03
1.740168198011815548e-03
-7.763708010315895081e-03
2.074779942631721497e-03
5.971739068627357483e-03
-2.291572652757167816e-02
-1.931461878120899200e-02
-1.029613334685564041e-02
-1.575653254985809326e-02
-2.669441141188144684e-02
-1.015651039779186249e-02
1.871748082339763641e-02
-2.801080048084259033e-02
9.552510455250740051e-04
-1.342803426086902618e-02
1.493935193866491318e-02
-1.978981541469693184e-03
-1.019185595214366913e-02
-2.914874441921710968e-02
6.065310444682836533e-03
2.615824714303016663e-02
7.734778802841901779e-03
9.082378819584846497e-03
-6.688353605568408966e-03
-6.550985854119062424e-03
5.120888352394104004e-03
-2.972479537129402161e-02
-2.577242068946361542e-02
2.423376776278018951e-03
1.553944591432809830e-02
-7.397310808300971985e-03
-1.754894666373729706e-02
-1.751772686839103699e-02
-2.824729122221469879e-02
-5.566328763961791992e-03
1.520042587071657181e-02
1.327621471136808395e-02
-2.573725767433643341e-02
9.817990940064191818e-04
4.580798558890819550e-03
3.287910670042037964e-02
3.314675996080040932e-03
7.152749225497245789e-03
-4.320992156863212585e-03
-1.971027255058288574e-02
-1.890869811177253723e-02
-4.797966685146093369e-03
8.352871984243392944e-03
3.393857507035136223e-03
1.086177676916122437e-02
-1.873992756009101868e-02
6.980669219046831131e-03
-1.964981108903884888e-02
4.223427968099713326e-04
-9.270644746720790863e-03
-2.344104647636413574e-02
-2.412144280970096588e-02
2.764511667191982269e-02
-2.626813203096389771e-02
3.864284837618470192e-03
1.059269532561302185e-02
4.847892560064792633e-03
2.438916638493537903e-02
1.985562220215797424e-02
1.320626214146614075e-02
1.738801598548889160e-02
6.049203220754861832e-03
1.314797997474670410e-02
2.705520205199718475e-02
1.988580636680126190e-02
-1.967035233974456787e-02
-1.282790489494800568e-02
3.931387141346931458e-02
-3.215985372662544250e-02
2.068612724542617798e-02
-1.119857747107744217e-02
-1.096490304917097092e-02
-2.285708673298358917e-02
1.276317331939935684e-02
5.289511289447546005e-03
-1.067631132900714874e-02
-5.239679943770170212e-03
1.122300792485475540e-02
-2.120968140661716461e-02
-1.437468919903039932e-02
6.770389154553413391e-03
1.105407159775495529e-02
-2.122247032821178436e-02
-1.493732910603284836e-02
-7.578271906822919846e-03
1.125276368111371994e-02
-1.840085722506046295e-02
-1.883819885551929474e-02
-4.088566638529300690e-03
1.750472374260425568e-02
-1.570063643157482147e-02
-2.457191608846187592e-02
-2.718301489949226379e-03
1.790237985551357269e-02
-2.313896454870700836e-02
8.940450847148895264e-03
-2.245639450848102570e-02
-1.210743840783834457e-02
-1.225730869919061661e-02
2.009291760623455048e-02
1.374869234859943390e-02
-5.265568033792078495e-04
-9.350021369755268097e-03
-1.351573877036571503e-02
-1.439863257110118866e-02
9.164703078567981720e-03
2.779742516577243805e-02
8.163171820342540741e-03
1.267382781952619553e-02
-2.888081036508083344e-02
1.405838993377983570e-03
-1.225423812866210938e-02
4.357576370239257812e-03
1.970626600086688995e-02
-9.600253542885184288e-05
-1.184202916920185089e-02
2.670217491686344147e-02
1.307404506951570511e-02
-1.417182199656963348e-02
4.495306056924164295e-04
-2.675444819033145905e-02
-3.879135241732001305e-03
-6.228461861610412598e-03
-1.155374664813280106e-02
-2.604602463543415070e-02
-2.283224649727344513e-02
7.982100360095500946e-03
1.078906003385782242e-02
-1.079230755567550659e-02
4.792524501681327820e-03
-1.477009151130914688e-02
-8.881737478077411652e-03
1.370962616056203842e-02
2.399473916739225388e-03
3.016493842005729675e-02
2.313053794205188751e-02
-1.278192829340696335e-02
-1.385316997766494751e-02
8.266290649771690369e-03
2.159763360396027565e-03
-1.881319843232631683e-02
2.050112187862396240e-02
3.976669162511825562e-02
2.629822120070457458e-02
-4.230579361319541931e-03
-1.069626491516828537e-02
-7.191339507699012756e-03
1.944414339959621429e-02
7.420782931149005890e-04
-2.625608444213867188e-02
4.737598821520805359e-03
-1.486789900809526443e-02
3.976444713771343231e-03
4.306610673666000366e-03
-1.930885203182697296e-02
-8.592202211730182171e-04
9.235528297722339630e-03
2.312991954386234283e-02
2.782453596591949463e-02
-7.396667730063199997e-03
-2.801923267543315887e-02
-8.931403979659080505e-03
3.430362045764923096e-02
-6.998992990702390671e-03
-5.654942709952592850e-03
4.165984224528074265e-03
-3.084667958319187164e-03
-9.631136432290077209e-03
-2.989354543387889862e-02
-2.120757475495338440e-02
-6.302088499069213867e-03
3.373906016349792480e-02
5.478254519402980804e-03
-4.085244610905647278e-03
-2.457918971776962280e-02
1.108460873365402222e-02
1.787540502846240997e-02
1.090945326723158360e-03
-1.472733262926340103e-02
-1.247233897447586060e-02
-2.209705067798495293e-03
-3.334913169965147972e-03
1.474040374159812927e-02
-2.486605197191238403e-03
1.219399925321340561e-02
2.273431047797203064e-02
-2.103520743548870087e-02
-2.415892109274864197e-02
-1.912632212042808533e-02
-3.912206739187240601e-03
1.741333305835723877e-02
2.312113903462886810e-02
-1.192258577793836594e-02
2.010528743267059326e-02
-2.216027304530143738e-02
1.275914022698998451e-03
-1.531827542930841446e-02
-1.319175207754597068e-04
-2.411410957574844360e-02
-6.505909375846385956e-03
1.904268190264701843e-02
-1.604647189378738403e-02
-1.078511122614145279e-02
-6.320598768070340157e-04
1.714571379125118256e-02
3.168968856334686279e-02
5.854586604982614517e-03
-3.132866695523262024e-02
2.877740748226642609e-02
1.618219725787639618e-02
-2.455249428749084473e-02
3.110772371292114258e-02
2.457180619239807129e-02
-2.676539355888962746e-03
-1.172406482510268688e-04
3.915944602340459824e-03
-2.729328535497188568e-02
-3.440956119447946548e-03
7.616990478709340096e-04
1.171125378459692001e-02
2.191346511244773865e-02
2.409740909934043884e-02
-2.015634998679161072e-02
8.278131484985351562e-03
6.598590873181819916e-03
-8.396932855248451233e-03
2.174467965960502625e-02
1.379594113677740097e-02
-1.009745057672262192e-02
1.894000917673110962e-02
2.375777438282966614e-02
-2.144754119217395782e-02
6.297704298049211502e-03
1.291284617036581039e-02
3.370329504832625389e-03
8.377167396247386932e-03
5.299908574670553207e-03
2.313208207488059998e-02
-4.940038546919822693e-03
2.182670310139656067e-02
2.269225195050239563e-02
2.648747153580188751e-02
-2.090698294341564178e-02
1.762185059487819672e-02
-6.785615812987089157e-03
-4.522525239735841751e-03
-9.903215686790645123e-05
2.835357934236526489e-02
3.336749272421002388e-03
2.669204398989677429e-02
7.260313723236322403e-03
5.546246655285358429e-03
1.470891851931810379e-02
-3.081338480114936829e-02
8.081830106675624847e-03
2.860048552975058556e-03
-1.796879805624485016e-02
-3.627995727583765984e-03
1.645610667765140533e-02
1.581993140280246735e-02
3.259074315428733826e-02
9.408758953213691711e-03
-2.419854979962110519e-03
-1.390790473669767380e-02
-6.040430627763271332e-03
-6.081535830162465572e-04
9.122519753873348236e-03
2.336464636027812958e-02
1.013035606592893600e-02
1.885042525827884674e-02
1.929469220340251923e-02
-2.553197182714939117e-02
-2.880010567605495453e-02
-1.067650783807039261e-02
-7.125744596123695374e-03
2.171116136014461517e-02
1.217811089009046555e-02
1.141463406383991241e-02
-2.012699283659458160e-02
1.232007984071969986e-02
9.281345992349088192e-04
1.244249474257230759e-02
5.035694688558578491e-03
-7.362216711044311523e-03
2.021961286664009094e-02
-2.444104757159948349e-03
2.744736615568399429e-03
-1.078535057604312897e-02
-3.105017356574535370e-02
-2.431774139404296875e-02
-2.860877104103565216e-02
1.567918248474597931e-02
-3.805167216341942549e-05
4.266953561455011368e-03
1.840611919760704041e-02
2.504107914865016937e-02
5.428719450719654560e-04
-3.273931797593832016e-04
-3.212952986359596252e-03
-1.017524581402540207e-02
-2.559490734711289406e-03
1.436095032840967178e-02
2.302228845655918121e-02
-3.594594821333885193e-02
1.807908341288566589e-02
2.118538692593574524e-02
-1.614769548177719116e-02
-1.175675261765718460e-02
-2.420495823025703430e-02
7.909365929663181305e-03
2.077362127602100372e-02
-1.349998265504837036e-02
1.190835610032081604e-02
-1.643687859177589417e-02
-8.856359869241714478e-03
1.178360078483819962e-02
1.339282281696796417e-02
-1.846206490881741047e-03
-1.963340491056442261e-02
1.761557720601558685e-02
-8.347865194082260132e-03
2.777096349745988846e-03
-4.324026871472597122e-03
-2.357971481978893280e-02
7.331833709031343460e-03
-1.159001700580120087e-02
2.648632228374481201e-02
-2.029145695269107819e-02
-2.762022055685520172e-02
-2.024266868829727173e-02
-6.977795157581567764e-03
1.716107362881302834e-03
8.849319070577621460e-03
-2.139518223702907562e-02
1.559317763894796371e-02
3.300875541754066944e-04
1.181415654718875885e-02
1.919854432344436646e-02
2.116155065596103668e-02
-2.464215643703937531e-02
-2.420677337795495987e-03
-2.640646323561668396e-02
1.976948790252208710e-02
7.170354947447776794e-03
-1.697128266096115112e-02
3.263019025325775146e-03
1.129881013184785843e-02
-2.910159528255462646e-02
1.805897988379001617e-02
3.041158802807331085e-02
-9.587809443473815918e-03
-7.539271842688322067e-03
1.900133676826953888e-02
2.985473256558179855e-03
-1.301477011293172836e-02
-2.804434858262538910e-02
-9.556503966450691223e-03
1.216431986540555954e-02
-3.107647970318794250e-02
-2.335325814783573151e-02
-3.670702222734689713e-03
3.140797838568687439e-02
-2.500083670020103455e-02
-5.051996093243360519e-03
1.088092289865016937e-02
7.682926487177610397e-03
2.226136997342109680e-02
-8.635075064375996590e-04
4.400071222335100174e-03
-2.361213043332099915e-02
-2.561713941395282745e-02
1.546547375619411469e-02
6.123227067291736603e-04
-7.429842837154865265e-03
-1.640795171260833740e-02
-2.096855454146862030e-02
1.093529257923364639e-02
-1.083815656602382660e-02
3.585357964038848877e-02
1.088389474898576736e-02
-2.010790072381496429e-02
2.256952226161956787e-03
-2.770636416971683502e-02
6.818464957177639008e-03
-2.482395060360431671e-02
1.990635506808757782e-02
-1.850448548793792725e-02
6.258351728320121765e-03
6.941702216863632202e-03
2.350696921348571777e-02
-3.768523223698139191e-03
-3.752615884877741337e-04
1.275688409805297852e-03
1.794115081429481506e-02
2.059239707887172699e-02
5.172480829060077667e-03
2.208389528095722198e-02
-5.532588809728622437e-03
2.277108468115329742e-02
4.312875680625438690e-03
1.939418539404869080e-02
-2.377459220588207245e-02
1.533279661089181900e-02
-3.295565769076347351e-02
-9.005174040794372559e-03
-9.505636058747768402e-03
4.097461700439453125e-03
-4.769203660544008017e-04
-4.553453065454959869e-03
-2.267642691731452942e-02
-1.810155436396598816e-02
-2.763136290013790131e-02
-1.911938935518264771e-02
-2.399432705715298653e-03
-5.591212306171655655e-03
3.309639543294906616e-02
1.597069576382637024e-02
-5.035867448896169662e-03
-1.967535819858312607e-03
-4.130576737225055695e-03
-1.954308524727821350e-02
1.013716403394937515e-02
2.182664349675178528e-02
2.463299781084060669e-02
1.364187151193618774e-02
-1.560183800756931305e-02
8.258245885372161865e-03
1.393542438745498657e-02
-2.690899884328246117e-03
-1.720484904944896698e-02
8.628277108073234558e-03
-5.714092869311571121e-03
8.421557955443859100e-03
3.636926785111427307e-02
-1.541165076196193695e-02
1.850558258593082428e-02
1.330394647084176540e-03
-8.198925293982028961e-03
-1.980348303914070129e-02
-1.703654532320797443e-03
1.239030854776501656e-03
-1.069387234747409821e-02
1.920835673809051514e-02
9.581131860613822937e-03
5.051292013376951218e-03
-2.623415179550647736e-02
3.519442863762378693e-03
2.478981576859951019e-02
8.477672934532165527e-03
2.224921621382236481e-02
2.348251827061176300e-02
2.082848688587546349e-03
3.277357900515198708e-03
-6.418254692107439041e-03
-2.326028421521186829e-02
2.784944325685501099e-02
3.564308583736419678e-02
-2.930894866585731506e-02
1.826416328549385071e-02
3.747017681598663330e-02
1.514710392802953720e-02
-2.254441939294338226e-02
-2.838198095560073853e-02
-1.276777591556310654e-02
-1.304712332785129547e-02
2.398072369396686554e-02
1.485803630203008652e-02
7.234427612274885178e-03
-3.058749623596668243e-02
3.149158786982297897e-03
6.825073156505823135e-03
-1.467435155063867569e-02
2.649172767996788025e-02
7.872728630900382996e-03
-1.631168834865093231e-02
-1.100431778468191624e-03
1.451649609953165054e-02
-4.390691407024860382e-03
2.341906540095806122e-02
9.150000289082527161e-03
-2.010084129869937897e-02
-1.826116256415843964e-02
-6.462516263127326965e-03
-1.343133579939603806e-02
2.492508664727210999e-02
4.991143010556697845e-03
-1.429217401891946793e-02
-2.071041055023670197e-02
-1.645610108971595764e-02
1.875476539134979248e-02
2.289956621825695038e-02
-3.664518520236015320e-02
3.124362265225499868e-04
-8.004047907888889313e-03
2.338404394686222076e-02
6.613759906031191349e-04
9.683782118372619152e-04
1.370591204613447189e-02
-1.492744032293558121e-02
4.232365638017654419e-03
-2.237484604120254517e-02
-1.660750992596149445e-02
-2.022245898842811584e-02
-2.516930922865867615e-03
-6.018729181960225105e-04
-6.475268164649605751e-04
-3.218177240341901779e-03
-4.466657713055610657e-02
2.043730579316616058e-02
-4.405145067721605301e-03
-1.579655334353446960e-02
4.451022017747163773e-03
8.485518628731369972e-04
1.478501129895448685e-02
1.288906950503587723e-02
-2.030171267688274384e-02
-7.282572798430919647e-03
-2.664003055542707443e-03
-1.366205234080553055e-02
1.157138030976057053e-02
-3.727789735421538353e-03
2.344074100255966187e-02
-1.883836649358272552e-02
-4.126714542508125305e-03
1.436164719052612782e-03
2.012448012828826904e-02
-2.101165987551212311e-02
9.206618182361125946e-03
-2.439857460558414459e-02
-6.549703888595104218e-03
-1.903579453937709332e-03
1.152476388961076736e-02
6.067090667784214020e-03
-2.983166649937629700e-02
1.784721948206424713e-02
1.591183943673968315e-03
1.391455344855785370e-02
-1.568338647484779358e-02
-1.484628859907388687e-02
-1.195796485990285873e-02
1.936876028776168823e-02
1.725769136101007462e-03
-8.088482543826103210e-03
-1.647612638771533966e-02
-8.712355047464370728e-03
-1.330700516700744629e-02
-7.019686512649059296e-03
2.680557966232299805e-02
2.198177680838853121e-04
-5.087790545076131821e-03
-3.113611973822116852e-02
-3.113939799368381500e-02
3.224167227745056152e-02
-2.696163021028041840e-02
7.020425051450729370e-03
2.757039666175842285e-02
6.418975070118904114e-03
-1.982717588543891907e-02
-3.052296815440058708e-03
1.123090460896492004e-02
-2.866247110068798065e-02
3.593930229544639587e-02
1.550241094082593918e-02
-5.834876094013452530e-03
1.652113907039165497e-02
-1.501935813575983047e-02
-3.841541241854429245e-03
-2.240273728966712952e-02
-2.800699695944786072e-02
1.506004715338349342e-03
-6.068571470677852631e-03
1.448227558284997940e-02
2.494155429303646088e-02
2.935768291354179382e-02
-4.173932597041130066e-03
1.218154933303594589e-02
1.306125894188880920e-02
1.589754223823547363e-02
1.096256729215383530e-02
-2.302021346986293793e-02
-1.393986213952302933e-02
1.097335852682590485e-02
1.666243653744459152e-03
2.105976268649101257e-02
2.243337593972682953e-02
2.324579097330570221e-02
7.902178913354873657e-03
2.201581187546253204e-02
-2.799787325784564018e-04
-2.407623268663883209e-02
5.652944557368755341e-03
-1.475701760500669479e-02
6.210864521563053131e-03
1.209817267954349518e-02
-3.161644935607910156e-02
1.114432467147707939e-03
3.870790824294090271e-02
2.677144296467304230e-02
-1.537805702537298203e-02
-1.950731500983238220e-02
-1.957444474101066589e-03
1.558120362460613251e-02
2.623025700449943542e-02
1.609706133604049683e-02
1.983033679425716400e-02
1.311496458947658539e-02
-7.795583456754684448e-03
-9.973890148103237152e-03
-1.091884169727563858e-02
-3.293056041002273560e-02
-1.498425845056772232e-03
-8.875951170921325684e-03
2.692433190532028675e-04
3.849969245493412018e-03
-1.390276756137609482e-02
-4.613606259226799011e-03
7.974758744239807129e-03
1.307133003138005733e-03
2.584421541541814804e-03
3.031065687537193298e-02
2.141944132745265961e-03
-2.545750001445412636e-03
1.965914294123649597e-02
-3.623250406235456467e-03
1.718936371617019176e-03
-1.444171369075775146e-02
1.658453233540058136e-02
2.171784080564975739e-02
5.199844017624855042e-03
-1.691848225891590118e-02
9.644627571105957031e-03
3.014872223138809204e-02
2.271178923547267914e-02
2.393442392349243164e-02
2.271077595651149750e-02
-1.603879965841770172e-02
-9.356752969324588776e-03
1.584154088050127029e-03
-2.056133374571800232e-02
-3.077163361012935638e-02
1.312175486236810684e-02
1.402026321738958359e-02
5.803011590614914894e-04
-2.074198983609676361e-02
1.795146800577640533e-02
-1.602061837911605835e-02
3.082502633333206177e-02
-6.291731551755219698e-05
1.014975551515817642e-02
3.369852900505065918e-03
6.120105274021625519e-03
2.085721306502819061e-02
4.009874071925878525e-03
1.588405668735504150e-02
-1.114594284445047379e-02
-5.063356831669807434e-03
-1.999774761497974396e-02
-2.283152565360069275e-02
-2.292964607477188110e-02
-5.097579676657915115e-03
1.281822938472032547e-02
2.547402493655681610e-02
-3.424618626013398170e-05
-1.355155091732740402e-02
-1.880512572824954987e-02
-2.354326844215393066e-02
1.261467393487691879e-02
4.816614091396331787e-03
1.031125150620937347e-02
-6.175033282488584518e-03
-1.497569400817155838e-02
1.322476286441087723e-02
7.963459938764572144e-03
-7.427412085235118866e-03
1.300771627575159073e-02
-2.000492298975586891e-03
-1.771652139723300934e-02
1.915471814572811127e-02
-1.400956697762012482e-02
-8.315827697515487671e-03
-1.764234341681003571e-02
7.024527527391910553e-03
-1.462054252624511719e-02
2.678075246512889862e-02
1.922305673360824585e-02
2.547337487339973450e-02
-4.840114619582891464e-03
1.766345091164112091e-02
-2.073140628635883331e-02
2.133451774716377258e-02
8.603479363955557346e-04
8.521722629666328430e-04
-1.306792721152305603e-02
1.418366748839616776e-02
2.450692700222134590e-03
1.612595841288566589e-02
1.221268530935049057e-02
-2.168976515531539917e-02
6.085606291890144348e-03
1.070908829569816589e-02
-1.399633660912513733e-02
2.258978039026260376e-02
-5.881804972887039185e-03
1.787827350199222565e-02
-3.797165118157863617e-04
-2.195112779736518860e-02
1.565862260758876801e-02
-1.696933992207050323e-02
8.557684719562530518e-03
-1.453225314617156982e-02
8.584989234805107117e-03
1.434031873941421509e-02
-1.101196091622114182e-02
-4.005116969347000122e-02
9.259877726435661316e-03
2.296487800776958466e-02
9.585134685039520264e-03
2.205903641879558563e-02
1.144299656152725220e-02
1.220269314944744110e-02
2.287496440112590790e-02
-2.249819040298461914e-02
2.063759788870811462e-02
1.174602750688791275e-02
-5.570476874709129333e-03
2.524815686047077179e-02
1.769631169736385345e-02
-9.426105767488479614e-03
9.927690029144287109e-03
6.386425811797380447e-03
-6.243437062948942184e-03
-1.630230061709880829e-02
-2.833681646734476089e-03
-5.752776283770799637e-03
-1.390864420682191849e-02
2.501473762094974518e-02
-1.455898745916783810e-03
-1.640049926936626434e-02
4.884567111730575562e-03
2.400565333664417267e-02
1.824276708066463470e-02
-8.514664135873317719e-03
1.029234565794467926e-02
3.258067183196544647e-03
-3.171378374099731445e-02
-2.988113090395927429e-03
1.396898645907640457e-02
2.351527661085128784e-02
-1.681861840188503265e-02
1.011381763964891434e-02
-4.884322173893451691e-03
1.945173181593418121e-02
2.195889316499233246e-02
-6.803295575082302094e-03
-1.382315997034311295e-02
-2.564102411270141602e-02
8.384174667298793793e-03
1.745992526412010193e-02
8.203262463212013245e-03
-1.002183649688959122e-02
3.069451637566089630e-02
3.018226660788059235e-02
-5.556758958846330643e-03
-2.162813395261764526e-02
-2.663309685885906219e-02
-1.698322966694831848e-02
1.119601819664239883e-02
1.490696682594716549e-03
-1.253847219049930573e-02
-1.753947511315345764e-02
8.179244585335254669e-03
-2.033887803554534912e-02
-4.693109949585050344e-04
2.999093569815158844e-02
2.751219272613525391e-02
-3.263278305530548096e-02
-9.354316629469394684e-03
2.217145171016454697e-03
-2.282932167872786522e-03
-1.340857427567243576e-02
1.844296581111848354e-03
3.261358710005879402e-03
6.119513884186744690e-03
9.818745777010917664e-03
-1.652195863425731659e-02
5.618789698928594589e-03
1.825158111751079559e-02
-7.244915235787630081e-03
-2.919996390119194984e-03
1.527891587466001511e-02
3.866312792524695396e-03
-4.721320699900388718e-03
2.951597794890403748e-02
-1.592819951474666595e-02
-5.161433480679988861e-03
-1.205131039023399353e-02
-1.540533266961574554e-02
1.541952136904001236e-02
2.618696913123130798e-02
-3.238242818042635918e-03
-1.792142912745475769e-02
3.336948901414871216e-02
1.507641281932592392e-03
-2.498469129204750061e-02
-1.636155880987644196e-02
-2.322854707017540932e-03
-4.832258448004722595e-03
-1.151269115507602692e-02
1.960057392716407776e-02
-1.970826648175716400e-02
1.345769036561250687e-02
1.233146432787179947e-02
6.487487815320491791e-03
1.222002226859331131e-02
-1.486196299083530903e-03
-1.717249676585197449e-02
2.097354456782341003e-02
-2.693474292755126953e-02
-2.267557661980390549e-03
-1.779485680162906647e-02
-1.491260807961225510e-02
2.011833153665065765e-02
2.581642754375934601e-02
-3.310932079330086708e-03
2.446847595274448395e-02
9.879700839519500732e-03
1.221412792801856995e-03
2.722438424825668335e-02
-2.790793310850858688e-03
-1.003873720765113831e-02
-1.464025489985942841e-02
1.666870899498462677e-02
-2.432745136320590973e-02
8.444992825388908386e-03
3.909385204315185547e-02
-2.110150828957557678e-02
-2.293109521269798279e-02
-1.600910723209381104e-02
-1.268485561013221741e-02
-6.167729734443128109e-04
-1.135070901364088058e-02
-2.824619971215724945e-02
-1.224628556519746780e-02
2.178057096898555756e-02
-9.823734872043132782e-03
-6.522588897496461868e-03
-1.551495213061571121e-02
-2.673550322651863098e-02
2.858381718397140503e-02
-9.943186305463314056e-03
-2.582548372447490692e-02
-3.825105354189872742e-02
2.142673172056674957e-02
-8.772094734013080597e-03
2.103694900870323181e-02
1.783272810280323029e-02
1.478733308613300323e-02
-7.324434816837310791e-03
-8.678128011524677277e-03
-2.510219253599643707e-02
-2.588688209652900696e-02
-8.844945696182549000e-04
-2.530836313962936401e-02
2.139527350664138794e-02
-4.576510284096002579e-03
3.351902961730957031e-02
1.261614076793193817e-02
-2.452422305941581726e-02
1.521656289696693420e-02
1.314282137900590897e-02
-8.176904171705245972e-03
4.983074497431516647e-03
3.612606599926948547e-02
-2.491692639887332916e-02
1.746696047484874725e-02
-1.203117053955793381e-02
1.343496330082416534e-02
-2.154809050261974335e-02
1.298733986914157867e-02
1.378019689582288265e-03
-2.175791561603546143e-02
1.286106742918491364e-02
1.960343495011329651e-02
-9.157337248325347900e-03
-3.538144752383232117e-02
-2.732461132109165192e-02
1.620163582265377045e-02
-2.999617718160152435e-02
2.410622546449303627e-03
-8.044784190133213997e-04
1.255840249359607697e-02
-1.567755942232906818e-03
-3.628506138920783997e-02
-2.386850118637084961e-02
-5.728274583816528320e-03
2.236502990126609802e-02
1.309640146791934967e-02
-4.737187176942825317e-03
-3.977454733103513718e-03
-1.348093966953456402e-03
-1.179141923785209656e-02
-3.281681239604949951e-02
-2.165052667260169983e-02
1.622284646145999432e-03
-3.712948877364397049e-03
-7.910427637398242950e-03
8.357459679245948792e-03
2.081062458455562592e-02
-2.273380756378173828e-02
-1.345805078744888306e-02
2.873383834958076477e-02
-9.286446496844291687e-03
1.613177475519478321e-03
-1.317115616984665394e-03
-1.414165250025689602e-03
-5.178491584956645966e-03
1.415986567735671997e-02
3.085431456565856934e-02
7.796016987413167953e-03
-2.768174745142459869e-03
2.057363465428352356e-02
-1.165536604821681976e-02
-4.554032813757658005e-03
2.795647364109754562e-03
-1.803998369723558426e-03
8.669067174196243286e-03
1.778903184458613396e-03
1.311233732849359512e-03
1.210172660648822784e-02
-2.657262980937957764e-02
-1.688385754823684692e-02
-1.972028426826000214e-02
1.289209257811307907e-02
-9.331142529845237732e-03
8.725269697606563568e-03
3.360581025481224060e-02
-2.557842433452606201e-02
1.108541525900363922e-02
2.742498554289340973e-02
-4.383811756270006299e-05
-3.689850680530071259e-03
1.794200506992638111e-04
2.211813256144523621e-02
-2.348484471440315247e-03
1.688098348677158356e-02
1.315109059214591980e-02
3.764173761010169983e-02
2.695612795650959015e-02
-3.667527437210083008e-02
-5.678025539964437485e-03
1.033669989556074142e-02
-3.061269817408174276e-04
3.047703579068183899e-02
6.865553557872772217e-03
-6.283224560320377350e-03
1.630050502717494965e-02
-2.275867154821753502e-03
-3.143073990941047668e-02
-1.406203676015138626e-02
-3.199004009366035461e-02
-1.949855871498584747e-02
1.219334732741117477e-02
3.235228825360536575e-03
1.019598916172981262e-02
-2.138541638851165771e-02
1.776143349707126617e-02
-8.191951550543308258e-03
3.526175767183303833e-02
2.573789283633232117e-02
1.918818429112434387e-02
3.695159684866666794e-03
1.316952984780073166e-02
1.800539158284664154e-02
-4.625495523214340210e-03
2.700031735002994537e-02
-1.107976026833057404e-02
-6.768419872969388962e-03
1.293747685849666595e-02
-2.645699679851531982e-02
3.557554259896278381e-02
1.774778775870800018e-02
2.768968045711517334e-02
1.655123010277748108e-02
-2.266202820464968681e-03
3.204061463475227356e-02
-2.110719494521617889e-02
-6.833455990999937057e-03
1.403143629431724548e-02
1.395375933498144150e-02
-1.123673282563686371e-02
1.155369915068149567e-02
3.591760620474815369e-02
-2.481960691511631012e-02
1.490976009517908096e-02
3.143627196550369263e-02
-1.350926607847213745e-02
-4.283505026251077652e-03
1.742246933281421661e-02
-3.962576389312744141e-03
-2.442132122814655304e-02
1.630033552646636963e-02
-6.949958857148885727e-03
-7.625491824001073837e-03
-4.418017342686653137e-03
6.439440418034791946e-03
2.393267676234245300e-02
7.201816421002149582e-03
-3.548005968332290649e-02
1.812186278402805328e-02
1.177044957876205444e-02
1.308760885149240494e-02
2.917035669088363647e-02
-1.521200127899646759e-02
1.947180740535259247e-02
-7.877516560256481171e-03
2.102875895798206329e-02
5.759128835052251816e-03
-2.343874238431453705e-02
-2.385472878813743591e-02
-5.499132908880710602e-03
-1.325535937212407589e-03
3.084243275225162506e-02
7.713878527283668518e-03
-2.452631667256355286e-02
-7.158884778618812561e-03
1.708321459591388702e-02
7.183672860264778137e-03
-5.736767314374446869e-03
9.664545767009258270e-03
2.836292237043380737e-02
-9.795882739126682281e-03
-8.652793243527412415e-03
-1.504143420606851578e-02
1.938198320567607880e-02
-3.526680171489715576e-02
-1.008753944188356400e-02
1.961511559784412384e-02
3.577041998505592346e-02
-5.726355593651533127e-03
-1.679311878979206085e-02
-5.963220726698637009e-03
-1.064856071025133133e-02
3.470060974359512329e-02
4.015626385807991028e-03
2.566110715270042419e-02
-9.137102402746677399e-03
-9.129279293119907379e-03
6.936551071703433990e-03
1.408238615840673447e-02
-2.969734743237495422e-02
-9.129787795245647430e-03
1.513861934654414654e-03
-7.760541047900915146e-03
2.010005712509155273e-02
4.234612570144236088e-04
6.281428970396518707e-03
8.576674386858940125e-03
1.208171993494033813e-02
-5.623654462397098541e-03
-1.055339165031909943e-02
1.614785380661487579e-02
1.739772967994213104e-02
4.485374316573143005e-03
4.566221032291650772e-03
-3.802944207563996315e-03
-6.568742537638172507e-05
9.484175592660903931e-03
5.440118256956338882e-03
2.066842466592788696e-02
-2.182284370064735413e-02
1.343323197215795517e-02
-6.462253630161285400e-03
1.338021643459796906e-02
-1.819990389049053192e-02
3.654980100691318512e-03
-1.638784073293209076e-03
1.678022090345621109e-03
-1.770534738898277283e-02
6.361803505569696426e-03
9.303026832640171051e-03
2.587019931524991989e-03
-1.363923214375972748e-02
-1.980697736144065857e-02
-2.202237583696842194e-02
7.888967171311378479e-03
8.671204559504985809e-03
1.606457983143627644e-03
3.504084423184394836e-02
2.089030668139457703e-02
1.451794058084487915e-02
-2.365575172007083893e-02
6.714233197271823883e-03
2.916185744106769562e-02
-5.967911798506975174e-03
-8.052012883126735687e-03
1.780116558074951172e-02
2.142991125583648682e-02
-1.660107634961605072e-02
-1.443324983119964600e-02
1.289829798042774200e-02
-2.055683732032775879e-02
-2.147329412400722504e-02
5.339421704411506653e-02
1.089640147984027863e-02
-2.731701917946338654e-02
1.459218282252550125e-02
-4.895929247140884399e-03
3.032538294792175293e-02
-4.789472441188991070e-04
-1.124010607600212097e-02
-9.475775063037872314e-03
-9.386443533003330231e-03
-2.468480728566646576e-02
2.004112862050533295e-02
-1.317610032856464386e-02
-3.724358044564723969e-03
-1.211808994412422180e-02
-2.615580148994922638e-02
2.382669784128665924e-02
-2.070734091103076935e-02
1.636911742389202118e-02
1.076648849993944168e-02
-1.402521878480911255e-02
-1.132194325327873230e-02
6.147819105535745621e-03
-5.551977548748254776e-03
6.088426336646080017e-03
3.264640271663665771e-02
-2.418931201100349426e-02
8.544454351067543030e-03
4.171329550445079803e-03
7.977949455380439758e-03
1.101625803858041763e-02
-2.304206229746341705e-02
1.007592864334583282e-02
2.190738171339035034e-02
3.962177410721778870e-02
-7.859054021537303925e-03
-7.299240212887525558e-03
-1.573278382420539856e-02
-9.901419281959533691e-03
3.366667032241821289e-02
-1.220092643052339554e-02
-2.001029625535011292e-02
-8.273673593066632748e-04
1.334237959235906601e-02
-8.935618214309215546e-03
2.796220965683460236e-02
-5.178145598620176315e-03
-1.862822915427386761e-03
-3.342014178633689880e-02
-4.377294797450304031e-03
-6.792147643864154816e-03
-2.239620225736871362e-04
-2.312265709042549133e-02
9.829367510974407196e-03
3.785245120525360107e-02
2.159957587718963623e-02
-6.777813658118247986e-03
-2.171619422733783722e-02
-1.156454905867576599e-02
-9.209475480020046234e-03
-7.515801582485437393e-03
-2.000660315388813615e-04
9.655616246163845062e-03
-1.636702753603458405e-02
5.167710478417575359e-04
-2.560004591941833496e-02
7.958408445119857788e-03
-4.447814449667930603e-02
-1.622369885444641113e-02
1.339601818472146988e-02
7.279682904481887817e-04
-2.665896899998188019e-02
1.513156853616237640e-02
1.783674210309982300e-02
-4.174320399761199951e-02
3.119709668681025505e-03
-9.699605405330657959e-03
1.311205513775348663e-02
-2.311923913657665253e-02
-1.883840747177600861e-02
-2.637481875717639923e-02
-1.266215741634368896e-02
-8.035154081881046295e-03
-1.687090261839330196e-04
2.062672376632690430e-02
1.036008913069963455e-02
-2.724633552134037018e-02
-1.577802188694477081e-02
-2.629616670310497284e-02
3.710812889039516449e-03
-4.041888937354087830e-02
-9.288711473345756531e-03
-1.088687870651483536e-02
-2.411194145679473877e-02
2.689312212169170380e-03
-1.378112379461526871e-02
1.007702015340328217e-02
-3.503932617604732513e-03
-1.303850021213293076e-02
2.040564641356468201e-02
-2.487540431320667267e-02
-3.285051789134740829e-03
4.157812800258398056e-03
7.503209635615348816e-03
-2.082695625722408295e-02
8.318386971950531006e-03
-6.555113475769758224e-03
-2.014408446848392487e-02
-9.744471870362758636e-03
1.080093346536159515e-02
-2.513269893825054169e-02
-1.722993515431880951e-02
-2.007882809266448021e-03
9.266256354749202728e-03
-2.465457841753959656e-02
6.440203287638723850e-04
2.438480965793132782e-02
1.338449586182832718e-02
-1.102074421942234039e-02
-2.182224951684474945e-02
2.841391786932945251e-02
7.072818465530872345e-03
2.081184461712837219e-02
1.345728989690542221e-03
4.132634494453668594e-03
-2.797004207968711853e-02
9.818715043365955353e-03
-2.215962298214435577e-02
-6.578375585377216339e-03
-1.457196287810802460e-02
-1.379739399999380112e-02
-1.286221761256456375e-02
-1.932959444820880890e-02
-1.557695958763360977e-02
1.061235927045345306e-02
2.298297919332981110e-02
2.113084867596626282e-02
1.950089260935783386e-02
-6.505269557237625122e-03
1.141134276986122131e-02
-2.787994779646396637e-02
-2.046387828886508942e-02
-1.672306461841799319e-05
7.977619767189025879e-03
2.733529545366764069e-02
-7.362294010818004608e-03
-1.027007214725017548e-02
8.892198093235492706e-03
1.612836308777332306e-02
1.978335157036781311e-02
-3.055125102400779724e-02
-2.202695421874523163e-02
-2.280163019895553589e-02
-7.710177451372146606e-03
3.474365919828414917e-02
-1.306785736232995987e-02
-3.223481355234980583e-03
2.666009962558746338e-02
1.660960167646408081e-02
-4.582324065268039703e-03
6.583990994840860367e-03
-4.571907687932252884e-03
-7.392436265945434570e-03
2.539219707250595093e-02
-1.143294200301170349e-02
2.864843467250466347e-03
-3.709094366058707237e-03
9.460448287427425385e-03
-2.490523271262645721e-03
2.558245137333869934e-02
-3.499473445117473602e-03
-9.387139230966567993e-03
-2.533570863306522369e-03
-1.293181814253330231e-02
-1.180850621312856674e-02
2.705912338569760323e-03
-9.733602404594421387e-03
-3.170299809426069260e-03
6.792198400944471359e-03
-8.035851642489433289e-03
-4.708654247224330902e-03
1.678596436977386475e-02
-1.420636475086212158e-02
7.529541850090026855e-03
8.666182868182659149e-03
2.269461937248706818e-02
3.832062333822250366e-02
4.245987627655267715e-03
7.386516313999891281e-03
-6.422826088964939117e-03
1.880987361073493958e-02
-1.266724895685911179e-02
-6.425308063626289368e-03
8.812471292912960052e-03
1.525617553852498531e-03
2.738601760938763618e-04
1.263621728867292404e-02
3.265688568353652954e-02
1.233710814267396927e-02
-1.117219030857086182e-02
1.588596496731042862e-03
-8.092992007732391357e-03
2.724321745336055756e-02
2.069226279854774475e-02
-1.743595814332365990e-03
-9.964726865291595459e-03
-2.259613014757633209e-02
-9.253331460058689117e-03
2.878443524241447449e-02
8.232873864471912384e-03
-3.363182302564382553e-03
-9.224015288054943085e-03
-2.447429299354553223e-02
-2.636138908565044403e-02
-1.081905141472816467e-02
1.736739277839660645e-02
2.076209522783756256e-02
9.233693592250347137e-03
2.784265764057636261e-02
-2.727421745657920837e-02
-1.965171843767166138e-02
-7.383861229754984379e-04
1.573372073471546173e-02
-3.182245045900344849e-02
-4.549228586256504059e-03
1.197124016471207142e-03
-1.344326883554458618e-02
6.160746561363339424e-04
6.660440936684608459e-03
6.815948523581027985e-03
-1.484048319980502129e-03
-1.190564408898353577e-02
-6.722849793732166290e-03
-3.211272880434989929e-02
1.535626407712697983e-02
2.776723122224211693e-03
8.993014693260192871e-03
1.029639132320880890e-02
1.864927448332309723e-02
6.105492822825908661e-03
9.924693964421749115e-03
1.950206793844699860e-02
-3.018157184123992920e-02
-7.130277808755636215e-03
2.694948390126228333e-02
-3.480440704151988029e-03
1.757768914103507996e-02
-7.508039008826017380e-03
-9.744405746459960938e-03
1.332813873887062073e-02
-1.775708422064781189e-02
3.302199998870491982e-03
2.368041127920150757e-02
1.863571628928184509e-02
-2.359636314213275909e-02
8.844721131026744843e-03
2.399925515055656433e-02
-2.969170222058892250e-03
8.645131252706050873e-03
1.677755825221538544e-02
-8.971625939011573792e-03
-3.271779045462608337e-02
1.495764963328838348e-02
1.525287050753831863e-02
5.119468085467815399e-03
2.229535579681396484e-02
-3.009350784122943878e-02
1.595897600054740906e-02
-9.579845704138278961e-03
-1.043439935892820358e-02
1.987442374229431152e-02
1.092517841607332230e-02
1.483203936368227005e-02
2.069010515697300434e-04
3.170638158917427063e-02
-3.744634613394737244e-02
1.309433765709400177e-02
-3.174554789438843727e-03
3.787233680486679077e-02
1.217836327850818634e-02
7.730905432254076004e-03
-2.097879163920879364e-02
-3.861805191263556480e-03
-1.235358975827693939e-02
1.445440761744976044e-02
-2.812872827053070068e-02
-3.686960088089108467e-03
8.876392617821693420e-03
3.967111185193061829e-02
-4.194784909486770630e-02
-3.677775675896555185e-04
-5.081990966573357582e-04
-2.428068220615386963e-02
-1.591149717569351196e-02
1.764227985404431820e-03
4.065872356295585632e-02
3.310139756649732590e-03
-3.365625441074371338e-02
1.140048727393150330e-02
-2.852134034037590027e-02
-1.773945987224578857e-02
2.840264700353145599e-02
2.918173745274543762e-02
-1.462093833833932877e-02
1.210547331720590591e-02
-2.296941354870796204e-02
1.566240936517715454e-02
-2.629884704947471619e-02
8.620360749773681164e-04
9.695151820778846741e-03
-1.543426769785583019e-03
-7.700061425566673279e-03
7.515749428421258926e-03
-1.177383773028850555e-02
-9.192534722387790680e-03
-2.301980182528495789e-02
-2.614632248878479004e-02
7.445171009749174118e-03
-6.514204433187842369e-04
-9.694110602140426636e-03
8.791539003141224384e-04
-2.704196050763130188e-02
1.649954169988632202e-02
-2.713783271610736847e-02
8.430970832705497742e-03
1.525323837995529175e-02
-1.969514973461627960e-02
-4.438112955540418625e-03
-4.006454721093177795e-02
6.733013316988945007e-03
-5.458054132759571075e-03
-2.779713086783885956e-02
-7.350775413215160370e-03
1.530393492430448532e-02
-3.692545741796493530e-02
-2.301930636167526245e-02
-4.235247615724802017e-03
-8.476302959024906158e-03
4.802763927727937698e-03
-5.142249166965484619e-03
-1.639124192297458649e-02
-3.932296764105558395e-03
5.480742547661066055e-03
-3.760233893990516663e-02
4.018234903924167156e-04
-8.393781608901917934e-04
-3.292182460427284241e-02
-1.175948232412338257e-02
-5.779327824711799622e-03
-4.020200110971927643e-03
-2.781279943883419037e-02
7.485612295567989349e-03
-1.906503550708293915e-02
2.451374009251594543e-02
9.698464535176753998e-03
1.783128082752227783e-02
2.034555748105049133e-02
-7.489052601158618927e-03
-7.244533393532037735e-03
7.046317681670188904e-03
-1.681303046643733978e-02
3.024362027645111084e-02
-2.287270687520503998e-02
-2.255723997950553894e-02
-1.241192501038312912e-02
2.536804974079132080e-02
-1.264099869877099991e-02
1.889695227146148682e-02
9.364594006910920143e-05
-2.033280022442340851e-02
-4.491941537708044052e-03
1.858225092291831970e-02
4.858913645148277283e-02
-2.102949470281600952e-02
6.658421829342842102e-03
8.915693499147891998e-03
1.893194764852523804e-02
3.590719029307365417e-02
-2.891381271183490753e-02
1.260090805590152740e-02
-5.434618331491947174e-03
2.184115117415785789e-03
2.273631840944290161e-02
1.747515983879566193e-02
-1.380972750484943390e-02
-2.738194167613983154e-02
-3.385885152965784073e-03
-1.361277885735034943e-02
-9.865905158221721649e-03
-1.789998635649681091e-02
-5.353431683033704758e-03
-2.379729598760604858e-02
2.670247107744216919e-02
2.421286888420581818e-02
-1.702607795596122742e-02
-5.057577509433031082e-04
-2.438165619969367981e-02
-1.432142686098814011e-03
-2.831361722201108932e-03
3.536845371127128601e-02
9.775620885193347931e-03
1.959646679461002350e-02
6.097742822021245956e-03
1.631529442965984344e-02
1.746682263910770416e-02
-4.200649447739124298e-03
-1.201053336262702942e-02
1.262628287076950073e-02
4.874804290011525154e-06
-1.567169465124607086e-02
-1.535802520811557770e-02
-1.679496839642524719e-02
3.445569425821304321e-02
2.053381688892841339e-02
1.688149757683277130e-02
-1.643109321594238281e-02
3.002401674166321754e-03
1.066097244620323181e-02
2.576235681772232056e-03
-2.680315810721367598e-04
-1.839183270931243896e-03
-2.075087511911988258e-03
-1.044092141091823578e-02
-6.607703864574432373e-03
6.027564872056245804e-03
1.633574627339839935e-02
-2.350411377847194672e-02
2.878895215690135956e-02
3.210387006402015686e-02
-2.145003154873847961e-02
1.087605394423007965e-02
-5.344303324818611145e-03
2.007673680782318115e-02
2.503174170851707458e-02
-8.627953939139842987e-03
1.846554875373840332e-02
-1.130715757608413696e-02
1.865708734840154648e-03
-2.560553140938282013e-02
1.960614509880542755e-02
2.165947109460830688e-02
1.305904332548379898e-02
1.229433994740247726e-02
-1.669701002538204193e-02
-1.636620424687862396e-02
-1.290941610932350159e-02
9.762452915310859680e-03
-1.054550241678953171e-02
-1.620106212794780731e-02
2.185678668320178986e-02
-2.482539415359497070e-02
1.231897529214620590e-02
1.493850816041231155e-02
1.517234183847904205e-02
-8.641779422760009766e-03
7.830387912690639496e-03
4.961645230650901794e-03
-1.195800211280584335e-02
8.973012678325176239e-03
1.741280197165906429e-03
-3.027159254997968674e-03
4.521356429904699326e-03
-1.654744520783424377e-02
1.745185814797878265e-02
-2.229061163961887360e-02
-2.996627800166606903e-02
-7.305101957172155380e-03
2.252429910004138947e-02
4.586017876863479614e-02
1.780354231595993042e-02
1.095458492636680603e-02
1.765012129908427596e-04
6.570479832589626312e-03
3.561238199472427368e-02
-4.577540978789329529e-02
-4.328016657382249832e-03
5.851446185261011124e-04
1.566889137029647827e-02
-1.486848760396242142e-02
2.145639993250370026e-02
-2.835548110306262970e-02
-3.701657056808471680e-02
6.017046049237251282e-03
2.265655063092708588e-02
-9.034449234604835510e-03
-2.500351332128047943e-02
-1.764621213078498840e-02
3.293575718998908997e-02
-6.779691204428672791e-03
1.093424763530492783e-02
2.091106399893760681e-02
1.598911732435226440e-02
5.325639620423316956e-03
1.272943429648876190e-02
-2.198696322739124298e-02
-2.466261573135852814e-02
-8.989971131086349487e-03
-1.580986380577087402e-02
-2.265182696282863617e-02
1.688318140804767609e-02
3.302837163209915161e-02
-2.103023231029510498e-02
-4.527302458882331848e-02
-2.663827687501907349e-02
-2.190433815121650696e-02
-3.069156594574451447e-02
1.187206618487834930e-02
-2.471940033137798309e-02
-1.023986190557479858e-02
-1.342723052948713303e-02
-1.279898174107074738e-02
3.331680595874786377e-02
-3.960012458264827728e-03
-8.316724561154842377e-03
1.647610776126384735e-02
1.156638935208320618e-02
1.901151239871978760e-02
-5.078972317278385162e-03
5.301655735820531845e-03
4.794298857450485229e-02
7.545220665633678436e-03
3.946565557271242142e-03
-1.917601935565471649e-02
-2.162479422986507416e-02
-1.971029676496982574e-02
-4.601800465025007725e-04
-2.411386556923389435e-02
8.512313477694988251e-03
-2.686049975454807281e-02
8.507462218403816223e-03
-1.515719387680292130e-02
-2.563326619565486908e-02
-1.186763588339090347e-02
-9.067271836102008820e-03
-1.086587086319923401e-02
-1.363186072558164597e-02
9.774127043783664703e-03
4.734619869850575924e-04
7.009670138359069824e-03
4.915803670883178711e-03
-3.038895083591341972e-04
-3.481832519173622131e-02
-9.647721424698829651e-03
6.087352521717548370e-03
2.339825266972184181e-03
1.325862295925617218e-02
6.631611380726099014e-03
-9.629531763494014740e-03
1.440736185759305954e-02
7.864285260438919067e-03
-7.532313000410795212e-03
8.851528167724609375e-03
-1.904548890888690948e-02
-3.130346070975065231e-03
8.142845705151557922e-03
-2.320375293493270874e-02
-1.470001321285963058e-02
1.980514824390411377e-02
1.274810358881950378e-02
6.502595497295260429e-04
1.396265067160129547e-02
3.468818590044975281e-02
9.825104847550392151e-03
-1.032749563455581665e-02
-9.936835616827011108e-03
-3.986432217061519623e-03
-1.849099807441234589e-02
-2.115916088223457336e-02
-9.285899577662348747e-04
2.560414373874664307e-02
2.394251758232712746e-03
-8.717888034880161285e-03
2.771138213574886322e-03
-4.193143919110298157e-03
-1.728289388120174408e-02
1.971891894936561584e-02
-1.638042926788330078e-02
-2.800057455897331238e-02
-1.664249692112207413e-03
-2.661843085661530495e-03
8.723490871489048004e-03
-1.476539950817823410e-02
3.211256349459290504e-03
2.018577419221401215e-02
1.531056966632604599e-02
-3.687741979956626892e-02
1.981390174478292465e-03
2.080210670828819275e-02
-9.718877263367176056e-03
-1.351707056164741516e-02
2.140847593545913696e-02
-2.625665254890918732e-02
1.691666431725025177e-02
-1.658325898461043835e-03
-1.854026317596435547e-02
1.830152049660682678e-02
-2.011097967624664307e-02
1.079414878040552139e-02
-1.339805126190185547e-02
-1.313267368823289871e-02
-1.231706421822309494e-02
-2.380980551242828369e-02
-1.462309341877698898e-02
1.283931429497897625e-03
5.428871139883995056e-03
7.810826413333415985e-03
-3.732514753937721252e-02
2.124851103872060776e-03
1.199274882674217224e-02
2.425115555524826050e-02
-1.801278628408908844e-02
-5.158254876732826233e-03
-5.164443049579858780e-03
1.013400382362306118e-03
7.160586304962635040e-03
-2.115065976977348328e-02
2.005613595247268677e-02
2.803239040076732635e-02
-4.317197483032941818e-03
-1.490154862403869629e-02
-2.051384560763835907e-02
-3.883926197886466980e-02
-4.157035425305366516e-02
-1.119419839233160019e-02
-2.003635047003626823e-03
-9.549836395308375359e-04
-1.661767065525054932e-02
6.902535445988178253e-03
-2.756590396165847778e-02
-2.217802777886390686e-02
1.487630885094404221e-02
4.817672888748347759e-04
-1.283974293619394302e-02
-1.640254817903041840e-02
-1.262933667749166489e-02
3.226907178759574890e-02
-2.055705524981021881e-02
-2.049954235553741455e-02
1.206703484058380127e-02
1.639161608181893826e-03
6.813617888838052750e-03
-3.112672083079814911e-02
-2.673220448195934296e-02
-3.684751316905021667e-02
-2.674939297139644623e-02
1.257899869233369827e-02
5.217341706156730652e-03
-2.530745416879653931e-02
7.468387950211763382e-03
-1.132045313715934753e-02
-1.225664280354976654e-02
1.775770797394216061e-04
9.922382421791553497e-03
2.662448957562446594e-02
-7.151582743972539902e-03
-3.168273717164993286e-02
4.748384933918714523e-03
1.699111983180046082e-02
2.503002062439918518e-02
2.913472801446914673e-02
3.045235946774482727e-02
1.856505870819091797e-02
4.037278238683938980e-03
-1.311928872019052505e-02
-8.875826024450361729e-04
-5.932210013270378113e-03
2.943357452750205994e-02
3.396718762814998627e-03
-9.763220325112342834e-03
-1.690414361655712128e-02
-2.154639363288879395e-02
1.330726314336061478e-02
-2.296367101371288300e-02
2.044447325170040131e-02
-3.056556731462478638e-02
-1.524700410664081573e-02
-2.351685427129268646e-02
1.725368015468120575e-02
3.156760241836309433e-03
1.072264858521521091e-03
6.006071344017982483e-03
9.214102290570735931e-03
-2.909298986196517944e-02
4.209938459098339081e-03
-1.216226443648338318e-02
-1.162601727992296219e-02
-2.521545998752117157e-02
5.556030664592981339e-03
5.434597842395305634e-03
-3.196913748979568481e-02
-3.267967328429222107e-02
4.423223435878753662e-03
1.603782549500465393e-02
1.276510860770940781e-02
-1.319117844104766846e-02
-2.731180191040039062e-02
-2.259580604732036591e-02
1.536121871322393417e-02
8.689224720001220703e-03
3.561917692422866821e-02
2.439250424504280090e-02
2.327324263751506805e-02
-9.547488763928413391e-03
-1.016577333211898804e-02
8.627307601273059845e-03
-1.265953108668327332e-02
5.359921604394912720e-03
1.481278054416179657e-02
-2.191981114447116852e-02
2.228060178458690643e-02
-1.134539768099784851e-02
2.480655442923307419e-03
1.838406664319336414e-03
-1.303545199334621429e-02
6.326981354504823685e-03
2.518796548247337341e-02
7.515848265029489994e-04
-7.474801503121852875e-03
-1.325879991054534912e-02
-6.301841232925653458e-03
-1.426570583134889603e-02
-7.988878525793552399e-03
1.694983989000320435e-02
5.175526253879070282e-03
-2.380680292844772339e-02
-9.382746182382106781e-03
-3.159768134355545044e-02
-8.425503969192504883e-03
2.175205387175083160e-02
2.693457296118140221e-03
6.768479943275451660e-03
-3.095929324626922607e-02
-3.580227494239807129e-02
-8.243788033723831177e-03
-1.779199205338954926e-02
1.662769005633890629e-03
-1.405776105821132660e-02
-1.858976669609546661e-02
9.268757887184619904e-03
1.715984009206295013e-02
7.034077774733304977e-03
-6.286578252911567688e-03
-1.798575394786894321e-03
-1.710786856710910797e-02
-1.642799563705921173e-02
9.357340168207883835e-04
-2.098064124584197998e-02
-1.163566205650568008e-02
-1.128526404500007629e-02
5.389293655753135681e-03
-1.194907538592815399e-02
1.999187748879194260e-03
4.079847410321235657e-02
-6.752698216587305069e-03
-5.353823304176330566e-03
1.419590227305889130e-02
1.389027759432792664e-02
5.884838756173849106e-03
2.294255606830120087e-02
-1.925179176032543182e-02
-5.913869012147188187e-03
1.433920767158269882e-02
-3.303397074341773987e-02
-1.719460636377334595e-02
-6.973185110837221146e-03
6.176630035042762756e-03
-1.436411216855049133e-02
-6.351554766297340393e-03
1.975405775010585785e-02
1.408298150636255741e-03
-5.908275023102760315e-03
2.516906335949897766e-02
-1.428315322846174240e-02
-1.308628357946872711e-03
1.912324503064155579e-02
-6.945830769836902618e-03
2.558439970016479492e-02
2.524734102189540863e-02
8.566433563828468323e-03
1.985653489828109741e-02
-1.357373083010315895e-03
-1.142021454870700836e-02
5.122371483594179153e-03
-1.702713221311569214e-02
-1.278958842158317566e-02
5.604116711765527725e-03
1.673223823308944702e-02
-1.103732641786336899e-02
1.396788097918033600e-02
-6.465436425060033798e-03
8.184147998690605164e-03
2.377458475530147552e-02
-2.324198186397552490e-02
-1.981093361973762512e-02
-2.355184592306613922e-02
8.989807218313217163e-03
-1.348678674548864365e-02
1.721983402967453003e-02
-1.649775169789791107e-02
-1.107888855040073395e-02
-2.229612879455089569e-02
-1.567867770791053772e-02
-8.184288628399372101e-03
2.773296087980270386e-02
-5.113011691719293594e-03
2.663943357765674591e-02
1.413648948073387146e-02
-1.097219623625278473e-02
2.049179188907146454e-02
2.863046899437904358e-02
3.445532917976379395e-02
-7.124813273549079895e-03
-2.481431327760219574e-02
1.438517309725284576e-02
1.821335218846797943e-02
1.216511824168264866e-03
-9.950275532901287079e-03
2.937749959528446198e-02
3.170850500464439392e-02
-2.624315395951271057e-02
-9.980028495192527771e-03
-1.917573064565658569e-02
5.507180001586675644e-03
-3.466935828328132629e-02
-3.421024233102798462e-02
1.879507675766944885e-02
2.499536983668804169e-02
-1.891843602061271667e-02
1.140832086093723774e-03
7.478846237063407898e-03
6.763576995581388474e-03
-1.609943993389606476e-02
2.889477275311946869e-02
3.196378424763679504e-02
-1.635655760765075684e-02
8.330161683261394501e-03
4.284526221454143524e-03
1.573504880070686340e-02
-8.892935700714588165e-03
-1.335277687758207321e-02
1.134288962930440903e-03
6.890201009809970856e-03
-2.150159701704978943e-02
-6.578535307198762894e-03
-1.030237786471843719e-02
-2.273137494921684265e-02
-7.120527792721986771e-03
-2.082784101366996765e-02
-3.044338710606098175e-02
-2.211810089647769928e-02
-1.125003863126039505e-02
-1.950338110327720642e-02
-1.019163336604833603e-02
1.126351486891508102e-02
-6.849316414445638657e-03
-1.097240112721920013e-02
1.389453653246164322e-02
3.417798085138201714e-03
1.359454169869422913e-02
1.073595136404037476e-02
1.399229164235293865e-03
2.688054926693439484e-02
2.340773306787014008e-02
1.432915497571229935e-02
-1.386482082307338715e-02
-9.881245205178856850e-04
-2.577629871666431427e-03
1.309157162904739380e-02
5.955321714282035828e-03
4.281010478734970093e-02
-1.554324012249708176e-02
-4.677488934248685837e-03
1.662071235477924347e-02
-2.789384685456752777e-03
-8.818545378744602203e-03
-2.251972071826457977e-02
-2.263114973902702332e-02
-2.728073112666606903e-02
1.394965592771768570e-02
1.779000274837017059e-02
1.420688349753618240e-02
1.113996747881174088e-02
-2.729821577668190002e-02
-2.626675926148891449e-02
1.591353490948677063e-02
-1.432803086936473846e-02
-2.470465190708637238e-02
1.945282891392707825e-02
3.180544823408126831e-03
-8.401332423090934753e-03
-7.452575024217367172e-03
-1.618636585772037506e-02
-6.877041887491941452e-03
1.638029329478740692e-02
7.025643717497587204e-03
-2.456747926771640778e-02
-7.298375945538282394e-03
1.329288724809885025e-02
-1.728925853967666626e-02
-1.447711838409304619e-05
-1.688969135284423828e-02
-9.243654785677790642e-04
-9.840657934546470642e-03
6.624142173677682877e-03
4.939461592584848404e-03
1.446726545691490173e-02
9.089778177440166473e-03
-3.894498338922858238e-03
-2.095552161335945129e-02
-2.461082302033901215e-02
-2.681047655642032623e-03
3.010862879455089569e-02
1.744479523040354252e-03
9.551152586936950684e-03
3.940639086067676544e-03
-3.051933087408542633e-02
-1.444707997143268585e-02
-4.277827590703964233e-02
-1.746594533324241638e-02
-1.576387509703636169e-02
2.793107740581035614e-02
1.613174565136432648e-02
-1.417422667145729065e-02
1.185114402323961258e-02
1.213788148015737534e-02
-1.344872638583183289e-02
3.479734878055751324e-04
-2.161118015646934509e-02
-1.150233205407857895e-02
-2.751317247748374939e-02
-1.527611538767814636e-02
1.359175052493810654e-02
-1.524161780253052711e-03
-1.098743453621864319e-02
-1.261199079453945160e-02
-4.540282825473695993e-04
-6.671860814094543457e-03
9.323428384959697723e-04
1.062360405921936035e-02
6.418844684958457947e-03
3.674308769404888153e-03
3.091339720413088799e-03
-9.513937868177890778e-03
9.869007393717765808e-03
-7.243368774652481079e-03
7.946321740746498108e-03
1.360874902456998825e-02
-2.344799041748046875e-02
-3.262987732887268066e-02
6.513868924230337143e-03
-9.999149187933653593e-05
-1.836107112467288971e-02
2.095138188451528549e-03
1.037341728806495667e-02
1.920116692781448364e-02
-1.946659944951534271e-02
2.376720681786537170e-02
-1.970221661031246185e-02
8.530681952834129333e-03
3.324339538812637329e-02
-2.843637717887759209e-03
-9.029202163219451904e-03
2.222127653658390045e-02
1.750069297850131989e-02
3.823770675808191299e-03
1.619303412735462189e-02
4.422755166888237000e-02
-1.670679822564125061e-02
2.371622808277606964e-02
1.389012206345796585e-02
-8.699100464582443237e-03
-1.953356340527534485e-02
-2.950750105082988739e-02
1.044438220560550690e-02
-7.821094477549195290e-04
-1.602233201265335083e-02
2.491277270019054413e-02
8.803010918200016022e-03
1.005185488611459732e-02
-2.099284529685974121e-02
-2.580341324210166931e-02
1.051475200802087784e-02
6.518630310893058777e-03
-1.674615778028964996e-02
-1.333586499094963074e-02
1.677030697464942932e-02
-2.394701587036252022e-03
-7.490136194974184036e-04
6.485383491963148117e-03
2.433117851614952087e-02
-1.824253052473068237e-02
-1.196887437254190445e-02
-3.519027261063456535e-03
1.488009188324213028e-02
-3.041450306773185730e-02
1.816513948142528534e-02
-1.976419985294342041e-02
-6.152091664262115955e-04
2.034936472773551941e-02
-9.426452219486236572e-03
7.885796949267387390e-03
4.694032948464155197e-03
2.742813155055046082e-02
1.488421484827995300e-02
4.828729666769504547e-03
-2.887306176126003265e-02
-5.937821697443723679e-03
-1.476035080850124359e-02
9.532048366963863373e-03
1.165331806987524033e-02
-1.625479571521282196e-02
-1.842935755848884583e-02
1.716438308358192444e-02
-1.345974858850240707e-02
1.045916043221950531e-02
2.668705582618713379e-02
-6.576142623089253902e-04
-2.419630438089370728e-02
-6.818333175033330917e-03
-5.707347765564918518e-03
3.117904067039489746e-03
-1.927556656301021576e-02
5.474158562719821930e-03
-1.075778994709253311e-02
1.616043271496891975e-03
-2.831628173589706421e-02
-1.796082966029644012e-02
-2.540572080761194229e-03
2.186435274779796600e-02
1.416190247982740402e-02
1.125312969088554382e-02
2.772857248783111572e-02
-2.335376851260662079e-02
-1.162258535623550415e-02
1.333436276763677597e-02
3.439347445964813232e-02
1.091383863240480423e-02
-3.344826633110642433e-03
-9.201999753713607788e-03
9.248862043023109436e-03
-8.236484602093696594e-03
-1.608302444219589233e-02
-9.689003229141235352e-03
4.540088120847940445e-03
-1.158260274678468704e-03
-1.657172292470932007e-02
1.247329823672771454e-02
-7.123532705008983612e-03
9.836924262344837189e-03
-2.297280728816986084e-02
3.908007964491844177e-02
3.522291406989097595e-02
-2.588154748082160950e-02
2.154119312763214111e-02
1.169304247014224529e-03
1.394190732389688492e-02
-2.575847320258617401e-03
1.888015493750572205e-02
3.464926406741142273e-02
-3.572197398170828819e-03
1.680224551819264889e-03
-1.965167187154293060e-02
-1.385503169149160385e-02
-8.039443753659725189e-03
2.743722498416900635e-02
-9.631143882870674133e-03
-3.381100296974182129e-02
7.955888286232948303e-03
1.170057244598865509e-02
-1.883513480424880981e-02
-3.834900259971618652e-02
-1.184977684170007706e-02
-1.553384773433208466e-02
3.066464327275753021e-03
-2.269547432661056519e-02
-1.553619047626852989e-03
-9.838092140853404999e-03
1.106360182166099548e-02
-6.828056182712316513e-03
-3.111050277948379517e-02
-6.397728342562913895e-03
-1.242757774889469147e-03
-1.835634186863899231e-02
-7.390474434942007065e-03
1.446405798196792603e-02
-6.059929262846708298e-03
2.997294627130031586e-02
-1.124238502234220505e-02
3.553788876160979271e-03
-2.660761214792728424e-02
-7.931780070066452026e-03
3.086097771301865578e-03
5.776316393166780472e-03
-1.070355344563722610e-02
4.112807800993323326e-05
-7.428741548210382462e-03
-9.834477677941322327e-03
1.356284413486719131e-02
2.295259945094585419e-02
2.262995950877666473e-02
6.366585381329059601e-03
-9.456493891775608063e-03
-1.800893992185592651e-02
-2.247418835759162903e-02
-1.005572546273469925e-02
2.704920247197151184e-02
-7.081320509314537048e-03
3.083707764744758606e-02
2.528923191130161285e-02
1.266627386212348938e-02
-2.455035038292407990e-02
-1.755301095545291901e-02
-1.509891450405120850e-02
1.610842347145080566e-02
-6.247553508728742599e-03
1.648307032883167267e-02
-1.816646754741668701e-02
-4.860881716012954712e-03
-4.721579141914844513e-03
-2.162657864391803741e-02
1.051877811551094055e-02
-2.865705755539238453e-05
-4.045593738555908203e-02
-6.725211162120103836e-03
1.076112966984510422e-02
8.303395588882267475e-05
-2.040417119860649109e-02
-1.017540693283081055e-02
-2.134378068149089813e-02
1.809484674595296383e-03
-1.563013717532157898e-02
-1.282365061342716217e-03
1.020749658346176147e-02
1.986946910619735718e-02
9.096045047044754028e-03
-1.436955947428941727e-02
-1.341434754431247711e-02
-1.270422618836164474e-02
-2.034731768071651459e-02
-1.460684090852737427e-02
-5.623666103929281235e-03
-1.398391742259263992e-02
1.808579452335834503e-02
2.137444727122783661e-02
1.947902515530586243e-02
-1.876785419881343842e-02
-1.241763401776552200e-02
1.350280828773975372e-02
1.569565013051033020e-02
2.618218958377838135e-02
2.913167513906955719e-02
9.791326010599732399e-05
-2.084702951833605766e-03
6.749235559254884720e-03
9.714049287140369415e-03
3.733272105455398560e-02
2.246431075036525726e-03
3.704814240336418152e-03
-2.350649423897266388e-02
-1.999465562403202057e-02
-2.813421376049518585e-02
-1.767138019204139709e-02
1.763353124260902405e-02
3.232017159461975098e-02
4.088895861059427261e-03
-2.476148307323455811e-02
6.466265767812728882e-03
-1.007310301065444946e-02
-3.597175329923629761e-02
-1.932977815158665180e-03
8.919754996895790100e-03
-2.067799307405948639e-02
-2.453922480344772339e-02
7.862852886319160461e-03
2.699287422001361847e-02
1.645412668585777283e-02
-6.989905610680580139e-03
-1.501314900815486908e-02
-6.789579521864652634e-03
-2.762266434729099274e-02
-1.086981408298015594e-02
-8.355855010449886322e-03
7.512937765568494797e-03
-3.797476738691329956e-02
-1.582533866167068481e-02
5.282028578221797943e-03
-1.525407005101442337e-02
1.272134366445243359e-03
-9.563790634274482727e-03
1.054392941296100616e-02
1.595403626561164856e-02
-1.654540374875068665e-02
1.056300289928913116e-02
-3.500857157632708549e-03
2.453570440411567688e-02
-1.177616976201534271e-02
-1.978825032711029053e-02
-2.574233151972293854e-02
1.790569908916950226e-02
2.129060402512550354e-02
4.824037477374076843e-02
1.031000260263681412e-02
-2.151013351976871490e-02
-1.486824941821396351e-03
2.744516357779502869e-02
4.076842963695526123e-02
2.201760374009609222e-02
2.372933551669120789e-03
1.588482782244682312e-02
1.926839910447597504e-02
-2.901569707319140434e-03
-5.221277475357055664e-03
3.857336938381195068e-02
-3.113494953140616417e-03
-2.798528969287872314e-02
-5.437381099909543991e-03
2.264002524316310883e-02
-1.877031102776527405e-02
1.466419082134962082e-02
2.041134983301162720e-02
-2.691509760916233063e-02
8.365733548998832703e-03
2.605073526501655579e-02
1.396631263196468353e-02
-1.814226061105728149e-02
-3.483889997005462646e-02
-1.926301419734954834e-02
-1.494349818676710129e-02
-2.530495263636112213e-02
1.383166480809450150e-02
2.935043722391128540e-02
2.891473099589347839e-02
4.836217034608125687e-03
5.820405203849077225e-03
2.325274422764778137e-02
9.031123481690883636e-03
-3.155590593814849854e-02
4.322612658143043518e-04
-1.185970194637775421e-02
-4.874035250395536423e-03
1.470560487359762192e-02
-2.458541281521320343e-02
-5.029636435210704803e-03
2.461669966578483582e-02
-1.857970654964447021e-02
-3.282151301391422749e-04
1.926380954682826996e-02
-3.636412322521209717e-03
1.449129544198513031e-02
2.229687571525573730e-02
3.114496357738971710e-02
-5.696470383554697037e-03
2.674017474055290222e-02
-2.051178365945816040e-02
-4.256302956491708755e-03
1.491935271769762039e-02
2.084139361977577209e-02
2.097074314951896667e-02
-3.147049993276596069e-02
-5.818267818540334702e-03
-2.230232022702693939e-02
1.166426576673984528e-02
-2.340165898203849792e-03
1.182081084698438644e-02
2.912436984479427338e-02
-1.772798248566687107e-03
-2.372035384178161621e-02
1.023785118013620377e-02
-3.735906910151243210e-03
6.794549524784088135e-03
1.918976008892059326e-02
-2.756694518029689789e-02
2.327453531324863434e-02
1.908755162730813026e-03
9.083797223865985870e-03
1.956262812018394470e-02
1.045333221554756165e-02
