# (10, 32)
-1.556832641363143921e-01
-8.000349253416061401e-02
1.919418200850486755e-02
-1.438420638442039490e-02
-3.619527518749237061e-01
2.546264827251434326e-01
-1.076539382338523865e-01
-1.144635975360870361e-01
-2.514456212520599365e-01
1.517546325922012329e-01
-4.308065176010131836e-01
-2.083929330110549927e-01
-2.863098084926605225e-01
-2.468030601739883423e-01
5.716438591480255127e-02
-1.145085319876670837e-01
-2.111701518297195435e-01
-2.307606488466262817e-01
1.276712864637374878e-01
-3.033604621887207031e-01
1.865353062748908997e-02
-3.230353891849517822e-01
1.977244764566421509e-01
-3.845340386033058167e-02
-9.151365607976913452e-02
1.086265444755554199e-01
1.575379222631454468e-01
1.583386510610580444e-01
-5.957369133830070496e-02
1.762867867946624756e-01
2.577117085456848145e-01
1.493901666253805161e-02
-9.932523965835571289e-02
5.830429494380950928e-02
3.519630432128906250e-02
-8.988483995199203491e-02
1.576888561248779297e-01
1.666588634252548218e-01
-4.034763574600219727e-02
-1.233116239309310913e-01
9.499815851449966431e-02
-2.341581583023071289e-01
1.937076747417449951e-01
-3.706520199775695801e-01
1.487846523523330688e-01
-1.821445673704147339e-01
-2.702823579311370850e-01
3.567991778254508972e-02
2.039480023086071014e-02
2.164392024278640747e-01
-5.998063459992408752e-02
1.635790765285491943e-01
-2.249832730740308762e-03
1.910258084535598755e-01
-1.873557418584823608e-01
1.168718859553337097e-01
-1.537503898143768311e-01
-2.625672817230224609e-01
1.597096771001815796e-01
-3.626482561230659485e-02
-6.578170508146286011e-02
-3.773075938224792480e-01
2.309688627719879150e-01
-4.882193356752395630e-02
-2.659109793603420258e-02
9.508905559778213501e-02
-8.933249115943908691e-02
-8.114445209503173828e-02
-1.991918385028839111e-01
-1.814890056848526001e-01
-2.434996515512466431e-01
7.458805292844772339e-02
1.387078613042831421e-01
2.742055803537368774e-02
-1.951465308666229248e-01
-2.030296325683593750e-01
1.763624250888824463e-01
2.123181223869323730e-01
-1.322931051254272461e-01
-3.016342595219612122e-02
8.439100533723831177e-02
-2.510978877544403076e-01
7.135925441980361938e-02
1.348344683647155762e-01
-1.136793047189712524e-01
-7.829657942056655884e-02
1.165776848793029785e-01
2.157936431467533112e-02
2.453794889152050018e-02
-2.637383937835693359e-01
-3.168681263923645020e-02
-1.265788078308105469e-01
7.247152179479598999e-02
9.096404165029525757e-02
2.460601776838302612e-01
5.200675874948501587e-02
1.235089227557182312e-01
-2.800789102911949158e-02
1.030048653483390808e-01
1.317712068557739258e-01
-1.998549550771713257e-01
-5.384935811161994934e-02
-8.301770687103271484e-02
1.295221149921417236e-01
-2.282433658838272095e-01
-2.061111032962799072e-01
2.312013804912567139e-01
-8.518859744071960449e-02
2.106890231370925903e-01
2.657834887504577637e-01
1.067558526992797852e-01
7.000669091939926147e-02
9.008789062500000000e-02
-2.204738110303878784e-01
-3.753964323550462723e-03
-1.746406704187393188e-01
9.201925992965698242e-02
-1.746235787868499756e-01
-3.084524869918823242e-01
3.906024619936943054e-02
5.256242584437131882e-03
5.678299441933631897e-02
6.015780568122863770e-02
1.688702106475830078e-01
-9.752465784549713135e-02
-1.831143349409103394e-01
-1.486188173294067383e-01
-1.370483189821243286e-01
-4.895449429750442505e-02
-7.961732149124145508e-02
7.546442747116088867e-02
2.737160399556159973e-02
2.172356992959976196e-01
-1.721992194652557373e-01
-2.549054026603698730e-01
-4.573283195495605469e-01
1.392772495746612549e-01
1.654155254364013672e-01
2.358065694570541382e-01
1.200512349605560303e-01
-3.146619200706481934e-01
-2.804759889841079712e-03
-2.926470339298248291e-01
-7.722284644842147827e-02
-2.561519443988800049e-01
-7.050674408674240112e-02
-1.422305554151535034e-01
1.330522745847702026e-01
-1.584206521511077881e-02
2.424865514039993286e-01
1.641670763492584229e-01
2.467094548046588898e-02
-3.232913836836814880e-02
1.557193696498870850e-02
1.565108895301818848e-01
1.357963830232620239e-01
-1.673139333724975586e-01
-2.649454772472381592e-01
-1.074229702353477478e-01
9.478903561830520630e-02
1.390177905559539795e-01
1.620431393384933472e-01
-6.271902471780776978e-02
3.380787000060081482e-02
1.170248910784721375e-01
1.804548949003219604e-01
1.489454507827758789e-01
1.089975088834762573e-01
-1.613940596580505371e-01
-1.927974224090576172e-01
-1.876788884401321411e-01
1.823412030935287476e-01
1.864679157733917236e-01
4.318678285926580429e-03
8.587273210287094116e-02
-5.825624614953994751e-02
-3.323199450969696045e-01
-2.206463664770126343e-01
-5.636637099087238312e-03
-2.717273533344268799e-01
-1.380202919244766235e-01
2.400637120008468628e-01
-2.245137542486190796e-01
-6.580108311027288437e-03
1.658073216676712036e-01
8.509796857833862305e-02
-7.295500487089157104e-03
1.406659483909606934e-01
1.010614559054374695e-01
-1.494525820016860962e-01
-1.579047739505767822e-01
-1.767510473728179932e-01
1.133514344692230225e-01
1.067845076322555542e-01
3.535494580864906311e-02
-1.139696873724460602e-02
-2.828781306743621826e-01
2.155402600765228271e-01
1.685362160205841064e-01
-4.070675075054168701e-01
6.092066690325737000e-02
-2.703134715557098389e-01
-2.744261324405670166e-01
1.796430796384811401e-01
-3.896531462669372559e-02
2.072750627994537354e-01
-2.360528409481048584e-01
1.372016966342926025e-01
-4.921296238899230957e-01
2.086692899465560913e-01
-1.953541301190853119e-02
7.428310811519622803e-02
-8.590305596590042114e-02
-2.810561954975128174e-01
1.641554832458496094e-01
-5.181284993886947632e-02
-1.377252340316772461e-01
9.704223275184631348e-02
4.768157005310058594e-02
-4.971459135413169861e-02
-9.404236078262329102e-02
-4.869056865572929382e-02
-1.538645941764116287e-02
1.496959775686264038e-01
-2.831654623150825500e-02
-1.513306796550750732e-01
-1.090885624289512634e-01
-1.640991568565368652e-01
-6.100925430655479431e-02
-2.666788697242736816e-01
-3.913892507553100586e-01
8.015809208154678345e-02
-3.317201510071754456e-02
1.532042473554611206e-01
1.770287156105041504e-01
-1.873894035816192627e-01
-1.449188590049743652e-01
5.028550326824188232e-02
8.164568990468978882e-02
-2.386640012264251709e-02
9.026430547237396240e-02
1.788662970066070557e-01
2.793286181986331940e-02
1.727916747331619263e-01
-1.448474526405334473e-01
2.617931365966796875e-01
-2.116486132144927979e-01
8.396594226360321045e-02
-1.687412336468696594e-02
-3.734744489192962646e-01
8.036150038242340088e-02
-1.658433079719543457e-01
1.157438382506370544e-01
1.240390911698341370e-01
-1.553770750761032104e-01
-5.536075681447982788e-02
1.093250885605812073e-01
3.516906872391700745e-02
5.759038776159286499e-02
-1.038592159748077393e-01
1.405509263277053833e-01
-8.918060921132564545e-03
1.854549199342727661e-01
-2.355365306138992310e-01
1.396682411432266235e-01
1.401445418596267700e-01
-1.769982427358627319e-01
6.938835233449935913e-02
1.689169704914093018e-01
-9.424943476915359497e-02
-2.429409176111221313e-01
3.240846097469329834e-02
9.498281776905059814e-02
-2.416795343160629272e-01
-8.701616525650024414e-02
-2.542616426944732666e-01
-9.593006968498229980e-02
-1.961541771888732910e-01
-1.413278281688690186e-01
-1.870266720652580261e-02
-7.288917899131774902e-02
8.485650271177291870e-02
-7.937207818031311035e-02
-1.611699350178241730e-02
-7.203781604766845703e-02
1.447724103927612305e-01
-1.124697253108024597e-01
3.099045529961585999e-02
6.775655597448348999e-02
-4.112560302019119263e-03
1.292848438024520874e-01
5.690453574061393738e-02
2.168973833322525024e-01
-9.979929774999618530e-02
-2.194527983665466309e-01
-8.627195656299591064e-02
-2.130126059055328369e-01
2.056719213724136353e-01
3.436147794127464294e-02
2.168066501617431641e-01
-1.377915684133768082e-02
-5.036706924438476562e-01
1.187236160039901733e-01
7.284194231033325195e-02
1.020066440105438232e-01
-1.515609622001647949e-01
9.085994213819503784e-02
-1.320474445819854736e-01
-7.649548351764678955e-02
-5.325363203883171082e-02
7.511745393276214600e-02
-1.665093749761581421e-01
-1.708055734634399414e-01
-2.120160460472106934e-01
1.624463349580764771e-01
-3.844126313924789429e-02
6.935146450996398926e-02
-1.531819999217987061e-01
-1.997884213924407959e-01
9.257715940475463867e-02
