# (10, 32)
-2.608805298805236816e-01
9.820877015590667725e-02
-8.426945656538009644e-02
-8.378729224205017090e-03
-1.692441403865814209e-01
-1.503680199384689331e-01
-4.181170463562011719e-01
1.440158933401107788e-01
-1.882507801055908203e-01
7.282393425703048706e-02
-1.346782445907592773e-01
-2.718927860260009766e-01
7.095458358526229858e-02
-3.010025620460510254e-01
1.132031232118606567e-01
-1.167681440711021423e-01
-3.281778991222381592e-01
-3.510731458663940430e-01
1.960703283548355103e-01
-4.379116296768188477e-01
2.465896308422088623e-02
-3.059178590774536133e-01
2.718102037906646729e-01
-4.640088975429534912e-02
-5.118418335914611816e-01
1.717486530542373657e-01
1.577169448137283325e-01
1.583392471075057983e-01
-1.520624160766601562e-01
2.351134717464447021e-01
1.364345550537109375e-01
2.931019756942987442e-03
-3.758751451969146729e-01
2.002517282962799072e-01
1.529899835586547852e-01
-8.988236635923385620e-02
3.100424706935882568e-01
3.332496583461761475e-01
-2.849899232387542725e-01
8.555404096841812134e-02
1.822200864553451538e-01
-1.548755317926406860e-01
1.222968399524688721e-01
-3.028247356414794922e-01
1.189963892102241516e-01
-2.963526844978332520e-01
-2.190741598606109619e-01
3.568005934357643127e-02
5.636892095208168030e-02
2.120227366685867310e-01
-2.045925706624984741e-01
1.344160288572311401e-01
-2.250038087368011475e-03
1.820115298032760620e-01
-1.901022046804428101e-01
1.195914819836616516e-01
-1.727662831544876099e-01
-1.506005823612213135e-01
1.605987548828125000e-01
-3.626470640301704407e-02
-2.724641859531402588e-01
-4.106591939926147461e-01
2.961653769016265869e-01
-3.681310266256332397e-02
-1.775655448436737061e-01
6.959787756204605103e-02
-3.329821228981018066e-01
-9.315483272075653076e-02
-2.267982959747314453e-01
-1.148684397339820862e-01
-2.922344207763671875e-01
7.888428121805191040e-02
1.711778938770294189e-01
9.062448143959045410e-02
-1.375020295381546021e-01
-1.992538012564182281e-02
1.306587159633636475e-01
2.653724551200866699e-01
-2.941406965255737305e-01
-3.016369417309761047e-02
1.137643679976463318e-01
-2.213629484176635742e-01
1.272974610328674316e-01
1.864456236362457275e-01
-1.256884187459945679e-01
-2.603420615196228027e-01
1.697114408016204834e-01
2.728931792080402374e-02
1.792590916156768799e-01
-1.874459385871887207e-01
-3.690750151872634888e-02
-1.265790015459060669e-01
-1.749248802661895752e-01
9.648136794567108154e-03
3.305520713329315186e-01
5.200696736574172974e-02
2.198732942342758179e-01
-2.774899005889892578e-01
1.549061536788940430e-01
1.317714452743530273e-01
-2.159691452980041504e-01
2.835951447486877441e-01
-2.277538776397705078e-01
1.078179776668548584e-01
-1.463256031274795532e-01
-1.381759494543075562e-01
1.253865212202072144e-01
-1.359038949012756348e-01
1.599462628364562988e-01
2.096534371376037598e-01
-4.360916465520858765e-02
7.000654935836791992e-02
9.512130916118621826e-02
-4.678176641464233398e-01
9.380996227264404297e-02
8.763512223958969116e-02
9.201941639184951782e-02
2.347394078969955444e-01
-3.445428907871246338e-01
3.978222608566284180e-02
1.972467154264450073e-01
5.510687455534934998e-02
6.031698361039161682e-02
1.688708364963531494e-01
-9.727601706981658936e-02
-3.448834419250488281e-01
-1.350200921297073364e-01
-1.370481848716735840e-01
-2.474681884050369263e-01
-1.812998354434967041e-01
2.954361736774444580e-01
1.536117866635322571e-02
1.374964714050292969e-01
-3.008229434490203857e-01
3.116544187068939209e-01
-6.574758887290954590e-01
1.117571145296096802e-01
8.409503102302551270e-02
1.172192245721817017e-01
4.211518447846174240e-03
1.132382452487945557e-01
-2.930007874965667725e-01
2.022247165441513062e-01
-7.722260802984237671e-02
-1.817840337753295898e-01
3.128313720226287842e-01
-3.448570370674133301e-01
2.747024297714233398e-01
-1.584148779511451721e-02
-2.269597649574279785e-01
2.165405154228210449e-01
1.561702881008386612e-02
-4.457173347473144531e-01
-4.562957584857940674e-01
1.480291187763214111e-01
1.237872093915939331e-01
-1.354711502790451050e-01
-2.985303699970245361e-01
-1.883970350027084351e-01
9.478927403688430786e-02
2.409420460462570190e-01
1.853021830320358276e-01
-1.311338245868682861e-01
3.380797058343887329e-02
1.951027512550354004e-01
1.124632358551025391e-01
1.853906363248825073e-01
5.353979021310806274e-02
-3.133172094821929932e-01
7.685435563325881958e-02
-1.407263725996017456e-01
2.259624302387237549e-01
9.913554787635803223e-02
-2.079478800296783447e-01
-1.337576508522033691e-01
-4.624833911657333374e-02
-3.335016071796417236e-01
-2.364389598369598389e-01
-2.296117395162582397e-01
-1.479089111089706421e-01
-1.380199342966079712e-01
2.694151103496551514e-01
-2.478763312101364136e-01
-5.520041566342115402e-03
1.879468560218811035e-01
1.145394444465637207e-01
-7.154390215873718262e-03
1.406661421060562134e-01
2.007864862680435181e-01
-8.541007339954376221e-02
-9.769017994403839111e-02
-1.767506599426269531e-01
1.959062963724136353e-01
2.388225793838500977e-01
-2.693442106246948242e-01
-2.340646833181381226e-02
-1.739421486854553223e-01
3.496458530426025391e-01
-2.155546844005584717e-01
-3.155372142791748047e-01
-3.249227404594421387e-01
-9.677742421627044678e-02
1.089577898383140564e-01
2.488640248775482178e-01
-6.853785365819931030e-02
1.622775048017501831e-01
1.402456127107143402e-02
1.370292305946350098e-01
-6.456205844879150391e-01
2.007256597280502319e-01
-2.927698194980621338e-01
1.661236137151718140e-01
-8.590321987867355347e-02
-4.562036395072937012e-01
1.659653335809707642e-01
-5.376036837697029114e-02
-3.096144199371337891e-01
1.515931040048599243e-01
4.870769008994102478e-02
-4.971472546458244324e-02
-5.123466253280639648e-01
1.399576961994171143e-01
-7.325447350740432739e-02
1.496959328651428223e-01
-3.744321763515472412e-01
-5.132699608802795410e-01
-2.527214884757995605e-01
-1.761074364185333252e-01
-1.050388514995574951e-01
-1.006099060177803040e-01
-3.032586872577667236e-01
2.352275699377059937e-02
1.758354008197784424e-01
1.114460453391075134e-01
1.663835495710372925e-01
-3.566714525222778320e-01
-1.107365936040878296e-01
1.531998813152313232e-01
1.367830038070678711e-01
-2.398929372429847717e-02
1.624311506748199463e-01
2.062752842903137207e-01
1.340174376964569092e-01
1.453936547040939331e-01
-1.448433250188827515e-01
2.859339118003845215e-01
-3.568394184112548828e-01
8.598759770393371582e-02
-1.709666997194290161e-01
-4.682762920856475830e-01
8.907578885555267334e-02
-1.778450459241867065e-01
2.420985251665115356e-01
1.562005281448364258e-01
-2.604251503944396973e-01
-6.737095117568969727e-02
1.695674806833267212e-01
1.255433410406112671e-01
2.012367397546768188e-01
-1.038594469428062439e-01
2.606143951416015625e-01
-1.735115796327590942e-01
1.842478960752487183e-01
-2.092723846435546875e-01
1.593419611454010010e-01
1.096863448619842529e-01
3.790355846285820007e-02
8.892854303121566772e-02
3.552738204598426819e-02
1.920268982648849487e-01
-2.738199234008789062e-01
3.240880370140075684e-02
7.861983031034469604e-02
-2.055225670337677002e-01
7.751153409481048584e-02
-2.873214483261108398e-01
-9.592978656291961670e-02
-1.229463815689086914e-01
8.584616333246231079e-02
-7.426178082823753357e-03
-1.158167943358421326e-01
1.047860756516456604e-01
-7.830800861120223999e-02
-1.611674390733242035e-02
-1.986333429813385010e-01
1.540225297212600708e-01
-1.148663237690925598e-01
4.300043359398841858e-02
1.897496432065963745e-01
-3.900819122791290283e-01
2.552016377449035645e-01
5.690500140190124512e-02
-1.285926848649978638e-01
-2.456100285053253174e-01
1.618891209363937378e-01
-1.939324736595153809e-01
-3.474992513656616211e-01
1.490237712860107422e-01
-6.731545180082321167e-02
3.106208443641662598e-01
5.523747950792312622e-02
-4.629279375076293945e-01
1.634718775749206543e-01
7.284209877252578735e-02
1.590890586376190186e-01
-1.906543076038360596e-01
1.551120281219482422e-01
-4.202644228935241699e-01
-7.649522274732589722e-02
-9.114894270896911621e-02
3.389820922166109085e-04
-1.671736985445022583e-01
-3.030319809913635254e-01
-1.852472722530364990e-01
1.627237051725387573e-01
-2.643073908984661102e-02
2.800203561782836914e-01
-3.064617216587066650e-01
-3.797258734703063965e-01
9.257730841636657715e-02
